FANN_FLO_2.1
num_layers=5
learning_rate=0.700000
connection_rate=1.000000
network_type=0
learning_momentum=0.000000
training_algorithm=2
train_error_function=1
train_stop_function=0
cascade_output_change_fraction=0.010000
quickprop_decay=-0.000100
quickprop_mu=1.750000
rprop_increase_factor=1.200000
rprop_decrease_factor=0.500000
rprop_delta_min=0.000000
rprop_delta_max=50.000000
rprop_delta_zero=0.100000
cascade_output_stagnation_epochs=12
cascade_candidate_change_fraction=0.010000
cascade_candidate_stagnation_epochs=12
cascade_max_out_epochs=150
cascade_max_cand_epochs=150
cascade_num_candidate_groups=2
bit_fail_limit=3.49999994039535522461e-01
cascade_candidate_limit=1.00000000000000000000e+03
cascade_weight_multiplier=4.00000005960464477539e-01
cascade_activation_functions_count=10
cascade_activation_functions=3 5 7 8 10 11 14 15 16 17 
cascade_activation_steepnesses_count=4
cascade_activation_steepnesses=2.50000000000000000000e-01 5.00000000000000000000e-01 7.50000000000000000000e-01 1.00000000000000000000e+00 
layer_sizes=31 35 41 48 55 
scale_included=0
neurons (num_inputs, activation_function, activation_steepness)=(0, 0, 0.00000000000000000000e+00) (0, 0, 0.00000000000000000000e+00) (0, 0, 0.00000000000000000000e+00) (0, 0, 0.00000000000000000000e+00) (0, 0, 0.00000000000000000000e+00) (0, 0, 0.00000000000000000000e+00) (0, 0, 0.00000000000000000000e+00) (0, 0, 0.00000000000000000000e+00) (0, 0, 0.00000000000000000000e+00) (0, 0, 0.00000000000000000000e+00) (0, 0, 0.00000000000000000000e+00) (0, 0, 0.00000000000000000000e+00) (0, 0, 0.00000000000000000000e+00) (0, 0, 0.00000000000000000000e+00) (0, 0, 0.00000000000000000000e+00) (0, 0, 0.00000000000000000000e+00) (0, 0, 0.00000000000000000000e+00) (0, 0, 0.00000000000000000000e+00) (0, 0, 0.00000000000000000000e+00) (0, 0, 0.00000000000000000000e+00) (0, 0, 0.00000000000000000000e+00) (0, 0, 0.00000000000000000000e+00) (0, 0, 0.00000000000000000000e+00) (0, 0, 0.00000000000000000000e+00) (0, 0, 0.00000000000000000000e+00) (0, 0, 0.00000000000000000000e+00) (0, 0, 0.00000000000000000000e+00) (0, 0, 0.00000000000000000000e+00) (0, 0, 0.00000000000000000000e+00) (0, 0, 0.00000000000000000000e+00) (0, 0, 0.00000000000000000000e+00) (31, 5, 5.00000000000000000000e-01) (31, 5, 5.00000000000000000000e-01) (31, 5, 5.00000000000000000000e-01) (31, 5, 5.00000000000000000000e-01) (31, 5, 5.00000000000000000000e-01) (31, 5, 5.00000000000000000000e-01) (31, 5, 5.00000000000000000000e-01) (31, 5, 5.00000000000000000000e-01) (31, 5, 5.00000000000000000000e-01) (31, 5, 5.00000000000000000000e-01) (31, 5, 5.00000000000000000000e-01) (31, 5, 5.00000000000000000000e-01) (31, 5, 5.00000000000000000000e-01) (31, 5, 5.00000000000000000000e-01) (31, 5, 5.00000000000000000000e-01) (31, 5, 5.00000000000000000000e-01) (31, 5, 5.00000000000000000000e-01) (31, 5, 5.00000000000000000000e-01) (31, 5, 5.00000000000000000000e-01) (31, 5, 5.00000000000000000000e-01) (31, 5, 5.00000000000000000000e-01) (31, 5, 5.00000000000000000000e-01) (31, 5, 5.00000000000000000000e-01) (31, 5, 5.00000000000000000000e-01) (31, 5, 5.00000000000000000000e-01) (31, 5, 5.00000000000000000000e-01) (31, 5, 5.00000000000000000000e-01) (31, 5, 5.00000000000000000000e-01) (31, 5, 5.00000000000000000000e-01) (31, 5, 5.00000000000000000000e-01) (31, 5, 5.00000000000000000000e-01) (31, 5, 5.00000000000000000000e-01) (31, 5, 5.00000000000000000000e-01) (31, 5, 5.00000000000000000000e-01) (0, 5, 0.00000000000000000000e+00) (35, 5, 5.00000000000000000000e-01) (35, 5, 5.00000000000000000000e-01) (35, 5, 5.00000000000000000000e-01) (35, 5, 5.00000000000000000000e-01) (35, 5, 5.00000000000000000000e-01) (35, 5, 5.00000000000000000000e-01) (35, 5, 5.00000000000000000000e-01) (35, 5, 5.00000000000000000000e-01) (35, 5, 5.00000000000000000000e-01) (35, 5, 5.00000000000000000000e-01) (35, 5, 5.00000000000000000000e-01) (35, 5, 5.00000000000000000000e-01) (35, 5, 5.00000000000000000000e-01) (35, 5, 5.00000000000000000000e-01) (35, 5, 5.00000000000000000000e-01) (35, 5, 5.00000000000000000000e-01) (35, 5, 5.00000000000000000000e-01) (35, 5, 5.00000000000000000000e-01) (35, 5, 5.00000000000000000000e-01) (35, 5, 5.00000000000000000000e-01) (35, 5, 5.00000000000000000000e-01) (35, 5, 5.00000000000000000000e-01) (35, 5, 5.00000000000000000000e-01) (35, 5, 5.00000000000000000000e-01) (35, 5, 5.00000000000000000000e-01) (35, 5, 5.00000000000000000000e-01) (35, 5, 5.00000000000000000000e-01) (35, 5, 5.00000000000000000000e-01) (35, 5, 5.00000000000000000000e-01) (35, 5, 5.00000000000000000000e-01) (35, 5, 5.00000000000000000000e-01) (35, 5, 5.00000000000000000000e-01) (35, 5, 5.00000000000000000000e-01) (35, 5, 5.00000000000000000000e-01) (35, 5, 5.00000000000000000000e-01) (35, 5, 5.00000000000000000000e-01) (35, 5, 5.00000000000000000000e-01) (35, 5, 5.00000000000000000000e-01) (35, 5, 5.00000000000000000000e-01) (35, 5, 5.00000000000000000000e-01) (0, 5, 0.00000000000000000000e+00) (41, 5, 5.00000000000000000000e-01) (41, 5, 5.00000000000000000000e-01) (41, 5, 5.00000000000000000000e-01) (41, 5, 5.00000000000000000000e-01) (41, 5, 5.00000000000000000000e-01) (41, 5, 5.00000000000000000000e-01) (41, 5, 5.00000000000000000000e-01) (41, 5, 5.00000000000000000000e-01) (41, 5, 5.00000000000000000000e-01) (41, 5, 5.00000000000000000000e-01) (41, 5, 5.00000000000000000000e-01) (41, 5, 5.00000000000000000000e-01) (41, 5, 5.00000000000000000000e-01) (41, 5, 5.00000000000000000000e-01) (41, 5, 5.00000000000000000000e-01) (41, 5, 5.00000000000000000000e-01) (41, 5, 5.00000000000000000000e-01) (41, 5, 5.00000000000000000000e-01) (41, 5, 5.00000000000000000000e-01) (41, 5, 5.00000000000000000000e-01) (41, 5, 5.00000000000000000000e-01) (41, 5, 5.00000000000000000000e-01) (41, 5, 5.00000000000000000000e-01) (41, 5, 5.00000000000000000000e-01) (41, 5, 5.00000000000000000000e-01) (41, 5, 5.00000000000000000000e-01) (41, 5, 5.00000000000000000000e-01) (41, 5, 5.00000000000000000000e-01) (41, 5, 5.00000000000000000000e-01) (41, 5, 5.00000000000000000000e-01) (41, 5, 5.00000000000000000000e-01) (41, 5, 5.00000000000000000000e-01) (41, 5, 5.00000000000000000000e-01) (41, 5, 5.00000000000000000000e-01) (41, 5, 5.00000000000000000000e-01) (41, 5, 5.00000000000000000000e-01) (41, 5, 5.00000000000000000000e-01) (41, 5, 5.00000000000000000000e-01) (41, 5, 5.00000000000000000000e-01) (41, 5, 5.00000000000000000000e-01) (41, 5, 5.00000000000000000000e-01) (41, 5, 5.00000000000000000000e-01) (41, 5, 5.00000000000000000000e-01) (41, 5, 5.00000000000000000000e-01) (41, 5, 5.00000000000000000000e-01) (41, 5, 5.00000000000000000000e-01) (41, 5, 5.00000000000000000000e-01) (0, 5, 0.00000000000000000000e+00) (48, 5, 2.39999994635581970215e-01) (48, 5, 2.39999994635581970215e-01) (48, 5, 2.39999994635581970215e-01) (48, 5, 2.39999994635581970215e-01) (48, 5, 2.39999994635581970215e-01) (48, 5, 2.39999994635581970215e-01) (48, 5, 2.39999994635581970215e-01) (48, 5, 2.39999994635581970215e-01) (48, 5, 2.39999994635581970215e-01) (48, 5, 2.39999994635581970215e-01) (48, 5, 2.39999994635581970215e-01) (48, 5, 2.39999994635581970215e-01) (48, 5, 2.39999994635581970215e-01) (48, 5, 2.39999994635581970215e-01) (48, 5, 2.39999994635581970215e-01) (48, 5, 2.39999994635581970215e-01) (48, 5, 2.39999994635581970215e-01) (48, 5, 2.39999994635581970215e-01) (48, 5, 2.39999994635581970215e-01) (48, 5, 2.39999994635581970215e-01) (48, 5, 2.39999994635581970215e-01) (48, 5, 2.39999994635581970215e-01) (48, 5, 2.39999994635581970215e-01) (48, 5, 2.39999994635581970215e-01) (48, 5, 2.39999994635581970215e-01) (48, 5, 2.39999994635581970215e-01) (48, 5, 2.39999994635581970215e-01) (48, 5, 2.39999994635581970215e-01) (48, 5, 2.39999994635581970215e-01) (48, 5, 2.39999994635581970215e-01) (48, 5, 2.39999994635581970215e-01) (48, 5, 2.39999994635581970215e-01) (48, 5, 2.39999994635581970215e-01) (48, 5, 2.39999994635581970215e-01) (48, 5, 2.39999994635581970215e-01) (48, 5, 2.39999994635581970215e-01) (48, 5, 2.39999994635581970215e-01) (48, 5, 2.39999994635581970215e-01) (48, 5, 2.39999994635581970215e-01) (48, 5, 2.39999994635581970215e-01) (48, 5, 2.39999994635581970215e-01) (48, 5, 2.39999994635581970215e-01) (48, 5, 2.39999994635581970215e-01) (48, 5, 2.39999994635581970215e-01) (48, 5, 2.39999994635581970215e-01) (48, 5, 2.39999994635581970215e-01) (48, 5, 2.39999994635581970215e-01) (48, 5, 2.39999994635581970215e-01) (48, 5, 2.39999994635581970215e-01) (48, 5, 2.39999994635581970215e-01) (48, 5, 2.39999994635581970215e-01) (48, 5, 2.39999994635581970215e-01) (48, 5, 2.39999994635581970215e-01) (48, 5, 2.39999994635581970215e-01) (0, 5, 2.39999994635581970215e-01) 
connections (connected_to_neuron, weight)=(0, 1.04490256309509277344e+00) (1, 1.00623834133148193359e+00) (2, 8.93311381340026855469e-01) (3, 9.64064300060272216797e-01) (4, 9.49789941310882568359e-01) (5, 9.60727751255035400391e-01) (6, 9.29791867733001708984e-01) (7, 9.66330111026763916016e-01) (8, 6.14604949951171875000e-01) (9, 7.35660195350646972656e-01) (10, 1.04503202438354492188e+00) (11, 8.98800730705261230469e-01) (12, 7.74894535541534423828e-01) (13, 1.04805338382720947266e+00) (14, 9.86657559871673583984e-01) (15, 5.68597137928009033203e-01) (16, 2.03805708885192871094e+00) (17, 2.34938311576843261719e+00) (18, 1.20020425319671630859e+00) (19, -3.17830368876457214355e-02) (20, 2.31951904296875000000e+00) (21, 1.09813165664672851562e+00) (22, 1.70161843299865722656e+00) (23, 3.34740614891052246094e+00) (24, 1.22106182575225830078e+00) (25, 9.86401677131652832031e-01) (26, 8.83338153362274169922e-01) (27, 9.90642011165618896484e-01) (28, 9.43133831024169921875e-01) (29, 1.14073622226715087891e+00) (30, 6.78940892219543457031e-01) (0, 8.08150589466094970703e-01) (1, 6.64947688579559326172e-01) (2, 6.50468587875366210938e-01) (3, 7.40786433219909667969e-01) (4, 7.48041689395904541016e-01) (5, 6.33792102336883544922e-01) (6, 6.76257789134979248047e-01) (7, 6.42518460750579833984e-01) (8, 7.84896969795227050781e-01) (9, 7.25579917430877685547e-01) (10, 6.91561639308929443359e-01) (11, 7.21781969070434570312e-01) (12, 4.86619532108306884766e-01) (13, 5.99420905113220214844e-01) (14, 8.52961778640747070312e-01) (15, -7.27699816226959228516e-01) (16, 1.67747819423675537109e+00) (17, 1.78570365905761718750e+00) (18, -2.46588301658630371094e+00) (19, -2.58807921409606933594e+00) (20, -1.24638797715306282043e-02) (21, 8.82608532905578613281e-01) (22, 8.04259479045867919922e-01) (23, 1.21187508106231689453e+00) (24, 9.81445491313934326172e-01) (25, 1.25793015956878662109e+00) (26, 6.24189019203186035156e-01) (27, 1.12611269950866699219e+00) (28, 1.20835387706756591797e+00) (29, 1.22023749351501464844e+00) (30, 1.52619779109954833984e+00) (0, 2.02042531967163085938e+00) (1, 2.00172162055969238281e+00) (2, 1.97468900680541992188e+00) (3, 1.73763024806976318359e+00) (4, 1.68865585327148437500e+00) (5, 1.68898677825927734375e+00) (6, 1.59265315532684326172e+00) (7, 1.68592417240142822266e+00) (8, 1.41160750389099121094e+00) (9, 1.76965069770812988281e+00) (10, 1.67894470691680908203e+00) (11, 1.64059710502624511719e+00) (12, 1.51434040069580078125e+00) (13, 2.57209253311157226562e+00) (14, 1.14668183028697967529e-01) (15, -1.43669438362121582031e+00) (16, -3.23088049888610839844e+00) (17, -4.91732656955718994141e-01) (18, -1.83700311183929443359e+00) (19, -1.03573179244995117188e+00) (20, 4.20282936096191406250e+00) (21, -3.62598419189453125000e-01) (22, 6.35071468353271484375e+00) (23, 8.18860113620758056641e-01) (24, 3.24073165655136108398e-01) (25, 1.00640118122100830078e+00) (26, 9.32277011871337890625e+00) (27, 7.67539739608764648438e-01) (28, 8.73697459697723388672e-01) (29, 4.90636825561523437500e+00) (30, 4.51764762401580810547e-01) (0, 1.27751278877258300781e+00) (1, 1.03075695037841796875e+00) (2, 1.16950047016143798828e+00) (3, 7.06485211849212646484e-01) (4, 9.35151755809783935547e-01) (5, 8.21494698524475097656e-01) (6, 7.45806872844696044922e-01) (7, 1.50246953964233398438e+00) (8, 1.10552096366882324219e+00) (9, -9.73820447921752929688e-01) (10, 1.37682855129241943359e+00) (11, 7.27905154228210449219e-01) (12, -3.00532728433609008789e-01) (13, 2.52453398704528808594e+00) (14, -1.10836994647979736328e+00) (15, 8.21093177795410156250e+00) (16, 4.72326707839965820312e+00) (17, 1.75150406360626220703e+00) (18, 9.99510824680328369141e-01) (19, 2.98940271139144897461e-01) (20, -1.60036408901214599609e+00) (21, 1.56628549098968505859e+00) (22, 1.27593374252319335938e+00) (23, -5.92912852764129638672e-01) (24, 1.02947402000427246094e+00) (25, -6.52591288089752197266e-02) (26, -1.80245864391326904297e+00) (27, 1.18632757663726806641e+00) (28, 1.40078663825988769531e+00) (29, 5.01015484333038330078e-01) (30, 1.34399116039276123047e+00) (0, 1.41931557655334472656e+00) (1, 1.43095695972442626953e+00) (2, 7.92192399501800537109e-01) (3, 1.31820476055145263672e+00) (4, 9.16241943836212158203e-01) (5, 9.89802241325378417969e-01) (6, 8.00505802035331726074e-02) (7, 7.30845689773559570312e-01) (8, 1.27723252773284912109e+00) (9, -4.92331683635711669922e-02) (10, 5.07441699504852294922e-01) (11, 3.84207510948181152344e+00) (12, -4.63698267936706542969e-01) (13, -1.39012837409973144531e+00) (14, -2.46693968772888183594e-01) (15, -1.46089668273925781250e+01) (16, 1.50172853469848632812e+01) (17, -1.10608708858489990234e+00) (18, -1.65068674087524414062e+00) (19, 1.31097048521041870117e-01) (20, -7.87486171722412109375e+00) (21, 1.20331156253814697266e+00) (22, 1.27590036392211914062e+00) (23, 4.69555807113647460938e+00) (24, 7.75756001472473144531e-01) (25, 9.20277595520019531250e-01) (26, 2.82363653182983398438e+00) (27, 7.58156657218933105469e-01) (28, 9.11465227603912353516e-01) (29, 2.72752791643142700195e-01) (30, 1.28894889354705810547e+00) (0, 1.66642534732818603516e+00) (1, 1.78250598907470703125e+00) (2, 1.74516320228576660156e+00) (3, 1.61497843265533447266e+00) (4, 1.75276052951812744141e+00) (5, 1.59286499023437500000e+00) (6, 1.35975480079650878906e+00) (7, 1.63401794433593750000e+00) (8, 2.77287197113037109375e+00) (9, 1.37176787853240966797e+00) (10, 1.19878435134887695312e+00) (11, 7.01943635940551757812e-01) (12, 3.14977020025253295898e-01) (13, 2.44477891921997070312e+00) (14, 4.81277036666870117188e+00) (15, -1.44473850727081298828e+00) (16, -5.72954356670379638672e-01) (17, -1.45497407913208007812e+01) (18, -2.09594173431396484375e+01) (19, -8.11240851879119873047e-01) (20, 7.31501579284667968750e+00) (21, -2.56229460239410400391e-01) (22, 8.73853302001953125000e+00) (23, 9.61483180522918701172e-01) (24, -1.57553970813751220703e-01) (25, 1.81816363334655761719e+00) (26, 1.76954257488250732422e+00) (27, -9.35769006609916687012e-02) (28, -1.44880367442965507507e-02) (29, 2.98891942948102951050e-02) (30, 1.04242630302906036377e-01) (0, -1.49992944335937500000e+03) (1, -1.49982946777343750000e+03) (2, -1.49992321777343750000e+03) (3, -1.49996752929687500000e+03) (4, -1.41730017089843750000e+03) (5, -1.49796228027343750000e+03) (6, -1.49997790527343750000e+03) (7, 1.42031945800781250000e+03) (8, 1.49987451171875000000e+03) (9, -1.49998205566406250000e+03) (10, 1.49976379394531250000e+03) (11, 1.49969580078125000000e+03) (12, -1.49998913574218750000e+03) (13, 6.33526550292968750000e+02) (14, 1.49988146972656250000e+03) (15, -1.49999816894531250000e+03) (16, 4.54716186523437500000e+02) (17, 9.26294677734375000000e+02) (18, -3.97606201171875000000e+02) (19, -1.26166931152343750000e+03) (20, 1.34277734375000000000e+03) (21, -1.49973217773437500000e+03) (22, -1.48122814941406250000e+03) (23, 1.49940209960937500000e+03) (24, -8.35387634277343750000e+02) (25, -1.23369165039062500000e+03) (26, 1.29777099609375000000e+03) (27, 2.48629455566406250000e+02) (28, 1.49603308105468750000e+03) (29, 1.35036499023437500000e+03) (30, 2.09284210205078125000e+02) (0, 2.86564302444458007812e+00) (1, 2.78420019149780273438e+00) (2, 1.62626254558563232422e+00) (3, 1.85106027126312255859e+00) (4, 1.93056476116180419922e+00) (5, 1.77392220497131347656e+00) (6, 1.57585847377777099609e+00) (7, 1.77988672256469726562e+00) (8, 3.01318192481994628906e+00) (9, 1.26131653785705566406e+00) (10, 1.59025681018829345703e+00) (11, 1.89733254909515380859e+00) (12, 1.31070625782012939453e+00) (13, 2.71590018272399902344e+00) (14, 2.68582057952880859375e+00) (15, 9.45921778678894042969e-01) (16, -1.12764520645141601562e+01) (17, 3.40817999839782714844e+00) (18, 4.79427146911621093750e+00) (19, 1.26844902038574218750e+01) (20, -1.96362934112548828125e+01) (21, -3.96857142448425292969e-01) (22, 5.12645430862903594971e-02) (23, 9.47213768959045410156e-01) (24, -2.88983941078186035156e-01) (25, 2.31008201837539672852e-01) (26, 6.84442639350891113281e-01) (27, -9.71679314970970153809e-02) (28, -5.75882345438003540039e-02) (29, -8.76430571079254150391e-02) (30, 7.65301510691642761230e-02) (0, 2.48304158449172973633e-01) (1, -8.97511001676321029663e-03) (2, -4.06216859817504882812e-01) (3, -6.64544180035591125488e-02) (4, 1.51910692453384399414e-01) (5, -6.22056946158409118652e-02) (6, -1.08458399772644042969e-02) (7, -3.30443471670150756836e-01) (8, -5.51060259342193603516e-01) (9, -3.76339524984359741211e-01) (10, 2.37635001540184020996e-01) (11, -1.15834519267082214355e-01) (12, -7.22601115703582763672e-02) (13, 1.72571808099746704102e-01) (14, -6.66560158133506774902e-02) (15, -3.58964741230010986328e-01) (16, 6.34255528450012207031e-01) (17, 1.86978742480278015137e-01) (18, 5.63374757766723632812e-01) (19, 2.15725421905517578125e+00) (20, 2.33119034767150878906e+00) (21, 3.61422181129455566406e-01) (22, -1.87143993377685546875e+00) (23, 2.07498955726623535156e+00) (24, 1.03410434722900390625e+00) (25, 7.24263608455657958984e-01) (26, -1.34045577049255371094e+00) (27, 1.01810359954833984375e+00) (28, 7.19658315181732177734e-01) (29, 1.01517164707183837891e+00) (30, 1.29868495464324951172e+00) (0, 5.25078892707824707031e-01) (1, 6.89170062541961669922e-01) (2, 6.54427170753479003906e-01) (3, 6.22155606746673583984e-01) (4, 7.26204097270965576172e-01) (5, 7.91569411754608154297e-01) (6, 5.97233951091766357422e-01) (7, 7.72447168827056884766e-01) (8, 9.44917261600494384766e-01) (9, 1.61937937140464782715e-01) (10, 4.15836453437805175781e-01) (11, 7.47272729873657226562e-01) (12, 4.61668938398361206055e-01) (13, 1.19989609718322753906e+00) (14, 1.10921144485473632812e+00) (15, -1.75914156436920166016e+00) (16, 7.86386311054229736328e-01) (17, 1.82853102684020996094e+00) (18, 5.66108286380767822266e-01) (19, -8.57298299670219421387e-02) (20, 2.13278919458389282227e-01) (21, 9.27763342857360839844e-01) (22, 1.50459253787994384766e+00) (23, 2.12329578399658203125e+00) (24, 1.26851725578308105469e+00) (25, 1.40491294860839843750e+00) (26, 8.43779504299163818359e-01) (27, 1.46335494518280029297e+00) (28, 1.57120823860168457031e+00) (29, 1.58454072475433349609e+00) (30, 1.52869141101837158203e+00) (0, 1.16639947891235351562e+00) (1, 1.05498015880584716797e+00) (2, 9.25264000892639160156e-01) (3, 9.56006884574890136719e-01) (4, 1.11859774589538574219e+00) (5, 1.23569071292877197266e+00) (6, 7.36411690711975097656e-01) (7, 1.14009535312652587891e+00) (8, 1.21855378150939941406e+00) (9, 7.31365263462066650391e-01) (10, 7.54267990589141845703e-01) (11, 1.09409081935882568359e+00) (12, -9.23999488353729248047e-01) (13, 4.48111861944198608398e-01) (14, 7.57350742816925048828e-01) (15, -4.75015449523925781250e+00) (16, 4.09037637710571289062e+00) (17, 7.62081861495971679688e-01) (18, 4.09384846687316894531e-01) (19, 1.39375686645507812500e-01) (20, -1.57752066850662231445e-01) (21, 1.10127985477447509766e+00) (22, 9.87800836563110351562e-01) (23, 6.15866839885711669922e-01) (24, 8.45973372459411621094e-01) (25, 1.15101480484008789062e+00) (26, 1.11365556716918945312e+00) (27, 1.03788089752197265625e+00) (28, 1.06397926807403564453e+00) (29, 1.13743209838867187500e+00) (30, 1.13551819324493408203e+00) (0, -1.21281671524047851562e+00) (1, -1.24671554565429687500e+00) (2, -1.18292069435119628906e+00) (3, -9.32689189910888671875e-01) (4, -7.66525745391845703125e-01) (5, -8.20710241794586181641e-01) (6, -1.05598278045654296875e+01) (7, -2.17661333084106445312e+00) (8, -1.38807761669158935547e+00) (9, -7.26986694335937500000e+02) (10, -1.61944561004638671875e+01) (11, -1.77130925655364990234e+00) (12, -5.02181182861328125000e+02) (13, -2.57416656494140625000e+02) (14, -8.46470260620117187500e+00) (15, -4.50125007629394531250e+01) (16, -3.50735565185546875000e+02) (17, -4.12730550765991210938e+00) (18, -8.20950865745544433594e-01) (19, 2.31931760907173156738e-01) (20, 2.60103168487548828125e+01) (21, 9.40367758274078369141e-01) (22, 3.19616317749023437500e-01) (23, -5.41293263435363769531e-01) (24, 1.69394826889038085938e+00) (25, 1.02835261821746826172e+00) (26, 4.59686508178710937500e+01) (27, 2.04554176330566406250e+00) (28, 1.81535947322845458984e+00) (29, 3.07987141609191894531e+00) (30, 2.79972767829895019531e+00) (0, 8.41460287570953369141e-01) (1, 5.56108772754669189453e-01) (2, 1.99923723936080932617e-01) (3, 1.30468785762786865234e+00) (4, 1.28147077560424804688e+00) (5, 1.46817827224731445312e+00) (6, 1.37948954105377197266e+00) (7, 1.56050300598144531250e+00) (8, 8.06348919868469238281e-01) (9, 1.36369490623474121094e+00) (10, 1.76827776432037353516e+00) (11, 2.11108827590942382812e+00) (12, 1.80337023735046386719e+00) (13, 8.23949098587036132812e-01) (14, 9.32016670703887939453e-01) (15, -1.86866939067840576172e+00) (16, 4.52110624313354492188e+00) (17, 2.00987148284912109375e+00) (18, 1.14040327072143554688e+00) (19, -2.98446565866470336914e-02) (20, 1.67760348320007324219e+00) (21, 1.40103340148925781250e+00) (22, 8.32168102264404296875e-01) (23, 4.42037642002105712891e-01) (24, 2.21195983886718750000e+00) (25, 1.32757365703582763672e+00) (26, 5.13902544975280761719e-01) (27, 1.33578455448150634766e+00) (28, 1.33076858520507812500e+00) (29, 1.38109028339385986328e+00) (30, 1.43715775012969970703e+00) (0, -1.49998437500000000000e+03) (1, -1.49998205566406250000e+03) (2, -1.49998278808593750000e+03) (3, -1.49998608398437500000e+03) (4, -1.49997753906250000000e+03) (5, -1.49998315429687500000e+03) (6, -1.49998730468750000000e+03) (7, -1.49984814453125000000e+03) (8, -1.44140966796875000000e+03) (9, -1.49998889160156250000e+03) (10, -1.49921374511718750000e+03) (11, -1.49838879394531250000e+03) (12, -1.49940417480468750000e+03) (13, -1.49793322753906250000e+03) (14, 6.57036315917968750000e+02) (15, -1.49995520019531250000e+03) (16, 1.20874072265625000000e+03) (17, 1.46792504882812500000e+03) (18, -1.29076171875000000000e+02) (19, -1.24049316406250000000e+03) (20, 1.34277734375000000000e+03) (21, -1.49987890625000000000e+03) (22, 1.36990893554687500000e+03) (23, 1.49956237792968750000e+03) (24, 7.98867082595825195312e+00) (25, -1.48566711425781250000e+03) (26, 9.93723205566406250000e+02) (27, 1.49992492675781250000e+03) (28, 1.49998596191406250000e+03) (29, 1.49998510742187500000e+03) (30, 1.49996215820312500000e+03) (0, 1.10955274105072021484e+00) (1, 1.11039793491363525391e+00) (2, 6.69877171516418457031e-01) (3, 7.83855617046356201172e-01) (4, 7.14326143264770507812e-01) (5, 1.50714069604873657227e-01) (6, 7.30600774288177490234e-01) (7, 7.60536313056945800781e-01) (8, 3.31706702709197998047e-01) (9, 7.90083944797515869141e-01) (10, 4.14252907037734985352e-01) (11, -1.26408183574676513672e+00) (12, 2.19555664062500000000e+00) (13, -2.64273494482040405273e-01) (14, 2.31383204460144042969e+00) (15, -4.99307537078857421875e+00) (16, 4.53489363193511962891e-01) (17, -1.29535317420959472656e-01) (18, -5.31938016414642333984e-01) (19, 3.25875490903854370117e-01) (20, 1.89009749889373779297e+00) (21, -4.82225775718688964844e-01) (22, 3.13976138830184936523e-01) (23, -2.27879270911216735840e-01) (24, 3.10865759849548339844e-01) (25, 1.08330719172954559326e-01) (26, 9.93667066097259521484e-01) (27, 4.69540208578109741211e-01) (28, 1.31084039807319641113e-01) (29, 5.98279356956481933594e-01) (30, 3.80669414997100830078e-01) (0, 1.52863144874572753906e+00) (1, 1.52135503292083740234e+00) (2, 1.59204316139221191406e+00) (3, 1.44262146949768066406e+00) (4, 6.34783625602722167969e-01) (5, 1.44134140014648437500e+00) (6, 2.65365809202194213867e-01) (7, 1.47242450714111328125e+00) (8, 1.73263239860534667969e+00) (9, 1.38303369283676147461e-01) (10, 1.22513318061828613281e+00) (11, 2.30749988555908203125e+00) (12, -3.14688205718994140625e-01) (13, 1.15961289405822753906e+00) (14, 1.72846579551696777344e+00) (15, 4.55851984024047851562e+00) (16, -4.05924797058105468750e+00) (17, 1.86988296508789062500e+01) (18, 3.27117705345153808594e+00) (19, -2.71905479431152343750e+01) (20, -2.46401041746139526367e-01) (21, 1.93002715706825256348e-01) (22, 1.56642711162567138672e+00) (23, 2.07892227172851562500e+00) (24, 2.52832800149917602539e-01) (25, 1.27254867553710937500e+00) (26, 3.26538848876953125000e+00) (27, 5.83514511585235595703e-01) (28, 1.21838200092315673828e+00) (29, 1.38022315502166748047e+00) (30, 7.41442561149597167969e-01) (0, 2.08457970619201660156e+00) (1, 2.00320315361022949219e+00) (2, 1.98818528652191162109e+00) (3, 1.91279542446136474609e+00) (4, 1.90127897262573242188e+00) (5, 1.99172782897949218750e+00) (6, 1.79762172698974609375e+00) (7, 2.09309506416320800781e+00) (8, 1.96128475666046142578e+00) (9, 1.34611833095550537109e+00) (10, 1.85263311862945556641e+00) (11, 1.98862838745117187500e+00) (12, 1.38221311569213867188e+00) (13, 1.47371399402618408203e+00) (14, 1.30349791049957275391e+00) (15, 3.26037478446960449219e+00) (16, -8.61371326446533203125e+00) (17, 6.40411734580993652344e-01) (18, 9.17645812034606933594e-01) (19, -8.55927753448486328125e+00) (20, -2.76624202728271484375e+00) (21, 4.68492269515991210938e-01) (22, 4.53758001327514648438e+00) (23, 1.54602646827697753906e+00) (24, 1.25786870718002319336e-01) (25, 4.12033110857009887695e-01) (26, -9.41998481750488281250e+00) (27, 5.90518340468406677246e-02) (28, 1.26971080899238586426e-01) (29, 1.52252718806266784668e-01) (30, 1.16870391368865966797e+00) (0, 9.09670770168304443359e-01) (1, 8.57070267200469970703e-01) (2, 1.11239194869995117188e+00) (3, 1.25677525997161865234e+00) (4, 1.39753663539886474609e+00) (5, 1.17974627017974853516e+00) (6, 1.27766513824462890625e+00) (7, -1.69054076075553894043e-01) (8, -4.88470673561096191406e-01) (9, 1.84200823307037353516e+00) (10, 2.09735441207885742188e+00) (11, -1.01650729775428771973e-01) (12, 1.91609418392181396484e+00) (13, -6.07556915283203125000e+00) (14, 8.43946278095245361328e-01) (15, 3.03061556816101074219e+00) (16, 1.16039037704467773438e+00) (17, -3.55362296104431152344e+00) (18, -1.03009786605834960938e+01) (19, 8.27868080139160156250e+00) (20, -4.96914386749267578125e+00) (21, -5.54386091232299804688e+00) (22, 3.03913712501525878906e-01) (23, 1.56545436382293701172e+00) (24, 4.26170885562896728516e-01) (25, -2.58844852447509765625e+00) (26, 1.66688370704650878906e+00) (27, 6.22133374214172363281e-01) (28, 1.43717482686042785645e-01) (29, 5.92659807205200195312e+00) (30, 5.06653845310211181641e-01) (0, 1.75313428044319152832e-01) (1, 1.48309186100959777832e-01) (2, -3.75034436583518981934e-02) (3, 1.83181166648864746094e-02) (4, 2.11498424410820007324e-01) (5, 4.38857644796371459961e-01) (6, -1.18537269532680511475e-01) (7, -4.99460555147379636765e-04) (8, 3.00824701786041259766e-01) (9, -3.32827776670455932617e-01) (10, 9.19900611042976379395e-02) (11, 3.45442354679107666016e-01) (12, -4.41711954772472381592e-02) (13, -4.82875555753707885742e-02) (14, -2.39989589899778366089e-02) (15, -3.53600621223449707031e-01) (16, -5.37793517112731933594e-01) (17, 4.98900949954986572266e-01) (18, -8.94174516201019287109e-01) (19, 7.64241993427276611328e-01) (20, 1.56929552555084228516e+00) (21, 1.75589597225189208984e+00) (22, -3.92984700202941894531e+00) (23, 3.15280675888061523438e+00) (24, 1.33583188056945800781e+00) (25, 8.84814143180847167969e-01) (26, 9.70072224736213684082e-02) (27, 1.35206735134124755859e+00) (28, 1.15616750717163085938e+00) (29, 1.12461936473846435547e+00) (30, 1.61667156219482421875e+00) (0, -1.49998889160156250000e+03) (1, -1.49998791503906250000e+03) (2, -1.49998718261718750000e+03) (3, -1.49998937988281250000e+03) (4, -1.49998364257812500000e+03) (5, -1.49998425292968750000e+03) (6, -1.49998937988281250000e+03) (7, -1.49998120117187500000e+03) (8, -1.49991772460937500000e+03) (9, -1.49992431640625000000e+03) (10, -1.49997631835937500000e+03) (11, -1.49877185058593750000e+03) (12, -1.49999694824218750000e+03) (13, -1.39743420410156250000e+03) (14, -1.49917675781250000000e+03) (15, -1.50000000000000000000e+03) (16, 1.32524462890625000000e+03) (17, 1.40876696777343750000e+03) (18, -3.89839477539062500000e+02) (19, -1.26091040039062500000e+03) (20, 1.21090588378906250000e+03) (21, -1.49994104003906250000e+03) (22, 1.49950769042968750000e+03) (23, 1.40885583496093750000e+03) (24, 1.49989697265625000000e+03) (25, -1.42928332519531250000e+03) (26, -1.01841690063476562500e+02) (27, 1.49998645019531250000e+03) (28, 1.49998999023437500000e+03) (29, 1.49998510742187500000e+03) (30, 1.49998840332031250000e+03) (0, 9.17817473411560058594e-01) (1, 8.65419328212738037109e-01) (2, 1.02707326412200927734e+00) (3, 7.91915953159332275391e-01) (4, 9.26031649112701416016e-01) (5, 9.61336076259613037109e-01) (6, 6.81733071804046630859e-01) (7, 9.61625576019287109375e-01) (8, 1.44807934761047363281e+00) (9, 6.41923069953918457031e-01) (10, 8.36397230625152587891e-01) (11, 1.31830441951751708984e+00) (12, 8.47210288047790527344e-01) (13, 1.38934087753295898438e+00) (14, 1.49593949317932128906e+00) (15, -2.38188862800598144531e+00) (16, 1.87984991073608398438e+00) (17, 2.50435709953308105469e+00) (18, -7.55488276481628417969e-02) (19, -3.16773727536201477051e-02) (20, 9.17247176170349121094e-01) (21, 1.12486231327056884766e+00) (22, 1.24247658252716064453e+00) (23, 1.49742197990417480469e+00) (24, 1.22514855861663818359e+00) (25, 1.08303260803222656250e+00) (26, 5.67362070083618164062e-01) (27, 1.03018128871917724609e+00) (28, 1.25138664245605468750e+00) (29, 1.26896607875823974609e+00) (30, 1.17023301124572753906e+00) (0, 7.82130956649780273438e-01) (1, 7.58554816246032714844e-01) (2, 7.79873192310333251953e-01) (3, 6.71715259552001953125e-01) (4, 8.43597769737243652344e-01) (5, 8.31498742103576660156e-01) (6, 5.15373647212982177734e-01) (7, 5.63129544258117675781e-01) (8, 1.07015895843505859375e+00) (9, 4.12259131669998168945e-01) (10, 5.75607657432556152344e-01) (11, 3.32316946983337402344e+00) (12, 1.02394747734069824219e+00) (13, 6.65493726730346679688e-01) (14, -2.41973549127578735352e-01) (15, 3.11550593376159667969e+00) (16, -2.40998029708862304688e+00) (17, 3.67358589172363281250e+00) (18, 2.60533213615417480469e-01) (19, 1.84521019458770751953e-01) (20, 3.63564348220825195312e+00) (21, 1.16581785678863525391e+00) (22, 1.41999757289886474609e+00) (23, 1.93667268753051757812e+00) (24, 1.12823569774627685547e+00) (25, 1.12853920459747314453e+00) (26, 1.73729372024536132812e+00) (27, 1.36158382892608642578e+00) (28, 1.53906488418579101562e+00) (29, 2.57977962493896484375e+00) (30, 1.36331295967102050781e+00) (0, 7.49940276145935058594e-01) (1, 6.88519895076751708984e-01) (2, 2.97753632068634033203e-01) (3, 4.50560003519058227539e-01) (4, 5.57841658592224121094e-01) (5, 3.66966798901557922363e-02) (6, 4.03237313032150268555e-01) (7, 1.28812611103057861328e-01) (8, 1.15450896322727203369e-01) (9, 4.05786007642745971680e-01) (10, 2.80402719974517822266e-01) (11, -6.23984187841415405273e-02) (12, 1.89232587814331054688e+00) (13, -4.35361772775650024414e-01) (14, -1.42355835437774658203e+00) (15, -6.06912469863891601562e+00) (16, -4.13385963439941406250e+00) (17, -6.29865598678588867188e+00) (18, 1.47297787666320800781e+00) (19, -3.96288782358169555664e-01) (20, 4.71788406372070312500e-01) (21, 4.70253735780715942383e-01) (22, 6.94987654685974121094e-01) (23, 6.52739107608795166016e-01) (24, 6.51052772998809814453e-01) (25, 5.20393550395965576172e-01) (26, -2.80329771339893341064e-02) (27, 8.12741339206695556641e-01) (28, 6.30005240440368652344e-01) (29, 9.70456540584564208984e-01) (30, 8.72730553150177001953e-01) (0, 1.70525300502777099609e+00) (1, 1.73018586635589599609e+00) (2, 2.06513094902038574219e+00) (3, 1.69050252437591552734e+00) (4, 2.03292703628540039062e+00) (5, 2.09872102737426757812e+00) (6, 1.66750180721282958984e+00) (7, 2.31788277626037597656e+00) (8, 2.39038753509521484375e+00) (9, 1.61465680599212646484e+00) (10, 1.98022508621215820312e+00) (11, 1.77030777931213378906e+00) (12, 1.68755590915679931641e+00) (13, 7.79302954673767089844e-01) (14, 1.68156313896179199219e+00) (15, 7.68692672252655029297e-01) (16, -6.19121599197387695312e+00) (17, -3.35872697830200195312e+00) (18, 6.33011102676391601562e-01) (19, -1.32028493881225585938e+01) (20, 1.19885234832763671875e+01) (21, 6.67076110839843750000e-01) (22, 1.45975601673126220703e+00) (23, 1.20101022720336914062e+00) (24, -4.66385513544082641602e-01) (25, 3.97203058004379272461e-01) (26, -2.03129482269287109375e+00) (27, 2.43918538093566894531e-01) (28, 3.51231426000595092773e-01) (29, 1.21806129813194274902e-01) (30, 4.94275659322738647461e-01) (0, 7.33396708965301513672e-01) (1, 6.47384047508239746094e-01) (2, 1.00697469711303710938e+00) (3, 4.29212003946304321289e-01) (4, 8.35265576839447021484e-01) (5, 5.11466801166534423828e-01) (6, 1.28694975376129150391e+00) (7, 9.19493257999420166016e-01) (8, 1.44529789686203002930e-01) (9, 1.74729216098785400391e+00) (10, 1.30779206752777099609e+00) (11, 2.57802867889404296875e+00) (12, 1.74416160583496093750e+00) (13, -1.50346624851226806641e+00) (14, -1.34955751895904541016e+00) (15, 3.76592140197753906250e+01) (16, 3.16251201629638671875e+01) (17, 4.12133789062500000000e+00) (18, -2.23102998733520507812e+00) (19, 6.61039352416992187500e-01) (20, 8.13299655914306640625e+00) (21, 1.52934694290161132812e+00) (22, 7.71141111850738525391e-01) (23, 7.89146542549133300781e-01) (24, 1.08427965641021728516e+00) (25, 1.00257527828216552734e+00) (26, 3.75470787286758422852e-01) (27, 1.32824218273162841797e+00) (28, 1.14341402053833007812e+00) (29, 1.72554957866668701172e+00) (30, 1.26290214061737060547e+00) (0, 8.66348981857299804688e-01) (1, 9.01803553104400634766e-01) (2, 7.77121424674987792969e-01) (3, 8.48136782646179199219e-01) (4, 9.73516881465911865234e-01) (5, 6.94840013980865478516e-01) (6, 9.71270322799682617188e-01) (7, 8.38001787662506103516e-01) (8, 2.13494867086410522461e-01) (9, 1.04630208015441894531e+00) (10, 1.32476019859313964844e+00) (11, 1.27270531654357910156e+00) (12, 1.27716386318206787109e+00) (13, 1.01724660396575927734e+00) (14, 8.73814642429351806641e-01) (15, 1.35170900821685791016e+00) (16, 2.06023478507995605469e+00) (17, 6.82245910167694091797e-01) (18, 1.22703981399536132812e+00) (19, 5.15242218971252441406e-01) (20, 1.67840588092803955078e+00) (21, 8.90359520912170410156e-01) (22, 8.47894132137298583984e-01) (23, 2.40982621908187866211e-01) (24, 1.01674306392669677734e+00) (25, 9.82932984828948974609e-01) (26, 3.95812511444091796875e-01) (27, 1.14099442958831787109e+00) (28, 9.70677852630615234375e-01) (29, 1.01351749897003173828e+00) (30, 9.13314759731292724609e-01) (0, -1.17880249023437500000e+01) (1, -1.11083593368530273438e+01) (2, -5.14266853332519531250e+01) (3, -3.55225753784179687500e+00) (4, -3.56921539306640625000e+01) (5, -9.15565719604492187500e+01) (6, -3.43408584594726562500e+00) (7, -1.65978149414062500000e+02) (8, -1.49997045898437500000e+03) (9, -2.27250576019287109375e+00) (10, -2.66985569000244140625e+01) (11, -4.26916534423828125000e+02) (12, -1.76371538639068603516e+00) (13, -1.49952380371093750000e+03) (14, -1.46784533691406250000e+03) (15, -2.16808485984802246094e+00) (16, -1.49721667480468750000e+03) (17, -1.49832495117187500000e+03) (18, 1.49998742675781250000e+03) (19, -1.49983569335937500000e+03) (20, -1.38483679199218750000e+03) (21, 1.48965844726562500000e+03) (22, 2.83266353607177734375e+00) (23, 1.78892421722412109375e+00) (24, 3.32125579833984375000e+02) (25, 7.83335542678833007812e+00) (26, 1.89339721679687500000e+02) (27, 2.55395263671875000000e+02) (28, 3.25706624984741210938e+00) (29, 3.84774112701416015625e+00) (30, 5.59962701797485351562e+00) (0, 1.27867197990417480469e+00) (1, 1.22254085540771484375e+00) (2, 8.91771793365478515625e-01) (3, 1.25017559528350830078e+00) (4, 8.99964809417724609375e-01) (5, 1.08350133895874023438e+00) (6, 6.35388195514678955078e-01) (7, 7.80719518661499023438e-01) (8, 1.36431086063385009766e+00) (9, 8.66271376609802246094e-01) (10, 9.69753146171569824219e-01) (11, 1.52350175380706787109e+00) (12, 8.79189014434814453125e-01) (13, 1.20624792575836181641e+00) (14, 1.06592071056365966797e+00) (15, -1.09408462047576904297e+00) (16, 5.59411227703094482422e-01) (17, 1.33467781543731689453e+00) (18, 1.12551414966583251953e+00) (19, 3.05244922637939453125e+00) (20, -1.23562765121459960938e+00) (21, 7.80777096748352050781e-01) (22, 8.88438522815704345703e-01) (23, 3.42096114158630371094e+00) (24, 7.87800192832946777344e-01) (25, 8.41205179691314697266e-01) (26, 2.17262411117553710938e+00) (27, 7.52165079116821289062e-01) (28, 1.07690298557281494141e+00) (29, 1.18781018257141113281e+00) (30, 1.10227453708648681641e+00) (0, 1.38208538293838500977e-01) (1, 1.75875261425971984863e-01) (2, 3.92990857362747192383e-02) (3, 2.61286050081253051758e-01) (4, 1.78740307688713073730e-01) (5, -3.63365828990936279297e-01) (6, 1.28462925553321838379e-01) (7, -1.06072902679443359375e+00) (8, -2.24307703971862792969e+00) (9, 2.03188687562942504883e-01) (10, 9.98918190598487854004e-02) (11, -1.07443785667419433594e+00) (12, 1.30525445938110351562e+00) (13, -1.88732192993164062500e+02) (14, -4.65356140136718750000e+01) (15, -5.70013885498046875000e+01) (16, 1.37842977046966552734e+00) (17, -7.94550627470016479492e-02) (18, -4.58928775787353515625e+00) (19, -9.13237631320953369141e-01) (20, 1.91072320938110351562e+00) (21, 3.84176641702651977539e-01) (22, -1.44794034957885742188e+00) (23, -7.22856342792510986328e-01) (24, 6.99742496013641357422e-01) (25, 4.81470584869384765625e-01) (26, 2.89597339630126953125e+01) (27, 1.01727032661437988281e+00) (28, 4.80383783578872680664e-01) (29, 4.22626495361328125000e-01) (30, 1.06102716922760009766e+00) (0, 1.81044507026672363281e+00) (1, 1.64380741119384765625e+00) (2, 1.58357989788055419922e+00) (3, 1.67076992988586425781e+00) (4, 1.73295497894287109375e+00) (5, 1.73288595676422119141e+00) (6, 1.64069581031799316406e+00) (7, 1.57911050319671630859e+00) (8, 1.79781353473663330078e+00) (9, 1.50475978851318359375e+00) (10, 1.49007582664489746094e+00) (11, 1.99555158615112304688e+00) (12, 4.92925226688385009766e-01) (13, 4.87916260957717895508e-01) (14, 1.65278971195220947266e+00) (15, 1.71838417649269104004e-01) (16, -6.65165376663208007812e+00) (17, 6.04357063770294189453e-01) (18, 5.55098533630371093750e-01) (19, -1.14231288433074951172e+00) (20, 2.66888856887817382812e+00) (21, 1.40179574489593505859e-01) (22, 2.04166460037231445312e+00) (23, 1.11551952362060546875e+00) (24, 2.18504562973976135254e-01) (25, 3.77114206552505493164e-01) (26, 1.58874583244323730469e+00) (27, 2.96986192464828491211e-01) (28, 2.79823780059814453125e-01) (29, 4.84818637371063232422e-01) (30, 5.64547121524810791016e-01) (0, 6.36172056198120117188e-01) (1, 7.85527288913726806641e-01) (2, 3.81689012050628662109e-01) (3, 8.59940171241760253906e-01) (4, 7.41692781448364257812e-01) (5, 5.44364392757415771484e-01) (6, 6.14143252372741699219e-01) (7, 6.09222233295440673828e-01) (8, 5.83740293979644775391e-01) (9, 6.68485045433044433594e-01) (10, 1.02666437625885009766e+00) (11, 1.45883023738861083984e+00) (12, 1.29157364368438720703e+00) (13, -1.84303343296051025391e-01) (14, 4.04172706604003906250e+00) (15, -1.04186189174652099609e+00) (16, -5.18639373779296875000e+00) (17, -4.28722000122070312500e+00) (18, 4.05141830444335937500e+00) (19, 2.55701637268066406250e+00) (20, -1.63045918941497802734e+00) (21, 9.10493433475494384766e-01) (22, 9.73661601543426513672e-01) (23, -8.18130970001220703125e-01) (24, 1.04684209823608398438e+00) (25, 5.15606343746185302734e-01) (26, 2.15201765298843383789e-01) (27, 1.03810524940490722656e+00) (28, 6.30029082298278808594e-01) (29, -1.57112836837768554688e-01) (30, 1.09494161605834960938e+00) (0, 1.76624202728271484375e+00) (1, 1.74643468856811523438e+00) (2, 1.66975307464599609375e+00) (3, 8.76128256320953369141e-01) (4, 1.00915944576263427734e+00) (5, 2.36861062049865722656e+00) (6, 7.83041656017303466797e-01) (7, 9.14967060089111328125e-01) (8, 2.58429670333862304688e+00) (9, 7.93453514575958251953e-01) (10, 9.99834954738616943359e-01) (11, 1.11926674842834472656e+00) (12, 1.03005838394165039062e+00) (13, 1.00699782371520996094e+00) (14, 2.12411856651306152344e+00) (15, -2.87058305740356445312e+00) (16, 3.23871821165084838867e-01) (17, 2.03293442726135253906e+00) (18, 1.21443643569946289062e+01) (19, -1.47924880981445312500e+01) (20, -7.67039060592651367188e+00) (21, -7.43126049637794494629e-02) (22, -1.01499366760253906250e+00) (23, 8.85221481323242187500e+00) (24, 2.21477091312408447266e-01) (25, 1.77560165524482727051e-01) (26, 3.44703364372253417969e+00) (27, 3.05424541234970092773e-01) (28, 4.31095063686370849609e-01) (29, -8.82588148117065429688e-01) (30, 4.92300748825073242188e-01) (0, 2.09956228733062744141e-01) (1, -4.74708434194326400757e-03) (2, -6.17321312427520751953e-01) (3, 7.94789671897888183594e-01) (4, 5.54863214492797851562e-01) (5, 1.99601680040359497070e-01) (6, 8.25617194175720214844e-01) (7, 2.04489588737487792969e-01) (8, 4.68506440520286560059e-02) (9, 1.18516278266906738281e+00) (10, 9.77654576301574707031e-01) (11, 5.75015425682067871094e-01) (12, 1.47692787647247314453e+00) (13, 3.40908586978912353516e-01) (14, 2.95623660087585449219e-01) (15, -1.39639839529991149902e-01) (16, -3.92037004232406616211e-01) (17, 9.94805023074150085449e-02) (18, -1.23994255065917968750e+01) (19, -2.10552287101745605469e+00) (20, 3.70487618446350097656e+00) (21, 7.01453149318695068359e-01) (22, -9.29989159107208251953e-01) (23, 1.16744473576545715332e-01) (24, 1.02427053451538085938e+00) (25, -6.10549673438072204590e-02) (26, -7.79267501831054687500e+00) (27, 9.66153502464294433594e-01) (28, 2.79202163219451904297e-01) (29, -1.57276272773742675781e+00) (30, 1.07914197444915771484e+00) (0, 1.23101389408111572266e+00) (1, 1.41807162761688232422e+00) (2, 1.01735007762908935547e+00) (3, 1.04284560680389404297e+00) (4, 1.18843233585357666016e+00) (5, 1.54064011573791503906e+00) (6, 3.83062362670898437500e-01) (7, 1.74106752872467041016e+00) (8, -5.71292221546173095703e-01) (9, 5.95059096813201904297e-01) (10, 1.78349900245666503906e+00) (11, 2.13868451118469238281e+00) (12, 1.99162101745605468750e+00) (13, 1.02659091353416442871e-02) (14, 5.97135603427886962891e-01) (15, -5.08340549468994140625e+00) (16, 6.20260381698608398438e+00) (17, 2.59770822525024414062e+00) (18, 1.43648087978363037109e-01) (19, -2.21065163612365722656e+00) (20, 4.38693523406982421875e+00) (21, 6.27073645591735839844e-01) (22, 6.05272114276885986328e-01) (23, 1.15312591195106506348e-01) (24, 8.07957768440246582031e-01) (25, 7.01020538806915283203e-01) (26, 3.83405137062072753906e+00) (27, 8.78724277019500732422e-01) (28, 8.09022068977355957031e-01) (29, 6.76081240177154541016e-01) (30, 3.58199447393417358398e-01) (31, 1.07703244686126708984e+00) (32, -1.07393252849578857422e+00) (33, 6.62220001220703125000e-01) (34, -3.62785100936889648438e-01) (35, 1.23910032212734222412e-01) (36, 2.89630591869354248047e-01) (37, 1.85733819007873535156e+00) (38, 1.38921350240707397461e-01) (39, 2.94101309776306152344e+00) (40, 1.08006134033203125000e+01) (41, -3.55820596218109130859e-01) (42, 5.36508321762084960938e+00) (43, 3.08112502098083496094e-01) (44, 1.98968744277954101562e+00) (45, 8.14741313457489013672e-01) (46, 1.89174324274063110352e-01) (47, 2.06487372517585754395e-01) (48, 4.50119554996490478516e-01) (49, 3.17804288864135742188e+00) (50, 1.86526131629943847656e+00) (51, 5.89796364307403564453e-01) (52, 2.83276885747909545898e-01) (53, 1.30211067199707031250e+00) (54, 3.26644957065582275391e-01) (55, 9.30260896682739257812e-01) (56, 8.22284162044525146484e-01) (57, 1.93712449073791503906e+00) (58, 4.63224261999130249023e-01) (59, 2.86200571060180664062e+00) (60, 1.05383664369583129883e-01) (61, -2.60412454605102539062e+00) (62, 9.80059057474136352539e-02) (63, 1.53390407562255859375e+00) (64, 1.36005789041519165039e-01) (65, 1.33490490913391113281e+00) (31, -1.07236337661743164062e+00) (32, 1.47533893585205078125e-01) (33, 1.33350598812103271484e+00) (34, 1.10453760623931884766e+00) (35, 9.50828641653060913086e-02) (36, 1.35150933265686035156e+00) (37, 7.88975059986114501953e-01) (38, 1.27118527889251708984e+00) (39, 5.93890070915222167969e-01) (40, -3.31554961204528808594e+00) (41, 1.72411727905273437500e+00) (42, 1.21340751647949218750e+00) (43, 6.02083504199981689453e-01) (44, 9.35911834239959716797e-01) (45, 5.62125682830810546875e-01) (46, 1.24345612525939941406e+00) (47, 1.45425415039062500000e+00) (48, 5.22598206996917724609e-01) (49, 1.43125522136688232422e+00) (50, 9.14057254791259765625e-01) (51, 4.90661859512329101562e-01) (52, -2.21059799194335937500e+00) (53, -1.24653029441833496094e+00) (54, 1.28314256668090820312e+00) (55, 5.15786826610565185547e-01) (56, 3.18475872278213500977e-01) (57, 7.37585604190826416016e-01) (58, 8.93211066722869873047e-01) (59, 7.16903209686279296875e-01) (60, 1.28429019451141357422e+00) (61, 8.60389411449432373047e-01) (62, 1.24528145790100097656e+00) (63, 4.27434414625167846680e-01) (64, 4.32912766933441162109e-01) (65, 1.51679837703704833984e+00) (31, -9.83939170837402343750e-01) (32, 2.34569907188415527344e+00) (33, 1.62624716758728027344e+00) (34, 2.73056507110595703125e-01) (35, 5.30288398265838623047e-01) (36, 8.74079108238220214844e-01) (37, 1.24745655059814453125e+00) (38, 1.51105797290802001953e+00) (39, 9.56155657768249511719e-02) (40, -1.55645668506622314453e+00) (41, -8.08555412292480468750e+00) (42, -3.58848690986633300781e-01) (43, 1.43871009349822998047e+00) (44, 7.97620356082916259766e-01) (45, 9.85132753849029541016e-01) (46, 1.73736941814422607422e+00) (47, 1.71670484542846679688e+00) (48, 1.53844356536865234375e+00) (49, -8.50718840956687927246e-02) (50, 9.56802845001220703125e-01) (51, 9.38701093196868896484e-01) (52, -4.38879537582397460938e+00) (53, 2.88056612014770507812e-01) (54, 1.53857541084289550781e+00) (55, 1.57790994644165039062e+00) (56, 8.58419835567474365234e-01) (57, 7.67384052276611328125e-01) (58, 7.54530847072601318359e-01) (59, 9.81676042079925537109e-01) (60, 1.49447190761566162109e+00) (61, 2.33523464202880859375e+00) (62, 1.23529279232025146484e+00) (63, -1.08284783363342285156e+00) (64, 1.75893568992614746094e+00) (65, 1.29142260551452636719e+00) (31, -2.62633585929870605469e+00) (32, -9.25065636634826660156e-01) (33, 4.25150394439697265625e-01) (34, 9.40325796604156494141e-01) (35, 1.64168977737426757812e+00) (36, 6.48138642311096191406e-01) (37, 1.31999456882476806641e+00) (38, 7.07820236682891845703e-01) (39, -4.25961345434188842773e-01) (40, -4.13623869419097900391e-01) (41, -8.84750127792358398438e-01) (42, 6.33751332759857177734e-01) (43, 5.88985085487365722656e-01) (44, 1.26598668098449707031e+00) (45, 1.66431441903114318848e-01) (46, 8.05812537670135498047e-01) (47, 7.85153150558471679688e-01) (48, 1.78342446684837341309e-01) (49, 1.56919646263122558594e+00) (50, 1.40126597881317138672e+00) (51, -2.56298661231994628906e-01) (52, 4.51583176851272583008e-01) (53, 3.26133698225021362305e-01) (54, 7.69503414630889892578e-01) (55, 6.54830574989318847656e-01) (56, -9.15901660919189453125e-02) (57, 1.56474995613098144531e+00) (58, 1.41314816474914550781e+00) (59, 3.59625548124313354492e-01) (60, 8.41358184814453125000e-01) (61, -6.65166497230529785156e-01) (62, 9.22778785228729248047e-01) (63, 5.25477349758148193359e-01) (64, 1.54995813965797424316e-01) (65, 1.86119198799133300781e+00) (31, 6.19893312454223632812e-01) (32, -1.52963805198669433594e+00) (33, -3.34509468078613281250e+00) (34, 1.19824779033660888672e+00) (35, -4.19868119060993194580e-02) (36, 9.94343638420104980469e-01) (37, 8.74843001365661621094e-01) (38, 1.18878328800201416016e+00) (39, 7.82015442848205566406e-01) (40, 2.30841383337974548340e-01) (41, -2.00088429450988769531e+00) (42, 1.12227678298950195312e+00) (43, 2.20652914047241210938e+00) (44, 9.69206452369689941406e-01) (45, 6.62390947341918945312e-01) (46, 1.19578945636749267578e+00) (47, 1.19052767753601074219e+00) (48, 5.19427716732025146484e-01) (49, 1.29188764095306396484e+00) (50, 8.98077368736267089844e-01) (51, 3.63023996353149414062e+00) (52, 4.47072446346282958984e-01) (53, 9.06617760658264160156e-01) (54, 1.08952784538269042969e+00) (55, -4.15438503026962280273e-01) (56, 6.83313488960266113281e-01) (57, 1.15197706222534179688e+00) (58, -9.67224359512329101562e-01) (59, 7.57331609725952148438e-01) (60, 1.18090665340423583984e+00) (61, -6.05138182640075683594e-01) (62, 1.02934002876281738281e+00) (63, 8.98546040058135986328e-01) (64, 1.00078475475311279297e+00) (65, 1.67320573329925537109e+00) (31, -7.59255361557006835938e+00) (32, -3.55668592453002929688e+00) (33, 7.74134039878845214844e-01) (34, 5.09940981864929199219e-01) (35, -1.92688986659049987793e-01) (36, 9.65444147586822509766e-01) (37, 9.23953831195831298828e-01) (38, 1.25679183006286621094e+00) (39, -3.75643920898437500000e+00) (40, -1.96945822238922119141e+00) (41, 3.90995645523071289062e+00) (42, 6.96944072842597961426e-02) (43, -5.54041147232055664062e-01) (44, 9.20859694480895996094e-01) (45, 4.35964345932006835938e-01) (46, 1.18144118785858154297e+00) (47, 1.30752468109130859375e+00) (48, 3.89763057231903076172e-01) (49, -3.99024701118469238281e+00) (50, 9.97441768646240234375e-01) (51, 2.37059310078620910645e-01) (52, -3.24383318424224853516e-01) (53, -3.42716246843338012695e-01) (54, 1.29463541507720947266e+00) (55, 6.67850971221923828125e-02) (56, -2.06642970442771911621e-01) (57, 1.17575764656066894531e+00) (58, 6.32395088672637939453e-01) (59, 5.62299907207489013672e-01) (60, 1.30886459350585937500e+00) (61, 2.82906621694564819336e-01) (62, 2.59231775999069213867e-01) (63, -1.60842049121856689453e+00) (64, 8.34482073783874511719e-01) (65, 1.52272737026214599609e+00) (31, 6.97923243045806884766e-01) (32, -4.82443392276763916016e-01) (33, 8.51332545280456542969e-01) (34, 5.19934654235839843750e-01) (35, -1.08115255832672119141e-01) (36, 4.69647765159606933594e-01) (37, 1.73799586296081542969e+00) (38, 5.23821890354156494141e-01) (39, 1.46234238147735595703e+00) (40, -1.84345319867134094238e-01) (41, -1.58035099506378173828e+00) (42, 1.46521544456481933594e+00) (43, 6.84179008007049560547e-01) (44, 1.68207573890686035156e+00) (45, 1.02558422088623046875e+00) (46, 3.84552270174026489258e-01) (47, 4.96405184268951416016e-01) (48, 4.58850890398025512695e-01) (49, 8.09257805347442626953e-01) (50, 1.74329471588134765625e+00) (51, 4.20910239219665527344e-01) (52, 8.71526822447776794434e-02) (53, 8.55031847953796386719e-01) (54, 4.69510942697525024414e-01) (55, 1.30175995826721191406e+00) (56, 1.23903214931488037109e+00) (57, 1.62248384952545166016e+00) (58, 6.56703948974609375000e-01) (59, 1.32369697093963623047e+00) (60, 4.71296548843383789062e-01) (61, 1.43897461891174316406e+00) (62, 4.81483787298202514648e-01) (63, 1.19106328487396240234e+00) (64, 1.08607041835784912109e+00) (65, 1.11968803405761718750e+00) (31, -5.76515138149261474609e-01) (32, 7.11125850677490234375e+00) (33, 6.95487082004547119141e-01) (34, 8.61589491367340087891e-01) (35, 3.33244800567626953125e-01) (36, 1.08318686485290527344e+00) (37, 1.15937972068786621094e+00) (38, 9.96544122695922851562e-01) (39, 6.44778609275817871094e-01) (40, -5.37855625152587890625e+00) (41, -6.17581844329833984375e+00) (42, 1.03776943683624267578e+00) (43, 1.57122123241424560547e+00) (44, 1.13988113403320312500e+00) (45, 1.53276658058166503906e+00) (46, 8.66850495338439941406e-01) (47, 1.02439069747924804688e+00) (48, 1.58526301383972167969e+00) (49, 7.53014624118804931641e-01) (50, 1.19026219844818115234e+00) (51, 3.40455859899520874023e-01) (52, -2.89129614830017089844e+00) (53, 1.70507109165191650391e+00) (54, 1.07706987857818603516e+00) (55, 1.57580566406250000000e+00) (56, 1.49806225299835205078e+00) (57, 1.14192819595336914062e+00) (58, 4.79764819145202636719e-01) (59, 2.00482273101806640625e+00) (60, 9.27360534667968750000e-01) (61, 2.09510278701782226562e+00) (62, 8.20368587970733642578e-01) (63, 9.96312499046325683594e-01) (64, 1.75736057758331298828e+00) (65, 7.38668441772460937500e-01) (31, 2.11596465110778808594e+00) (32, 1.82834494113922119141e+00) (33, 9.45571124553680419922e-01) (34, 6.09914720058441162109e-01) (35, 4.04678249359130859375e+00) (36, 9.77296948432922363281e-01) (37, 8.44384193420410156250e-01) (38, 1.13914799690246582031e+00) (39, 8.50328254699707031250e+00) (40, 7.47715011239051818848e-02) (41, 1.17324090003967285156e+00) (42, 3.49097323417663574219e+00) (43, 2.28107228875160217285e-01) (44, 9.41536426544189453125e-01) (45, 5.00158488750457763672e-01) (46, 1.25955688953399658203e+00) (47, 1.10875570774078369141e+00) (48, 1.93767428398132324219e-01) (49, 1.09217033386230468750e+01) (50, 7.69992232322692871094e-01) (51, 8.64416778087615966797e-01) (52, 3.28192687034606933594e+00) (53, 7.99499690532684326172e-01) (54, 1.18664407730102539062e+00) (55, 5.61261177062988281250e-01) (56, 4.42843198776245117188e-01) (57, 9.38726067543029785156e-01) (58, 2.88436245918273925781e+00) (59, 9.54648375511169433594e-01) (60, 1.24212551116943359375e+00) (61, -8.99135410785675048828e-01) (62, 9.18916642665863037109e-01) (63, 1.03757762908935546875e+00) (64, 4.18093770742416381836e-01) (65, 1.34031128883361816406e+00) (31, -5.61844170093536376953e-01) (32, -1.27837765216827392578e+00) (33, 8.26997220516204833984e-01) (34, 1.08106994628906250000e+00) (35, 7.61840701103210449219e-01) (36, 1.43127465248107910156e+00) (37, 7.85202324390411376953e-01) (38, 1.27946901321411132812e+00) (39, -4.16347831487655639648e-01) (40, -6.27282261848449707031e-01) (41, 1.06745231151580810547e+00) (42, 8.92889916896820068359e-01) (43, -6.71472996473312377930e-02) (44, 7.71586894989013671875e-01) (45, 6.56083643436431884766e-01) (46, 1.17218947410583496094e+00) (47, 1.21212589740753173828e+00) (48, 7.29807794094085693359e-01) (49, 4.83659791946411132812e+00) (50, 8.49496424198150634766e-01) (51, 8.46861898899078369141e-01) (52, -1.54582273960113525391e+00) (53, 2.52881240844726562500e+00) (54, 1.37408852577209472656e+00) (55, 6.96328341960906982422e-01) (56, 6.62876307964324951172e-01) (57, 7.13026762008666992188e-01) (58, 2.59533548355102539062e+00) (59, 1.36068511009216308594e+00) (60, 1.34191727638244628906e+00) (61, 9.52614784240722656250e-01) (62, 9.56649541854858398438e-01) (63, 8.06333124637603759766e-01) (64, 7.23793089389801025391e-01) (65, 1.43677949905395507812e+00) (31, 2.49559134244918823242e-01) (32, 5.46910429000854492188e+00) (33, 4.23232495784759521484e-01) (34, -6.05172812938690185547e-02) (35, 3.44539403915405273438e-01) (36, 1.04999387264251708984e+00) (37, 1.18113934993743896484e+00) (38, 8.80741417407989501953e-01) (39, 9.98232424259185791016e-01) (40, -2.25042629241943359375e+00) (41, -5.30661773681640625000e+00) (42, 1.41554629802703857422e+00) (43, 1.36239004135131835938e+00) (44, 1.20479488372802734375e+00) (45, 1.69221782684326171875e+00) (46, 8.47741842269897460938e-01) (47, 8.86072635650634765625e-01) (48, 1.69432318210601806641e+00) (49, 7.73493707180023193359e-01) (50, 1.18362414836883544922e+00) (51, 2.12530300021171569824e-01) (52, -3.83581042289733886719e+00) (53, 3.94948387145996093750e+00) (54, 8.45366656780242919922e-01) (55, 1.74866378307342529297e+00) (56, 1.11011409759521484375e+00) (57, 1.08546519279479980469e+00) (58, 4.56626534461975097656e-01) (59, 1.88094043731689453125e+00) (60, 8.57728779315948486328e-01) (61, -1.87613517045974731445e-01) (62, 9.09186303615570068359e-01) (63, 1.17620897293090820312e+00) (64, 1.75932872295379638672e+00) (65, 7.16478109359741210938e-01) (31, 5.92200398445129394531e-01) (32, -7.17189861461520195007e-03) (33, 2.03890919685363769531e+00) (34, 9.46666479110717773438e-01) (35, 1.41705358028411865234e+00) (36, 8.89787137508392333984e-01) (37, 1.43383753299713134766e+00) (38, 6.53672635555267333984e-01) (39, 1.50985062122344970703e+00) (40, 4.12316650152206420898e-01) (41, 1.16653704643249511719e+00) (42, 1.20295870304107666016e+00) (43, 1.01738917827606201172e+00) (44, 1.43247973918914794922e+00) (45, 1.15752410888671875000e+00) (46, 5.95069468021392822266e-01) (47, 7.50685811042785644531e-01) (48, 6.98408663272857666016e-01) (49, 1.08711290359497070312e+00) (50, 1.35971689224243164062e+00) (51, 8.78668308258056640625e-01) (52, 3.17560315132141113281e-01) (53, 6.68509602546691894531e-01) (54, 6.46659314632415771484e-01) (55, 1.03467452526092529297e+00) (56, 5.16731023788452148438e-01) (57, 1.37874293327331542969e+00) (58, -8.60237777233123779297e-01) (59, 1.31217384338378906250e+00) (60, 6.36894166469573974609e-01) (61, 2.81929969787597656250e-01) (62, 6.97266161441802978516e-01) (63, 1.17627048492431640625e+00) (64, 1.30508553981781005859e+00) (65, 1.24384939670562744141e+00) (31, 2.75345659255981445312e+00) (32, -1.96244612336158752441e-01) (33, 9.31123614311218261719e-01) (34, 1.21271920204162597656e+00) (35, 5.04844427108764648438e-01) (36, 1.47476410865783691406e+00) (37, 1.29074442386627197266e+00) (38, 8.99734139442443847656e-01) (39, 3.82388019561767578125e+00) (40, 7.61947095394134521484e-01) (41, -7.00308233499526977539e-02) (42, 2.42516899108886718750e+00) (43, -2.87573814392089843750e-01) (44, 1.40305817127227783203e+00) (45, 1.31618309020996093750e+00) (46, 9.62217569351196289062e-01) (47, 8.39517176151275634766e-01) (48, 8.10934305191040039062e-01) (49, 1.51715159416198730469e+00) (50, 1.30362033843994140625e+00) (51, 3.76698255538940429688e-01) (52, 4.79735672473907470703e-01) (53, 1.30675137042999267578e+00) (54, 8.75580430030822753906e-01) (55, 1.05234336853027343750e+00) (56, 1.00425159931182861328e+00) (57, 5.33142507076263427734e-01) (58, -2.94875770807266235352e-01) (59, 1.30566382408142089844e+00) (60, 7.62134552001953125000e-01) (61, 1.05109286308288574219e+00) (62, 1.15009522438049316406e+00) (63, 1.61954104900360107422e+00) (64, 7.77320563793182373047e-01) (65, 7.62029290199279785156e-01) (31, 1.66638517379760742188e+00) (32, 9.01686382293701171875e+00) (33, -3.78493964672088623047e-01) (34, -9.07564282417297363281e-01) (35, 5.21081507205963134766e-01) (36, 5.89808821678161621094e-01) (37, 1.68690931797027587891e+00) (38, 4.61952745914459228516e-01) (39, 1.10331249237060546875e+00) (40, -1.80884945392608642578e+00) (41, -9.99906003475189208984e-01) (42, 1.77272748947143554688e+00) (43, -1.48171976208686828613e-01) (44, 1.76660883426666259766e+00) (45, 4.26476269960403442383e-01) (46, 8.68332922458648681641e-01) (47, 8.92397582530975341797e-01) (48, 5.26063740253448486328e-01) (49, 1.48338317871093750000e+00) (50, 1.63642263412475585938e+00) (51, 2.78553271293640136719e+00) (52, -1.03567756712436676025e-01) (53, 7.63440489768981933594e-01) (54, 4.67823207378387451172e-01) (55, 1.17544424533843994141e+00) (56, -1.57650578022003173828e+00) (57, 1.65450656414031982422e+00) (58, 6.46372795104980468750e-01) (59, 1.15059101581573486328e+00) (60, 7.19116210937500000000e-01) (61, -1.60676074028015136719e+00) (62, 2.62365460395812988281e-01) (63, 9.53869700431823730469e-01) (64, 6.38896748423576354980e-02) (65, 1.60367119312286376953e+00) (31, 7.02499866485595703125e-01) (32, -1.01705389022827148438e+01) (33, 6.43266439437866210938e+00) (34, 9.38802838325500488281e-01) (35, 3.92424750328063964844e+00) (36, 1.48135602474212646484e+00) (37, 9.29470598697662353516e-01) (38, 1.28736662864685058594e+00) (39, 1.05386221408843994141e+00) (40, 1.24209237098693847656e+00) (41, 4.46600866317749023438e+00) (42, 1.30522787570953369141e+00) (43, 4.30870652198791503906e-01) (44, 8.56043696403503417969e-01) (45, 5.50490677356719970703e-01) (46, 3.23250484466552734375e+00) (47, 1.27380990982055664062e+00) (48, 4.50181275606155395508e-01) (49, 1.49183297157287597656e+00) (50, 9.82120633125305175781e-01) (51, -9.02413606643676757812e-01) (52, 1.98513174057006835938e+00) (53, 4.61024381220340728760e-02) (54, 1.35754394531250000000e+00) (55, -2.76024322956800460815e-02) (56, -2.33711791038513183594e+00) (57, 8.60388934612274169922e-01) (58, 1.07061839103698730469e+00) (59, 5.69214463233947753906e-01) (60, 1.28764188289642333984e+00) (61, 5.22422492504119873047e-01) (62, 8.48905861377716064453e-01) (63, -6.35087072849273681641e-01) (64, 2.22001194953918457031e-01) (65, 1.44298958778381347656e+00) (31, -4.76941776275634765625e+00) (32, -7.11356282234191894531e-01) (33, -9.08050596714019775391e-01) (34, 1.13999795913696289062e+00) (35, 1.26351964473724365234e+00) (36, 9.39305961132049560547e-01) (37, 1.16468596458435058594e+00) (38, 9.18067514896392822266e-01) (39, 2.41260004043579101562e+00) (40, 1.83075797557830810547e+00) (41, 6.09334968030452728271e-02) (42, 1.38411295413970947266e+00) (43, -6.74890613555908203125e+00) (44, 1.24789643287658691406e+00) (45, 6.36946439743041992188e-01) (46, 1.53817629814147949219e+00) (47, 8.88499975204467773438e-01) (48, 5.79225361347198486328e-01) (49, 1.60626995563507080078e+00) (50, 1.27916944026947021484e+00) (51, 5.49011344909667968750e+01) (52, 4.01486825942993164062e+00) (53, 6.96336388587951660156e-01) (54, 9.19250249862670898438e-01) (55, 1.12274038791656494141e+00) (56, -1.46283121109008789062e+01) (57, 1.22221553325653076172e+00) (58, -8.69371700286865234375e+00) (59, 1.04878664016723632812e+00) (60, 8.77215147018432617188e-01) (61, 1.74143552780151367188e-01) (62, 1.02247953414916992188e+00) (63, 7.08348274230957031250e-01) (64, -6.32189631462097167969e-01) (65, 1.55915009975433349609e+00) (31, 1.07701659202575683594e-01) (32, -1.87731885910034179688e+00) (33, 3.02510499954223632812e-01) (34, 2.33678534626960754395e-01) (35, 5.92009663581848144531e-01) (36, 5.61928570270538330078e-01) (37, 1.59257292747497558594e+00) (38, 6.01255118846893310547e-01) (39, 1.86637699604034423828e+00) (40, 5.51074624061584472656e-01) (41, -4.49965208768844604492e-01) (42, 1.39327096939086914062e+00) (43, 9.13492918014526367188e-01) (44, 1.71274471282958984375e+00) (45, 1.28336644172668457031e+00) (46, 3.69103997945785522461e-01) (47, 4.92617964744567871094e-01) (48, 1.35814476013183593750e+00) (49, 9.26401495933532714844e-01) (50, 1.74738204479217529297e+00) (51, 3.94406467676162719727e-01) (52, -7.71105051040649414062e-01) (53, 1.36793851852416992188e+00) (54, 4.95997726917266845703e-01) (55, 1.31038367748260498047e+00) (56, 1.34780597686767578125e+00) (57, 1.59871375560760498047e+00) (58, 3.75494331121444702148e-01) (59, 1.09850203990936279297e+00) (60, 4.19510930776596069336e-01) (61, 1.21201956272125244141e+00) (62, 2.59427994489669799805e-01) (63, 1.12592601776123046875e+00) (64, 1.28254151344299316406e+00) (65, 9.67696845531463623047e-01) (31, -5.91136038303375244141e-01) (32, 3.87035667896270751953e-01) (33, -6.79436445236206054688e-01) (34, 1.36749541759490966797e+00) (35, 1.20137262344360351562e+00) (36, 1.26743984222412109375e+00) (37, 9.32942211627960205078e-01) (38, 1.29577803611755371094e+00) (39, 8.17066848278045654297e-01) (40, 2.07268786430358886719e+00) (41, -1.43506562709808349609e+00) (42, 1.33519256114959716797e+00) (43, -2.61474514007568359375e+00) (44, 9.03354763984680175781e-01) (45, 9.08159077167510986328e-01) (46, 1.08157110214233398438e+00) (47, 1.35637366771697998047e+00) (48, 7.65425920486450195312e-01) (49, 1.40263748168945312500e+00) (50, 9.26143288612365722656e-01) (51, 1.68401539325714111328e+00) (52, 2.39885735511779785156e+00) (53, 7.55523264408111572266e-01) (54, 1.27164208889007568359e+00) (55, -1.38857567310333251953e+00) (56, -1.13218772411346435547e+00) (57, 9.31229948997497558594e-01) (58, 4.62260150909423828125e+00) (59, 7.94041514396667480469e-01) (60, 1.35720062255859375000e+00) (61, 7.22607135772705078125e-01) (62, 1.40751898288726806641e+00) (63, 7.99480378627777099609e-01) (64, 6.33050799369812011719e-01) (65, 1.25813865661621093750e+00) (31, 2.40360927581787109375e+00) (32, -2.46230578422546386719e+00) (33, -1.44346013665199279785e-01) (34, 1.24456673860549926758e-01) (35, 5.10147571563720703125e-01) (36, 3.09822913259267807007e-02) (37, 2.09778618812561035156e+00) (38, 2.53013800829648971558e-02) (39, -1.47504597902297973633e-01) (40, 3.61458635330200195312e+00) (41, 7.32503128051757812500e+00) (42, 2.98912167549133300781e+00) (43, -3.82397830486297607422e-01) (44, 2.50937891006469726562e+00) (45, 6.52701258659362792969e-01) (46, 5.12323319911956787109e-01) (47, -3.64661961793899536133e-02) (48, -9.29955840110778808594e-02) (49, 3.18880748748779296875e+00) (50, 2.41580677032470703125e+00) (51, 7.32119739055633544922e-01) (52, 8.33957076072692871094e-01) (53, 7.53156900405883789062e-01) (54, -1.86848416924476623535e-02) (55, 2.12279647588729858398e-01) (56, 1.81255489587783813477e-01) (57, 2.54984617233276367188e+00) (58, 4.42372739315032958984e-01) (59, -7.79456123709678649902e-02) (60, 3.80575470626354217529e-02) (61, -1.81638920307159423828e+00) (62, -3.93939167261123657227e-01) (63, 1.60768747329711914062e+00) (64, 3.76591056585311889648e-01) (65, 1.61398780345916748047e+00) (31, -1.55322837829589843750e+00) (32, 1.76172822713851928711e-01) (33, 1.92757487297058105469e+00) (34, 1.11951255798339843750e+00) (35, 1.54178357124328613281e+00) (36, 1.24829602241516113281e+00) (37, 9.87525880336761474609e-01) (38, 1.26317417621612548828e+00) (39, 6.81520879268646240234e-01) (40, 9.04966056346893310547e-01) (41, 8.36517751216888427734e-01) (42, 1.73616087436676025391e+00) (43, -2.12237000465393066406e+00) (44, 1.02820336818695068359e+00) (45, 5.96340060234069824219e-01) (46, 1.88146328926086425781e+00) (47, 1.31237363815307617188e+00) (48, 5.02526879310607910156e-01) (49, 1.59319102764129638672e+00) (50, 1.04367399215698242188e+00) (51, 1.90482676029205322266e+00) (52, 1.86908555030822753906e+00) (53, 1.32622957229614257812e+00) (54, 1.37551069259643554688e+00) (55, 6.09744071960449218750e-01) (56, -7.24964809417724609375e+00) (57, 1.41066253185272216797e-01) (58, 8.84919357299804687500e+00) (59, -2.86434650421142578125e-01) (60, 1.32810866832733154297e+00) (61, -4.73088830709457397461e-01) (62, 6.22734844684600830078e-01) (63, 9.96592462062835693359e-01) (64, -1.29993230104446411133e-01) (65, 1.47058522701263427734e+00) (31, 9.99544382095336914062e-01) (32, 9.45066064596176147461e-02) (33, -1.31446033716201782227e-01) (34, -8.30276906490325927734e-01) (35, -4.03598845005035400391e-01) (36, 8.24848055839538574219e-01) (37, 1.21114146709442138672e+00) (38, 9.81365799903869628906e-01) (39, 1.46809697151184082031e+00) (40, 1.21843266487121582031e+00) (41, -1.10257625579833984375e-01) (42, 1.27338194847106933594e+00) (43, 1.14678299427032470703e+00) (44, 1.18770980834960937500e+00) (45, 1.40324068069458007812e+00) (46, 8.67740213871002197266e-01) (47, 9.83798086643218994141e-01) (48, 1.06148767471313476562e+00) (49, 1.23553490638732910156e+00) (50, 1.25296199321746826172e+00) (51, 9.13139939308166503906e-01) (52, 1.05179691314697265625e+00) (53, 1.51815831661224365234e+00) (54, 8.94493341445922851562e-01) (55, 1.71981239318847656250e+00) (56, 1.06322443485260009766e+00) (57, 1.13169860839843750000e+00) (58, -5.80200672149658203125e-01) (59, 1.35292637348175048828e+00) (60, 1.00957453250885009766e+00) (61, 1.57267153263092041016e+00) (62, 8.56128692626953125000e-01) (63, 1.08886516094207763672e+00) (64, 1.43858671188354492188e+00) (65, 9.74829733371734619141e-01) (31, -3.20868976414203643799e-02) (32, 4.65423434972763061523e-01) (33, -9.32689309120178222656e-02) (34, 6.17256343364715576172e-01) (35, 5.97815871238708496094e-01) (36, 9.32906091213226318359e-01) (37, 1.70749187469482421875e+00) (38, 4.56902891397476196289e-01) (39, 1.78264248371124267578e+00) (40, -3.62746626138687133789e-01) (41, 2.62715935707092285156e-01) (42, 1.36942982673645019531e+00) (43, 1.59288251399993896484e+00) (44, 1.61769783496856689453e+00) (45, 1.32632029056549072266e+00) (46, 5.31577289104461669922e-01) (47, 5.52763640880584716797e-01) (48, 1.27019214630126953125e+00) (49, 9.71428453922271728516e-01) (50, 1.56246197223663330078e+00) (51, 2.85088986158370971680e-01) (52, -1.02957136929035186768e-01) (53, 1.17197430133819580078e+00) (54, 5.68348050117492675781e-01) (55, 1.00400841236114501953e+00) (56, 1.11537003517150878906e+00) (57, 1.62806868553161621094e+00) (58, 6.69678032398223876953e-01) (59, 1.38552641868591308594e+00) (60, 5.84417581558227539062e-01) (61, 4.92142200469970703125e-01) (62, 2.77823824435472488403e-02) (63, 1.43556666374206542969e+00) (64, 1.10048794746398925781e+00) (65, 9.62885439395904541016e-01) (31, 4.35787296295166015625e+00) (32, -5.49397468566894531250e+00) (33, 2.29252219200134277344e+00) (34, 2.52850508689880371094e+00) (35, 4.36970615386962890625e+00) (36, 9.90958929061889648438e-01) (37, 1.39546275138854980469e+00) (38, 1.02068221569061279297e+00) (39, 1.08062553405761718750e+01) (40, -3.11264038085937500000e-01) (41, -9.72392618656158447266e-01) (42, 2.58362269401550292969e+00) (43, 1.32965219020843505859e+00) (44, 1.33652234077453613281e+00) (45, 1.64949154853820800781e+00) (46, 9.74809825420379638672e-01) (47, 8.86101543903350830078e-01) (48, 9.03479814529418945312e-01) (49, -1.65191304683685302734e+00) (50, 1.36898362636566162109e+00) (51, -1.03372156620025634766e+00) (52, 3.98627966642379760742e-01) (53, 2.03357100486755371094e+00) (54, 8.64079594612121582031e-01) (55, 4.17179727554321289062e+00) (56, -7.33237266540527343750e-02) (57, 8.86731863021850585938e-01) (58, 1.99327206611633300781e+00) (59, 1.73858213424682617188e+00) (60, 8.80722403526306152344e-01) (61, 2.26868796348571777344e+00) (62, 1.07700335979461669922e+00) (63, 1.26324856281280517578e+00) (64, 1.28027296066284179688e+00) (65, 8.41493487358093261719e-01) (31, -1.43951153755187988281e+00) (32, 1.25482082366943359375e+00) (33, -8.60609769821166992188e-01) (34, 1.02229321002960205078e+00) (35, 1.20644092559814453125e+00) (36, 2.14964723587036132812e+00) (37, 7.57779181003570556641e-01) (38, 1.45462918281555175781e+00) (39, 6.12652599811553955078e-01) (40, 1.65810263156890869141e+00) (41, 3.67244124412536621094e+00) (42, 1.78240311145782470703e+00) (43, -1.28426468372344970703e+00) (44, 8.64196121692657470703e-01) (45, 8.07453513145446777344e-01) (46, 1.28844034671783447266e+00) (47, 1.45523440837860107422e+00) (48, 1.10716462135314941406e+00) (49, 7.39871144294738769531e-01) (50, 8.81947994232177734375e-01) (51, -3.32565099000930786133e-01) (52, -1.13877153396606445312e+00) (53, 9.86231327056884765625e-01) (54, 1.53395557403564453125e+00) (55, 2.31018424034118652344e-01) (56, -1.49926841259002685547e-01) (57, 7.68185496330261230469e-01) (58, 3.50888299942016601562e+00) (59, 2.72864222526550292969e-01) (60, 1.48167049884796142578e+00) (61, -1.14936172962188720703e+00) (62, 9.78831112384796142578e-01) (63, 1.23696541786193847656e+00) (64, 3.33898246288299560547e-01) (65, 1.24282574653625488281e+00) (31, -5.35557603836059570312e+00) (32, 1.50053226947784423828e+00) (33, -2.11811733245849609375e+00) (34, -5.76197743415832519531e-01) (35, 1.26515817642211914062e+00) (36, 1.21463537216186523438e+00) (37, 9.41849648952484130859e-01) (38, 1.15351450443267822266e+00) (39, 2.17685198783874511719e+00) (40, 1.48106920719146728516e+00) (41, -8.14695805311203002930e-02) (42, 1.37088000774383544922e+00) (43, -5.26504468917846679688e+00) (44, 1.08972036838531494141e+00) (45, 9.17526483535766601562e-01) (46, 1.30849730968475341797e+00) (47, 1.13133287429809570312e+00) (48, 8.67408692836761474609e-01) (49, 1.56677913665771484375e+00) (50, 9.18372392654418945312e-01) (51, 2.87853775024414062500e+01) (52, 1.21961843967437744141e+00) (53, 3.10509771108627319336e-01) (54, 1.13740003108978271484e+00) (55, 2.44274997711181640625e+00) (56, -3.90845990180969238281e+00) (57, 9.81354832649230957031e-01) (58, -8.39432811737060546875e+00) (59, 1.78531467914581298828e+00) (60, 1.12495517730712890625e+00) (61, 2.98595428466796875000e-01) (62, 1.11039137840270996094e+00) (63, 1.11772131919860839844e+00) (64, 3.33122044801712036133e-01) (65, 1.54929137229919433594e+00) (31, 1.21596515178680419922e+00) (32, -5.79175651073455810547e-01) (33, -8.38280916213989257812e-01) (34, 9.40287113189697265625e-01) (35, 1.38310682773590087891e+00) (36, 1.36766958236694335938e+00) (37, 1.09641921520233154297e+00) (38, 1.14488041400909423828e+00) (39, 2.00276160240173339844e+00) (40, 1.62309634685516357422e+00) (41, 7.54115104675292968750e-01) (42, 1.27222824096679687500e+00) (43, 1.55301797389984130859e+00) (44, 1.15174603462219238281e+00) (45, 7.72552788257598876953e-01) (46, 1.24299728870391845703e+00) (47, 1.07631933689117431641e+00) (48, 7.32472121715545654297e-01) (49, 9.39491927623748779297e-01) (50, 1.19446706771850585938e+00) (51, 5.01154994964599609375e+00) (52, 2.48153424263000488281e+00) (53, 4.01145756244659423828e-01) (54, 1.10230720043182373047e+00) (55, -7.72771060466766357422e-01) (56, -1.37946593761444091797e+00) (57, 9.62696194648742675781e-01) (58, -2.39326310157775878906e+00) (59, 9.20479536056518554688e-01) (60, 1.15186738967895507812e+00) (61, -2.83117979764938354492e-01) (62, 1.07348501682281494141e+00) (63, 1.17005372047424316406e+00) (64, 7.05209314823150634766e-01) (65, 1.65900623798370361328e+00) (31, 1.97648119926452636719e+00) (32, 1.52424156665802001953e+00) (33, 1.62195312976837158203e+00) (34, 6.44838273525238037109e-01) (35, 6.26715362071990966797e-01) (36, 1.17759776115417480469e+00) (37, 1.33140850067138671875e+00) (38, 8.74850690364837646484e-01) (39, 3.39803552627563476562e+00) (40, 7.03822612762451171875e-01) (41, 1.67053735256195068359e+00) (42, 2.83002662658691406250e+00) (43, 8.48720431327819824219e-01) (44, 1.32873260974884033203e+00) (45, 1.40692389011383056641e+00) (46, 1.14155805110931396484e+00) (47, 9.50219511985778808594e-01) (48, 1.41323328018188476562e+00) (49, 9.76605772972106933594e-01) (50, 1.33955371379852294922e+00) (51, 1.21319520473480224609e+00) (52, 5.30120909214019775391e-01) (53, 7.75644898414611816406e-01) (54, 9.06568884849548339844e-01) (55, 1.99085640907287597656e+00) (56, 1.14859744906425476074e-01) (57, 1.53086435794830322266e+00) (58, 1.07628369331359863281e+00) (59, 1.72402071952819824219e+00) (60, 7.73794770240783691406e-01) (61, 2.20886781811714172363e-01) (62, 8.80711734294891357422e-01) (63, 1.07364094257354736328e+00) (64, 1.53140318393707275391e+00) (65, 7.78132021427154541016e-01) (31, -3.31078708171844482422e-01) (32, -4.78064346313476562500e+00) (33, 1.29313063621520996094e+00) (34, 1.32618868350982666016e+00) (35, 2.36014217138290405273e-01) (36, 1.72900712490081787109e+00) (37, 5.25870740413665771484e-01) (38, 1.69771432876586914062e+00) (39, 4.17661607265472412109e-01) (40, 3.43275427818298339844e+00) (41, 4.13507604598999023438e+00) (42, 8.70896399021148681641e-01) (43, 5.47945857048034667969e-01) (44, 3.99346113204956054688e-01) (45, 6.55658781528472900391e-01) (46, 1.52658641338348388672e+00) (47, 1.51524126529693603516e+00) (48, 7.49418437480926513672e-01) (49, 1.12918746471405029297e+00) (50, 4.04841959476470947266e-01) (51, 1.06698989868164062500e+00) (52, -4.24365043640136718750e+00) (53, 6.36764347553253173828e-01) (54, 1.81573092937469482422e+00) (55, 2.29346424341201782227e-01) (56, 5.49669623374938964844e-01) (57, 4.88084107637405395508e-01) (58, 1.03373336791992187500e+00) (59, 9.95315551757812500000e-01) (60, 1.50761485099792480469e+00) (61, 2.55055379867553710938e+00) (62, 1.42124295234680175781e+00) (63, 7.26276874542236328125e-01) (64, 6.62939250469207763672e-01) (65, 1.12464213371276855469e+00) (31, -5.00031530857086181641e-01) (32, -2.18385338783264160156e-01) (33, -9.79544997215270996094e-01) (34, 4.42567318677902221680e-01) (35, 4.46091532707214355469e-01) (36, 6.55946612358093261719e-01) (37, 1.83729267120361328125e+00) (38, 4.89657342433929443359e-01) (39, 1.53299069404602050781e+00) (40, -6.39678418636322021484e-01) (41, 9.07026350498199462891e-01) (42, 7.91199862957000732422e-01) (43, 9.21996176242828369141e-01) (44, 1.67388904094696044922e+00) (45, 1.08526825904846191406e+00) (46, 4.74490135908126831055e-01) (47, 5.00899970531463623047e-01) (48, 3.67270559072494506836e-01) (49, 6.61277770996093750000e-01) (50, 1.81638300418853759766e+00) (51, 8.00215899944305419922e-01) (52, -1.18794190883636474609e+00) (53, 1.05375325679779052734e+00) (54, 4.13438081741333007812e-01) (55, 6.94642007350921630859e-01) (56, 8.74009549617767333984e-01) (57, 1.31340503692626953125e+00) (58, 6.10720217227935791016e-01) (59, 1.29811728000640869141e+00) (60, 4.55138891935348510742e-01) (61, 8.86159539222717285156e-01) (62, 2.96155750751495361328e-01) (63, 1.43906950950622558594e+00) (64, 5.41361451148986816406e-01) (65, 1.16758453845977783203e+00) (31, 1.90066778659820556641e+00) (32, -1.90268592834472656250e+01) (33, -7.63737964630126953125e+00) (34, 6.32604062557220458984e-01) (35, 1.42814373970031738281e+00) (36, 4.58182215690612792969e-01) (37, 1.92465519905090332031e+00) (38, 4.14185583591461181641e-01) (39, 1.66062343120574951172e+00) (40, 9.68546748161315917969e-01) (41, -1.23115503787994384766e+00) (42, 1.30402243137359619141e+00) (43, -8.23203697800636291504e-02) (44, 1.95228099822998046875e+00) (45, 8.91364991664886474609e-01) (46, 6.13370358943939208984e-01) (47, 3.68959546089172363281e-01) (48, 1.14719545841217041016e+00) (49, 1.17775607109069824219e+00) (50, 2.00617575645446777344e+00) (51, 9.91101503372192382812e-01) (52, -1.27231538295745849609e+00) (53, 7.44095849990844726562e+00) (54, 4.40034151077270507812e-01) (55, 9.90155100822448730469e-01) (56, 1.18347680568695068359e+00) (57, 1.25593340396881103516e+00) (58, 7.94154703617095947266e-01) (59, 1.26144039630889892578e+00) (60, 4.41077291965484619141e-01) (61, 9.56935584545135498047e-01) (62, 4.23557966947555541992e-01) (63, 1.14630711078643798828e+00) (64, 1.23286569118499755859e+00) (65, 1.04042804241180419922e+00) (31, -1.23810279369354248047e+00) (32, 2.84194970130920410156e+00) (33, 6.33539199829101562500e-01) (34, 2.85101890563964843750e-01) (35, 8.14348506927490234375e+00) (36, 1.46319377422332763672e+00) (37, 8.87364625930786132812e-01) (38, 1.28492569923400878906e+00) (39, -2.52030938863754272461e-01) (40, -2.41996097564697265625e+00) (41, -1.08221709728240966797e+00) (42, 1.03221797943115234375e+00) (43, -4.16070908308029174805e-01) (44, 8.74477267265319824219e-01) (45, 5.15394389629364013672e-01) (46, 1.58067321777343750000e+00) (47, 1.15564036369323730469e+00) (48, 5.59381663799285888672e-01) (49, 1.31654644012451171875e+00) (50, 8.86812448501586914062e-01) (51, 4.81772035360336303711e-01) (52, -2.51245498657226562500e+00) (53, 4.24563974142074584961e-01) (54, 1.29107916355133056641e+00) (55, -1.63855969905853271484e+00) (56, -9.17073667049407958984e-01) (57, 6.19446575641632080078e-01) (58, 4.46913290023803710938e+00) (59, 2.80020415782928466797e-01) (60, 1.28968954086303710938e+00) (61, 3.71841758489608764648e-01) (62, 7.70240962505340576172e-01) (63, 1.12385880947113037109e+00) (64, 5.14159381389617919922e-01) (65, 1.45759654045104980469e+00) (31, -1.84466385841369628906e+00) (32, 1.53672075271606445312e+00) (33, 1.07912671566009521484e+00) (34, 1.17193305492401123047e+00) (35, 1.74437355995178222656e+00) (36, 1.11680471897125244141e+00) (37, 1.22034931182861328125e+00) (38, 9.37161147594451904297e-01) (39, 1.69790208339691162109e+00) (40, 4.98697489500045776367e-01) (41, 4.78836488723754882812e+00) (42, 1.27711939811706542969e+00) (43, -9.05803740024566650391e-01) (44, 1.30237877368927001953e+00) (45, 8.09432029724121093750e-01) (46, 1.01360833644866943359e+00) (47, 9.75531399250030517578e-01) (48, 8.90951514244079589844e-01) (49, 1.48402273654937744141e+00) (50, 1.23190033435821533203e+00) (51, 9.05159473419189453125e+00) (52, -2.60244876146316528320e-01) (53, 1.10499835014343261719e+00) (54, 1.10459446907043457031e+00) (55, -8.56346845626831054688e-01) (56, -3.11214995384216308594e+00) (57, 1.29253602027893066406e+00) (58, -5.94729566574096679688e+00) (59, 1.25472307205200195312e+00) (60, 1.05856835842132568359e+00) (61, -1.39910697937011718750e+00) (62, 9.97090995311737060547e-01) (63, 8.32233369350433349609e-01) (64, 1.05376803874969482422e+00) (65, 1.75149941444396972656e+00) (31, -7.57658034563064575195e-02) (32, 7.03733742237091064453e-01) (33, -2.47780665755271911621e-01) (34, 8.74248892068862915039e-02) (35, -1.14660730361938476562e+01) (36, 6.76833570003509521484e-01) (37, 1.79552018642425537109e+00) (38, 3.69129806756973266602e-01) (39, 1.68533492088317871094e+00) (40, 5.08718252182006835938e-01) (41, -2.39434647560119628906e+00) (42, 1.66589272022247314453e+00) (43, 8.02562296390533447266e-01) (44, 1.77619493007659912109e+00) (45, 1.03773367404937744141e+00) (46, 3.44892442226409912109e-01) (47, 1.95849180221557617188e-01) (48, 9.98059630393981933594e-01) (49, 9.96181488037109375000e-01) (50, 1.86149895191192626953e+00) (51, 7.04213455319404602051e-02) (52, 8.70297670364379882812e-01) (53, 1.03164219856262207031e+00) (54, 2.93211430311203002930e-01) (55, 9.92931962013244628906e-01) (56, 9.70531582832336425781e-01) (57, 1.72938382625579833984e+00) (58, -3.94335202872753143311e-02) (59, 1.57701778411865234375e+00) (60, 2.81358808279037475586e-01) (61, 1.56403195858001708984e+00) (62, 1.96315973997116088867e-01) (63, 1.25405347347259521484e+00) (64, 1.00468456745147705078e+00) (65, 1.10126125812530517578e+00) (31, -3.44514101743698120117e-01) (32, 7.69139003753662109375e+00) (33, 1.23657917976379394531e+00) (34, 5.79386949539184570312e-01) (35, -1.13615468144416809082e-01) (36, 1.16464555263519287109e+00) (37, 1.01464259624481201172e+00) (38, 1.25859332084655761719e+00) (39, -6.95781186223030090332e-02) (40, -1.61357367038726806641e+00) (41, -1.10848081111907958984e+00) (42, 5.73895692825317382812e+00) (43, 2.65423268079757690430e-01) (44, 9.31948184967041015625e-01) (45, 1.59212291240692138672e+00) (46, 8.35837543010711669922e-01) (47, 1.15083122253417968750e+00) (48, 1.77019381523132324219e+00) (49, 1.54222834110260009766e+00) (50, 1.01418316364288330078e+00) (51, -8.00777316093444824219e-01) (52, -3.85594081878662109375e+00) (53, 2.07774543762207031250e+00) (54, 1.18132376670837402344e+00) (55, 1.35784494876861572266e+00) (56, 5.30247449874877929688e-01) (57, 1.13935160636901855469e+00) (58, 2.51163065433502197266e-01) (59, 1.90990114212036132812e+00) (60, 1.20871531963348388672e+00) (61, 7.25059881806373596191e-02) (62, 5.53127288818359375000e-01) (63, 1.60567498207092285156e+00) (64, 1.25964164733886718750e+00) (65, 5.22943079471588134766e-01) (31, -5.92201352119445800781e-01) (32, -5.84887564182281494141e-01) (33, 5.66764771938323974609e-01) (34, 4.86517608165740966797e-01) (35, 3.11093091964721679688e-01) (36, 1.50236451625823974609e+00) (37, 7.04459130764007568359e-01) (38, 1.55082261562347412109e+00) (39, -2.54510849714279174805e-01) (40, 3.24580341577529907227e-01) (41, 5.94428360462188720703e-01) (42, 8.78070533275604248047e-01) (43, 1.26738679409027099609e+00) (44, 1.25696861743927001953e+00) (45, 6.85265660285949707031e-01) (46, 1.33783197402954101562e+00) (47, 1.49889457225799560547e+00) (48, 7.51994550228118896484e-01) (49, 1.78984117507934570312e+00) (50, 7.16809868812561035156e-01) (51, -1.47161900997161865234e+00) (52, 1.68479287624359130859e+00) (53, 5.74062407016754150391e-01) (54, 1.56239068508148193359e+00) (55, 8.80727469921112060547e-01) (56, -2.25992172956466674805e-01) (57, 1.35325849056243896484e+00) (58, -1.20303738117218017578e+00) (59, 9.23669040203094482422e-01) (60, 1.64684140682220458984e+00) (61, 6.76827311515808105469e-01) (62, 8.81640911102294921875e-01) (63, 6.83359742164611816406e-01) (64, 4.98703002929687500000e-01) (65, 1.27028679847717285156e+00) (31, -4.87850069999694824219e-01) (32, 1.84244251251220703125e+00) (33, 6.99020445346832275391e-01) (34, 7.23123252391815185547e-01) (35, 5.80023825168609619141e-01) (36, 1.03951454162597656250e+00) (37, 9.39840853214263916016e-01) (38, 1.18983829021453857422e+00) (39, 6.15749061107635498047e-01) (40, -1.55939686298370361328e+00) (41, -7.31975018978118896484e-01) (42, 3.55668663978576660156e-01) (43, 1.73001980781555175781e+00) (44, 1.05027508735656738281e+00) (45, 1.70651435852050781250e+00) (46, 1.08114326000213623047e+00) (47, 1.21294701099395751953e+00) (48, 1.57928323745727539062e+00) (49, 2.41556644439697265625e+00) (50, 1.00860905647277832031e+00) (51, 3.46365600824356079102e-01) (52, -5.60216712951660156250e+00) (53, 1.04704213142395019531e+00) (54, 1.24034726619720458984e+00) (55, 1.64916527271270751953e+00) (56, 1.59937763214111328125e+00) (57, 1.02335500717163085938e+00) (58, 7.68687903881072998047e-01) (59, -8.91564264893531799316e-02) (60, 1.21678650379180908203e+00) (61, 1.79377233982086181641e+00) (62, 9.96546447277069091797e-01) (63, 9.84419345855712890625e-01) (64, 1.86589121818542480469e+00) (65, 4.99381005764007568359e-01) (31, 2.06184649467468261719e+00) (32, 3.04398089647293090820e-01) (33, -1.78616452217102050781e+00) (34, -3.07559490203857421875e-01) (35, 2.89965718984603881836e-01) (36, 1.57620048522949218750e+00) (37, 6.77095472812652587891e-01) (38, 1.65026843547821044922e+00) (39, 2.24393252283334732056e-02) (40, 1.20341670513153076172e+00) (41, 1.01605081558227539062e+00) (42, 1.17042243480682373047e-01) (43, 1.38126119971275329590e-01) (44, 7.53492057323455810547e-01) (45, 1.04890954494476318359e+00) (46, 1.48921549320220947266e+00) (47, 1.56933403015136718750e+00) (48, 1.23434722423553466797e+00) (49, 3.83600664138793945312e+00) (50, 7.96678721904754638672e-01) (51, -1.83945310115814208984e+00) (52, 4.52519416809082031250e-01) (53, 8.29161345958709716797e-01) (54, 1.64948904514312744141e+00) (55, 1.89330577850341796875e+00) (56, -1.80859014391899108887e-01) (57, 5.77556431293487548828e-01) (58, 1.53188526630401611328e-01) (59, 6.51133731007575988770e-02) (60, 1.57989442348480224609e+00) (61, 9.50716495513916015625e-01) (62, 1.35360431671142578125e+00) (63, 1.05909621715545654297e+00) (64, 1.11024487018585205078e+00) (65, 1.06194686889648437500e+00) (31, 6.33748590946197509766e-01) (32, 2.14576851576566696167e-02) (33, -2.73245811462402343750e-01) (34, 5.87707936763763427734e-01) (35, 6.80948257446289062500e-01) (36, 5.87582409381866455078e-01) (37, 1.84099531173706054688e+00) (38, 3.93235862255096435547e-01) (39, 1.58257198333740234375e+00) (40, 2.29888096451759338379e-01) (41, -6.29272088408470153809e-02) (42, 1.63007175922393798828e+00) (43, 1.80543816089630126953e+00) (44, 1.71846926212310791016e+00) (45, 1.14254283905029296875e+00) (46, 7.70907580852508544922e-01) (47, 3.21455031633377075195e-01) (48, 1.34849119186401367188e+00) (49, 9.04338002204895019531e-01) (50, 1.86363244056701660156e+00) (51, 1.04022216796875000000e+00) (52, 2.15049803256988525391e-01) (53, 9.58636462688446044922e-01) (54, 3.38932216167449951172e-01) (55, 1.17468094825744628906e+00) (56, 1.49311196804046630859e+00) (57, 8.75711977481842041016e-01) (58, 6.77166759967803955078e-01) (59, 1.34091770648956298828e+00) (60, 3.99995952844619750977e-01) (61, 8.75951826572418212891e-01) (62, 6.45830750465393066406e-01) (63, 1.36271882057189941406e+00) (64, 1.39811146259307861328e+00) (65, 1.07745826244354248047e+00) (31, 6.34180754423141479492e-02) (32, -2.03018212318420410156e+00) (33, -3.61941003799438476562e+00) (34, 2.71254777908325195312e-01) (35, 4.39923554658889770508e-01) (36, 4.65947657823562622070e-01) (37, 1.55952525138854980469e+00) (38, 6.89664781093597412109e-01) (39, 1.51578915119171142578e+00) (40, 9.78799700736999511719e-01) (41, -8.42620754241943359375e+00) (42, 1.32677447795867919922e+00) (43, 9.07911002635955810547e-01) (44, 1.50775229930877685547e+00) (45, 1.29138600826263427734e+00) (46, 7.21806824207305908203e-01) (47, 5.75534343719482421875e-01) (48, 1.19099748134613037109e+00) (49, 7.65168845653533935547e-01) (50, 1.48274505138397216797e+00) (51, 9.94641631841659545898e-02) (52, 3.08075428009033203125e-01) (53, 2.16668322682380676270e-01) (54, 7.71738111972808837891e-01) (55, 8.74907016754150390625e-01) (56, 1.20005583763122558594e+00) (57, 1.64290702342987060547e+00) (58, -5.27042448520660400391e-02) (59, 1.16333138942718505859e+00) (60, 7.35428750514984130859e-01) (61, 8.82175207138061523438e-01) (62, 6.07596218585968017578e-01) (63, 1.20906925201416015625e+00) (64, 1.04758274555206298828e+00) (65, 7.04059958457946777344e-01) (31, 3.61009547486901283264e-03) (32, -1.24015474319458007812e+00) (33, -9.26371663808822631836e-02) (34, 4.16708141565322875977e-01) (35, 3.41332763433456420898e-01) (36, 4.23646688461303710938e-01) (37, 1.71788537502288818359e+00) (38, 4.74845081567764282227e-01) (39, 1.60197079181671142578e+00) (40, 3.84324699640274047852e-01) (41, 4.05312851071357727051e-02) (42, 1.09609270095825195312e+00) (43, 3.92237782478332519531e-01) (44, 1.88126611709594726562e+00) (45, 1.03805661201477050781e+00) (46, 2.09882199764251708984e-01) (47, 3.23259085416793823242e-01) (48, 3.30151438713073730469e-01) (49, 1.66361057758331298828e+00) (50, 1.77674758434295654297e+00) (51, 4.70424443483352661133e-01) (52, 1.95157587528228759766e-01) (53, 9.94536757469177246094e-01) (54, 4.59603309631347656250e-01) (55, 9.99305486679077148438e-01) (56, 7.92482793331146240234e-01) (57, 1.85455167293548583984e+00) (58, 4.54987138509750366211e-01) (59, 1.35035121440887451172e+00) (60, 4.46017265319824218750e-01) (61, 1.10751843452453613281e+00) (62, 3.27274739742279052734e-01) (63, 1.37000906467437744141e+00) (64, 8.79388511180877685547e-01) (65, 1.16938650608062744141e+00) (66, 7.92224109172821044922e-01) (67, 1.22367644309997558594e+00) (68, 1.49393963813781738281e+00) (69, 9.90888774394989013672e-01) (70, 1.20407283306121826172e+00) (71, 1.16882252693176269531e+00) (72, 1.72917878627777099609e+00) (73, 1.26070940494537353516e+00) (74, 1.06661272048950195312e+00) (75, 1.48909282684326171875e+00) (76, 3.71107399463653564453e-01) (77, -4.00879651308059692383e-01) (78, 9.12483274936676025391e-01) (79, 1.19872581958770751953e+00) (80, 8.71145784854888916016e-01) (81, -2.29297757148742675781e+00) (82, 1.44917070865631103516e+00) (83, -1.37209165096282958984e+00) (84, 8.40500235557556152344e-01) (85, 5.95977485179901123047e-01) (86, -1.28937393426895141602e-01) (87, -1.06836318969726562500e+00) (88, 5.82704544067382812500e-01) (89, 1.21935558319091796875e+00) (90, -3.47907829284667968750e+00) (91, 8.43465268611907958984e-01) (92, 7.69817888736724853516e-01) (93, 1.29686856269836425781e+00) (94, 1.05469810962677001953e+00) (95, 1.25136077404022216797e+00) (96, 1.09055078029632568359e+00) (97, -1.50186109542846679688e+00) (98, 1.64526605606079101562e+00) (99, 6.86609566211700439453e-01) (100, 7.98358500003814697266e-01) (101, 1.28712213039398193359e+00) (102, 2.42519092559814453125e+00) (103, -2.05878829956054687500e+00) (104, 1.38614118099212646484e+00) (105, 9.19729590415954589844e-01) (106, 9.04561698436737060547e-01) (66, 1.86394774913787841797e+00) (67, 6.87600791454315185547e-01) (68, 5.81703960895538330078e-01) (69, 1.34305250644683837891e+00) (70, 6.82048022747039794922e-01) (71, 2.61256396770477294922e-01) (72, 1.38232457637786865234e+00) (73, 6.46333336830139160156e-01) (74, 8.54945242404937744141e-01) (75, 1.67876529693603515625e+00) (76, 4.16700482368469238281e-01) (77, -8.78323893994092941284e-03) (78, 7.86467969417572021484e-01) (79, -1.03391683101654052734e+00) (80, 4.12875086069107055664e-01) (81, 1.63917911052703857422e+00) (82, 1.69717228412628173828e+00) (83, 1.77594757080078125000e+00) (84, 2.01352357864379882812e+00) (85, -6.64033368229866027832e-02) (86, 7.10447669029235839844e-01) (87, -6.75055170059204101562e+00) (88, 9.90358054637908935547e-01) (89, 7.64316022396087646484e-01) (90, 1.35974669456481933594e+00) (91, 1.28096067905426025391e+00) (92, 9.28880810737609863281e-01) (93, 6.76086425781250000000e-01) (94, 6.97109520435333251953e-01) (95, 2.24160051345825195312e+00) (96, 7.32994318008422851562e-01) (97, 1.06595516204833984375e+00) (98, 1.48180222511291503906e+00) (99, -1.31977394223213195801e-01) (100, 5.74746787548065185547e-01) (101, 3.92730832099914550781e-01) (102, 1.71457207202911376953e+00) (103, 7.23203778266906738281e-01) (104, 1.92938411235809326172e+00) (105, 1.29561686515808105469e+00) (106, 1.82694983482360839844e+00) (66, 1.76037871837615966797e+00) (67, 8.28378379344940185547e-01) (68, 4.08911609649658203125e+00) (69, -2.69350395202636718750e+01) (70, -3.84195280075073242188e+00) (71, 1.15426909923553466797e+00) (72, 1.50874567031860351562e+01) (73, 1.11617743968963623047e+00) (74, 3.42163562774658203125e-01) (75, 1.13940155506134033203e+00) (76, -8.52283060550689697266e-01) (77, 6.72567367553710937500e-01) (78, 2.22675919532775878906e+00) (79, 3.81170940399169921875e+00) (80, 3.68855047225952148438e+00) (81, 5.31275033950805664062e-01) (82, 2.43405461311340332031e+00) (83, -7.79593563079833984375e+00) (84, 1.14835858345031738281e+00) (85, 1.70647203922271728516e+00) (86, -5.06426382064819335938e+00) (87, 1.55501947402954101562e+01) (88, 1.20010316371917724609e+00) (89, 1.30529317855834960938e+01) (90, 1.39097583293914794922e+00) (91, -8.67022991180419921875e+00) (92, 3.66675496101379394531e+00) (93, 7.68391311168670654297e-01) (94, -5.38393616676330566406e-01) (95, 1.79925203323364257812e+00) (96, 8.94220590591430664062e-01) (97, 7.22093343734741210938e+00) (98, 1.80893945693969726562e+00) (99, -1.07991523742675781250e+01) (100, 1.00790202617645263672e+00) (101, 1.47178030014038085938e+00) (102, 1.73850750923156738281e+00) (103, -1.39094762802124023438e+01) (104, 1.76804113388061523438e+00) (105, 1.04209995269775390625e+00) (106, 9.54968333244323730469e-01) (66, 1.07691788673400878906e+00) (67, 6.05362892150878906250e-01) (68, 6.92076027393341064453e-01) (69, 1.37480592727661132812e+00) (70, 1.88950538635253906250e-01) (71, 9.11772012710571289062e-01) (72, 1.59873008728027343750e+00) (73, 7.54988491535186767578e-01) (74, 2.59952473640441894531e+00) (75, 9.34043884277343750000e-01) (76, 4.08276319503784179688e-01) (77, 4.04782257974147796631e-02) (78, -4.75058984756469726562e+00) (79, -1.33167609572410583496e-01) (80, 4.92152154445648193359e-01) (81, 2.25843644142150878906e+00) (82, 1.92923986911773681641e+00) (83, 9.01575326919555664062e-01) (84, 1.14985775947570800781e+00) (85, 1.06163811683654785156e+00) (86, 1.22655369341373443604e-01) (87, 7.56267607212066650391e-02) (88, -4.53186702728271484375e+00) (89, 1.14424180984497070312e+00) (90, 3.73409837484359741211e-01) (91, 1.19294238090515136719e+00) (92, -2.05103397369384765625e-01) (93, 5.92091917991638183594e-01) (94, 8.95538866519927978516e-01) (95, 1.85721457004547119141e+00) (96, 1.02284181118011474609e+00) (97, -9.86704975366592407227e-02) (98, 3.08130240440368652344e+00) (99, 4.56502944231033325195e-01) (100, 5.31903982162475585938e-01) (101, 5.69352865219116210938e-01) (102, 3.40883225202560424805e-01) (103, 1.45965242385864257812e+00) (104, 1.96955680847167968750e+00) (105, 9.27189350128173828125e-01) (106, 1.36608576774597167969e+00) (66, 1.90532314777374267578e+00) (67, 5.10578393936157226562e-01) (68, 8.98980140686035156250e-01) (69, 1.14911293983459472656e+00) (70, 7.48188644647598266602e-02) (71, 6.45238459110260009766e-01) (72, 9.90418815612792968750e+00) (73, 5.69037795066833496094e-01) (74, -9.60301756858825683594e-01) (75, 1.36696934700012207031e+00) (76, 1.10159242153167724609e+00) (77, 3.91019647940993309021e-03) (78, 5.87193250656127929688e-01) (79, -7.44625985622406005859e-01) (80, 4.94869410991668701172e-01) (81, 1.15609908103942871094e+00) (82, 1.86390554904937744141e+00) (83, 3.48792910575866699219e+00) (84, 1.61437797546386718750e+00) (85, 4.75089758634567260742e-01) (86, 2.88284301757812500000e-01) (87, 9.56424808502197265625e+00) (88, 2.55650691688060760498e-02) (89, 5.37434816360473632812e-01) (90, 1.10890102386474609375e+00) (91, 1.08982932567596435547e+00) (92, 1.46058857440948486328e+00) (93, 4.98154461383819580078e-01) (94, 1.44489169120788574219e+00) (95, 2.33687305450439453125e+00) (96, 2.76722192764282226562e-01) (97, 3.01147818565368652344e-01) (98, 1.92679619789123535156e+00) (99, -5.84958267211914062500e+00) (100, 2.97103345394134521484e-01) (101, 3.91954630613327026367e-01) (102, 1.33657407760620117188e+00) (103, 1.24310123920440673828e+00) (104, 1.63364863395690917969e+00) (105, -1.41793394088745117188e+00) (106, 1.87657654285430908203e+00) (66, 1.01693582534790039062e+00) (67, 1.06633484363555908203e+00) (68, 9.33443069458007812500e-01) (69, 9.29710924625396728516e-01) (70, 1.01849448680877685547e+00) (71, 7.94755339622497558594e-01) (72, 1.24452841281890869141e+00) (73, 7.01372921466827392578e-01) (74, 3.92463922500610351562e-01) (75, 7.94275939464569091797e-01) (76, 1.14226996898651123047e+00) (77, 6.96316957473754882812e-01) (78, 2.37047165632247924805e-01) (79, 1.13750636577606201172e+00) (80, 4.76231008768081665039e-01) (81, 6.88075244426727294922e-01) (82, 5.06117761135101318359e-01) (83, -7.81153559684753417969e-01) (84, 1.06758105754852294922e+00) (85, 1.91544279456138610840e-01) (86, -5.92733779922127723694e-03) (87, -5.30043315887451171875e+00) (88, 9.16721165180206298828e-01) (89, 7.69240736961364746094e-01) (90, 1.20532214641571044922e+00) (91, 6.45635962486267089844e-01) (92, 7.27270305156707763672e-01) (93, 1.07207155227661132812e+00) (94, 1.42738294601440429688e+00) (95, 7.59093940258026123047e-01) (96, 6.92752838134765625000e-01) (97, 5.48800110816955566406e-01) (98, 1.18134355545043945312e+00) (99, 9.58448112010955810547e-01) (100, 1.75805532932281494141e+00) (101, 8.24815750122070312500e-01) (102, 8.49317371845245361328e-01) (103, -1.45559763908386230469e+00) (104, 9.66141879558563232422e-01) (105, 1.10199260711669921875e+00) (106, 1.09548473358154296875e+00) (66, 8.54039430618286132812e-01) (67, 1.07773840427398681641e+00) (68, 1.17909562587738037109e+00) (69, 5.62495589256286621094e-01) (70, 6.49750053882598876953e-01) (71, 8.79368245601654052734e-01) (72, 9.50058460235595703125e-01) (73, 1.10609400272369384766e+00) (74, 4.45759534835815429688e-01) (75, 1.16676366329193115234e+00) (76, 1.04415011405944824219e+00) (77, -3.11945509910583496094e+00) (78, 1.01036291122436523438e+01) (79, 2.06090664863586425781e+00) (80, 6.67193949222564697266e-01) (81, -4.47192370891571044922e-01) (82, 4.79402989149093627930e-01) (83, -1.64954400062561035156e+00) (84, 9.24088478088378906250e-01) (85, -3.03709793090820312500e+00) (86, 4.61492776870727539062e+00) (87, 6.34995281696319580078e-01) (88, 5.29906868934631347656e-01) (89, 6.84970438480377197266e-01) (90, 1.21657609939575195312e+00) (91, -3.25870752334594726562e-01) (92, 1.05077733993530273438e+01) (93, 1.18614459037780761719e+00) (94, 4.37248170375823974609e-01) (95, 2.14968502521514892578e-01) (96, 6.16313695907592773438e-01) (97, 1.72236394882202148438e+00) (98, 1.17215943336486816406e+00) (99, 9.73837077617645263672e-01) (100, 1.57806277275085449219e+00) (101, 1.09863710403442382812e+00) (102, 1.45277178287506103516e+00) (103, -1.65921630859375000000e+01) (104, 1.46050906181335449219e+00) (105, 1.17218780517578125000e+00) (106, 9.13405358791351318359e-01) (66, 1.94052553176879882812e+00) (67, 3.31250041723251342773e-01) (68, -4.98600155115127563477e-01) (69, -2.32850527763366699219e+00) (70, -1.25807542353868484497e-02) (71, 2.16992783546447753906e+00) (72, -5.01819849014282226562e+00) (73, 5.21977953612804412842e-02) (74, 3.60997945070266723633e-01) (75, 1.11620712280273437500e+00) (76, -2.42651557922363281250e+00) (77, -3.64569604396820068359e-01) (78, -3.35665750503540039062e+00) (79, 1.18468010425567626953e+00) (80, 3.38526591658592224121e-02) (81, 8.40855062007904052734e-01) (82, 1.79088664054870605469e+00) (83, -2.73541808128356933594e-01) (84, 