FANN_FLO_2.1
num_layers=3
learning_rate=0.700000
connection_rate=1.000000
network_type=0
learning_momentum=0.000000
training_algorithm=2
train_error_function=1
train_stop_function=0
cascade_output_change_fraction=0.010000
quickprop_decay=-0.000100
quickprop_mu=1.750000
rprop_increase_factor=1.200000
rprop_decrease_factor=0.500000
rprop_delta_min=0.000000
rprop_delta_max=50.000000
rprop_delta_zero=0.100000
cascade_output_stagnation_epochs=12
cascade_candidate_change_fraction=0.010000
cascade_candidate_stagnation_epochs=12
cascade_max_out_epochs=150
cascade_min_out_epochs=50
cascade_max_cand_epochs=150
cascade_min_cand_epochs=50
cascade_num_candidate_groups=2
bit_fail_limit=3.49999994039535522461e-01
cascade_candidate_limit=1.00000000000000000000e+03
cascade_weight_multiplier=4.00000005960464477539e-01
cascade_activation_functions_count=10
cascade_activation_functions=3 5 7 8 10 11 14 15 16 17 
cascade_activation_steepnesses_count=4
cascade_activation_steepnesses=2.50000000000000000000e-01 5.00000000000000000000e-01 7.50000000000000000000e-01 1.00000000000000000000e+00 
layer_sizes=31 4 55 
scale_included=0
neurons (num_inputs, activation_function, activation_steepness)=(0, 0, 0.00000000000000000000e+00) (0, 0, 0.00000000000000000000e+00) (0, 0, 0.00000000000000000000e+00) (0, 0, 0.00000000000000000000e+00) (0, 0, 0.00000000000000000000e+00) (0, 0, 0.00000000000000000000e+00) (0, 0, 0.00000000000000000000e+00) (0, 0, 0.00000000000000000000e+00) (0, 0, 0.00000000000000000000e+00) (0, 0, 0.00000000000000000000e+00) (0, 0, 0.00000000000000000000e+00) (0, 0, 0.00000000000000000000e+00) (0, 0, 0.00000000000000000000e+00) (0, 0, 0.00000000000000000000e+00) (0, 0, 0.00000000000000000000e+00) (0, 0, 0.00000000000000000000e+00) (0, 0, 0.00000000000000000000e+00) (0, 0, 0.00000000000000000000e+00) (0, 0, 0.00000000000000000000e+00) (0, 0, 0.00000000000000000000e+00) (0, 0, 0.00000000000000000000e+00) (0, 0, 0.00000000000000000000e+00) (0, 0, 0.00000000000000000000e+00) (0, 0, 0.00000000000000000000e+00) (0, 0, 0.00000000000000000000e+00) (0, 0, 0.00000000000000000000e+00) (0, 0, 0.00000000000000000000e+00) (0, 0, 0.00000000000000000000e+00) (0, 0, 0.00000000000000000000e+00) (0, 0, 0.00000000000000000000e+00) (0, 0, 0.00000000000000000000e+00) (31, 5, 5.00000000000000000000e-01) (31, 5, 5.00000000000000000000e-01) (31, 5, 5.00000000000000000000e-01) (0, 5, 0.00000000000000000000e+00) (4, 5, 2.00000002980232238770e-01) (4, 5, 2.00000002980232238770e-01) (4, 5, 2.00000002980232238770e-01) (4, 5, 2.00000002980232238770e-01) (4, 5, 2.00000002980232238770e-01) (4, 5, 2.00000002980232238770e-01) (4, 5, 2.00000002980232238770e-01) (4, 5, 2.00000002980232238770e-01) (4, 5, 2.00000002980232238770e-01) (4, 5, 2.00000002980232238770e-01) (4, 5, 2.00000002980232238770e-01) (4, 5, 2.00000002980232238770e-01) (4, 5, 2.00000002980232238770e-01) (4, 5, 2.00000002980232238770e-01) (4, 5, 2.00000002980232238770e-01) (4, 5, 2.00000002980232238770e-01) (4, 5, 2.00000002980232238770e-01) (4, 5, 2.00000002980232238770e-01) (4, 5, 2.00000002980232238770e-01) (4, 5, 2.00000002980232238770e-01) (4, 5, 2.00000002980232238770e-01) (4, 5, 2.00000002980232238770e-01) (4, 5, 2.00000002980232238770e-01) (4, 5, 2.00000002980232238770e-01) (4, 5, 2.00000002980232238770e-01) (4, 5, 2.00000002980232238770e-01) (4, 5, 2.00000002980232238770e-01) (4, 5, 2.00000002980232238770e-01) (4, 5, 2.00000002980232238770e-01) (4, 5, 2.00000002980232238770e-01) (4, 5, 2.00000002980232238770e-01) (4, 5, 2.00000002980232238770e-01) (4, 5, 2.00000002980232238770e-01) (4, 5, 2.00000002980232238770e-01) (4, 5, 2.00000002980232238770e-01) (4, 5, 2.00000002980232238770e-01) (4, 5, 2.00000002980232238770e-01) (4, 5, 2.00000002980232238770e-01) (4, 5, 2.00000002980232238770e-01) (4, 5, 2.00000002980232238770e-01) (4, 5, 2.00000002980232238770e-01) (4, 5, 2.00000002980232238770e-01) (4, 5, 2.00000002980232238770e-01) (4, 5, 2.00000002980232238770e-01) (4, 5, 2.00000002980232238770e-01) (4, 5, 2.00000002980232238770e-01) (4, 5, 2.00000002980232238770e-01) (4, 5, 2.00000002980232238770e-01) (4, 5, 2.00000002980232238770e-01) (4, 5, 2.00000002980232238770e-01) (4, 5, 2.00000002980232238770e-01) (4, 5, 2.00000002980232238770e-01) (4, 5, 2.00000002980232238770e-01) (4, 5, 2.00000002980232238770e-01) (0, 5, 2.00000002980232238770e-01) 
connections (connected_to_neuron, weight)=(0, 7.71259643554687500000e+02) (1, 4.00354583740234375000e+02) (2, 4.47711273193359375000e+02) (3, -1.50000000000000000000e+03) (4, -1.50000000000000000000e+03) (5, -1.50000000000000000000e+03) (6, 1.28292175292968750000e+02) (7, 1.22337844848632812500e+02) (8, -4.66473541259765625000e+02) (9, 9.11773803710937500000e+02) (10, 1.80825302124023437500e+02) (11, 3.83420654296875000000e+02) (12, 6.44832916259765625000e+01) (13, -6.65135049819946289062e+00) (14, 2.11937423706054687500e+02) (15, 1.28311657714843750000e+03) (16, 5.39209556579589843750e+01) (17, 1.23600975036621093750e+02) (18, -1.43119018554687500000e+02) (19, -2.84217468261718750000e+02) (20, -5.25057128906250000000e+02) (21, 7.31829101562500000000e+02) (22, 6.91123168945312500000e+02) (23, 6.94518493652343750000e+02) (24, 8.71063537597656250000e+02) (25, -2.42761123657226562500e+02) (26, -6.57431945800781250000e+01) (27, 4.22686645507812500000e+02) (28, -2.87640014648437500000e+02) (29, 3.03530853271484375000e+02) (30, -5.86052795410156250000e+02) (0, 7.09444824218750000000e+02) (1, 1.30751806640625000000e+03) (2, -1.50000000000000000000e+03) (3, 1.19799719238281250000e+03) (4, 1.32934875488281250000e+03) (5, 4.91986694335937500000e+02) (6, 9.37485412597656250000e+02) (7, 1.41005004882812500000e+03) (8, -1.50000000000000000000e+03) (9, 1.49999975585937500000e+03) (10, 1.47979248046875000000e+03) (11, -1.08906311035156250000e+03) (12, 8.40034057617187500000e+02) (13, 1.48556225585937500000e+03) (14, 1.40138989257812500000e+03) (15, -1.25759228515625000000e+03) (16, -1.25223645019531250000e+03) (17, -1.49412121582031250000e+03) (18, 1.50000000000000000000e+03) (19, 1.50000000000000000000e+03) (20, 1.50000000000000000000e+03) (21, -2.20826110839843750000e+02) (22, -1.06648645019531250000e+03) (23, -1.50000000000000000000e+03) (24, 2.90856262207031250000e+02) (25, 1.48184155273437500000e+03) (26, -1.50000000000000000000e+03) (27, -1.49995581054687500000e+03) (28, -1.22486206054687500000e+03) (29, 6.96467285156250000000e+01) (30, -1.50000000000000000000e+03) (0, -4.01532602310180664062e+00) (1, 4.00670051574707031250e+00) (2, 6.39398336410522460938e+00) (3, -2.55454397201538085938e+00) (4, 3.86238408088684082031e+00) (5, 3.63498806953430175781e-01) (6, 5.34358692169189453125e+00) (7, 3.43377542495727539062e+00) (8, -9.41512966156005859375e+00) (9, 9.76740550994873046875e+00) (10, -1.13526217639446258545e-01) (11, -8.05343437194824218750e+00) (12, 2.97735404968261718750e+00) (13, -1.60247898101806640625e+00) (14, 5.50622034072875976562e+00) (15, -4.93699598312377929688e+00) (16, -5.75055742263793945312e+00) (17, 1.88970279693603515625e+00) (18, 3.10963726043701171875e+00) (19, 2.05090284347534179688e+00) (20, -2.60736799240112304688e+00) (21, -9.91878318786621093750e+00) (22, -1.55585455894470214844e+00) (23, 3.32712769508361816406e+00) (24, 3.26147341728210449219e+00) (25, -8.53193819522857666016e-01) (26, -2.39803075790405273438e+00) (27, -4.87148332595825195312e+00) (28, -3.84346461296081542969e+00) (29, 7.18079090118408203125e+00) (30, 1.89221704006195068359e+00) (31, 8.81914329528808593750e+00) (32, -4.29462641477584838867e-01) (33, 6.52506637573242187500e+00) (34, 3.70851349830627441406e+00) (31, 8.60524654388427734375e+00) (32, -4.80767548084259033203e-01) (33, 6.93501186370849609375e+00) (34, 3.14442729949951171875e+00) (31, 8.46124935150146484375e+00) (32, -5.36319792270660400391e-01) (33, 7.45636749267578125000e+00) (34, 2.55270171165466308594e+00) (31, -3.55554103851318359375e+00) (32, 2.72934842109680175781e+00) (33, -4.98433780670166015625e+00) (34, 7.13133192062377929688e+00) (31, -6.08710670471191406250e+00) (32, 2.43323683738708496094e+00) (33, 5.17605125904083251953e-01) (34, 2.98148006200790405273e-01) (31, -9.05900573730468750000e+00) (32, 2.19304609298706054688e+00) (33, 9.57924365997314453125e+00) (34, -9.71676635742187500000e+00) (31, 8.87524032592773437500e+00) (32, -6.07023477554321289062e-01) (33, 6.45311594009399414062e+00) (34, 3.96793913841247558594e+00) (31, 7.84336709976196289062e+00) (32, -8.92527997493743896484e-01) (33, 7.85672330856323242188e+00) (34, 1.79334080219268798828e+00) (31, 7.19539880752563476562e+00) (32, -9.53449726104736328125e-01) (33, 8.14062404632568359375e+00) (34, 9.25091862678527832031e-01) (31, -7.62574481964111328125e+00) (32, 4.36941504478454589844e-01) (33, -5.13104963302612304688e+00) (34, 3.40449190139770507812e+00) (31, -1.18530092239379882812e+01) (32, -4.24795240163803100586e-01) (33, 3.23233652114868164062e+00) (34, -7.94693899154663085938e+00) (31, -1.75701007843017578125e+01) (32, -1.63815188407897949219e+00) (33, 1.57431707382202148438e+01) (34, -2.43276290893554687500e+01) (31, 8.95578384399414062500e+00) (32, 1.84126484394073486328e+00) (33, -8.01778888702392578125e+00) (34, 1.88315258026123046875e+01) (31, 2.46651954650878906250e+01) (32, 5.61933696269989013672e-01) (33, 1.54877176284790039062e+01) (34, 1.59590911865234375000e+01) (31, 2.71403551101684570312e+00) (32, 4.66862738132476806641e-01) (33, 2.14823102951049804688e+00) (34, 2.44651317596435546875e+00) (31, 5.73187217712402343750e+01) (32, -4.36368322372436523438e+00) (33, 4.67416915893554687500e+01) (34, 2.13069877624511718750e+01) (31, 1.82920417785644531250e+01) (32, -7.61250182986259460449e-02) (33, 1.52761287689208984375e+01) (34, 8.99847316741943359375e+00) (31, 3.42295956611633300781e+00) (32, 2.28767800331115722656e+00) (33, 8.91837298870086669922e-01) (34, 5.80309343338012695312e+00) (31, 5.31121969223022460938e+00) (32, 1.69273757934570312500e+00) (33, -7.62909078598022460938e+00) (34, 1.43494091033935546875e+01) (31, 1.61529712677001953125e+01) (32, 1.93348869681358337402e-01) (33, 1.13689260482788085938e+01) (34, 9.94594573974609375000e+00) (31, 3.89927978515625000000e+01) (32, -5.03158998489379882812e+00) (33, 4.03965187072753906250e+01) (34, 6.20162773132324218750e+00) (31, 1.50607147216796875000e+01) (32, 6.53410196304321289062e+00) (33, 7.80032777786254882812e+00) (34, 1.83717041015625000000e+01) (31, 2.74839544296264648438e+00) (32, 1.01817722320556640625e+01) (33, -3.54441255331039428711e-01) (34, 1.49944772720336914062e+01) (31, 4.25816726684570312500e+01) (32, 4.72381210327148437500e+00) (33, 4.13634567260742187500e+01) (34, 1.82819938659667968750e+01) (31, 1.11850941181182861328e+00) (32, 1.34386944770812988281e+00) (33, 1.90701889991760253906e+00) (34, 3.15054106712341308594e+00) (31, 1.23726167678833007812e+01) (32, -6.23130984604358673096e-02) (33, 1.49617586135864257812e+01) (34, 3.61665081977844238281e+00) (31, 2.16217384338378906250e+01) (32, -1.22349381446838378906e+00) (33, 2.60628089904785156250e+01) (34, 3.15270161628723144531e+00) (31, -7.97969722747802734375e+00) (32, 5.57745218276977539062e-01) (33, -3.00941586494445800781e-01) (34, -2.42095494270324707031e+00) (31, -9.75996112823486328125e+00) (32, 2.28605270385742187500e-01) (33, 3.76281023025512695312e+00) (34, -7.56888294219970703125e+00) (31, -1.36286134719848632812e+01) (32, -5.65064966678619384766e-01) (33, 1.23048410415649414062e+01) (34, -1.85942687988281250000e+01) (31, 3.55663681030273437500e+00) (32, 2.96958374977111816406e+00) (33, -4.38211250305175781250e+00) (34, 1.06748781204223632812e+01) (31, 2.31436276435852050781e+00) (32, 2.76689600944519042969e+00) (33, -1.79489564895629882812e+00) (34, 7.38056850433349609375e+00) (31, 2.48198434710502624512e-02) (32, 2.35718250274658203125e+00) (33, 2.43988752365112304688e+00) (34, 1.64961934089660644531e+00) (31, 9.57551956176757812500e+01) (32, -8.80522441864013671875e+00) (33, 8.23117141723632812500e+01) (34, 2.95403995513916015625e+01) (31, 9.98598515987396240234e-01) (32, 1.84909737110137939453e+00) (33, 2.62732601165771484375e+00) (34, 2.76833796501159667969e+00) (31, 1.66808056831359863281e+00) (32, 1.40182888507843017578e+00) (33, 8.42124271392822265625e+00) (34, -1.50990557670593261719e+00) (31, 9.74088001251220703125e+00) (32, 8.77995204925537109375e+00) (33, -1.29234914779663085938e+01) (34, 3.05764102935791015625e+01) (31, 3.77855529785156250000e+01) (32, 1.47848069667816162109e+00) (33, 3.10780067443847656250e+01) (34, 1.94003772735595703125e+01) (31, -6.75998687744140625000e-01) (32, 2.57490086555480957031e+00) (33, 6.15587759017944335938e+00) (34, -1.15532910823822021484e+00) (31, 1.00037498474121093750e+02) (32, -9.38397312164306640625e+00) (33, 8.57270431518554687500e+01) (34, 3.10309600830078125000e+01) (31, 3.62050170898437500000e+01) (32, -1.94271862506866455078e+00) (33, 3.20339279174804687500e+01) (34, 1.33768167495727539062e+01) (31, 1.78228533267974853516e+00) (32, 2.40914201736450195312e+00) (33, 1.97039592266082763672e+00) (34, 4.02041244506835937500e+00) (31, 1.65693438053131103516e+00) (32, 7.89564311504364013672e-01) (33, -2.66700005531311035156e+00) (34, 6.92868661880493164062e+00) (31, 2.73922290802001953125e+01) (32, -1.38061034679412841797e+00) (33, 2.42042675018310546875e+01) (34, 1.07597570419311523438e+01) (31, 6.85834732055664062500e+01) (32, -8.77930545806884765625e+00) (33, 6.79743804931640625000e+01) (34, 1.23132028579711914062e+01) (31, 5.84348058700561523438e+00) (32, 1.60894715785980224609e+00) (33, 9.16255414485931396484e-01) (34, 1.01578359603881835938e+01) (31, 1.56588780879974365234e+00) (32, 5.30538415908813476562e+00) (33, -3.24841201305389404297e-01) (34, 9.41482257843017578125e+00) (31, 5.59702529907226562500e+01) (32, -3.59828734397888183594e+00) (33, 5.41030883789062500000e+01) (34, 1.43830575942993164062e+01) (31, -3.02624076604843139648e-01) (32, 1.65245985984802246094e+00) (33, 1.64180815219879150391e+00) (34, 2.80276036262512207031e+00) (31, 1.59798831939697265625e+01) (32, -4.21793133020401000977e-01) (33, 2.07005081176757812500e+01) (34, 3.49882149696350097656e+00) (31, 3.93272743225097656250e+01) (32, -3.21014714241027832031e+00) (33, 4.55267486572265625000e+01) (34, 5.13090372085571289062e+00) (31, -7.63142633438110351562e+00) (32, 4.34212028980255126953e-01) (33, -5.11867570877075195312e+00) (34, 3.38715171813964843750e+00) (31, -1.18624286651611328125e+01) (32, -4.27053540945053100586e-01) (33, 3.24684524536132812500e+00) (34, -7.96844768524169921875e+00) (31, -1.75569019317626953125e+01) (32, -1.63680219650268554688e+00) (33, 1.57322340011596679688e+01) (34, -2.43082180023193359375e+01) 
