FANN_FLO_2.1
num_layers=3
learning_rate=0.700000
connection_rate=1.000000
network_type=0
learning_momentum=0.000000
training_algorithm=2
train_error_function=1
train_stop_function=0
cascade_output_change_fraction=0.010000
quickprop_decay=-0.000100
quickprop_mu=1.750000
rprop_increase_factor=1.200000
rprop_decrease_factor=0.500000
rprop_delta_min=0.000000
rprop_delta_max=50.000000
rprop_delta_zero=0.100000
cascade_output_stagnation_epochs=12
cascade_candidate_change_fraction=0.010000
cascade_candidate_stagnation_epochs=12
cascade_max_out_epochs=150
cascade_max_cand_epochs=150
cascade_num_candidate_groups=2
bit_fail_limit=3.49999994039535522461e-01
cascade_candidate_limit=1.00000000000000000000e+03
cascade_weight_multiplier=4.00000005960464477539e-01
cascade_activation_functions_count=10
cascade_activation_functions=3 5 7 8 10 11 14 15 16 17 
cascade_activation_steepnesses_count=4
cascade_activation_steepnesses=2.50000000000000000000e-01 5.00000000000000000000e-01 7.50000000000000000000e-01 1.00000000000000000000e+00 
layer_sizes=55 33 31 
scale_included=0
neurons (num_inputs, activation_function, activation_steepness)=(0, 0, 0.00000000000000000000e+00) (0, 0, 0.00000000000000000000e+00) (0, 0, 0.00000000000000000000e+00) (0, 0, 0.00000000000000000000e+00) (0, 0, 0.00000000000000000000e+00) (0, 0, 0.00000000000000000000e+00) (0, 0, 0.00000000000000000000e+00) (0, 0, 0.00000000000000000000e+00) (0, 0, 0.00000000000000000000e+00) (0, 0, 0.00000000000000000000e+00) (0, 0, 0.00000000000000000000e+00) (0, 0, 0.00000000000000000000e+00) (0, 0, 0.00000000000000000000e+00) (0, 0, 0.00000000000000000000e+00) (0, 0, 0.00000000000000000000e+00) (0, 0, 0.00000000000000000000e+00) (0, 0, 0.00000000000000000000e+00) (0, 0, 0.00000000000000000000e+00) (0, 0, 0.00000000000000000000e+00) (0, 0, 0.00000000000000000000e+00) (0, 0, 0.00000000000000000000e+00) (0, 0, 0.00000000000000000000e+00) (0, 0, 0.00000000000000000000e+00) (0, 0, 0.00000000000000000000e+00) (0, 0, 0.00000000000000000000e+00) (0, 0, 0.00000000000000000000e+00) (0, 0, 0.00000000000000000000e+00) (0, 0, 0.00000000000000000000e+00) (0, 0, 0.00000000000000000000e+00) (0, 0, 0.00000000000000000000e+00) (0, 0, 0.00000000000000000000e+00) (0, 0, 0.00000000000000000000e+00) (0, 0, 0.00000000000000000000e+00) (0, 0, 0.00000000000000000000e+00) (0, 0, 0.00000000000000000000e+00) (0, 0, 0.00000000000000000000e+00) (0, 0, 0.00000000000000000000e+00) (0, 0, 0.00000000000000000000e+00) (0, 0, 0.00000000000000000000e+00) (0, 0, 0.00000000000000000000e+00) (0, 0, 0.00000000000000000000e+00) (0, 0, 0.00000000000000000000e+00) (0, 0, 0.00000000000000000000e+00) (0, 0, 0.00000000000000000000e+00) (0, 0, 0.00000000000000000000e+00) (0, 0, 0.00000000000000000000e+00) (0, 0, 0.00000000000000000000e+00) (0, 0, 0.00000000000000000000e+00) (0, 0, 0.00000000000000000000e+00) (0, 0, 0.00000000000000000000e+00) (0, 0, 0.00000000000000000000e+00) (0, 0, 0.00000000000000000000e+00) (0, 0, 0.00000000000000000000e+00) (0, 0, 0.00000000000000000000e+00) (0, 0, 0.00000000000000000000e+00) (55, 4, 5.00000000000000000000e-01) (55, 4, 5.00000000000000000000e-01) (55, 4, 5.00000000000000000000e-01) (55, 4, 5.00000000000000000000e-01) (55, 4, 5.00000000000000000000e-01) (55, 4, 5.00000000000000000000e-01) (55, 4, 5.00000000000000000000e-01) (55, 4, 5.00000000000000000000e-01) (55, 4, 5.00000000000000000000e-01) (55, 4, 5.00000000000000000000e-01) (55, 4, 5.00000000000000000000e-01) (55, 4, 5.00000000000000000000e-01) (55, 4, 5.00000000000000000000e-01) (55, 4, 5.00000000000000000000e-01) (55, 4, 5.00000000000000000000e-01) (55, 4, 5.00000000000000000000e-01) (55, 4, 5.00000000000000000000e-01) (55, 4, 5.00000000000000000000e-01) (55, 4, 5.00000000000000000000e-01) (55, 4, 5.00000000000000000000e-01) (55, 4, 5.00000000000000000000e-01) (55, 4, 5.00000000000000000000e-01) (55, 4, 5.00000000000000000000e-01) (55, 4, 5.00000000000000000000e-01) (55, 4, 5.00000000000000000000e-01) (55, 4, 5.00000000000000000000e-01) (55, 4, 5.00000000000000000000e-01) (55, 4, 5.00000000000000000000e-01) (55, 4, 5.00000000000000000000e-01) (55, 4, 5.00000000000000000000e-01) (55, 4, 5.00000000000000000000e-01) (55, 4, 5.00000000000000000000e-01) (0, 0, 0.00000000000000000000e+00) (33, 4, 2.19999998807907104492e-01) (33, 4, 2.19999998807907104492e-01) (33, 4, 2.19999998807907104492e-01) (33, 4, 2.19999998807907104492e-01) (33, 4, 2.19999998807907104492e-01) (33, 4, 2.19999998807907104492e-01) (33, 4, 2.19999998807907104492e-01) (33, 4, 2.19999998807907104492e-01) (33, 4, 2.19999998807907104492e-01) (33, 4, 2.19999998807907104492e-01) (33, 4, 2.19999998807907104492e-01) (33, 4, 2.19999998807907104492e-01) (33, 4, 2.19999998807907104492e-01) (33, 4, 2.19999998807907104492e-01) (33, 4, 2.19999998807907104492e-01) (33, 4, 2.19999998807907104492e-01) (33, 4, 2.19999998807907104492e-01) (33, 4, 2.19999998807907104492e-01) (33, 4, 2.19999998807907104492e-01) (33, 4, 2.19999998807907104492e-01) (33, 4, 2.19999998807907104492e-01) (33, 4, 2.19999998807907104492e-01) (33, 4, 2.19999998807907104492e-01) (33, 4, 2.19999998807907104492e-01) (33, 4, 2.19999998807907104492e-01) (33, 4, 2.19999998807907104492e-01) (33, 4, 2.19999998807907104492e-01) (33, 4, 2.19999998807907104492e-01) (33, 4, 2.19999998807907104492e-01) (33, 4, 2.19999998807907104492e-01) (0, 0, 2.19999998807907104492e-01) 
connections (connected_to_neuron, weight)=(0, -4.13770258426666259766e-01) (1, -4.28588241338729858398e-01) (2, 2.20048017799854278564e-02) (3, -2.55711644887924194336e-01) (4, 7.71586894989013671875e-02) (5, 1.30269765853881835938e-01) (6, 2.45068207383155822754e-01) (7, -2.59285688400268554688e+00) (8, 3.91145497560501098633e-01) (9, -7.96355530619621276855e-02) (10, 1.73779819160699844360e-02) (11, -1.19332075119018554688e-01) (12, -1.88905343413352966309e-01) (13, 5.91058552265167236328e-01) (14, 2.11037322878837585449e-01) (15, 6.08211815357208251953e-01) (16, -7.18654021620750427246e-02) (17, -2.54542827606201171875e+00) (18, -1.49713158607482910156e+00) (19, 5.74733465909957885742e-02) (20, -1.42208665609359741211e-01) (21, -2.75468993932008743286e-02) (22, -2.31804743409156799316e-01) (23, 4.27146911621093750000e-01) (24, 1.46381819248199462891e+00) (25, -6.50379598140716552734e-01) (26, 2.17806324362754821777e-01) (27, 4.45484928786754608154e-02) (28, 1.80240377783775329590e-01) (29, 1.59383222460746765137e-01) (30, 5.47095425426959991455e-02) (31, -7.10492432117462158203e-01) (32, -6.30429567536339163780e-05) (33, -2.44850561022758483887e-01) (34, 1.57505786418914794922e+00) (35, 1.47047087550163269043e-01) (36, -1.49208426475524902344e-01) (37, -3.05999945849180221558e-02) (38, -1.07976388931274414062e+00) (39, -9.81851965188980102539e-02) (40, -1.51374742388725280762e-01) (41, 6.15945160388946533203e-01) (42, -7.04515725374221801758e-02) (43, -1.01255558431148529053e-01) (44, -1.52622342109680175781e-01) (45, -1.45454868674278259277e-01) (46, -1.22929908335208892822e-01) (47, -7.06594288349151611328e-02) (48, -1.17577023804187774658e-01) (49, -1.66218101978302001953e-01) (50, -1.20048522949218750000e-01) (51, -1.15550018846988677979e-01) (52, -9.60990879684686660767e-03) (53, -1.30101874470710754395e-01) (54, -5.21144270896911621094e-02) (0, -2.67805218696594238281e+00) (1, -8.03678035736083984375e-01) (2, -1.41883170604705810547e+00) (3, -3.58440089225769042969e+00) (4, -6.96974039077758789062e-01) (5, -1.34985297918319702148e-01) (6, 3.06158981323242187500e+01) (7, -2.27728225290775299072e-02) (8, 1.48931539058685302734e+00) (9, 8.47811028361320495605e-02) (10, 7.56948068737983703613e-03) (11, -2.55284979939460754395e-02) (12, 6.25319927930831909180e-02) (13, 1.90698146820068359375e+00) (14, 9.16467785835266113281e-01) (15, -1.61360166966915130615e-02) (16, -9.33215916156768798828e-02) (17, -1.44549751281738281250e+00) (18, -2.09856963157653808594e+00) (19, 1.02288834750652313232e-01) (20, 6.55241966247558593750e-01) (21, 5.16169071197509765625e-01) (22, 1.71883118152618408203e+00) (23, 9.85553443431854248047e-01) (24, 3.85409981012344360352e-01) (25, 3.58267240226268768311e-02) (26, 1.28471910953521728516e+00) (27, 1.55639201402664184570e-01) (28, 3.51183116436004638672e-02) (29, -4.30886316299438476562e+00) (30, -1.33729398250579833984e-01) (31, -9.58075001835823059082e-02) (32, -3.76941892318427562714e-03) (33, -9.24466401338577270508e-02) (34, 9.59066569805145263672e-01) (35, -1.70378927141427993774e-02) (36, -2.40830993652343750000e+00) (37, -5.63472621142864227295e-02) (38, 4.70206364989280700684e-02) (39, -5.94747781753540039062e-01) (40, 2.59482096880674362183e-02) (41, -4.73085522651672363281e-01) (42, -3.16503405570983886719e+00) (43, -8.50474908947944641113e-02) (44, -1.37137308716773986816e-01) (45, -1.12575285136699676514e-01) (46, -1.04456774890422821045e-01) (47, -2.16083973646163940430e-01) (48, -1.39316475391387939453e+00) (49, -5.06026223301887512207e-02) (50, -2.70694196224212646484e-01) (51, 5.16252219676971435547e-02) (52, 2.15315204113721847534e-02) (53, -6.47781565785408020020e-02) (54, 4.42914403975009918213e-02) (0, 1.27038679122924804688e+01) (1, 3.30872082710266113281e+00) (2, -1.03506155014038085938e+01) (3, 1.31728827953338623047e-01) (4, 1.32381558418273925781e-01) (5, -1.88889145851135253906e-01) (6, 6.48614764213562011719e-01) (7, -1.41467499732971191406e+00) (8, -2.41565847396850585938e+00) (9, 1.22107721865177154541e-01) (10, 1.32297709584236145020e-01) (11, 9.20042172074317932129e-02) (12, -4.90287005901336669922e-01) (13, -4.25835013389587402344e-01) (14, -4.54280614852905273438e-01) (15, -1.19903817772865295410e-01) (16, 1.62327468395233154297e-01) (17, -1.81738227605819702148e-01) (18, -8.64154577255249023438e-01) (19, -3.04902046918869018555e-01) (20, -1.82187736034393310547e-01) (21, -3.15545201301574707031e-01) (22, 8.69893729686737060547e-02) (23, -7.72139966487884521484e-01) (24, 5.70761322975158691406e-01) (25, -1.45760234445333480835e-02) (26, -4.42063033580780029297e-01) (27, 1.14365863800048828125e+00) (28, 1.88516676425933837891e-01) (29, 9.86026600003242492676e-02) (30, 1.46193549036979675293e-01) (31, -2.23307877779006958008e-01) (32, -2.55035343170166015625e+01) (33, 7.50571727752685546875e-01) (34, 7.42877054214477539062e+00) (35, -3.64341467618942260742e-01) (36, 7.44830071926116943359e-03) (37, 6.83580338954925537109e-02) (38, -1.63994617760181427002e-02) (39, 8.98271203041076660156e-02) (40, 1.09672062098979949951e-01) (41, 1.53824770450592041016e+00) (42, 1.11814892292022705078e+00) (43, 1.25649552792310714722e-02) (44, -9.66567456722259521484e-01) (45, 1.21429167687892913818e-01) (46, 1.30801111459732055664e-01) (47, -5.80861210823059082031e-01) (48, 4.64064255356788635254e-02) (49, 5.46310916543006896973e-02) (50, -2.14271140098571777344e+00) (51, 1.11554600298404693604e-01) (52, 1.44246490672230720520e-02) (53, 2.93186455965042114258e-02) (54, 1.71177282929420471191e-01) (0, -6.31677627563476562500e-01) (1, 1.39374756813049316406e+00) (2, 1.42623341083526611328e+00) (3, 8.37346553802490234375e-01) (4, 3.18645268678665161133e-01) (5, 1.18193292617797851562e+00) (6, -8.82311701774597167969e-01) (7, -2.56907582283020019531e-01) (8, -3.61403250694274902344e+00) (9, 5.49443960189819335938e-01) (10, 3.80487740039825439453e-01) (11, 3.50160062313079833984e-01) (12, 1.07182577252388000488e-01) (13, 3.49934428930282592773e-01) (14, -1.54897689819335937500e-01) (15, -3.49388957023620605469e-01) (16, 3.52265268564224243164e-01) (17, -3.48272156715393066406e+00) (18, -8.38940870016813278198e-03) (19, 1.73421964049339294434e-01) (20, -2.01439619064331054688e-01) (21, -1.75375699996948242188e-01) (22, -4.34842777252197265625e+00) (23, 3.48900496959686279297e-01) (24, 4.19727742671966552734e-01) (25, 4.38965201377868652344e-01) (26, 1.18363368511199951172e+00) (27, 6.01066172122955322266e-01) (28, 5.90505659580230712891e-01) (29, 1.21024167537689208984e+00) (30, 5.09509503841400146484e-01) (31, 1.57693791389465332031e+00) (32, -1.85934498906135559082e-01) (33, 9.14492726325988769531e-01) (34, -6.51130974292755126953e-01) (35, -6.17157161235809326172e-01) (36, -3.94469946622848510742e-01) (37, -4.63910847902297973633e-01) (38, -4.72524985671043395996e-02) (39, -4.52249974012374877930e-01) (40, -4.14803117513656616211e-01) (41, -1.45628377795219421387e-01) (42, 3.43633204698562622070e-01) (43, -4.15191859006881713867e-01) (44, -3.51736783981323242188e-01) (45, -5.40780961513519287109e-01) (46, -8.31673562526702880859e-01) (47, -4.18767303228378295898e-01) (48, -8.11119854450225830078e-01) (49, -3.81000459194183349609e-01) (50, 2.32589244842529296875e+00) (51, 3.97199481725692749023e-01) (52, 4.50963705778121948242e-01) (53, 2.42540657520294189453e-01) (54, -4.36210036277770996094e-01) (0, 2.63659000396728515625e-01) (1, -6.88579618930816650391e-01) (2, 6.16667807102203369141e-01) (3, 2.28306725621223449707e-01) (4, 1.17153309285640716553e-01) (5, -1.51280045509338378906e-01) (6, 1.39796376228332519531e+00) (7, 4.67778325080871582031e-01) (8, 1.47233605384826660156e+00) (9, 4.15099672973155975342e-02) (10, 2.06618964672088623047e-01) (11, -3.28220367431640625000e-01) (12, 2.65436828136444091797e-01) (13, 3.97448331117630004883e-01) (14, 3.40706896781921386719e+00) (15, 4.90128844976425170898e-01) (16, -1.06332913041114807129e-01) (17, -1.02494647726416587830e-02) (18, 1.71195015311241149902e-01) (19, 9.69741940498352050781e-02) (20, -6.27276360988616943359e-01) (21, 2.40301147103309631348e-01) (22, 1.20150730013847351074e-01) (23, -3.17563086748123168945e-01) (24, 1.76465415954589843750e+00) (25, 5.54582476615905761719e-02) (26, -4.03801172971725463867e-01) (27, -1.15993328392505645752e-01) (28, -4.01693344116210937500e-01) (29, -6.29098272323608398438e+00) (30, 9.34317559003829956055e-02) (31, -1.53604850172996520996e-01) (32, -5.29321096837520599365e-02) (33, -2.91614353656768798828e-01) (34, 1.12839269638061523438e+00) (35, -3.50910812616348266602e-01) (36, 4.16415184736251831055e-02) (37, 2.14911997318267822266e-02) (38, -8.02426040172576904297e-01) (39, 6.62180483341217041016e-02) (40, 5.67302927374839782715e-02) (41, 4.45736944675445556641e-02) (42, 3.07279109954833984375e-01) (43, 5.44725283980369567871e-02) (44, -5.25991097092628479004e-02) (45, 8.84010791778564453125e-02) (46, 2.56200104951858520508e-01) (47, -9.56282243132591247559e-02) (48, -5.61788827180862426758e-02) (49, -2.83426418900489807129e-02) (50, -2.84251117706298828125e+00) (51, 1.52454778552055358887e-01) (52, 3.49012881517410278320e-01) (53, -3.77267360687255859375e-01) (54, 2.32133731245994567871e-01) (0, 1.53554081916809082031e-01) (1, 2.06173837184906005859e-01) (2, 1.16298370063304901123e-01) (3, 3.42509627342224121094e-01) (4, 1.75956711173057556152e-01) (5, -2.81282570213079452515e-02) (6, -6.35720789432525634766e-02) (7, -5.41883781552314758301e-02) (8, -1.45862162113189697266e+00) (9, 2.61262923479080200195e-01) (10, 2.82629549503326416016e-01) (11, 1.97399497032165527344e-01) (12, 5.15940925106406211853e-03) (13, 2.02898085117340087891e-01) (14, -1.24777816236019134521e-01) (15, 1.54500484466552734375e-01) (16, 2.12242737412452697754e-01) (17, -3.04257780313491821289e-01) (18, -8.22675168514251708984e-01) (19, 3.09964772313833236694e-02) (20, -4.67619240283966064453e-01) (21, 2.55722582340240478516e-01) (22, 3.54715101420879364014e-02) (23, -3.99954646127298474312e-04) (24, 3.43962639570236206055e-01) (25, 3.92543673515319824219e-01) (26, -1.21286395005881786346e-03) (27, 4.32600080966949462891e-01) (28, 2.03605458140373229980e-01) (29, 1.81390956044197082520e-01) (30, 2.07465458661317825317e-02) (31, -6.67524188756942749023e-02) (32, -9.52900171279907226562e-01) (33, 1.52048325538635253906e+00) (34, -2.57641345262527465820e-01) (35, -1.32579058408737182617e-01) (36, -2.48916782438755035400e-02) (37, -1.27394795417785644531e-01) (38, -1.00415155291557312012e-01) (39, -1.10067993402481079102e-01) (40, -7.44346752762794494629e-02) (41, -2.62314602732658386230e-02) (42, 3.06578218936920166016e-01) (43, -9.98016893863677978516e-02) (44, -2.35605612397193908691e-01) (45, 1.40369758009910583496e-01) (46, -8.84717762470245361328e-01) (47, -8.00811275839805603027e-02) (48, -3.36853772401809692383e-01) (49, -1.34340241551399230957e-01) (50, 2.03409846872091293335e-02) (51, 2.21671566367149353027e-01) (52, 2.53152161836624145508e-01) (53, 2.27785736322402954102e-01) (54, -8.30305367708206176758e-02) (0, -9.59912478923797607422e-01) (1, -1.10050654411315917969e+00) (2, -8.74327540397644042969e-01) (3, -2.32932984828948974609e-01) (4, -1.60948336124420166016e+00) (5, -1.84490174055099487305e-01) (6, 1.65790939331054687500e+00) (7, 2.43521189689636230469e+00) (8, -2.09814262390136718750e+00) (9, -9.46278050541877746582e-02) (10, -5.52418529987335205078e-01) (11, -4.02140557765960693359e-01) (12, 2.45490789413452148438e+00) (13, -4.84714686870574951172e-01) (14, -5.38054645061492919922e-01) (15, -1.07797539234161376953e+00) (16, -3.88376444578170776367e-01) (17, -1.11092627048492431641e+00) (18, 2.92012184858322143555e-01) (19, -3.95352333784103393555e-01) (20, -1.02322578430175781250e+00) (21, -8.72148633003234863281e-01) (22, -3.36577832698822021484e-01) (23, 3.66676306724548339844e+00) (24, 1.05082976818084716797e+00) (25, 5.74194900691509246826e-02) (26, -2.56350040435791015625e-01) (27, -1.43911642953753471375e-02) (28, -1.37108504772186279297e-01) (29, -1.43300548195838928223e-01) (30, 5.34122169017791748047e-01) (31, -7.50179767608642578125e-01) (32, -7.46220350265502929688e-01) (33, -5.11292219161987304688e-01) (34, 2.73591037839651107788e-02) (35, 9.83260452747344970703e-01) (36, 1.70643493533134460449e-01) (37, -3.40737521648406982422e-01) (38, 6.13200485706329345703e-01) (39, -3.66714149713516235352e-01) (40, -2.73840814828872680664e-01) (41, 1.95697450637817382812e+00) (42, 4.83833461999893188477e-01) (43, -2.84191220998764038086e-01) (44, -3.28089743852615356445e-01) (45, -6.23391509056091308594e-01) (46, -7.74664640426635742188e-01) (47, -9.72371920943260192871e-02) (48, -6.70717135071754455566e-02) (49, -4.63076889514923095703e-01) (50, -3.78854304552078247070e-01) (51, -1.70251056551933288574e-01) (52, -4.60374623537063598633e-01) (53, -3.32750618457794189453e-01) (54, -6.49783730506896972656e-01) (0, -9.58579921722412109375e+00) (1, 8.02546596527099609375e+00) (2, 7.86375284194946289062e+00) (3, 4.45669442415237426758e-01) (4, 3.89283388853073120117e-01) (5, 1.63897812366485595703e+00) (6, -2.43437662720680236816e-01) (7, 8.11321809887886047363e-02) (8, -1.03775739669799804688e+00) (9, 2.43950068950653076172e-01) (10, 3.44134211540222167969e-01) (11, 4.25641566514968872070e-01) (12, 1.07651084661483764648e-01) (13, 3.05264592170715332031e-01) (14, -1.87878951430320739746e-01) (15, 1.10356956720352172852e-01) (16, 2.44595751166343688965e-01) (17, 1.63397181034088134766e+00) (18, -7.10947656631469726562e+00) (19, 8.80601815879344940186e-03) (20, -2.21318769454956054688e+00) (21, 1.26270830631256103516e-01) (22, -1.78886926174163818359e+00) (23, -3.91965210437774658203e-01) (24, 5.09498357772827148438e-01) (25, 2.49060839414596557617e-01) (26, 2.32271999120712280273e-01) (27, 9.82855319976806640625e-01) (28, 5.03488719463348388672e-01) (29, 1.86945438385009765625e+00) (30, -4.62344884872436523438e-01) (31, -4.93307292461395263672e-01) (32, -5.40645301342010498047e-01) (33, 4.07011866569519042969e-01) (34, -3.08160930871963500977e-01) (35, -2.70540267229080200195e-01) (36, -1.06789827346801757812e+00) (37, -4.35505732893943786621e-02) (38, 1.71803843975067138672e+00) (39, 1.24585606157779693604e-01) (40, 8.73843282461166381836e-02) (41, 2.83426433801651000977e-01) (42, -4.04698811471462249756e-02) (43, -4.50041639851406216621e-04) (44, -1.13945233821868896484e+00) (45, -1.33723299950361251831e-02) (46, -6.28821730613708496094e-01) (47, -4.81313139200210571289e-01) (48, -4.52145338058471679688e-01) (49, -4.52655851840972900391e-01) (50, -2.77316182851791381836e-01) (51, 3.70086938142776489258e-01) (52, 3.10656249523162841797e-01) (53, 4.42254871129989624023e-01) (54, 8.49329903721809387207e-02) (0, -3.77669423818588256836e-01) (1, -4.23524618148803710938e-01) (2, -4.75099772214889526367e-01) (3, -5.52693232893943786621e-02) (4, 1.19601763784885406494e-01) (5, -4.10848334431648254395e-02) (6, 2.67909228801727294922e-01) (7, -2.02016621828079223633e-01) (8, 2.92691051959991455078e-01) (9, -3.93054075539112091064e-02) (10, -9.43231806159019470215e-02) (11, -1.36509478092193603516e-01) (12, -1.28003522753715515137e-01) (13, 7.37071689218282699585e-03) (14, 7.36584782600402832031e-01) (15, 2.76454002596437931061e-03) (16, -1.17425441741943359375e-01) (17, 2.99838215112686157227e-01) (18, -2.95368462800979614258e-01) (19, -1.55657408758997917175e-02) (20, -2.52157580107450485229e-02) (21, -2.56996937096118927002e-02) (22, 1.41547679901123046875e-01) (23, -1.37255743145942687988e-01) (24, -1.92332714796066284180e-01) (25, -1.75832927227020263672e-01) (26, -1.88088536262512207031e-01) (27, -5.23868799209594726562e-02) (28, -1.05965636670589447021e-01) (29, -1.03057406842708587646e-01) (30, 4.52220499515533447266e-01) (31, -1.54826834797859191895e-01) (32, -7.67754986882209777832e-02) (33, -1.71411380171775817871e-01) (34, 2.28751271963119506836e-01) (35, -1.30832746624946594238e-01) (36, -8.69857370853424072266e-02) (37, -3.92056740820407867432e-02) (38, -5.09902387857437133789e-02) (39, 7.54365744069218635559e-03) (40, -8.84941145777702331543e-02) (41, -7.56159871816635131836e-02) (42, -1.51351720094680786133e-01) (43, -1.00016318261623382568e-01) (44, -1.18135973811149597168e-01) (45, 2.47197784483432769775e-02) (46, 6.20320066809654235840e-02) (47, -7.56775736808776855469e-02) (48, 2.12846752256155014038e-02) (49, -2.04366836696863174438e-02) (50, -6.03145472705364227295e-02) (51, -8.16683918237686157227e-02) (52, -3.96850407123565673828e-02) (53, -4.90466207265853881836e-02) (54, 4.02999669313430786133e-02) (0, -2.45052605867385864258e-01) (1, -8.15346837043762207031e-01) (2, -8.88948619365692138672e-01) (3, -4.26628082990646362305e-01) (4, -6.52212202548980712891e-01) (5, -2.89456278085708618164e-01) (6, -9.18069005012512207031e-01) (7, -8.83245825767517089844e-01) (8, -1.38768136501312255859e+00) (9, -4.08108919858932495117e-01) (10, -3.15448045730590820312e-01) (11, -8.76162573695182800293e-02) (12, 2.49201521277427673340e-01) (13, -1.70331120491027832031e-01) (14, -9.88787114620208740234e-01) (15, -1.38326615095138549805e-01) (16, 5.09626567363739013672e-01) (17, 5.03389120101928710938e-01) (18, 1.16833245754241943359e+00) (19, 3.15069049596786499023e-01) (20, -8.19482624530792236328e-01) (21, 2.92522132396697998047e-01) (22, -1.13665550947189331055e-01) (23, 1.57549011707305908203e+00) (24, 3.69379729032516479492e-01) (25, 4.17848348617553710938e-01) (26, 4.08462435007095336914e-01) (27, 9.96857136487960815430e-02) (28, 2.70256906747817993164e-01) (29, 8.65944549441337585449e-02) (30, 6.05288803577423095703e-01) (31, 8.59973073005676269531e-01) (32, 2.68528144806623458862e-02) (33, 5.35594582557678222656e-01) (34, -1.96354433894157409668e-01) (35, 1.31279337406158447266e+00) (36, -7.45753794908523559570e-02) (37, -2.18018487095832824707e-01) (38, 1.05995988845825195312e+00) (39, -1.64817124605178833008e-01) (40, -2.25785493850708007812e-01) (41, 5.97349882125854492188e-01) (42, 2.24258631467819213867e-01) (43, -3.15028518438339233398e-01) (44, -3.91297757625579833984e-01) (45, -3.70702207088470458984e-01) (46, -1.47221967577934265137e-01) (47, 9.11752209067344665527e-02) (48, -2.17854261398315429688e-01) (49, -2.66131311655044555664e-01) (50, 8.10636132955551147461e-02) (51, -3.34422916173934936523e-01) (52, -3.93069148063659667969e-01) (53, 1.74590498208999633789e-02) (54, -5.41284263134002685547e-01) (0, -3.98061585426330566406e+00) (1, -2.84185767173767089844e-01) (2, -5.86536107584834098816e-03) (3, 1.66929379105567932129e-01) (4, 1.55220076441764831543e-01) (5, 2.48189698904752731323e-02) (6, 2.12174057960510253906e-02) (7, 6.60344660282135009766e-02) (8, -7.97121345996856689453e-01) (9, 1.39330908656120300293e-01) (10, 1.29972159862518310547e-01) (11, 1.84556543827056884766e-01) (12, -1.18177663534879684448e-02) (13, 1.35288894176483154297e-01) (14, 3.10917962342500686646e-02) (15, 6.15907460451126098633e-02) (16, 1.21098481118679046631e-01) (17, -3.67090344429016113281e-01) (18, -2.59668737649917602539e-01) (19, 4.52843979001045227051e-02) (20, -3.73066991567611694336e-01) (21, 3.39009463787078857422e-01) (22, 2.21155094914138317108e-03) (23, 3.18537876009941101074e-02) (24, 3.83087277412414550781e-01) (25, 2.73158073425292968750e-01) (26, 6.18237145245075225830e-02) (27, 2.16256618499755859375e-01) (28, 2.61151313781738281250e-01) (29, 3.29727977514266967773e-01) (30, -7.55436951294541358948e-04) (31, -1.50497645139694213867e-01) (32, -1.01236045360565185547e-01) (33, 2.31382107734680175781e+00) (34, -1.38336300849914550781e-01) (35, -2.06764817237854003906e-01) (36, -1.46223038434982299805e-01) (37, -1.22080832719802856445e-01) (38, -8.88163521885871887207e-02) (39, 1.01780161261558532715e-01) (40, 8.82710814476013183594e-02) (41, 5.81667870283126831055e-02) (42, 1.63586705923080444336e-01) (43, 1.77490711212158203125e-01) (44, -1.80676639080047607422e-01) (45, 1.33007571101188659668e-01) (46, -1.25444829463958740234e-01) (47, -5.32607324421405792236e-02) (48, -2.15361356735229492188e+00) (49, -1.48381799459457397461e-01) (50, 7.11380422115325927734e-01) (51, 1.10682576894760131836e-01) (52, 1.43291905522346496582e-01) (53, 2.11219787597656250000e-01) (54, -1.71881243586540222168e-02) (0, -9.86952483654022216797e-02) (1, 4.30929958820343017578e-02) (2, 4.92084361612796783447e-02) (3, 5.56439042091369628906e-01) (4, 1.52516186237335205078e-01) (5, 7.38529115915298461914e-02) (6, -8.51432904601097106934e-02) (7, -1.27765433862805366516e-02) (8, -2.99064588546752929688e+00) (9, 2.76513863354921340942e-03) (10, 9.75499153137207031250e-02) (11, 4.01712834835052490234e-01) (12, 1.66792154312133789062e-01) (13, 1.02017357945442199707e-01) (14, 3.09480726718902587891e-03) (15, 7.74261727929115295410e-02) (16, 2.05783993005752563477e-01) (17, -1.11494131386280059814e-01) (18, 4.97207120060920715332e-02) (19, 7.98880457878112792969e-02) (20, -3.08222591876983642578e-01) (21, 7.73980170488357543945e-02) (22, 4.77660223841667175293e-02) (23, -2.55856569856405258179e-02) (24, 2.39453777670860290527e-01) (25, 2.45821669697761535645e-01) (26, 1.81161761283874511719e-01) (27, 4.44212824106216430664e-01) (28, 5.50239682197570800781e-01) (29, 7.35472917556762695312e-01) (30, 3.35614122450351715088e-02) (31, 2.41813007742166519165e-02) (32, -8.30211639404296875000e-01) (33, 8.49295556545257568359e-01) (34, -1.67051702737808227539e-01) (35, -6.02771103382110595703e-01) (36, 6.00532926619052886963e-02) (37, 2.65992879867553710938e-02) (38, -5.78880429267883300781e-01) (39, 1.36813402175903320312e-01) (40, 5.00025674700736999512e-02) (41, 1.21153309941291809082e-01) (42, 1.08551189303398132324e-01) (43, 1.93025581538677215576e-02) (44, 1.09192766249179840088e-02) (45, -4.89976964890956878662e-02) (46, -4.60909694433212280273e-01) (47, -7.92022496461868286133e-02) (48, -7.25083768367767333984e-01) (49, 6.27703070640563964844e-02) (50, 9.39521566033363342285e-02) (51, 7.80353620648384094238e-02) (52, 8.28278213739395141602e-02) (53, 3.87712776660919189453e-01) (54, -4.83036600053310394287e-02) (0, -5.61278581619262695312e-01) (1, -3.48864257335662841797e-01) (2, 2.59168565273284912109e-01) (3, 8.57800524681806564331e-03) (4, 1.48639053106307983398e-01) (5, 3.75352948904037475586e-01) (6, -4.33744937181472778320e-01) (7, 2.49757960438728332520e-01) (8, 9.27204608917236328125e-01) (9, -2.32109203934669494629e-02) (10, -5.90183772146701812744e-02) (11, 1.06055207550525665283e-01) (12, -3.20606380701065063477e-01) (13, -2.02036146074533462524e-02) (14, 4.59057763218879699707e-02) (15, -7.42379128932952880859e-02) (16, 1.50763918645679950714e-03) (17, 2.38805294036865234375e+00) (18, -7.55434036254882812500e-01) (19, 3.65055613219738006592e-02) (20, 9.63219821453094482422e-01) (21, -4.66897308826446533203e-01) (22, -1.20581373572349548340e-01) (23, -3.02981883287429809570e-02) (24, -9.20129939913749694824e-02) (25, -4.15025614202022552490e-02) (26, -2.18496583402156829834e-02) (27, -1.06793975830078125000e+00) (28, -1.31927639245986938477e-01) (29, -2.97843307256698608398e-01) (30, -3.62349808216094970703e-01) (31, -5.39279639720916748047e-01) (32, 8.32201689481735229492e-02) (33, -1.69388085603713989258e-01) (34, -3.11370015144348144531e-01) (35, -1.34206265211105346680e-01) (36, 2.55340151488780975342e-02) (37, 3.40272746980190277100e-02) (38, -1.64625597000122070312e+00) (39, -1.12897433340549468994e-01) (40, -1.30721032619476318359e-02) (41, 1.59051910042762756348e-01) (42, -2.24183559417724609375e-01) (43, -1.12251192331314086914e-02) (44, 2.11059406399726867676e-01) (45, -1.36619005352258682251e-02) (46, 5.43014168739318847656e-01) (47, 1.59405902028083801270e-01) (48, -1.17772102355957031250e-01) (49, -1.44961066544055938721e-02) (50, 2.48492002487182617188e-01) (51, 2.77661755681037902832e-02) (52, -4.26464527845382690430e-02) (53, 9.41803976893424987793e-02) (54, 1.09087176620960235596e-01) (0, 2.51488161087036132812e+00) (1, -1.13536906242370605469e+00) (2, -4.29099464416503906250e+00) (3, -8.42998743057250976562e-01) (4, -3.39810431003570556641e-01) (5, -3.84605914354324340820e-01) (6, -2.55096411705017089844e+00) (7, -1.88093855977058410645e-01) (8, 3.50179958343505859375e+00) (9, 1.07056414708495140076e-02) (10, -6.37168660759925842285e-02) (11, -1.10854037106037139893e-01) (12, -3.33803109824657440186e-02) (13, -5.58965384960174560547e-01) (14, 3.83989572525024414062e+00) (15, -8.84608745574951171875e-01) (16, -2.22756415605545043945e-01) (17, -2.30881977081298828125e+00) (18, 2.05693632364273071289e-01) (19, -2.06782236695289611816e-01) (20, 2.62176990509033203125e-01) (21, 2.93301969766616821289e-01) (22, 1.07652270793914794922e+00) (23, 1.46651238203048706055e-01) (24, -2.64593422412872314453e-01) (25, -3.28215777873992919922e-01) (26, 1.74107062816619873047e+00) (27, 1.79577350616455078125e-01) (28, 1.82448133826255798340e-01) (29, 5.30515611171722412109e-02) (30, 4.49917376041412353516e-01) (31, -4.28286433219909667969e-01) (32, -3.88519644737243652344e-01) (33, 8.38259458541870117188e-02) (34, 3.11474651098251342773e-01) (35, -5.13776779174804687500e-01) (36, -1.40606120228767395020e-01) (37, -1.35389745235443115234e-01) (38, -5.59506833553314208984e-01) (39, -2.00119942426681518555e-01) (40, -9.05526876449584960938e-02) (41, 2.25051313638687133789e-01) (42, 5.65677806735038757324e-02) (43, -1.24576956033706665039e-01) (44, -4.87810671329498291016e-02) (45, 2.15956717729568481445e-01) (46, 6.06730878353118896484e-01) (47, -4.60031569004058837891e-01) (48, 4.19833123683929443359e-01) (49, 4.28001843392848968506e-02) (50, -7.22253695130348205566e-02) (51, 4.02522347867488861084e-02) (52, -2.99541298300027847290e-02) (53, 1.04301963001489639282e-02) (54, 6.20323233306407928467e-02) (0, -7.29909372329711914062e+00) (1, 7.49172121286392211914e-02) (2, 1.73408910632133483887e-01) (3, -1.61798030138015747070e-01) (4, -2.30201080441474914551e-01) (5, -1.45860552787780761719e-01) (6, 7.45690166950225830078e-02) (7, 3.28549891710281372070e-01) (8, -2.56116718053817749023e-01) (9, 3.51400277577340602875e-03) (10, 2.25659552961587905884e-02) (11, 1.45073711872100830078e-01) (12, 2.43862897157669067383e-01) (13, 1.53209149837493896484e-01) (14, -1.40473935753107070923e-02) (15, 7.01058059930801391602e-02) (16, 2.05573230981826782227e-01) (17, -9.91154253482818603516e-01) (18, 2.80992358922958374023e-01) (19, -1.61849632859230041504e-01) (20, -2.37260317802429199219e+00) (21, 3.84562581777572631836e-01) (22, 7.09849596023559570312e-01) (23, 3.71619284152984619141e-01) (24, 8.38434457778930664062e-01) (25, 3.57685923576354980469e-01) (26, 1.25256896018981933594e-01) (27, 4.70409393310546875000e-01) (28, 2.39903181791305541992e-01) (29, 1.55416190624237060547e-01) (30, 7.18214809894561767578e-02) (31, 3.57016064226627349854e-02) (32, -4.63645696640014648438e-01) (33, 8.27070116996765136719e-01) (34, -8.40478762984275817871e-02) (35, -1.87982082366943359375e-01) (36, 9.01595130562782287598e-02) (37, 1.17540899664163589478e-02) (38, -4.36394155025482177734e-01) (39, 7.82166346907615661621e-02) (40, 1.53840690851211547852e-01) (41, 2.22261086106300354004e-01) (42, 1.20952516794204711914e-01) (43, 8.30674264580011367798e-03) (44, -5.29500305652618408203e-01) (45, 1.47376805543899536133e-01) (46, -6.73356577754020690918e-02) (47, -5.54340220987796783447e-02) (48, -2.44043573737144470215e-01) (49, 1.08887374401092529297e-01) (50, 3.55346977710723876953e-01) (51, 1.14210151135921478271e-01) (52, -6.99339285492897033691e-02) (53, 8.60697217285633087158e-03) (54, 6.20840443298220634460e-03) (0, -3.14126992225646972656e+00) (1, -3.06770267486572265625e+01) (2, -1.49369104003906250000e+03) (3, -3.72630774974822998047e-01) (4, -5.46369850635528564453e-01) (5, -5.46900570392608642578e-01) (6, 1.03416662216186523438e+01) (7, 5.81334915161132812500e+01) (8, 2.26594295501708984375e+01) (9, -2.66508758068084716797e-01) (10, -1.35895922780036926270e-01) (11, -6.22182041406631469727e-02) (12, 2.09860014915466308594e+00) (13, -3.08966308832168579102e-01) (14, -5.05434334278106689453e-01) (15, -3.56029659509658813477e-01) (16, -3.77714365720748901367e-01) (17, -1.50000000000000000000e+03) (18, 6.17186069488525390625e-01) (19, -3.21035206317901611328e-01) (20, -1.70294809341430664062e+00) (21, 1.57690271735191345215e-01) (22, -3.31612682342529296875e+00) (23, -1.50000000000000000000e+03) (24, 2.71741181612014770508e-01) (25, -2.91477620601654052734e-01) (26, -1.91306640625000000000e+02) (27, 2.66955122351646423340e-02) (28, 3.25609929859638214111e-02) (29, -2.13577598333358764648e-02) (30, -1.13618157804012298584e-01) (31, 1.88580416142940521240e-02) (32, -3.57903659343719482422e-01) (33, -4.02070730924606323242e-01) (34, -2.30622768402099609375e+00) (35, -2.20301879882812500000e+02) (36, -6.30518002435564994812e-03) (37, -7.86028653383255004883e-02) (38, -1.19446118164062500000e+03) (39, -2.45368480682373046875e-01) (40, -3.36789220571517944336e-01) (41, -4.45011556148529052734e-01) (42, 7.66784012317657470703e-01) (43, -3.80277800559997558594e+00) (44, -8.16358149051666259766e-01) (45, -3.49813520908355712891e-01) (46, -2.71786421537399291992e-01) (47, -1.96486681699752807617e-01) (48, -3.77742856740951538086e-01) (49, 3.23037594556808471680e-01) (50, 5.22922754287719726562e-01) (51, -2.90998160839080810547e-01) (52, -2.17868357896804809570e-01) (53, -9.86354127526283264160e-02) (54, -3.10890376567840576172e-01) (0, 1.13072633743286132812e+00) (1, 2.53720331192016601562e+00) (2, 1.24778232574462890625e+01) (3, 2.29480396956205368042e-02) (4, -1.29631832242012023926e-01) (5, -2.19269931316375732422e-01) (6, -3.13627392053604125977e-01) (7, 1.62510037422180175781e-01) (8, 1.16505958139896392822e-01) (9, 2.09833294153213500977e-01) (10, 1.93133577704429626465e-01) (11, 7.41372182965278625488e-02) (12, 1.32734030485153198242e-02) (13, 8.45408886671066284180e-02) (14, -5.43878935277462005615e-02) (15, -1.49037444591522216797e+00) (16, -1.22189044952392578125e-01) (17, -6.10390782356262207031e-01) (18, -1.38570797443389892578e+00) (19, -6.77211463451385498047e-01) (20, -1.35853314399719238281e+00) (21, 1.49925321340560913086e-01) (22, -1.15786582231521606445e-01) (23, 6.57105326652526855469e-01) (24, 6.65574133396148681641e-01) (25, 1.55397117137908935547e-01) (26, -1.16260915994644165039e-01) (27, 8.87970209121704101562e-01) (28, 8.38664531707763671875e-01) (29, 5.68678915500640869141e-01) (30, -6.74215480685234069824e-02) (31, -1.40387117862701416016e-01) (32, -2.72524476051330566406e-01) (33, -8.80016982555389404297e-02) (34, -1.60166114568710327148e-01) (35, -1.60677805542945861816e-01) (36, 1.96153432130813598633e-01) (37, -1.80578351020812988281e-01) (38, -1.39183148741722106934e-01) (39, -1.01830869913101196289e-01) (40, -9.35740917921066284180e-02) (41, 8.93198251724243164062e-02) (42, 3.87002915143966674805e-01) (43, -1.66996896266937255859e-01) (44, -9.62983667850494384766e-01) (45, 1.24037720263004302979e-01) (46, -1.51363685727119445801e-01) (47, -1.45544552803039550781e+00) (48, -3.80574673414230346680e-01) (49, -7.54592791199684143066e-02) (50, -1.80039167404174804688e-01) (51, 2.06503897905349731445e-01) (52, 7.37889334559440612793e-02) (53, 1.71760637313127517700e-02) (54, -2.26632922887802124023e-01) (0, 2.80411643981933593750e+01) (1, 9.93423557281494140625e+00) (2, 6.14994049072265625000e+00) (3, 7.05769509077072143555e-02) (4, -7.67856761813163757324e-02) (5, 1.13767579197883605957e-01) (6, -1.12345352172851562500e+01) (7, -6.35817229747772216797e-01) (8, -5.95738887786865234375e+00) (9, 6.19222689419984817505e-03) (10, -1.39498626813292503357e-02) (11, 2.93964091688394546509e-02) (12, 2.19960242509841918945e-01) (13, 1.11930377781391143799e-01) (14, -1.76605784893035888672e+00) (15, 9.99425053596496582031e-02) (16, 2.77117818593978881836e-01) (17, -7.38701343536376953125e-01) (18, -4.26570363342761993408e-02) (19, 1.86708581447601318359e+00) (20, -7.36323833465576171875e-01) (21, 1.58723920583724975586e-01) (22, -1.17973184585571289062e+00) (23, -5.62810301780700683594e-02) (24, 5.46108901500701904297e-01) (25, 5.53812146186828613281e-01) (26, 3.33906054496765136719e-01) (27, 8.98517191410064697266e-01) (28, 6.10522031784057617188e-01) (29, 5.43855309486389160156e-01) (30, 1.88655361533164978027e-01) (31, 1.80963918566703796387e-01) (32, -3.90174007415771484375e+00) (33, 1.54462838172912597656e+00) (34, 1.16691820323467254639e-01) (35, -4.95308041572570800781e-01) (36, -2.76135541498661041260e-02) (37, 5.14374896883964538574e-02) (38, -1.16099166870117187500e+00) (39, -9.92855876684188842773e-02) (40, 1.45461037755012512207e-01) (41, 8.44843015074729919434e-02) (42, 6.71483799815177917480e-02) (43, 1.54831618070602416992e-01) (44, -3.33048820495605468750e-01) (45, 8.12020748853683471680e-02) (46, -2.13646292686462402344e+00) (47, -9.96008738875389099121e-02) (48, 1.29329144954681396484e-01) (49, 6.17161914706230163574e-02) (50, -1.90695539116859436035e-01) (51, 9.18566659092903137207e-02) (52, 9.42519605159759521484e-02) (53, -3.40086072683334350586e-02) (54, 1.56391840428113937378e-02) (0, -4.12154121398925781250e+01) (1, -2.94364356994628906250e+01) (2, -2.92192344665527343750e+01) (3, 1.41169285774230957031e+00) (4, -1.14203381538391113281e+00) (5, -1.27810060977935791016e+00) (6, -1.07736456394195556641e+00) (7, -1.44131958484649658203e+00) (8, -6.41724526882171630859e-01) (9, -2.86014527082443237305e-01) (10, -5.18079400062561035156e-01) (11, -4.04130667448043823242e-01) (12, -7.32470703125000000000e+00) (13, -3.70080542564392089844e+00) (14, 3.61747071146965026855e-02) (15, -1.81848752498626708984e+00) (16, 3.36472392082214355469e-01) (17, 3.18434143066406250000e+00) (18, 1.57982099056243896484e+00) (19, 9.61219072341918945312e-02) (20, -4.20945107936859130859e-01) (21, -5.54447352886199951172e-01) (22, -4.10009473562240600586e-01) (23, -1.33866882324218750000e+02) (24, 1.22399699687957763672e+00) (25, -1.14904433488845825195e-01) (26, 9.23340469598770141602e-02) (27, -1.24914042651653289795e-01) (28, -5.72845675051212310791e-02) (29, -5.20058035850524902344e-01) (30, 1.26029801368713378906e+00) (31, 1.36803925037384033203e+00) (32, -4.57956880331039428711e-01) (33, 2.38078609108924865723e-01) (34, -3.04069042205810546875e-01) (35, -1.13325431942939758301e-01) (36, -1.32424861192703247070e-01) (37, -3.86227160692214965820e-01) (38, 4.58080253601074218750e+01) (39, -4.22128468751907348633e-01) (40, -4.61266070604324340820e-01) (41, 1.62610852718353271484e+00) (42, 1.37540936470031738281e-01) (43, -2.80105829238891601562e-01) (44, -1.23491883277893066406e+00) (45, -4.05734241008758544922e-01) (46, -2.76993721723556518555e-01) (47, 2.58276224136352539062e-01) (48, -2.78227180242538452148e-01) (49, -3.22286933660507202148e-01) (50, -7.64266133308410644531e-01) (51, -2.93680340051651000977e-01) (52, -4.33217227458953857422e-01) (53, -5.41928827762603759766e-01) (54, -4.48028057813644409180e-01) (0, 1.03593993186950683594e+00) (1, 1.04776000976562500000e+00) (2, 7.03067600727081298828e-01) (3, -7.29872286319732666016e-02) (4, -4.82284635305404663086e-01) (5, -3.73350918292999267578e-01) (6, 2.90429353713989257812e-01) (7, 1.42590641975402832031e+00) (8, 2.76766866445541381836e-01) (9, -5.58789372444152832031e-01) (10, -6.36621952056884765625e-01) (11, -8.05022895336151123047e-01) (12, 4.58456754684448242188e-01) (13, -1.43013224005699157715e-01) (14, -8.31164538860321044922e-01) (15, -5.52889443933963775635e-02) (16, 3.56945469975471496582e-02) (17, -1.29048848152160644531e+00) (18, 1.09790778160095214844e+00) (19, 7.64286443591117858887e-02) (20, -2.30932354927062988281e-01) (21, 3.47314447164535522461e-01) (22, -3.94241213798522949219e-01) (23, 1.42244920134544372559e-01) (24, 1.89908713102340698242e-01) (25, 2.67981410026550292969e-01) (26, 8.79747867584228515625e-01) (27, -3.31579893827438354492e-01) (28, -4.72148209810256958008e-01) (29, -5.54556250572204589844e-01) (30, -1.72082230448722839355e-01) (31, -5.88034838438034057617e-02) (32, -7.38360106945037841797e-01) (33, -6.29726871848106384277e-02) (34, -4.20606464147567749023e-01) (35, 1.40535429120063781738e-01) (36, 9.99863088130950927734e-01) (37, -2.38597303628921508789e-01) (38, -2.33685776591300964355e-01) (39, -2.83145874738693237305e-01) (40, -1.78604066371917724609e-01) (41, 8.08595940470695495605e-02) (42, -1.06939934194087982178e-01) (43, -4.23451274633407592773e-01) (44, -3.24887216091156005859e-01) (45, -4.54862445592880249023e-01) (46, -5.15379607677459716797e-01) (47, 7.11329653859138488770e-03) (48, -2.91874468326568603516e-01) (49, -3.41774195432662963867e-01) (50, 2.88662761449813842773e-01) (51, -6.03285312652587890625e-01) (52, -6.76381468772888183594e-01) (53, -7.55602300167083740234e-01) (54, -2.47673243284225463867e-01) (0, 1.75666749477386474609e-01) (1, 1.58578887581825256348e-01) (2, 1.11276254057884216309e-01) (3, -1.21344864368438720703e-01) (4, -7.68951997160911560059e-02) (5, 2.07769110798835754395e-01) (6, -5.71720778942108154297e-01) (7, 9.54855203628540039062e-01) (8, -2.63550233840942382812e+00) (9, 1.67754128575325012207e-01) (10, 2.56496220827102661133e-01) (11, 1.80066257715225219727e-01) (12, 2.15507313609123229980e-01) (13, 2.02295616269111633301e-01) (14, 1.43001198768615722656e-01) (15, 1.86457663774490356445e-01) (16, 2.99363493919372558594e-01) (17, -1.17330253124237060547e+00) (18, 2.99132704734802246094e-01) (19, 2.92261540889739990234e-01) (20, -1.41636148095130920410e-01) (21, 3.08560878038406372070e-01) (22, 1.09849661588668823242e-01) (23, 2.66660481691360473633e-01) (24, 7.80647516250610351562e-01) (25, 5.25319457054138183594e-01) (26, 2.73513287305831909180e-01) (27, 7.82742261886596679688e-01) (28, 9.45299267768859863281e-01) (29, 5.88122427463531494141e-01) (30, -1.25309333205223083496e-01) (31, 1.54271898791193962097e-02) (32, -7.91865289211273193359e-01) (33, 5.88478028774261474609e-01) (34, -2.36945405602455139160e-01) (35, -4.30839776992797851562e-01) (36, -2.15139657258987426758e-01) (37, -2.03724279999732971191e-01) (38, -5.32930254936218261719e-01) (39, -9.60146635770797729492e-02) (40, -2.14674457907676696777e-01) (41, -2.37200763076543807983e-02) (42, 4.26295638084411621094e-01) (43, 2.03578144311904907227e-01) (44, -2.17605367302894592285e-01) (45, -2.61958688497543334961e-01) (46, -4.19300287961959838867e-01) (47, -2.37935200333595275879e-01) (48, -1.57090708613395690918e-01) (49, -1.17373347282409667969e-01) (50, -1.78230062127113342285e-01) (51, 2.17548623681068420410e-01) (52, 1.89261376857757568359e-01) (53, 1.10159061849117279053e-01) (54, -3.31410825252532958984e-01) (0, 9.44333896040916442871e-02) (1, 3.32901418209075927734e-01) (2, 2.54704803228378295898e-01) (3, 7.42879584431648254395e-02) (4, 1.10616169869899749756e-01) (5, 1.35760650038719177246e-01) (6, -5.50409853458404541016e-01) (7, 9.09373834729194641113e-02) (8, -2.01917481422424316406e+00) (9, 1.35717764496803283691e-01) (10, 1.43510475754737854004e-01) (11, 1.14569403231143951416e-01) (12, -1.64721751213073730469e+00) (13, -9.98971939086914062500e-01) (14, 2.27599099278450012207e-01) (15, 1.43903836607933044434e-01) (16, 1.11240349709987640381e-01) (17, -7.24978566169738769531e-01) (18, 1.31247237324714660645e-01) (19, 1.36709690093994140625e-01) (20, -1.19331121444702148438e-01) (21, 2.09635958075523376465e-01) (22, 8.51643010973930358887e-02) (23, 5.58754019439220428467e-02) (24, 4.18821066617965698242e-01) (25, 3.76000821590423583984e-01) (26, 1.56527668237686157227e-01) (27, 6.06855392456054687500e-01) (28, 2.43876069784164428711e-01) (29, 1.76297575235366821289e-01) (30, 1.51867926120758056641e-01) (31, 3.58367040753364562988e-02) (32, -5.65056204795837402344e-01) (33, 1.46999692916870117188e+00) (34, -4.08462136983871459961e-01) (35, -9.42707538604736328125e-01) (36, 1.44113348796963691711e-02) (37, 3.83998453617095947266e-02) (38, -1.52938976883888244629e-01) (39, 2.34750315546989440918e-01) (40, 1.08881890773773193359e-01) (41, -4.51636221259832382202e-03) (42, 3.54883402585983276367e-01) (43, 1.66426137089729309082e-01) (44, -5.93811348080635070801e-02) (45, 4.65050451457500457764e-02) (46, -1.21585495769977569580e-01) (47, -3.37113469839096069336e-01) (48, -1.17598164081573486328e+00) (49, -1.76095981150865554810e-02) (50, 5.81460297107696533203e-01) (51, 1.84008613228797912598e-01) (52, 1.31248489022254943848e-01) (53, 7.80612155795097351074e-02) (54, -6.94823563098907470703e-02) (0, -1.30573213100433349609e+00) (1, -2.35510632395744323730e-01) (2, 2.54584681242704391479e-02) (3, 7.50301420688629150391e-01) (4, 8.05955156683921813965e-02) (5, 4.02732789516448974609e-02) (6, 9.41402539610862731934e-02) (7, 7.32390165328979492188e+00) (8, -3.03800964355468750000e+00) (9, -7.51287788152694702148e-02) (10, -1.16441458463668823242e-01) (11, 4.54173684120178222656e-01) (12, 3.09674531221389770508e-01) (13, -7.35482387244701385498e-03) (14, -1.87728345394134521484e-01) (15, -5.19579350948333740234e-01) (16, 6.35830163955688476562e-02) (17, -4.28283035755157470703e-01) (18, 2.77945429086685180664e-01) (19, 1.37729302048683166504e-01) (20, -2.95369252562522888184e-02) (21, 2.64675259590148925781e-01) (22, -7.41772472858428955078e-01) (23, 9.91368368268013000488e-02) (24, 4.95379507541656494141e-01) (25, 2.45798423886299133301e-01) (26, 1.43964409828186035156e-01) (27, 5.61104178428649902344e-01) (28, 4.12184625864028930664e-01) (29, -2.14269900321960449219e+00) (30, 8.28202813863754272461e-02) (31, 5.75422532856464385986e-02) (32, -2.72861719131469726562e+00) (33, 5.91729760169982910156e-01) (34, -4.73076879978179931641e-01) (35, -6.46910190582275390625e-01) (36, -2.11698282510042190552e-02) (37, 1.12291626632213592529e-01) (38, -9.89819586277008056641e-01) (39, 7.31653422117233276367e-02) (40, -2.29352526366710662842e-03) (41, 2.59952753782272338867e-01) (42, 4.17072623968124389648e-01) (43, -5.84385357797145843506e-03) (44, 5.91406971216201782227e-02) (45, 5.29832355678081512451e-02) (46, -1.91306740045547485352e-01) (47, 1.81892037391662597656e-01) (48, -1.79164946079254150391e-01) (49, 1.08276180922985076904e-01) (50, 4.09685641527175903320e-01) (51, -5.65537214279174804688e-02) (52, -7.34977051615715026855e-02) (53, 4.90627229213714599609e-01) (54, 1.47145856171846389771e-02) (0, 8.56718957424163818359e-01) (1, 4.86733347177505493164e-01) (2, 5.57068407535552978516e-01) (3, 3.00984859466552734375e-01) (4, 1.47324979305267333984e-01) (5, 1.04105621576309204102e-01) (6, -1.55311310291290283203e+00) (7, -1.66478264331817626953e+00) (8, -3.53460192680358886719e+00) (9, 1.63119375705718994141e-01) (10, 1.40507802367210388184e-01) (11, 8.80407094955444335938e-02) (12, -1.03716216981410980225e-01) (13, 2.64013409614562988281e-01) (14, 4.28609579801559448242e-01) (15, 2.80604988336563110352e-01) (16, 3.54786932468414306641e-01) (17, -8.86623919010162353516e-01) (18, 2.92968787252902984619e-02) (19, 5.05239814519882202148e-02) (20, -8.42597410082817077637e-02) (21, 1.36068344116210937500e-01) (22, 3.91410589218139648438e-02) (23, 9.10786747932434082031e-01) (24, 9.23574388027191162109e-01) (25, 3.75003874301910400391e-01) (26, 4.53739017248153686523e-01) (27, 1.04301929473876953125e+00) (28, 8.14515531063079833984e-01) (29, 1.21117544174194335938e+00) (30, 2.85945057868957519531e+00) (31, -5.31519949436187744141e-02) (32, 8.28118920326232910156e-02) (33, 3.11291694641113281250e-01) (34, -4.10218924283981323242e-01) (35, -2.95731782913208007812e+00) (36, -1.64656043052673339844e+00) (37, -1.30676850676536560059e-01) (38, -4.67538625001907348633e-01) (39, 1.04873269796371459961e-01) (40, 1.02680891752243041992e-01) (41, -3.26046633720397949219e+00) (42, 1.61995083093643188477e-01) (43, 1.13812506198883056641e-01) (44, -2.73512247949838638306e-02) (45, -6.37500137090682983398e-02) (46, -5.87241053581237792969e-01) (47, -1.47892415523529052734e-01) (48, -3.36784648895263671875e+00) (49, -2.06710830330848693848e-01) (50, -1.35104879736900329590e-01) (51, 4.94816713035106658936e-03) (52, 7.06814154982566833496e-02) (53, 1.22699007391929626465e-01) (54, -2.31512144207954406738e-01) (0, 2.34314465522766113281e+00) (1, 6.09521627426147460938e+00) (2, 1.93064546585083007812e+00) (3, 1.23784340918064117432e-01) (4, 4.78332769125699996948e-03) (5, 1.69401541352272033691e-01) (6, -5.31827259063720703125e+00) (7, -2.03462791442871093750e+00) (8, -3.34665846824645996094e+00) (9, 1.70966908335685729980e-01) (10, 1.02739080786705017090e-01) (11, 2.60173648595809936523e-01) (12, -2.67216086387634277344e-01) (13, 2.39855974912643432617e-01) (14, 3.55534911155700683594e+00) (15, 1.06778062880039215088e-01) (16, 2.13996917009353637695e-01) (17, -5.66822481155395507812e+00) (18, 1.61674499511718750000e-01) (19, 6.38527348637580871582e-02) (20, -9.18569862842559814453e-01) (21, 3.63156169652938842773e-01) (22, 2.65374875068664550781e+00) (23, 8.06847035884857177734e-01) (24, 1.06839478015899658203e+00) (25, 3.03745210170745849609e-01) (26, -3.10030293464660644531e+00) (27, 1.40586411952972412109e+00) (28, 5.60235857963562011719e-01) (29, 5.09178042411804199219e-01) (30, 5.91187834739685058594e-01) (31, 4.90512490272521972656e-01) (32, 1.75193035602569580078e+00) (33, 4.76767212152481079102e-01) (34, 2.12923381477594375610e-02) (35, -4.65227127075195312500e-01) (36, -9.36322093009948730469e-01) (37, -3.61796081066131591797e-01) (38, -5.22670924663543701172e-01) (39, 7.61527270078659057617e-02) (40, 5.05759567022323608398e-02) (41, 1.01477861404418945312e-01) (42, 2.84284681081771850586e-01) (43, 3.39200384914875030518e-02) (44, -7.73951411247253417969e-01) (45, -6.11653737723827362061e-03) (46, -1.77728936076164245605e-01) (47, -1.77883580327033996582e-01) (48, -4.58729192614555358887e-02) (49, -4.39533054828643798828e-01) (50, -4.07269269227981567383e-01) (51, 2.25452706217765808105e-01) (52, 1.43376752734184265137e-01) (53, 1.94151937961578369141e-01) (54, 4.44074012339115142822e-02) (0, 1.90689563751220703125e+01) (1, 2.08363128662109375000e+02) (2, 4.05094566345214843750e+01) (3, 2.02493250370025634766e-01) (4, 1.86330333352088928223e-01) (5, 2.15877741575241088867e-01) (6, 4.89204368591308593750e+01) (7, 1.32798352050781250000e+03) (8, -2.57379144430160522461e-01) (9, 2.12041109800338745117e-01) (10, 2.68982619047164916992e-01) (11, 3.02415728569030761719e-01) (12, 7.22399592399597167969e-01) (13, 4.06030565500259399414e-01) (14, 3.91410797834396362305e-01) (15, 3.18328768014907836914e-01) (16, 3.37874978780746459961e-01) (17, -5.85320234298706054688e+00) (18, 4.29027646780014038086e-01) (19, 2.57289528846740722656e-01) (20, -4.50541347265243530273e-01) (21, 1.17015892028808593750e+02) (22, 2.73434162139892578125e-01) (23, 2.24955153465270996094e+00) (24, 7.09228849411010742188e+00) (25, 2.12993240356445312500e+02) (26, 7.14645147323608398438e-01) (27, 8.94961261749267578125e+00) (28, 3.18979716300964355469e+00) (29, 2.96990895271301269531e+00) (30, 1.84062957763671875000e-01) (31, 3.04473876953125000000e+01) (32, 5.70447921752929687500e-01) (33, 1.50000000000000000000e+03) (34, -7.86895528435707092285e-02) (35, -2.66586661338806152344e-01) (36, 1.98317572474479675293e-01) (37, 1.03868983685970306396e-01) (38, 3.52199316024780273438e-01) (39, 5.77169395983219146729e-02) (40, 2.35853016376495361328e-01) (41, 3.70284050703048706055e-01) (42, 3.18870639801025390625e+00) (43, 4.49139438569545745850e-02) (44, 8.63711833953857421875e-02) (45, 2.08559408783912658691e-01) (46, 1.83648943901062011719e-01) (47, 3.97379463538527488708e-03) (48, 1.05071194469928741455e-01) (49, 2.14493930339813232422e-01) (50, 4.04754608869552612305e-01) (51, 3.19007515907287597656e-01) (52, 2.72131830453872680664e-01) (53, 2.45876565575599670410e-01) (54, 1.77480638027191162109e-01) (0, -1.78120124340057373047e+00) (1, -1.30780184268951416016e+00) (2, -7.43942081928253173828e-01) (3, -2.14024912565946578979e-02) (4, 3.14395636320114135742e-01) (5, 5.93085765838623046875e-01) (6, 8.04473459720611572266e-01) (7, -2.02268695831298828125e+00) (8, -1.08039057254791259766e+00) (9, -1.11544340848922729492e-01) (10, -6.28260597586631774902e-02) (11, -9.24173146486282348633e-02) (12, -1.86656510829925537109e+00) (13, -4.29020449519157409668e-02) (14, 1.08362242579460144043e-01) (15, 1.30429625511169433594e-01) (16, -4.69664335250854492188e-02) (17, 1.02093470096588134766e+00) (18, -1.30966711044311523438e+00) (19, 5.06102383136749267578e-01) (20, 8.10822239145636558533e-04) (21, -4.21142913401126861572e-02) (22, -5.94336576759815216064e-02) (23, -1.38269126415252685547e-01) (24, 2.33351245522499084473e-01) (25, -8.66020098328590393066e-02) (26, 9.38444137573242187500e-01) (27, -6.78818253800272941589e-03) (28, -1.04265278205275535583e-02) (29, -7.34806284308433532715e-02) (30, 1.79028153419494628906e-01) (31, -6.10844828188419342041e-02) (32, 7.60268419981002807617e-03) (33, -3.47085343673825263977e-03) (34, 3.51477980613708496094e-01) (35, 6.89788460731506347656e-02) (36, -2.03045725822448730469e-01) (37, 3.82589809596538543701e-02) (38, 2.32220008969306945801e-01) (39, -4.02751863002777099609e-02) (40, -1.14132367074489593506e-01) (41, -1.19973845779895782471e-01) (42, -2.34185934066772460938e-01) (43, -3.10677401721477508545e-02) (44, -3.79176624119281768799e-02) (45, -1.39715492725372314453e-01) (46, -1.05096856132149696350e-02) (47, -1.30505234003067016602e-01) (48, -1.11829034984111785889e-01) (49, -1.77861042320728302002e-02) (50, 1.19020454585552215576e-02) (51, -1.69558256864547729492e-01) (52, -7.27690607309341430664e-02) (53, -1.06399312615394592285e-01) (54, 2.60111123323440551758e-01) (0, -3.61750811338424682617e-01) (1, -3.09605300426483154297e-01) (2, 1.78913623094558715820e-02) (3, -1.81555330753326416016e-01) (4, 8.07512253522872924805e-02) (5, 6.45366013050079345703e-01) (6, -1.34106367826461791992e-01) (7, -5.70743143558502197266e-01) (8, 1.33163702487945556641e+00) (9, -1.60715803503990173340e-01) (10, -7.45136439800262451172e-02) (11, -1.39088230207562446594e-02) (12, 1.63500875234603881836e-01) (13, 1.20760209858417510986e-01) (14, 3.40132206678390502930e-01) (15, 7.04482376575469970703e-01) (16, -5.19607812166213989258e-02) (17, 1.82119083404541015625e+00) (18, -9.03433501720428466797e-01) (19, 5.62716960906982421875e-01) (20, -8.30939486622810363770e-02) (21, -1.08256367966532707214e-02) (22, 1.67489305138587951660e-01) (23, -4.84524369239807128906e-01) (24, -8.14149435609579086304e-03) (25, -1.11522726714611053467e-01) (26, -8.23967531323432922363e-02) (27, 3.48798464983701705933e-03) (28, -4.16367501020431518555e-02) (29, 1.05557583272457122803e-01) (30, -1.34609773755073547363e-01) (31, -9.50800999999046325684e-03) (32, 6.72081828117370605469e-01) (33, -1.76677450537681579590e-01) (34, 2.15312421321868896484e-01) (35, 2.72653609514236450195e-01) (36, 1.70723081100732088089e-03) (37, -8.74213129281997680664e-02) (38, 1.50791957974433898926e-01) (39, -4.51660342514514923096e-02) (40, -5.58442957699298858643e-02) (41, -1.21279641985893249512e-01) (42, -3.09692263603210449219e-01) (43, -2.13517677038908004761e-02) (44, -5.75089529156684875488e-02) (45, -2.58695092052221298218e-02) (46, 4.44900244474411010742e-01) (47, -1.55017244815826416016e+00) (48, -1.30613774061203002930e-01) (49, -6.65068998932838439941e-02) (50, -1.39797315001487731934e-01) (51, -6.37516751885414123535e-02) (52, -8.45104008913040161133e-02) (53, 5.95288258045911788940e-03) (54, -5.98058924078941345215e-02) (0, 1.24983591958880424500e-02) (1, -4.92512769997119903564e-02) (2, 5.55358707904815673828e-01) (3, -9.89260822534561157227e-02) (4, -2.23280806094408035278e-02) (5, -7.53993466496467590332e-02) (6, 3.75220119953155517578e-01) (7, 1.02205038070678710938e-01) (8, 4.72904711961746215820e-01) (9, 9.30171273648738861084e-03) (10, 8.60233604907989501953e-02) (11, 2.57111284881830215454e-02) (12, 1.12158372998237609863e-01) (13, 1.37303188443183898926e-01) (14, 1.07118690013885498047e+00) (15, -3.84264469146728515625e-01) (16, -1.41512900590896606445e-01) (17, -1.26408648490905761719e+00) (18, 7.23160281777381896973e-02) (19, -1.08264528214931488037e-01) (20, -1.81697532534599304199e-01) (21, -6.05918705463409423828e-01) (22, 7.31994509696960449219e-01) (23, 3.35908031463623046875e+00) (24, 2.01584964990615844727e-01) (25, 3.89893576502799987793e-02) (26, -9.35809761285781860352e-02) (27, 2.90772765874862670898e-02) (28, 1.00426822900772094727e-01) (29, -9.01067778468132019043e-02) (30, 1.07216870784759521484e+00) (31, -1.51726335287094116211e-01) (32, 3.95950615406036376953e-01) (33, -1.47781997919082641602e-01) (34, 3.07591646909713745117e-01) (35, -3.98685969412326812744e-02) (36, -1.00688129663467407227e-01) (37, -1.20350480079650878906e-01) (38, -9.35218691825866699219e-01) (39, -1.84137713909149169922e+00) (40, -8.58627483248710632324e-02) (41, -7.31484666466712951660e-02) (42, 3.39444242417812347412e-02) (43, -2.15598315000534057617e-01) (44, -1.58416867256164550781e-01) (45, -1.77792295813560485840e-01) (46, -7.74568617343902587891e-02) (47, -1.08534350991249084473e-01) (48, -2.00796470046043395996e-01) (49, -1.30529955029487609863e-01) (50, -3.39426428079605102539e-01) (51, 1.81697815656661987305e-01) (52, 1.63425445556640625000e-01) (53, 3.81453782320022583008e-02) (54, -2.31029018759727478027e-02) (0, 1.08359083533287048340e-01) (1, 2.38877400755882263184e-01) (2, 1.17467030882835388184e-01) (3, 1.27688601613044738770e-01) (4, 2.99096927046775817871e-02) (5, 1.49668768048286437988e-01) (6, -1.19852997362613677979e-01) (7, 4.79867547750473022461e-01) (8, -6.56947195529937744141e-01) (9, 1.09696440398693084717e-01) (10, 1.79291272070258855820e-03) (11, 2.43621058762073516846e-02) (12, 1.47134050726890563965e-01) (13, 1.47985905408859252930e-01) (14, 1.84360370039939880371e-01) (15, -3.52851390838623046875e-01) (16, 1.95474177598953247070e-01) (17, -5.44596500694751739502e-02) (18, 1.79318875074386596680e-01) (19, 3.33333760499954223633e-02) (20, -1.53183788061141967773e-01) (21, 2.08040103316307067871e-01) (22, 2.23161712288856506348e-01) (23, 7.28262215852737426758e-02) (24, 2.85578668117523193359e-01) (25, 2.06677973270416259766e-01) (26, 1.67241528630256652832e-01) (27, 4.15872603654861450195e-01) (28, 1.64637923240661621094e-01) (29, 2.62549966573715209961e-01) (30, 6.88207074999809265137e-02) (31, 5.23435287177562713623e-02) (32, -4.23655241727828979492e-01) (33, 2.01810985803604125977e-01) (34, -9.75527465343475341797e-01) (35, -1.27720987796783447266e+00) (36, 1.27415386959910392761e-02) (37, 1.00380055606365203857e-01) (38, -6.03114783763885498047e-01) (39, 1.44215360283851623535e-01) (40, 6.18702955543994903564e-02) (41, -1.80315852165222167969e-01) (42, 2.49239698052406311035e-01) (43, 6.17013499140739440918e-02) (44, 4.05807420611381530762e-02) (45, 1.39797270298004150391e-01) (46, 1.06994644738733768463e-03) (47, 1.09838666394352912903e-02) (48, -2.15928852558135986328e-02) (49, 1.63633272051811218262e-01) (50, 2.36199811100959777832e-01) (51, 1.83882445096969604492e-01) (52, 5.67304566502571105957e-02) (53, 2.02860251069068908691e-01) (54, 6.12785574048757553101e-03) (0, 5.68206310272216796875e-01) (1, 2.66894817352294921875e+00) (2, 9.93995964527130126953e-01) (3, 1.89751550555229187012e-01) (4, -1.30039334297180175781e-01) (5, -6.11174330115318298340e-02) (6, -1.08420896530151367188e+00) (7, 6.41789197921752929688e-01) (8, -1.77791631221771240234e+00) (9, 2.93361812829971313477e-01) (10, 2.91227281093597412109e-01) (11, 2.34940528869628906250e-01) (12, 2.30610087513923645020e-01) (13, 1.18828162550926208496e-01) (14, 1.76787927746772766113e-01) (15, -1.20785152912139892578e+00) (16, 2.28356719017028808594e-01) (17, -5.04131257534027099609e-01) (18, 1.76933720707893371582e-01) (19, 2.26684901863336563110e-02) (20, 1.69917955994606018066e-01) (21, 1.19030870497226715088e-01) (22, 1.83802977204322814941e-01) (23, 1.76506653428077697754e-01) (24, 1.77103921771049499512e-01) (25, 2.41900935769081115723e-01) (26, 7.17174336314201354980e-02) (27, 3.06077986955642700195e-01) (28, 4.19214367866516113281e-01) (29, 5.41303277015686035156e-01) (30, -3.85960936546325683594e-03) (31, -9.16105955839157104492e-02) (32, -9.65588867664337158203e-01) (33, 7.12774813175201416016e-01) (34, -1.06203150749206542969e+00) (35, -1.06535649299621582031e+00) (36, -2.24176257848739624023e-01) (37, -7.72726759314537048340e-02) (38, -1.83406603336334228516e+00) (39, -4.95954826474189758301e-02) (40, -1.17626659572124481201e-01) (41, -1.20251276530325412750e-03) (42, 2.88270831108093261719e-01) (43, 2.11987733840942382812e-01) (44, -7.40389451384544372559e-02) (45, -1.31746917963027954102e-01) (46, -2.47401520609855651855e-01) (47, 7.45716392993927001953e-02) (48, -4.58809360861778259277e-02) (49, -7.76502257212996482849e-03) (50, -9.06264632940292358398e-02) (51, 3.00365298986434936523e-01) (52, 3.09359252452850341797e-01) (53, 2.85326957702636718750e-01) (54, -2.68081519752740859985e-02) (0, -4.35435563325881958008e-01) (1, -4.24890458583831787109e-01) (2, -6.81924223899841308594e-01) (3, -4.87136915326118469238e-02) (4, 4.28442005068063735962e-03) (5, 3.55988085269927978516e-01) (6, -1.26967981457710266113e-01) (7, -3.57227897644042968750e+00) (8, 3.11542659997940063477e-01) (9, -4.45494465529918670654e-02) (10, -3.46751473844051361084e-02) (11, 3.75522971153259277344e-02) (12, -8.46439778804779052734e-01) (13, 1.65908131748437881470e-02) (14, 6.69661521911621093750e-01) (15, 1.37155950069427490234e+00) (16, -1.24698124825954437256e-01) (17, 4.89724993705749511719e-01) (18, -3.65369498729705810547e-01) (19, -1.22430071234703063965e-01) (20, -1.08847148716449737549e-01) (21, -2.01501756906509399414e-01) (22, -9.38113555312156677246e-02) (23, -2.07909688353538513184e-01) (24, -1.30538374185562133789e-01) (25, -3.07277273386716842651e-02) (26, 4.85958345234394073486e-02) (27, -4.24281880259513854980e-02) (28, -9.53824445605278015137e-02) (29, -1.37739539146423339844e-01) (30, -6.33589699864387512207e-02) (31, -1.79567888379096984863e-01) (32, 2.82087266445159912109e-01) (33, -1.59327611327171325684e-01) (34, 1.25210571289062500000e+00) (35, 1.44186758995056152344e+00) (36, -1.74915462732315063477e-01) (37, -1.26491963863372802734e-01) (38, 1.07010543346405029297e+00) (39, -1.05916649103164672852e-01) (40, -3.98207493126392364502e-02) (41, 1.64329641847871243954e-04) (42, -3.30383144319057464600e-02) (43, 1.55538752675056457520e-01) (44, -1.13754058256745338440e-02) (45, -8.20049494504928588867e-02) (46, 3.32466065883636474609e-01) (47, -2.39498585462570190430e-01) (48, -5.07348701357841491699e-02) (49, 7.64982476830482482910e-02) (50, -1.37977719306945800781e-01) (51, 1.70348014216870069504e-03) (52, -1.02260112762451171875e-01) (53, -1.10095329582691192627e-01) (54, -3.28886806964874267578e-02) (55, -2.32730656862258911133e-01) (56, -4.36411428451538085938e+00) (57, -6.87495756149291992188e+00) (58, 1.39203202724456787109e+00) (59, -3.03635406494140625000e+00) (60, -3.46063584089279174805e-01) (61, 3.06019344329833984375e+01) (62, -2.33360648155212402344e-01) (63, -1.59579172730445861816e-01) (64, -1.22358760833740234375e+01) (65, -2.82871186733245849609e-01) (66, -3.56335997581481933594e-01) (67, 3.14062142372131347656e+00) (68, 1.59360673278570175171e-02) (69, -5.57314753532409667969e-01) (70, 1.46675201416015625000e+02) (71, -4.43985521793365478516e-01) (72, 1.27031683921813964844e+00) (73, 8.04248046875000000000e+01) (74, 5.38504457473754882812e+00) (75, -4.61530953645706176758e-01) (76, -5.20106911659240722656e-01) (77, 4.59306240081787109375e-02) (78, -7.05052471160888671875e+00) (79, -6.51588344573974609375e+00) (80, -4.82186168432235717773e-01) (81, 1.46657913923263549805e-01) (82, 2.22336077690124511719e+00) (83, -2.64713078737258911133e-01) (84, 2.38288611173629760742e-01) (85, -3.19184690713882446289e-01) (86, 5.51071119308471679688e+00) (87, -3.08504074811935424805e-01) (55, -5.03656685352325439453e-01) (56, -6.01119756698608398438e+00) (57, -1.24319906234741210938e+01) (58, 2.22449874877929687500e+00) (59, -4.08167648315429687500e+00) (60, -4.92524236440658569336e-01) (61, 3.76475982666015625000e+01) (62, -2.90400534868240356445e-01) (63, -3.79732698202133178711e-01) (64, -1.56295299530029296875e+01) (65, -3.24061691761016845703e-01) (66, -1.93808257579803466797e-01) (67, 2.62519788742065429688e+00) (68, -8.61330851912498474121e-02) (69, -2.54057526588439941406e-01) (70, 1.98412872314453125000e+02) (71, -2.03430220484733581543e-01) (72, 1.01001596450805664062e+00) (73, 1.13448883056640625000e+02) (74, 8.60740184783935546875e+00) (75, -7.24854230880737304688e-01) (76, -3.97184222936630249023e-01) (77, 1.16997897624969482422e+00) (78, -5.39314174652099609375e+00) (79, -7.56822395324707031250e+00) (80, -2.69868165254592895508e-01) (81, 1.12599599361419677734e+00) (82, -1.43661111593246459961e-01) (83, -4.78310465812683105469e-01) (84, -3.64703059196472167969e-01) (85, -4.27449554204940795898e-01) (86, 1.03475856781005859375e+01) (87, -2.38151326775550842285e-01) (55, 2.21489787101745605469e+00) (56, -6.23917961120605468750e+00) (57, -9.84549331665039062500e+00) (58, 8.31090569496154785156e-01) (59, -3.44539427757263183594e+00) (60, -4.80867981910705566406e-01) (61, 3.03149147033691406250e+01) (62, 1.14792478084564208984e+00) (63, 6.00704789161682128906e-01) (64, -9.87276744842529296875e+00) (65, -4.60674405097961425781e-01) (66, -4.69563424587249755859e-01) (67, 7.03360176086425781250e+00) (68, -2.27685049176216125488e-01) (69, -5.62893807888031005859e-01) (70, 1.39119277954101562500e+02) (71, -3.84757369756698608398e-01) (72, -4.57514345645904541016e-01) (73, 3.45225753784179687500e+01) (74, 8.36652183532714843750e+00) (75, -7.86144137382507324219e-01) (76, -5.99695980548858642578e-01) (77, -4.30048406124114990234e-01) (78, -5.58927154541015625000e+00) (79, -3.79818367958068847656e+00) (80, -5.91330647468566894531e-01) (81, 5.21770429611206054688e+00) (82, 3.00494766235351562500e+00) (83, -3.05181074142456054688e+00) (84, -6.21043622493743896484e-01) (85, -4.76556688547134399414e-01) (86, 2.62317395210266113281e+00) (87, -5.78100264072418212891e-01) (55, 6.08675420284271240234e-01) (56, -9.04929786920547485352e-02) (57, 6.84272348880767822266e-01) (58, -1.40588593482971191406e+00) (59, -9.27836775779724121094e-01) (60, -2.65215128660202026367e-01) (61, -2.61873674392700195312e+00) (62, -2.68974393606185913086e-01) (63, -5.11147141456604003906e-01) (64, -1.71931481361389160156e+00) (65, -5.39430566132068634033e-02) (66, -3.08204501867294311523e-01) (67, -2.55747270584106445312e+00) (68, 1.97554981708526611328e+00) (69, -1.15513190627098083496e-01) (70, 1.00838108062744140625e+01) (71, -9.46118056774139404297e-01) (72, -3.06569904088973999023e-01) (73, -1.12154779434204101562e+01) (74, 7.66344881057739257812e+00) (75, -4.09383177757263183594e-01) (76, -3.31808805465698242188e-01) (77, -3.20040911436080932617e-01) (78, -4.66381013393402099609e-01) (79, -5.38606196641921997070e-02) (80, -2.71026551723480224609e-01) (81, -4.08768534660339355469e-01) (82, -1.37406504154205322266e+00) (83, 1.19973921775817871094e+00) (84, -2.78854638338088989258e-01) (85, 1.03243827819824218750e-01) (86, -5.35091400146484375000e-01) (87, -2.87711203098297119141e-01) (55, 1.49807262420654296875e+00) (56, -7.58302271366119384766e-01) (57, -1.21093666553497314453e+00) (58, -4.51965183019638061523e-01) (59, 1.17001660168170928955e-01) (60, -2.40013703703880310059e-01) (61, -4.89664465188980102539e-01) (62, -1.39200985431671142578e-01) (63, -2.94316202402114868164e-01) (64, -3.40367460250854492188e+00) (65, -8.96270647644996643066e-02) (66, -1.92871779203414916992e-01) (67, -1.09914088249206542969e+00) (68, 1.40645727515220642090e-01) (69, -2.04576164484024047852e-01) (70, 9.35304641723632812500e+00) (71, -1.19621121883392333984e+00) (72, 3.68805676698684692383e-01) (73, -2.99122924804687500000e+01) (74, 8.24065113067626953125e+00) (75, -3.76936107873916625977e-01) (76, -2.65921056270599365234e-01) (77, -4.12377029657363891602e-01) (78, -1.67013525962829589844e+00) (79, 3.48191410303115844727e-02) (80, -2.55356132984161376953e-01) (81, 1.08846211433410644531e+00) (82, -9.09942910075187683105e-02) (83, -3.83173376321792602539e-01) (84, -2.69387841224670410156e-01) (85, -6.05523884296417236328e-01) (86, -1.21299132704734802246e-01) (87, -3.36294561624526977539e-01) (55, -9.81380119919776916504e-02) (56, -9.72540199756622314453e-01) (57, -2.56903338432312011719e+00) (58, -1.33662724494934082031e+00) (59, -3.29372808337211608887e-02) (60, -3.41041922569274902344e-01) (61, 6.50147867202758789062e+00) (62, -3.57483625411987304688e-01) (63, -3.15253108739852905273e-01) (64, -3.96569824218750000000e+00) (65, -2.55266487598419189453e-01) (66, -2.72353231906890869141e-01) (67, 2.66393852233886718750e+00) (68, 1.67989432811737060547e+00) (69, -3.12093347311019897461e-01) (70, -7.37435455322265625000e+01) (71, -2.23135972023010253906e+00) (72, 1.64238750934600830078e+00) (73, -9.16588020324707031250e+00) (74, 5.36530447006225585938e+00) (75, -5.26544809341430664062e-01) (76, -2.26882621645927429199e-01) (77, -2.56489396095275878906e-01) (78, -1.12008011341094970703e+00) (79, -6.50583684444427490234e-01) (80, -2.67226636409759521484e-01) (81, 1.60837757587432861328e+00) (82, 2.50286519527435302734e-01) (83, -2.31046032905578613281e+00) (84, -2.75388747453689575195e-01) (85, -3.38389158248901367188e-01) (86, 1.39485821127891540527e-01) (87, -2.27225810289382934570e-01) (55, -1.16442704200744628906e+00) (56, 1.06372964382171630859e+00) (57, 2.10946157574653625488e-01) (58, 3.55690807104110717773e-01) (59, 4.69855993986129760742e-01) (60, -1.08960002660751342773e-01) (61, -7.08404839038848876953e-01) (62, -1.46272599697113037109e+00) (63, 2.16859221458435058594e-01) (64, 3.13213407993316650391e-01) (65, -3.41041773557662963867e-01) (66, -2.73372054100036621094e-01) (67, -1.14113044738769531250e+00) (68, 3.15312504768371582031e-01) (69, -5.07948815822601318359e-01) (70, 2.15929393768310546875e+01) (71, -3.18637132644653320312e-01) (72, -2.50580497086048126221e-02) (73, 2.56524372100830078125e+01) (74, -4.64735364913940429688e+00) (75, -2.48646348714828491211e-01) (76, -1.11844681203365325928e-01) (77, -1.61159917712211608887e-01) (78, -3.80505710840225219727e-01) (79, -8.97278413176536560059e-02) (80, -2.56551176309585571289e-01) (81, -1.49281358718872070312e+00) (82, -8.37851166725158691406e-01) (83, 2.99864232540130615234e-01) (84, -1.91061750054359436035e-01) (85, -3.52548986673355102539e-01) (86, 4.20787036418914794922e-01) (87, -2.28062584996223449707e-01) (55, -6.93576514720916748047e-01) (56, -4.39327210187911987305e-03) (57, -3.07695198059082031250e+00) (58, 2.50041812658309936523e-01) (59, 5.88358700275421142578e-01) (60, -1.46097809076309204102e-01) (61, 5.32555699348449707031e-01) (62, -1.02228295803070068359e+00) (63, -2.09951952099800109863e-01) (64, -2.13140320777893066406e+00) (65, -1.38913810253143310547e-01) (66, -2.34669800847768783569e-02) (67, -1.01128613948822021484e+00) (68, -2.28111195564270019531e+00) (69, -1.51578217744827270508e-01) (70, 4.31068000793457031250e+01) (71, -6.16947412490844726562e-01) (72, 6.19887411594390869141e-01) (73, -1.45743441581726074219e+00) (74, -1.87876594066619873047e+00) (75, -1.56429350376129150391e-01) (76, -1.56540617346763610840e-01) (77, 1.76171511411666870117e-01) (78, -1.36265599727630615234e+00) (79, -2.04266995191574096680e-01) (80, -6.51490613818168640137e-02) (81, -1.66169965267181396484e+00) (82, -6.68054878711700439453e-01) (83, -9.50126886367797851562e-01) (84, -1.31854310631752014160e-01) (85, -9.16152372956275939941e-02) (86, 2.87932300567626953125e+00) (87, 3.48474048078060150146e-02) (55, -2.04775452613830566406e+00) (56, -1.22606849670410156250e+00) (57, -2.83343625068664550781e+00) (58, -1.99934613704681396484e+00) (59, -9.72619429230690002441e-02) (60, -2.79769906774163246155e-03) (61, -9.58894908428192138672e-01) (62, 1.69792711734771728516e-01) (63, -5.50777733325958251953e-01) (64, -1.15112519264221191406e+00) (65, -1.12168252468109130859e-01) (66, -1.61212459206581115723e-01) (67, 1.96024739742279052734e+00) (68, -5.12483008205890655518e-02) (69, -1.83511793613433837891e-01) (70, -7.79017105102539062500e+01) (71, -1.95215272903442382812e+00) (72, 4.05149370431900024414e-01) (73, 1.36116180419921875000e+01) (74, 1.27486097812652587891e+00) (75, -5.57558871805667877197e-02) (76, 6.86954893171787261963e-03) (77, -3.88893522322177886963e-02) (78, 5.03911599516868591309e-02) (79, -2.05498874187469482422e-01) (80, -1.42227143049240112305e-01) (81, -1.52342453598976135254e-01) (82, -5.32770633697509765625e-01) (83, -6.81992471218109130859e-01) (84, -8.68849307298660278320e-02) (85, 4.63726103305816650391e-01) (86, 4.28295910358428955078e-01) (87, -1.73706516623497009277e-01) (55, -1.87002742290496826172e+00) (56, 2.67193198204040527344e-01) (57, 1.82065224647521972656e+00) (58, -7.83669412136077880859e-01) (59, -9.41946744918823242188e-01) (60, -1.26573458313941955566e-01) (61, 4.29907941818237304688e+00) (62, -1.25802993774414062500e+00) (63, -1.03849925100803375244e-01) (64, 3.79179030656814575195e-01) (65, -1.04604959487915039062e-01) (66, -1.51734948158264160156e-01) (67, -1.98807132244110107422e+00) (68, 2.63074350357055664062e+00) (69, -1.37642085552215576172e-01) (70, -3.02803878784179687500e+01) (71, -4.05303351581096649170e-02) (72, -5.24508178234100341797e-01) (73, 6.53935012817382812500e+01) (74, 4.18313550949096679688e+00) (75, -6.78220689296722412109e-02) (76, -1.14549137651920318604e-01) (77, -4.07784953713417053223e-02) (78, 1.42470240592956542969e+00) (79, -7.09238573908805847168e-02) (80, -9.50858145952224731445e-02) (81, -3.29817247390747070312e+00) (82, -2.70343399047851562500e+00) (83, 1.87034058570861816406e+00) (84, -4.79741469025611877441e-02) (85, 1.44909024238586425781e-01) (86, 3.17305862903594970703e-01) (87, -8.81468802690505981445e-02) (55, -3.05370055139064788818e-02) (56, -1.21244005858898162842e-01) (57, -9.21829164028167724609e-01) (58, -3.82541529834270477295e-02) (59, 4.33469802141189575195e-01) (60, -1.72513246536254882812e-01) (61, -1.23293960094451904297e+00) (62, 2.31580480933189392090e-01) (63, -4.56677258014678955078e-01) (64, 3.78626871109008789062e+00) (65, -1.22330166399478912354e-01) (66, -1.95361860096454620361e-02) (67, -1.70872068405151367188e+00) (68, -3.86707568168640136719e+00) (69, 1.75806449260562658310e-03) (70, 1.97539005279541015625e+01) (71, -5.88315799832344055176e-02) (72, 3.24132889509201049805e-02) (73, -3.14955997467041015625e+00) (74, 1.57754671573638916016e+00) (75, -1.20367012917995452881e-01) (76, -1.59155070781707763672e-01) (77, -1.64047479629516601562e-01) (78, -1.04907679557800292969e+00) (79, -1.42677813768386840820e-01) (80, -1.80465027689933776855e-01) (81, 4.69092249870300292969e-01) (82, 8.29514503479003906250e-01) (83, -4.01140213012695312500e-01) (84, -8.15184861421585083008e-02) (85, -2.55162894725799560547e-01) (86, -1.05398632586002349854e-01) (87, -1.93408913910388946533e-02) (55, -5.60364902019500732422e-01) (56, 4.54738944768905639648e-01) (57, -3.11378002166748046875e+00) (58, 8.30231606960296630859e-01) (59, -2.60669648647308349609e-01) (60, -9.43433418869972229004e-02) (61, -9.98062491416931152344e-01) (62, -5.85704922676086425781e-01) (63, -3.33021759986877441406e-01) (64, 1.28223454952239990234e+00) (65, -1.55509263277053833008e-01) (66, -7.36678689718246459961e-02) (67, 3.32516813278198242188e+00) (68, -1.83825159072875976562e+00) (69, -5.13243257999420166016e-01) (70, 1.24379415512084960938e+01) (71, -9.47887659072875976562e-01) (72, 1.34271055459976196289e-01) (73, 2.78246650695800781250e+01) (74, -1.88343596458435058594e+00) (75, -1.84104040265083312988e-01) (76, 1.15587962791323661804e-02) (77, -1.38166666030883789062e-01) (78, -2.79800772666931152344e-01) (79, -7.12105393409729003906e-01) (80, -9.64786112308502197266e-03) (81, 9.38773676753044128418e-02) (82, -1.03526282310485839844e+00) (83, -7.02416002750396728516e-01) (84, -1.61938115954399108887e-01) (85, -1.19521245360374450684e-01) (86, -2.59149432182312011719e-01) (87, -4.75312471389770507812e-02) (55, 8.05479764938354492188e-01) (56, 2.50940918922424316406e+00) (57, 1.59901320934295654297e+00) (58, -1.31756484508514404297e-01) (59, -7.93409347534179687500e-01) (60, -2.09864914417266845703e-01) (61, 4.54852581024169921875e+00) (62, -1.88628628849983215332e-01) (63, 5.53116872906684875488e-02) (64, 3.42964649200439453125e+00) (65, -7.36626923084259033203e-01) (66, -3.15237641334533691406e-01) (67, -2.16442632675170898438e+00) (68, 1.24216556549072265625e+00) (69, -2.16409608721733093262e-01) (70, -2.64322814941406250000e+01) (71, 1.56941823661327362061e-03) (72, 2.93775647878646850586e-01) (73, 3.21237449645996093750e+01) (74, -1.45625352859497070312e+00) (75, 1.43859116360545158386e-02) (76, -2.39379987120628356934e-01) (77, -3.14704865217208862305e-01) (78, 1.90224564075469970703e+00) (79, 4.09534305334091186523e-01) (80, -5.26024289429187774658e-02) (81, 5.22517800331115722656e-01) (82, -5.41298007965087890625e+00) (83, 4.20410722494125366211e-01) (84, -3.75519752502441406250e-01) (85, -5.84016181528568267822e-02) (86, 2.87415921688079833984e-01) (87, -5.08695580065250396729e-02) (55, 1.42487990856170654297e+00) (56, -1.64985641837120056152e-01) (57, -9.01591420173645019531e-01) (58, -4.35494557023048400879e-02) (59, 2.38622501492500305176e-01) (60, 8.52287858724594116211e-02) (61, 2.66781640052795410156e+00) (62, 3.68023663759231567383e-01) (63, -5.82085192203521728516e-01) (64, 4.20783996582031250000e+00) (65, 8.52443277835845947266e-02) (66, -4.64974455535411834717e-02) (67, -1.29635226726531982422e+00) (68, -3.69719147682189941406e+00) (69, 3.80575358867645263672e-02) (70, 1.36566476821899414062e+01) (71, 1.38429105281829833984e-01) (72, 4.74124938249588012695e-01) (73, -1.55300912857055664062e+01) (74, 5.83827793598175048828e-01) (75, -4.25407849252223968506e-02) (76, -4.82625246047973632812e-01) (77, -5.93474693596363067627e-02) (78, -7.00158238410949707031e-01) (79, -2.74042814970016479492e-01) (80, -8.18533822894096374512e-02) (81, -8.09634029865264892578e-01) (82, -8.13576459884643554688e-01) (83, -7.65251994132995605469e-01) (84, 2.41389125585556030273e-02) (85, -1.67072471231222152710e-02) (86, 7.07151412963867187500e-01) (87, 9.19023528695106506348e-03) (55, -5.48713207244873046875e+00) (56, -2.54504823684692382812e+00) (57, -2.67070937156677246094e+00) (58, 7.68649160861968994141e-01) (59, 5.89034706354141235352e-02) (60, -7.50108584761619567871e-02) (61, 4.97325468063354492188e+00) (62, -4.83481138944625854492e-01) (63, -5.12291610240936279297e-01) (64, 7.03123331069946289062e-01) (65, 8.46239700913429260254e-02) (66, 1.63937583565711975098e-02) (67, 3.41333675384521484375e+00) (68, -9.49948430061340332031e-01) (69, -6.48974105715751647949e-02) (70, 4.49190063476562500000e+01) (71, -2.47531890869140625000e-01) (72, -9.99107584357261657715e-02) (73, 2.80325374603271484375e+01) (74, 3.10380697250366210938e+00) (75, 1.27820238471031188965e-01) (76, -7.92756974697113037109e-02) (77, 7.60988295078277587891e-01) (78, -5.87504744529724121094e-01) (79, -2.53305137157440185547e-01) (80, -9.51150804758071899414e-03) (81, -8.68479073047637939453e-01) (82, -4.44219321012496948242e-01) (83, -1.08893290162086486816e-02) (84, 1.15212030708789825439e-01) (85, 1.76522992551326751709e-02) (86, -1.29163253307342529297e+00) (87, 5.93759305775165557861e-02) (55, -2.93085217475891113281e-01) (56, 1.61271595954895019531e+00) (57, -2.00615435838699340820e-01) (58, -1.07503545284271240234e+00) (59, -7.96691894531250000000e-01) (60, 5.33285774290561676025e-02) (61, 7.45737409591674804688e+00) (62, -2.46701166033744812012e-01) (63, -7.15204954147338867188e-01) (64, 4.45363712310791015625e+00) (65, -1.05788350105285644531e-01) (66, 7.01194033026695251465e-02) (67, -2.61776566505432128906e+00) (68, 5.25442540645599365234e-01) (69, -9.20730903744697570801e-02) (70, -1.86920413970947265625e+01) (71, 1.36282563209533691406e-01) (72, 6.38238489627838134766e-01) (73, 6.41109619140625000000e+01) (74, 3.96959304809570312500e+00) (75, 7.24677145481109619141e-02) (76, 8.25888812541961669922e-02) (77, 1.17091789841651916504e-01) (78, 2.25475621223449707031e+00) (79, 4.56410162150859832764e-02) (80, 3.69963496923446655273e-02) (81, -3.64401847124099731445e-01) (82, -4.30877685546875000000e+00) (83, 4.47333371266722679138e-03) (84, -4.37860600650310516357e-02) (85, 1.03831971064209938049e-02) (86, -1.83213815093040466309e-01) (87, 1.29675418138504028320e-01) (55, -9.91491854190826416016e-01) (56, 1.60974413156509399414e-01) (57, -7.02308773994445800781e-01) (58, -2.29191947728395462036e-02) (59, 6.78127765655517578125e-01) (60, 3.85983228683471679688e-01) (61, 4.48215198516845703125e+00) (62, 1.24553233385086059570e-01) (63, -2.19233727455139160156e+00) (64, 5.14900922775268554688e+00) (65, 1.66378080844879150391e-01) (66, 1.02845095098018646240e-01) (67, -8.49584639072418212891e-01) (68, -3.70827722549438476562e+00) (69, 1.78243935108184814453e-01) (70, 8.79336929321289062500e+00) (71, -1.60091519355773925781e-02) (72, 6.47395849227905273438e-01) (73, -5.16018867492675781250e+00) (74, 1.06102621555328369141e+00) (75, 1.48061811923980712891e-01) (76, 3.79918105900287628174e-02) (77, 6.92933127284049987793e-02) (78, -3.08306813240051269531e-01) (79, -6.56796574592590332031e-01) (80, -3.30248549580574035645e-02) (81, -8.21491241455078125000e-01) (82, -1.04443681240081787109e+00) (83, -5.64785838127136230469e-01) (84, 6.45630508661270141602e-02) (85, 4.70392815768718719482e-02) (86, 5.69531321525573730469e-01) (87, 1.63913652300834655762e-01) (55, -8.12656307220458984375e+00) (56, -1.72937631607055664062e+00) (57, 1.39925599098205566406e-01) (58, 3.32939535379409790039e-01) (59, -1.04781305789947509766e+00) (60, 6.62047341465950012207e-02) (61, 5.23817729949951171875e+00) (62, -4.17087733745574951172e-01) (63, -4.73994046449661254883e-01) (64, 2.78972578048706054688e+00) (65, 1.34993553161621093750e+00) (66, 3.18684093654155731201e-02) (67, 3.41383266448974609375e+00) (68, -5.21472752094268798828e-01) (69, 5.30039481818675994873e-02) (70, 1.98645820617675781250e+01) (71, -8.54983255267143249512e-02) (72, -3.04600954055786132812e-01) (73, 1.10019052028656005859e+00) (74, -2.55166292190551757812e-01) (75, 1.59832909703254699707e-01) (76, 1.73004925251007080078e-01) (77, 2.16148123145103454590e-01) (78, 7.60744452476501464844e-01) (79, -7.17024654150009155273e-02) (80, -2.95436717569828033447e-02) (81, -1.61962461471557617188e+00) (82, -1.42800974845886230469e+00) (83, 7.59778693318367004395e-02) (84, 1.80192217230796813965e-01) (85, 2.01309561729431152344e-01) (86, -2.35248351097106933594e+00) (87, -1.14541374146938323975e-01) (55, -5.35418510437011718750e+00) (56, -2.64182835817337036133e-01) (57, 2.33035755157470703125e+00) (58, -5.90975224971771240234e-01) (59, 8.76269578933715820312e-01) (60, 2.65177160501480102539e-01) (61, 7.97246694564819335938e+00) (62, 1.18626751005649566650e-01) (63, 6.82009086012840270996e-02) (64, 2.42096066474914550781e+00) (65, 1.12367495894432067871e-01) (66, 8.36782604455947875977e-02) (67, -2.24745893478393554688e+00) (68, 3.18160593509674072266e-01) (69, -1.19726501405239105225e-01) (70, -5.22347564697265625000e+01) (71, -1.62591531872749328613e-01) (72, 3.01408171653747558594e-01) (73, 1.65558910369873046875e+01) (74, 1.26116740703582763672e+00) (75, 1.38081908226013183594e-01) (76, 3.19049805402755737305e-01) (77, 9.55070927739143371582e-02) (78, 8.53235661983489990234e-01) (79, 1.36664047837257385254e-01) (80, 8.39759558439254760742e-02) (81, -6.39351844787597656250e-01) (82, -6.61288022994995117188e-01) (83, 2.34511047601699829102e-01) (84, 2.62332055717706680298e-02) (85, 1.22784070670604705811e-01) (86, 2.69514709711074829102e-01) (87, 9.12326574325561523438e-02) (55, -1.27702903747558593750e+00) (56, -1.09289681911468505859e+00) (57, -2.38980025053024291992e-01) (58, -3.46048414707183837891e-01) (59, 3.05425852537155151367e-01) (60, 3.41314524412155151367e-02) (61, 7.66957330703735351562e+00) (62, 6.15549266338348388672e-01) (63, -1.35915982723236083984e+00) (64, 5.54357814788818359375e+00) (65, 3.91292236745357513428e-02) (66, 7.87953883409500122070e-02) (67, -2.64090156555175781250e+00) (68, -1.80936634540557861328e+00) (69, 7.70185589790344238281e-02) (70, -1.13665390014648437500e+01) (71, 1.53925254940986633301e-01) (72, 6.75689220428466796875e-01) (73, 2.20967483520507812500e+00) (74, 5.95861864089965820312e+00) (75, 8.43675062060356140137e-02) (76, 1.58863663673400878906e-01) (77, -5.87483793497085571289e-02) (78, 3.20119559764862060547e-01) (79, 1.48886024951934814453e-01) (80, 1.94014593958854675293e-01) (81, -6.21138751506805419922e-01) (82, 7.51172080636024475098e-02) (83, -1.57680165767669677734e+00) (84, 7.91885405778884887695e-02) (85, 1.04389287531375885010e-01) (86, -4.75500881671905517578e-01) (87, 2.08103671669960021973e-01) (55, -4.48979347944259643555e-01) (56, -1.32134437561035156250e+00) (57, -2.07381367683410644531e+00) (58, 1.44428443908691406250e+00) (59, -2.62844204902648925781e+00) (60, 1.23642466962337493896e-01) (61, 4.81199693679809570312e+00) (62, 8.67348723113536834717e-03) (63, -7.18556106090545654297e-01) (64, 3.78787183761596679688e+00) (65, 1.35243041440844535828e-02) (66, 1.67049393057823181152e-01) (67, -1.84508606791496276855e-01) (68, 6.43618265166878700256e-03) (69, 5.69577813148498535156e-01) (70, 4.80607223510742187500e+01) (71, 7.01626956462860107422e-01) (72, -2.86207675933837890625e-01) (73, 7.99004793167114257812e+00) (74, 1.06183013916015625000e+01) (75, 1.99491679668426513672e-01) (76, 1.75763100385665893555e-01) (77, 3.15475165843963623047e-01) (78, -6.03276491165161132812e-02) (79, 9.28250029683113098145e-02) (80, 3.69132012128829956055e-02) (81, -2.02455234527587890625e+00) (82, -2.16499400138854980469e+00) (83, -2.48377382755279541016e-01) (84, 1.77039518952369689941e-01) (85, 2.57081270217895507812e-01) (86, -2.89669442176818847656e+00) (87, 6.20812624692916870117e-02) (55, -2.34164381027221679688e+00) (56, -4.22880172729492187500e-01) (57, 2.07009032368659973145e-01) (58, -2.28512674570083618164e-01) (59, 2.76674962043762207031e+00) (60, 9.58354994654655456543e-02) (61, 1.01303081512451171875e+01) (62, 6.32923185825347900391e-01) (63, -2.09319067001342773438e+00) (64, 3.06593012809753417969e+00) (65, 2.27273777127265930176e-01) (66, 1.03666037321090698242e-01) (67, -1.19742846488952636719e+00) (68, 4.97683405876159667969e-01) (69, 1.95385769009590148926e-01) (70, -3.35189781188964843750e+01) (71, 1.12977996468544006348e-01) (72, 6.31817728281021118164e-02) (73, 5.63825912475585937500e+01) (74, -3.78971219062805175781e+00) (75, 1.17350064218044281006e-01) (76, 2.58336752653121948242e-01) (77, -3.56060341000556945801e-02) (78, 1.20624709129333496094e+00) (79, 1.35102421045303344727e-02) (80, 1.24064207077026367188e-01) (81, 2.40830123424530029297e-01) (82, -1.10860347747802734375e+00) (83, 2.24421441555023193359e-01) (84, -1.39440009370446205139e-02) (85, 1.61743108183145523071e-02) (86, -9.65223386883735656738e-02) (87, 7.85856768488883972168e-02) (55, -7.69574582576751708984e-01) (56, -1.02214038372039794922e+00) (57, -4.61011286824941635132e-03) (58, -2.52631902694702148438e-01) (59, 6.13630652427673339844e-01) (60, 1.77954077720642089844e-01) (61, 8.95629024505615234375e+00) (62, 1.22190427780151367188e+00) (63, -9.68281984329223632812e-01) (64, 6.41792201995849609375e+00) (65, 5.55682927370071411133e-02) (66, 1.56067490577697753906e-01) (67, -2.48557066917419433594e+00) (68, -1.66724491119384765625e+00) (69, 2.00636945664882659912e-02) (70, -9.65120220184326171875e+00) (71, 1.95883527398109436035e-01) (72, 1.30905139446258544922e+00) (73, 1.18394231796264648438e+01) (74, 2.38451170921325683594e+00) (75, 1.58085286617279052734e-01) (76, 1.61341726779937744141e-01) (77, 3.22864167392253875732e-02) (78, 9.44546386599540710449e-02) (79, -9.45938155055046081543e-02) (80, 3.83071638643741607666e-02) (81, 5.22939801216125488281e-01) (82, -8.05999815464019775391e-01) (83, -1.15738976001739501953e+00) (84, 1.32353544235229492188e-01) (85, -1.42316982150077819824e-01) (86, -6.66835367679595947266e-01) (87, 5.27776591479778289795e-02) (55, -1.30692040920257568359e+00) (56, -6.90051734447479248047e-01) (57, 7.97207593917846679688e-01) (58, 1.04818344116210937500e+00) (59, -4.68467569351196289062e+00) (60, 9.54467952251434326172e-02) (61, 6.41552686691284179688e+00) (62, 2.15034961700439453125e-01) (63, -1.42305505275726318359e+00) (64, 5.26644372940063476562e+00) (65, 8.33029448986053466797e-01) (66, 1.49912938475608825684e-01) (67, -4.83499377965927124023e-01) (68, 5.38379609584808349609e-01) (69, 7.59840533137321472168e-02) (70, 2.87942638397216796875e+01) (71, 7.54169300198554992676e-02) (72, 1.83892980217933654785e-01) (73, 6.92553186416625976562e+00) (74, 1.10099363327026367188e+01) (75, 2.73287892341613769531e-01) (76, 8.42273458838462829590e-02) (77, 3.27560126781463623047e-01) (78, 4.02949005365371704102e-01) (79, 2.54279077053070068359e-01) (80, 1.41186594963073730469e-01) (81, -3.54842114448547363281e+00) (82, -2.01159954071044921875e+00) (83, 9.15225874632596969604e-03) (84, 2.27509438991546630859e-01) (85, 7.28770434856414794922e-01) (86, -3.44935369491577148438e+00) (87, 1.20902381837368011475e-01) (55, -5.90282917022705078125e+00) (56, 2.66055488586425781250e+00) (57, 1.25523388385772705078e-01) (58, 2.36618012189865112305e-01) (59, -4.10642027854919433594e-01) (60, 4.45116698741912841797e-01) (61, 3.77232217788696289062e+00) (62, 1.97545096278190612793e-01) (63, -5.83200931549072265625e-01) (64, 5.48428249359130859375e+00) (65, 1.29317188262939453125e+00) (66, 3.22419375181198120117e-01) (67, -4.74445104598999023438e-01) (68, -2.68495917320251464844e-01) (69, 5.63870072364807128906e-01) (70, -1.19389009475708007812e+01) (71, 3.60001981258392333984e-01) (72, 7.90898263454437255859e-01) (73, 7.95977859497070312500e+01) (74, 3.24020594358444213867e-01) (75, 2.72000581026077270508e-01) (76, 4.18870508670806884766e-01) (77, 5.94186365604400634766e-01) (78, 1.09090387821197509766e+00) (79, 1.39598831534385681152e-01) (80, 4.71305638551712036133e-01) (81, -4.88271617889404296875e+00) (82, -1.51091790199279785156e+00) (83, -7.98310458660125732422e-01) (84, 4.30517494678497314453e-01) (85, 1.84021964669227600098e-01) (86, -1.66296315193176269531e+00) (87, 2.55425095558166503906e-01) (55, -9.85783576965332031250e-01) (56, 9.58032667636871337891e-01) (57, -8.32829102873802185059e-02) (58, 1.85127183794975280762e-01) (59, -1.74424612522125244141e+00) (60, 3.23370695114135742188e-01) (61, 4.59713315963745117188e+00) (62, 1.72925782203674316406e+00) (63, -1.05437302589416503906e+00) (64, 7.54928302764892578125e+00) (65, 3.05161386728286743164e-01) (66, 3.19121956825256347656e-01) (67, -1.76156628131866455078e+00) (68, -9.26781237125396728516e-01) (69, 3.89324903488159179688e-01) (70, 1.56041927337646484375e+01) (71, 2.22772806882858276367e-01) (72, 1.62461900711059570312e+00) (73, 3.12393245697021484375e+01) (74, 2.82745552062988281250e+00) (75, 2.50024080276489257812e-01) (76, 2.28687047958374023438e-01) (77, 2.34300017356872558594e-01) (78, 1.41324862837791442871e-01) (79, 3.42323213815689086914e-01) (80, 1.59036502242088317871e-01) (81, -4.00189113616943359375e+00) (82, -5.93052387237548828125e-01) (83, -2.36567091941833496094e+00) (84, 1.33667930960655212402e-01) (85, 1.57014504075050354004e-01) (86, -1.51529800891876220703e+00) (87, 2.15305447578430175781e-01) (55, -9.11198496818542480469e-01) (56, -3.65596413612365722656e-01) (57, 9.54070627689361572266e-01) (58, 1.33106625080108642578e+00) (59, -5.58321809768676757812e+00) (60, 3.20140749216079711914e-01) (61, 4.91724872589111328125e+00) (62, 4.78700667619705200195e-01) (63, -4.56168502569198608398e-01) (64, 7.00026988983154296875e+00) (65, 1.88112124800682067871e-01) (66, 2.67084747552871704102e-01) (67, -8.47679436206817626953e-01) (68, 1.42845094203948974609e+00) (69, 1.60829409956932067871e-01) (70, 4.36344146728515625000e+01) (71, 5.52365541458129882812e-01) (72, 5.72509765625000000000e-01) (73, 1.33328819274902343750e+01) (74, 3.30262231826782226562e+00) (75, 3.41087102890014648438e-01) (76, 2.38930568099021911621e-01) (77, 2.60180056095123291016e-01) (78, 4.31733787059783935547e-01) (79, 6.95649027824401855469e-01) (80, 1.13110013306140899658e-01) (81, -3.39662814140319824219e+00) (82, -1.37623190879821777344e+00) (83, -1.80616483092308044434e-01) (84, 2.16485083103179931641e-01) (85, 5.72740495204925537109e-01) (86, -5.26096248626708984375e+00) (87, 7.90082737803459167480e-02) (55, -5.15702104568481445312e+00) (56, 2.05734777450561523438e+00) (57, 2.82459068298339843750e+00) (58, 3.31175875663757324219e+00) (59, 2.23954916000366210938e+00) (60, 4.07604724168777465820e-01) (61, -1.28285856246948242188e+01) (62, 2.18908861279487609863e-01) (63, 1.42484027892351150513e-02) (64, 8.40460777282714843750e+00) (65, 2.37698525190353393555e-01) (66, 3.40950340032577514648e-01) (67, 4.28930401802062988281e-01) (68, -3.33851575851440429688e-01) (69, 4.25807505846023559570e-01) (70, -5.41108398437500000000e+01) (71, 1.96980595588684082031e+00) (72, 1.61072659492492675781e+00) (73, 6.97287216186523437500e+01) (74, -4.73096704483032226562e+00) (75, 3.65505635738372802734e-01) (76, 2.68957167863845825195e-01) (77, 5.06984889507293701172e-01) (78, -8.18702206015586853027e-02) (79, -1.33889484405517578125e+00) (80, 3.66856783628463745117e-01) (81, -2.12460514158010482788e-02) (82, -1.94056773185729980469e+00) (83, 2.21425995230674743652e-01) (84, 3.71428281068801879883e-01) (85, 3.89284789562225341797e-01) (86, -5.02835512161254882812e+00) (87, 3.80088686943054199219e-01) (55, -4.09733295440673828125e+00) (56, 1.31788659095764160156e+00) (57, 1.10453116893768310547e+00) (58, 3.12296509742736816406e+00) (59, 1.44539701938629150391e+00) (60, 3.53641122579574584961e-01) (61, -3.41225624084472656250e+00) (62, 6.52407944202423095703e-01) (63, -7.53527402877807617188e-01) (64, 8.30550289154052734375e+00) (65, 4.07131612300872802734e-01) (66, 3.65250498056411743164e-01) (67, 5.45165896415710449219e-01) (68, -1.73254537582397460938e+00) (69, 3.08624595403671264648e-01) (70, -2.31868972778320312500e+01) (71, 1.99411725997924804688e+00) (72, 2.46767354011535644531e+00) (73, 4.32602806091308593750e+01) (74, -2.90274429321289062500e+00) (75, 3.70169848203659057617e-01) (76, 2.91323214769363403320e-01) (77, 1.25744736194610595703e+00) (78, -3.75490427017211914062e-01) (79, -1.55259323120117187500e+00) (80, 3.70307594537734985352e-01) (81, -3.15967351198196411133e-01) (82, -4.31410217285156250000e+00) (83, 6.99889380484819412231e-03) (84, 3.44350218772888183594e-01) (85, 5.98964631557464599609e-01) (86, -3.80052328109741210938e+00) (87, 3.48406642675399780273e-01) (55, -9.54213321208953857422e-01) (56, 5.17172813415527343750e-01) (57, 5.30213308334350585938e+00) (58, 3.16546392440795898438e+00) (59, -1.08873558044433593750e+00) (60, 2.92146742343902587891e-01) (61, -2.22334265708923339844e+00) (62, 1.22220861911773681641e+00) (63, -1.67687594890594482422e+00) (64, 1.20922536849975585938e+01) (65, 3.29522728919982910156e-01) (66, 3.38885664939880371094e-01) (67, 6.74077093601226806641e-01) (68, -3.50856661796569824219e-01) (69, 2.99079090356826782227e-01) (70, -6.56367950439453125000e+01) (71, 6.85880362987518310547e-01) (72, 6.22675001621246337891e-01) (73, -2.05399990081787109375e+01) (74, 3.79805493354797363281e+00) (75, 5.80342769622802734375e-01) (76, 3.20393055677413940430e-01) (77, 3.21653932332992553711e-01) (78, 5.18352568149566650391e-01) (79, 3.38619709014892578125e-01) (80, 3.28497856855392456055e-01) (81, -2.15672039985656738281e+00) (82, -1.65595281124114990234e+00) (83, 1.28571343421936035156e+00) (84, 3.59307408332824707031e-01) (85, 6.83240294456481933594e-01) (86, -1.19265127182006835938e+01) (87, 2.39525288343429565430e-01) 
