FANN_FLO_2.1
num_layers=3
learning_rate=0.700000
connection_rate=1.000000
network_type=0
learning_momentum=0.000000
training_algorithm=2
train_error_function=1
train_stop_function=0
cascade_output_change_fraction=0.010000
quickprop_decay=-0.000100
quickprop_mu=1.750000
rprop_increase_factor=1.200000
rprop_decrease_factor=0.500000
rprop_delta_min=0.000000
rprop_delta_max=50.000000
rprop_delta_zero=0.100000
cascade_output_stagnation_epochs=12
cascade_candidate_change_fraction=0.010000
cascade_candidate_stagnation_epochs=12
cascade_max_out_epochs=150
cascade_max_cand_epochs=150
cascade_num_candidate_groups=2
bit_fail_limit=3.49999994039535522461e-01
cascade_candidate_limit=1.00000000000000000000e+03
cascade_weight_multiplier=4.00000005960464477539e-01
cascade_activation_functions_count=10
cascade_activation_functions=3 5 7 8 10 11 14 15 16 17 
cascade_activation_steepnesses_count=4
cascade_activation_steepnesses=2.50000000000000000000e-01 5.00000000000000000000e-01 7.50000000000000000000e-01 1.00000000000000000000e+00 
layer_sizes=31 35 55 
scale_included=0
neurons (num_inputs, activation_function, activation_steepness)=(0, 0, 0.00000000000000000000e+00) (0, 0, 0.00000000000000000000e+00) (0, 0, 0.00000000000000000000e+00) (0, 0, 0.00000000000000000000e+00) (0, 0, 0.00000000000000000000e+00) (0, 0, 0.00000000000000000000e+00) (0, 0, 0.00000000000000000000e+00) (0, 0, 0.00000000000000000000e+00) (0, 0, 0.00000000000000000000e+00) (0, 0, 0.00000000000000000000e+00) (0, 0, 0.00000000000000000000e+00) (0, 0, 0.00000000000000000000e+00) (0, 0, 0.00000000000000000000e+00) (0, 0, 0.00000000000000000000e+00) (0, 0, 0.00000000000000000000e+00) (0, 0, 0.00000000000000000000e+00) (0, 0, 0.00000000000000000000e+00) (0, 0, 0.00000000000000000000e+00) (0, 0, 0.00000000000000000000e+00) (0, 0, 0.00000000000000000000e+00) (0, 0, 0.00000000000000000000e+00) (0, 0, 0.00000000000000000000e+00) (0, 0, 0.00000000000000000000e+00) (0, 0, 0.00000000000000000000e+00) (0, 0, 0.00000000000000000000e+00) (0, 0, 0.00000000000000000000e+00) (0, 0, 0.00000000000000000000e+00) (0, 0, 0.00000000000000000000e+00) (0, 0, 0.00000000000000000000e+00) (0, 0, 0.00000000000000000000e+00) (0, 0, 0.00000000000000000000e+00) (31, 4, 5.00000000000000000000e-01) (31, 4, 5.00000000000000000000e-01) (31, 4, 5.00000000000000000000e-01) (31, 4, 5.00000000000000000000e-01) (31, 4, 5.00000000000000000000e-01) (31, 4, 5.00000000000000000000e-01) (31, 4, 5.00000000000000000000e-01) (31, 4, 5.00000000000000000000e-01) (31, 4, 5.00000000000000000000e-01) (31, 4, 5.00000000000000000000e-01) (31, 4, 5.00000000000000000000e-01) (31, 4, 5.00000000000000000000e-01) (31, 4, 5.00000000000000000000e-01) (31, 4, 5.00000000000000000000e-01) (31, 4, 5.00000000000000000000e-01) (31, 4, 5.00000000000000000000e-01) (31, 4, 5.00000000000000000000e-01) (31, 4, 5.00000000000000000000e-01) (31, 4, 5.00000000000000000000e-01) (31, 4, 5.00000000000000000000e-01) (31, 4, 5.00000000000000000000e-01) (31, 4, 5.00000000000000000000e-01) (31, 4, 5.00000000000000000000e-01) (31, 4, 5.00000000000000000000e-01) (31, 4, 5.00000000000000000000e-01) (31, 4, 5.00000000000000000000e-01) (31, 4, 5.00000000000000000000e-01) (31, 4, 5.00000000000000000000e-01) (31, 4, 5.00000000000000000000e-01) (31, 4, 5.00000000000000000000e-01) (31, 4, 5.00000000000000000000e-01) (31, 4, 5.00000000000000000000e-01) (31, 4, 5.00000000000000000000e-01) (31, 4, 5.00000000000000000000e-01) (0, 0, 0.00000000000000000000e+00) (35, 4, 2.39999994635581970215e-01) (35, 4, 2.39999994635581970215e-01) (35, 4, 2.39999994635581970215e-01) (35, 4, 2.39999994635581970215e-01) (35, 4, 2.39999994635581970215e-01) (35, 4, 2.39999994635581970215e-01) (35, 4, 2.39999994635581970215e-01) (35, 4, 2.39999994635581970215e-01) (35, 4, 2.39999994635581970215e-01) (35, 4, 2.39999994635581970215e-01) (35, 4, 2.39999994635581970215e-01) (35, 4, 2.39999994635581970215e-01) (35, 4, 2.39999994635581970215e-01) (35, 4, 2.39999994635581970215e-01) (35, 4, 2.39999994635581970215e-01) (35, 4, 2.39999994635581970215e-01) (35, 4, 2.39999994635581970215e-01) (35, 4, 2.39999994635581970215e-01) (35, 4, 2.39999994635581970215e-01) (35, 4, 2.39999994635581970215e-01) (35, 4, 2.39999994635581970215e-01) (35, 4, 2.39999994635581970215e-01) (35, 4, 2.39999994635581970215e-01) (35, 4, 2.39999994635581970215e-01) (35, 4, 2.39999994635581970215e-01) (35, 4, 2.39999994635581970215e-01) (35, 4, 2.39999994635581970215e-01) (35, 4, 2.39999994635581970215e-01) (35, 4, 2.39999994635581970215e-01) (35, 4, 2.39999994635581970215e-01) (35, 4, 2.39999994635581970215e-01) (35, 4, 2.39999994635581970215e-01) (35, 4, 2.39999994635581970215e-01) (35, 4, 2.39999994635581970215e-01) (35, 4, 2.39999994635581970215e-01) (35, 4, 2.39999994635581970215e-01) (35, 4, 2.39999994635581970215e-01) (35, 4, 2.39999994635581970215e-01) (35, 4, 2.39999994635581970215e-01) (35, 4, 2.39999994635581970215e-01) (35, 4, 2.39999994635581970215e-01) (35, 4, 2.39999994635581970215e-01) (35, 4, 2.39999994635581970215e-01) (35, 4, 2.39999994635581970215e-01) (35, 4, 2.39999994635581970215e-01) (35, 4, 2.39999994635581970215e-01) (35, 4, 2.39999994635581970215e-01) (35, 4, 2.39999994635581970215e-01) (35, 4, 2.39999994635581970215e-01) (35, 4, 2.39999994635581970215e-01) (35, 4, 2.39999994635581970215e-01) (35, 4, 2.39999994635581970215e-01) (35, 4, 2.39999994635581970215e-01) (35, 4, 2.39999994635581970215e-01) (0, 0, 2.39999994635581970215e-01) 
connections (connected_to_neuron, weight)=(0, 1.96459541320800781250e+01) (1, 1.80177783966064453125e+00) (2, -6.05036687850952148438e+00) (3, -3.52218866348266601562e+00) (4, -8.24231433868408203125e+00) (5, 1.09174335002899169922e+00) (6, 3.39012551307678222656e+00) (7, 5.20406770706176757812e+00) (8, -1.61981737613677978516e+00) (9, -6.61826789379119873047e-01) (10, 2.36814928054809570312e+00) (11, 5.46063899993896484375e-01) (12, -4.25656765699386596680e-01) (13, 5.20028293132781982422e-01) (14, -6.38337898254394531250e+00) (15, 9.28685665130615234375e-01) (16, 4.09515202045440673828e-01) (17, -6.52549088001251220703e-01) (18, 3.33772033452987670898e-01) (19, 3.20674955844879150391e-01) (20, 1.51237118244171142578e+00) (21, 1.51594743132591247559e-01) (22, 8.40612202882766723633e-02) (23, 4.13312911987304687500e-02) (24, -1.27905738353729248047e+00) (25, -6.99451491236686706543e-02) (26, 2.62652277946472167969e-01) (27, -4.42633666098117828369e-02) (28, -3.44391018152236938477e-02) (29, -2.42340967059135437012e-01) (30, 5.91696739196777343750e-01) (0, 5.64944877624511718750e+01) (1, -2.44350662231445312500e+01) (2, 2.73461589813232421875e+01) (3, 2.80808734893798828125e+01) (4, 6.99214506149291992188e+00) (5, -4.72112989425659179688e+00) (6, 3.07129144668579101562e+00) (7, 1.13942158222198486328e+00) (8, -8.76096725463867187500e+00) (9, 1.70132923126220703125e+00) (10, 1.00461697578430175781e+00) (11, -2.50032842159271240234e-01) (12, -6.20031714439392089844e-01) (13, 4.98361063003540039062e+00) (14, 1.25505228042602539062e+01) (15, -3.12448406219482421875e+00) (16, 3.46944987773895263672e-01) (17, 6.33490905165672302246e-02) (18, -8.12523460388183593750e+00) (19, 2.33246445655822753906e-01) (20, 8.03831398487091064453e-01) (21, 2.55684792995452880859e-01) (22, 1.66851550340652465820e-01) (23, -1.09146840870380401611e-01) (24, -3.37399780750274658203e-01) (25, -8.28411206603050231934e-02) (26, -2.04832029342651367188e+00) (27, 2.42111049592494964600e-02) (28, 1.17947660386562347412e-01) (29, -3.58045905828475952148e-01) (30, -4.03398275375366210938e-02) (0, 2.46734952926635742188e+00) (1, 1.37254834175109863281e+00) (2, 5.75180411338806152344e-01) (3, -2.16243910789489746094e+00) (4, 1.10026574134826660156e+00) (5, -4.03413295745849609375e-01) (6, -3.68309140205383300781e-01) (7, 2.91818767786026000977e-01) (8, 2.84380769729614257812e+00) (9, -1.56792736053466796875e+00) (10, 8.54434311389923095703e-01) (11, 5.58258056640625000000e-01) (12, -8.42650413513183593750e-01) (13, 8.01495611667633056641e-01) (14, -9.12958830595016479492e-02) (15, -2.46650844812393188477e-01) (16, 5.84209024906158447266e-01) (17, 1.10042892396450042725e-01) (18, -5.01445114612579345703e-01) (19, -1.85319885611534118652e-01) (20, -9.45194438099861145020e-02) (21, -5.50286591053009033203e-01) (22, -2.10323244333267211914e-01) (23, 9.42917466163635253906e-01) (24, -5.41521072387695312500e-01) (25, -2.52232462167739868164e-01) (26, -4.05551195144653320312e-01) (27, -6.20214939117431640625e-01) (28, -4.68833565711975097656e-01) (29, 4.23244461417198181152e-02) (30, 2.27437335997819900513e-02) (0, 9.05383110046386718750e+00) (1, -1.50000000000000000000e+03) (2, 1.77445733547210693359e+00) (3, -9.28918659687042236328e-01) (4, 3.64177942276000976562e-01) (5, -1.35418546199798583984e+00) (6, -4.24669265747070312500e+00) (7, -2.53819197416305541992e-01) (8, 8.76695752143859863281e-01) (9, -1.46851420402526855469e+00) (10, 1.62002667784690856934e-01) (11, 6.77121356129646301270e-02) (12, -5.35962585449218750000e+02) (13, 2.35922518186271190643e-03) (14, -7.60159790515899658203e-02) (15, -1.77521839737892150879e-01) (16, 1.59771487116813659668e-01) (17, 1.79962277412414550781e-01) (18, 1.13902948796749114990e-01) (19, -1.12672835588455200195e-01) (20, -2.79996305704116821289e-01) (21, -8.82167637348175048828e-01) (22, -6.68075382709503173828e-01) (23, -3.37087988853454589844e-01) (24, 1.24567341804504394531e+00) (25, -4.23883318901062011719e-01) (26, 1.96728333830833435059e-01) (27, -1.12184739112854003906e+00) (28, -6.93255186080932617188e-01) (29, -6.49241566658020019531e-01) (30, -8.39204430580139160156e-01) (0, 2.03638572692871093750e+01) (1, -9.54920172691345214844e-01) (2, -1.30942516326904296875e+01) (3, -5.83548069000244140625e-01) (4, -9.26458418369293212891e-01) (5, 3.46675252914428710938e+00) (6, -1.48890590667724609375e+00) (7, -5.18065512180328369141e-01) (8, 1.84143698215484619141e+00) (9, -2.36621260643005371094e+00) (10, -1.21337376534938812256e-01) (11, -6.03894814848899841309e-02) (12, 9.02990251779556274414e-02) (13, 5.98946094512939453125e-01) (14, -2.06519570201635360718e-02) (15, 1.14184945821762084961e-01) (16, 7.59537398815155029297e-01) (17, -6.46935939788818359375e-01) (18, -6.31406486034393310547e-01) (19, 2.55891978740692138672e-02) (20, 3.19525957107543945312e-01) (21, -8.18586468696594238281e-01) (22, -3.36553812026977539062e-01) (23, 7.27843523025512695312e-01) (24, -5.80133259296417236328e-01) (25, -2.52633213996887207031e-01) (26, 5.18930912017822265625e-01) (27, -5.09745895862579345703e-01) (28, -6.51834785938262939453e-01) (29, -4.05298292636871337891e-01) (30, -8.58037531375885009766e-01) (0, -1.65867977142333984375e+01) (1, -8.34318637847900390625e+00) (2, -8.76056518554687500000e+01) (3, 5.10225343704223632812e+00) (4, -4.62183624505996704102e-01) (5, 5.57012605667114257812e+00) (6, 2.02771568298339843750e+01) (7, 7.41671657562255859375e+00) (8, 1.97942733764648437500e+01) (9, 1.91448771953582763672e+00) (10, 1.21667698025703430176e-01) (11, 1.07028989791870117188e+01) (12, -5.13638138771057128906e-01) (13, -3.67003870010375976562e+00) (14, 2.44651630520820617676e-01) (15, -7.08173036575317382812e-01) (16, -1.80692124366760253906e+00) (17, 6.77013874053955078125e+00) (18, 1.19897377490997314453e+00) (19, -1.56808912754058837891e+00) (20, -1.32070392370223999023e-01) (21, 2.20120012760162353516e-01) (22, -4.10592675209045410156e-01) (23, -3.78841233253479003906e+00) (24, -1.24268822371959686279e-01) (25, -4.16012853384017944336e-02) (26, -9.54572781920433044434e-02) (27, -1.50161063671112060547e+00) (28, -1.36900946497917175293e-01) (29, -3.10662627220153808594e-01) (30, 3.23483526706695556641e-01) (0, -4.14615898132324218750e+01) (1, -1.50000000000000000000e+03) (2, -1.49949694824218750000e+03) (3, -2.85259938240051269531e+00) (4, -1.22698676586151123047e+00) (5, -4.03334617614746093750e+00) (6, -3.81570839881896972656e+00) (7, -2.15788602828979492188e+00) (8, 7.93855667114257812500e-01) (9, 7.60871469974517822266e-01) (10, 8.70148658752441406250e-01) (11, -1.59443247318267822266e+00) (12, 2.67745327949523925781e+00) (13, 1.86322331428527832031e+00) (14, 9.68588590621948242188e-01) (15, 3.66125196218490600586e-01) (16, 2.07339572906494140625e+00) (17, 7.05428838729858398438e-01) (18, -8.78341734409332275391e-01) (19, -9.37353253364562988281e-01) (20, -1.41510045528411865234e+00) (21, -7.03235924243927001953e-01) (22, -3.73471647500991821289e-01) (23, 9.34948265552520751953e-01) (24, 2.12537094950675964355e-01) (25, -2.90336757898330688477e-01) (26, -4.61353883147239685059e-02) (27, -8.91901075839996337891e-01) (28, -8.65241408348083496094e-01) (29, -6.61867439746856689453e-01) (30, -1.22014832496643066406e+00) (0, 4.43189239501953125000e+00) (1, 5.47272157669067382812e+00) (2, -8.18374454975128173828e-01) (3, 2.21352434158325195312e+00) (4, 1.73101258277893066406e+00) (5, 2.66700172424316406250e+00) (6, -1.13979077339172363281e+00) (7, 2.24132776260375976562e-01) (8, 1.00346374511718750000e+00) (9, -9.23876911401748657227e-02) (10, 1.07207760214805603027e-01) (11, -2.00167939066886901855e-01) (12, 1.95439815521240234375e+00) (13, 1.83034494519233703613e-01) (14, 3.20843875408172607422e-01) (15, -1.22926503419876098633e-01) (16, 5.82753717899322509766e-01) (17, -3.74213680624961853027e-02) (18, -7.41748154163360595703e-01) (19, 2.10066899657249450684e-01) (20, 4.37197349965572357178e-02) (21, -6.62605702877044677734e-01) (22, -2.63437509536743164062e-01) (23, 8.81173238158226013184e-02) (24, -3.29952299594879150391e-01) (25, -2.10322365164756774902e-01) (26, -4.15037810802459716797e-01) (27, -4.63994592428207397461e-01) (28, -4.76785719394683837891e-01) (29, -6.41293764114379882812e-01) (30, -7.02348470687866210938e-01) (0, -4.92301597595214843750e+01) (1, 6.84725642204284667969e-01) (2, 3.89372100830078125000e+01) (3, -7.72963285446166992188e-01) (4, 9.42252063751220703125e+00) (5, 7.29549121856689453125e+00) (6, 5.57829332351684570312e+00) (7, 1.72122943401336669922e+00) (8, -3.76676678657531738281e+00) (9, -8.50666522979736328125e-01) (10, 5.67065060138702392578e-01) (11, 7.90896415710449218750e-02) (12, 7.27832317352294921875e-01) (13, 1.89581596851348876953e+00) (14, 1.54896867275238037109e+00) (15, 1.28877520561218261719e-01) (16, 6.43181443214416503906e-01) (17, 1.60718643665313720703e+00) (18, 2.31551975011825561523e-01) (19, 5.11653804779052734375e+00) (20, 1.45853668451309204102e-01) (21, -2.08614200353622436523e-01) (22, 1.16973472759127616882e-02) (23, -6.95927798748016357422e-01) (24, -1.53228819370269775391e-01) (25, 1.03621944785118103027e-01) (26, -5.00619459152221679688e+00) (27, -6.19229614734649658203e-01) (28, -2.83105075359344482422e-01) (29, -4.91757154464721679688e-01) (30, -7.77314603328704833984e-01) (0, 1.07725179195404052734e+00) (1, 1.85087397694587707520e-01) (2, 6.93090021610260009766e-01) (3, -1.31994473934173583984e+00) (4, -6.04020237922668457031e-01) (5, -1.51610267162322998047e+00) (6, 8.04190874099731445312e-01) (7, 4.13283109664916992188e+00) (8, -2.72389316558837890625e+00) (9, -5.52749693393707275391e-01) (10, 1.40126883983612060547e+00) (11, -1.88463103771209716797e+00) (12, 3.75354737043380737305e-01) (13, 3.16575467586517333984e-01) (14, -7.75132358074188232422e-01) (15, -3.53344941139221191406e+00) (16, 1.15556158125400543213e-01) (17, -3.92208807170391082764e-03) (18, 2.17199459671974182129e-01) (19, 2.08063602447509765625e-01) (20, -8.40849101543426513672e-01) (21, 1.14512658119201660156e+00) (22, 9.60746705532073974609e-02) (23, -1.41426652669906616211e-01) (24, 4.50320780277252197266e-01) (25, 1.24771237373352050781e-01) (26, -1.82531699538230895996e-01) (27, 1.90470993518829345703e-01) (28, 1.72575846314430236816e-01) (29, 2.61104553937911987305e-01) (30, 5.25352120399475097656e-01) (0, 5.30589408874511718750e+01) (1, -3.48163986206054687500e+01) (2, 2.65108280181884765625e+01) (3, 3.64025802612304687500e+01) (4, 6.40212714672088623047e-01) (5, 7.89721488952636718750e+00) (6, 1.27683568000793457031e+00) (7, -4.53158915042877197266e-01) (8, 2.38698482513427734375e+00) (9, -9.23848032951354980469e-01) (10, -6.87951266765594482422e-01) (11, -3.44302579760551452637e-02) (12, -8.57215118408203125000e+00) (13, -8.70197892189025878906e-01) (14, 4.55774724483489990234e-01) (15, -2.25624442100524902344e+00) (16, 8.83118137717247009277e-02) (17, 6.14580988883972167969e-01) (18, 1.23710608482360839844e+00) (19, -1.77814036607742309570e-01) (20, 5.39020359516143798828e-01) (21, 5.21893203258514404297e-02) (22, -1.19511142373085021973e-01) (23, -2.91319079697132110596e-02) (24, 4.25415560603141784668e-02) (25, -1.57670408487319946289e-01) (26, -5.16864247620105743408e-02) (27, -6.38484597206115722656e-01) (28, -6.68166995048522949219e-01) (29, -6.66623353958129882812e-01) (30, 1.30651906132698059082e-01) (0, 1.50000000000000000000e+03) (1, 1.50000000000000000000e+03) (2, 1.50000000000000000000e+03) (3, -1.46397256851196289062e+01) (4, 4.71743535995483398438e+00) (5, -1.97461044788360595703e+00) (6, -2.71000909805297851562e+00) (7, 1.79314398765563964844e+00) (8, 2.93083238601684570312e+00) (9, -7.56500124931335449219e-01) (10, 2.19896650314331054688e+00) (11, -8.73106575012207031250e+00) (12, 2.13209366798400878906e+00) (13, 8.51357269287109375000e+00) (14, 4.35820007324218750000e+00) (15, -8.16747903823852539062e-01) (16, 2.26587727665901184082e-01) (17, -9.26009491086006164551e-02) (18, -3.57620626688003540039e-01) (19, -1.53494626283645629883e-01) (20, -8.89425563812255859375e+00) (21, 2.12854933738708496094e+00) (22, 5.86789071559906005859e-01) (23, 3.27633738517761230469e-01) (24, 2.20854029059410095215e-01) (25, 1.65550485253334045410e-01) (26, 2.06330776214599609375e+00) (27, -9.98476326465606689453e-01) (28, -6.93478941917419433594e-01) (29, -5.06815135478973388672e-01) (30, 1.24778947792947292328e-03) (0, 1.53986282348632812500e+01) (1, 3.29137897491455078125e+00) (2, -1.07792072296142578125e+01) (3, 8.55370235443115234375e+00) (4, 1.34576514363288879395e-01) (5, -2.34082660675048828125e+01) (6, 4.28769636154174804688e+00) (7, 2.96153736114501953125e+01) (8, 1.48560985922813415527e-01) (9, 7.14285254478454589844e-01) (10, 1.15452885627746582031e+00) (11, 1.40242552757263183594e+00) (12, -1.82244586944580078125e+00) (13, 7.72732734680175781250e-01) (14, -3.42160880565643310547e-01) (15, -3.45109939575195312500e+00) (16, 8.55928063392639160156e-01) (17, -5.09288795292377471924e-02) (18, -3.87350344657897949219e+00) (19, -1.43342226743698120117e-01) (20, 4.52744752168655395508e-01) (21, 1.17846958339214324951e-01) (22, 1.68640553951263427734e-01) (23, -4.16927218437194824219e-01) (24, -2.13426873087882995605e-01) (25, 8.53924080729484558105e-02) (26, 3.41240614652633666992e-01) (27, -4.60840016603469848633e-01) (28, -2.31730751693248748779e-02) (29, 1.03945994377136230469e+00) (30, -1.23161887750029563904e-02) (0, 3.23501205444335937500e+01) (1, 3.56529808044433593750e+01) (2, 1.66853694915771484375e+01) (3, -6.62740516662597656250e+00) (4, -3.60388135910034179688e+00) (5, -1.25419015884399414062e+01) (6, 8.49630594253540039062e-01) (7, -3.86197137832641601562e+00) (8, -6.96997976303100585938e+00) (9, -5.93846511840820312500e+00) (10, 7.34295368194580078125e-01) (11, -3.84912800788879394531e+00) (12, -1.65196716785430908203e+00) (13, -3.59775602817535400391e-01) (14, 1.73489260673522949219e+00) (15, 2.12589216232299804688e+00) (16, -4.81408357620239257812e+00) (17, -7.68850207328796386719e-01) (18, 3.78711283206939697266e-01) (19, 2.75975942611694335938e-01) (20, 3.02106118202209472656e+00) (21, 3.16071778535842895508e-01) (22, 3.04412215948104858398e-01) (23, 1.14263737201690673828e+00) (24, 1.42362937331199645996e-01) (25, 4.58034537732601165771e-02) (26, 8.61596822738647460938e-01) (27, -1.96233972907066345215e-01) (28, -4.01640594005584716797e-01) (29, 1.44000023603439331055e-01) (30, -4.19843085110187530518e-02) (0, 9.99933528900146484375e+00) (1, 1.16260442733764648438e+01) (2, -5.40366506576538085938e+00) (3, -9.15837287902832031250e+00) (4, -3.43267297744750976562e+00) (5, -4.33585548400878906250e+00) (6, 3.00470709800720214844e+00) (7, 2.59569078683853149414e-01) (8, -1.13285446166992187500e+00) (9, -1.04107081890106201172e+00) (10, -3.26119154691696166992e-01) (11, 5.02151155471801757812e+00) (12, -9.41478967666625976562e-01) (13, -2.02151989936828613281e+00) (14, 2.05930233001708984375e+00) (15, 1.58952027559280395508e-01) (16, -5.08344078063964843750e+00) (17, -3.78958046436309814453e-01) (18, 1.14729508757591247559e-01) (19, -1.69002020359039306641e+00) (20, -2.18170672655105590820e-01) (21, -3.71299266815185546875e-01) (22, 1.97253167629241943359e-01) (23, 4.20886725187301635742e-01) (24, -2.24518820643424987793e-01) (25, 6.95918947458267211914e-02) (26, 1.91579982638359069824e-01) (27, 9.60500016808509826660e-02) (28, 2.04447448253631591797e-01) (29, 2.50989824533462524414e-01) (30, 1.36634445190429687500e+00) (0, 9.16606750488281250000e+01) (1, 9.45016326904296875000e+01) (2, -5.19076049804687500000e+02) (3, -1.24060401916503906250e+01) (4, -2.88654460906982421875e+01) (5, -5.83596153259277343750e+01) (6, -2.62820649147033691406e+00) (7, 2.14001551270484924316e-01) (8, 1.55701553821563720703e+00) (9, 1.67289006710052490234e+00) (10, -7.23752453923225402832e-02) (11, 3.89482879638671875000e+00) (12, 3.57487536966800689697e-02) (13, 1.06845307350158691406e+00) (14, -1.76756274700164794922e+00) (15, 1.27321422100067138672e+00) (16, 1.14533913135528564453e+00) (17, 7.85851597785949707031e-01) (18, 3.41673445701599121094e+00) (19, -1.77204400300979614258e-01) (20, 3.75336813926696777344e+00) (21, -4.85228478908538818359e-01) (22, 7.50871449708938598633e-02) (23, 1.12148475646972656250e+00) (24, 2.42621660232543945312e+00) (25, -2.28044301271438598633e-01) (26, 6.39991164207458496094e-01) (27, -7.78570353984832763672e-01) (28, -5.42016506195068359375e-01) (29, -6.88353121280670166016e-01) (30, -7.92855381965637207031e-01) (0, -7.52229166030883789062e+00) (1, 2.56736660003662109375e+01) (2, -4.41002120971679687500e+01) (3, 1.06715269386768341064e-01) (4, -1.29000997543334960938e+00) (5, 9.14365386962890625000e+00) (6, -8.06471109390258789062e-01) (7, -4.67623710632324218750e+00) (8, 2.46835184097290039062e+00) (9, -2.74147033691406250000e+00) (10, -8.87809157371520996094e-01) (11, 3.08263468742370605469e+00) (12, -5.34172534942626953125e-01) (13, 6.29531145095825195312e-01) (14, 2.06390666961669921875e+00) (15, 3.81836891174316406250e-02) (16, 8.97045493125915527344e-01) (17, 9.17963624000549316406e-01) (18, -7.22929120063781738281e-01) (19, -3.78012120723724365234e-01) (20, 1.17865383625030517578e+00) (21, -5.91652154922485351562e-01) (22, -3.43480229377746582031e-01) (23, 1.83570265769958496094e+00) (24, -2.74116456508636474609e-01) (25, -7.20278248190879821777e-02) (26, -3.63773167133331298828e-01) (27, -8.08970987796783447266e-01) (28, -5.59810638427734375000e-01) (29, -6.30703151226043701172e-01) (30, -8.35963368415832519531e-01) (0, 7.01886444091796875000e+01) (1, -8.42576599121093750000e+01) (2, 4.02620086669921875000e+01) (3, 1.16124782562255859375e+01) (4, 4.03489732742309570312e+00) (5, -5.75165462493896484375e+00) (6, 3.57655858993530273438e+00) (7, 2.65681338310241699219e+00) (8, -5.36735355854034423828e-01) (9, -1.11484825611114501953e-01) (10, 1.04442209005355834961e-01) (11, 2.63945841789245605469e+00) (12, -2.28175258636474609375e+00) (13, -4.61870580911636352539e-02) (14, 2.10599243640899658203e-01) (15, -1.21025905609130859375e+01) (16, 3.58267985284328460693e-02) (17, 4.63450908660888671875e+00) (18, -3.48677945137023925781e+00) (19, -2.11437661200761795044e-02) (20, 4.78601992130279541016e-01) (21, 3.45896869897842407227e-01) (22, -1.61125704646110534668e-01) (23, 1.83449879288673400879e-01) (24, 1.93259382247924804688e+00) (25, 4.66299206018447875977e-02) (26, 1.61677575111389160156e+00) (27, 1.23353266716003417969e+00) (28, 4.37699645757675170898e-01) (29, 1.82049900293350219727e-01) (30, 5.05437493324279785156e-01) (0, 1.32290832698345184326e-02) (1, 1.08591055870056152344e+00) (2, 1.06114888191223144531e+00) (3, -1.14202535152435302734e+00) (4, -9.48594987392425537109e-01) (5, -5.52553319931030273438e+00) (6, 8.07025527954101562500e+00) (7, 3.85707926750183105469e+00) (8, 9.63305979967117309570e-02) (9, 5.12131094932556152344e-01) (10, -1.39684407040476799011e-02) (11, 1.07678152620792388916e-01) (12, -3.80135178565979003906e-01) (13, 2.95605570077896118164e-01) (14, 9.79112565517425537109e-01) (15, 3.17162275314331054688e-01) (16, 3.09878010302782058716e-02) (17, 1.06342077255249023438e-01) (18, 5.56919276714324951172e-01) (19, 1.71536296606063842773e-01) (20, -3.66543531417846679688e+00) (21, -1.47879111766815185547e+00) (22, -8.31832140684127807617e-02) (23, 3.64333391189575195312e-01) (24, -1.06316363811492919922e+00) (25, -1.13800220191478729248e-01) (26, 3.66047769784927368164e-01) (27, -3.05203702300786972046e-02) (28, -1.09647780656814575195e-01) (29, -1.61922171711921691895e-01) (30, -1.16105331107974052429e-02) (0, 9.29603195190429687500e+00) (1, -5.10402393341064453125e+00) (2, -2.13260054588317871094e+00) (3, -1.07352471351623535156e+00) (4, -3.12841129302978515625e+00) (5, -3.13150548934936523438e+00) (6, -1.62491095066070556641e+00) (7, -4.30562973022460937500e-01) (8, -6.10199689865112304688e-01) (9, 2.41859033703804016113e-01) (10, 7.90911078453063964844e-01) (11, -8.63650739192962646484e-01) (12, 9.07676398754119873047e-01) (13, 7.94757425785064697266e-01) (14, 6.35606944561004638672e-01) (15, -4.62871074676513671875e-01) (16, -2.19444260001182556152e-01) (17, 2.54624575376510620117e-01) (18, 3.64951267838478088379e-02) (19, 2.14384600520133972168e-01) (20, 6.40926778316497802734e-01) (21, -6.36440396308898925781e-01) (22, -5.28786182403564453125e-01) (23, 4.81849312782287597656e-01) (24, -6.57408952713012695312e-01) (25, -6.40808165073394775391e-01) (26, 1.46367537975311279297e+00) (27, -5.61795532703399658203e-01) (28, -5.64284384250640869141e-01) (29, -6.66838228702545166016e-01) (30, -6.38076782226562500000e-01) (0, 1.14212394714355468750e+02) (1, 6.74119934082031250000e+02) (2, 5.06019477844238281250e+01) (3, -7.33052566647529602051e-02) (4, 3.43406510353088378906e+00) (5, 4.31067943572998046875e+00) (6, 1.13454141616821289062e+01) (7, 9.09210300445556640625e+00) (8, 2.30419635772705078125e+00) (9, 5.26003932952880859375e+00) (10, -7.23862028121948242188e+00) (11, 2.19064787030220031738e-01) (12, 1.73032552003860473633e-01) (13, 3.62239301204681396484e-01) (14, 6.73906278610229492188e+00) (15, -1.10889994539320468903e-03) (16, 2.99151182174682617188e-01) (17, 3.47343921661376953125e+00) (18, 8.12124609947204589844e-01) (19, 1.94726824760437011719e-01) (20, 8.11120688915252685547e-01) (21, 3.29614669084548950195e-01) (22, 2.01803058385848999023e-01) (23, 5.59516191482543945312e-01) (24, 1.28184616565704345703e-01) (25, 1.19033334776759147644e-02) (26, 3.86283367872238159180e-01) (27, -2.72562551498413085938e+00) (28, -4.93507289886474609375e+00) (29, -5.02435111999511718750e+00) (30, 1.20057538151741027832e-01) (0, 1.55996656417846679688e+00) (1, 6.95340096950531005859e-01) (2, -4.61629629135131835938e-01) (3, -1.33401799201965332031e+00) (4, 8.89415666460990905762e-02) (5, -1.65859782695770263672e+00) (6, -3.12762093544006347656e+00) (7, -1.23298503458499908447e-02) (8, -2.40997880697250366211e-01) (9, -3.24486605823040008545e-02) (10, -4.15833815932273864746e-02) (11, -1.74299478530883789062e-01) (12, -1.30205214023590087891e+00) (13, -3.17845612764358520508e-01) (14, -3.33978950977325439453e-01) (15, -1.30877763032913208008e-01) (16, -1.27367936074733734131e-02) (17, 3.67747962474822998047e-01) (18, 5.68692028522491455078e-01) (19, -3.60326021909713745117e-01) (20, 1.10534751415252685547e+00) (21, -6.35980784893035888672e-01) (22, -5.80636620521545410156e-01) (23, 6.49232119321823120117e-02) (24, 2.46150779724121093750e+00) (25, -4.71348941326141357422e-01) (26, -1.48290947079658508301e-01) (27, -8.53121161460876464844e-01) (28, -8.43846976757049560547e-01) (29, -4.57357376813888549805e-01) (30, -9.57634508609771728516e-01) (0, 8.04548358917236328125e+00) (1, 3.72660541534423828125e+00) (2, -1.60868968963623046875e+01) (3, -1.28416175842285156250e+01) (4, -3.34798073768615722656e+00) (5, 8.09223937988281250000e+00) (6, -1.02420830726623535156e+00) (7, 9.82254123687744140625e+00) (8, -1.08737790584564208984e+00) (9, -9.32797849178314208984e-01) (10, 6.14196157455444335938e+00) (11, 4.83067941665649414062e+00) (12, 2.20643496513366699219e+00) (13, 4.71585321426391601562e+00) (14, -4.80679310858249664307e-02) (15, -6.94770336151123046875e-01) (16, 1.55624556541442871094e+00) (17, 2.74111175537109375000e+00) (18, 1.15767732262611389160e-01) (19, 2.09947153925895690918e-01) (20, 6.38361811637878417969e-01) (21, -1.56244471669197082520e-01) (22, 1.32073670625686645508e-01) (23, 1.03305868804454803467e-01) (24, -6.24368619918823242188e+00) (25, -2.40251332521438598633e-01) (26, -1.25430375337600708008e-01) (27, 3.60701739788055419922e-01) (28, 1.89566031098365783691e-01) (29, -1.09145426750183105469e+00) (30, -1.72373116016387939453e-01) (0, 7.42037832736968994141e-01) (1, 2.08913609385490417480e-01) (2, 7.39350914955139160156e-01) (3, -1.77713143825531005859e+00) (4, -1.36835837364196777344e+00) (5, -4.14578825235366821289e-01) (6, -2.50857663154602050781e+00) (7, -7.44467437267303466797e-01) (8, -3.04101884365081787109e-01) (9, 1.03268909454345703125e+01) (10, 2.96336770057678222656e-01) (11, 1.77952408790588378906e-01) (12, 2.52605468034744262695e-01) (13, 3.57308119535446166992e-01) (14, -4.76302713155746459961e-01) (15, -4.20922565460205078125e+00) (16, 9.41709503531455993652e-02) (17, 1.96448341012001037598e-02) (18, -2.85244911909103393555e-01) (19, 1.12126737833023071289e-01) (20, 4.08787429332733154297e-01) (21, -6.75080046057701110840e-02) (22, 2.39198908209800720215e-01) (23, 3.37723851203918457031e-01) (24, -2.13383221626281738281e+00) (25, 1.77500635385513305664e-01) (26, 4.92603003978729248047e-01) (27, 2.80164331197738647461e-01) (28, 1.72519072890281677246e-01) (29, -7.15277269482612609863e-02) (30, 2.31567725539207458496e-01) (0, -1.33723640441894531250e+01) (1, -2.55304946899414062500e+01) (2, 4.95223197937011718750e+01) (3, -1.09603250026702880859e+00) (4, -1.48701553344726562500e+01) (5, -5.57359695434570312500e-01) (6, 5.53467810153961181641e-01) (7, -2.91536182165145874023e-01) (8, 2.34243780374526977539e-01) (9, 1.35102519989013671875e+01) (10, 5.38333368301391601562e+00) (11, 2.40138173103332519531e-01) (12, -4.25027646124362945557e-02) (13, 5.41406393051147460938e-01) (14, 4.33791542053222656250e+00) (15, -1.60717010498046875000e-01) (16, -1.64692234247922897339e-02) (17, 2.96595954895019531250e+00) (18, -1.86313375830650329590e-01) (19, -1.28697901964187622070e-01) (20, -8.07639312744140625000e+00) (21, -8.37009549140930175781e-01) (22, 5.83765879273414611816e-02) (23, -2.17775832861661911011e-02) (24, -3.88558894395828247070e-01) (25, -1.17080606520175933838e-01) (26, -3.78761962056159973145e-02) (27, -2.28126123547554016113e-01) (28, -2.39941507577896118164e-01) (29, -1.29343986511230468750e-01) (30, -2.08837538957595825195e-01) (0, 4.79436254501342773438e+00) (1, -4.88946914672851562500e-01) (2, -1.37362849712371826172e+00) (3, -2.00297668576240539551e-01) (4, 7.15778768062591552734e-01) (5, -2.75730073451995849609e-01) (6, -7.64738035202026367188e+00) (7, -6.50782465934753417969e-01) (8, 1.17045569419860839844e+00) (9, -1.21516919136047363281e+00) (10, 1.66915595531463623047e+00) (11, -7.28946551680564880371e-03) (12, -2.16137576103210449219e+00) (13, 1.07926380634307861328e+00) (14, -2.64443457126617431641e-01) (15, 2.39046478271484375000e+00) (16, 1.03630745410919189453e+00) (17, -1.79038500785827636719e+00) (18, -8.28318953514099121094e-01) (19, 5.26017844676971435547e-01) (20, 6.27843663096427917480e-02) (21, -7.59339272975921630859e-01) (22, -2.89216041564941406250e-01) (23, 8.91996085643768310547e-01) (24, -9.25509035587310791016e-01) (25, -3.30003231763839721680e-01) (26, 2.62065500020980834961e-01) (27, -8.05885851383209228516e-01) (28, -6.77936971187591552734e-01) (29, -5.02783179283142089844e-01) (30, -5.00166475772857666016e-01) (0, 3.76310806274414062500e+01) (1, -1.67368340492248535156e+00) (2, -8.77297058105468750000e+01) (3, 6.01674175262451171875e+00) (4, -1.11396541595458984375e+01) (5, -1.78450927734375000000e+01) (6, -1.46007084846496582031e+00) (7, -3.52972269058227539062e-01) (8, -1.21584701538085937500e+00) (9, 2.50823163986206054688e+00) (10, 8.17650854587554931641e-01) (11, -3.92949990928173065186e-02) (12, -6.24741494655609130859e-01) (13, 2.67610371112823486328e-01) (14, -6.48790359497070312500e+00) (15, 4.82728153467178344727e-01) (16, 2.88782906532287597656e+00) (17, -2.54665493965148925781e-01) (18, 2.11363649368286132812e+00) (19, -7.82724380493164062500e+00) (20, -9.48915481567382812500e-02) (21, 1.63733661174774169922e-02) (22, -1.16675424575805664062e+00) (23, 2.49673485755920410156e-01) (24, 2.73282480239868164062e+00) (25, 1.62755101919174194336e-01) (26, 1.95242077112197875977e-01) (27, 1.60355314612388610840e-01) (28, -1.18743225932121276855e-01) (29, -5.61421960592269897461e-02) (30, -6.10337674617767333984e-01) (0, -1.49593469238281250000e+03) (1, 7.20081787109375000000e+01) (2, 4.85780487060546875000e+02) (3, -2.37537980079650878906e+00) (4, -2.87084484100341796875e+00) (5, -8.40818023681640625000e+00) (6, -4.99151659011840820312e+00) (7, -7.85137474536895751953e-01) (8, 6.34632825851440429688e+00) (9, 3.31517547369003295898e-01) (10, 8.51842939853668212891e-01) (11, 1.93234074115753173828e+00) (12, -1.06002366542816162109e+00) (13, 1.02487552165985107422e+00) (14, 5.85644543170928955078e-01) (15, 3.09403210878372192383e-01) (16, 7.71127879619598388672e-01) (17, -8.59227299690246582031e-01) (18, -5.58223985135555267334e-02) (19, 7.99263641238212585449e-03) (20, -1.03652067482471466064e-02) (21, -1.04082727432250976562e+00) (22, 1.28672376275062561035e-01) (23, 1.07354652881622314453e+00) (24, 2.10001254081726074219e+00) (25, -3.33103947341442108154e-02) (26, 1.07034474611282348633e-01) (27, -1.17439532279968261719e+00) (28, -1.28276634216308593750e+00) (29, -7.12296605110168457031e-01) (30, -1.18226754665374755859e+00) (0, -9.70610141754150390625e+00) (1, -9.51570129394531250000e+00) (2, 5.03597450256347656250e+00) (3, -8.80116343498229980469e-01) (4, 1.35195180773735046387e-01) (5, -9.68174934387207031250e-01) (6, -9.24695253372192382812e-01) (7, 6.13156589679419994354e-05) (8, 7.95877397060394287109e-01) (9, -1.45235502719879150391e+00) (10, -2.14204978942871093750e+00) (11, 1.02291129529476165771e-01) (12, -5.32520532608032226562e-01) (13, -1.28798472881317138672e+00) (14, 9.12094533443450927734e-01) (15, -9.21788156032562255859e-01) (16, -1.34493291378021240234e+00) (17, 8.43903049826622009277e-02) (18, -1.08515751361846923828e+00) (19, -5.99842488765716552734e-01) (20, 1.88072785735130310059e-01) (21, 2.18612123280763626099e-02) (22, -4.85747724771499633789e-01) (23, 6.91600978374481201172e-01) (24, -2.60931968688964843750e-01) (25, 1.53696939349174499512e-01) (26, 1.46587359905242919922e+00) (27, 9.90853831171989440918e-02) (28, 4.29120242595672607422e-01) (29, 1.75397419929504394531e+00) (30, 4.17062610387802124023e-01) (0, -3.81810808181762695312e+00) (1, 4.31656684875488281250e+01) (2, -5.68304395675659179688e+00) (3, -3.08507347106933593750e+00) (4, 2.13637971878051757812e+00) (5, -6.27681672573089599609e-01) (6, 7.78125858306884765625e+00) (7, 2.77265930175781250000e+00) (8, -8.68960678577423095703e-01) (9, -4.79134607315063476562e+00) (10, -7.53111934661865234375e+00) (11, -8.13194274902343750000e+00) (12, -6.03343307971954345703e-01) (13, 1.64151154458522796631e-02) (14, 4.39617967605590820312e+00) (15, -1.68317168951034545898e-01) (16, -7.09801837801933288574e-02) (17, 4.71385765075683593750e+00) (18, 1.14792072772979736328e+00) (19, 6.61051511764526367188e-01) (20, -1.73294603824615478516e-01) (21, 6.93284928798675537109e-01) (22, 4.12629723548889160156e-01) (23, 1.41235142946243286133e-01) (24, -2.85941567271947860718e-02) (25, 1.94476917386054992676e-01) (26, 2.26949691772460937500e-01) (27, -8.33200290799140930176e-02) (28, -1.35808527469635009766e-01) (29, -1.94715487957000732422e+00) (30, 3.09168361127376556396e-02) (0, 8.54467228055000305176e-02) (1, -5.79888105392456054688e-01) (2, -3.11856079101562500000e+00) (3, -1.03770434856414794922e+00) (4, -1.16172945499420166016e+00) (5, -5.15422165393829345703e-01) (6, -4.14990663528442382812e+00) (7, -3.78025203943252563477e-01) (8, 7.93181896209716796875e+00) (9, -7.12952077388763427734e-01) (10, 1.45525670051574707031e+00) (11, 2.81244683265686035156e+00) (12, -9.45935726165771484375e-01) (13, 1.05878591537475585938e+00) (14, -5.57385206222534179688e-01) (15, -1.53350815176963806152e-01) (16, 1.23370170593261718750e+00) (17, 8.01196455955505371094e-01) (18, -6.43284142017364501953e-01) (19, -1.16051232814788818359e+00) (20, 1.09669518470764160156e+00) (21, -6.64156138896942138672e-01) (22, -2.97270655632019042969e-01) (23, 3.04028081893920898438e+00) (24, -3.59531015157699584961e-01) (25, -2.43002120405435562134e-02) (26, 1.70452606678009033203e+00) (27, -5.32972157001495361328e-01) (28, -5.59628903865814208984e-01) (29, -4.90601211786270141602e-01) (30, -8.20736110210418701172e-01) (0, -5.33729972839355468750e+01) (1, -1.07713332399725914001e-02) (2, -9.00083923339843750000e+01) (3, 2.60839283466339111328e-01) (4, 1.68468996882438659668e-01) (5, -2.32964038848876953125e+00) (6, 9.98947918415069580078e-01) (7, 5.79305267333984375000e+00) (8, -2.82206363677978515625e+01) (9, -4.97649955749511718750e+00) (10, 1.36717331409454345703e+00) (11, -1.30523073673248291016e+00) (12, 4.29788053035736083984e-01) (13, 2.62166857719421386719e+00) (14, -1.01058073341846466064e-01) (15, 2.01277542114257812500e+00) (16, 1.03317904472351074219e+00) (17, -6.04484081268310546875e-01) (18, 4.38008248805999755859e-01) (19, 8.67525672912597656250e+00) (20, 1.12083616256713867188e+01) (21, 3.37825864553451538086e-01) (22, 5.70638418197631835938e-01) (23, 2.70278644561767578125e+00) (24, -4.44154031574726104736e-02) (25, 1.77626907825469970703e-01) (26, 1.52787661552429199219e+00) (27, 2.72669434547424316406e-01) (28, 2.43691310286521911621e-01) (29, 2.42012180387973785400e-02) (30, -6.99084848165512084961e-02) (0, 9.13073360919952392578e-01) (1, 8.66012287139892578125e+00) (2, -1.12488842010498046875e+01) (3, -1.44002056121826171875e+00) (4, -2.80862629413604736328e-01) (5, 2.88115143775939941406e-01) (6, -5.32947587966918945312e+00) (7, 3.19289684295654296875e-01) (8, 1.71552085876464843750e+00) (9, 1.53785860538482666016e+00) (10, -1.52123406529426574707e-01) (11, 5.96915364265441894531e-01) (12, -2.12056946754455566406e+00) (13, -7.36354291439056396484e-02) (14, -6.25073388218879699707e-02) (15, -2.64523386955261230469e-01) (16, -6.23993352055549621582e-02) (17, -9.24816429615020751953e-02) (18, -1.86515748500823974609e-02) (19, 1.50840014219284057617e-01) (20, -4.91873413324356079102e-01) (21, -8.82396459579467773438e-01) (22, 2.83832311630249023438e-01) (23, -2.85106778144836425781e-01) (24, 1.29827940464019775391e+00) (25, 5.61512827873229980469e-01) (26, 9.21033024787902832031e-01) (27, -9.25378441810607910156e-01) (28, -7.54711329936981201172e-01) (29, -8.98037254810333251953e-01) (30, -7.01947450637817382812e-01) (0, 9.50315666198730468750e+00) (1, -5.54896771907806396484e-01) (2, -1.23827028274536132812e+00) (3, 2.31084108352661132812e-01) (4, -6.19513154029846191406e-01) (5, -2.88092350959777832031e+00) (6, -5.25204753875732421875e+00) (7, -3.39298039674758911133e-01) (8, 1.28856435418128967285e-01) (9, 4.14806278422474861145e-03) (10, -2.76391297578811645508e-01) (11, -6.66230097413063049316e-02) (12, 6.39763250946998596191e-02) (13, -1.13447895273566246033e-02) (14, -2.12911292910575866699e-01) (15, -1.85323566198348999023e-01) (16, -1.51988267898559570312e-01) (17, -1.84281975030899047852e-01) (18, 7.55307227373123168945e-02) (19, -5.42772352695465087891e-01) (20, -1.54860764741897583008e-01) (21, -8.15890133380889892578e-01) (22, -8.24809432029724121094e-01) (23, -1.95606797933578491211e-01) (24, 2.19618773460388183594e+00) (25, -4.11674231290817260742e-01) (26, 6.14590495824813842773e-02) (27, -7.89879679679870605469e-01) (28, -7.34244227409362792969e-01) (29, -7.71350860595703125000e-01) (30, -5.91141164302825927734e-01) (31, -7.41466879844665527344e-01) (32, -3.47483396530151367188e+00) (33, -4.85147628784179687500e+01) (34, 1.50000000000000000000e+03) (35, 8.59072017669677734375e+00) (36, 1.70319747924804687500e+00) (37, -9.62915344238281250000e+01) (38, 1.67243278026580810547e+00) (39, 6.91899871826171875000e+00) (40, -2.10724902153015136719e+00) (41, -6.77901077270507812500e+00) (42, -3.94872665405273437500e+00) (43, 4.61111259460449218750e+00) (44, 1.10599746704101562500e+01) (45, 2.86295890808105468750e-01) (46, 7.67826080322265625000e+01) (47, 1.16177301406860351562e+01) (48, 6.89327418804168701172e-01) (49, 5.57473659515380859375e+00) (50, -4.18048858642578125000e+01) (51, -2.07549457550048828125e+01) (52, -2.71301483154296875000e+02) (53, 4.76493835449218750000e+00) (54, 1.53552274703979492188e+01) (55, 4.01505804061889648438e+00) (56, 8.47324447631835937500e+01) (57, -1.63606674194335937500e+02) (58, -8.02588043212890625000e+01) (59, 7.62495577335357666016e-01) (60, -7.93383693695068359375e+00) (61, 7.05588483810424804688e+00) (62, 9.36931705474853515625e+00) (63, -3.75800666809082031250e+01) (64, 5.53092712402343750000e+02) (65, -4.96210493147373199463e-02) (31, -1.85730350017547607422e+00) (32, 3.22731947898864746094e+00) (33, -1.83385639190673828125e+01) (34, 1.50000000000000000000e+03) (35, 1.85658206939697265625e+01) (36, 4.82384157180786132812e+00) (37, -1.66223754882812500000e+02) (38, -3.41436171531677246094e+00) (39, 3.74530124664306640625e+00) (40, -1.41440534591674804688e+00) (41, -6.68298053741455078125e+00) (42, 3.52733820676803588867e-01) (43, 3.27436423301696777344e+00) (44, 1.52942152023315429688e+01) (45, -5.87946128845214843750e+00) (46, 9.46368026733398437500e+01) (47, 1.96347084045410156250e+01) (48, -7.42703151702880859375e+00) (49, 5.28844690322875976562e+00) (50, -4.26985588073730468750e+01) (51, -2.50180301666259765625e+01) (52, -1.00917800903320312500e+02) (53, 3.45697236061096191406e+00) (54, 2.09756336212158203125e+01) (55, 1.17122662067413330078e+00) (56, -5.77841949462890625000e+01) (57, -1.66835357666015625000e+02) (58, -5.92905044555664062500e+01) (59, 6.10188770294189453125e+00) (60, -1.11884860992431640625e+01) (61, 3.15920495986938476562e+00) (62, 5.24040126800537109375e+00) (63, -8.19758682250976562500e+01) (64, 5.21130981445312500000e+02) (65, -3.21923524141311645508e-01) (31, -5.92690519988536834717e-02) (32, 1.68732678890228271484e+00) (33, -2.34299659729003906250e+01) (34, 1.50000000000000000000e+03) (35, 9.41825103759765625000e+00) (36, 3.26925086975097656250e+00) (37, -9.26454925537109375000e+01) (38, -1.70921497344970703125e+01) (39, 7.97187280654907226562e+00) (40, -6.83834850788116455078e-01) (41, -1.19594030380249023438e+01) (42, -1.90493226051330566406e+00) (43, 3.31317782402038574219e+00) (44, 1.79891910552978515625e+01) (45, -6.59175491333007812500e+00) (46, 7.03676528930664062500e+01) (47, 1.18322610855102539062e+01) (48, -1.18957057595252990723e-01) (49, -1.74940621852874755859e+00) (50, -5.70774002075195312500e+01) (51, -2.34464092254638671875e+01) (52, -2.66213195800781250000e+02) (53, -3.46294164657592773438e-01) (54, 1.74933547973632812500e+01) (55, 2.29020619392395019531e+00) (56, -5.99922599792480468750e+01) (57, -1.29536026000976562500e+02) (58, -5.40118103027343750000e+01) (59, 3.53807520866394042969e+00) (60, -1.61727762222290039062e+00) (61, 6.48635578155517578125e+00) (62, 5.10935401916503906250e+00) (63, 5.49197044372558593750e+01) (64, 5.13370117187500000000e+02) (65, 8.58476459980010986328e-01) (31, 1.07784450054168701172e-01) (32, -1.19244527816772460938e+00) (33, 3.45732192993164062500e+01) (34, 1.50000000000000000000e+03) (35, -6.69397592544555664062e+00) (36, 1.01612005233764648438e+01) (37, -4.74525794982910156250e+01) (38, -1.81020565032958984375e+01) (39, 4.20202910900115966797e-02) (40, -2.75556501001119613647e-02) (41, 3.47767424583435058594e+00) (42, 7.16612517833709716797e-01) (43, 4.92673635482788085938e-01) (44, -2.11407160758972167969e+00) (45, 2.18685340881347656250e+01) (46, -1.29818658828735351562e+01) (47, 6.84542751312255859375e+00) (48, -1.03691463470458984375e+01) (49, 1.92584574222564697266e+00) (50, 3.93796691894531250000e+01) (51, 2.76684379577636718750e+00) (52, 2.68107509613037109375e+01) (53, -2.54471158981323242188e+00) (54, -4.05102443695068359375e+00) (55, -2.48314976692199707031e+00) (56, 5.65489692687988281250e+01) (57, 2.13574485778808593750e+01) (58, 3.80537261962890625000e+01) (59, -8.56950664520263671875e+00) (60, 1.02327413558959960938e+01) (61, -5.78401327133178710938e+00) (62, -5.36128568649291992188e+00) (63, -3.35572662353515625000e+01) (64, -1.12818832397460937500e+02) (65, 1.04384504258632659912e-01) (31, 8.01389038562774658203e-01) (32, -4.55871820449829101562e-01) (33, 3.23573341369628906250e+01) (34, 1.50000000000000000000e+03) (35, -9.50164222717285156250e+00) (36, 8.40058040618896484375e+00) (37, -2.20387020111083984375e+01) (38, -1.49735546112060546875e+01) (39, -1.17977392673492431641e+00) (40, 7.62631237506866455078e-01) (41, 2.59216451644897460938e+00) (42, 5.24014472961425781250e-01) (43, 1.19499468803405761719e+00) (44, -3.21433162689208984375e+00) (45, 2.32093296051025390625e+01) (46, -2.17356357574462890625e+01) (47, 8.48774623870849609375e+00) (48, -9.92043972015380859375e+00) (49, 1.53688991069793701172e+00) (50, 3.65676727294921875000e+01) (51, 2.15809869766235351562e+00) (52, 3.61903266906738281250e+01) (53, -3.49935197830200195312e+00) (54, -1.82446968555450439453e+00) (55, -1.68945670127868652344e+00) (56, 6.04055099487304687500e+01) (57, 3.06227207183837890625e+01) (58, 2.89869613647460937500e+01) (59, -8.39105033874511718750e+00) (60, 8.76646518707275390625e+00) (61, -4.90542268753051757812e+00) (62, -5.02822589874267578125e+00) (63, -3.03328781127929687500e+01) (64, -1.03497703552246093750e+02) (65, -7.53784179687500000000e-01) (31, 7.29290306568145751953e-01) (32, 8.27703475952148437500e-01) (33, 2.80411472320556640625e+01) (34, 1.50000000000000000000e+03) (35, -1.66590938568115234375e+01) (36, 7.75099849700927734375e+00) (37, -1.08764371871948242188e+01) (38, -9.36819458007812500000e+00) (39, -3.77064251899719238281e+00) (40, 9.15348455309867858887e-02) (41, 1.44289040565490722656e+00) (42, 1.23062515258789062500e+00) (43, 1.11219573020935058594e+00) (44, -2.42798233032226562500e+00) (45, 2.48686656951904296875e+01) (46, -4.09732246398925781250e+01) (47, 7.54618310928344726562e+00) (48, -1.01574115753173828125e+01) (49, 2.53712368011474609375e+00) (50, 1.76702671051025390625e+01) (51, 1.63629138469696044922e+00) (52, 3.40054054260253906250e+01) (53, -5.23493814468383789062e+00) (54, 6.53211712837219238281e-01) (55, -1.09344041347503662109e+00) (56, 7.22609024047851562500e+01) (57, 5.08613624572753906250e+01) (58, 3.75726203918457031250e+01) (59, -4.96459150314331054688e+00) (60, 5.79164838790893554688e+00) (61, -1.61458253860473632812e+00) (62, -4.94749069213867187500e+00) (63, -3.49297103881835937500e+01) (64, -8.61053695678710937500e+01) (65, -6.24103844165802001953e-01) (31, -6.37123286724090576172e-01) (32, -5.86365222930908203125e+00) (33, -1.09365549087524414062e+01) (34, 1.50000000000000000000e+03) (35, -1.48156940937042236328e-01) (36, 1.16766190528869628906e+00) (37, 3.25846023559570312500e+01) (38, 5.92175006866455078125e+00) (39, 1.09795963764190673828e+00) (40, 4.73707646131515502930e-01) (41, -3.20271587371826171875e+00) (42, -1.95148599147796630859e+00) (43, 2.74327725172042846680e-01) (44, 4.46058893203735351562e+00) (45, 6.12908959388732910156e-01) (46, 6.14634513854980468750e+00) (47, -7.90139961242675781250e+00) (48, 6.53286576271057128906e-01) (49, -1.43267142772674560547e+00) (50, 5.48905181884765625000e+00) (51, 4.11520242691040039062e+00) (52, 7.04131393432617187500e+01) (53, -3.13580393791198730469e-01) (54, 9.28899288177490234375e-01) (55, -6.61223232746124267578e-01) (56, 3.40366744995117187500e+01) (57, -4.89215545654296875000e+01) (58, 2.93387508392333984375e+00) (59, -4.29372692108154296875e+00) (60, -6.94476509094238281250e+00) (61, -6.70886218547821044922e-01) (62, 2.80735158920288085938e+00) (63, -4.43765220642089843750e+01) (64, 6.24236831665039062500e+01) (65, 1.98839366436004638672e-01) (31, 1.64244270324707031250e+00) (32, -4.53530454635620117188e+00) (33, -6.45925998687744140625e+00) (34, 1.50000000000000000000e+03) (35, -3.40384244918823242188e+00) (36, 1.23898112773895263672e+00) (37, 6.15311965942382812500e+01) (38, 5.68368291854858398438e+00) (39, 1.73731720447540283203e+00) (40, -4.19481325149536132812e+00) (41, -1.71776664257049560547e+00) (42, 6.64703011512756347656e-01) (43, -1.14422702789306640625e+00) (44, 2.17566466331481933594e+00) (45, -2.03805899620056152344e+00) (46, 5.13432979583740234375e+00) (47, -9.13124656677246093750e+00) (48, -2.02852535247802734375e+00) (49, 1.26769495010375976562e+00) (50, 2.39320898056030273438e+00) (51, 9.63539361953735351562e-01) (52, 1.23846748352050781250e+02) (53, -6.48099422454833984375e-01) (54, 6.82242679595947265625e+00) (55, -3.20543146133422851562e+00) (56, 2.47779483795166015625e+01) (57, -6.52229461669921875000e+01) (58, -3.22653484344482421875e+00) (59, 1.11859463155269622803e-01) (60, -8.19382381439208984375e+00) (61, 1.66294008493423461914e-01) (62, -1.01389735937118530273e-01) (63, -5.70983390808105468750e+01) (64, 8.51830520629882812500e+01) (65, 7.80578196048736572266e-01) (31, 6.24380886554718017578e-01) (32, -2.64463520050048828125e+00) (33, -9.13907718658447265625e+00) (34, 1.50000000000000000000e+03) (35, -1.07301750183105468750e+01) (36, 1.45795202255249023438e+00) (37, 4.98345718383789062500e+01) (38, 9.17146778106689453125e+00) (39, 1.84828281402587890625e-01) (40, -4.16548395156860351562e+00) (41, -8.31401646137237548828e-01) (42, -6.84582769870758056641e-01) (43, 9.76654589176177978516e-02) (44, 1.46865236759185791016e+00) (45, 2.13735103607177734375e+00) (46, -1.00871009826660156250e+01) (47, -1.41209077835083007812e+01) (48, -2.06692266464233398438e+00) (49, 2.14156365394592285156e+00) (50, 5.20226812362670898438e+00) (51, -1.24125275760889053345e-03) (52, 7.14760437011718750000e+01) (53, -1.52283763885498046875e+00) (54, 4.17629432678222656250e+00) (55, -1.81465780735015869141e+00) (56, 4.68682823181152343750e+01) (57, -4.00065956115722656250e+01) (58, 8.00192070007324218750e+00) (59, 2.14879608154296875000e+00) (60, -6.77291297912597656250e+00) (61, 7.88250982761383056641e-01) (62, 8.12259137630462646484e-01) (63, -4.20087394714355468750e+01) (64, 8.31344070434570312500e+01) (65, 4.03086453676223754883e-01) (31, 2.21583628654479980469e+00) (32, 2.31806635856628417969e+00) (33, -2.70853853225708007812e+00) (34, 1.50000000000000000000e+03) (35, 1.94823026657104492188e+00) (36, -6.97256624698638916016e-01) (37, -1.40808525085449218750e+01) (38, -2.90497074127197265625e+01) (39, -1.95437026023864746094e+00) (40, -1.04086065292358398438e+00) (41, 2.46078705787658691406e+00) (42, -1.43911039829254150391e+00) (43, 6.34037399291992187500e+00) (44, -3.31504535675048828125e+00) (45, 2.22924515604972839355e-01) (46, 3.28055000305175781250e+01) (47, -8.95963478088378906250e+00) (48, 2.01410198211669921875e+00) (49, -1.11052048206329345703e+00) (50, -6.34504394531250000000e+01) (51, 2.43128895759582519531e+00) (52, -3.30758056640625000000e+01) (53, 6.00032997131347656250e+00) (54, 3.94415354728698730469e+00) (55, 2.75483042001724243164e-01) (56, 2.12664394378662109375e+01) (57, -1.22006149291992187500e+01) (58, -1.39271306991577148438e+01) (59, -2.85886073112487792969e+00) (60, 6.01998090744018554688e-01) (61, 7.00273990631103515625e+00) (62, -3.73509287834167480469e+00) (63, 3.39171028137207031250e+01) (64, 3.44815368652343750000e+01) (65, 1.17529705166816711426e-01) (31, 3.75090384483337402344e+00) (32, 1.60509371757507324219e+00) (33, -6.15539312362670898438e-01) (34, 1.50000000000000000000e+03) (35, 3.39776158332824707031e+00) (36, -6.03965461254119873047e-01) (37, 2.54899196624755859375e+01) (38, -1.86370849609375000000e+01) (39, -2.98825597763061523438e+00) (40, -2.70290285348892211914e-01) (41, 1.76692152023315429688e+00) (42, 6.19845092296600341797e-01) (43, 6.84684514999389648438e+00) (44, -3.89761543273925781250e+00) (45, -2.08149790763854980469e+00) (46, 4.12168550491333007812e+00) (47, -7.00265359878540039062e+00) (48, 1.49125611782073974609e+00) (49, -4.52554225921630859375e+00) (50, -5.53111305236816406250e+01) (51, 1.42955076694488525391e+00) (52, -1.53358602523803710938e+01) (53, 2.29883885383605957031e+00) (54, 3.96199131011962890625e+00) (55, 8.61579403281211853027e-02) (56, -2.76627135276794433594e+00) (57, 1.16751737594604492188e+01) (58, -1.26049509048461914062e+01) (59, -5.41162371635437011719e-01) (60, -3.66435766220092773438e-01) (61, 9.24448776245117187500e+00) (62, -3.81620693206787109375e+00) (63, 2.09795475006103515625e+01) (64, 3.09235343933105468750e+01) (65, -1.36443102359771728516e+00) (31, 2.44347405433654785156e+00) (32, 3.67577528953552246094e+00) (33, -4.59689378738403320312e+00) (34, 1.50000000000000000000e+03) (35, -2.93518829345703125000e+00) (36, -2.77381896972656250000e-01) (37, 6.77360992431640625000e+01) (38, -1.21936893463134765625e+01) (39, -5.23904228210449218750e+00) (40, -1.19486428797245025635e-01) (41, 1.26603436470031738281e+00) (42, 1.80841612815856933594e+00) (43, 6.24868059158325195312e+00) (44, -4.59905385971069335938e-01) (45, 2.18719649314880371094e+00) (46, -2.86819744110107421875e+01) (47, -8.16242313385009765625e+00) (48, -3.01300716400146484375e+00) (49, -7.71212100982666015625e+00) (50, -5.37448768615722656250e+01) (51, -9.63656783103942871094e-01) (52, -1.88683376312255859375e+01) (53, -1.52403131127357482910e-01) (54, 9.54285621643066406250e+00) (55, 1.06218421459197998047e+00) (56, -5.97063922882080078125e+00) (57, 4.05905303955078125000e+01) (58, -1.14641075134277343750e+01) (59, -3.16217136383056640625e+00) (60, -5.23042154312133789062e+00) (61, 1.50920228958129882812e+01) (62, -2.18269443511962890625e+00) (63, 3.22547836303710937500e+01) (64, 5.72657661437988281250e+01) (65, -1.30290889739990234375e+00) (31, -2.32834720611572265625e+00) (32, 1.12671625614166259766e+00) (33, 1.40062599182128906250e+01) (34, 1.50000000000000000000e+03) (35, 2.37777175903320312500e+01) (36, 7.30638563632965087891e-01) (37, -7.12016983032226562500e+01) (38, -4.76529884338378906250e+00) (39, 2.81294727325439453125e+00) (40, -1.45921432971954345703e+00) (41, -4.22451496124267578125e+00) (42, 3.18033173680305480957e-02) (43, 6.69763422012329101562e+00) (44, 3.97648668289184570312e+00) (45, -5.32531642913818359375e+00) (46, 6.37551879882812500000e+00) (47, 2.79903149604797363281e+00) (48, -1.35790026187896728516e+00) (49, -4.51724672317504882812e+00) (50, -2.45309677124023437500e+01) (51, 8.86943936347961425781e-01) (52, -4.12788534164428710938e+00) (53, -7.00517177581787109375e+00) (54, -5.42138767242431640625e+00) (55, 4.56461906433105468750e+00) (56, -4.01568794250488281250e+01) (57, 7.49054098129272460938e+00) (58, 1.62344493865966796875e+01) (59, 5.16454744338989257812e+00) (60, 2.02602791786193847656e+00) (61, -2.81622123718261718750e+00) (62, 2.09085559844970703125e+00) (63, 4.60727071762084960938e+00) (64, -7.43896942138671875000e+01) (65, 2.43490561842918395996e-02) (31, -5.48996639251708984375e+00) (32, 2.98686951398849487305e-01) (33, 9.25509166717529296875e+00) (34, 1.50000000000000000000e+03) (35, 1.33757333755493164062e+01) (36, 9.69882532954216003418e-02) (37, 1.76490058898925781250e+01) (38, -5.51223993301391601562e+00) (39, 6.73094809055328369141e-01) (40, 1.23671710491180419922e+00) (41, -4.83525943756103515625e+00) (42, 2.81718349456787109375e+00) (43, 6.58898973464965820312e+00) (44, 5.19388866424560546875e+00) (45, -3.80435204505920410156e+00) (46, 6.43016862869262695312e+00) (47, 8.96046352386474609375e+00) (48, -9.16342079639434814453e-01) (49, -3.93973445892333984375e+00) (50, -2.44165191650390625000e+01) (51, -2.34106972813606262207e-01) (52, -2.24341011047363281250e+01) (53, -4.37729406356811523438e+00) (54, -3.71800732612609863281e+00) (55, 5.05383253097534179688e+00) (56, -1.13315458297729492188e+01) (57, 8.70952367782592773438e-01) (58, -8.32524585723876953125e+00) (59, 5.01719808578491210938e+00) (60, 6.64002954959869384766e-01) (61, -2.92458844184875488281e+00) (62, 8.31948399543762207031e-01) (63, 2.32622852325439453125e+01) (64, -3.75369453430175781250e+01) (65, -4.73865717649459838867e-01) (31, -2.75857782363891601562e+00) (32, 5.75673639774322509766e-01) (33, -2.15847492218017578125e+01) (34, 1.50000000000000000000e+03) (35, -2.42863106727600097656e+00) (36, -4.60414028167724609375e+00) (37, 7.27091741561889648438e+00) (38, -4.01211166381835937500e+00) (39, 1.47225248813629150391e+00) (40, -1.02155971527099609375e+01) (41, -3.34154415130615234375e+00) (42, 1.33155453205108642578e+00) (43, 2.35887336730957031250e+00) (44, 6.66503763198852539062e+00) (45, 5.03200769424438476562e+00) (46, -2.19613151550292968750e+01) (47, -9.95386779308319091797e-01) (48, -4.16291892528533935547e-01) (49, 1.77292597293853759766e+00) (50, -4.07978401184082031250e+01) (51, -7.30839633941650390625e+00) (52, -6.87461242675781250000e+01) (53, 5.43141782283782958984e-01) (54, 8.71160328388214111328e-01) (55, 8.73648357391357421875e+00) (56, -2.28898191452026367188e+00) (57, 7.76912117004394531250e+00) (58, 1.12136573791503906250e+01) (59, -3.73609566688537597656e+00) (60, 2.61744999885559082031e+00) (61, 2.37259674072265625000e+00) (62, 8.28011226654052734375e+00) (63, 7.41034851074218750000e+01) (64, 8.64962539672851562500e+01) (65, -7.39698931574821472168e-02) (31, 5.64942300319671630859e-01) (32, -1.18764936923980712891e+00) (33, 1.94705715179443359375e+01) (34, 1.50000000000000000000e+03) (35, 7.86986017227172851562e+00) (36, 5.92226564884185791016e-01) (37, 4.67825088500976562500e+01) (38, -1.23344669342041015625e+01) (39, 2.11874932050704956055e-01) (40, 3.56191015243530273438e+00) (41, -5.41115045547485351562e+00) (42, 1.19712805747985839844e+00) (43, 3.59973168373107910156e+00) (44, -1.68313719332218170166e-02) (45, -7.44107055664062500000e+00) (46, 1.03453226089477539062e+01) (47, 1.91797180175781250000e+01) (48, 2.56758356094360351562e+00) (49, 5.70520050823688507080e-02) (50, 3.85182499885559082031e+00) (51, 4.22724783420562744141e-01) (52, -1.96655774116516113281e+00) (53, 1.06758630275726318359e+00) (54, -2.83871984481811523438e+00) (55, 1.49117720127105712891e+00) (56, 3.43569374084472656250e+01) (57, -5.16408729553222656250e+00) (58, -5.82585716247558593750e+01) (59, 7.34711217880249023438e+00) (60, -4.41368865966796875000e+00) (61, -3.11333990097045898438e+00) (62, -5.04957866668701171875e+00) (63, -6.87587118148803710938e+00) (64, 1.59350214004516601562e+01) (65, -4.26495552062988281250e-01) (31, -6.81500196456909179688e-01) (32, -1.08296883106231689453e+00) (33, 3.29686254262924194336e-01) (34, 1.50000000000000000000e+03) (35, 1.12912788391113281250e+01) (36, -2.89320445060729980469e+00) (37, 1.20296010971069335938e+01) (38, -7.02951240539550781250e+00) (39, 4.20522361993789672852e-01) (40, 5.42773628234863281250e+00) (41, -2.60734272003173828125e+00) (42, -3.15255403518676757812e-01) (43, 3.79102349281311035156e+00) (44, 1.40921664237976074219e+00) (45, -3.51772570610046386719e+00) (46, -7.14223098754882812500e+00) (47, 4.78058528900146484375e+00) (48, 5.12975037097930908203e-01) (49, 7.65543639659881591797e-01) (50, -6.14479684829711914062e+00) (51, -1.45251357555389404297e+00) (52, -3.31892700195312500000e+01) (53, -3.45171689987182617188e+00) (54, -1.70981228351593017578e+00) (55, 4.85675811767578125000e+00) (56, 2.31456508636474609375e+01) (57, 9.02580070495605468750e+00) (58, -1.33396530151367187500e+01) (59, 5.58500957489013671875e+00) (60, -3.86794781684875488281e+00) (61, 3.03900790214538574219e+00) (62, -6.03262662887573242188e-01) (63, 6.49859809875488281250e+00) (64, 1.88967361450195312500e+01) (65, -1.64088875055313110352e-01) (31, -1.21097528934478759766e+00) (32, -1.14567562937736511230e-01) (33, -9.29575920104980468750e+00) (34, 1.50000000000000000000e+03) (35, 3.88367295265197753906e+00) (36, -6.12263441085815429688e+00) (37, -2.66233558654785156250e+01) (38, -1.01014471054077148438e+01) (39, -1.04205167293548583984e+00) (40, -1.99477863311767578125e+00) (41, -7.97022879123687744141e-01) (42, 8.89970688149333000183e-04) (43, -2.42788687348365783691e-01) (44, 4.56140899658203125000e+00) (45, -4.14825469255447387695e-01) (46, -2.60453491210937500000e+01) (47, -4.68903094530105590820e-01) (48, 1.84031856060028076172e+00) (49, 4.60918045043945312500e+00) (50, -2.32538986206054687500e+01) (51, -7.09281921386718750000e+00) (52, -5.80408592224121093750e+01) (53, 3.77800732851028442383e-01) (54, 4.73991066217422485352e-01) (55, 9.24840068817138671875e+00) (56, 7.32589054107666015625e+00) (57, 6.92359781265258789062e+00) (58, 1.69661998748779296875e+01) (59, -5.04408073425292968750e+00) (60, -3.22986960411071777344e+00) (61, 4.90927076339721679688e+00) (62, 7.23669528961181640625e+00) (63, 3.02683258056640625000e+01) (64, 1.15238243103027343750e+02) (65, -1.54516324400901794434e-01) (31, 1.00341036915779113770e-01) (32, 2.03136277198791503906e+00) (33, -1.39134883880615234375e+00) (34, 1.50000000000000000000e+03) (35, 1.88741117715835571289e-01) (36, 1.67082667350769042969e-01) (37, -6.25578842163085937500e+01) (38, -1.02952346801757812500e+01) (39, 2.88089215755462646484e-01) (40, -1.51303207874298095703e+00) (41, 8.85664582252502441406e-01) (42, -2.32745194435119628906e+00) (43, -5.44473491609096527100e-02) (44, 3.11754322052001953125e+00) (45, 2.83373498916625976562e+00) (46, -2.40794467926025390625e+00) (47, 6.34275007247924804688e+00) (48, -2.55075407028198242188e+00) (49, 1.17151021957397460938e+01) (50, 4.50967369079589843750e+01) (51, -4.75468301773071289062e+00) (52, 1.39396944046020507812e+01) (53, 9.90812420845031738281e-01) (54, -8.93576383590698242188e-01) (55, 1.08675503730773925781e+00) (56, 4.32847137451171875000e+01) (57, -1.71468486785888671875e+01) (58, -1.91562652587890625000e+01) (59, -5.89355182647705078125e+00) (60, -2.43505334854125976562e+00) (61, 1.01793372631072998047e+00) (62, 1.74972712993621826172e+00) (63, -2.41680736541748046875e+01) (64, 1.42801456451416015625e+01) (65, -1.01664520800113677979e-01) (31, 2.58723568916320800781e+00) (32, -8.10425698757171630859e-01) (33, 5.23138977587223052979e-02) (34, 1.50000000000000000000e+03) (35, 3.41344571113586425781e+00) (36, -2.46662402153015136719e+00) (37, -1.76444778442382812500e+01) (38, -8.27781200408935546875e+00) (39, 3.12623858451843261719e-01) (40, 1.82465350627899169922e+00) (41, -8.28617870807647705078e-01) (42, 2.74839371442794799805e-01) (43, 3.87416887283325195312e+00) (44, -2.17875075340270996094e+00) (45, -7.14604616165161132812e-01) (46, 5.43801116943359375000e+00) (47, 8.16732501983642578125e+00) (48, 1.18905675411224365234e+00) (49, 4.38956022262573242188e+00) (50, -1.43370428085327148438e+01) (51, -1.27645766735076904297e+00) (52, -1.76043529510498046875e+01) (53, -2.52221298217773437500e+00) (54, -5.76232242584228515625e+00) (55, 2.55341744422912597656e+00) (56, 3.09664688110351562500e+01) (57, -4.50953388214111328125e+00) (58, -2.47783622741699218750e+01) (59, 2.72684764862060546875e+00) (60, -2.08298325538635253906e+00) (61, 5.20482683181762695312e+00) (62, -1.06746709346771240234e+00) (63, -1.43369932174682617188e+01) (64, 1.36976995468139648438e+01) (65, -1.87194928526878356934e-01) (31, 2.05229544639587402344e+00) (32, -7.18492984771728515625e-01) (33, -3.79088258743286132812e+00) (34, 1.50000000000000000000e+03) (35, -6.28038311004638671875e+00) (36, -7.51742959022521972656e-01) (37, 1.53133716583251953125e+01) (38, -3.67030411958694458008e-01) (39, -9.41638112068176269531e-01) (40, -2.11897659301757812500e+00) (41, -3.66900277137756347656e+00) (42, -2.07497462630271911621e-01) (43, 4.02639484405517578125e+00) (44, -1.39797580242156982422e+00) (45, 1.27991902828216552734e+00) (46, -2.19010295867919921875e+01) (47, 6.30740022659301757812e+00) (48, 8.40073108673095703125e-01) (49, 8.16040229797363281250e+00) (50, -3.24517288208007812500e+01) (51, -1.18138504028320312500e+00) (52, -2.90833892822265625000e+01) (53, -4.36978673934936523438e+00) (54, -4.96544551849365234375e+00) (55, 2.89030981063842773438e+00) (56, 5.54194068908691406250e+01) (57, 2.30205459594726562500e+01) (58, -2.78031234741210937500e+01) (59, 1.08365669250488281250e+01) (60, -2.23733854293823242188e+00) (61, 8.23912620544433593750e+00) (62, -2.94010519981384277344e+00) (63, -5.08978605270385742188e+00) (64, 3.09056663513183593750e+01) (65, -1.49276882410049438477e-01) (31, -8.67879331111907958984e-01) (32, -8.95128607749938964844e-01) (33, 3.35200619697570800781e+00) (34, 1.50000000000000000000e+03) (35, 1.90318050384521484375e+01) (36, 1.84571194648742675781e+00) (37, -9.81554794311523437500e+01) (38, -4.00726604461669921875e+00) (39, 1.68268346786499023438e+00) (40, -1.23784029483795166016e+00) (41, 2.50265431404113769531e+00) (42, 2.26240706443786621094e+00) (43, 2.61065602302551269531e+00) (44, 1.38270556926727294922e+00) (45, -6.07123088836669921875e+00) (46, 2.53086013793945312500e+01) (47, -1.10037636756896972656e+00) (48, -3.91131490468978881836e-01) (49, -2.29252171516418457031e+00) (50, -8.65539550781250000000e+01) (51, -2.25606441497802734375e+00) (52, 1.78672599792480468750e+01) (53, -4.88733625411987304688e+00) (54, -1.57095968723297119141e+00) (55, 1.44046092033386230469e+00) (56, -3.88054962158203125000e+01) (57, -1.02571525573730468750e+01) (58, 2.68014354705810546875e+01) (59, 4.69839525222778320312e+00) (60, 2.56036067008972167969e+00) (61, 6.10239124298095703125e+00) (62, 1.46240842342376708984e+00) (63, 1.32024583816528320312e+01) (64, -8.32732696533203125000e+01) (65, -6.50817677378654479980e-02) (31, -8.93723487854003906250e-01) (32, 1.26948013901710510254e-01) (33, 4.41510534286499023438e+00) (34, 1.50000000000000000000e+03) (35, -4.79857873916625976562e+00) (36, -4.06397283077239990234e-01) (37, -2.63799648284912109375e+01) (38, 8.88441848754882812500e+00) (39, -2.21854186058044433594e+00) (40, -3.98581296205520629883e-01) (41, 7.30591118335723876953e-01) (42, 2.96010756492614746094e+00) (43, 2.34917020797729492188e+00) (44, -9.13269698619842529297e-01) (45, -6.58232450485229492188e+00) (46, 3.34788169860839843750e+01) (47, 1.22070608139038085938e+01) (48, -4.91540145874023437500e+00) (49, 1.07017135620117187500e+00) (50, 1.12763338088989257812e+01) (51, -4.79258251190185546875e+00) (52, 9.53732528686523437500e+01) (53, -5.74361848831176757812e+00) (54, 5.40754318237304687500e+00) (55, 9.12681818008422851562e-01) (56, -1.98868274688720703125e+01) (57, -5.39636192321777343750e+01) (58, -1.66957054138183593750e+01) (59, -7.00994777679443359375e+00) (60, -2.81457901000976562500e+00) (61, 5.03557777404785156250e+00) (62, 5.50855994224548339844e-01) (63, -1.56317157745361328125e+01) (64, 1.36665716171264648438e+01) (65, -1.22069522738456726074e-01) (31, -5.07532072067260742188e+00) (32, -7.08840429782867431641e-01) (33, -6.04853105545043945312e+00) (34, 1.50000000000000000000e+03) (35, -1.09604415893554687500e+01) (36, -1.53779649734497070312e+00) (37, 4.46264419555664062500e+01) (38, 1.24175920486450195312e+01) (39, -2.25854396820068359375e+00) (40, -2.50929832458496093750e+00) (41, -6.20367002487182617188e+00) (42, 7.49884414672851562500e+00) (43, 5.40931940078735351562e+00) (44, -2.53188037872314453125e+00) (45, -4.00571012496948242188e+00) (46, 3.46301155090332031250e+01) (47, 1.84140510559082031250e+01) (48, 1.61331236362457275391e-01) (49, 5.34290730953216552734e-01) (50, -1.40914916992187500000e+01) (51, -1.29867267608642578125e+00) (52, 3.06257400512695312500e+01) (53, -5.24500131607055664062e+00) (54, -8.84292900562286376953e-01) (55, 2.43788003921508789062e+00) (56, 7.34124326705932617188e+00) (57, -5.04895095825195312500e+01) (58, -4.38259048461914062500e+01) (59, -1.05869579315185546875e+00) (60, -4.58385944366455078125e+00) (61, 7.98904657363891601562e+00) (62, -1.48670434951782226562e+00) (63, -1.39262666702270507812e+01) (64, 1.18681587219238281250e+02) (65, -4.98229444026947021484e-01) (31, 2.54095506668090820312e+00) (32, 2.50396299362182617188e+00) (33, -6.84087896347045898438e+00) (34, 1.50000000000000000000e+03) (35, 1.14538469314575195312e+01) (36, -2.29408979415893554688e+00) (37, -1.46664094924926757812e+01) (38, -1.23086271286010742188e+01) (39, 2.41473302245140075684e-01) (40, -1.76204144954681396484e+00) (41, 1.67514729499816894531e+00) (42, -5.45721530914306640625e-01) (43, -1.69902074337005615234e+00) (44, 3.26994657516479492188e+00) (45, -1.43408882617950439453e+00) (46, 8.34293079376220703125e+00) (47, -1.36813998222351074219e+00) (48, -6.26545667648315429688e+00) (49, 3.54289323091506958008e-01) (50, 2.07736444473266601562e+00) (51, -2.83070111274719238281e+00) (52, 5.41271095275878906250e+01) (53, 3.19933700561523437500e+00) (54, -3.40527296066284179688e-01) (55, 3.08998847007751464844e+00) (56, 4.88677692413330078125e+00) (57, -2.67212028503417968750e+01) (58, 2.15666389465332031250e+00) (59, -7.31095361709594726562e+00) (60, -1.37384593486785888672e-01) (61, 2.38407731056213378906e+00) (62, 5.13705635070800781250e+00) (63, -2.56430053710937500000e+01) (64, 5.11841888427734375000e+01) (65, 2.70225554704666137695e-01) (31, 8.16830396652221679688e-01) (32, -7.59807407855987548828e-01) (33, -5.86065673828125000000e+00) (34, 1.50000000000000000000e+03) (35, 1.36538209915161132812e+01) (36, 7.33928203582763671875e-01) (37, -2.85922374725341796875e+01) (38, -1.00145921707153320312e+01) (39, 2.65465664863586425781e+00) (40, -1.40240347385406494141e+00) (41, 1.29357635974884033203e+00) (42, 5.67891418933868408203e-01) (43, 2.58168548345565795898e-01) (44, 3.06186985969543457031e+00) (45, 1.41874206066131591797e+00) (46, -9.03670024871826171875e+00) (47, 9.71984148025512695312e-01) (48, -3.72447419166564941406e+00) (49, -6.61066323518753051758e-02) (50, -2.71317043304443359375e+01) (51, -2.06428647041320800781e+00) (52, -7.84786319732666015625e+00) (53, 6.01474866271018981934e-02) (54, -8.70536267757415771484e-01) (55, 1.48603498935699462891e+00) (56, -5.88366031646728515625e+00) (57, 1.14027214050292968750e+01) (58, 2.46733798980712890625e+01) (59, -1.23588836193084716797e+00) (60, 3.24089717864990234375e+00) (61, 3.74152231216430664062e+00) (62, 1.34984922409057617188e+00) (63, -2.49631166458129882812e+00) (64, -1.50316703319549560547e+00) (65, -1.88638307154178619385e-02) (31, 2.17278671264648437500e+00) (32, -1.68760214000940322876e-02) (33, -1.44706363677978515625e+01) (34, 1.50000000000000000000e+03) (35, 9.24608325958251953125e+00) (36, -9.82237517833709716797e-01) (37, 1.45244379043579101562e+01) (38, -1.14455966949462890625e+01) (39, 4.57377052307128906250e+00) (40, -5.12608814239501953125e+00) (41, 6.43458485603332519531e-01) (42, 1.47634053230285644531e+00) (43, 9.90215897560119628906e-01) (44, 2.84670948982238769531e+00) (45, 4.60474491119384765625e+00) (46, -2.69314899444580078125e+01) (47, 3.34293675422668457031e+00) (48, -1.48265349864959716797e+00) (49, 3.15949654579162597656e+00) (50, -3.68042030334472656250e+01) (51, -4.58885049819946289062e+00) (52, -5.15371322631835937500e+01) (53, -1.19549608230590820312e+00) (54, -1.26803696155548095703e+00) (55, 1.26137316226959228516e+00) (56, 2.05729866027832031250e+01) (57, 3.00683002471923828125e+01) (58, 6.48259639739990234375e+00) (59, -1.42801129817962646484e+00) (60, 1.05675089359283447266e+00) (61, 8.38327217102050781250e+00) (62, 1.51094663143157958984e+00) (63, -6.21871137619018554688e+00) (64, 6.09608993530273437500e+01) (65, 2.42165222764015197754e-01) (31, 1.63719737529754638672e+00) (32, 1.96566677093505859375e+00) (33, 9.20649623870849609375e+00) (34, 1.50000000000000000000e+03) (35, 5.97506046295166015625e-01) (36, 3.30273270606994628906e+00) (37, 3.80154342651367187500e+01) (38, -1.95723781585693359375e+01) (39, 6.54645979404449462891e-01) (40, 3.47440767288208007812e+00) (41, 2.01168918609619140625e+00) (42, -1.11479640007019042969e+00) (43, 8.76723051071166992188e-01) (44, 4.05869960784912109375e+00) (45, 4.10931289196014404297e-01) (46, -2.33444042205810546875e+01) (47, -6.75930309295654296875e+00) (48, -3.91737055778503417969e+00) (49, 1.48125052452087402344e+00) (50, 1.39617481231689453125e+01) (51, 5.23750960826873779297e-01) (52, -6.82810821533203125000e+01) (53, -6.30458652973175048828e-01) (54, -5.55297231674194335938e+00) (55, 1.39360868930816650391e+00) (56, 2.88227901458740234375e+01) (57, 2.15287857055664062500e+01) (58, -1.01864919662475585938e+01) (59, 2.77200841903686523438e+00) (60, 3.00358951091766357422e-01) (61, 3.60539984703063964844e+00) (62, -1.03273260593414306641e+00) (63, -8.23476505279541015625e+00) (64, 1.98616447448730468750e+01) (65, 1.11143074929714202881e-01) (31, 2.84381008148193359375e+00) (32, 1.49758958816528320312e+00) (33, 9.37597656250000000000e+00) (34, 1.50000000000000000000e+03) (35, -6.66211843490600585938e+00) (36, 4.05377089977264404297e-01) (37, 6.72666625976562500000e+01) (38, -1.91245212554931640625e+01) (39, 1.08710788190364837646e-01) (40, 2.84237837791442871094e+00) (41, 7.10108518600463867188e-01) (42, -9.98311281204223632812e-01) (43, 2.06986260414123535156e+00) (44, 2.77584934234619140625e+00) (45, 1.86738336086273193359e+00) (46, -2.73302059173583984375e+01) (47, -3.92839193344116210938e+00) (48, -2.56833076477050781250e+00) (49, 5.65033018589019775391e-01) (50, 1.17779893875122070312e+01) (51, -5.86191043257713317871e-02) (52, -7.19109344482421875000e+01) (53, -2.50042629241943359375e+00) (54, -2.37022376060485839844e+00) (55, 2.13809108734130859375e+00) (56, 3.70020599365234375000e+01) (57, 2.57655544281005859375e+01) (58, -1.89889240264892578125e+01) (59, 2.47140240669250488281e+00) (60, 4.08434681594371795654e-03) (61, 4.67286157608032226562e+00) (62, -1.08392047882080078125e+00) (63, 9.79212951660156250000e+00) (64, 2.45073070526123046875e+01) (65, -1.31178259849548339844e-01) (31, 3.77255821228027343750e+00) (32, 2.38515162467956542969e+00) (33, 5.74363088607788085938e+00) (34, 1.50000000000000000000e+03) (35, -2.63575916290283203125e+01) (36, 7.93892443180084228516e-01) (37, 9.66062469482421875000e+01) (38, -1.52892313003540039062e+01) (39, -1.63436734676361083984e+00) (40, 1.17471329867839813232e-01) (41, -5.64319528639316558838e-02) (42, -1.53880763053894042969e+00) (43, 8.20697188377380371094e-01) (44, 3.89468026161193847656e+00) (45, 6.40951013565063476562e+00) (46, -4.19973220825195312500e+01) (47, -4.60056972503662109375e+00) (48, -3.38394594192504882812e+00) (49, 1.52783715724945068359e+00) (50, 1.98139057159423828125e+01) (51, -2.36931252479553222656e+00) (52, -7.20520172119140625000e+01) (53, -2.59245491027832031250e+00) (54, 2.30020070075988769531e+00) (55, 2.18495512008666992188e+00) (56, 6.75843429565429687500e+01) (57, 3.13090286254882812500e+01) (58, -2.43179149627685546875e+01) (59, -1.18198752403259277344e+00) (60, -1.08550894260406494141e+00) (61, 8.53866386413574218750e+00) (62, -1.79467275738716125488e-01) (63, 2.50626583099365234375e+01) (64, 7.10727005004882812500e+01) (65, -1.66588413715362548828e+00) (31, 9.01139020919799804688e-01) (32, -3.58982586860656738281e+00) (33, -1.46433048248291015625e+01) (34, 1.50000000000000000000e+03) (35, -5.70468282699584960938e+00) (36, -1.84474229812622070312e+00) (37, -8.35197982788085937500e+01) (38, -4.68331336975097656250e+00) (39, 4.38028001785278320312e+00) (40, -7.80337393283843994141e-01) (41, -9.44589555263519287109e-01) (42, -4.67512965202331542969e-01) (43, 1.88000929355621337891e+00) (44, -6.78598523139953613281e-01) (45, 2.12839651107788085938e+00) (46, 4.15730781555175781250e+01) (47, 7.87775993347167968750e+00) (48, 3.86249923706054687500e+00) (49, -1.04222333431243896484e+00) (50, 5.18885517120361328125e+00) (51, 3.37866872549057006836e-01) (52, 3.24721870422363281250e+01) (53, 2.99995231628417968750e+00) (54, 2.85776287317276000977e-01) (55, -1.37208628654479980469e+00) (56, 1.13501796722412109375e+01) (57, -5.75041313171386718750e+01) (58, 1.51408389210700988770e-01) (59, -1.68399009704589843750e+01) (60, -2.47395443916320800781e+00) (61, 3.46408081054687500000e+00) (62, 1.37495768070220947266e+00) (63, -5.41840982437133789062e+00) (64, 4.38588066101074218750e+01) (65, -6.77664577960968017578e-01) (31, -8.18632662296295166016e-01) (32, -3.15259385108947753906e+00) (33, -1.25960493087768554688e+01) (34, 1.50000000000000000000e+03) (35, 1.03591299057006835938e+00) (36, -5.76085746288299560547e-01) (37, -8.69108276367187500000e+01) (38, -2.89240360260009765625e+00) (39, 3.42490959167480468750e+00) (40, -2.25364249199628829956e-02) (41, -1.26093769073486328125e+00) (42, 2.92345553636550903320e-01) (43, 3.14972782135009765625e+00) (44, 9.53404605388641357422e-01) (45, -1.96408486366271972656e+00) (46, 4.12200851440429687500e+01) (47, 6.06818056106567382812e+00) (48, 3.71625399589538574219e+00) (49, -2.88739657402038574219e+00) (50, -1.67326297760009765625e+01) (51, -1.51526346802711486816e-01) (52, 4.89071121215820312500e+01) (53, 3.38675832748413085938e+00) (54, -7.23378121852874755859e-01) (55, -1.15026378631591796875e+00) (56, -6.59053993225097656250e+00) (57, -4.94646186828613281250e+01) (58, 1.14677143096923828125e+00) (59, -1.25283164978027343750e+01) (60, -3.36664891242980957031e+00) (61, 3.82550740242004394531e+00) (62, -3.28983962535858154297e-01) (63, 3.31052184104919433594e+00) (64, 3.48205828666687011719e+00) (65, -1.73076853156089782715e-01) (31, 1.72162115573883056641e+00) (32, -1.12560808658599853516e+00) (33, -1.36642799377441406250e+01) (34, 1.50000000000000000000e+03) (35, -9.47497177124023437500e+00) (36, -1.35091915726661682129e-01) (37, -7.06400299072265625000e+01) (38, 5.48533797264099121094e-01) (39, 3.83453965187072753906e+00) (40, -4.63000535964965820312e+00) (41, -2.25585889816284179688e+00) (42, -2.28926435112953186035e-01) (43, 3.52837967872619628906e+00) (44, 3.69448971748352050781e+00) (45, 1.18115341663360595703e+00) (46, 2.20696620941162109375e+01) (47, 4.12794256210327148438e+00) (48, 3.54570555686950683594e+00) (49, -1.44289469718933105469e+00) (50, -1.12243270874023437500e+01) (51, -1.69940149784088134766e+00) (52, 3.23431930541992187500e+01) (53, 2.43289455771446228027e-01) (54, 2.77670174837112426758e-01) (55, -1.01326489448547363281e+00) (56, 5.83188009262084960938e+00) (57, -3.13436012268066406250e+01) (58, 3.33425831794738769531e+00) (59, -9.31955528259277343750e+00) (60, -6.57545423507690429688e+00) (61, 5.14428997039794921875e+00) (62, -4.19573873281478881836e-01) (63, 2.85945568084716796875e+01) (64, -3.00336275249719619751e-02) (65, -4.28420573472976684570e-01) (31, 5.52263641357421875000e+00) (32, -7.68035292625427246094e-01) (33, -1.35066306591033935547e+00) (34, 1.50000000000000000000e+03) (35, 2.39043998718261718750e+01) (36, -3.32292914390563964844e+00) (37, -8.22827453613281250000e+01) (38, -1.22693233489990234375e+01) (39, 2.53482198715209960938e+00) (40, 1.65032947063446044922e+00) (41, 1.29234552383422851562e+00) (42, -8.03571462631225585938e-01) (43, -2.00319981575012207031e+00) (44, -5.93326950073242187500e+00) (45, -8.60959339141845703125e+00) (46, 2.76583552360534667969e+00) (47, 1.04742078781127929688e+01) (48, 2.18025016784667968750e+00) (49, 9.86248850822448730469e-01) (50, -5.04221725463867187500e+01) (51, 2.41701340675354003906e+00) (52, 3.29644126892089843750e+01) (53, -7.18444362282752990723e-02) (54, 1.92005038261413574219e+00) (55, -1.95852756500244140625e+00) (56, -2.53329944610595703125e+00) (57, 3.44786605834960937500e+01) (58, 2.50882930755615234375e+01) (59, 7.09041690826416015625e+00) (60, -3.02218291908502578735e-02) (61, 7.18705940246582031250e+00) (62, -5.36778068542480468750e+00) (63, -2.88250274658203125000e+01) (64, 7.36324453353881835938e+00) (65, 3.09799849987030029297e-01) (31, 3.13870811462402343750e+00) (32, 1.43798255920410156250e+00) (33, -9.11697864532470703125e+00) (34, 1.50000000000000000000e+03) (35, -7.04795694351196289062e+00) (36, -1.86978840827941894531e+00) (37, 1.63471817970275878906e+00) (38, -3.42048120498657226562e+00) (39, 1.02920222282409667969e+00) (40, 2.21882843971252441406e+00) (41, -5.72250127792358398438e-01) (42, -1.45667862892150878906e+00) (43, -6.20618939399719238281e-01) (44, -3.71570849418640136719e+00) (45, 1.74718987941741943359e+00) (46, -3.25510096549987792969e+00) (47, 4.69558858871459960938e+00) (48, 1.63291585445404052734e+00) (49, 3.90627169609069824219e+00) (50, 1.18250207901000976562e+01) (51, -6.39538908004760742188e+00) (52, 2.31263980865478515625e+01) (53, -6.28920435905456542969e-01) (54, 6.82421350479125976562e+00) (55, -1.56312203407287597656e+00) (56, 1.75470390319824218750e+01) (57, -1.03024721145629882812e+00) (58, -2.24661140441894531250e+01) (59, -1.51391839981079101562e+01) (60, -6.93206250667572021484e-01) (61, 7.97792959213256835938e+00) (62, -3.28122675418853759766e-01) (63, -1.72159824371337890625e+01) (64, 6.13263854980468750000e+01) (65, 4.24841523170471191406e-01) (31, 3.72084307670593261719e+00) (32, 2.02593922615051269531e+00) (33, -1.26447439193725585938e+01) (34, 1.50000000000000000000e+03) (35, -1.04743461608886718750e+01) (36, -2.32405781745910644531e+00) (37, 1.82523574829101562500e+01) (38, -3.77502632141113281250e+00) (39, 1.56247782707214355469e+00) (40, -2.02341580390930175781e+00) (41, 6.61393254995346069336e-03) (42, -6.74407839775085449219e-01) (43, -6.40888333320617675781e-01) (44, -2.55929231643676757812e+00) (45, 6.86190462112426757812e+00) (46, -3.31831932067871093750e+01) (47, 6.23021088540554046631e-02) (48, 1.35008287429809570312e+00) (49, 5.72305679321289062500e+00) (50, 1.94731116294860839844e+00) (51, -6.68751811981201171875e+00) (52, -2.87403469085693359375e+01) (53, -2.01363754272460937500e+00) (54, 6.04193305969238281250e+00) (55, -1.59526062011718750000e+00) (56, 3.09920558929443359375e+01) (57, 3.14654998779296875000e+01) (58, -3.29306888580322265625e+00) (59, -1.28009891510009765625e+01) (60, -9.05286550521850585938e-01) (61, 1.07101058959960937500e+01) (62, 1.09970331192016601562e+00) (63, -3.77110028266906738281e+00) (64, 6.36510467529296875000e+01) (65, 5.20390458405017852783e-02) (31, -6.51477479934692382812e+00) (32, 1.99919074773788452148e-01) (33, 4.24893283843994140625e+00) (34, 1.50000000000000000000e+03) (35, 2.65745773315429687500e+01) (36, 1.01327085494995117188e+00) (37, -1.22688003540039062500e+02) (38, -2.17297601699829101562e+00) (39, 2.87603569030761718750e+00) (40, -6.55195116996765136719e-02) (41, -2.35491871833801269531e+00) (42, 3.50753569602966308594e+00) (43, 3.63034582138061523438e+00) (44, -3.31749129295349121094e+00) (45, -4.89509582519531250000e+00) (46, -2.86570262908935546875e+00) (47, 1.61659979820251464844e+00) (48, 7.92551088333129882812e+00) (49, -2.65130019187927246094e+00) (50, -3.51674613952636718750e+01) (51, 4.28976678848266601562e+00) (52, -3.50489349365234375000e+01) (53, -4.13223695755004882812e+00) (54, -1.01978111267089843750e+01) (55, -2.04939198493957519531e+00) (56, -6.97682418823242187500e+01) (57, 4.04155616760253906250e+01) (58, 5.21097946166992187500e+01) (59, -1.02053241729736328125e+01) (60, 7.89512252807617187500e+00) (61, 3.83391475677490234375e+00) (62, 1.05747139453887939453e+00) (63, -2.48644042015075683594e+00) (64, -1.02748512268066406250e+02) (65, 4.28864926099777221680e-01) (31, -7.99768781661987304688e+00) (32, 7.14308321475982666016e-01) (33, 3.51184678077697753906e+00) (34, 1.50000000000000000000e+03) (35, 1.56869058609008789062e+01) (36, -1.26836371421813964844e+00) (37, -7.04700422286987304688e+00) (38, 1.20048201084136962891e+00) (39, -7.28700578212738037109e-01) (40, 1.49245309829711914062e+00) (41, -1.35662019252777099609e+00) (42, 6.93099164962768554688e+00) (43, 2.98183178901672363281e+00) (44, -3.32734322547912597656e+00) (45, -8.99070549011230468750e+00) (46, 5.86943054199218750000e+00) (47, 6.98104238510131835938e+00) (48, 3.63227033615112304688e+00) (49, -1.21868181228637695312e+00) (50, -1.62991905212402343750e+01) (51, 4.97065639495849609375e+00) (52, -9.90196228027343750000e+00) (53, -2.04535913467407226562e+00) (54, -9.39185047149658203125e+00) (55, -1.82851505279541015625e+00) (56, -4.77664489746093750000e+01) (57, 2.24960613250732421875e+01) (58, 2.38192939758300781250e+01) (59, -4.62519598007202148438e+00) (60, 2.47290372848510742188e+00) (61, 3.53164076805114746094e+00) (62, -1.14008438587188720703e+00) (63, -6.62265682220458984375e+00) (64, -2.04221611022949218750e+01) (65, 5.27707934379577636719e-02) (31, -2.18460774421691894531e+00) (32, 3.50339126586914062500e+00) (33, -1.82488422393798828125e+01) (34, 1.50000000000000000000e+03) (35, -7.13060200214385986328e-01) (36, -5.52240991592407226562e+00) (37, 4.16173896789550781250e+01) (38, -3.32425045967102050781e+00) (39, -6.34661793708801269531e-01) (40, -6.20823478698730468750e+00) (41, -1.40879833698272705078e+00) (42, 3.24541091918945312500e+00) (43, 3.29824119806289672852e-01) (44, 6.55016452074050903320e-02) (45, -3.48285138607025146484e-01) (46, -2.76426410675048828125e+01) (47, -8.75345611572265625000e+00) (48, 3.15538787841796875000e+00) (49, -9.83332753181457519531e-01) (50, -2.48686485290527343750e+01) (51, -5.21093273162841796875e+00) (52, -6.00596771240234375000e+01) (53, 1.24318313598632812500e+00) (54, -6.43090009689331054688e-02) (55, 3.96925139427185058594e+00) (56, -2.22350101470947265625e+01) (57, 2.61373920440673828125e+01) (58, 1.46333875656127929688e+01) (59, -1.33344841003417968750e+01) (60, 5.55582344532012939453e-01) (61, 8.56270599365234375000e+00) (62, 6.83128643035888671875e+00) (63, 4.00726966857910156250e+01) (64, 1.30683364868164062500e+02) (65, 1.49009540677070617676e-01) (31, -5.16653247177600860596e-02) (32, -3.00968110561370849609e-01) (33, 1.90641536712646484375e+01) (34, 1.50000000000000000000e+03) (35, 2.43585166931152343750e+01) (36, 3.89752340316772460938e+00) (37, 7.37621307373046875000e+00) (38, -1.75816688537597656250e+01) (39, 1.86350142955780029297e+00) (40, 9.56385517120361328125e+00) (41, 1.93416273593902587891e+00) (42, 5.60474777221679687500e+00) (43, -4.47482585906982421875e+00) (44, -6.30235147476196289062e+00) (45, -9.73574542999267578125e+00) (46, 1.01815738677978515625e+01) (47, 1.25575580596923828125e+01) (48, -2.39179873466491699219e+00) (49, -8.00514507293701171875e+00) (50, 1.13091068267822265625e+01) (51, 8.64828872680664062500e+00) (52, 7.29060592651367187500e+01) (53, 2.20369863510131835938e+00) (54, -7.75987482070922851562e+00) (55, -7.76687288284301757812e+00) (56, -2.77143573760986328125e+01) (57, 2.52695293426513671875e+01) (58, 4.08091392517089843750e+01) (59, -1.68942470550537109375e+01) (60, 4.87239265441894531250e+00) (61, 4.47639369964599609375e+00) (62, -7.14762210845947265625e+00) (63, -7.82761917114257812500e+01) (64, -1.24474887847900390625e+01) (65, 5.30957758426666259766e-01) (31, -2.62503933906555175781e+00) (32, -6.79185092449188232422e-01) (33, -7.70133733749389648438e-01) (34, 1.50000000000000000000e+03) (35, 2.24425392150878906250e+01) (36, -1.94604182243347167969e+00) (37, 1.63512649536132812500e+01) (38, -1.05002202987670898438e+01) (39, 3.68181884288787841797e-01) (40, 5.91774272918701171875e+00) (41, -3.11237812042236328125e+00) (42, 2.64557051658630371094e+00) (43, 5.52007615566253662109e-01) (44, -2.78513669967651367188e+00) (45, -4.84210538864135742188e+00) (46, 8.61807703971862792969e-01) (47, 6.83245182037353515625e+00) (48, 2.62145853042602539062e+00) (49, -6.76720428466796875000e+00) (50, -2.28144416809082031250e+01) (51, 5.30818271636962890625e+00) (52, 3.51384277343750000000e+01) (53, -1.43402963876724243164e-01) (54, -4.90451574325561523438e-01) (55, -4.76255491375923156738e-02) (56, -2.62394924163818359375e+01) (57, 1.67344436645507812500e+01) (58, 6.85876893997192382812e+00) (59, -1.01946973800659179688e+01) (60, 2.32524228096008300781e+00) (61, 3.99688553810119628906e+00) (62, -1.64480805397033691406e+00) (63, -1.25773286819458007812e+01) (64, -1.25083513259887695312e+01) (65, 1.17184378206729888916e-01) (31, -6.57377243041992187500e-01) (32, 8.25335979461669921875e-01) (33, -1.73103084564208984375e+01) (34, 1.50000000000000000000e+03) (35, 1.32010459899902343750e+01) (36, -5.41320085525512695312e+00) (37, -2.85140647888183593750e+01) (38, -1.13899879455566406250e+01) (39, -2.04170286655426025391e-01) (40, -1.14543914794921875000e+00) (41, -6.28079235553741455078e-01) (42, 1.82356667518615722656e+00) (43, -1.30316126346588134766e+00) (44, 2.47424221038818359375e+00) (45, 8.41973662376403808594e-01) (46, -5.07301521301269531250e+01) (47, -3.29196119308471679688e+00) (48, 2.41070961952209472656e+00) (49, -1.24611616134643554688e+00) (50, -3.59021492004394531250e+01) (51, -1.84699916839599609375e+00) (52, -5.00143852233886718750e+01) (53, 1.76345956325531005859e+00) (54, 2.61378741264343261719e+00) (55, 3.45853877067565917969e+00) (56, -3.05680599212646484375e+01) (57, 5.34836463928222656250e+01) (58, 5.07764320373535156250e+01) (59, -1.46392059326171875000e+01) (60, -1.03681170940399169922e+00) (61, 8.91682052612304687500e+00) (62, 5.66422224044799804688e+00) (63, 3.42138290405273437500e+01) (64, 7.18445358276367187500e+01) (65, 8.67264941334724426270e-02) (31, 2.89570522308349609375e+00) (32, 7.88133203983306884766e-01) (33, -7.30104780197143554688e+00) (34, 1.50000000000000000000e+03) (35, -2.81392073631286621094e+00) (36, 2.04151797294616699219e+00) (37, -1.95438823699951171875e+01) (38, -7.03409957885742187500e+00) (39, -9.70552086830139160156e-01) (40, -2.42759656906127929688e+00) (41, -2.65571022033691406250e+00) (42, -1.39608395099639892578e+00) (43, -3.14993619918823242188e-01) (44, -3.79059839248657226562e+00) (45, 4.88352775573730468750e+00) (46, 3.15970325469970703125e+01) (47, 2.92589306831359863281e+00) (48, 3.25898766517639160156e+00) (49, -6.47498703002929687500e+00) (50, -5.91674745082855224609e-01) (51, 1.77364781498908996582e-01) (52, 5.37007408142089843750e+01) (53, 7.72601842880249023438e+00) (54, 1.62317168712615966797e+00) (55, -9.08788263797760009766e-01) (56, 1.61736965179443359375e+01) (57, -4.92554855346679687500e+01) (58, -4.06497688293457031250e+01) (59, -2.03796482086181640625e+01) (60, 1.99342715740203857422e+00) (61, 1.90402591228485107422e+00) (62, 3.07536077499389648438e+00) (63, -4.46836662292480468750e+01) (64, 7.84871749877929687500e+01) (65, 2.77029901742935180664e-01) (31, 3.67191219329833984375e+00) (32, 1.02235218510031700134e-02) (33, -4.75173997879028320312e+00) (34, 1.50000000000000000000e+03) (35, 9.55034255981445312500e+00) (36, -1.24956524372100830078e+00) (37, -9.97381591796875000000e+00) (38, -1.08246793746948242188e+01) (39, 3.74823093414306640625e-01) (40, 7.66112744808197021484e-01) (41, -1.88484108448028564453e+00) (42, 9.21893492341041564941e-02) (43, 1.97891986370086669922e+00) (44, -5.00447320938110351562e+00) (45, -3.48310899734497070312e+00) (46, 1.44996767044067382812e+01) (47, 3.95352315902709960938e+00) (48, 3.54627728462219238281e+00) (49, -4.71532440185546875000e+00) (50, -4.78364448547363281250e+01) (51, 2.23095953464508056641e-01) (52, 2.57603893280029296875e+01) (53, 2.34866213798522949219e+00) (54, -7.15082168579101562500e-01) (55, -2.84280896186828613281e-01) (56, -1.18050603866577148438e+01) (57, -4.27062988281250000000e+00) (58, -1.51216812133789062500e+01) (59, -8.88729476928710937500e+00) (60, 3.18788814544677734375e+00) (61, 7.22836065292358398438e+00) (62, -1.37935304641723632812e+00) (63, -2.11607933044433593750e+01) (64, 4.67511978149414062500e+01) (65, 6.14038228988647460938e-01) (31, 3.25441050529479980469e+00) (32, 9.29511964321136474609e-01) (33, -7.75951147079467773438e+00) (34, 1.50000000000000000000e+03) (35, 7.95093536376953125000e+00) (36, 5.89072048664093017578e-01) (37, 2.83119144439697265625e+01) (38, -7.28953409194946289062e+00) (39, 1.81626272201538085938e+00) (40, -2.29214668273925781250e+00) (41, -3.93940114974975585938e+00) (42, -1.32348144054412841797e+00) (43, 2.11251163482666015625e+00) (44, -2.18724417686462402344e+00) (45, 1.18143796920776367188e+00) (46, -3.47511520385742187500e+01) (47, 9.62780714035034179688e-01) (48, 9.52017843723297119141e-01) (49, -1.75885176658630371094e+00) (50, -5.35309791564941406250e+01) (51, 2.13997840881347656250e-01) (52, 9.25794506072998046875e+00) (53, -1.41155564785003662109e+00) (54, 3.04249978065490722656e+00) (55, -2.22866415977478027344e-01) (56, 1.68960895538330078125e+01) (57, 5.32979583740234375000e+01) (58, -6.28719615936279296875e+00) (59, -8.46206426620483398438e-01) (60, 2.15297079086303710938e+00) (61, 9.71522617340087890625e+00) (62, -3.87785220146179199219e+00) (63, -1.01517686843872070312e+01) (64, 2.09984264373779296875e+01) (65, 3.42291027307510375977e-01) (31, 6.75096392631530761719e-01) (32, -3.85515898466110229492e-01) (33, -1.26774187088012695312e+01) (34, 1.50000000000000000000e+03) (35, 1.64230995178222656250e+01) (36, 1.95815622806549072266e+00) (37, -9.11135482788085937500e+01) (38, -9.69025135040283203125e+00) (39, 5.28770387172698974609e-01) (40, -4.63035488128662109375e+00) (41, -1.64085197448730468750e+00) (42, 3.03164631128311157227e-01) (43, 8.10959935188293457031e-01) (44, 7.44871973991394042969e-01) (45, -3.47694444656372070312e+00) (46, 2.83161315917968750000e+01) (47, -7.71667671203613281250e+00) (48, 9.95764160156250000000e+00) (49, -2.37598717212677001953e-01) (50, -1.32177368164062500000e+02) (51, -3.21768355369567871094e+00) (52, 9.52808475494384765625e+00) (53, 3.58357095718383789062e+00) (54, 1.82803833484649658203e+00) (55, 2.43039578199386596680e-01) (56, -3.56025543212890625000e+01) (57, -1.05981283187866210938e+01) (58, 1.55166664123535156250e+01) (59, -6.38313484191894531250e+00) (60, 4.28911638259887695312e+00) (61, 8.84229946136474609375e+00) (62, 2.78461384773254394531e+00) (63, 3.66808471679687500000e+01) (64, -5.07911682128906250000e+01) (65, 3.44463378190994262695e-01) (31, 1.39458441734313964844e+00) (32, 5.07431626319885253906e-01) (33, -1.10556106567382812500e+01) (34, 1.50000000000000000000e+03) (35, -3.61500191688537597656e+00) (36, -1.44916164875030517578e+00) (37, -1.93116340637207031250e+01) (38, 5.64707422256469726562e+00) (39, -2.12495493888854980469e+00) (40, -7.08922922611236572266e-01) (41, -2.15054559707641601562e+00) (42, -3.90515774488449096680e-01) (43, 1.62637579441070556641e+00) (44, -2.98005008697509765625e+00) (45, -3.29180049896240234375e+00) (46, 2.86162071228027343750e+01) (47, 7.60703372955322265625e+00) (48, 3.33860135078430175781e+00) (49, -1.73941230773925781250e+00) (50, -5.17909479141235351562e+00) (51, -6.94201087951660156250e+00) (52, 6.66625747680664062500e+01) (53, 2.34872889518737792969e+00) (54, 8.44420433044433593750e+00) (55, -6.97944164276123046875e-02) (56, -2.30560245513916015625e+01) (57, -4.55639610290527343750e+01) (58, -3.04492416381835937500e+01) (59, -1.56184062957763671875e+01) (60, -6.40981256961822509766e-01) (61, 6.35305833816528320312e+00) (62, 1.51992213726043701172e+00) (63, -4.36089134216308593750e+00) (64, 7.06532745361328125000e+01) (65, 1.83148995041847229004e-01) (31, -6.08486413955688476562e-01) (32, 1.10963559150695800781e+00) (33, -1.20711126327514648438e+01) (34, 1.50000000000000000000e+03) (35, 1.32495956420898437500e+01) (36, -9.41576302051544189453e-01) (37, 6.50170516967773437500e+01) (38, -1.52954936027526855469e+00) (39, 9.73057925701141357422e-01) (40, -2.38274621963500976562e+00) (41, -2.81027674674987792969e+00) (42, 5.56006073951721191406e-01) (43, 7.11903452873229980469e-01) (44, 3.32321785390377044678e-02) (45, 1.30034554004669189453e+00) (46, -3.01031780242919921875e+01) (47, 7.23187160491943359375e+00) (48, -1.13131225109100341797e+00) (49, 6.19073808193206787109e-01) (50, -2.36130771636962890625e+01) (51, -5.84138870239257812500e+00) (52, 3.53051986694335937500e+01) (53, -8.56918871402740478516e-01) (54, 1.16113853454589843750e+01) (55, 3.07001441717147827148e-01) (56, 2.11372222900390625000e+01) (57, 3.57981567382812500000e+01) (58, -3.79984545707702636719e+00) (59, -7.14567613601684570312e+00) (60, 6.98858732357621192932e-03) (61, 9.17432022094726562500e+00) (62, -1.59367668628692626953e+00) (63, -3.72650070190429687500e+01) (64, 5.70847549438476562500e+01) (65, 2.55816671997308731079e-02) (31, -3.16439829766750335693e-02) (32, 4.17549014091491699219e-01) (33, -1.84460563659667968750e+01) (34, 1.50000000000000000000e+03) (35, 9.85832023620605468750e+00) (36, -3.23031592369079589844e+00) (37, -3.55991249084472656250e+01) (38, -7.15872955322265625000e+00) (39, -1.60220980644226074219e+00) (40, -6.89380288124084472656e-01) (41, 2.85988616943359375000e+00) (42, -1.53207659721374511719e+00) (43, -1.47043633460998535156e+00) (44, -1.25125181674957275391e+00) (45, 2.37669736146926879883e-01) (46, -7.73884439468383789062e+00) (47, -7.61285686492919921875e+00) (48, 3.60106348991394042969e+00) (49, 1.84855222702026367188e+00) (50, -2.53709526062011718750e+01) (51, -1.64641702175140380859e+00) (52, -2.39900360107421875000e+01) (53, 6.59660291671752929688e+00) (54, 2.05402421951293945312e+00) (55, -1.13427913188934326172e+00) (56, -1.51411905288696289062e+01) (57, 7.05466794967651367188e+00) (58, 2.15427951812744140625e+01) (59, -1.51471490859985351562e+01) (60, 1.97544920444488525391e+00) (61, 9.34800529479980468750e+00) (62, 5.35712957382202148438e+00) (63, 2.01096749305725097656e+00) (64, 4.37597618103027343750e+01) (65, 5.39580658078193664551e-02) (31, -1.39399874210357666016e+00) (32, -2.93846607208251953125e+00) (33, -1.29996786117553710938e+01) (34, 1.50000000000000000000e+03) (35, 1.48155679702758789062e+01) (36, -9.01705920696258544922e-02) (37, -2.55785140991210937500e+01) (38, -5.23210334777832031250e+00) (39, -5.80916814506053924561e-02) (40, 1.04722969233989715576e-01) (41, 1.34601604938507080078e+00) (42, 1.54268527030944824219e+00) (43, 2.28432908654212951660e-01) (44, -1.80289399623870849609e+00) (45, 1.01396691799163818359e+00) (46, -1.70287094116210937500e+01) (47, 1.02394497394561767578e+00) (48, 4.86869382858276367188e+00) (49, 3.16991494037210941315e-03) (50, -4.13465080261230468750e+01) (51, 9.21646535396575927734e-01) (52, -4.87978267669677734375e+00) (53, 1.81376707553863525391e+00) (54, -1.66567742824554443359e+00) (55, -2.64464259147644042969e+00) (56, -2.78152351379394531250e+01) (57, 3.88546905517578125000e+01) (58, 3.17940368652343750000e+01) (59, -1.13194084167480468750e+01) (60, 6.07006978988647460938e+00) (61, 9.66245651245117187500e+00) (62, 4.59848679602146148682e-02) (63, 7.18901968002319335938e+00) (64, -5.76076316833496093750e+01) (65, 5.20674176514148712158e-02) (31, 3.69442403316497802734e-02) (32, -1.54844868183135986328e+00) (33, -2.58664989471435546875e+01) (34, 1.50000000000000000000e+03) (35, 5.26816940307617187500e+00) (36, -1.91304516792297363281e+00) (37, 4.30902862548828125000e+01) (38, -1.21989405155181884766e+00) (39, 2.56242299079895019531e+00) (40, -3.53221726417541503906e+00) (41, -7.66265451908111572266e-01) (42, 3.08384776115417480469e+00) (43, 7.20077753067016601562e-01) (44, -4.03180265426635742188e+00) (45, 8.69423961639404296875e+00) (46, -2.26187496185302734375e+01) (47, 4.20348072052001953125e+00) (48, 5.35118198394775390625e+00) (49, 8.95122945308685302734e-01) (50, -3.98003807067871093750e+01) (51, -2.00968146324157714844e+00) (52, 3.20654845237731933594e+00) (53, -6.61778867244720458984e-01) (54, -3.37183427810668945312e+00) (55, -2.75340080261230468750e+00) (56, 1.58861961364746093750e+01) (57, 4.69349174499511718750e+01) (58, 