FANN_FLO_2.1
num_layers=3
learning_rate=0.700000
connection_rate=1.000000
network_type=0
learning_momentum=0.000000
training_algorithm=2
train_error_function=1
train_stop_function=0
cascade_output_change_fraction=0.010000
quickprop_decay=-0.000100
quickprop_mu=1.750000
rprop_increase_factor=1.200000
rprop_decrease_factor=0.500000
rprop_delta_min=0.000000
rprop_delta_max=50.000000
rprop_delta_zero=0.100000
cascade_output_stagnation_epochs=12
cascade_candidate_change_fraction=0.010000
cascade_candidate_stagnation_epochs=12
cascade_max_out_epochs=150
cascade_max_cand_epochs=150
cascade_num_candidate_groups=2
bit_fail_limit=3.49999994039535522461e-01
cascade_candidate_limit=1.00000000000000000000e+03
cascade_weight_multiplier=4.00000005960464477539e-01
cascade_activation_functions_count=10
cascade_activation_functions=3 5 7 8 10 11 14 15 16 17 
cascade_activation_steepnesses_count=4
cascade_activation_steepnesses=2.50000000000000000000e-01 5.00000000000000000000e-01 7.50000000000000000000e-01 1.00000000000000000000e+00 
layer_sizes=31 4 55 
scale_included=0
neurons (num_inputs, activation_function, activation_steepness)=(0, 0, 0.00000000000000000000e+00) (0, 0, 0.00000000000000000000e+00) (0, 0, 0.00000000000000000000e+00) (0, 0, 0.00000000000000000000e+00) (0, 0, 0.00000000000000000000e+00) (0, 0, 0.00000000000000000000e+00) (0, 0, 0.00000000000000000000e+00) (0, 0, 0.00000000000000000000e+00) (0, 0, 0.00000000000000000000e+00) (0, 0, 0.00000000000000000000e+00) (0, 0, 0.00000000000000000000e+00) (0, 0, 0.00000000000000000000e+00) (0, 0, 0.00000000000000000000e+00) (0, 0, 0.00000000000000000000e+00) (0, 0, 0.00000000000000000000e+00) (0, 0, 0.00000000000000000000e+00) (0, 0, 0.00000000000000000000e+00) (0, 0, 0.00000000000000000000e+00) (0, 0, 0.00000000000000000000e+00) (0, 0, 0.00000000000000000000e+00) (0, 0, 0.00000000000000000000e+00) (0, 0, 0.00000000000000000000e+00) (0, 0, 0.00000000000000000000e+00) (0, 0, 0.00000000000000000000e+00) (0, 0, 0.00000000000000000000e+00) (0, 0, 0.00000000000000000000e+00) (0, 0, 0.00000000000000000000e+00) (0, 0, 0.00000000000000000000e+00) (0, 0, 0.00000000000000000000e+00) (0, 0, 0.00000000000000000000e+00) (0, 0, 0.00000000000000000000e+00) (31, 5, 5.00000000000000000000e-01) (31, 5, 5.00000000000000000000e-01) (31, 5, 5.00000000000000000000e-01) (0, 5, 0.00000000000000000000e+00) (4, 5, 2.00000002980232238770e-01) (4, 5, 2.00000002980232238770e-01) (4, 5, 2.00000002980232238770e-01) (4, 5, 2.00000002980232238770e-01) (4, 5, 2.00000002980232238770e-01) (4, 5, 2.00000002980232238770e-01) (4, 5, 2.00000002980232238770e-01) (4, 5, 2.00000002980232238770e-01) (4, 5, 2.00000002980232238770e-01) (4, 5, 2.00000002980232238770e-01) (4, 5, 2.00000002980232238770e-01) (4, 5, 2.00000002980232238770e-01) (4, 5, 2.00000002980232238770e-01) (4, 5, 2.00000002980232238770e-01) (4, 5, 2.00000002980232238770e-01) (4, 5, 2.00000002980232238770e-01) (4, 5, 2.00000002980232238770e-01) (4, 5, 2.00000002980232238770e-01) (4, 5, 2.00000002980232238770e-01) (4, 5, 2.00000002980232238770e-01) (4, 5, 2.00000002980232238770e-01) (4, 5, 2.00000002980232238770e-01) (4, 5, 2.00000002980232238770e-01) (4, 5, 2.00000002980232238770e-01) (4, 5, 2.00000002980232238770e-01) (4, 5, 2.00000002980232238770e-01) (4, 5, 2.00000002980232238770e-01) (4, 5, 2.00000002980232238770e-01) (4, 5, 2.00000002980232238770e-01) (4, 5, 2.00000002980232238770e-01) (4, 5, 2.00000002980232238770e-01) (4, 5, 2.00000002980232238770e-01) (4, 5, 2.00000002980232238770e-01) (4, 5, 2.00000002980232238770e-01) (4, 5, 2.00000002980232238770e-01) (4, 5, 2.00000002980232238770e-01) (4, 5, 2.00000002980232238770e-01) (4, 5, 2.00000002980232238770e-01) (4, 5, 2.00000002980232238770e-01) (4, 5, 2.00000002980232238770e-01) (4, 5, 2.00000002980232238770e-01) (4, 5, 2.00000002980232238770e-01) (4, 5, 2.00000002980232238770e-01) (4, 5, 2.00000002980232238770e-01) (4, 5, 2.00000002980232238770e-01) (4, 5, 2.00000002980232238770e-01) (4, 5, 2.00000002980232238770e-01) (4, 5, 2.00000002980232238770e-01) (4, 5, 2.00000002980232238770e-01) (4, 5, 2.00000002980232238770e-01) (4, 5, 2.00000002980232238770e-01) (4, 5, 2.00000002980232238770e-01) (4, 5, 2.00000002980232238770e-01) (4, 5, 2.00000002980232238770e-01) (0, 5, 2.00000002980232238770e-01) 
connections (connected_to_neuron, weight)=(0, 1.49999987792968750000e+03) (1, 1.49999987792968750000e+03) (2, -1.76266662597656250000e+02) (3, 1.48969812011718750000e+03) (4, 1.49999877929687500000e+03) (5, 1.48479565429687500000e+03) (6, 1.44618298339843750000e+03) (7, -1.43516674804687500000e+03) (8, -1.42813317871093750000e+03) (9, 9.56918945312500000000e+02) (10, 3.48427200317382812500e+01) (11, 1.49999987792968750000e+03) (12, -1.49999975585937500000e+03) (13, -1.36063781738281250000e+03) (14, -1.49097253417968750000e+03) (15, -1.49999963378906250000e+03) (16, -1.37940270996093750000e+03) (17, -1.46874157714843750000e+03) (18, 4.08819458007812500000e+02) (19, -9.38865478515625000000e+02) (20, -1.49999975585937500000e+03) (21, -1.45574450683593750000e+03) (22, 1.49999987792968750000e+03) (23, -1.29043371582031250000e+03) (24, 8.70389465332031250000e+02) (25, 8.08470886230468750000e+02) (26, -1.11507800292968750000e+03) (27, -1.04346887207031250000e+03) (28, -1.08929895019531250000e+03) (29, -6.95221984863281250000e+02) (30, -3.25205444335937500000e+02) (0, 1.38575434684753417969e+00) (1, -9.00519371032714843750e-01) (2, -1.00379288196563720703e+00) (3, 1.63487923145294189453e+00) (4, -8.84351581335067749023e-02) (5, -1.44719386100769042969e+00) (6, -6.76533997058868408203e-01) (7, -9.15178060531616210938e-01) (8, -7.91467010974884033203e-01) (9, -1.28751194477081298828e+00) (10, 7.43930578231811523438e-01) (11, 1.20612919330596923828e+00) (12, -3.04408997297286987305e-01) (13, -8.17648589611053466797e-01) (14, 8.41796994209289550781e-01) (15, -4.07488971948623657227e-01) (16, 3.02530717849731445312e+00) (17, -2.07486844062805175781e+00) (18, -3.72557926177978515625e+00) (19, -2.94396784156560897827e-02) (20, 4.33183431625366210938e+00) (21, 4.10907363891601562500e+00) (22, 4.26647625863552093506e-02) (23, -3.89421367645263671875e+00) (24, 4.01132881641387939453e-01) (25, -5.61551034450531005859e-01) (26, 1.73341429233551025391e+00) (27, 1.10260140895843505859e+00) (28, -4.63398575782775878906e-01) (29, 4.01147603988647460938e-01) (30, 6.88498139381408691406e-01) (0, 7.62730002403259277344e-01) (1, -1.12321996688842773438e+00) (2, 2.70779073238372802734e-01) (3, 6.27114295959472656250e-01) (4, -7.26163685321807861328e-01) (5, -5.56381121277809143066e-02) (6, 7.65985906124114990234e-01) (7, -1.96508169174194335938e-01) (8, -1.90847682952880859375e+00) (9, -1.67677000164985656738e-01) (10, 1.24562764167785644531e+00) (11, -7.97396779060363769531e-01) (12, 9.31908726692199707031e-01) (13, -1.44766211509704589844e+00) (14, 1.56051790714263916016e+00) (15, -1.30268883705139160156e+00) (16, 1.73741304874420166016e+00) (17, -9.21747267246246337891e-01) (18, -1.94999203085899353027e-01) (19, 2.03508391976356506348e-01) (20, -1.13226369023323059082e-01) (21, -2.54585534334182739258e-01) (22, 4.62489873170852661133e-01) (23, 2.76843935251235961914e-01) (24, 2.89424329996109008789e-01) (25, -1.38289825990796089172e-02) (26, 2.73864325135946273804e-02) (27, -1.17248868942260742188e+00) (28, -3.26138973236083984375e-01) (29, 1.82166671752929687500e+00) (30, -9.03931166976690292358e-03) (31, 1.82141566276550292969e+00) (32, 4.38562110066413879395e-02) (33, 1.65701980590820312500e+01) (34, 1.88812947273254394531e+00) (31, 1.84432435035705566406e+00) (32, 1.79532505571842193604e-02) (33, 1.68277740478515625000e+01) (34, 1.91098701953887939453e+00) (31, 1.88557529449462890625e+00) (32, -3.88407520949840545654e-02) (33, 1.73090667724609375000e+01) (34, 1.95367443561553955078e+00) (31, 1.96660363674163818359e+00) (32, 1.15682477951049804688e+01) (33, -2.23323059082031250000e+01) (34, 1.78630113601684570312e+00) (31, 1.95678770542144775391e+00) (32, 1.12282981872558593750e+01) (33, -2.11356182098388671875e+01) (34, 1.83143198490142822266e+00) (31, 6.62737512588500976562e+00) (32, 6.30165338516235351562e+00) (33, 3.78850326538085937500e+01) (34, 7.08482408523559570312e+00) (31, 1.44381916522979736328e+00) (32, -4.68105643987655639648e-01) (33, 1.48336429595947265625e+01) (34, 2.05341887474060058594e+00) (31, 1.20660018920898437500e+00) (32, -1.54450118541717529297e+00) (33, 1.67808570861816406250e+01) (34, 2.36194252967834472656e+00) (31, 1.23880636692047119141e+00) (32, -1.30073058605194091797e+00) (33, 1.61531200408935546875e+01) (34, 2.31266665458679199219e+00) (31, -3.42571949958801269531e+00) (32, -4.06335144042968750000e+01) (33, 2.55782279968261718750e+01) (34, 2.13374938964843750000e+01) (31, -3.41220617294311523438e+00) (32, -4.52861366271972656250e+01) (33, 3.08511028289794921875e+01) (34, 2.32213230133056640625e+01) (31, -2.64016032218933105469e+00) (32, -4.89710197448730468750e+01) (33, 3.82221183776855468750e+01) (34, 2.47166576385498046875e+01) (31, 5.06388521194458007812e+00) (32, 6.69617366790771484375e+00) (33, 3.46250653266906738281e-01) (34, 4.22588872909545898438e+00) (31, 8.66187953948974609375e+00) (32, 4.51738977432250976562e+00) (33, 4.13129615783691406250e+01) (34, 8.67564392089843750000e+00) (31, 1.78906941413879394531e+00) (32, 2.06193223595619201660e-01) (33, 5.20038700103759765625e+00) (34, 2.69702291488647460938e+00) (31, 8.39519023895263671875e+00) (32, -3.69717669486999511719e+00) (33, 9.58515625000000000000e+01) (34, 1.25274991989135742188e+01) (31, 4.02782392501831054688e+00) (32, -2.12189769744873046875e+00) (33, 3.55862998962402343750e+01) (34, 6.85605525970458984375e+00) (31, 2.51101875305175781250e+00) (32, 5.44609606266021728516e-01) (33, 4.80044269561767578125e+00) (34, 3.16796040534973144531e+00) (31, 9.56208109855651855469e-01) (32, 2.74921751022338867188e+00) (33, -1.46373867988586425781e+00) (34, 1.59630715847015380859e+00) (31, 3.82633066177368164062e+00) (32, -1.14724314212799072266e+00) (33, 3.31278305053710937500e+01) (34, 6.17255449295043945312e+00) (31, 5.88840055465698242188e+00) (32, -6.79495429992675781250e+00) (33, 8.08376617431640625000e+01) (34, 1.04475507736206054688e+01) (31, 8.01485729217529296875e+00) (32, 2.37403440475463867188e+00) (33, 2.99787540435791015625e+01) (34, 9.37635803222656250000e+00) (31, 2.54367423057556152344e+00) (32, 5.02168893814086914062e+00) (33, -6.85395076870918273926e-02) (34, 2.35881710052490234375e+00) (31, 1.03391551971435546875e+01) (32, -9.28572595119476318359e-01) (33, 9.29470596313476562500e+01) (34, 1.17954416275024414062e+01) (31, 1.73696744441986083984e+00) (32, -9.18188452720642089844e-01) (33, 4.59559726715087890625e+00) (34, 4.10960102081298828125e+00) (31, 5.47169542312622070312e+00) (32, -1.02821505069732666016e+00) (33, 4.18248100280761718750e+01) (34, 7.82982254028320312500e+00) (31, 6.90508985519409179688e+00) (32, -2.56498503684997558594e+00) (33, 6.00074577331542968750e+01) (34, 9.50814151763916015625e+00) (31, -1.44664144515991210938e+00) (32, -2.28015766143798828125e+01) (33, 1.14706306457519531250e+01) (34, 1.31902542114257812500e+01) (31, -1.32133340835571289062e+00) (32, -2.57016048431396484375e+01) (33, 1.53079156875610351562e+01) (34, 1.44660625457763671875e+01) (31, -1.00747358798980712891e+00) (32, -3.08796310424804687500e+01) (33, 2.26936435699462890625e+01) (34, 1.66897983551025390625e+01) (31, 1.97635495662689208984e+00) (32, 4.16037559509277343750e+00) (33, -3.08815050125122070312e+00) (34, 1.34978389739990234375e+00) (31, 1.93897938728332519531e+00) (32, 3.71150708198547363281e+00) (33, -1.89504730701446533203e+00) (34, 1.47367823123931884766e+00) (31, 1.95623719692230224609e+00) (32, 3.31114673614501953125e+00) (33, -7.53079116344451904297e-01) (34, 1.61134934425354003906e+00) (31, 9.98413944244384765625e+00) (32, -7.67153930664062500000e+00) (33, 1.13980743408203125000e+02) (34, 1.64591636657714843750e+01) (31, 1.66327381134033203125e+00) (32, 3.38633227348327636719e+00) (33, 1.09570157527923583984e+00) (34, 1.94270372390747070312e+00) (31, 2.57514953613281250000e+00) (32, 2.07359600067138671875e+00) (33, 1.13762464523315429688e+01) (34, 3.02649164199829101562e+00) (31, 6.64114809036254882812e+00) (32, 1.06876640319824218750e+01) (33, -6.96886920928955078125e+00) (34, 4.78223180770874023438e+00) (31, 9.47758388519287109375e+00) (32, 1.87238788604736328125e+00) (33, 6.35755882263183593750e+01) (34, 1.14657297134399414062e+01) (31, 2.94784498214721679688e+00) (32, -7.93012976646423339844e-01) (33, 4.68961620330810546875e+00) (34, 4.64692878723144531250e+00) (31, 1.26059617996215820312e+01) (32, -6.16020154953002929688e+00) (33, 1.48418670654296875000e+02) (34, 1.85260543823242187500e+01) (31, 7.28843402862548828125e+00) (32, -1.76708531379699707031e+00) (33, 6.61374969482421875000e+01) (34, 1.05893535614013671875e+01) (31, 2.71329975128173828125e+00) (32, 1.46589219570159912109e+00) (33, 2.44863224029541015625e+00) (34, 3.51055598258972167969e+00) (31, 6.92991495132446289062e-01) (32, 3.06531023979187011719e+00) (33, -2.89399790763854980469e+00) (34, 1.89467942714691162109e+00) (31, 5.52375173568725585938e+00) (32, -1.69403696060180664062e+00) (33, 5.29485397338867187500e+01) (34, 8.63863372802734375000e+00) (31, 8.18665313720703125000e+00) (32, -9.10602283477783203125e+00) (33, 1.15420501708984375000e+02) (34, 1.43448133468627929688e+01) (31, 6.15377902984619140625e+00) (32, 3.15283441543579101562e+00) (33, 1.50957880020141601562e+01) (34, 7.93151283264160156250e+00) (31, 2.01814293861389160156e+00) (32, 4.98284530639648437500e+00) (33, -2.36681604385375976562e+00) (34, 2.24539160728454589844e+00) (31, 1.15719928741455078125e+01) (32, -1.70476746559143066406e+00) (33, 1.09416740417480468750e+02) (34, 1.36667518615722656250e+01) (31, 1.99231278896331787109e+00) (32, 7.69245743751525878906e-01) (33, 2.37524390220642089844e-01) (34, 4.23748493194580078125e+00) (31, 9.24289131164550781250e+00) (32, 2.15086150169372558594e+00) (33, 5.86372642517089843750e+01) (34, 1.08300943374633789062e+01) (31, 1.29246091842651367188e+01) (32, -7.17956602573394775391e-01) (33, 1.02441604614257812500e+02) (34, 1.50201721191406250000e+01) (31, -3.42519402503967285156e+00) (32, -4.06320190429687500000e+01) (33, 2.55775604248046875000e+01) (34, 2.13372650146484375000e+01) (31, -3.41297483444213867188e+00) (32, -4.52999954223632812500e+01) (33, 3.08630352020263671875e+01) (34, 2.32275047302246093750e+01) (31, -2.63292050361633300781e+00) (32, -4.89699974060058593750e+01) (33, 3.82257957458496093750e+01) (34, 2.47224426269531250000e+01) 
