FANN_FLO_2.1
num_layers=3
learning_rate=0.700000
connection_rate=1.000000
network_type=0
learning_momentum=0.000000
training_algorithm=2
train_error_function=1
train_stop_function=0
cascade_output_change_fraction=0.010000
quickprop_decay=-0.000100
quickprop_mu=1.750000
rprop_increase_factor=1.200000
rprop_decrease_factor=0.500000
rprop_delta_min=0.000000
rprop_delta_max=50.000000
rprop_delta_zero=0.100000
cascade_output_stagnation_epochs=12
cascade_candidate_change_fraction=0.010000
cascade_candidate_stagnation_epochs=12
cascade_max_out_epochs=150
cascade_max_cand_epochs=150
cascade_num_candidate_groups=2
bit_fail_limit=3.49999994039535522461e-01
cascade_candidate_limit=1.00000000000000000000e+03
cascade_weight_multiplier=4.00000005960464477539e-01
cascade_activation_functions_count=10
cascade_activation_functions=3 5 7 8 10 11 14 15 16 17 
cascade_activation_steepnesses_count=4
cascade_activation_steepnesses=2.50000000000000000000e-01 5.00000000000000000000e-01 7.50000000000000000000e-01 1.00000000000000000000e+00 
layer_sizes=31 6 55 
scale_included=0
neurons (num_inputs, activation_function, activation_steepness)=(0, 0, 0.00000000000000000000e+00) (0, 0, 0.00000000000000000000e+00) (0, 0, 0.00000000000000000000e+00) (0, 0, 0.00000000000000000000e+00) (0, 0, 0.00000000000000000000e+00) (0, 0, 0.00000000000000000000e+00) (0, 0, 0.00000000000000000000e+00) (0, 0, 0.00000000000000000000e+00) (0, 0, 0.00000000000000000000e+00) (0, 0, 0.00000000000000000000e+00) (0, 0, 0.00000000000000000000e+00) (0, 0, 0.00000000000000000000e+00) (0, 0, 0.00000000000000000000e+00) (0, 0, 0.00000000000000000000e+00) (0, 0, 0.00000000000000000000e+00) (0, 0, 0.00000000000000000000e+00) (0, 0, 0.00000000000000000000e+00) (0, 0, 0.00000000000000000000e+00) (0, 0, 0.00000000000000000000e+00) (0, 0, 0.00000000000000000000e+00) (0, 0, 0.00000000000000000000e+00) (0, 0, 0.00000000000000000000e+00) (0, 0, 0.00000000000000000000e+00) (0, 0, 0.00000000000000000000e+00) (0, 0, 0.00000000000000000000e+00) (0, 0, 0.00000000000000000000e+00) (0, 0, 0.00000000000000000000e+00) (0, 0, 0.00000000000000000000e+00) (0, 0, 0.00000000000000000000e+00) (0, 0, 0.00000000000000000000e+00) (0, 0, 0.00000000000000000000e+00) (31, 4, 5.00000000000000000000e-01) (31, 4, 5.00000000000000000000e-01) (31, 4, 5.00000000000000000000e-01) (31, 4, 5.00000000000000000000e-01) (31, 4, 5.00000000000000000000e-01) (0, 0, 0.00000000000000000000e+00) (6, 4, 2.00000002980232238770e-01) (6, 4, 2.00000002980232238770e-01) (6, 4, 2.00000002980232238770e-01) (6, 4, 2.00000002980232238770e-01) (6, 4, 2.00000002980232238770e-01) (6, 4, 2.00000002980232238770e-01) (6, 4, 2.00000002980232238770e-01) (6, 4, 2.00000002980232238770e-01) (6, 4, 2.00000002980232238770e-01) (6, 4, 2.00000002980232238770e-01) (6, 4, 2.00000002980232238770e-01) (6, 4, 2.00000002980232238770e-01) (6, 4, 2.00000002980232238770e-01) (6, 4, 2.00000002980232238770e-01) (6, 4, 2.00000002980232238770e-01) (6, 4, 2.00000002980232238770e-01) (6, 4, 2.00000002980232238770e-01) (6, 4, 2.00000002980232238770e-01) (6, 4, 2.00000002980232238770e-01) (6, 4, 2.00000002980232238770e-01) (6, 4, 2.00000002980232238770e-01) (6, 4, 2.00000002980232238770e-01) (6, 4, 2.00000002980232238770e-01) (6, 4, 2.00000002980232238770e-01) (6, 4, 2.00000002980232238770e-01) (6, 4, 2.00000002980232238770e-01) (6, 4, 2.00000002980232238770e-01) (6, 4, 2.00000002980232238770e-01) (6, 4, 2.00000002980232238770e-01) (6, 4, 2.00000002980232238770e-01) (6, 4, 2.00000002980232238770e-01) (6, 4, 2.00000002980232238770e-01) (6, 4, 2.00000002980232238770e-01) (6, 4, 2.00000002980232238770e-01) (6, 4, 2.00000002980232238770e-01) (6, 4, 2.00000002980232238770e-01) (6, 4, 2.00000002980232238770e-01) (6, 4, 2.00000002980232238770e-01) (6, 4, 2.00000002980232238770e-01) (6, 4, 2.00000002980232238770e-01) (6, 4, 2.00000002980232238770e-01) (6, 4, 2.00000002980232238770e-01) (6, 4, 2.00000002980232238770e-01) (6, 4, 2.00000002980232238770e-01) (6, 4, 2.00000002980232238770e-01) (6, 4, 2.00000002980232238770e-01) (6, 4, 2.00000002980232238770e-01) (6, 4, 2.00000002980232238770e-01) (6, 4, 2.00000002980232238770e-01) (6, 4, 2.00000002980232238770e-01) (6, 4, 2.00000002980232238770e-01) (6, 4, 2.00000002980232238770e-01) (6, 4, 2.00000002980232238770e-01) (6, 4, 2.00000002980232238770e-01) (0, 0, 2.00000002980232238770e-01) 
connections (connected_to_neuron, weight)=(0, 6.21413803100585937500e+00) (1, -9.90455532073974609375e+00) (2, 1.04708566665649414062e+01) (3, 2.31417388916015625000e+01) (4, -2.38128356933593750000e+01) (5, 3.40935635566711425781e+00) (6, -3.87807583808898925781e+00) (7, 8.28469657897949218750e+00) (8, -1.08420906066894531250e+01) (9, 7.27194261550903320312e+00) (10, -1.04929184913635253906e+00) (11, 1.13209543228149414062e+01) (12, -7.04649066925048828125e+00) (13, 1.04384031295776367188e+01) (14, -3.97722601890563964844e+00) (15, -3.35148096084594726562e+00) (16, 3.17332804203033447266e-01) (17, -3.21717309951782226562e+00) (18, -8.04286956787109375000e+00) (19, 1.04550027847290039062e+01) (20, -1.69031882286071777344e+00) (21, 1.11135416030883789062e+01) (22, -3.50978398323059082031e+00) (23, -1.88403689861297607422e+00) (24, 4.36275911331176757812e+00) (25, -3.34128594398498535156e+00) (26, 1.00881366729736328125e+01) (27, 4.58966398239135742188e+00) (28, 8.54530930519104003906e-01) (29, -8.13847255706787109375e+00) (30, -1.16299142837524414062e+01) (0, 4.19713821411132812500e+01) (1, -1.32781958580017089844e+00) (2, -2.58532924652099609375e+01) (3, 4.21764564514160156250e+00) (4, -3.53823423385620117188e+00) (5, 1.41010494232177734375e+01) (6, -1.20707976818084716797e+00) (7, -5.77750539779663085938e+00) (8, 5.38637351989746093750e+00) (9, -1.81887626647949218750e+01) (10, 2.62914562225341796875e+00) (11, -2.29664754867553710938e+00) (12, 1.81489276885986328125e+00) (13, 4.62901306152343750000e+00) (14, -3.18534302711486816406e+00) (15, 2.60935802459716796875e+01) (16, -1.24768199920654296875e+01) (17, 2.47796392440795898438e+00) (18, -1.39820461273193359375e+01) (19, 5.71874666213989257812e+00) (20, -5.89724445343017578125e+00) (21, 1.36228179931640625000e+01) (22, -5.61958360671997070312e+00) (23, 1.27241086959838867188e+01) (24, -8.80764544010162353516e-01) (25, -1.88168010711669921875e+01) (26, 2.98010945320129394531e+00) (27, 8.21396732330322265625e+00) (28, 6.62191987037658691406e-01) (29, -8.48492431640625000000e+00) (30, 2.18359041213989257812e+00) (0, -3.45671463012695312500e+00) (1, -2.40322856903076171875e+01) (2, -1.90736103057861328125e+01) (3, -2.74046516418457031250e+01) (4, -2.59721717834472656250e+01) (5, -1.26895437240600585938e+01) (6, -1.48131580352783203125e+01) (7, 6.79329528808593750000e+01) (8, -3.82931876182556152344e+00) (9, 5.29397544860839843750e+01) (10, -1.27359523773193359375e+01) (11, 2.44747905731201171875e+01) (12, -3.80080490112304687500e+01) (13, -3.75447130203247070312e+00) (14, 2.08708343505859375000e+01) (15, 2.61133327484130859375e+01) (16, 2.46816768646240234375e+01) (17, -5.23744285106658935547e-01) (18, -3.16132907867431640625e+01) (19, -1.90728206634521484375e+01) (20, 1.74313125610351562500e+01) (21, 7.65674400329589843750e+00) (22, -3.59902610778808593750e+01) (23, -6.28173589706420898438e+00) (24, -4.92262220382690429688e+00) (25, -1.66707134246826171875e+01) (26, -3.08658885955810546875e+01) (27, 9.47877120971679687500e+00) (28, 2.62090797424316406250e+01) (29, 8.26142692565917968750e+00) (30, 1.42079095840454101562e+01) (0, -7.92119789123535156250e+00) (1, -2.73518333435058593750e+01) (2, 5.01973075866699218750e+01) (3, 1.09135217666625976562e+01) (4, -3.34455275535583496094e+00) (5, -7.68927669525146484375e+00) (6, 6.20824432373046875000e+00) (7, 1.29041099548339843750e+01) (8, 1.45039806365966796875e+01) (9, -2.15448493957519531250e+01) (10, 1.19206950068473815918e-01) (11, -1.87742900848388671875e+01) (12, 2.94327616691589355469e+00) (13, 9.48441314697265625000e+00) (14, -3.91977024078369140625e+00) (15, -1.64971244335174560547e+00) (16, -1.80485115051269531250e+01) (17, -9.69578170776367187500e+00) (18, 2.53511981964111328125e+01) (19, 1.85757560729980468750e+01) (20, -2.22218275070190429688e+00) (21, -1.34795274734497070312e+01) (22, -6.21241569519042968750e+00) (23, 5.67140769958496093750e+00) (24, 1.28359375000000000000e+01) (25, -1.42123327255249023438e+01) (26, 7.94963932037353515625e+00) (27, 1.69808006286621093750e+01) (28, -7.20166921615600585938e+00) (29, -6.39199066162109375000e+00) (30, -1.00223655700683593750e+01) (0, 1.71291294097900390625e+01) (1, -3.20716171264648437500e+01) (2, 1.76841716766357421875e+01) (3, 1.75517711639404296875e+01) (4, 5.53412771224975585938e+00) (5, -1.36446475982666015625e+01) (6, -2.02791328430175781250e+01) (7, -1.41866290569305419922e+00) (8, 1.04248886108398437500e+01) (9, -7.51404762268066406250e+00) (10, 1.20429553985595703125e+01) (11, 9.57188892364501953125e+00) (12, -8.32486915588378906250e+00) (13, 1.21928548812866210938e+01) (14, -1.35963153839111328125e+00) (15, 8.88522565364837646484e-01) (16, 4.68988418579101562500e+00) (17, -3.72617077827453613281e+00) (18, 4.10092258453369140625e+00) (19, 2.91790175437927246094e+00) (20, -1.32563438415527343750e+01) (21, 5.33095741271972656250e+00) (22, -8.82130718231201171875e+00) (23, -2.68226718902587890625e+00) (24, 9.99703884124755859375e+00) (25, 1.21795618534088134766e+00) (26, 1.70810585021972656250e+01) (27, -7.20397591590881347656e-01) (28, -1.51055173873901367188e+01) (29, 4.63521718978881835938e+00) (30, -9.84260368347167968750e+00) (31, -4.60129890441894531250e+01) (32, -2.89935302734375000000e+01) (33, -1.43851957321166992188e+01) (34, -1.03968086242675781250e+01) (35, 6.34933948516845703125e+00) (36, 4.63399505615234375000e+01) (31, -4.46968383789062500000e+01) (32, -2.72483634948730468750e+01) (33, -1.44149713516235351562e+01) (34, -1.06922473907470703125e+01) (35, 6.64322710037231445312e+00) (36, 4.44619522094726562500e+01) (31, -4.31514854431152343750e+01) (32, -2.52065734863281250000e+01) (33, -1.45215911865234375000e+01) (34, -1.10161476135253906250e+01) (35, 6.89591503143310546875e+00) (36, 4.23436164855957031250e+01) (31, 7.05259017944335937500e+01) (32, 3.82680892944335937500e+01) (33, -2.58794040679931640625e+01) (34, -6.68527603149414062500e+01) (35, -4.06097221374511718750e+01) (36, -6.26782321929931640625e+00) (31, 6.88330764770507812500e+01) (32, 3.92573432922363281250e+01) (33, -2.78452625274658203125e+01) (34, -6.79874649047851562500e+01) (35, -3.96896057128906250000e+01) (36, -4.78686809539794921875e+00) (31, 6.61137084960937500000e+01) (32, 4.33631553649902343750e+01) (33, -2.68358249664306640625e+01) (34, -6.39234771728515625000e+01) (35, -3.36655235290527343750e+01) (36, -1.10232591629028320312e+01) (31, -4.30113029479980468750e+01) (32, -2.55445594787597656250e+01) (33, -1.02586193084716796875e+01) (34, 7.71260082721710205078e-01) (35, 4.42607736587524414062e+00) (36, 3.87976264953613281250e+01) (31, -3.70795249938964843750e+01) (32, -1.75494213104248046875e+01) (33, 2.64616656303405761719e+00) (34, 1.40056543350219726562e+01) (35, 1.46218624114990234375e+01) (36, 1.45562925338745117188e+01) (31, -3.30619888305664062500e+01) (32, -1.35296592712402343750e+01) (33, -1.38204431533813476562e+00) (34, 8.42654132843017578125e+00) (35, 1.17352247238159179688e+01) (36, 1.50387678146362304688e+01) (31, 2.74647579193115234375e+01) (32, 1.42063570022583007812e+01) (33, 2.33458404541015625000e+01) (34, 1.85595932006835937500e+01) (35, 1.82202816009521484375e+01) (36, -4.48236083984375000000e+01) (31, 2.97668743133544921875e+01) (32, 2.16537742614746093750e+01) (33, 2.81898899078369140625e+01) (34, 2.36013889312744140625e+01) (35, 2.41548576354980468750e+01) (36, -5.80675010681152343750e+01) (31, 3.68217887878417968750e+01) (32, 3.65158195495605468750e+01) (33, 3.08930702209472656250e+01) (34, 2.46633911132812500000e+01) (35, 2.76301555633544921875e+01) (36, -7.65884017944335937500e+01) (31, -1.07573366165161132812e+01) (32, -1.21122760772705078125e+01) (33, -1.37278642654418945312e+01) (34, -1.41475706100463867188e+01) (35, -6.67995691299438476562e+00) (36, 2.95909214019775390625e+01) (31, -1.27798433303833007812e+01) (32, -9.60713768005371093750e+00) (33, -1.36316452026367187500e+01) (34, -1.72940120697021484375e+01) (35, -9.20604944229125976562e-01) (36, 2.89313888549804687500e+01) (31, -1.09470186233520507812e+01) (32, -4.03756237030029296875e+00) (33, -2.00861835479736328125e+01) (34, -1.48666934967041015625e+01) (35, -7.75218868255615234375e+00) (36, 2.51122627258300781250e+01) (31, -9.47170257568359375000e+00) (32, -4.40744495391845703125e+00) (33, 6.14363729953765869141e-01) (34, -1.21733436584472656250e+01) (35, 9.02241611480712890625e+00) (36, 1.08335046768188476562e+01) (31, -6.39638900756835937500e+00) (32, -3.36811614036560058594e+00) (33, -5.17227649688720703125e+00) (34, -7.94711494445800781250e+00) (35, 5.31215095520019531250e+00) (36, 1.00357637405395507812e+01) (31, -4.04567289352416992188e+00) (32, -8.77283275127410888672e-01) (33, -1.45035629272460937500e+01) (34, -1.03858652114868164062e+01) (35, 1.45739746093750000000e+00) (36, 1.16742753982543945312e+01) (31, -2.33576178550720214844e+00) (32, -5.47485113143920898438e+00) (33, -5.76352214813232421875e+00) (34, -5.52338838577270507812e+00) (35, -3.88790702819824218750e+00) (36, 1.02389659881591796875e+01) (31, -4.53129005432128906250e+00) (32, -3.16008472442626953125e+00) (33, -3.21929597854614257812e+00) (34, -7.03431272506713867188e+00) (35, 4.51144409179687500000e+00) (36, 7.37874841690063476562e+00) (31, -1.28695077896118164062e+01) (32, 5.83371305465698242188e+00) (33, -2.52016019821166992188e+00) (34, -9.34969711303710937500e+00) (35, 1.12999954223632812500e+01) (36, 3.26737618446350097656e+00) (31, -8.83695602416992187500e+00) (32, -9.36422348022460937500e+00) (33, -1.16072797775268554688e+01) (34, -1.45865049362182617188e+01) (35, 8.32458674907684326172e-01) (36, 2.44686470031738281250e+01) (31, -4.75407838821411132812e+00) (32, -6.42227029800415039062e+00) (33, -9.86876106262207031250e+00) (34, -1.26801872253417968750e+01) (35, -7.77111828327178955078e-01) (36, 1.70504741668701171875e+01) (31, -1.46419448852539062500e+01) (32, -6.87352299690246582031e-01) (33, -1.74109573364257812500e+01) (34, -2.88954544067382812500e+01) (35, 1.09905147552490234375e+01) (36, 2.50726890563964843750e+01) (31, -2.08105444908142089844e+00) (32, -2.09604763984680175781e+00) (33, -7.00558948516845703125e+00) (34, -4.24147081375122070312e+00) (35, 2.15185537934303283691e-01) (36, 7.92574453353881835938e+00) (31, -7.99086093902587890625e+00) (32, -1.72470843791961669922e+00) (33, -1.00395421981811523438e+01) (34, -1.20177717208862304688e+01) (35, 1.24023771286010742188e+00) (36, 1.54823398590087890625e+01) (31, -1.19273042678833007812e+01) (32, 4.92144060134887695312e+00) (33, -1.29621419906616210938e+01) (34, -1.56636686325073242188e+01) (35, 7.37690687179565429688e+00) (36, 1.30609006881713867188e+01) (31, 1.37987794876098632812e+01) (32, 9.54589366912841796875e+00) (33, 2.31833267211914062500e+01) (34, 2.94265556335449218750e+01) (35, 1.64564533233642578125e+01) (36, -4.04240226745605468750e+01) (31, 1.44885501861572265625e+01) (32, 1.33333835601806640625e+01) (33, 2.37976264953613281250e+01) (34, 3.01634502410888671875e+01) (35, 1.99602355957031250000e+01) (36, -4.53345909118652343750e+01) (31, 1.77120952606201171875e+01) (32, 2.31700000762939453125e+01) (33, 2.73188800811767578125e+01) (34, 3.32782325744628906250e+01) (35, 2.76336460113525390625e+01) (36, -6.01743087768554687500e+01) (31, -4.52916240692138671875e+00) (32, -1.06538228988647460938e+01) (33, -1.10644750595092773438e+01) (34, -1.47447671890258789062e+01) (35, -3.95500802993774414062e+00) (36, 2.04577732086181640625e+01) (31, -2.94942617416381835938e+00) (32, -7.60790014266967773438e+00) (33, -8.51558589935302734375e+00) (34, -1.30750904083251953125e+01) (35, -9.10862207412719726562e-01) (36, 1.43066797256469726562e+01) (31, -1.78266727924346923828e+00) (32, -3.29030418395996093750e+00) (33, -8.16937255859375000000e+00) (34, -1.21084060668945312500e+01) (35, 1.46840178966522216797e+00) (36, 9.22776412963867187500e+00) (31, -2.43859696388244628906e+00) (32, -1.75113081932067871094e+00) (33, -5.44638586044311523438e+00) (34, -1.84264240264892578125e+01) (35, 1.04194278717041015625e+01) (36, 1.23151340484619140625e+01) (31, 5.78564548492431640625e+00) (32, 1.65609228610992431641e+00) (33, -6.75337314605712890625e+00) (34, -1.17202148437500000000e+01) (35, 9.36942756175994873047e-01) (36, 2.18966150283813476562e+00) (31, 4.13416624069213867188e+00) (32, 7.03142309188842773438e+00) (33, -9.95529365539550781250e+00) (34, -1.50877056121826171875e+01) (35, 4.77290391921997070312e+00) (36, 3.26868474483489990234e-01) (31, -1.73518753051757812500e+00) (32, -1.39938192367553710938e+01) (33, -2.34158840179443359375e+01) (34, -2.90884151458740234375e+01) (35, -7.56639289855957031250e+00) (36, 3.93867034912109375000e+01) (31, -3.26626491546630859375e+00) (32, -6.09979343414306640625e+00) (33, -1.44716758728027343750e+01) (34, -2.33516597747802734375e+01) (35, 2.61054229736328125000e+00) (36, 2.47169914245605468750e+01) (31, 5.54333305358886718750e+00) (32, 3.14884161949157714844e+00) (33, -1.65556983947753906250e+01) (34, -1.58263282775878906250e+01) (35, 3.18431258201599121094e+00) (36, 8.11631202697753906250e+00) (31, -4.22280025482177734375e+00) (32, -3.20248395204544067383e-01) (33, -1.80795693397521972656e+00) (34, -2.14467868804931640625e+01) (35, 6.75951147079467773438e+00) (36, 1.27456741333007812500e+01) (31, -9.06455144286155700684e-02) (32, -2.84198403358459472656e+00) (33, -1.27316493988037109375e+01) (34, -2.10337429046630859375e+01) (35, 2.46314048767089843750e+00) (36, 1.84423294067382812500e+01) (31, 5.01148033142089843750e+00) (32, 1.71702206134796142578e+00) (33, -1.73717861175537109375e+01) (34, -1.84096240997314453125e+01) (35, -1.31083524227142333984e+00) (36, 1.21567363739013671875e+01) (31, 5.50619411468505859375e+00) (32, -1.08301627635955810547e+00) (33, -3.66587758064270019531e+00) (34, -8.07304859161376953125e+00) (35, -4.22365713119506835938e+00) (36, 4.27853393554687500000e+00) (31, 2.50226402282714843750e+00) (32, 3.77600669860839843750e-01) (33, -5.19036722183227539062e+00) (34, -1.23753976821899414062e+01) (35, 2.70718455314636230469e+00) (36, 6.17160224914550781250e+00) (31, -5.49477052688598632812e+00) (32, 9.92635726928710937500e+00) (33, -3.82929086685180664062e+00) (34, -1.35976696014404296875e+01) (35, 7.49466466903686523438e+00) (36, 1.07889020442962646484e+00) (31, 2.28935503959655761719e+00) (32, -5.70010566711425781250e+00) (33, -1.43101987838745117188e+01) (34, -2.20208950042724609375e+01) (35, -6.36856794357299804688e-01) (36, 2.18033657073974609375e+01) (31, 5.88013982772827148438e+00) (32, -2.17026233673095703125e+00) (33, -1.09311437606811523438e+01) (34, -1.81187496185302734375e+01) (35, -1.80840933322906494141e+00) (36, 1.20999059677124023438e+01) (31, -5.85126495361328125000e+00) (32, 1.15218172073364257812e+01) (33, -1.69072189331054687500e+01) (34, -3.02339153289794921875e+01) (35, 8.60011672973632812500e+00) (36, 1.23304290771484375000e+01) (31, 9.02379226684570312500e+00) (32, 8.26364517211914062500e-01) (33, -1.13150939941406250000e+01) (34, -1.42084932327270507812e+01) (35, 1.78348690271377563477e-01) (36, 7.29977130889892578125e+00) (31, 2.57604908943176269531e+00) (32, 1.61866307258605957031e+00) (33, -1.24989652633666992188e+01) (34, -2.08213958740234375000e+01) (35, -2.84589022397994995117e-01) (36, 1.40228099822998046875e+01) (31, -6.73221111297607421875e+00) (32, 1.08523588180541992188e+01) (33, -1.64804916381835937500e+01) (34, -2.70188636779785156250e+01) (35, 8.59153842926025390625e+00) (36, 1.29644765853881835938e+01) (31, 2.74585475921630859375e+01) (32, 1.41925191879272460938e+01) (33, 2.33206462860107421875e+01) (34, 1.85342903137207031250e+01) (35, 1.82106304168701171875e+01) (36, -4.47831420898437500000e+01) (31, 2.97638912200927734375e+01) (32, 2.16448688507080078125e+01) (33, 2.81665992736816406250e+01) (34, 2.35770492553710937500e+01) (35, 2.41418056488037109375e+01) (36, -5.80332717895507812500e+01) (31, 3.68152427673339843750e+01) (32, 3.65125617980957031250e+01) (33, 3.08931217193603515625e+01) (34, 2.46667003631591796875e+01) (35, 2.76294651031494140625e+01) (36, -7.65839843750000000000e+01) 
