FANN_FLO_2.1
num_layers=3
learning_rate=0.700000
connection_rate=1.000000
network_type=0
learning_momentum=0.000000
training_algorithm=2
train_error_function=1
train_stop_function=0
cascade_output_change_fraction=0.010000
quickprop_decay=-0.000100
quickprop_mu=1.750000
rprop_increase_factor=1.200000
rprop_decrease_factor=0.500000
rprop_delta_min=0.000000
rprop_delta_max=50.000000
rprop_delta_zero=0.100000
cascade_output_stagnation_epochs=12
cascade_candidate_change_fraction=0.010000
cascade_candidate_stagnation_epochs=12
cascade_max_out_epochs=150
cascade_min_out_epochs=50
cascade_max_cand_epochs=150
cascade_min_cand_epochs=50
cascade_num_candidate_groups=2
bit_fail_limit=3.49999994039535522461e-01
cascade_candidate_limit=1.00000000000000000000e+03
cascade_weight_multiplier=4.00000005960464477539e-01
cascade_activation_functions_count=10
cascade_activation_functions=3 5 7 8 10 11 14 15 16 17 
cascade_activation_steepnesses_count=4
cascade_activation_steepnesses=2.50000000000000000000e-01 5.00000000000000000000e-01 7.50000000000000000000e-01 1.00000000000000000000e+00 
layer_sizes=55 33 31 
scale_included=0
neurons (num_inputs, activation_function, activation_steepness)=(0, 0, 0.00000000000000000000e+00) (0, 0, 0.00000000000000000000e+00) (0, 0, 0.00000000000000000000e+00) (0, 0, 0.00000000000000000000e+00) (0, 0, 0.00000000000000000000e+00) (0, 0, 0.00000000000000000000e+00) (0, 0, 0.00000000000000000000e+00) (0, 0, 0.00000000000000000000e+00) (0, 0, 0.00000000000000000000e+00) (0, 0, 0.00000000000000000000e+00) (0, 0, 0.00000000000000000000e+00) (0, 0, 0.00000000000000000000e+00) (0, 0, 0.00000000000000000000e+00) (0, 0, 0.00000000000000000000e+00) (0, 0, 0.00000000000000000000e+00) (0, 0, 0.00000000000000000000e+00) (0, 0, 0.00000000000000000000e+00) (0, 0, 0.00000000000000000000e+00) (0, 0, 0.00000000000000000000e+00) (0, 0, 0.00000000000000000000e+00) (0, 0, 0.00000000000000000000e+00) (0, 0, 0.00000000000000000000e+00) (0, 0, 0.00000000000000000000e+00) (0, 0, 0.00000000000000000000e+00) (0, 0, 0.00000000000000000000e+00) (0, 0, 0.00000000000000000000e+00) (0, 0, 0.00000000000000000000e+00) (0, 0, 0.00000000000000000000e+00) (0, 0, 0.00000000000000000000e+00) (0, 0, 0.00000000000000000000e+00) (0, 0, 0.00000000000000000000e+00) (0, 0, 0.00000000000000000000e+00) (0, 0, 0.00000000000000000000e+00) (0, 0, 0.00000000000000000000e+00) (0, 0, 0.00000000000000000000e+00) (0, 0, 0.00000000000000000000e+00) (0, 0, 0.00000000000000000000e+00) (0, 0, 0.00000000000000000000e+00) (0, 0, 0.00000000000000000000e+00) (0, 0, 0.00000000000000000000e+00) (0, 0, 0.00000000000000000000e+00) (0, 0, 0.00000000000000000000e+00) (0, 0, 0.00000000000000000000e+00) (0, 0, 0.00000000000000000000e+00) (0, 0, 0.00000000000000000000e+00) (0, 0, 0.00000000000000000000e+00) (0, 0, 0.00000000000000000000e+00) (0, 0, 0.00000000000000000000e+00) (0, 0, 0.00000000000000000000e+00) (0, 0, 0.00000000000000000000e+00) (0, 0, 0.00000000000000000000e+00) (0, 0, 0.00000000000000000000e+00) (0, 0, 0.00000000000000000000e+00) (0, 0, 0.00000000000000000000e+00) (0, 0, 0.00000000000000000000e+00) (55, 4, 5.00000000000000000000e-01) (55, 4, 5.00000000000000000000e-01) (55, 4, 5.00000000000000000000e-01) (55, 4, 5.00000000000000000000e-01) (55, 4, 5.00000000000000000000e-01) (55, 4, 5.00000000000000000000e-01) (55, 4, 5.00000000000000000000e-01) (55, 4, 5.00000000000000000000e-01) (55, 4, 5.00000000000000000000e-01) (55, 4, 5.00000000000000000000e-01) (55, 4, 5.00000000000000000000e-01) (55, 4, 5.00000000000000000000e-01) (55, 4, 5.00000000000000000000e-01) (55, 4, 5.00000000000000000000e-01) (55, 4, 5.00000000000000000000e-01) (55, 4, 5.00000000000000000000e-01) (55, 4, 5.00000000000000000000e-01) (55, 4, 5.00000000000000000000e-01) (55, 4, 5.00000000000000000000e-01) (55, 4, 5.00000000000000000000e-01) (55, 4, 5.00000000000000000000e-01) (55, 4, 5.00000000000000000000e-01) (55, 4, 5.00000000000000000000e-01) (55, 4, 5.00000000000000000000e-01) (55, 4, 5.00000000000000000000e-01) (55, 4, 5.00000000000000000000e-01) (55, 4, 5.00000000000000000000e-01) (55, 4, 5.00000000000000000000e-01) (55, 4, 5.00000000000000000000e-01) (55, 4, 5.00000000000000000000e-01) (55, 4, 5.00000000000000000000e-01) (55, 4, 5.00000000000000000000e-01) (0, 0, 0.00000000000000000000e+00) (33, 4, 2.19999998807907104492e-01) (33, 4, 2.19999998807907104492e-01) (33, 4, 2.19999998807907104492e-01) (33, 4, 2.19999998807907104492e-01) (33, 4, 2.19999998807907104492e-01) (33, 4, 2.19999998807907104492e-01) (33, 4, 2.19999998807907104492e-01) (33, 4, 2.19999998807907104492e-01) (33, 4, 2.19999998807907104492e-01) (33, 4, 2.19999998807907104492e-01) (33, 4, 2.19999998807907104492e-01) (33, 4, 2.19999998807907104492e-01) (33, 4, 2.19999998807907104492e-01) (33, 4, 2.19999998807907104492e-01) (33, 4, 2.19999998807907104492e-01) (33, 4, 2.19999998807907104492e-01) (33, 4, 2.19999998807907104492e-01) (33, 4, 2.19999998807907104492e-01) (33, 4, 2.19999998807907104492e-01) (33, 4, 2.19999998807907104492e-01) (33, 4, 2.19999998807907104492e-01) (33, 4, 2.19999998807907104492e-01) (33, 4, 2.19999998807907104492e-01) (33, 4, 2.19999998807907104492e-01) (33, 4, 2.19999998807907104492e-01) (33, 4, 2.19999998807907104492e-01) (33, 4, 2.19999998807907104492e-01) (33, 4, 2.19999998807907104492e-01) (33, 4, 2.19999998807907104492e-01) (33, 4, 2.19999998807907104492e-01) (0, 0, 2.19999998807907104492e-01) 
connections (connected_to_neuron, weight)=(0, -7.53231823444366455078e-01) (1, 1.03764027357101440430e-01) (2, 6.69579803943634033203e-01) (3, -1.07992362976074218750e+00) (4, 1.31252273917198181152e-01) (5, 1.03119626641273498535e-01) (6, 3.79903292655944824219e+00) (7, -1.53790247440338134766e+00) (8, 2.17079594731330871582e-01) (9, 3.13495956361293792725e-02) (10, 1.62136003375053405762e-01) (11, 1.26175180077552795410e-01) (12, -2.30700746178627014160e-01) (13, 1.24405100941658020020e-01) (14, 1.27240419387817382812e+00) (15, 4.34658169746398925781e-01) (16, 6.16853311657905578613e-03) (17, -3.81243276596069335938e+00) (18, -2.72756361961364746094e+00) (19, 1.81174680590629577637e-01) (20, -3.87331336736679077148e-01) (21, -1.58268418163061141968e-02) (22, -9.27622616291046142578e-01) (23, 9.06141921877861022949e-02) (24, 5.33358119428157806396e-02) (25, -4.01303231716156005859e-01) (26, 7.10585936903953552246e-02) (27, 1.64588183164596557617e-01) (28, 2.23061829805374145508e-01) (29, 7.38788023591041564941e-02) (30, -6.24469161033630371094e-01) (31, -2.21587657928466796875e+00) (32, 1.47998011112213134766e+00) (33, -9.91213917732238769531e-02) (34, 2.64164757728576660156e+00) (35, 1.65610790252685546875e-01) (36, -1.08849859237670898438e+00) (37, -6.52518197894096374512e-02) (38, 1.42341807484626770020e-01) (39, -1.15961575508117675781e+00) (40, -5.62692731618881225586e-02) (41, -1.94737643003463745117e-01) (42, -6.73942506313323974609e-01) (43, -1.04767121374607086182e-01) (44, -3.24452489614486694336e-01) (45, 2.60011237114667892456e-02) (46, -1.15895576775074005127e-01) (47, -7.66424536705017089844e-02) (48, 1.41651168465614318848e-01) (49, 9.11223068833351135254e-02) (50, 6.31544440984725952148e-02) (51, 1.26972824335098266602e-01) (52, 2.36895337700843811035e-01) (53, 2.56503790616989135742e-01) (54, 1.49929538369178771973e-01) (0, 1.25208765268325805664e-01) (1, 1.04521012306213378906e+00) (2, 1.21674907207489013672e+00) (3, 3.34762409329414367676e-02) (4, -3.53200018405914306641e-01) (5, -1.42961427569389343262e-01) (6, -3.10970306396484375000e+00) (7, 6.50786209106445312500e+00) (8, -9.15982246398925781250e-01) (9, 7.56672956049442291260e-03) (10, 1.10162667930126190186e-01) (11, 6.17898106575012207031e-02) (12, 4.25751924514770507812e-01) (13, 2.28120133280754089355e-01) (14, -3.19142913818359375000e+00) (15, 1.07837587594985961914e-01) (16, 1.14768713712692260742e-01) (17, -4.52418178319931030273e-02) (18, 4.56650674343109130859e-01) (19, 1.17808155715465545654e-01) (20, -7.98711538314819335938e-01) (21, 1.84570655226707458496e-01) (22, 8.51958841085433959961e-02) (23, 2.01740503311157226562e-01) (24, 5.66170930862426757812e-01) (25, 1.09038934111595153809e-01) (26, 1.62263631820678710938e-01) (27, -9.12220701575279235840e-02) (28, -2.06206878647208213806e-03) (29, -3.72300922870635986328e-01) (30, 2.91188597679138183594e-01) (31, 2.52984732389450073242e-01) (32, 3.18609550595283508301e-02) (33, 2.80012011528015136719e-01) (34, -8.42959225177764892578e-01) (35, 5.67068941891193389893e-02) (36, 1.83611199259757995605e-01) (37, 2.25256457924842834473e-02) (38, 1.82074844837188720703e+00) (39, 1.76496610045433044434e-01) (40, 6.75281062722206115723e-02) (41, 1.86403334140777587891e-01) (42, 9.34868901968002319336e-02) (43, 1.71927645802497863770e-01) (44, -9.16915014386177062988e-02) (45, 5.80030567944049835205e-02) (46, -2.18783065676689147949e-01) (47, 1.02403424680233001709e-01) (48, 9.51500311493873596191e-02) (49, 1.96726694703102111816e-01) (50, 1.06559552252292633057e-01) (51, 1.77437767386436462402e-01) (52, -5.75603395700454711914e-02) (53, 1.10854664817452430725e-02) (54, -9.49999511241912841797e-01) (0, -2.85245209932327270508e-01) (1, -1.02170431613922119141e+00) (2, -1.08763504028320312500e+00) (3, 4.55309897661209106445e-02) (4, 2.04249694943428039551e-02) (5, 1.55867159366607666016e-01) (6, 8.22362601757049560547e-01) (7, -1.71447587013244628906e+00) (8, -6.27176910638809204102e-02) (9, 2.72352974861860275269e-02) (10, -7.36347585916519165039e-02) (11, -1.06743546202778816223e-02) (12, -3.33680897951126098633e-01) (13, 4.40765358507633209229e-03) (14, 1.76201626658439636230e-01) (15, -1.28168808296322822571e-02) (16, -8.45879539847373962402e-02) (17, -1.80396363139152526855e-02) (18, -1.89053416252136230469e+00) (19, 1.42724752426147460938e-01) (20, 7.34832435846328735352e-02) (21, -3.22720527648925781250e-01) (22, -3.01940962672233581543e-02) (23, 8.88879299163818359375e-02) (24, -3.47678996622562408447e-02) (25, -4.28399965167045593262e-02) (26, 3.82453724741935729980e-02) (27, -5.04530295729637145996e-02) (28, -2.54175588488578796387e-02) (29, 3.26593108475208282471e-02) (30, -9.21791940927505493164e-02) (31, -6.26419901847839355469e-01) (32, -6.80311843752861022949e-02) (33, -9.68191921710968017578e-02) (34, 2.03134156763553619385e-02) (35, 5.06889447569847106934e-02) (36, 4.17346600443124771118e-03) (37, -2.88147423416376113892e-02) (38, -2.04821228981018066406e-01) (39, 4.97863404452800750732e-02) (40, 1.14000581204891204834e-01) (41, 4.60093282163143157959e-02) (42, -7.84311294555664062500e-02) (43, -1.83601845055818557739e-02) (44, 7.07035064697265625000e-02) (45, -8.30741450190544128418e-02) (46, 3.07422447949647903442e-02) (47, -9.22632217407226562500e-02) (48, 5.74204400181770324707e-02) (49, 9.10415351390838623047e-02) (50, -1.42515897750854492188e-01) (51, -2.20289197750389575958e-03) (52, 1.36913862079381942749e-02) (53, -1.81958302855491638184e-02) (54, -1.97133310139179229736e-02) (0, -9.94387626647949218750e+00) (1, 9.09379482269287109375e+00) (2, 9.63079929351806640625e+00) (3, 4.84597712755203247070e-01) (4, 4.04754489660263061523e-01) (5, 4.53928619623184204102e-01) (6, 7.83044815063476562500e+00) (7, 5.15961547851562500000e+02) (8, 3.91838520765304565430e-01) (9, 6.68456137180328369141e-01) (10, 5.14640688896179199219e-01) (11, 9.83050584793090820312e-01) (12, 2.25212402343750000000e+01) (13, 1.70199894905090332031e+00) (14, 3.69562953710556030273e-01) (15, -1.22034169733524322510e-01) (16, 4.57537984848022460938e+00) (17, 3.79915740966796875000e+02) (18, 2.95599150657653808594e+00) (19, 1.37062883377075195312e+00) (20, 3.91351729631423950195e-01) (21, 3.32242736816406250000e+01) (22, 1.36243581771850585938e+00) (23, 6.04179687500000000000e+01) (24, 4.55994720458984375000e+01) (25, 5.11869468688964843750e+01) (26, 6.97365474700927734375e+00) (27, 2.53237509727478027344e+00) (28, 2.81140232086181640625e+00) (29, 9.80994892120361328125e+00) (30, 9.34857940673828125000e+00) (31, 2.98887424468994140625e+01) (32, 6.20776081085205078125e+00) (33, 6.80929077148437500000e+02) (34, 1.17078408598899841309e-01) (35, 1.42301082611083984375e-01) (36, 5.29663622379302978516e-01) (37, 6.04018986225128173828e-01) (38, 1.50000000000000000000e+03) (39, 3.04550290107727050781e+00) (40, 3.21747636795043945312e+00) (41, 1.50000000000000000000e+03) (42, 3.39960266113281250000e+02) (43, 5.18846094608306884766e-01) (44, 6.07805788516998291016e-01) (45, 5.80272912979125976562e-01) (46, 9.93804872035980224609e-01) (47, 5.34195840358734130859e-01) (48, 4.23395723104476928711e-01) (49, 4.41268384456634521484e-01) (50, 1.29871234893798828125e+01) (51, 5.69314360618591308594e-01) (52, 5.65248191356658935547e-01) (53, 9.54927623271942138672e-01) (54, 5.02334773540496826172e-01) (0, -4.90441657602787017822e-02) (1, -1.54541196823120117188e+01) (2, -1.64271700382232666016e+00) (3, -1.19515694677829742432e-01) (4, 4.88878749310970306396e-02) (5, 2.23223164677619934082e-01) (6, 2.52940440177917480469e+00) (7, 7.60191202163696289062e-01) (8, -1.06425940990447998047e+00) (9, -3.31073030829429626465e-02) (10, 3.75756211578845977783e-02) (11, 6.92250877618789672852e-02) (12, -1.42108649015426635742e-01) (13, 6.04450143873691558838e-02) (14, 3.58296751976013183594e+00) (15, -1.45853012800216674805e-01) (16, -2.95425981283187866211e-01) (17, 2.32378631830215454102e-01) (18, 3.51291149854660034180e-02) (19, -2.26064994931221008301e-02) (20, -2.22461628913879394531e+00) (21, -7.16131478548049926758e-02) (22, 4.94577698409557342529e-02) (23, 1.75887390971183776855e-01) (24, 1.01528549194335937500e+00) (25, 1.17742285132408142090e-01) (26, -3.72019201517105102539e-01) (27, -1.37135162949562072754e-02) (28, -6.15814551711082458496e-02) (29, -9.14615839719772338867e-02) (30, -9.71818625926971435547e-01) (31, -2.29809626936912536621e-01) (32, -6.31789490580558776855e-02) (33, -1.47646069526672363281e-01) (34, 1.16740167140960693359e+00) (35, 4.31949138641357421875e+00) (36, -1.62327587604522705078e-02) (37, 4.23671677708625793457e-02) (38, 1.46240103244781494141e+00) (39, 5.32052293419837951660e-02) (40, 3.88368666172027587891e-02) (41, 6.48806214332580566406e-01) (42, 9.28027749061584472656e-01) (43, 2.34470307826995849609e-01) (44, -1.41771420836448669434e-01) (45, -1.34754866361618041992e-01) (46, 4.19626682996749877930e-01) (47, -6.67807221412658691406e-01) (48, 1.44543260335922241211e-01) (49, -4.74953874945640563965e-02) (50, -5.82900619506835937500e+00) (51, -6.13340223208069801331e-03) (52, 2.55880821496248245239e-02) (53, -1.49474004283547401428e-02) (54, -1.92612543702125549316e-01) (0, 1.70814454555511474609e-01) (1, -1.28831791877746582031e+00) (2, -2.09735465049743652344e+00) (3, 5.52142858505249023438e-01) (4, 2.40125626325607299805e-01) (5, 1.21279824525117874146e-02) (6, 4.94534254074096679688e-01) (7, -3.59447807073593139648e-01) (8, -8.70612561702728271484e-01) (9, -4.88679483532905578613e-02) (10, -1.20359502732753753662e-01) (11, -2.11485788226127624512e-01) (12, -8.96787166595458984375e-01) (13, 4.50316220521926879883e-02) (14, 1.17585673928260803223e-01) (15, 1.19368171691894531250e+00) (16, 1.99288763105869293213e-02) (17, 3.87192606925964355469e+00) (18, -2.53823256492614746094e+00) (19, -7.33463559299707412720e-03) (20, -2.96774566173553466797e-01) (21, -3.70339304208755493164e-01) (22, -3.72784957289695739746e-02) (23, -7.87108421325683593750e-01) (24, 1.11864721775054931641e+00) (25, -2.66724824905395507812e-03) (26, 5.41272878646850585938e-01) (27, -1.84412449598312377930e-02) (28, -8.86538550257682800293e-02) (29, 5.98182640969753265381e-02) (30, 6.12574160099029541016e-01) (31, 6.70202635228633880615e-03) (32, -8.82059261202812194824e-02) (33, -7.78378725051879882812e-01) (34, 2.84537412226200103760e-02) (35, 4.32248651981353759766e-01) (36, -1.19218088686466217041e-01) (37, -3.42622250318527221680e-02) (38, -9.02481451630592346191e-02) (39, 2.36672133207321166992e-01) (40, 2.38974578678607940674e-02) (41, -1.18748642504215240479e-01) (42, -1.90734155476093292236e-02) (43, -6.50066882371902465820e-02) (44, -5.79061627388000488281e-01) (45, -1.01688385009765625000e-01) (46, -9.24212485551834106445e-02) (47, -1.26648259162902832031e+00) (48, 2.16316874139010906219e-03) (49, -5.52374683320522308350e-02) (50, -1.14420704543590545654e-01) (51, -5.81237114965915679932e-02) (52, 4.12459764629602432251e-03) (53, -2.00511068105697631836e-01) (54, 1.79014861583709716797e-01) (0, -1.05516716003417968750e+02) (1, 7.54439258575439453125e+00) (2, 9.38247966766357421875e+00) (3, 6.03182435035705566406e-01) (4, 4.27987992763519287109e-01) (5, 4.63965743780136108398e-01) (6, 4.27267599105834960938e+00) (7, 4.31596488952636718750e+01) (8, 2.87616801261901855469e+00) (9, 4.51865136623382568359e-01) (10, 5.18986046314239501953e-01) (11, 1.49883341789245605469e+00) (12, 5.95840835571289062500e+00) (13, 2.16650700569152832031e+00) (14, 6.88276052474975585938e-01) (15, 3.77447009086608886719e-01) (16, 4.47590541839599609375e+00) (17, 3.16736847162246704102e-01) (18, 2.69818365573883056641e-01) (19, -1.92776656150817871094e+00) (20, 5.03818750381469726562e-01) (21, 6.64806747436523437500e+00) (22, 7.79010415077209472656e-01) (23, 2.91464324951171875000e+02) (24, 1.06513404846191406250e+01) (25, 9.31066589355468750000e+01) (26, 7.58077716827392578125e+00) (27, 2.37152147293090820312e+00) (28, 2.57527112960815429688e+00) (29, 4.93451642990112304688e+00) (30, 8.49433839321136474609e-01) (31, 2.62759852409362792969e+00) (32, 3.72326946258544921875e+00) (33, 7.14499755859375000000e+02) (34, 6.03549242019653320312e-01) (35, 6.85038864612579345703e-01) (36, 5.54036319255828857422e-01) (37, 6.31493389606475830078e-01) (38, 1.04891967773437500000e+03) (39, 7.65996754169464111328e-01) (40, 1.52850353717803955078e+00) (41, 1.50000000000000000000e+03) (42, 1.14413793945312500000e+03) (43, 7.84445345401763916016e-01) (44, 6.67028903961181640625e-01) (45, 8.50009858608245849609e-01) (46, 8.49987149238586425781e-01) (47, 1.39804267883300781250e+00) (48, 4.90130573511123657227e-01) (49, 5.57378172874450683594e-01) (50, 1.29389678955078125000e+02) (51, 4.67563271522521972656e-01) (52, 5.46389281749725341797e-01) (53, 1.47382378578186035156e+00) (54, 5.04785060882568359375e-01) (0, 1.02986669540405273438e+00) (1, -6.18906617164611816406e-01) (2, -2.74416089057922363281e-01) (3, -9.40674066543579101562e-01) (4, 5.12778200209140777588e-02) (5, -4.42046336829662322998e-02) (6, 4.76077751955017447472e-04) (7, -2.52328455448150634766e-01) (8, -2.04195201396942138672e-01) (9, 4.77769225835800170898e-02) (10, 7.73984715342521667480e-02) (11, 1.18199363350868225098e-01) (12, -5.05852878093719482422e-01) (13, -9.89175774157047271729e-03) (14, 1.65576541423797607422e+00) (15, -4.75016683340072631836e-02) (16, -7.52462297677993774414e-02) (17, -1.97274554520845413208e-02) (18, -5.30317246913909912109e-01) (19, -5.87694607675075531006e-02) (20, -8.49591344594955444336e-02) (21, -2.42929592728614807129e-01) (22, 9.46476906538009643555e-02) (23, -9.43302288651466369629e-02) (24, -6.47783502936363220215e-02) (25, -5.39436191320419311523e-02) (26, -1.03873275220394134521e-01) (27, 1.20168991386890411377e-01) (28, 3.58449555933475494385e-02) (29, 7.54763111472129821777e-02) (30, -1.05929121375083923340e-01) (31, -5.54000520706176757812e+00) (32, -3.01170088350772857666e-02) (33, -1.03397525846958160400e-01) (34, 2.73333168029785156250e+00) (35, 9.49066936969757080078e-01) (36, -1.44358314573764801025e-02) (37, -5.32513335347175598145e-02) (38, -6.96418285369873046875e-02) (39, 2.63202283531427383423e-02) (40, 8.65768343210220336914e-02) (41, 2.99309551715850830078e-01) (42, -9.02954190969467163086e-02) (43, -6.93746432662010192871e-02) (44, -1.17274902760982513428e-01) (45, -9.03765782713890075684e-02) (46, -7.28397304192185401917e-03) (47, -6.71609222888946533203e-01) (48, 1.15665838122367858887e-01) (49, 6.42272680997848510742e-02) (50, -3.91760736703872680664e-01) (51, 3.71273234486579895020e-02) (52, 1.09202444553375244141e-01) (53, 3.00030615180730819702e-02) (54, 1.38873398303985595703e-01) (0, -5.41519165039062500000e+00) (1, 5.97278690338134765625e+00) (2, -6.49352669715881347656e-01) (3, 5.94600141048431396484e-01) (4, 4.48380634188652038574e-02) (5, 1.59232890605926513672e+00) (6, -3.32802534103393554688e+00) (7, 3.81502270698547363281e-01) (8, -4.20345544815063476562e+00) (9, 4.40597265958786010742e-01) (10, -7.30626881122589111328e-02) (11, 4.34465825557708740234e-01) (12, 4.07236486673355102539e-01) (13, 4.22227144241333007812e-01) (14, -3.69409233331680297852e-01) (15, 9.63717043399810791016e-01) (16, 5.68164028227329254150e-02) (17, -1.43728822469711303711e-01) (18, 3.93586516380310058594e-01) (19, 3.94468277692794799805e-01) (20, 7.31520652770996093750e-02) (21, 5.02500474452972412109e-01) (22, -3.32019627094268798828e-02) (23, -8.68846848607063293457e-03) (24, 9.53698456287384033203e-01) (25, 4.06050264835357666016e-01) (26, -1.04797613620758056641e+00) (27, -2.21912562847137451172e-01) (28, 5.42285919189453125000e-01) (29, 1.27763772010803222656e+00) (30, 2.67153650522232055664e-01) (31, 2.26720005273818969727e-01) (32, -6.64312904700636863708e-03) (33, 6.95868194103240966797e-01) (34, -4.98679310083389282227e-01) (35, -2.25367784500122070312e-01) (36, -5.03699243068695068359e-01) (37, -4.31607127189636230469e-01) (38, 1.00968696177005767822e-01) (39, 5.43073145672678947449e-03) (40, -2.94559657573699951172e-01) (41, -9.04560238122940063477e-02) (42, 6.10816888511180877686e-02) (43, -1.33867217227816581726e-02) (44, -3.37188184261322021484e-01) (45, -1.39292940497398376465e-01) (46, -5.71771085262298583984e-01) (47, -1.71191871166229248047e-01) (48, -7.64855623245239257812e-01) (49, -3.77716213464736938477e-01) (50, 5.89597702026367187500e-01) (51, 3.75157684087753295898e-01) (52, -3.72949838638305664062e-02) (53, 3.96105974912643432617e-01) (54, -1.05787605047225952148e-01) (0, -7.77928054332733154297e-01) (1, -8.03023815155029296875e-01) (2, -1.54238677024841308594e+00) (3, 5.04575390368700027466e-03) (4, 1.14324472844600677490e-01) (5, 2.59864318650215864182e-04) (6, -1.21459707617759704590e-01) (7, -2.36408874392509460449e-01) (8, -8.61730892211198806763e-03) (9, -5.42182214558124542236e-02) (10, 4.48287725448608398438e-02) (11, -3.57932038605213165283e-02) (12, 2.14802169799804687500e+00) (13, 6.04150071740150451660e-03) (14, 3.98200893402099609375e+00) (15, 1.01055733859539031982e-01) (16, -9.75991934537887573242e-02) (17, -2.40835130214691162109e-01) (18, -2.68859314918518066406e+00) (19, -1.21449105441570281982e-01) (20, -5.20357526838779449463e-02) (21, 3.23394566774368286133e-01) (22, -3.70737281627953052521e-03) (23, -6.12851321697235107422e-01) (24, -1.48723900318145751953e-01) (25, -1.86903253197669982910e-01) (26, -3.48964035511016845703e-01) (27, 4.14569348096847534180e-01) (28, 8.41668322682380676270e-02) (29, 9.53372657299041748047e-01) (30, -3.73143851757049560547e-02) (31, -1.75010636448860168457e-01) (32, -1.10404677689075469971e-01) (33, -1.14229947328567504883e-01) (34, -1.02178983390331268311e-01) (35, -1.12973757088184356689e-01) (36, 1.15804392844438552856e-02) (37, -1.57306957989931106567e-02) (38, 7.24119544029235839844e-02) (39, 1.75936639308929443359e-01) (40, 1.97238195687532424927e-02) (41, -4.96059097349643707275e-02) (42, -5.18121384084224700928e-02) (43, 7.89713114500045776367e-03) (44, 4.20315526425838470459e-02) (45, -4.01413030922412872314e-02) (46, 7.61575589422136545181e-04) (47, -2.93597936630249023438e+00) (48, -7.75570794939994812012e-02) (49, -3.36210988461971282959e-02) (50, -1.62695735692977905273e-01) (51, -3.10733565129339694977e-03) (52, 3.67096289992332458496e-02) (53, -2.56535522639751434326e-02) (54, 5.75307197868824005127e-02) (0, 1.02975833415985107422e+00) (1, -4.43582713603973388672e-01) (2, -4.02536183595657348633e-01) (3, 1.18348792195320129395e-01) (4, -4.58528660237789154053e-02) (5, -1.69542655348777770996e-02) (6, -8.20811331272125244141e-01) (7, -1.26842260360717773438e+00) (8, -3.81111472845077514648e-01) (9, 8.01608264446258544922e-02) (10, 3.03065385669469833374e-02) (11, -7.33155086636543273926e-02) (12, -9.91254925727844238281e-01) (13, 7.72618651390075683594e-02) (14, 1.38912260532379150391e-01) (15, -6.41299551352858543396e-03) (16, -1.44469112157821655273e-01) (17, 1.99840664863586425781e-01) (18, -5.88935494422912597656e-01) (19, -1.52855694293975830078e-01) (20, 7.35921263694763183594e-01) (21, -1.28364577889442443848e-01) (22, -7.39748999476432800293e-02) (23, -1.54728159308433532715e-01) (24, -6.93584755063056945801e-02) (25, -3.66214178502559661865e-02) (26, -1.74495697021484375000e-01) (27, -2.78558041900396347046e-02) (28, 5.39292842149734497070e-02) (29, 8.93108695745468139648e-02) (30, 5.94898283481597900391e-01) (31, -1.32736995816230773926e-01) (32, -4.98831003904342651367e-01) (33, -9.31517302989959716797e-01) (34, 1.17831341922283172607e-02) (35, 1.63621997833251953125e+00) (36, -1.72652497887611389160e-01) (37, -1.24090813100337982178e-01) (38, -8.02975654602050781250e-01) (39, 3.32728698849678039551e-02) (40, 5.68738877773284912109e-02) (41, -1.41149234771728515625e+00) (42, -9.08791199326515197754e-02) (43, -2.81036198139190673828e-02) (44, -6.65467381477355957031e-02) (45, -1.74543447792530059814e-02) (46, -3.92358601093292236328e-02) (47, 4.03632998466491699219e-01) (48, 6.58108651638031005859e-01) (49, 2.51733418554067611694e-02) (50, -2.66246616840362548828e-01) (51, 4.46003824472427368164e-02) (52, -1.28814904019236564636e-02) (53, -2.52239257097244262695e-02) (54, 2.16753974556922912598e-01) (0, -5.95917642116546630859e-01) (1, -2.45335012674331665039e-01) (2, -5.68264782428741455078e-01) (3, 4.13075834512710571289e-02) (4, -1.32824197411537170410e-01) (5, -1.15418657660484313965e-01) (6, -3.51309871673583984375e+00) (7, -6.78779542446136474609e-01) (8, -2.54660892486572265625e+00) (9, 1.68658301234245300293e-01) (10, 2.19490766525268554688e-01) (11, 4.44589972496032714844e-01) (12, 5.65623998641967773438e-01) (13, 3.40045064687728881836e-01) (14, 2.31632858514785766602e-01) (15, 1.50069057941436767578e-01) (16, 6.65214285254478454590e-02) (17, -5.12962388992309570312e+00) (18, 6.14118874073028564453e-01) (19, 4.18478995561599731445e-01) (20, -6.22742056846618652344e-01) (21, 9.21394169330596923828e-01) (22, 2.80090481042861938477e-01) (23, 1.90551805496215820312e+00) (24, 2.70301485061645507812e+00) (25, 5.91619372367858886719e-01) (26, 1.12468707561492919922e+00) (27, 1.69512510299682617188e-01) (28, 5.06592333316802978516e-01) (29, 7.14855670928955078125e-01) (30, 1.15449011325836181641e+00) (31, 2.71199047565460205078e-01) (32, 1.97406977415084838867e-01) (33, 5.36016047000885009766e-01) (34, -3.23767614364624023438e+00) (35, -1.22252416610717773438e+00) (36, 5.59102632105350494385e-02) (37, -2.43566557765007019043e-01) (38, -2.12571120262145996094e+00) (39, 5.38529455661773681641e-02) (40, 1.77953034639358520508e-01) (41, -3.71739953756332397461e-01) (42, 4.73199099302291870117e-01) (43, 2.10507631301879882812e-01) (44, -1.11594140529632568359e+00) (45, 7.08754807710647583008e-02) (46, -1.70194759964942932129e-01) (47, 1.60197004675865173340e-01) (48, -8.34429919719696044922e-01) (49, -2.38239094614982604980e-01) (50, 3.16013172268867492676e-02) (51, 8.56914147734642028809e-02) (52, 1.86948731541633605957e-01) (53, 4.50508266687393188477e-01) (54, -2.54905247688293457031e+00) (0, -6.56287848949432373047e-01) (1, -1.39937967061996459961e-01) (2, 8.00006762146949768066e-02) (3, 5.78800976276397705078e-01) (4, 7.11549282073974609375e-01) (5, 1.32032608985900878906e+00) (6, -6.55287075042724609375e+00) (7, -4.48966652154922485352e-01) (8, -4.08161277770996093750e+01) (9, 4.68550562858581542969e-01) (10, 3.90978485345840454102e-01) (11, 4.17611479759216308594e-01) (12, 2.65229165554046630859e-01) (13, 2.72872090339660644531e-01) (14, -5.61094999313354492188e-01) (15, 2.02250197529792785645e-01) (16, -1.61777269095182418823e-02) (17, -3.64197194576263427734e-01) (18, 6.48419260978698730469e-01) (19, 2.91526526212692260742e-01) (20, -6.92928016185760498047e-01) (21, 1.73794217407703399658e-02) (22, 6.13463036715984344482e-02) (23, -3.99121761322021484375e-01) (24, 1.02341616153717041016e+00) (25, 2.82696366310119628906e-01) (26, 1.81346416473388671875e+00) (27, 1.17467367649078369141e+00) (28, 1.29680359363555908203e+00) (29, 5.12146759033203125000e+00) (30, 2.58032858371734619141e-01) (31, -9.14553776383399963379e-02) (32, -7.01110959053039550781e-01) (33, 3.29188466072082519531e-01) (34, -1.90146848559379577637e-01) (35, -5.56474566459655761719e-01) (36, -8.18954035639762878418e-02) (37, 2.89599955081939697266e-01) (38, -3.68634152412414550781e+00) (39, 2.25300908088684082031e-01) (40, 3.19943726062774658203e-01) (41, 1.13457307219505310059e-01) (42, 4.69253242015838623047e-01) (43, 2.40884155035018920898e-01) (44, -7.70784199237823486328e-01) (45, 1.49529680609703063965e-01) (46, -6.02950632572174072266e-01) (47, -8.89995515346527099609e-01) (48, 2.33037203550338745117e-01) (49, 2.28775113821029663086e-01) (50, -4.98307049274444580078e-01) (51, 3.35617482662200927734e-01) (52, 4.09083187580108642578e-01) (53, 3.87410759925842285156e-01) (54, 7.89098143577575683594e-02) (0, -5.46356868743896484375e+00) (1, 5.65941333770751953125e-01) (2, 6.16163730621337890625e-01) (3, 7.28936135768890380859e-01) (4, 3.28957647085189819336e-01) (5, 7.92354345321655273438e-01) (6, 4.53259833157062530518e-02) (7, 1.58609077334403991699e-01) (8, -5.27647912502288818359e-01) (9, -3.39799420908093452454e-03) (10, 1.48418560624122619629e-01) (11, 2.69800513982772827148e-01) (12, 2.89303600788116455078e-01) (13, 2.34616786241531372070e-01) (14, -2.54079014062881469727e-01) (15, 1.30404561758041381836e-01) (16, 4.27357666194438934326e-02) (17, 1.19598783552646636963e-01) (18, 1.73468247056007385254e-01) (19, 2.94051289558410644531e-01) (20, -5.85450649261474609375e-01) (21, 2.65841126441955566406e-01) (22, -4.18803542852401733398e-02) (23, 1.02636396884918212891e-01) (24, 7.57385045289993286133e-02) (25, 1.46740898489952087402e-01) (26, 4.98481020331382751465e-02) (27, 5.80518364906311035156e-01) (28, 5.67347049713134765625e-01) (29, 2.53976583480834960938e-01) (30, -2.31214724481105804443e-02) (31, 1.67473722249269485474e-02) (32, 2.19261422753334045410e-02) (33, 2.13646702468395233154e-02) (34, -7.20945775508880615234e-01) (35, -2.78488099575042724609e-01) (36, -2.14629750698804855347e-02) (37, -7.81713724136352539062e-02) (38, 2.22280770540237426758e-01) (39, -1.31566319614648818970e-02) (40, -1.52740851044654846191e-02) (41, 6.66514277458190917969e-01) (42, -1.43999531865119934082e-01) (43, -1.10699057579040527344e-01) (44, -2.37430501729249954224e-02) (45, -1.12601079046726226807e-01) (46, -5.89846372604370117188e-01) (47, -1.82777658104896545410e-01) (48, -5.51308631896972656250e-01) (49, -6.93866014480590820312e-02) (50, 3.53316813707351684570e-01) (51, -5.01998662948608398438e-02) (52, 6.00426234304904937744e-02) (53, 2.70064324140548706055e-01) (54, -2.16184318065643310547e-01) (0, -4.35154080390930175781e-01) (1, 1.08071398735046386719e+00) (2, 1.12316346168518066406e+00) (3, 2.67700344324111938477e-01) (4, -1.22365963459014892578e+00) (5, -6.18636965751647949219e-01) (6, -2.26312756538391113281e-01) (7, 7.05979019403457641602e-02) (8, -9.75309073925018310547e-01) (9, 2.59976387023925781250e-01) (10, 4.19246315956115722656e-01) (11, 3.61146956682205200195e-01) (12, 4.82932478189468383789e-01) (13, 1.23606748878955841064e-01) (14, -1.73830962181091308594e+00) (15, -1.70524275302886962891e+00) (16, 1.88582316040992736816e-01) (17, -4.82421338558197021484e-01) (18, 3.80759209394454956055e-01) (19, 1.55537486076354980469e-01) (20, -3.51014900207519531250e+00) (21, 4.78785783052444458008e-01) (22, 1.90634116530418395996e-01) (23, 9.99485373497009277344e-01) (24, 9.69516873359680175781e-01) (25, 4.32926177978515625000e-01) (26, 4.64174538850784301758e-01) (27, 7.17711210250854492188e-01) (28, 5.66098511219024658203e-01) (29, 1.11350369453430175781e+00) (30, 4.66742098331451416016e-01) (31, 2.02088400721549987793e-01) (32, 1.17268657684326171875e+00) (33, 2.79090374708175659180e-01) (34, -1.30661144852638244629e-01) (35, 5.29343605041503906250e-01) (36, -4.22187119722366333008e-01) (37, -1.78711876273155212402e-01) (38, 5.76631985604763031006e-02) (39, -1.52908235788345336914e-01) (40, -1.33745476603507995605e-01) (41, 1.17565408349037170410e-01) (42, 5.05439639091491699219e-01) (43, 2.36992493271827697754e-01) (44, -4.90663677453994750977e-01) (45, -2.16347277164459228516e-01) (46, -4.33641612529754638672e-01) (47, -2.90448337793350219727e-01) (48, -1.54160931706428527832e-01) (49, -4.09295946359634399414e-01) (50, 2.27592773735523223877e-02) (51, 3.36110889911651611328e-01) (52, 2.97845721244812011719e-01) (53, 4.60144966840744018555e-01) (54, -8.11833918094635009766e-01) (0, 1.48941665887832641602e-01) (1, -3.74013137817382812500e+00) (2, -2.90694022178649902344e+00) (3, -1.11192300915718078613e-01) (4, 8.98024812340736389160e-02) (5, 4.13609594106674194336e-02) (6, 6.31899547576904296875e+00) (7, -1.68861418962478637695e-01) (8, 5.17839431762695312500e-01) (9, -7.66886547207832336426e-02) (10, 1.21804609894752502441e-01) (11, 4.09784346818923950195e-01) (12, -5.52589952945709228516e-01) (13, 1.36691546440124511719e+00) (14, -1.95360612124204635620e-02) (15, 7.42611944675445556641e-01) (16, 4.79972641915082931519e-03) (17, -1.36817798018455505371e-01) (18, -6.59049332141876220703e-01) (19, 2.79503524303436279297e-01) (20, 2.90383044630289077759e-02) (21, -3.11151832342147827148e-01) (22, 1.91022139042615890503e-02) (23, -3.34677882492542266846e-02) (24, 1.72785058617591857910e-01) (25, 1.35245621204376220703e-01) (26, 2.59583806991577148438e+00) (27, -2.07038208842277526855e-01) (28, -1.21034542098641395569e-02) (29, -4.96100807189941406250e+00) (30, -1.67538797855377197266e+00) (31, -1.25455129146575927734e+00) (32, -5.07092595100402832031e-01) (33, -4.79636490345001220703e-02) (34, -2.49520223587751388550e-03) (35, 1.26830250024795532227e-01) (36, -2.11431220173835754395e-01) (37, -6.62280321121215820312e-02) (38, -1.50184214115142822266e-01) (39, 4.00359332561492919922e-02) (40, -1.10686020925641059875e-02) (41, -2.29404121637344360352e-01) (42, -3.06480452418327331543e-02) (43, 8.19006562232971191406e-02) (44, 2.36889277584850788116e-03) (45, 3.61094214022159576416e-02) (46, -3.46543602645397186279e-02) (47, -5.23844175040721893311e-02) (48, 3.92292648553848266602e-01) (49, 5.73255121707916259766e-02) (50, -1.23030483722686767578e+00) (51, -1.69197674840688705444e-02) (52, 1.66312247514724731445e-01) (53, 3.66293728351593017578e-01) (54, 5.68753220140933990479e-02) (0, -3.99819999933242797852e-01) (1, -1.62524908781051635742e-01) (2, 3.21474480628967285156e+00) (3, 2.70235866308212280273e-01) (4, 2.76878297328948974609e-01) (5, 8.38089525699615478516e-01) (6, -4.84169751405715942383e-01) (7, -2.32529610395431518555e-01) (8, -4.03708600997924804688e+00) (9, 1.72521501779556274414e-01) (10, 2.33233451843261718750e-01) (11, 3.93193393945693969727e-01) (12, 3.09421032667160034180e-01) (13, 3.27283710241317749023e-01) (14, -2.29853793978691101074e-01) (15, 6.19593441486358642578e-01) (16, 1.93946495652198791504e-01) (17, 1.47651338577270507812e+00) (18, 2.23601773381233215332e-01) (19, 3.47079515457153320312e-01) (20, -2.64041442424058914185e-02) (21, 1.77466869354248046875e-01) (22, -3.17577481269836425781e+00) (23, 1.18710985407233238220e-02) (24, 3.99511724710464477539e-01) (25, 2.22428828477859497070e-01) (26, 2.23716184496879577637e-01) (27, 6.02522134780883789062e-01) (28, 6.46921277046203613281e-01) (29, 1.24171793460845947266e+00) (30, -3.68004381656646728516e-01) (31, 2.16212701052427291870e-02) (32, -1.24966371059417724609e+00) (33, 1.23709766194224357605e-02) (34, -1.29660502076148986816e-01) (35, 1.31427541375160217285e-01) (36, 9.45116803050041198730e-02) (37, -1.14718735218048095703e-01) (38, 1.09695971012115478516e+00) (39, 3.78247469663619995117e-01) (40, 2.12398201227188110352e-01) (41, 1.57322078943252563477e-01) (42, 2.43935003876686096191e-01) (43, 3.37118715047836303711e-01) (44, -3.74989509582519531250e-02) (45, -1.96931436657905578613e-01) (46, -2.68577337265014648438e+00) (47, -4.50382232666015625000e-02) (48, -4.60755646228790283203e-01) (49, -1.75564780831336975098e-01) (50, -3.00595968961715698242e-01) (51, 2.08157952874898910522e-02) (52, 2.27839604020118713379e-01) (53, 4.40517783164978027344e-01) (54, -1.77778351306915283203e+00) (0, 1.95972180366516113281e+00) (1, 9.21303689479827880859e-01) (2, 7.47064769268035888672e-01) (3, 2.86826435476541519165e-02) (4, 5.04706203937530517578e-02) (5, -1.67929083108901977539e-01) (6, 9.33018505573272705078e-01) (7, -9.93191540241241455078e-01) (8, -6.63025736808776855469e-01) (9, 1.09877131879329681396e-01) (10, 3.05836260318756103516e-01) (11, -5.35301715135574340820e-02) (12, 5.50167635083198547363e-02) (13, 4.17388856410980224609e-01) (14, -4.18502002954483032227e-01) (15, 6.53600739315152168274e-03) (16, -2.95724809169769287109e-01) (17, 5.75650215148925781250e-01) (18, -3.09361200779676437378e-02) (19, -2.20774471759796142578e-01) (20, 3.12016215175390243530e-02) (21, -6.13749884068965911865e-02) (22, 9.11126315593719482422e-01) (23, -4.72786664962768554688e-01) (24, 5.80352321267127990723e-02) (25, 3.12261860817670822144e-02) (26, -3.26485097408294677734e-01) (27, 4.07896816730499267578e-01) (28, -3.40488366782665252686e-02) (29, -8.51125363260507583618e-03) (30, -6.13834857940673828125e-02) (31, -2.37741097807884216309e-01) (32, -1.59619855880737304688e+00) (33, -3.14297914505004882812e-01) (34, 7.35393226146697998047e-01) (35, 1.32438600063323974609e-01) (36, 2.06997513771057128906e-01) (37, -6.86223655939102172852e-02) (38, -1.09159789979457855225e-01) (39, 9.39952582120895385742e-02) (40, 1.15292973816394805908e-01) (41, -8.72130021452903747559e-02) (42, -6.70196652412414550781e-01) (43, -3.99409085512161254883e-02) (44, -4.31508600711822509766e-01) (45, 2.72294338792562484741e-02) (46, 2.97352254390716552734e-01) (47, -1.05715727806091308594e+00) (48, 1.00078970193862915039e-01) (49, -5.98387345671653747559e-02) (50, -1.07010793685913085938e+00) (51, 9.88929495215415954590e-02) (52, 3.03423911333084106445e-01) (53, -7.77095034718513488770e-02) (54, 1.53571724891662597656e-01) (0, -1.31619048118591308594e+00) (1, -4.30962181091308593750e+00) (2, -6.16095685958862304688e+00) (3, 7.79355168342590332031e-02) (4, 6.46389782428741455078e-01) (5, 1.17904506623744964600e-01) (6, 6.26797378063201904297e-02) (7, -8.21274816989898681641e-01) (8, 7.47407913208007812500e-01) (9, -1.22928641736507415771e-01) (10, 1.39477159827947616577e-02) (11, -7.35673680901527404785e-02) (12, -1.43395945429801940918e-01) (13, -1.47541701793670654297e-01) (14, 9.28822994232177734375e-01) (15, -7.06318989396095275879e-02) (16, -1.08055613934993743896e-01) (17, -3.49630340933799743652e-02) (18, 2.26738825440406799316e-02) (19, -2.16862447559833526611e-02) (20, 8.42638611793518066406e-01) (21, -5.37143051624298095703e-01) (22, -8.31235796213150024414e-02) (23, 3.35045456886291503906e-02) (24, -3.76754403114318847656e-01) (25, -1.14149793982505798340e-01) (26, -3.02077108062803745270e-03) (27, -1.06082014739513397217e-01) (28, -1.30505040287971496582e-01) (29, -1.73252880573272705078e-01) (30, -4.93328906595706939697e-02) (31, -1.37198373675346374512e-01) (32, -7.54171088337898254395e-02) (33, -4.53099086880683898926e-02) (34, -7.85231962800025939941e-03) (35, -4.55576092004776000977e-01) (36, -1.53609395027160644531e-01) (37, 5.24706067517399787903e-03) (38, -1.74643069505691528320e-01) (39, -3.51297222077846527100e-02) (40, -1.56005322933197021484e-01) (41, -1.13085672259330749512e-01) (42, -1.93341493606567382812e-01) (43, -7.61793181300163269043e-03) (44, -7.49285966157913208008e-02) (45, -6.12628273665904998779e-02) (46, -8.19231942296028137207e-02) (47, 1.99816837906837463379e-01) (48, -4.13872674107551574707e-02) (49, -9.23968777060508728027e-02) (50, -5.50156384706497192383e-02) (51, -1.67830940335988998413e-02) (52, 1.75281725823879241943e-02) (53, -8.97016599774360656738e-02) (54, 1.01832151412963867188e+00) (0, 1.18773305416107177734e+00) (1, 4.52276587486267089844e-01) (2, 3.29048961400985717773e-01) (3, 1.26965325325727462769e-02) (4, -4.66118045151233673096e-02) (5, 5.84613420069217681885e-02) (6, 1.51125776767730712891e+00) (7, -5.75599551200866699219e-01) (8, -2.54589505493640899658e-02) (9, 8.56564790010452270508e-02) (10, -5.53422756493091583252e-02) (11, 2.10509821772575378418e-01) (12, -3.11087161302566528320e-01) (13, 1.32026165723800659180e-01) (14, 2.52277946472167968750e+00) (15, 6.14010989665985107422e-02) (16, -3.90583872795104980469e-01) (17, -1.53252029418945312500e+00) (18, -1.75376570224761962891e+00) (19, -2.89477616548538208008e-01) (20, -1.47304773330688476562e-01) (21, -1.21276579797267913818e-01) (22, -1.14695914089679718018e-01) (23, -6.58899471163749694824e-02) (24, -1.14184647798538208008e-01) (25, -1.17313181981444358826e-02) (26, -1.10233381390571594238e-01) (27, 1.88190355896949768066e-01) (28, 7.97836929559707641602e-02) (29, -3.86741128750145435333e-03) (30, -5.88687695562839508057e-02) (31, -7.62408897280693054199e-02) (32, -7.94257223606109619141e-02) (33, -1.33092356845736503601e-02) (34, -8.21468904614448547363e-02) (35, -7.75714516639709472656e-02) (36, -9.23857539892196655273e-02) (37, 1.04337751865386962891e-01) (38, -1.23434007167816162109e-01) (39, -2.81866975128650665283e-02) (40, 7.96936303377151489258e-02) (41, -2.55913287401199340820e-03) (42, -2.76754833757877349854e-02) (43, 7.76448845863342285156e-02) (44, 6.08085095882415771484e-03) (45, 8.71041938662528991699e-02) (46, 2.21147127449512481689e-02) (47, 9.28891939111053943634e-04) (48, 8.46634730696678161621e-02) (49, 2.20874659717082977295e-02) (50, -2.45621040463447570801e-01) (51, -2.65355650335550308228e-02) (52, -1.00015392526984214783e-02) (53, 3.17851871252059936523e-01) (54, 6.63709565997123718262e-02) (0, 1.38036024570465087891e+00) (1, 2.83791035413742065430e-01) (2, 2.42623835802078247070e-01) (3, 1.35767562314867973328e-02) (4, 2.50866264104843139648e-01) (5, 1.48846566677093505859e-01) (6, 4.46238088607788085938e+00) (7, -2.90105485916137695312e+00) (8, -7.02292144298553466797e-01) (9, -5.92735297977924346924e-02) (10, -9.69812348484992980957e-02) (11, -4.21000309288501739502e-02) (12, -1.54305839538574218750e+00) (13, 7.42491185665130615234e-02) (14, 7.16060459613800048828e-01) (15, 2.23092961311340332031e+00) (16, 5.33244051039218902588e-02) (17, -1.11830666661262512207e-01) (18, -2.66196298599243164062e+00) (19, 2.19617271423339843750e+00) (20, -2.15708822011947631836e-01) (21, -3.30338269472122192383e-01) (22, -3.56279872357845306396e-02) (23, 7.35050812363624572754e-02) (24, 6.99582621455192565918e-02) (25, 6.93726688623428344727e-02) (26, 2.94847607612609863281e-01) (27, -6.82037174701690673828e-02) (28, -9.35580506920814514160e-02) (29, -4.50248681008815765381e-02) (30, -2.33209431171417236328e-01) (31, -9.76262986660003662109e-03) (32, 6.21983334422111511230e-02) (33, -2.75552868843078613281e-02) (34, 1.59241974353790283203e-01) (35, 6.62825331091880798340e-02) (36, -9.26120221614837646484e-01) (37, 7.46829435229301452637e-02) (38, 7.76843428611755371094e-02) (39, 6.73253417015075683594e-01) (40, -1.99664197862148284912e-02) (41, -1.93390846252441406250e-01) (42, -8.71605500578880310059e-02) (43, 3.87075245380401611328e-02) (44, -4.88360673189163208008e-01) (45, 5.26256486773490905762e-02) (46, -2.21694797277450561523e-01) (47, -3.76657135784626007080e-02) (48, 3.85849707527086138725e-04) (49, -7.83323496580123901367e-02) (50, -6.20481491088867187500e-01) (51, 7.37705919891595840454e-03) (52, -5.92974200844764709473e-02) (53, -2.35697757452726364136e-02) (54, 2.80547887086868286133e-02) (0, -1.61915290355682373047e+00) (1, -1.83602666854858398438e+00) (2, -1.47634851932525634766e+00) (3, -3.69407460093498229980e-02) (4, 1.20974071323871612549e-01) (5, 2.81017087399959564209e-03) (6, 2.72274327278137207031e+00) (7, -6.98604509234428405762e-02) (8, -4.69131246209144592285e-02) (9, 8.17040428519248962402e-02) (10, 2.70527228713035583496e-02) (11, -5.81697970628738403320e-02) (12, 7.25730419158935546875e-01) (13, 4.42476868629455566406e-02) (14, 1.95224270224571228027e-01) (15, -1.46043635904788970947e-02) (16, -4.51837293803691864014e-02) (17, 5.38258850574493408203e-01) (18, 1.56178820133209228516e+00) (19, -4.66351062059402465820e-02) (20, 5.53969666361808776855e-03) (21, -2.29662477970123291016e-01) (22, -4.50149774551391601562e-02) (23, -8.82003828883171081543e-02) (24, -2.32191272079944610596e-02) (25, -1.21176220476627349854e-01) (26, -1.68536320328712463379e-01) (27, -7.81043767929077148438e-02) (28, 6.64056241512298583984e-02) (29, -7.48401926830410957336e-03) (30, 3.91076914966106414795e-02) (31, -1.36846363544464111328e-01) (32, -5.18709123134613037109e-02) (33, -2.27598473429679870605e-01) (34, 6.88898041844367980957e-02) (35, -1.34260073304176330566e-01) (36, -1.34194910526275634766e-01) (37, -9.28604081273078918457e-02) (38, -2.10265502333641052246e-01) (39, -1.09209604561328887939e-01) (40, -9.32029932737350463867e-02) (41, 1.17763243615627288818e-01) (42, -1.43054202198982238770e-01) (43, 5.57132512331008911133e-02) (44, -1.29304751753807067871e-01) (45, 9.46470815688371658325e-03) (46, -8.71038064360618591309e-02) (47, -3.44627797603607177734e-01) (48, 5.88397011160850524902e-02) (49, -8.03334265947341918945e-02) (50, -2.67377823591232299805e-01) (51, 2.38736458122730255127e-02) (52, -7.70333632826805114746e-02) (53, -1.80370867252349853516e-01) (54, 1.25514852697961032391e-05) (0, -3.91996073722839355469e+00) (1, 5.92144548892974853516e-01) (2, 5.82208633422851562500e-01) (3, 1.80323451757431030273e-01) (4, 3.91046851873397827148e-01) (5, 3.77071619033813476562e-01) (6, -8.89542177319526672363e-02) (7, 1.89407855272293090820e-01) (8, -2.81163215637207031250e+00) (9, 3.54126721620559692383e-01) (10, 1.18809983134269714355e-01) (11, 4.05209511518478393555e-01) (12, 2.63387292623519897461e-01) (13, 8.70576128363609313965e-02) (14, -1.06976494193077087402e-01) (15, -4.16433751583099365234e-01) (16, 9.76036563515663146973e-02) (17, -1.50318220257759094238e-01) (18, 1.91360339522361755371e-01) (19, 6.73924013972282409668e-02) (20, 6.99698505923151969910e-03) (21, 3.87256562709808349609e-01) (22, -4.81427051126956939697e-02) (23, 3.05730074644088745117e-01) (24, 6.07589602470397949219e-01) (25, 1.16860695183277130127e-01) (26, 2.08264496177434921265e-02) (27, 9.72209423780441284180e-02) (28, 6.48865580558776855469e-01) (29, 4.84346657991409301758e-01) (30, 1.08855798840522766113e-01) (31, 1.93535480648279190063e-02) (32, -6.18274360895156860352e-02) (33, 2.07507777214050292969e+00) (34, -4.97285962104797363281e-01) (35, -2.58600026369094848633e-01) (36, -2.32272565364837646484e-01) (37, -1.29174545407295227051e-01) (38, -4.06320281326770782471e-02) (39, -7.68873989582061767578e-02) (40, 2.80337408185005187988e-02) (41, 2.53422528505325317383e-01) (42, 3.28812189400196075439e-02) (43, -2.95306704938411712646e-02) (44, -4.88121211528778076172e-02) (45, -8.47865492105484008789e-02) (46, -7.56335258483886718750e-01) (47, -8.94458368420600891113e-02) (48, -1.83127892017364501953e+00) (49, -9.24854353070259094238e-02) (50, 2.33119800686836242676e-01) (51, 3.34374308586120605469e-01) (52, 1.10893450677394866943e-01) (53, 4.56253796815872192383e-01) (54, -4.67487037181854248047e-01) (0, -1.03844642639160156250e+00) (1, -9.58465099334716796875e-01) (2, -8.37679207324981689453e-01) (3, -9.65290963649749755859e-01) (4, 7.94489160180091857910e-02) (5, 2.93025281280279159546e-02) (6, 1.91493058204650878906e+00) (7, -2.14834868907928466797e-01) (8, -8.79318863153457641602e-02) (9, -6.01259358227252960205e-02) (10, -4.65863086283206939697e-02) (11, -3.25031802058219909668e-02) (12, -1.27965137362480163574e-01) (13, 1.12758055329322814941e-01) (14, 2.79706501960754394531e+00) (15, 3.63234072923660278320e-01) (16, -1.53443124145269393921e-02) (17, -6.93082988262176513672e-01) (18, -2.52587413787841796875e+00) (19, 1.67678281664848327637e-01) (20, 5.50401285290718078613e-02) (21, -1.08885921537876129150e-01) (22, -5.60568012297153472900e-02) (23, 1.43879926204681396484e+00) (24, -1.38028964400291442871e-01) (25, 3.10385730117559432983e-02) (26, -1.05596698820590972900e-01) (27, -3.73133420944213867188e-02) (28, -4.44635413587093353271e-02) (29, -4.83613684773445129395e-02) (30, 3.09197163581848144531e+00) (31, -1.23390495777130126953e-01) (32, 2.58002392947673797607e-02) (33, -8.83507542312145233154e-03) (34, -6.96982592344284057617e-02) (35, -3.59084677696228027344e+00) (36, -1.58998861908912658691e-01) (37, -2.16285269707441329956e-02) (38, -4.50107812881469726562e+00) (39, 3.78544926643371582031e-02) (40, 2.74690330028533935547e-01) (41, 5.26313185691833496094e-01) (42, -1.26226559281349182129e-01) (43, 7.99823552370071411133e-02) (44, -1.65742542594671249390e-02) (45, 7.01740831136703491211e-02) (46, 7.01927319169044494629e-02) (47, 7.51288086175918579102e-02) (48, 9.24797169864177703857e-03) (49, 8.75391811132431030273e-02) (50, -8.90921801328659057617e-02) (51, -7.65127614140510559082e-02) (52, 1.58500075340270996094e-02) (53, -4.33955043554306030273e-02) (54, 2.07232758402824401855e-02) (0, -2.10889339447021484375e+00) (1, -1.73215603828430175781e+00) (2, -1.48941183090209960938e+00) (3, 3.47406342625617980957e-02) (4, 6.93586468696594238281e-01) (5, 4.99085664749145507812e-01) (6, -1.21132388710975646973e-01) (7, -2.40614801645278930664e-01) (8, 9.32692512869834899902e-02) (9, -9.46632325649261474609e-02) (10, -2.32132095843553543091e-02) (11, 2.63059642165899276733e-02) (12, -1.05430163443088531494e-01) (13, -3.66901047527790069580e-02) (14, 1.12215787172317504883e-01) (15, 1.14079587161540985107e-01) (16, -1.28583414480090141296e-02) (17, 4.57633942365646362305e-01) (18, -4.22139376401901245117e-01) (19, -4.32219579815864562988e-02) (20, 4.58606094121932983398e-01) (21, -2.14349165558815002441e-01) (22, -7.74824470281600952148e-02) (23, -3.10594707727432250977e-01) (24, -3.71483832597732543945e-01) (25, -1.10975526273250579834e-01) (26, -2.68437974154949188232e-02) (27, -1.92901622503995895386e-02) (28, 8.35434591863304376602e-04) (29, -6.15534782409667968750e-02) (30, -1.66406661272048950195e-01) (31, -1.47593647241592407227e-01) (32, 1.33366854861378669739e-02) (33, -3.02112847566604614258e-03) (34, 4.39015403389930725098e-02) (35, -3.03619243204593658447e-02) (36, 3.12039908021688461304e-02) (37, 6.43398538231849670410e-02) (38, -1.79067105054855346680e-02) (39, -6.49589002132415771484e-02) (40, -1.04620844125747680664e-01) (41, 3.97623097524046897888e-03) (42, -8.60701382160186767578e-01) (43, -5.33760115504264831543e-02) (44, -4.67449863208457827568e-04) (45, -9.52363982796669006348e-02) (46, -1.95723548531532287598e-02) (47, -2.60027438402175903320e-01) (48, 3.01980935037136077881e-02) (49, 9.64888185262680053711e-02) (50, -1.21003249660134315491e-02) (51, -9.12087485194206237793e-02) (52, 7.90543034672737121582e-02) (53, -6.01841956377029418945e-02) (54, 2.04155921936035156250e-01) (0, -1.43769979476928710938e+00) (1, -1.47571313381195068359e+00) (2, -1.51707664132118225098e-01) (3, 2.79419720172882080078e-02) (4, 9.42956954240798950195e-02) (5, 3.86152006685733795166e-02) (6, 1.03823125362396240234e+00) (7, -2.17010885477066040039e-01) (8, -1.20519280433654785156e-01) (9, -3.42876017093658447266e-02) (10, -3.80369052290916442871e-02) (11, 2.02425718307495117188e-02) (12, -2.43286654353141784668e-01) (13, 1.88954025506973266602e-01) (14, 3.62144291400909423828e-01) (15, 4.10533428192138671875e-01) (16, -1.02846547961235046387e-01) (17, 4.08288389444351196289e-01) (18, -2.05304861068725585938e+00) (19, 3.24431061744689941406e-01) (20, -1.71066835522651672363e-01) (21, -5.29017508029937744141e-01) (22, -1.00639328360557556152e-01) (23, -9.29432734847068786621e-02) (24, -1.36673167347908020020e-01) (25, -1.43604157492518424988e-02) (26, -2.75171622633934020996e-02) (27, 2.66091898083686828613e-02) (28, -1.73773374408483505249e-02) (29, -1.54741540551185607910e-01) (30, -9.78383584879338741302e-04) (31, -1.40231445431709289551e-01) (32, 3.23304459452629089355e-02) (33, -6.84452950954437255859e-02) (34, 1.94594487547874450684e-01) (35, 7.18669146299362182617e-02) (36, 1.99384000152349472046e-02) (37, 6.51099756360054016113e-02) (38, -7.08193629980087280273e-02) (39, 7.09420219063758850098e-02) (40, 2.49899867922067642212e-02) (41, 6.51390910148620605469e-01) (42, -9.73371788859367370605e-02) (43, -3.96995358169078826904e-02) (44, -1.74505382776260375977e-01) (45, -3.55758033692836761475e-02) (46, 1.67919650673866271973e-01) (47, -8.06942656636238098145e-02) (48, 4.72723841667175292969e-01) (49, 2.98702605068683624268e-02) (50, -2.05429625511169433594e+00) (51, -2.21733488142490386963e-02) (52, 4.03287224471569061279e-02) (53, 2.22169179469347000122e-02) (54, 1.67395561933517456055e-01) (0, -1.90654909610748291016e+00) (1, 1.97573137283325195312e+00) (2, 2.08839416503906250000e+00) (3, -3.48203092813491821289e-01) (4, -5.75804233551025390625e-01) (5, -4.51860994100570678711e-01) (6, 8.55894386768341064453e-01) (7, 4.84715080261230468750e+00) (8, 4.44967031478881835938e+00) (9, -4.95275929570198059082e-02) (10, -1.08786754310131072998e-01) (11, -1.38167947530746459961e-01) (12, -3.94664928317070007324e-02) (13, -5.18787503242492675781e-02) (14, 5.73504976928234100342e-02) (15, -2.40883684158325195312e+00) (16, 1.11319106072187423706e-02) (17, 3.75595033168792724609e-01) (18, -8.05699050426483154297e-01) (19, 1.64440833032131195068e-02) (20, -2.70276349037885665894e-02) (21, -2.95398652553558349609e-01) (22, -1.99456393718719482422e-01) (23, -5.64520396292209625244e-02) (24, 6.94328472018241882324e-02) (25, -6.11864440143108367920e-02) (26, -1.50487599894404411316e-02) (27, -3.61229926347732543945e-02) (28, 1.60594433546066284180e-01) (29, 5.15805602073669433594e-01) (30, -1.08241605758666992188e+00) (31, -1.43733370304107666016e+00) (32, -2.47272825241088867188e+00) (33, 1.00069925189018249512e-01) (34, 2.22659185528755187988e-01) (35, 4.66854184865951538086e-01) (36, -2.72650092840194702148e-01) (37, -2.74873338639736175537e-02) (38, 5.59280216693878173828e-01) (39, -1.05814412236213684082e-01) (40, -1.52362296357750892639e-02) (41, 5.26112914085388183594e-01) (42, -8.89764875173568725586e-02) (43, 8.31360965967178344727e-02) (44, 5.13395145535469055176e-02) (45, -1.63654431700706481934e-01) (46, -2.63950562477111816406e+00) (47, -6.73757120966911315918e-02) (48, -7.19209387898445129395e-02) (49, 2.70388033241033554077e-02) (50, 9.90150496363639831543e-02) (51, -1.75092473626136779785e-01) (52, -1.59737393260002136230e-01) (53, -1.01956874132156372070e-01) (54, -2.39702835679054260254e-01) (0, -3.95118975639343261719e+00) (1, 7.70997667312622070312e+00) (2, 9.50369834899902343750e+00) (3, 6.12854063510894775391e-01) (4, 6.26159191131591796875e-01) (5, 5.90514719486236572266e-01) (6, 1.64729824066162109375e+01) (7, 2.45047760009765625000e+02) (8, 3.75902700424194335938e+00) (9, 6.61210060119628906250e-01) (10, 6.82926058769226074219e-01) (11, 8.10137927532196044922e-01) (12, 2.04807257652282714844e+00) (13, 1.47731328010559082031e+00) (14, 4.19414728879928588867e-01) (15, 2.33100026845932006836e-01) (16, 2.26939749717712402344e+00) (17, 1.20991110801696777344e+00) (18, 1.01537799835205078125e+00) (19, 9.72812831401824951172e-01) (20, 2.63833642005920410156e-01) (21, 6.44506263732910156250e+00) (22, 5.74839174747467041016e-01) (23, 1.50000000000000000000e+03) (24, 4.10149917602539062500e+01) (25, 1.54249542236328125000e+02) (26, 1.34017562866210937500e+01) (27, 3.11892127990722656250e+00) (28, 3.23369836807250976562e+00) (29, 5.86149597167968750000e+00) (30, 1.98070621490478515625e+00) (31, 5.86356735229492187500e+00) (32, 3.76893472671508789062e+00) (33, 1.05209936523437500000e+03) (34, 5.85750520229339599609e-01) (35, 2.20094352960586547852e-01) (36, 5.04720211029052734375e-01) (37, 5.32649636268615722656e-01) (38, 3.35521118164062500000e+02) (39, 5.71932435035705566406e-01) (40, 1.63513731956481933594e+00) (41, 5.56826354980468750000e+02) (42, 3.39980010986328125000e+02) (43, 7.40021288394927978516e-01) (44, 5.04026412963867187500e-01) (45, 6.39833807945251464844e-01) (46, 5.72076141834259033203e-01) (47, 1.22886407375335693359e+00) (48, 5.39777636528015136719e-01) (49, 4.58476930856704711914e-01) (50, 8.27638732910156250000e+02) (51, 6.35746479034423828125e-01) (52, 5.93075454235076904297e-01) (53, 6.95951819419860839844e-01) (54, 4.23065274953842163086e-01) (0, -1.18165254592895507812e+00) (1, -1.31526124477386474609e+00) (2, -6.79277360439300537109e-01) (3, 5.40874861180782318115e-02) (4, 2.49178171157836914062e-01) (5, 1.55163273215293884277e-01) (6, -6.88052996993064880371e-02) (7, -7.78809115290641784668e-02) (8, 1.49709665775299072266e+00) (9, 1.01044222712516784668e-01) (10, 1.11681319773197174072e-01) (11, 1.02762199938297271729e-01) (12, 4.09362316131591796875e-02) (13, -5.41193336248397827148e-02) (14, 1.34216094017028808594e+00) (15, -4.63501751422882080078e-01) (16, -1.09253786504268646240e-01) (17, -1.14180672168731689453e+00) (18, 9.12316381931304931641e-01) (19, 1.94269418716430664062e-02) (20, 4.43755000829696655273e-01) (21, -3.56026858091354370117e-01) (22, -4.36892360448837280273e-01) (23, -3.22937555611133575439e-02) (24, -2.78208494186401367188e-01) (25, -1.16475559771060943604e-01) (26, -1.15353211760520935059e-01) (27, -8.44825357198715209961e-02) (28, 1.41370045021176338196e-02) (29, 4.34825010597705841064e-02) (30, -2.25843057036399841309e-01) (31, -5.69236814975738525391e-01) (32, -1.52081102132797241211e-01) (33, -4.18454557657241821289e-02) (34, -4.69266325235366821289e-01) (35, -6.18160367012023925781e-01) (36, -9.27636772394180297852e-02) (37, -1.49092867970466613770e-01) (38, -4.56147193908691406250e-01) (39, -1.80033206939697265625e-01) (40, 1.07265293598175048828e-01) (41, -7.61176347732543945312e-02) (42, -1.79974153637886047363e-01) (43, -1.69779643416404724121e-01) (44, -5.97321391105651855469e-02) (45, -1.41965039074420928955e-02) (46, 2.00880944728851318359e-01) (47, -6.55143931508064270020e-02) (48, 9.37690615653991699219e-01) (49, 1.09515868127346038818e-01) (50, -3.83008574135601520538e-03) (51, -1.53485834598541259766e-02) (52, 1.23162820935249328613e-01) (53, 2.23303005099296569824e-01) (54, 2.23153918981552124023e-01) (0, -1.06480550765991210938e+00) (1, -8.41113209724426269531e-01) (2, -7.73943305015563964844e-01) (3, 1.34275746345520019531e+00) (4, 3.12851786613464355469e-01) (5, 1.05202710628509521484e+00) (6, -4.01436519622802734375e+00) (7, 1.47847080230712890625e+00) (8, -2.81376695632934570312e+00) (9, -4.72040139138698577881e-02) (10, 1.61993250250816345215e-01) (11, -2.85260498523712158203e-01) (12, -5.91775104403495788574e-02) (13, 2.05132558941841125488e-01) (14, -4.62373614311218261719e-01) (15, 2.84662395715713500977e-01) (16, 2.51959919929504394531e-01) (17, 1.11347526311874389648e-01) (18, 4.07642155885696411133e-01) (19, 2.25045353174209594727e-01) (20, 1.33641332387924194336e-01) (21, 3.21990966796875000000e-01) (22, -2.45622181892395019531e+00) (23, 1.86623305082321166992e-01) (24, 1.18575823307037353516e+00) (25, 2.13381677865982055664e-01) (26, 4.40881997346878051758e-01) (27, 2.74725496768951416016e-01) (28, 4.06440019607543945312e-01) (29, 5.53959429264068603516e-01) (30, 1.57655882835388183594e+00) (31, 5.92955797910690307617e-02) (32, 1.14143136888742446899e-02) (33, 2.70741462707519531250e+00) (34, -3.73213738203048706055e-01) (35, -1.22466638684272766113e-01) (36, -1.16714692115783691406e+00) (37, -1.69104337692260742188e-01) (38, -5.98372101783752441406e-01) (39, 1.36738717555999755859e-01) (40, 1.09961807727813720703e-01) (41, 1.72311455011367797852e-01) (42, 1.91338405013084411621e-01) (43, 1.99503421783447265625e-01) (44, 3.67462895810604095459e-02) (45, -3.00572663545608520508e-01) (46, -2.03108763694763183594e+00) (47, -4.35893148183822631836e-01) (48, -3.51988106966018676758e-01) (49, -1.22948110103607177734e-01) (50, 2.23225966095924377441e-01) (51, 7.25851282477378845215e-02) (52, 6.99817389249801635742e-02) (53, -2.88387268781661987305e-01) (54, -1.11502610146999359131e-01) (0, -4.87366050481796264648e-01) (1, -6.43760502338409423828e-01) (2, -4.71941560506820678711e-01) (3, -1.79165333509445190430e-01) (4, 7.95126780867576599121e-02) (5, 2.33882591128349304199e-02) (6, 2.19007515907287597656e+00) (7, -6.34943008422851562500e-01) (8, -1.43768027424812316895e-01) (9, -3.50343110039830207825e-03) (10, -1.30913391709327697754e-01) (11, -8.97390693426132202148e-02) (12, -1.82891771197319030762e-01) (13, -5.35995475947856903076e-02) (14, 6.32010623812675476074e-02) (15, 3.31692576408386230469e-01) (16, -3.33913043141365051270e-02) (17, -5.08372113108634948730e-02) (18, -2.19118386507034301758e-01) (19, 1.67487055063247680664e-01) (20, -1.56733170151710510254e-02) (21, -2.63004869222640991211e-01) (22, -1.08959309756755828857e-01) (23, 2.99033373594284057617e-02) (24, 3.38947176933288574219e-02) (25, -3.45779210329055786133e-02) (26, 3.26912760734558105469e-01) (27, 3.46325663849711418152e-03) (28, -1.65541768074035644531e-01) (29, -1.38857483863830566406e-01) (30, -1.61485403776168823242e-01) (31, -8.17231774330139160156e-01) (32, 7.74907112121582031250e-01) (33, -1.19188793003559112549e-01) (34, 1.29617378115653991699e-01) (35, 7.34829250723123550415e-03) (36, -1.35905861854553222656e-01) (37, -8.92563238739967346191e-02) (38, 4.11207564175128936768e-02) (39, -1.75507843494415283203e+00) (40, 7.10145980119705200195e-02) (41, -1.30601555109024047852e-01) (42, -2.11371704936027526855e-01) (43, -5.23453718051314353943e-03) (44, -9.21927571296691894531e-01) (45, -7.16899931430816650391e-02) (46, 6.19968436658382415771e-02) (47, -3.94150093197822570801e-02) (48, 2.92343534529209136963e-02) (49, -1.69461481273174285889e-02) (50, -3.95846754312515258789e-01) (51, 5.54480543360114097595e-03) (52, -1.73822641372680664062e-02) (53, -1.14405207335948944092e-01) (54, 2.92994603514671325684e-02) (0, 8.73861253261566162109e-01) (1, -6.08523726463317871094e-01) (2, -1.14844727516174316406e+00) (3, 1.63790360093116760254e-02) (4, 2.50812679529190063477e-01) (5, 2.41105124354362487793e-01) (6, 3.53763252496719360352e-01) (7, -5.01743793487548828125e+00) (8, -3.18750381469726562500e-01) (9, -9.47740525007247924805e-02) (10, 6.35537505149841308594e-02) (11, 4.10332530736923217773e-02) (12, -1.44739711284637451172e+00) (13, 9.71160307526588439941e-02) (14, 1.76280069351196289062e+00) (15, 2.19742250442504882812e+00) (16, -1.26222595572471618652e-01) (17, -5.38841426372528076172e-01) (18, -2.42220520973205566406e+00) (19, -2.44528442621231079102e-01) (20, 2.99198657274246215820e-01) (21, -1.61437675356864929199e-01) (22, 1.27870842814445495605e-01) (23, -5.60670971870422363281e-01) (24, -1.03624694049358367920e-01) (25, 1.43674686551094055176e-02) (26, -1.10389150679111480713e-01) (27, 3.50036293268203735352e-01) (28, -2.55030151456594467163e-02) (29, -6.63266405463218688965e-02) (30, -4.49116915464401245117e-01) (31, -1.22702054679393768311e-01) (32, 2.69103795289993286133e-02) (33, -9.67101305723190307617e-02) (34, 6.88312761485576629639e-03) (35, 6.99187889695167541504e-02) (36, -6.21637627482414245605e-02) (37, -1.91872213035821914673e-02) (38, 2.42902100086212158203e-01) (39, 3.56603145599365234375e-01) (40, -2.19510402530431747437e-02) (41, 2.08430774509906768799e-02) (42, -9.78004746139049530029e-03) (43, 3.75777520239353179932e-02) (44, 2.33297105878591537476e-02) (45, -2.94641591608524322510e-02) (46, 3.98206152021884918213e-02) (47, -3.37463498115539550781e-01) (48, -6.80011138319969177246e-02) (49, 5.61429187655448913574e-02) (50, -1.94013282656669616699e-01) (51, -1.01001664996147155762e-01) (52, -6.68995752930641174316e-02) (53, 3.94428968429565429688e-02) (54, 1.02086611092090606689e-01) (55, -5.35244750976562500000e+00) (56, -4.16353583335876464844e-01) (57, 1.48960208892822265625e+00) (58, -3.59889298677444458008e-01) (59, -8.84096622467041015625e-01) (60, -1.05119872093200683594e+00) (61, -3.08805108070373535156e-01) (62, -2.72462427616119384766e-01) (63, -7.09243491291999816895e-02) (64, -5.92134416103363037109e-01) (65, -3.05386751890182495117e-01) (66, -1.05633068084716796875e+01) (67, -1.20799577236175537109e+00) (68, -3.38255763053894042969e-01) (69, -7.88902807235717773438e+00) (70, -2.63379633426666259766e-01) (71, 6.94719791412353515625e+00) (72, 2.81220340728759765625e+00) (73, -1.60519093275070190430e-01) (74, -2.91586756706237792969e-01) (75, -3.84738832712173461914e-01) (76, -4.12561058998107910156e-01) (77, -4.15639460086822509766e-01) (78, -4.99921619892120361328e-01) (79, 1.07327982783317565918e-01) (80, 2.17349362373352050781e+00) (81, 6.91603243350982666016e-01) (82, -3.32028269767761230469e-01) (83, 5.08288070559501647949e-02) (84, -6.78332567214965820312e-01) (85, -3.85286331176757812500e-01) (86, -2.21015930175781250000e+00) (87, -2.34231278300285339355e-01) (55, -4.98863029479980468750e+00) (56, -3.43754976987838745117e-01) (57, -2.53256887197494506836e-01) (58, -3.36311399936676025391e-01) (59, -2.10536289215087890625e+00) (60, -1.04046618938446044922e+00) (61, -2.13561907410621643066e-01) (62, -5.30823945999145507812e-01) (63, -5.48886656761169433594e-01) (64, -4.48247283697128295898e-01) (65, -4.71962660551071166992e-01) (66, -1.09011955261230468750e+01) (67, -2.02039790153503417969e+00) (68, -4.04845803976058959961e-01) (69, -9.53291893005371093750e+00) (70, -2.76513874530792236328e-01) (71, 9.22590732574462890625e+00) (72, 9.95895087718963623047e-01) (73, -2.62057125568389892578e-01) (74, -2.22906589508056640625e-01) (75, -3.43748927116394042969e-01) (76, -4.43428337574005126953e-01) (77, -4.42795723676681518555e-01) (78, -1.90545156598091125488e-01) (79, 6.01668834686279296875e-01) (80, 3.14302420616149902344e+00) (81, 5.93723595142364501953e-01) (82, -3.66328269243240356445e-01) (83, 6.59009814262390136719e-01) (84, -3.55936557054519653320e-01) (85, -3.57968032360076904297e-01) (86, -1.15962252020835876465e-01) (87, -3.37213337421417236328e-01) (55, -1.05327472686767578125e+01) (56, -4.80557471513748168945e-01) (57, 3.14028882980346679688e+00) (58, -4.65084642171859741211e-01) (59, -2.03766608238220214844e+00) (60, -2.21126407384872436523e-01) (61, -4.63964313268661499023e-01) (62, -2.34466814994812011719e+00) (63, -6.91061079502105712891e-01) (64, -2.03635081648826599121e-01) (65, 7.89827883243560791016e-01) (66, -9.54229927062988281250e+00) (67, -2.16191387176513671875e+00) (68, -7.09424912929534912109e-01) (69, -5.73282957077026367188e+00) (70, -6.66082084178924560547e-01) (71, 5.64172983169555664062e+00) (72, 5.33521734178066253662e-02) (73, 3.39785146713256835938e+00) (74, -4.89391595125198364258e-01) (75, -2.92072832584381103516e-01) (76, -2.00012505054473876953e-01) (77, -7.41827309131622314453e-01) (78, -6.46818518638610839844e-01) (79, 1.66133701801300048828e+00) (80, 4.36004304885864257812e+00) (81, 2.39226484298706054688e+00) (82, -4.68468457460403442383e-01) (83, 4.87910151481628417969e-01) (84, -7.50171363353729248047e-01) (85, -3.61983239650726318359e-01) (86, 3.39277476072311401367e-01) (87, -4.44420695304870605469e-01) (55, 7.75124192237854003906e-01) (56, -2.90675997734069824219e-01) (57, -6.05045437812805175781e-01) (58, -1.18383556604385375977e-01) (59, -2.53879368305206298828e-01) (60, -1.35460388660430908203e+00) (61, -5.64391091465950012207e-02) (62, -3.54884833097457885742e-01) (63, -1.06059741973876953125e+00) (64, -1.36875599622726440430e-01) (65, -2.17372441291809082031e+00) (66, 4.69394683837890625000e-01) (67, 9.79853808879852294922e-01) (68, -2.91223675012588500977e-01) (69, 1.99351981282234191895e-01) (70, 1.38885211944580078125e+00) (71, -1.15106606483459472656e+00) (72, 1.57092118263244628906e+00) (73, 5.41448257863521575928e-02) (74, -2.11048454046249389648e-01) (75, -5.37895441055297851562e-01) (76, -4.74368393421173095703e-01) (77, -2.03627407550811767578e-01) (78, -1.80514562129974365234e+00) (79, 1.62065899372100830078e+00) (80, -4.68193829059600830078e-01) (81, 1.24952173233032226562e+00) (82, -1.83581843972206115723e-01) (83, -9.31859537959098815918e-02) (84, -2.95930099487304687500e+00) (85, -4.97038811445236206055e-01) (86, -5.70656001567840576172e-01) (87, -1.54853845015168190002e-02) (55, -1.75763463973999023438e+00) (56, -1.96419239044189453125e-01) (57, -4.59493100643157958984e-01) (58, -3.45178991556167602539e-02) (59, -9.91278231143951416016e-01) (60, -4.57454891875386238098e-03) (61, -3.43192033469676971436e-02) (62, -2.43767809867858886719e+00) (63, -1.68777322769165039062e+00) (64, -4.18563932180404663086e-01) (65, 1.02898466587066650391e+00) (66, -1.05107164382934570312e+00) (67, 2.90196359157562255859e-01) (68, -1.41168713569641113281e-01) (69, -1.46776032447814941406e+00) (70, 1.37049531936645507812e+00) (71, -2.81422417610883712769e-02) (72, 2.79182648658752441406e+00) (73, 1.60963505506515502930e-01) (74, -2.23094925284385681152e-01) (75, -4.40219283103942871094e-01) (76, -8.69690954685211181641e-01) (77, -2.87710249423980712891e-01) (78, -2.07027912139892578125e+00) (79, 1.11958898603916168213e-01) (80, -9.90564405918121337891e-01) (81, 1.75238060951232910156e+00) (82, -1.18326961994171142578e-01) (83, -4.14756275713443756104e-02) (84, -1.68695080280303955078e+00) (85, -1.01429116725921630859e+00) (86, 1.87575221061706542969e+00) (87, -6.89938515424728393555e-02) (55, -5.27744293212890625000e+00) (56, -1.90714254975318908691e-01) (57, -4.45110499858856201172e-01) (58, -6.29458650946617126465e-02) (59, -1.26952064037322998047e+00) (60, 2.78456568717956542969e-01) (61, -3.38661447167396545410e-02) (62, -1.29306292533874511719e+00) (63, -7.34782874584197998047e-01) (64, -1.51628747582435607910e-01) (65, 2.32865452766418457031e+00) (66, -2.50728774070739746094e+00) (67, -6.42052114009857177734e-01) (68, -3.90354186296463012695e-01) (69, -3.14282369613647460938e+00) (70, -3.66401165723800659180e-01) (71, -1.64731726050376892090e-01) (72, -1.59342557191848754883e-01) (73, -9.67650532722473144531e-01) (74, 1.31712764501571655273e-01) (75, 1.34907430037856101990e-02) (76, -3.47383588552474975586e-01) (77, -5.56265592575073242188e-01) (78, -3.02027732133865356445e-01) (79, 4.11936610937118530273e-01) (80, -1.99635639786720275879e-01) (81, 3.04721117019653320312e+00) (82, -5.93301020562648773193e-02) (83, 1.11337649822235107422e+00) (84, -4.29549157619476318359e-01) (85, 2.28719606995582580566e-01) (86, 2.41446709632873535156e+00) (87, -4.58724275231361389160e-02) (55, 1.36674225330352783203e+00) (56, -1.88860177993774414062e-01) (57, -2.20012712478637695312e+00) (58, -2.62567758560180664062e-01) (59, 1.95178759098052978516e+00) (60, -1.84019398689270019531e+00) (61, -2.32667848467826843262e-01) (62, -1.08508360385894775391e+00) (63, -2.19104111194610595703e-01) (64, 2.82799042761325836182e-02) (65, 5.76610490679740905762e-02) (66, -4.51448351144790649414e-01) (67, -4.20631647109985351562e-01) (68, 1.00270234048366546631e-01) (69, -2.17117175459861755371e-01) (70, 6.09433948993682861328e-01) (71, -2.76089906692504882812e-01) (72, 1.02966725826263427734e+00) (73, -3.41838210821151733398e-01) (74, -4.95215117931365966797e-01) (75, -1.58330142498016357422e+00) (76, -8.71062129735946655273e-02) (77, -2.50503331422805786133e-01) (78, -9.76836010813713073730e-02) (79, 8.77299845218658447266e-01) (80, -1.26333951950073242188e+00) (81, -2.69161772727966308594e+00) (82, -1.88423976302146911621e-01) (83, -4.64231669902801513672e-01) (84, 4.20771747827529907227e-01) (85, 5.25567531585693359375e-01) (86, -7.35963404178619384766e-01) (87, -1.37220457196235656738e-01) (55, -3.42734217643737792969e+00) (56, 1.01117640733718872070e-01) (57, -4.46962356567382812500e-01) (58, -5.37172406911849975586e-02) (59, -2.54112333059310913086e-01) (60, -7.16629743576049804688e-01) (61, -2.21488550305366516113e-01) (62, -3.02849769592285156250e+00) (63, -7.63948559761047363281e-02) (64, -3.53447794914245605469e-01) (65, 1.54198968410491943359e+00) (66, -2.53774553537368774414e-01) (67, -1.21471393108367919922e+00) (68, -1.23279511928558349609e-01) (69, -7.79264390468597412109e-01) (70, 9.97073769569396972656e-01) (71, 6.77015721797943115234e-01) (72, 1.31331169605255126953e+00) (73, -9.27939951419830322266e-01) (74, -3.18204998970031738281e-01) (75, -1.84989377856254577637e-01) (76, -2.53159761428833007812e-01) (77, -2.75220006704330444336e-01) (78, -3.18029236793518066406e+00) (79, 7.57469654083251953125e-01) (80, -2.94065177440643310547e-01) (81, -2.68777680397033691406e+00) (82, -2.03660354018211364746e-01) (83, -3.33055406808853149414e-01) (84, -2.00289249420166015625e-01) (85, -1.36680111289024353027e-01) (86, 1.09928524494171142578e+00) (87, -3.57558466494083404541e-02) (55, -6.83287954330444335938e+00) (56, -7.96837508678436279297e-02) (57, 8.91429558396339416504e-02) (58, -1.54983058571815490723e-01) (59, -9.55531001091003417969e-01) (60, -9.27003800868988037109e-01) (61, 3.73730659484863281250e-02) (62, -5.32552599906921386719e-02) (63, -2.02828958630561828613e-01) (64, -4.90659236907958984375e-01) (65, -4.09949868917465209961e-01) (66, -5.34787893295288085938e-01) (67, -2.06554985046386718750e+00) (68, -1.81613370776176452637e-01) (69, -1.99731886386871337891e-01) (70, -1.57959449291229248047e+00) (71, 3.23418043553829193115e-02) (72, -2.47652077674865722656e+00) (73, -4.68473255634307861328e-01) (74, -1.41079677268862724304e-02) (75, 3.64034920930862426758e-01) (76, -5.04481077194213867188e-01) (77, -1.23765297234058380127e-01) (78, -2.87753283977508544922e-01) (79, 5.00204920768737792969e-01) (80, -2.14551374316215515137e-01) (81, 1.40614140033721923828e+00) (82, -1.12968407571315765381e-01) (83, 2.26026356220245361328e-01) (84, -8.23099017143249511719e-02) (85, -4.06652927398681640625e-01) (86, 3.77968525886535644531e+00) (87, -7.36942375078797340393e-03) (55, -1.59820723533630371094e+00) (56, -1.14453919231891632080e-01) (57, -1.78124845027923583984e+00) (58, -1.54383182525634765625e-01) (59, 4.76999998092651367188e+00) (60, -6.57193422317504882812e+00) (61, -1.38822197914123535156e-01) (62, -4.43177297711372375488e-02) (63, -4.99531596899032592773e-01) (64, -2.27208167314529418945e-01) (65, -2.88481801748275756836e-01) (66, 1.09808599948883056641e+00) (67, 6.98107957839965820312e-01) (68, -9.82778668403625488281e-02) (69, -5.46826981008052825928e-03) (70, -8.60801339149475097656e-01) (71, -1.08178484439849853516e+00) (72, -1.47761714458465576172e+00) (73, -1.67756229639053344727e-01) (74, -2.83083189278841018677e-02) (75, -2.78022289276123046875e-01) (76, -2.27816775441169738770e-01) (77, -4.40025478601455688477e-02) (78, 5.25028526782989501953e-01) (79, -8.05161520838737487793e-02) (80, -1.92371919751167297363e-01) (81, 3.51895976066589355469e+00) (82, -1.37083560228347778320e-01) (83, 1.37287414073944091797e+00) (84, -5.32998621463775634766e-01) (85, -7.69345015287399291992e-02) (86, -1.18127785623073577881e-01) (87, 3.02750244736671447754e-02) (55, -1.30235266685485839844e+00) (56, 1.82817667722702026367e-01) (57, -6.30819022655487060547e-01) (58, 6.10272921621799468994e-02) (59, 4.04214173555374145508e-01) (60, 2.16167950630187988281e+00) (61, -6.72414526343345642090e-02) (62, -1.73496735095977783203e+00) (63, 9.93738397955894470215e-02) (64, -1.02800488471984863281e+00) (65, -4.02567923069000244141e-01) (66, -4.69053447246551513672e-01) (67, 4.01309989392757415771e-02) (68, 7.79469072818756103516e-01) (69, -5.26312142610549926758e-02) (70, 1.53104677796363830566e-01) (71, -6.64830952882766723633e-02) (72, 8.16685736179351806641e-01) (73, -4.76010143756866455078e-01) (74, -1.14668130874633789062e+00) (75, 6.45600020885467529297e-01) (76, -4.60581421852111816406e-01) (77, -1.20278015732765197754e-01) (78, -2.46204328536987304688e+00) (79, 1.22964513301849365234e+00) (80, -4.14162762463092803955e-02) (81, -5.95330446958541870117e-03) (82, -3.64779010415077209473e-02) (83, -3.76292729377746582031e+00) (84, 5.07966689765453338623e-02) (85, -1.05136342346668243408e-01) (86, -3.29337328672409057617e-01) (87, -8.80580767989158630371e-03) (55, -2.08720064163208007812e+00) (56, -2.49228347092866897583e-02) (57, -9.88658964633941650391e-02) (58, -8.63527134060859680176e-02) (59, -9.41537618637084960938e-01) (60, 3.73426795005798339844e-01) (61, 2.45403889566659927368e-02) (62, -1.50116682052612304688e+00) (63, -5.71548976004123687744e-02) (64, -1.08667302131652832031e+00) (65, -5.38090877234935760498e-02) (66, -8.48003983497619628906e-01) (67, -6.91424727439880371094e-01) (68, 3.24102304875850677490e-02) (69, -8.74079883098602294922e-01) (70, 6.48435413837432861328e-01) (71, 5.59064805507659912109e-01) (72, -5.03848123550415039062e+00) (73, 9.37360942363739013672e-01) (74, -4.41900193691253662109e-01) (75, 7.11553633213043212891e-01) (76, -6.53295814990997314453e-02) (77, -1.44397154450416564941e-01) (78, -2.97212034463882446289e-01) (79, 4.93602722883224487305e-01) (80, -1.03158965706825256348e-01) (81, -2.58004158735275268555e-01) (82, 4.71545979380607604980e-02) (83, 1.01756833493709564209e-01) (84, 3.73454034328460693359e-01) (85, 4.69193220138549804688e+00) (86, -2.43273545056581497192e-02) (87, 5.83273321390151977539e-02) (55, 7.51181125640869140625e+00) (56, -5.17085790634155273438e-01) (57, -7.48062133789062500000e-01) (58, -2.34485760331153869629e-01) (59, 4.67608261108398437500e+00) (60, -1.95782184600830078125e+00) (61, -1.42636686563491821289e-01) (62, -1.04474931955337524414e-01) (63, -1.52628883719444274902e-01) (64, -2.61991351842880249023e-01) (65, -1.67222142219543457031e-01) (66, 1.90500962734222412109e+00) (67, 2.85752147436141967773e-01) (68, -3.38979005813598632812e-01) (69, 5.35714328289031982422e-01) (70, -9.39023017883300781250e-01) (71, -3.65996584296226501465e-02) (72, -2.54470562934875488281e+00) (73, -3.38439643383026123047e-01) (74, -1.71753466129302978516e-01) (75, 1.31492837681435048580e-04) (76, 5.02715772017836570740e-03) (77, -1.28654360771179199219e-01) (78, 8.69128882884979248047e-01) (79, -2.32400512695312500000e+00) (80, -2.20183596014976501465e-01) (81, 1.00357718765735626221e-01) (82, -1.30031555891036987305e-01) (83, -8.17026793956756591797e-01) (84, 1.73049673438072204590e-01) (85, 9.02802571654319763184e-02) (86, 4.67461347579956054688e-03) (87, -1.62645906209945678711e-01) (55, -1.12549614906311035156e+00) (56, 1.05526220798492431641e+00) (57, -3.01418215036392211914e-01) (58, 3.37134930305182933807e-03) (59, 1.56860619783401489258e-01) (60, 2.08215332031250000000e+00) (61, 9.66295413672924041748e-03) (62, -2.38829433917999267578e-01) (63, 1.30673706531524658203e-01) (64, -8.48271250724792480469e-01) (65, -4.60745282471179962158e-02) (66, -1.14604867994785308838e-01) (67, 1.24081328511238098145e-01) (68, 1.80133953690528869629e-01) (69, 1.39051631093025207520e-01) (70, 9.95449542999267578125e-01) (71, 1.16932821273803710938e+00) (72, 5.77229201793670654297e-01) (73, 1.19441710412502288818e-01) (74, -1.26459848880767822266e+00) (75, -1.29789099097251892090e-01) (76, -9.01934430003166198730e-02) (77, 1.41365021467208862305e-01) (78, -1.78511595726013183594e+00) (79, -4.62396115064620971680e-01) (80, -1.96953848004341125488e-01) (81, -1.34957540035247802734e+00) (82, -2.50015947967767715454e-02) (83, -4.38647937774658203125e+00) (84, 4.47976030409336090088e-02) (85, -4.93623837828636169434e-02) (86, -2.21769586205482482910e-01) (87, -4.62334305047988891602e-02) (55, -1.16611242294311523438e+01) (56, 4.70672935247421264648e-01) (57, -3.60650420188903808594e-01) (58, 1.20686940848827362061e-01) (59, -1.41173684597015380859e+00) (60, -2.29217723011970520020e-01) (61, 7.59648084640502929688e-02) (62, -2.60474104434251785278e-02) (63, 6.55129598453640937805e-03) (64, -8.43602299690246582031e-01) (65, 5.11773042380809783936e-02) (66, 2.62805283069610595703e-01) (67, -1.37974712997674942017e-02) (68, 7.20866397023200988770e-02) (69, -4.84673231840133666992e-01) (70, -2.37860485911369323730e-01) (71, -1.83407723903656005859e-01) (72, -6.27761900424957275391e-01) (73, 2.10031580924987792969e+00) (74, -2.52176612615585327148e-01) (75, -4.28603678941726684570e-01) (76, -2.69492089748382568359e-01) (77, -1.17852173745632171631e-01) (78, -4.00781989097595214844e-01) (79, 3.33710044622421264648e-01) (80, -2.56782460212707519531e+00) (81, 3.41591382026672363281e+00) (82, 2.44752392172813415527e-01) (83, 2.02394038438796997070e-01) (84, 1.32156267762184143066e-01) (85, -1.21787779033184051514e-01) (86, -5.43335437774658203125e-01) (87, 2.09080100059509277344e-01) (55, 2.61312150955200195312e+00) (56, 7.04587623476982116699e-02) (57, -2.31063723564147949219e-01) (58, 3.15474309027194976807e-02) (59, 5.88239526748657226562e+00) (60, -1.34907412528991699219e+00) (61, 1.40356957912445068359e-01) (62, -3.02148252725601196289e-01) (63, 1.73609614372253417969e-01) (64, -4.59004282951354980469e-01) (65, -1.56693637371063232422e+00) (66, 2.65322589874267578125e+00) (67, -8.46922874450683593750e-01) (68, 9.90657415241003036499e-03) (69, 2.94357359409332275391e-01) (70, -3.76502394676208496094e-01) (71, 5.38772523403167724609e-01) (72, -7.03879296779632568359e-01) (73, -4.04674261808395385742e-01) (74, 1.56139180064201354980e-01) (75, 2.24686682224273681641e-01) (76, -4.17051315307617187500e-01) (77, 1.32313072681427001953e-01) (78, -4.46439445018768310547e-01) (79, -1.76870775222778320312e+00) (80, -7.54510307312011718750e+00) (81, 2.27371525764465332031e+00) (82, 1.36530101299285888672e-01) (83, -2.55499577522277832031e+00) (84, 1.79014384746551513672e-01) (85, -1.57925888895988464355e-01) (86, 2.41157364845275878906e+00) (87, 3.14772017300128936768e-02) (55, -2.98785948753356933594e+00) (56, 5.74448645114898681641e-01) (57, -5.15291213989257812500e-01) (58, 2.16687768697738647461e-01) (59, 5.31002223491668701172e-01) (60, 1.62256169319152832031e+00) (61, 1.67141079902648925781e-01) (62, -4.34626668691635131836e-01) (63, 4.36605483293533325195e-01) (64, -5.23123681545257568359e-01) (65, -5.47731220722198486328e-01) (66, 2.61881113052368164062e-01) (67, -1.34540870785713195801e-01) (68, 3.53387594223022460938e-01) (69, 2.43121936917304992676e-01) (70, 2.11809468269348144531e+00) (71, 8.08365643024444580078e-01) (72, 2.71344259381294250488e-02) (73, -3.85953068733215332031e-01) (74, -6.64291560649871826172e-01) (75, 1.60675421357154846191e-01) (76, -7.38212883472442626953e-01) (77, 8.57177823781967163086e-02) (78, -2.36108231544494628906e+00) (79, -2.25220531225204467773e-01) (80, -6.69720470905303955078e-01) (81, -6.07714593410491943359e-01) (82, 2.07493588328361511230e-01) (83, -4.87416219711303710938e+00) (84, 7.90405452251434326172e-01) (85, -3.40270459651947021484e-01) (86, 1.57182678580284118652e-01) (87, 2.12937280535697937012e-01) (55, -8.07397937774658203125e+00) (56, 5.35072386264801025391e-01) (57, -3.41411173343658447266e-01) (58, 1.41204819083213806152e-01) (59, -1.26357340812683105469e+00) (60, -4.80143457651138305664e-01) (61, 9.07570719718933105469e-02) (62, -1.06255672872066497803e-01) (63, 1.27939477562904357910e-01) (64, -2.68990576267242431641e-01) (65, -2.48079255223274230957e-01) (66, 9.78476643562316894531e-01) (67, 5.58642148971557617188e-02) (68, 9.51169654726982116699e-02) (69, 2.78407484292984008789e-01) (70, -1.40712213516235351562e+00) (71, -3.95701348781585693359e-01) (72, -2.31174278259277343750e+00) (73, 8.38624775409698486328e-01) (74, -5.75937747955322265625e-01) (75, -9.01705384254455566406e-01) (76, 8.38911890983581542969e-01) (77, 2.55125403404235839844e-01) (78, 8.06721210479736328125e-01) (79, -4.05531048774719238281e-01) (80, -7.81841635704040527344e-01) (81, 2.29751300811767578125e+00) (82, 1.54343089088797569275e-02) (83, 9.93215978145599365234e-01) (84, 1.98315083980560302734e-01) (85, -2.90973812341690063477e-01) (86, -9.70373690128326416016e-01) (87, 8.99641811847686767578e-02) (55, -4.47857999801635742188e+00) (56, 4.87915903329849243164e-01) (57, -4.91960793733596801758e-01) (58, 1.40218600630760192871e-01) (59, 5.05743885040283203125e+00) (60, -7.30825126171112060547e-01) (61, 6.15586750209331512451e-02) (62, -1.00884906947612762451e-01) (63, 9.51631516218185424805e-02) (64, -2.05127537250518798828e-01) (65, -3.61214399337768554688e-01) (66, 1.51853001117706298828e+00) (67, -3.19576591253280639648e-01) (68, 2.67417013645172119141e-01) (69, 1.14748135209083557129e-01) (70, 3.87315005064010620117e-02) (71, 6.03677868843078613281e-01) (72, 7.46845230460166931152e-02) (73, -7.08975136280059814453e-01) (74, 7.17776119709014892578e-02) (75, 5.55877499282360076904e-02) (76, -3.17859768867492675781e+00) (77, 9.27603170275688171387e-02) (78, -9.33633267879486083984e-01) (79, -1.39955133199691772461e-01) (80, -5.61849415302276611328e-01) (81, 1.40006411075592041016e+00) (82, 9.29008126258850097656e-02) (83, -2.04411491751670837402e-01) (84, 5.85660599172115325928e-02) (85, -1.26509010791778564453e-01) (86, 6.71912059187889099121e-02) (87, 7.26655498147010803223e-02) (55, -3.70023512840270996094e+00) (56, 3.58132421970367431641e-01) (57, -3.59325468540191650391e-01) (58, 2.94909238815307617188e-01) (59, 1.57942104339599609375e+00) (60, 1.28325700759887695312e+00) (61, 2.12492838501930236816e-01) (62, -1.34090530872344970703e+00) (63, 2.24277317523956298828e-01) (64, -8.84382128715515136719e-02) (65, -2.44764208793640136719e-01) (66, 1.20248958468437194824e-01) (67, 1.01801991462707519531e+00) (68, 1.71085134148597717285e-01) (69, 7.83861637115478515625e-01) (70, -8.46678733825683593750e-01) (71, 7.89599776268005371094e-01) (72, -1.84435650706291198730e-01) (73, -8.66286277770996093750e-01) (74, -9.25925970077514648438e-02) (75, 7.57531702518463134766e-01) (76, -1.71009674668312072754e-01) (77, 8.02433267235755920410e-02) (78, -1.24562084674835205078e+00) (79, -1.49515473842620849609e+00) (80, 4.99477609992027282715e-02) (81, 2.83914661407470703125e+00) (82, 1.47298932075500488281e-01) (83, -4.25934553146362304688e+00) (84, 1.03972822427749633789e-01) (85, -1.11616179347038269043e-01) (86, 5.69299995899200439453e-01) (87, 1.76852211356163024902e-01) (55, -2.40345859527587890625e+00) (56, 2.19665989279747009277e-01) (57, -1.27350401878356933594e+00) (58, 1.68385162949562072754e-01) (59, -8.67959022521972656250e-01) (60, -7.59737670421600341797e-01) (61, 1.11689805984497070312e-01) (62, -2.21215009689331054688e+00) (63, 1.52174264192581176758e-01) (64, -2.56143450736999511719e-01) (65, 8.43458473682403564453e-01) (66, 1.55535686016082763672e+00) (67, 9.72502410411834716797e-01) (68, 3.12893599271774291992e-01) (69, 9.97795164585113525391e-01) (70, -1.63370442390441894531e+00) (71, -1.92889813333749771118e-02) (72, -7.35360980033874511719e-01) (73, 6.36047124862670898438e-01) (74, 1.13019764423370361328e+00) (75, -7.39234626293182373047e-01) (76, -3.56381267309188842773e-01) (77, 3.69653292000293731689e-02) (78, -4.05659377574920654297e-01) (79, -8.26774775981903076172e-01) (80, -2.54044342041015625000e+00) (81, 6.34659719467163085938e+00) (82, 1.23693652451038360596e-01) (83, -3.01596730947494506836e-01) (84, 1.11695528030395507812e-01) (85, -7.93965518474578857422e-01) (86, -2.04984617233276367188e+00) (87, 1.66858598589897155762e-01) (55, -1.51022982597351074219e+00) (56, 1.68510183691978454590e-01) (57, 1.62718102335929870605e-01) (58, 1.36625289916992187500e-01) (59, 5.75305557250976562500e+00) (60, 1.33611653000116348267e-02) (61, 5.85793592035770416260e-02) (62, 9.96072292327880859375e-01) (63, 1.19047313928604125977e-01) (64, 2.28464663028717041016e-01) (65, -8.26667189598083496094e-01) (66, 2.61917805671691894531e+00) (67, 2.25738249719142913818e-02) (68, 1.44002154469490051270e-01) (69, 3.01300197839736938477e-01) (70, -4.12574499845504760742e-01) (71, 3.20125877857208251953e-01) (72, -2.83659029006958007812e+00) (73, -1.60726058483123779297e+00) (74, -1.24402090907096862793e-01) (75, 1.74488946795463562012e-01) (76, -9.75016236305236816406e-01) (77, 1.15968815982341766357e-01) (78, 3.95502924919128417969e-01) (79, -9.26541388034820556641e-02) (80, 2.04127296805381774902e-01) (81, 4.80468273162841796875e-01) (82, 8.37471336126327514648e-02) (83, -5.80762505531311035156e-01) (84, 1.59178569912910461426e-01) (85, -7.56960511207580566406e-01) (86, 1.26756886020302772522e-02) (87, 1.13119184970855712891e-01) (55, -1.38213121891021728516e+00) (56, 4.05419111251831054688e-01) (57, -1.81157976388931274414e-01) (58, 1.27526983618736267090e-01) (59, 2.09661865234375000000e+00) (60, 1.16730940341949462891e+00) (61, 1.46223500370979309082e-01) (62, -8.12989592552185058594e-01) (63, 1.01438187062740325928e-01) (64, -1.38190641999244689941e-01) (65, 2.12941989302635192871e-01) (66, -4.35779273509979248047e-01) (67, 1.30934476852416992188e+00) (68, 2.37518221139907836914e-01) (69, 1.15763890743255615234e+00) (70, -5.66314399242401123047e-01) (71, 1.69706153869628906250e+00) (72, -2.76701569557189941406e-01) (73, -1.69222187995910644531e+00) (74, 1.51072740554809570312e-02) (75, 1.60610079765319824219e-01) (76, -6.40691578388214111328e-01) (77, 1.28250539302825927734e-01) (78, -3.61620604991912841797e-01) (79, -1.20766520500183105469e+00) (80, 8.66207554936408996582e-02) (81, 1.33579051494598388672e+00) (82, 2.33613044023513793945e-01) (83, -3.32874894142150878906e+00) (84, 1.91728368401527404785e-01) (85, 6.32852166891098022461e-02) (86, 2.98155248165130615234e-01) (87, 2.35135167837142944336e-01) (55, -7.83143222332000732422e-01) (56, 3.53100955486297607422e-01) (57, -4.26344424486160278320e-01) (58, 2.00325384736061096191e-01) (59, -7.10433661937713623047e-01) (60, -1.32038176059722900391e+00) (61, 2.38940805196762084961e-01) (62, -4.75284367799758911133e-01) (63, 8.60882878303527832031e-01) (64, -4.85984712839126586914e-01) (65, -3.16979557275772094727e-01) (66, 1.96927034854888916016e+00) (67, 1.60963129997253417969e+00) (68, 2.20509007573127746582e-01) (69, 9.74846541881561279297e-01) (70, -1.61469650268554687500e+00) (71, 3.18130314350128173828e-01) (72, -5.15265941619873046875e-01) (73, -1.03254103660583496094e+00) (74, -2.69760578870773315430e-01) (75, -1.64154720306396484375e+00) (76, 1.40220120549201965332e-01) (77, 2.80996054410934448242e-01) (78, -7.30282664299011230469e-01) (79, -8.88603389263153076172e-01) (80, -2.42781805992126464844e+00) (81, 6.67752075195312500000e+00) (82, 1.19583711028099060059e-01) (83, -2.81896948814392089844e-01) (84, 1.48334071040153503418e-01) (85, -4.87004399299621582031e-01) (86, -1.41184425354003906250e+00) (87, 2.69665420055389404297e-01) (55, 1.47122526168823242188e+00) (56, 5.62472581863403320312e-01) (57, -4.56142008304595947266e-01) (58, 6.13664388656616210938e-01) (59, 3.51005387306213378906e+00) (60, -1.01896631717681884766e+00) (61, 5.70678055286407470703e-01) (62, -7.91633307933807373047e-01) (63, 4.86756235361099243164e-01) (64, -3.30455631017684936523e-01) (65, -1.04285001754760742188e+01) (66, 1.84003126621246337891e+00) (67, 4.62604701519012451172e-01) (68, 1.24829411506652832031e+00) (69, 5.38899481296539306641e-01) (70, 9.91358101367950439453e-01) (71, 5.17613947391510009766e-01) (72, -1.14772367477416992188e+00) (73, -6.54963493347167968750e-01) (74, -1.48796379566192626953e-01) (75, -1.34867221117019653320e-01) (76, -2.82062798738479614258e-01) (77, 5.52061438560485839844e-01) (78, -5.52941933274269104004e-02) (79, -6.27237260341644287109e-01) (80, -9.21233654022216796875e-01) (81, 2.17564272880554199219e+00) (82, 5.25146663188934326172e-01) (83, -6.66051864624023437500e-01) (84, 5.39020478725433349609e-01) (85, -3.18870037794113159180e-01) (86, -4.17879700660705566406e-01) (87, 5.63031792640686035156e-01) (55, 1.39989590644836425781e+00) (56, 6.87697827816009521484e-01) (57, -3.85783255100250244141e-01) (58, 3.30146461725234985352e-01) (59, 3.16832691431045532227e-01) (60, -3.29906076192855834961e-01) (61, 3.57955217361450195312e-01) (62, -7.77764141559600830078e-01) (63, 4.44205582141876220703e-01) (64, 6.35299086570739746094e-01) (65, -4.60777330398559570312e+00) (66, -5.44328212738037109375e-01) (67, 1.39939510822296142578e+00) (68, 7.53067910671234130859e-01) (69, 1.91938018798828125000e+00) (70, -4.21624720096588134766e-01) (71, 1.89378702640533447266e+00) (72, -2.87024676799774169922e-01) (73, -3.15090990066528320312e+00) (74, -4.57327306270599365234e-01) (75, -2.16238185763359069824e-01) (76, -3.37180793285369873047e-02) (77, 4.34449106454849243164e-01) (78, -3.13415080308914184570e-01) (79, -5.84154188632965087891e-01) (80, -3.13210785388946533203e-01) (81, 2.16760063171386718750e+00) (82, 3.08341950178146362305e-01) (83, -1.42123281955718994141e+00) (84, 4.71537709236145019531e-01) (85, -2.49200329184532165527e-01) (86, 1.82945266366004943848e-01) (87, 2.22675859928131103516e-01) (55, 6.75798892974853515625e-01) (56, 3.16077589988708496094e-01) (57, -7.44787275791168212891e-01) (58, 2.75453954935073852539e-01) (59, -1.67927682399749755859e+00) (60, -1.47153019905090332031e+00) (61, 1.61797195672988891602e-01) (62, -4.80504222214221954346e-02) (63, 5.39978146553039550781e-01) (64, 7.82820403575897216797e-01) (65, -1.06628119945526123047e+00) (66, 2.50876188278198242188e+00) (67, 9.49467062950134277344e-01) (68, 3.98564934730529785156e-01) (69, 2.92186498641967773438e+00) (70, -3.46411657333374023438e+00) (71, 1.15431272983551025391e+00) (72, -1.14393281936645507812e+00) (73, -1.38342583179473876953e+00) (74, -1.00005018711090087891e+00) (75, -2.76567602157592773438e+00) (76, 2.71813839673995971680e-01) (77, 4.08852070569992065430e-01) (78, 4.57263797521591186523e-01) (79, -1.54809132218360900879e-01) (80, -1.13572609424591064453e+00) (81, 4.51896333694458007812e+00) (82, 2.05903217196464538574e-01) (83, 2.21836000680923461914e-01) (84, 5.91537773609161376953e-01) (85, -4.60788637399673461914e-01) (86, -1.42498886585235595703e+00) (87, 2.73998260498046875000e-01) (55, 2.60350847244262695312e+00) (56, 5.43825984001159667969e-01) (57, 9.33984294533729553223e-02) (58, 4.70092803239822387695e-01) (59, 2.28677344322204589844e+00) (60, -7.07542955875396728516e-01) (61, 5.58519303798675537109e-01) (62, 6.29668414592742919922e-01) (63, 4.50593799352645874023e-01) (64, -3.88398909568786621094e+00) (65, -6.30009531974792480469e-01) (66, 8.29392433166503906250e-01) (67, 2.71925473213195800781e+00) (68, 5.86471438407897949219e-01) (69, 5.12031495571136474609e-01) (70, 2.18223047256469726562e+00) (71, 8.14439296722412109375e-01) (72, -2.03766870498657226562e+00) (73, -1.90015757083892822266e+00) (74, 1.25216200947761535645e-01) (75, -8.40886160731315612793e-02) (76, -5.33395670354366302490e-02) (77, 3.56994569301605224609e-01) (78, 3.74319076538085937500e-01) (79, -1.58541142940521240234e+00) (80, 2.97424849122762680054e-02) (81, 7.09415769577026367188e+00) (82, 5.73573410511016845703e-01) (83, 6.24082908034324645996e-02) (84, 1.21581494808197021484e+00) (85, 1.15280739963054656982e-01) (86, -1.62946569919586181641e+00) (87, 5.76417207717895507812e-01) (55, 2.38417908549308776855e-01) (56, 4.89530116319656372070e-01) (57, -5.52086472511291503906e-01) (58, 5.52153050899505615234e-01) (59, 9.42739963531494140625e-01) (60, -8.69327485561370849609e-01) (61, 6.50423824787139892578e-01) (62, -9.71428036689758300781e-01) (63, 4.28985208272933959961e-01) (64, -4.04789781570434570312e+00) (65, -3.97755324840545654297e-01) (66, -2.07253709435462951660e-01) (67, 3.79337859153747558594e+00) (68, 3.68101030588150024414e-01) (69, 3.48489969968795776367e-01) (70, 3.23089528083801269531e+00) (71, 1.81824445724487304688e+00) (72, -1.80055275559425354004e-01) (73, -1.27073323726654052734e+00) (74, -3.71516317129135131836e-01) (75, 9.29393097758293151855e-02) (76, -2.84103214740753173828e-01) (77, 4.11137312650680541992e-01) (78, -5.70736169815063476562e-01) (79, -4.22467410564422607422e-01) (80, -3.61084699630737304688e-01) (81, 8.60019397735595703125e+00) (82, 4.85508471727371215820e-01) (83, -2.29573667049407958984e-01) (84, 4.31163519620895385742e-01) (85, 1.88234239816665649414e-01) (86, -1.80386984348297119141e+00) (87, 6.30930602550506591797e-01) (55, 3.07328867912292480469e+00) (56, 3.43515336513519287109e-01) (57, -3.34764599800109863281e-01) (58, 3.31360161304473876953e-01) (59, 6.08441710472106933594e-01) (60, -9.17268455028533935547e-01) (61, 3.09362024068832397461e-01) (62, -2.95052826404571533203e-01) (63, 3.42204451560974121094e-01) (64, -8.01548898220062255859e-01) (65, -7.16034114360809326172e-01) (66, 3.26182317733764648438e+00) (67, 4.67834234237670898438e+00) (68, 6.15760922431945800781e-01) (69, 1.98471895419061183929e-03) (70, 1.80531728267669677734e+00) (71, 1.64275133609771728516e+00) (72, 7.92511552572250366211e-02) (73, -2.25698083639144897461e-01) (74, -3.98668140172958374023e-01) (75, -4.14497196674346923828e-01) (76, -3.53579521179199218750e-01) (77, 5.90047180652618408203e-01) (78, -9.69015285372734069824e-02) (79, -3.63801360130310058594e+00) (80, 1.51532268524169921875e+00) (81, 7.59801769256591796875e+00) (82, 3.17673027515411376953e-01) (83, -2.75101780891418457031e-01) (84, 2.90936797857284545898e-01) (85, -2.86067575216293334961e-01) (86, -8.83672142028808593750e+00) (87, 2.76272118091583251953e-01) 
