FANN_FLO_2.1
num_layers=3
learning_rate=0.700000
connection_rate=1.000000
network_type=0
learning_momentum=0.000000
training_algorithm=2
train_error_function=1
train_stop_function=0
cascade_output_change_fraction=0.010000
quickprop_decay=-0.000100
quickprop_mu=1.750000
rprop_increase_factor=1.200000
rprop_decrease_factor=0.500000
rprop_delta_min=0.000000
rprop_delta_max=50.000000
rprop_delta_zero=0.100000
cascade_output_stagnation_epochs=12
cascade_candidate_change_fraction=0.010000
cascade_candidate_stagnation_epochs=12
cascade_max_out_epochs=150
cascade_min_out_epochs=50
cascade_max_cand_epochs=150
cascade_min_cand_epochs=50
cascade_num_candidate_groups=2
bit_fail_limit=3.49999994039535522461e-01
cascade_candidate_limit=1.00000000000000000000e+03
cascade_weight_multiplier=4.00000005960464477539e-01
cascade_activation_functions_count=10
cascade_activation_functions=3 5 7 8 10 11 14 15 16 17 
cascade_activation_steepnesses_count=4
cascade_activation_steepnesses=2.50000000000000000000e-01 5.00000000000000000000e-01 7.50000000000000000000e-01 1.00000000000000000000e+00 
layer_sizes=31 35 55 
scale_included=0
neurons (num_inputs, activation_function, activation_steepness)=(0, 0, 0.00000000000000000000e+00) (0, 0, 0.00000000000000000000e+00) (0, 0, 0.00000000000000000000e+00) (0, 0, 0.00000000000000000000e+00) (0, 0, 0.00000000000000000000e+00) (0, 0, 0.00000000000000000000e+00) (0, 0, 0.00000000000000000000e+00) (0, 0, 0.00000000000000000000e+00) (0, 0, 0.00000000000000000000e+00) (0, 0, 0.00000000000000000000e+00) (0, 0, 0.00000000000000000000e+00) (0, 0, 0.00000000000000000000e+00) (0, 0, 0.00000000000000000000e+00) (0, 0, 0.00000000000000000000e+00) (0, 0, 0.00000000000000000000e+00) (0, 0, 0.00000000000000000000e+00) (0, 0, 0.00000000000000000000e+00) (0, 0, 0.00000000000000000000e+00) (0, 0, 0.00000000000000000000e+00) (0, 0, 0.00000000000000000000e+00) (0, 0, 0.00000000000000000000e+00) (0, 0, 0.00000000000000000000e+00) (0, 0, 0.00000000000000000000e+00) (0, 0, 0.00000000000000000000e+00) (0, 0, 0.00000000000000000000e+00) (0, 0, 0.00000000000000000000e+00) (0, 0, 0.00000000000000000000e+00) (0, 0, 0.00000000000000000000e+00) (0, 0, 0.00000000000000000000e+00) (0, 0, 0.00000000000000000000e+00) (0, 0, 0.00000000000000000000e+00) (31, 4, 5.00000000000000000000e-01) (31, 4, 5.00000000000000000000e-01) (31, 4, 5.00000000000000000000e-01) (31, 4, 5.00000000000000000000e-01) (31, 4, 5.00000000000000000000e-01) (31, 4, 5.00000000000000000000e-01) (31, 4, 5.00000000000000000000e-01) (31, 4, 5.00000000000000000000e-01) (31, 4, 5.00000000000000000000e-01) (31, 4, 5.00000000000000000000e-01) (31, 4, 5.00000000000000000000e-01) (31, 4, 5.00000000000000000000e-01) (31, 4, 5.00000000000000000000e-01) (31, 4, 5.00000000000000000000e-01) (31, 4, 5.00000000000000000000e-01) (31, 4, 5.00000000000000000000e-01) (31, 4, 5.00000000000000000000e-01) (31, 4, 5.00000000000000000000e-01) (31, 4, 5.00000000000000000000e-01) (31, 4, 5.00000000000000000000e-01) (31, 4, 5.00000000000000000000e-01) (31, 4, 5.00000000000000000000e-01) (31, 4, 5.00000000000000000000e-01) (31, 4, 5.00000000000000000000e-01) (31, 4, 5.00000000000000000000e-01) (31, 4, 5.00000000000000000000e-01) (31, 4, 5.00000000000000000000e-01) (31, 4, 5.00000000000000000000e-01) (31, 4, 5.00000000000000000000e-01) (31, 4, 5.00000000000000000000e-01) (31, 4, 5.00000000000000000000e-01) (31, 4, 5.00000000000000000000e-01) (31, 4, 5.00000000000000000000e-01) (31, 4, 5.00000000000000000000e-01) (0, 0, 0.00000000000000000000e+00) (35, 4, 2.39999994635581970215e-01) (35, 4, 2.39999994635581970215e-01) (35, 4, 2.39999994635581970215e-01) (35, 4, 2.39999994635581970215e-01) (35, 4, 2.39999994635581970215e-01) (35, 4, 2.39999994635581970215e-01) (35, 4, 2.39999994635581970215e-01) (35, 4, 2.39999994635581970215e-01) (35, 4, 2.39999994635581970215e-01) (35, 4, 2.39999994635581970215e-01) (35, 4, 2.39999994635581970215e-01) (35, 4, 2.39999994635581970215e-01) (35, 4, 2.39999994635581970215e-01) (35, 4, 2.39999994635581970215e-01) (35, 4, 2.39999994635581970215e-01) (35, 4, 2.39999994635581970215e-01) (35, 4, 2.39999994635581970215e-01) (35, 4, 2.39999994635581970215e-01) (35, 4, 2.39999994635581970215e-01) (35, 4, 2.39999994635581970215e-01) (35, 4, 2.39999994635581970215e-01) (35, 4, 2.39999994635581970215e-01) (35, 4, 2.39999994635581970215e-01) (35, 4, 2.39999994635581970215e-01) (35, 4, 2.39999994635581970215e-01) (35, 4, 2.39999994635581970215e-01) (35, 4, 2.39999994635581970215e-01) (35, 4, 2.39999994635581970215e-01) (35, 4, 2.39999994635581970215e-01) (35, 4, 2.39999994635581970215e-01) (35, 4, 2.39999994635581970215e-01) (35, 4, 2.39999994635581970215e-01) (35, 4, 2.39999994635581970215e-01) (35, 4, 2.39999994635581970215e-01) (35, 4, 2.39999994635581970215e-01) (35, 4, 2.39999994635581970215e-01) (35, 4, 2.39999994635581970215e-01) (35, 4, 2.39999994635581970215e-01) (35, 4, 2.39999994635581970215e-01) (35, 4, 2.39999994635581970215e-01) (35, 4, 2.39999994635581970215e-01) (35, 4, 2.39999994635581970215e-01) (35, 4, 2.39999994635581970215e-01) (35, 4, 2.39999994635581970215e-01) (35, 4, 2.39999994635581970215e-01) (35, 4, 2.39999994635581970215e-01) (35, 4, 2.39999994635581970215e-01) (35, 4, 2.39999994635581970215e-01) (35, 4, 2.39999994635581970215e-01) (35, 4, 2.39999994635581970215e-01) (35, 4, 2.39999994635581970215e-01) (35, 4, 2.39999994635581970215e-01) (35, 4, 2.39999994635581970215e-01) (35, 4, 2.39999994635581970215e-01) (0, 0, 2.39999994635581970215e-01) 
connections (connected_to_neuron, weight)=(0, 5.61204242706298828125e+00) (1, -9.16193485260009765625e-01) (2, -3.89742088317871093750e+00) (3, 4.39730912446975708008e-01) (4, 3.41477560997009277344e+00) (5, 7.22029954195022583008e-02) (6, -7.10399866104125976562e+00) (7, -7.00323939323425292969e-01) (8, 7.76582896709442138672e-01) (9, -2.41638517379760742188e+00) (10, 2.05664825439453125000e+00) (11, 2.36694550514221191406e+00) (12, -1.28414127975702285767e-02) (13, 1.42686709761619567871e-01) (14, 1.31453680992126464844e+00) (15, 2.33647063374519348145e-01) (16, 6.98644876480102539062e-01) (17, -7.42292582988739013672e-01) (18, -6.69215381145477294922e-01) (19, -4.00467157363891601562e-01) (20, 1.50649034976959228516e+00) (21, -6.27666950225830078125e-01) (22, -3.24890702962875366211e-01) (23, 5.74752271175384521484e-01) (24, -3.77632230520248413086e-01) (25, -3.26749712228775024414e-01) (26, -3.91035020351409912109e-01) (27, -3.68048638105392456055e-01) (28, -1.46615698933601379395e-01) (29, -7.45274648070335388184e-02) (30, -7.81734168529510498047e-01) (0, -1.51046686172485351562e+01) (1, 4.46754884719848632812e+00) (2, 2.73166370391845703125e+01) (3, -2.09654402732849121094e+00) (4, -1.21699819564819335938e+01) (5, -3.31874728202819824219e+00) (6, -4.75010633468627929688e+00) (7, -6.65289497375488281250e+00) (8, 1.66446473449468612671e-02) (9, -1.02042694091796875000e+01) (10, -2.36667785644531250000e+01) (11, -5.29082298278808593750e-01) (12, -9.31242942810058593750e-01) (13, -3.56548339128494262695e-01) (14, -1.39432400465011596680e-01) (15, 1.40326499938964843750e-01) (16, -4.27103266119956970215e-02) (17, 3.41967535018920898438e+00) (18, 1.85161516070365905762e-01) (19, 1.82863676548004150391e+00) (20, 1.41784060001373291016e+00) (21, 2.10660219192504882812e+00) (22, 6.58078730106353759766e-01) (23, 1.41236686706542968750e+00) (24, 3.36281448602676391602e-01) (25, 4.45811033248901367188e-01) (26, 1.50152456760406494141e+00) (27, 2.11453977972269058228e-02) (28, 1.74123629927635192871e-01) (29, 2.35835537314414978027e-01) (30, 7.10949078202247619629e-02) (0, 8.51705505371093750000e+02) (1, 1.02710729980468750000e+03) (2, -1.49961804199218750000e+03) (3, -5.12694263458251953125e+00) (4, -8.37557983398437500000e+01) (5, -1.49003173828125000000e+03) (6, -3.29886093139648437500e+01) (7, -6.70590341091156005859e-01) (8, 4.77906972169876098633e-01) (9, -6.63841724395751953125e-01) (10, -6.87973976135253906250e+00) (11, 3.30198192596435546875e+00) (12, -1.29152977466583251953e+00) (13, 7.75978639721870422363e-02) (14, 5.64009428024291992188e-01) (15, 1.17380082607269287109e+00) (16, 4.08101797103881835938e-01) (17, 1.56940206885337829590e-01) (18, -1.00771677494049072266e+00) (19, -4.18532669544219970703e-01) (20, 1.60996794700622558594e-01) (21, -1.50425922870635986328e+00) (22, -9.57883179187774658203e-01) (23, 3.28702659606933593750e+01) (24, -2.99517810344696044922e-01) (25, -4.14595097303390502930e-01) (26, 5.70101857185363769531e-01) (27, -6.58723473548889160156e-01) (28, -3.91205012798309326172e-01) (29, -4.69370841979980468750e-01) (30, -8.34657847881317138672e-01) (0, 1.23976910114288330078e+00) (1, -2.33383488655090332031e+00) (2, 1.54953181743621826172e+00) (3, 7.11719572544097900391e-01) (4, -1.11564350128173828125e+00) (5, -2.15221285820007324219e+00) (6, -2.75754427909851074219e+00) (7, -2.30749517679214477539e-01) (8, 1.58127868175506591797e+00) (9, -8.06488931179046630859e-01) (10, -9.82442498207092285156e-01) (11, 1.40247476100921630859e+00) (12, -4.78677183389663696289e-01) (13, 1.09371453523635864258e-01) (14, -2.67591506242752075195e-01) (15, 4.90241527557373046875e-01) (16, 3.73587012290954589844e-01) (17, 7.53225147724151611328e-01) (18, -3.88823568820953369141e-01) (19, -2.17201995849609375000e+00) (20, -3.01867038011550903320e-01) (21, -3.21701526641845703125e-01) (22, -4.85678732395172119141e-01) (23, 9.47066545486450195312e-01) (24, -4.53957289457321166992e-01) (25, -4.33103777468204498291e-02) (26, 1.77460992336273193359e+00) (27, -4.25558149814605712891e-01) (28, 1.24420626088976860046e-02) (29, 4.61859464645385742188e-01) (30, -6.08121335506439208984e-01) (0, 2.14056134223937988281e+00) (1, 2.50698065757751464844e+00) (2, -7.60778236389160156250e+00) (3, -9.20501804351806640625e+00) (4, -9.74804592132568359375e+00) (5, -9.45641136169433593750e+00) (6, 1.77107408642768859863e-01) (7, 1.90157699584960937500e+00) (8, 9.73893821239471435547e-01) (9, -9.14323806762695312500e-01) (10, -4.93307209014892578125e+00) (11, -7.11691975593566894531e-01) (12, 3.59334200620651245117e-01) (13, 4.54795300960540771484e-01) (14, 4.74870711565017700195e-01) (15, 1.19127821922302246094e+00) (16, 9.25664424896240234375e-01) (17, -9.00821164250373840332e-02) (18, 2.66029089689254760742e-01) (19, 1.30662426352500915527e-01) (20, -3.64153236150741577148e-01) (21, 2.06870627403259277344e+00) (22, 1.80093958973884582520e-01) (23, -5.21988093852996826172e-01) (24, 5.08308827877044677734e-01) (25, 8.29615771770477294922e-01) (26, -1.09739694744348526001e-02) (27, -2.60142594575881958008e-01) (28, -3.66458117961883544922e-01) (29, -2.93285306543111801147e-02) (30, 2.46783062815666198730e-01) (0, 8.51705505371093750000e+02) (1, 1.02710729980468750000e+03) (2, -1.49961804199218750000e+03) (3, -2.54886112213134765625e+01) (4, -2.00063034057617187500e+02) (5, -1.49003173828125000000e+03) (6, -3.14494171142578125000e+01) (7, -4.89415436983108520508e-01) (8, 1.66026130318641662598e-01) (9, -3.27809047698974609375e+00) (10, -5.41143342852592468262e-02) (11, 3.04172015190124511719e+00) (12, -1.80629134178161621094e+00) (13, 1.55079528689384460449e-01) (14, 5.13054788112640380859e-01) (15, 1.25160944461822509766e+00) (16, 3.29952329397201538086e-01) (17, 5.88583648204803466797e-02) (18, -1.13476896286010742188e+00) (19, -5.07987737655639648438e-01) (20, 2.57632523775100708008e-01) (21, -7.46478259563446044922e-01) (22, -4.38862621784210205078e-01) (23, 8.08624362945556640625e+00) (24, -3.26420456171035766602e-01) (25, -1.24692052602767944336e-01) (26, 4.47184324264526367188e-01) (27, -4.39039796590805053711e-01) (28, -2.61739909648895263672e-01) (29, -4.94463860988616943359e-01) (30, -6.57921135425567626953e-01) (0, 8.51705505371093750000e+02) (1, 1.02710729980468750000e+03) (2, -1.49961804199218750000e+03) (3, -4.60726833343505859375e+00) (4, -3.83758888244628906250e+01) (5, -1.49003173828125000000e+03) (6, -2.78364543914794921875e+01) (7, -6.44998252391815185547e-01) (8, 5.61491489410400390625e-01) (9, -1.76176333427429199219e+00) (10, -3.84358197450637817383e-01) (11, 4.17901563644409179688e+00) (12, -3.51587724685668945312e+00) (13, -2.79065519571304321289e-01) (14, -4.54184301197528839111e-02) (15, 1.03435361385345458984e+00) (16, 8.83249267935752868652e-02) (17, -1.48182604461908340454e-02) (18, -7.34415411949157714844e-01) (19, -4.42187339067459106445e-01) (20, -1.78064480423927307129e-01) (21, -7.38501608371734619141e-01) (22, -3.68462324142456054688e-01) (23, 3.18018031120300292969e+00) (24, -4.77387160062789916992e-01) (25, -3.52135092020034790039e-01) (26, 1.54346215724945068359e+00) (27, -7.81310617923736572266e-01) (28, -6.81387364864349365234e-01) (29, -7.51780450344085693359e-01) (30, -1.14162814617156982422e+00) (0, 6.89280986785888671875e-01) (1, 1.61551570892333984375e+01) (2, -2.20468921661376953125e+01) (3, -6.29039001464843750000e+00) (4, -1.77689015865325927734e+00) (5, 2.81803750991821289062e+00) (6, 2.18734797090291976929e-02) (7, 6.62106657028198242188e+00) (8, -2.17899360656738281250e+01) (9, 1.68227744102478027344e+00) (10, -2.80001091957092285156e+00) (11, -2.46224856376647949219e+00) (12, 3.89925003051757812500e-01) (13, 5.10694563388824462891e-01) (14, 4.38073635101318359375e-01) (15, 5.33717870712280273438e-01) (16, 6.18443679809570312500e+00) (17, -1.54901480674743652344e+00) (18, 1.78625866770744323730e-01) (19, -7.62536525726318359375e-02) (20, -1.54957032203674316406e+00) (21, 4.99195381999015808105e-02) (22, -8.25158134102821350098e-02) (23, -9.62305724620819091797e-01) (24, 7.11251914501190185547e-01) (25, 2.91032761335372924805e-01) (26, 6.72082662582397460938e-01) (27, -1.18489694595336914062e+00) (28, -1.51967972517013549805e-01) (29, 2.72690266370773315430e-01) (30, -5.73655404150485992432e-02) (0, -1.45422487258911132812e+01) (1, 1.64452552795410156250e+01) (2, -2.54188346862792968750e+01) (3, -3.60225524902343750000e+01) (4, 2.16075077652931213379e-01) (5, 2.80775871276855468750e+01) (6, -2.61359423398971557617e-01) (7, 2.43876814842224121094e+00) (8, -1.92766118049621582031e+00) (9, -3.26210165023803710938e+00) (10, 1.16473245620727539062e+00) (11, 4.98954281210899353027e-02) (12, 9.89605307579040527344e-01) (13, 2.64951348304748535156e-01) (14, 2.92164874076843261719e+00) (15, -8.72962951660156250000e-01) (16, -7.01512455940246582031e-01) (17, 3.57920503616333007812e+00) (18, 2.93854743242263793945e-01) (19, 5.23112249374389648438e+00) (20, 9.20861530303955078125e+00) (21, 6.83033764362335205078e-01) (22, 8.42630565166473388672e-01) (23, 5.22176802158355712891e-01) (24, -1.04656496047973632812e+01) (25, 2.10008978843688964844e-01) (26, 9.72562193870544433594e-01) (27, 1.03494358062744140625e+00) (28, 1.15901911258697509766e+00) (29, 3.68980765342712402344e+00) (30, 4.47183877229690551758e-01) (0, 8.51705505371093750000e+02) (1, 1.02710729980468750000e+03) (2, -1.49961804199218750000e+03) (3, -1.64735580444335937500e+02) (4, -4.46373535156250000000e+02) (5, -1.49003173828125000000e+03) (6, -7.56660079956054687500e+01) (7, -5.65112352371215820312e-01) (8, 4.29501384496688842773e-01) (9, -1.99670803546905517578e+00) (10, -5.71398258209228515625e-01) (11, 3.32143568992614746094e+00) (12, -5.66162443161010742188e+00) (13, 9.71015691757202148438e-02) (14, 4.30480718612670898438e-01) (15, 1.15253305435180664062e+00) (16, 2.86621242761611938477e-01) (17, 1.27435296773910522461e-01) (18, -1.65711772441864013672e+00) (19, -9.40771937370300292969e-01) (20, 2.01457604765892028809e-01) (21, -1.29223597049713134766e+00) (22, -5.11508405208587646484e-01) (23, 1.39565925598144531250e+01) (24, -3.91382783651351928711e-01) (25, -1.85677394270896911621e-01) (26, 4.68384146690368652344e-01) (27, -8.21696221828460693359e-01) (28, -7.05965816974639892578e-01) (29, -7.58866965770721435547e-01) (30, -1.18135571479797363281e+00) (0, 4.42083282470703125000e+01) (1, 3.58701896667480468750e+01) (2, -9.04925918579101562500e+00) (3, -9.65347468852996826172e-01) (4, 1.09398469924926757812e+01) (5, -6.05300426483154296875e+00) (6, -1.84760674834251403809e-01) (7, 1.48661160469055175781e+00) (8, 1.16174554824829101562e+00) (9, 2.01078104972839355469e+00) (10, 4.06219124794006347656e-01) (11, 3.66263628005981445312e+00) (12, 6.99548304080963134766e-01) (13, 1.20796847343444824219e+00) (14, 3.60260963439941406250e-01) (15, -3.82288023829460144043e-02) (16, -2.81503701210021972656e+00) (17, -3.04407715797424316406e+00) (18, -1.38893330097198486328e+00) (19, 1.51256218552589416504e-01) (20, 7.77237594127655029297e-01) (21, -1.76240175962448120117e-01) (22, -1.20686464011669158936e-01) (23, 7.69649684429168701172e-01) (24, -8.43088722229003906250e+00) (25, -5.65846860408782958984e-01) (26, 1.45009398460388183594e+00) (27, -1.36490985751152038574e-01) (28, -1.87590107321739196777e-01) (29, -5.51328229904174804688e+00) (30, -1.09880492091178894043e-02) (0, -4.11478668451309204102e-01) (1, 5.30542755126953125000e+00) (2, -8.71237754821777343750e+00) (3, -3.75309419631958007812e+00) (4, 3.72937536239624023438e+00) (5, -4.66891574859619140625e+00) (6, 2.08956331014633178711e-01) (7, 3.75411175191402435303e-02) (8, -1.23161935806274414062e+00) (9, -7.59122550487518310547e-01) (10, -7.66398683190345764160e-02) (11, 1.60402819514274597168e-01) (12, 3.98736119270324707031e-01) (13, -1.47307455539703369141e+00) (14, -2.45647883415222167969e+00) (15, 3.30819988250732421875e+00) (16, 3.67417842149734497070e-01) (17, 8.30514669418334960938e-01) (18, -3.99832874536514282227e-02) (19, -1.60576611757278442383e-01) (20, 6.38664722442626953125e-01) (21, 8.93466055393218994141e-01) (22, -1.14947199821472167969e-01) (23, 2.44519203901290893555e-01) (24, 4.97174441814422607422e-01) (25, -1.66896963119506835938e+00) (26, -2.68147345632314682007e-02) (27, 1.93878207355737686157e-02) (28, 1.24796561896800994873e-01) (29, 1.73713952302932739258e-01) (30, -1.59496441483497619629e-01) (0, 9.37678909301757812500e+00) (1, 4.44644004106521606445e-01) (2, -8.40818023681640625000e+00) (3, 9.35831844806671142578e-01) (4, -1.01491050720214843750e+01) (5, -2.38547592163085937500e+01) (6, -1.34831571578979492188e+00) (7, 9.91431653499603271484e-01) (8, 4.03595829010009765625e+00) (9, 3.21177363395690917969e-01) (10, -8.80220293998718261719e-01) (11, -1.63112556934356689453e+00) (12, -3.58952403068542480469e+00) (13, -3.17873001098632812500e-01) (14, 1.60817074775695800781e+00) (15, -4.91765618324279785156e-01) (16, -8.61250460147857666016e-02) (17, -2.45380148291587829590e-01) (18, 1.16085551679134368896e-01) (19, 3.02834510803222656250e-01) (20, -1.02881882339715957642e-02) (21, 2.50362604856491088867e-01) (22, 3.35904389619827270508e-01) (23, 1.17083437740802764893e-01) (24, 2.23680719733238220215e-01) (25, 3.80113601684570312500e-01) (26, 6.03506922721862792969e-01) (27, 1.68172284960746765137e-01) (28, 1.36713743209838867188e-01) (29, 1.18346774578094482422e+00) (30, 2.75006413459777832031e-01) (0, 8.67391113281250000000e+02) (1, 1.45571557617187500000e+03) (2, -1.49734826660156250000e+03) (3, -1.12052070617675781250e+02) (4, -4.78892944335937500000e+02) (5, -1.49031103515625000000e+03) (6, -4.49149856567382812500e+01) (7, -1.75965815782546997070e-01) (8, 8.16700339317321777344e-01) (9, -6.85234832763671875000e+01) (10, 2.45138064026832580566e-01) (11, 6.35577630996704101562e+00) (12, 1.54479618072509765625e+01) (13, 3.15623021125793457031e+00) (14, -6.20141699910163879395e-02) (15, 8.15728306770324707031e-01) (16, 1.81529903411865234375e+00) (17, 2.63410263061523437500e+01) (18, -9.41301524639129638672e-01) (19, -5.02066016197204589844e-01) (20, 8.23516428470611572266e-01) (21, -8.06129634380340576172e-01) (22, -4.45800542831420898438e-01) (23, 7.91697692871093750000e+01) (24, 3.22818793356418609619e-02) (25, -5.18834590911865234375e-02) (26, 7.18783569335937500000e+00) (27, -4.17123794555664062500e-01) (28, -2.33948677778244018555e-01) (29, -2.28094622492790222168e-01) (30, -6.70127868652343750000e-01) (0, -9.81231021881103515625e+00) (1, 7.54892883300781250000e+01) (2, -1.16814432144165039062e+01) (3, -3.40029239654541015625e+00) (4, -1.07064747810363769531e+00) (5, -1.53788261413574218750e+01) (6, -2.62288737297058105469e+00) (7, 1.42230257391929626465e-01) (8, -7.96585559844970703125e+00) (9, 8.71419787406921386719e-01) (10, 1.67582035064697265625e-01) (11, 3.31654846668243408203e-01) (12, 4.81749400496482849121e-02) (13, 1.76132008433341979980e-01) (14, 2.10578247904777526855e-01) (15, -6.60947918891906738281e-01) (16, 8.14750611782073974609e-01) (17, 1.92781388759613037109e+00) (18, -1.73582926392555236816e-01) (19, -1.99778437614440917969e-01) (20, 1.24110877513885498047e-01) (21, -1.42852351069450378418e-01) (22, -1.59367080777883529663e-02) (23, 3.61202120780944824219e+00) (24, 1.03846840560436248779e-01) (25, 2.53771513700485229492e-01) (26, 1.69471609592437744141e+00) (27, 7.30434656143188476562e-02) (28, 1.48435801267623901367e-01) (29, -1.92174947261810302734e+00) (30, 2.19333469867706298828e-02) (0, 1.29383146762847900391e+00) (1, -1.42675507068634033203e+00) (2, -1.43341255187988281250e+01) (3, -7.77338743209838867188e-01) (4, -1.52135813236236572266e+00) (5, -1.18529129028320312500e+00) (6, -2.64590740203857421875e+00) (7, -1.63655233383178710938e+00) (8, 4.64354872703552246094e-01) (9, 2.86061465740203857422e-01) (10, 3.55130672454833984375e+00) (11, 2.35548973083496093750e+00) (12, -4.88368272781372070312e-01) (13, 2.14738821983337402344e+00) (14, 4.03296314179897308350e-02) (15, 1.42312899231910705566e-01) (16, 2.55755448341369628906e+00) (17, -6.03700205683708190918e-02) (18, -6.15239441394805908203e-01) (19, -2.16793283820152282715e-01) (20, 4.70997184514999389648e-01) (21, -4.13495570421218872070e-01) (22, -1.78451865911483764648e-01) (23, 4.56204742193222045898e-01) (24, -1.69003084301948547363e-01) (25, -7.02500417828559875488e-02) (26, 7.62842059135437011719e-01) (27, -3.34455013275146484375e-01) (28, -3.34507107734680175781e-01) (29, -1.03083157539367675781e+00) (30, -7.46135532855987548828e-01) (0, 8.51705505371093750000e+02) (1, 1.02710729980468750000e+03) (2, -1.49961804199218750000e+03) (3, -2.47597193717956542969e+00) (4, -8.40806198120117187500e+01) (5, -1.49003173828125000000e+03) (6, -2.04549293518066406250e+01) (7, -3.48591357469558715820e-01) (8, 4.42381978034973144531e-01) (9, -7.19908595085144042969e-01) (10, -5.52038438618183135986e-02) (11, 3.26903772354125976562e+00) (12, -3.16403818130493164062e+00) (13, -9.10173403099179267883e-04) (14, 5.91525793075561523438e-01) (15, 1.13517427444458007812e+00) (16, 3.31604629755020141602e-01) (17, 9.21356230974197387695e-02) (18, -1.05920314788818359375e+00) (19, -4.14080828428268432617e-01) (20, 1.57392010092735290527e-01) (21, -1.08700335025787353516e+00) (22, -3.58588963747024536133e-01) (23, 7.99167251586914062500e+00) (24, -3.54126900434494018555e-01) (25, -3.23643356561660766602e-01) (26, 5.84193408489227294922e-01) (27, -1.28109145164489746094e+00) (28, -1.12767231464385986328e+00) (29, -6.04403436183929443359e-01) (30, -1.43131291866302490234e+00) (0, -1.50000000000000000000e+03) (1, -1.50000000000000000000e+03) (2, -1.50000000000000000000e+03) (3, -1.97807312011718750000e+01) (4, -3.18965196609497070312e+00) (5, 3.73398870229721069336e-01) (6, -8.84335422515869140625e+00) (7, -1.68069481849670410156e+00) (8, 3.16088175773620605469e+00) (9, 1.60527035593986511230e-01) (10, -3.49114760756492614746e-02) (11, 1.85369706153869628906e+00) (12, 1.15216398239135742188e+00) (13, -8.20856392383575439453e-02) (14, 1.37935709953308105469e+00) (15, 1.72602391242980957031e+00) (16, 1.94803878664970397949e-01) (17, 9.70676124095916748047e-01) (18, -7.79655575752258300781e-01) (19, 9.70310810953378677368e-03) (20, 1.09312915802001953125e+00) (21, -8.39800357818603515625e-01) (22, -2.75026351213455200195e-01) (23, 1.06186246871948242188e+00) (24, -2.68263995647430419922e-01) (25, -2.27830618619918823242e-01) (26, -2.13738277554512023926e-01) (27, -4.07063961029052734375e-02) (28, 1.57767727971076965332e-01) (29, 1.20669889450073242188e+00) (30, -6.09775006771087646484e-01) (0, 1.06100730895996093750e+01) (1, -3.75862288475036621094e+00) (2, -2.52740249633789062500e+01) (3, -3.18573594093322753906e+00) (4, -2.96771377325057983398e-01) (5, -1.91605007648468017578e+00) (6, -3.60619568824768066406e+00) (7, 1.54172390699386596680e-01) (8, 4.83375930786132812500e+00) (9, -6.27192306518554687500e+00) (10, -1.94605445861816406250e+00) (11, 5.11219930648803710938e+00) (12, 1.02154219150543212891e+00) (13, 5.41483163833618164062e-01) (14, -3.91030579805374145508e-01) (15, -4.26016077399253845215e-02) (16, 5.52145421504974365234e-01) (17, 1.73769080638885498047e+00) (18, -3.43124508857727050781e-01) (19, -3.33849161863327026367e-01) (20, 1.29457461833953857422e+00) (21, -3.82983773946762084961e-01) (22, -2.41993695497512817383e-01) (23, 1.09850633144378662109e+00) (24, 5.78595185652375221252e-03) (25, 1.47868499159812927246e-01) (26, 1.59624052047729492188e+00) (27, -1.53289377689361572266e+00) (28, -9.48969900608062744141e-01) (29, -5.16661465167999267578e-01) (30, -4.63389664888381958008e-01) (0, 8.51705505371093750000e+02) (1, 1.02710729980468750000e+03) (2, -1.49961840820312500000e+03) (3, -1.85079460144042968750e+01) (4, -1.54802780151367187500e+01) (5, -1.49003210449218750000e+03) (6, -7.71380424499511718750e+00) (7, -4.22803908586502075195e-01) (8, 3.81474494934082031250e-01) (9, -4.21254068613052368164e-01) (10, -2.79809907078742980957e-03) (11, 2.95796823501586914062e+00) (12, -9.29554164409637451172e-01) (13, 4.30158466100692749023e-01) (14, 4.65798139572143554688e-01) (15, 1.23212158679962158203e+00) (16, 3.63441169261932373047e-01) (17, 1.44609570503234863281e-01) (18, -7.77701139450073242188e-01) (19, -4.78805243968963623047e-01) (20, 3.53516638278961181641e-01) (21, -4.32324200868606567383e-01) (22, -4.34756219387054443359e-01) (23, 8.42201709747314453125e+00) (24, -2.49371290206909179688e-01) (25, -1.50759488344192504883e-01) (26, 5.20679771900177001953e-01) (27, -6.20274364948272705078e-01) (28, -2.11690843105316162109e-01) (29, -4.44062352180480957031e-01) (30, -7.54389464855194091797e-01) (0, 3.21097183227539062500e+01) (1, 2.44862246513366699219e+00) (2, -3.95655288696289062500e+01) (3, -3.86370396614074707031e+00) (4, -1.64046370983123779297e+00) (5, -5.87945985794067382812e+00) (6, 1.04782593250274658203e+00) (7, 1.33004832267761230469e+00) (8, -2.80019903182983398438e+00) (9, 1.62003695964813232422e+00) (10, -3.49165946245193481445e-01) (11, 3.33461686968803405762e-02) (12, 2.97701716423034667969e-01) (13, 1.52301818132400512695e-01) (14, -4.59217168390750885010e-02) (15, -1.73796212673187255859e+00) (16, -3.92123699188232421875e-01) (17, 5.16749083995819091797e-01) (18, 2.79772073030471801758e-01) (19, -1.38484847545623779297e+00) (20, 2.05577686429023742676e-01) (21, 6.79081156849861145020e-02) (22, 1.26765102148056030273e-01) (23, 1.46503806114196777344e+00) (24, -2.23348721861839294434e-01) (25, -1.66589245200157165527e-02) (26, 8.30575346946716308594e-01) (27, -1.68780192732810974121e-01) (28, -3.61350066959857940674e-02) (29, -1.50628194212913513184e-01) (30, -2.60904937982559204102e-01) (0, 8.51705505371093750000e+02) (1, 1.02710729980468750000e+03) (2, -1.49961804199218750000e+03) (3, -6.74004440307617187500e+01) (4, -1.05721813964843750000e+03) (5, -1.49003173828125000000e+03) (6, -2.01723205566406250000e+02) (7, -4.88230645656585693359e-01) (8, 4.90025103092193603516e-01) (9, -1.87716734409332275391e+00) (10, -1.63828349113464355469e+00) (11, 3.25503468513488769531e+00) (12, -2.64803218841552734375e+00) (13, -4.76761370897293090820e-01) (14, 2.93947011232376098633e-01) (15, 1.29230976104736328125e+00) (16, 1.27465501427650451660e-01) (17, 2.73775398731231689453e-01) (18, -2.08312559127807617188e+00) (19, -6.71123564243316650391e-01) (20, 2.39173337817192077637e-01) (21, -1.57037556171417236328e+00) (22, -5.18219649791717529297e-01) (23, 1.39434881210327148438e+01) (24, -6.72316074371337890625e-01) (25, -1.95143207907676696777e-01) (26, 5.05664825439453125000e-01) (27, -8.71304988861083984375e-01) (28, -7.75464296340942382812e-01) (29, -7.77033865451812744141e-01) (30, -1.07598161697387695312e+00) (0, 8.51705505371093750000e+02) (1, 1.02710729980468750000e+03) (2, -1.49961804199218750000e+03) (3, -2.02566051483154296875e+01) (4, -8.39100799560546875000e+01) (5, -1.49003173828125000000e+03) (6, -1.94485588073730468750e+01) (7, -6.15914463996887207031e-01) (8, 5.11787593364715576172e-01) (9, -1.18637442588806152344e+00) (10, -1.12018100917339324951e-01) (11, 2.81975984573364257812e+00) (12, -1.18755567073822021484e+00) (13, 2.68805503845214843750e-01) (14, 1.53996691107749938965e-01) (15, 1.16136598587036132812e+00) (16, 4.19853478670120239258e-01) (17, 1.26123011112213134766e-01) (18, -1.00513434410095214844e+00) (19, -4.17372316122055053711e-01) (20, 2.22502171993255615234e-01) (21, -8.02252292633056640625e-01) (22, -1.07220447063446044922e+00) (23, 8.06921291351318359375e+00) (24, -2.32398718595504760742e-01) (25, -1.58502802252769470215e-01) (26, 5.73190033435821533203e-01) (27, -6.00359380245208740234e-01) (28, -2.89259463548660278320e-01) (29, -4.74295526742935180664e-01) (30, -1.38815391063690185547e+00) (0, -4.79702720642089843750e+01) (1, -1.80832805633544921875e+01) (2, 3.18308219909667968750e+01) (3, -1.10084903240203857422e+00) (4, -3.66970586776733398438e+00) (5, 3.57531279325485229492e-01) (6, -6.99731922149658203125e+00) (7, -1.62015378475189208984e+00) (8, 4.48769629001617431641e-01) (9, -1.22713279724121093750e+00) (10, -6.34594619274139404297e-01) (11, 2.27597570419311523438e+00) (12, 2.60945963859558105469e+00) (13, -3.12495857477188110352e-01) (14, -1.44473898410797119141e+00) (15, 7.46707990765571594238e-02) (16, 4.20057773590087890625e-01) (17, -1.89398169517517089844e-01) (18, -8.27497899532318115234e-01) (19, -2.32051432132720947266e-01) (20, 7.57689058780670166016e-01) (21, -7.94211804866790771484e-01) (22, -2.65524357557296752930e-01) (23, 8.29582333564758300781e-01) (24, -1.39349000528454780579e-02) (25, -2.56117194890975952148e-01) (26, 2.29683923721313476562e+00) (27, -6.20690062642097473145e-02) (28, -7.35925659537315368652e-02) (29, 1.79593011736869812012e-01) (30, -5.81378996372222900391e-01) (0, -1.64917993545532226562e+00) (1, 9.92210209369659423828e-01) (2, 2.36910533905029296875e+00) (3, 2.59652286767959594727e-01) (4, 2.14471387863159179688e+00) (5, 4.36295121908187866211e-01) (6, 3.27235579490661621094e+00) (7, 3.14741522073745727539e-01) (8, -6.42944717407226562500e+00) (9, -9.80585932731628417969e-01) (10, 2.02752262353897094727e-01) (11, -3.29655021429061889648e-01) (12, -3.35385411977767944336e-01) (13, 3.07762056589126586914e-01) (14, 9.90998864173889160156e-01) (15, -1.98568865656852722168e-01) (16, 8.94690304994583129883e-02) (17, -1.45707562565803527832e-01) (18, -1.82226553559303283691e-01) (19, 4.63323056697845458984e-01) (20, 9.31541100144386291504e-02) (21, -2.11330577731132507324e-01) (22, 9.06027555465698242188e-02) (23, -7.91783034801483154297e-02) (24, -2.10492700338363647461e-01) (25, -9.25128161907196044922e-02) (26, -3.76363880932331085205e-02) (27, -5.42575478553771972656e-01) (28, -3.94666641950607299805e-01) (29, -6.91803619265556335449e-02) (30, -1.10849104821681976318e-01) (0, 8.51705505371093750000e+02) (1, 1.02710729980468750000e+03) (2, -1.49961804199218750000e+03) (3, -6.86365737915039062500e+01) (4, -4.46699127197265625000e+02) (5, -1.49003173828125000000e+03) (6, -4.27431793212890625000e+01) (7, -5.94875752925872802734e-01) (8, 4.85959500074386596680e-01) (9, -2.40818768739700317383e-01) (10, 3.89369614422321319580e-02) (11, 3.66028118133544921875e+00) (12, -2.97984576225280761719e+00) (13, 1.60643309354782104492e-01) (14, 6.98610365390777587891e-01) (15, 1.20793807506561279297e+00) (16, 5.33930957317352294922e-01) (17, 8.49611639976501464844e-01) (18, -6.59494638442993164062e-01) (19, -4.84899699687957763672e-01) (20, -1.03796742856502532959e-01) (21, -5.75381875038146972656e-01) (22, -3.43945652246475219727e-01) (23, 5.79539203643798828125e+00) (24, -3.19658070802688598633e-01) (25, -3.35675746202468872070e-01) (26, 3.61135721206665039062e-01) (27, -7.32100486755371093750e-01) (28, -4.75765228271484375000e-01) (29, -6.32404863834381103516e-01) (30, -1.96098220348358154297e+00) (0, 2.97824478149414062500e+01) (1, -1.42442922592163085938e+01) (2, -9.28885192871093750000e+01) (3, 2.20650577545166015625e+01) (4, -2.80300807952880859375e+01) (5, -4.96964073181152343750e+00) (6, 6.03018188476562500000e+00) (7, -1.29238662719726562500e+01) (8, 9.45091819763183593750e+00) (9, 7.99353122711181640625e+00) (10, -6.82602596282958984375e+00) (11, 7.87748098373413085938e-01) (12, 1.68007910251617431641e-01) (13, -2.56577223539352416992e-01) (14, 9.01016139984130859375e+00) (15, 1.89448282122611999512e-01) (16, -1.48672074079513549805e-01) (17, -6.56289398670196533203e-01) (18, 4.93614524602890014648e-02) (19, -2.58863776922225952148e-01) (20, -3.27514320611953735352e-01) (21, -1.83728873729705810547e-01) (22, 5.58797130361199378967e-03) (23, -1.68224787712097167969e+00) (24, -1.19458675384521484375e-01) (25, 2.07740887999534606934e-01) (26, 3.21336150169372558594e-01) (27, 7.79784083366394042969e-01) (28, 3.15425127744674682617e-01) (29, 3.44813823699951171875e-01) (30, 5.97316086292266845703e-01) (0, 2.49967741966247558594e+00) (1, 3.06562095880508422852e-01) (2, -6.57734584808349609375e+00) (3, -1.09622812271118164062e+01) (4, -2.87740206718444824219e+00) (5, -2.48451495170593261719e+00) (6, -1.01104211807250976562e+00) (7, -1.12796001136302947998e-01) (8, -1.00684242248535156250e+01) (9, -1.86687245965003967285e-01) (10, 2.26784572005271911621e-02) (11, 3.28484177589416503906e-01) (12, 9.65261459350585937500e-02) (13, 1.38107031583786010742e-01) (14, -2.71374061703681945801e-02) (15, 6.24504238367080688477e-02) (16, -1.90824210643768310547e-01) (17, -4.83502708375453948975e-02) (18, -1.07089877128601074219e-01) (19, 1.44235536456108093262e-01) (20, 8.49496662616729736328e-01) (21, 7.75484740734100341797e-02) (22, 1.24956592917442321777e-01) (23, 1.30904585123062133789e-01) (24, -8.01988616585731506348e-02) (25, -8.66643339395523071289e-02) (26, -1.01232722401618957520e-01) (27, 1.34351575374603271484e+00) (28, 6.46924018859863281250e-01) (29, 9.91626203060150146484e-01) (30, 2.31332704424858093262e-01) (0, -1.32324237823486328125e+01) (1, 3.53948998451232910156e+00) (2, -3.15361652374267578125e+01) (3, 5.47509622573852539062e+00) (4, 1.34515924453735351562e+01) (5, -6.89380121231079101562e+00) (6, -6.21372365951538085938e+00) (7, 6.52123336791992187500e+01) (8, 6.54517412185668945312e+00) (9, 4.70106935501098632812e+00) (10, -1.46663248538970947266e-01) (11, -4.71973037719726562500e+00) (12, -8.61393734812736511230e-02) (13, 4.26494181156158447266e-01) (14, -2.78137445449829101562e+00) (15, -6.17408466339111328125e+00) (16, 3.03662705421447753906e+00) (17, 1.14263498783111572266e+00) (18, -7.13552618026733398438e+00) (19, -4.05072307586669921875e+00) (20, -1.18797540664672851562e+00) (21, 1.74259185791015625000e-01) (22, 6.93127736449241638184e-02) (23, 1.70690074563026428223e-01) (24, -2.86650955677032470703e-02) (25, 2.26665675640106201172e-01) (26, 1.75601541996002197266e-01) (27, 1.39465793967247009277e-01) (28, 2.46341228485107421875e-02) (29, 1.83616995811462402344e-01) (30, -4.53105606138706207275e-02) (0, 8.51705505371093750000e+02) (1, 1.02710729980468750000e+03) (2, -1.49961804199218750000e+03) (3, -6.82725372314453125000e+01) (4, -1.05711352539062500000e+03) (5, -1.49003173828125000000e+03) (6, -4.68294189453125000000e+02) (7, -1.03945660591125488281e+00) (8, 9.81154561042785644531e-01) (9, -5.47718667984008789062e+00) (10, -1.53583860397338867188e+01) (11, 3.86473464965820312500e+00) (12, -1.29773492813110351562e+01) (13, 1.58328875899314880371e-01) (14, 7.92008697986602783203e-01) (15, 9.10107016563415527344e-01) (16, -2.30780169367790222168e-01) (17, 6.57511889934539794922e-01) (18, -2.55522108078002929688e+00) (19, -1.51112270355224609375e+00) (20, -7.61277303099632263184e-02) (21, -9.00242328643798828125e-01) (22, -1.35583615303039550781e+00) (23, 3.30579795837402343750e+01) (24, -4.54205572605133056641e-01) (25, -9.99573469161987304688e-01) (26, 8.98211658000946044922e-01) (27, -1.69130635261535644531e+00) (28, -8.72404515743255615234e-01) (29, -9.36294853687286376953e-01) (30, -1.81071805953979492188e+00) (0, 1.01360535621643066406e+00) (1, -1.64724409580230712891e-01) (2, -1.50333201885223388672e+00) (3, -3.84311699867248535156e+00) (4, -1.51015925407409667969e+00) (5, -9.19214308261871337891e-01) (6, -4.06535863876342773438e+00) (7, -8.51575508713722229004e-02) (8, 2.46210789680480957031e+00) (9, 2.62712061405181884766e-01) (10, -3.88497561216354370117e-01) (11, 7.80586063861846923828e-01) (12, 2.80663937330245971680e-01) (13, 1.24841308593750000000e+00) (14, -2.46093310415744781494e-02) (15, -2.13923275470733642578e-01) (16, 8.82603764533996582031e-01) (17, 5.15552423894405364990e-03) (18, 3.85929271578788757324e-03) (19, -4.06943470239639282227e-01) (20, 2.88729369640350341797e-01) (21, -3.29602807760238647461e-01) (22, -4.01198983192443847656e-01) (23, 3.26089829206466674805e-01) (24, -3.80287826061248779297e-01) (25, -2.43161424994468688965e-01) (26, 2.98301372677087783813e-02) (27, -6.85255169868469238281e-01) (28, -4.69533085823059082031e-01) (29, -7.32982873916625976562e-01) (30, -4.93095815181732177734e-01) (0, 8.45967388153076171875e+00) (1, 5.87301292419433593750e+01) (2, -8.83442230224609375000e+01) (3, 2.07582139968872070312e+00) (4, -1.07350552082061767578e+00) (5, -1.17735414505004882812e+01) (6, -5.01907873153686523438e+00) (7, -5.89774429798126220703e-01) (8, -9.87634479999542236328e-01) (9, 1.73783913254737854004e-01) (10, 9.90110754966735839844e-01) (11, -1.64184212684631347656e+00) (12, 6.78954571485519409180e-02) (13, 1.73730328679084777832e-01) (14, -1.15906608104705810547e+00) (15, -2.45854064822196960449e-01) (16, -6.49843066930770874023e-02) (17, -2.18089684844017028809e-01) (18, 3.04046534001827239990e-02) (19, 2.35972076654434204102e-01) (20, -2.03549519181251525879e-01) (21, 2.22606897354125976562e-01) (22, 6.07612580060958862305e-02) (23, 7.24597930908203125000e-01) (24, 3.10707896947860717773e-01) (25, 4.09530937671661376953e-01) (26, 6.30020320415496826172e-01) (27, 2.53238946199417114258e-01) (28, 2.63696104288101196289e-01) (29, -1.62646695971488952637e-01) (30, 1.10221035778522491455e-01) (0, 9.01694178581237792969e-01) (1, -1.20502853393554687500e+00) (2, -3.68133401870727539062e+00) (3, -4.66359376907348632812e+00) (4, 2.13779620826244354248e-02) (5, -1.39716446399688720703e-01) (6, -6.68269920349121093750e+00) (7, -1.36797860264778137207e-01) (8, 1.11087214946746826172e+00) (9, -5.01268243789672851562e+00) (10, -3.24320256710052490234e-01) (11, -1.22566378116607666016e+00) (12, -5.35893976688385009766e-01) (13, 6.08905911445617675781e-01) (14, 8.17664206027984619141e-01) (15, 2.01927661895751953125e+00) (16, 5.06582617759704589844e-01) (17, -1.53217986226081848145e-01) (18, 4.65343087911605834961e-01) (19, -8.76760482788085937500e-02) (20, 1.15796399116516113281e+00) (21, -2.76040077209472656250e-01) (22, -2.45716013014316558838e-02) (23, 1.06442987918853759766e+00) (24, -3.04348349571228027344e-01) (25, -1.16006121039390563965e-01) (26, 1.30837833881378173828e+00) (27, -4.38991844654083251953e-01) (28, -2.62804180383682250977e-01) (29, -3.90587329864501953125e-01) (30, -2.77886986732482910156e-01) (0, 1.59452259540557861328e+00) (1, 3.36978673934936523438e+00) (2, -3.87260723114013671875e+00) (3, 6.77562132477760314941e-02) (4, 4.06987667083740234375e-01) (5, -4.49253171682357788086e-01) (6, -3.56163501739501953125e+00) (7, -5.59969604015350341797e-01) (8, 1.47906935214996337891e+00) (9, 9.13175195455551147461e-02) (10, 1.05606973171234130859e+00) (11, 1.20795154571533203125e+00) (12, 1.54353284835815429688e+00) (13, 5.79987525939941406250e-01) (14, 2.40175890922546386719e+00) (15, -2.22297757863998413086e-01) (16, 8.11267971992492675781e-01) (17, 8.44586968421936035156e-01) (18, -7.11902618408203125000e-01) (19, 5.57844527065753936768e-02) (20, 2.17387580871582031250e+00) (21, -6.82330012321472167969e-01) (22, -5.96671760082244873047e-01) (23, 8.81330907344818115234e-01) (24, -9.09833461046218872070e-02) (25, -6.52292728424072265625e-01) (26, -3.19622993469238281250e-01) (27, -8.13958644866943359375e-01) (28, -6.42246186733245849609e-01) (29, -2.97206789255142211914e-01) (30, -8.20394515991210937500e-01) (31, 1.37801704406738281250e+01) (32, -4.97287139892578125000e+01) (33, 1.50000000000000000000e+03) (34, 4.46965742111206054688e+00) (35, -1.62351970672607421875e+01) (36, 1.50000000000000000000e+03) (37, 1.50000000000000000000e+03) (38, -5.21668815612792968750e+00) (39, -3.61475253105163574219e+00) (40, 1.50000000000000000000e+03) (41, 6.42359495162963867188e+00) (42, 2.18991136550903320312e+00) (43, 5.93671989440917968750e+00) (44, 1.76074081420898437500e+02) (45, -4.76454257965087890625e+00) (46, 3.08173036575317382812e+00) (47, 1.50000000000000000000e+03) (48, 3.51638946533203125000e+01) (49, -5.40502014160156250000e+01) (50, 1.50000000000000000000e+03) (51, -1.22729949951171875000e+01) (52, 1.50000000000000000000e+03) (53, 1.50000000000000000000e+03) (54, 5.57955789566040039062e+00) (55, -2.36080303192138671875e+01) (56, 1.50000000000000000000e+03) (57, 2.09580969810485839844e+00) (58, 3.06453418731689453125e+01) (59, 1.35499894618988037109e+00) (60, 1.50000000000000000000e+03) (61, -1.10793731689453125000e+02) (62, 2.56944251060485839844e+00) (63, -2.07045722007751464844e+00) (64, 6.44276666641235351562e+00) (65, 2.40977716445922851562e+00) (31, 1.53090553283691406250e+01) (32, -5.88541336059570312500e+01) (33, 1.50000000000000000000e+03) (34, 7.28642034530639648438e+00) (35, -1.84314460754394531250e+01) (36, 1.50000000000000000000e+03) (37, 1.50000000000000000000e+03) (38, -5.81801843643188476562e+00) (39, -3.78404068946838378906e+00) (40, 1.50000000000000000000e+03) (41, 6.60009527206420898438e+00) (42, 8.26226353645324707031e-01) (43, 8.83849811553955078125e+00) (44, 1.96522232055664062500e+02) (45, -3.78700780868530273438e+00) (46, 3.22869849205017089844e+00) (47, 1.50000000000000000000e+03) (48, 3.39391937255859375000e+01) (49, -5.63627929687500000000e+01) (50, 1.50000000000000000000e+03) (51, -1.43367986679077148438e+01) (52, 1.50000000000000000000e+03) (53, 1.50000000000000000000e+03) (54, 6.24859523773193359375e+00) (55, -2.92312736511230468750e+01) (56, 1.50000000000000000000e+03) (57, 4.05678462982177734375e+00) (58, 3.41618957519531250000e+01) (59, 4.06468868255615234375e-01) (60, 1.50000000000000000000e+03) (61, -7.63175430297851562500e+01) (62, 9.69536483287811279297e-01) (63, -3.49418425559997558594e+00) (64, 3.94827532768249511719e+00) (65, 2.50372529029846191406e+00) (31, 1.91686573028564453125e+01) (32, -6.10431251525878906250e+01) (33, 1.50000000000000000000e+03) (34, 1.09202013015747070312e+01) (35, -1.89029102325439453125e+01) (36, 1.50000000000000000000e+03) (37, 1.50000000000000000000e+03) (38, -6.93928194046020507812e+00) (39, -4.43578052520751953125e+00) (40, 1.50000000000000000000e+03) (41, 5.92610549926757812500e+00) (42, -2.71433025598526000977e-01) (43, 4.68056631088256835938e+00) (44, 2.44459243774414062500e+02) (45, -2.97019934654235839844e+00) (46, 4.20250034332275390625e+00) (47, 1.50000000000000000000e+03) (48, 3.53201370239257812500e+01) (49, -6.04080238342285156250e+01) (50, 1.50000000000000000000e+03) (51, -1.60981616973876953125e+01) (52, 1.50000000000000000000e+03) (53, 1.50000000000000000000e+03) (54, 5.37001848220825195312e+00) (55, -3.63367538452148437500e+01) (56, 1.50000000000000000000e+03) (57, 4.66377210617065429688e+00) (58, 3.86439971923828125000e+01) (59, 5.49580395221710205078e-01) (60, 1.50000000000000000000e+03) (61, -8.45032348632812500000e+01) (62, 8.95415425300598144531e-01) (63, -4.57499933242797851562e+00) (64, 3.29132580757141113281e+00) (65, 4.20203351974487304688e+00) (31, 7.66350507736206054688e+00) (32, -1.83640880584716796875e+01) (33, 1.50000000000000000000e+03) (34, 1.66183109283447265625e+01) (35, 1.42028980255126953125e+01) (36, 1.50000000000000000000e+03) (37, 1.50000000000000000000e+03) (38, 1.92825736999511718750e+01) (39, 4.93569803237915039062e+00) (40, 1.50000000000000000000e+03) (41, -6.15274906158447265625e+00) (42, 3.83471757173538208008e-01) (43, 8.00683879852294921875e+00) (44, 3.47264289855957031250e+01) (45, 2.78581547737121582031e+00) (46, -1.25400257110595703125e+00) (47, 1.50000000000000000000e+03) (48, -2.91849541664123535156e+00) (49, 3.31137847900390625000e+01) (50, 1.50000000000000000000e+03) (51, 4.36351871490478515625e+00) (52, 1.50000000000000000000e+03) (53, 1.50000000000000000000e+03) (54, -2.77677059173583984375e+01) (55, -5.29520320892333984375e+00) (56, 1.50000000000000000000e+03) (57, -1.62035250663757324219e+00) (58, -3.06647319793701171875e+01) (59, -5.79099702835083007812e+00) (60, 1.50000000000000000000e+03) (61, 7.56220626831054687500e+01) (62, -6.37240362167358398438e+00) (63, 1.14509019851684570312e+01) (64, -2.26406931877136230469e+00) (65, -1.99207508563995361328e+00) (31, 9.49904537200927734375e+00) (32, -1.66403064727783203125e+01) (33, 1.50000000000000000000e+03) (34, 2.22655239105224609375e+01) (35, 1.22965135574340820312e+01) (36, 1.50000000000000000000e+03) (37, 1.50000000000000000000e+03) (38, 1.27352285385131835938e+01) (39, 3.20242762565612792969e+00) (40, 1.50000000000000000000e+03) (41, -5.10340642929077148438e+00) (42, 6.22902251780033111572e-03) (43, 8.18098068237304687500e-01) (44, 6.25352973937988281250e+01) (45, 2.67038846015930175781e+00) (46, 7.09959924221038818359e-01) (47, 1.50000000000000000000e+03) (48, -2.49952173233032226562e+00) (49, 2.74722461700439453125e+01) (50, 1.50000000000000000000e+03) (51, 4.86344146728515625000e+00) (52, 1.50000000000000000000e+03) (53, 1.50000000000000000000e+03) (54, -2.69822158813476562500e+01) (55, -1.90381515026092529297e+00) (56, 1.50000000000000000000e+03) (57, -7.57777452468872070312e-01) (58, -2.33730659484863281250e+01) (59, -5.26616048812866210938e+00) (60, 1.50000000000000000000e+03) (61, 7.76706466674804687500e+01) (62, -3.14742970466613769531e+00) (63, 8.04712581634521484375e+00) (64, -4.89676094055175781250e+00) (65, -2.83041214942932128906e+00) (31, 1.07299861907958984375e+01) (32, -2.42790164947509765625e+01) (33, 1.50000000000000000000e+03) (34, 2.22617835998535156250e+01) (35, 1.56677684783935546875e+01) (36, 1.50000000000000000000e+03) (37, 1.50000000000000000000e+03) (38, -5.71557235717773437500e+00) (39, 7.87864983081817626953e-01) (40, 1.50000000000000000000e+03) (41, -5.84352445602416992188e+00) (42, -1.58767223358154296875e+00) (43, -2.81746501922607421875e+01) (44, 2.34026165008544921875e+01) (45, 2.88292670249938964844e+00) (46, 2.12527751922607421875e+00) (47, 1.50000000000000000000e+03) (48, -6.41405582427978515625e-01) (49, 1.00158681869506835938e+01) (50, 1.50000000000000000000e+03) (51, 9.13388633728027343750e+00) (52, 1.50000000000000000000e+03) (53, 1.50000000000000000000e+03) (54, -3.12098255157470703125e+01) (55, -2.70743513107299804688e+00) (56, 1.50000000000000000000e+03) (57, -4.59670871496200561523e-02) (58, -6.31563329696655273438e+00) (59, -5.43536710739135742188e+00) (60, 1.50000000000000000000e+03) (61, 6.19107360839843750000e+01) (62, 3.05311632156372070312e+00) (63, 2.20780334472656250000e+01) (64, -5.50530624389648437500e+00) (65, -5.92995226383209228516e-01) (31, 1.93951511383056640625e+01) (32, 4.87929284572601318359e-01) (33, 1.50000000000000000000e+03) (34, 1.69305038452148437500e+00) (35, 7.86728477478027343750e+00) (36, 1.50000000000000000000e+03) (37, 1.50000000000000000000e+03) (38, -6.51419734954833984375e+00) (39, -2.43930101394653320312e+00) (40, 1.50000000000000000000e+03) (41, 3.82527518272399902344e+00) (42, 5.18914842605590820312e+00) (43, 2.26083230972290039062e+00) (44, 4.35299456119537353516e-01) (45, -8.91765117645263671875e+00) (46, 4.52676868438720703125e+00) (47, 1.50000000000000000000e+03) (48, 2.21456438302993774414e-01) (49, -5.74870681762695312500e+00) (50, 1.50000000000000000000e+03) (51, -2.71773767471313476562e+00) (52, 1.50000000000000000000e+03) (53, 1.50000000000000000000e+03) (54, -2.18447899818420410156e+00) (55, 5.29779005050659179688e+00) (56, 1.50000000000000000000e+03) (57, -4.38161087036132812500e+00) (58, 1.33751945495605468750e+01) (59, -2.94908881187438964844e-01) (60, 1.50000000000000000000e+03) (61, -7.16218566894531250000e+01) (62, -3.47789335250854492188e+00) (63, -1.37887067794799804688e+01) (64, -1.96113502979278564453e+00) (65, 1.21962928771972656250e+00) (31, 1.24034461975097656250e+01) (32, -1.89374279975891113281e+00) (33, 1.50000000000000000000e+03) (34, 8.86660480499267578125e+00) (35, 7.61431074142456054688e+00) (36, 1.50000000000000000000e+03) (37, 1.50000000000000000000e+03) (38, -2.20467853546142578125e+00) (39, -1.65966153144836425781e+00) (40, 1.50000000000000000000e+03) (41, 2.59044432640075683594e+00) (42, -4.88988250494003295898e-01) (43, 3.45419764518737792969e+00) (44, 1.71424560546875000000e+01) (45, -9.06486988067626953125e+00) (46, 3.62608313560485839844e+00) (47, 1.50000000000000000000e+03) (48, 1.05781710147857666016e+00) (49, -1.01177244186401367188e+01) (50, 1.50000000000000000000e+03) (51, -5.21253299713134765625e+00) (52, 1.50000000000000000000e+03) (53, 1.50000000000000000000e+03) (54, 9.59125638008117675781e-01) (55, -2.33734512329101562500e+00) (56, 1.50000000000000000000e+03) (57, -5.07396554946899414062e+00) (58, 1.01509895324707031250e+01) (59, -3.72166246175765991211e-01) (60, 1.50000000000000000000e+03) (61, -6.82503204345703125000e+01) (62, 1.20006263256072998047e+00) (63, -1.40302896499633789062e+01) (64, 3.32468557357788085938e+00) (65, 3.44136881828308105469e+00) (31, 8.86091041564941406250e+00) (32, -3.99546408653259277344e+00) (33, 1.50000000000000000000e+03) (34, 9.55261611938476562500e+00) (35, 6.85311794281005859375e+00) (36, 1.50000000000000000000e+03) (37, 1.50000000000000000000e+03) (38, -9.22623348236083984375e+00) (39, -2.67182683944702148438e+00) (40, 1.50000000000000000000e+03) (41, 1.56434500217437744141e+00) (42, 2.36836099624633789062e+00) (43, -5.98547101020812988281e-01) (44, -3.54456138610839843750e+01) (45, -8.62591934204101562500e+00) (46, -9.97865647077560424805e-02) (47, 1.50000000000000000000e+03) (48, 2.94125938415527343750e+00) (49, -1.23968591690063476562e+01) (50, 1.50000000000000000000e+03) (51, -8.22941875457763671875e+00) (52, 1.50000000000000000000e+03) (53, 1.50000000000000000000e+03) (54, -4.26064252853393554688e+00) (55, 2.42230296134948730469e+00) (56, 1.50000000000000000000e+03) (57, -3.48375129699707031250e+00) (58, 1.09043350219726562500e+01) (59, -1.22152280807495117188e+00) (60, 1.50000000000000000000e+03) (61, -4.70365333557128906250e+01) (62, 5.11976480484008789062e+00) (63, -4.45018815994262695312e+00) (64, 4.18300819396972656250e+00) (65, 2.99859142303466796875e+00) (31, 9.85775566101074218750e+00) (32, 8.62735033035278320312e-01) (33, 1.50000000000000000000e+03) (34, 1.18540372848510742188e+01) (35, -4.47231960296630859375e+00) (36, 1.50000000000000000000e+03) (37, 1.50000000000000000000e+03) (38, 6.26232004165649414062e+00) (39, 2.94910597801208496094e+00) (40, 1.50000000000000000000e+03) (41, 3.49147975444793701172e-01) (42, 5.16257166862487792969e-01) (43, 1.38474273681640625000e+01) (44, 9.33948974609375000000e+01) (45, -3.16198281943798065186e-02) (46, 1.20593070983886718750e+01) (47, 1.50000000000000000000e+03) (48, -1.21827611923217773438e+01) (49, -1.95956516265869140625e+01) (50, 1.50000000000000000000e+03) (51, 2.55063209533691406250e+01) (52, 1.50000000000000000000e+03) (53, 1.50000000000000000000e+03) (54, 1.87513313293457031250e+01) (55, -2.93639335632324218750e+01) (56, 1.50000000000000000000e+03) (57, -3.70756220817565917969e+00) (58, -1.07121868133544921875e+01) (59, 1.76147019863128662109e+00) (60, 1.50000000000000000000e+03) (61, 4.48403434753417968750e+01) (62, -7.20935761928558349609e-01) (63, -1.31020269393920898438e+01) (64, -3.87121772766113281250e+00) (65, 7.74988472461700439453e-01) (31, 9.55933094024658203125e+00) (32, -9.80140388011932373047e-01) (33, 1.50000000000000000000e+03) (34, 2.00585842132568359375e+01) (35, -9.62101399898529052734e-01) (36, 1.50000000000000000000e+03) (37, 1.50000000000000000000e+03) (38, -6.13336741924285888672e-01) (39, 1.41886442899703979492e-01) (40, 1.50000000000000000000e+03) (41, -1.07800543308258056641e+00) (42, 2.41824674606323242188e+00) (43, 4.03552323579788208008e-01) (44, 1.50855163574218750000e+02) (45, 1.81017315387725830078e+00) (46, 1.01135396957397460938e+01) (47, 1.50000000000000000000e+03) (48, -8.39576148986816406250e+00) (49, -2.10836849212646484375e+01) (50, 1.50000000000000000000e+03) (51, 1.60130615234375000000e+01) (52, 1.50000000000000000000e+03) (53, 1.50000000000000000000e+03) (54, 9.55435657501220703125e+00) (55, -2.98623619079589843750e+01) (56, 1.50000000000000000000e+03) (57, -2.82446765899658203125e+00) (58, -5.86868953704833984375e+00) (59, 2.82837557792663574219e+00) (60, 1.50000000000000000000e+03) (61, 3.36726875305175781250e+01) (62, 6.99783897399902343750e+00) (63, -5.54916858673095703125e+00) (64, -3.39084720611572265625e+00) (65, 6.01730704307556152344e-01) (31, 1.60668258666992187500e+01) (32, -5.01231098175048828125e+00) (33, 1.50000000000000000000e+03) (34, 3.52549362182617187500e+01) (35, -6.69234180450439453125e+00) (36, 1.50000000000000000000e+03) (37, 1.50000000000000000000e+03) (38, -5.61993741989135742188e+00) (39, -1.79154884815216064453e+00) (40, 1.50000000000000000000e+03) (41, -5.32816469669342041016e-01) (42, 7.04523229598999023438e+00) (43, -1.36438560485839843750e+01) (44, 2.50831588745117187500e+02) (45, 3.26070809364318847656e+00) (46, 1.17602415084838867188e+01) (47, 1.50000000000000000000e+03) (48, -6.23974466323852539062e+00) (49, -2.56275043487548828125e+01) (50, 1.50000000000000000000e+03) (51, 4.66267013549804687500e+00) (52, 1.50000000000000000000e+03) (53, 1.50000000000000000000e+03) (54, -5.64278125762939453125e-01) (55, -3.92724380493164062500e+01) (56, 1.50000000000000000000e+03) (57, 3.05069565773010253906e-01) (58, 4.63205575942993164062e+00) (59, 1.15526258945465087891e+00) (60, 1.50000000000000000000e+03) (61, 3.22134361267089843750e+01) (62, 1.19658842086791992188e+01) (63, -1.26056909561157226562e+00) (64, -5.63557672500610351562e+00) (65, 1.22359834611415863037e-01) (31, 1.72534108161926269531e+00) (32, 9.05141067504882812500e+00) (33, 1.50000000000000000000e+03) (34, 1.43315334320068359375e+01) (35, 5.75124788284301757812e+00) (36, 1.50000000000000000000e+03) (37, 1.50000000000000000000e+03) (38, 9.38140296936035156250e+00) (39, -3.37125110626220703125e+00) (40, 1.50000000000000000000e+03) (41, -2.79869288206100463867e-01) (42, -4.46454429626464843750e+00) (43, 1.58598268032073974609e+00) (44, 1.89581508636474609375e+01) (45, 3.01265788078308105469e+00) (46, 3.87882280349731445312e+00) (47, 1.50000000000000000000e+03) (48, 1.13295822143554687500e+01) (49, -9.52145671844482421875e+00) (50, 1.50000000000000000000e+03) (51, -1.55941429138183593750e+01) (52, 1.50000000000000000000e+03) (53, 1.50000000000000000000e+03) (54, -1.41848983764648437500e+01) (55, -6.64097166061401367188e+00) (56, 1.50000000000000000000e+03) (57, 4.82110834121704101562e+00) (58, 1.20033037662506103516e+00) (59, 2.18110942840576171875e+00) (60, 1.50000000000000000000e+03) (61, -2.28418960571289062500e+01) (62, -1.18016731739044189453e+00) (63, 2.82406330108642578125e+00) (64, 3.10890650749206542969e+00) (65, -2.35945010185241699219e+00) (31, 1.30751619338989257812e+01) (32, 6.12164497375488281250e+00) (33, 1.50000000000000000000e+03) (34, 1.07811012268066406250e+01) (35, 2.87675642967224121094e+00) (36, 1.50000000000000000000e+03) (37, 1.50000000000000000000e+03) (38, 6.41560029983520507812e+00) (39, -2.82304286956787109375e+00) (40, 1.50000000000000000000e+03) (41, -8.83551657199859619141e-01) (42, -1.75979864597320556641e+00) (43, 3.59347653388977050781e+00) (44, 1.16183052062988281250e+01) (45, 3.75660204887390136719e+00) (46, 4.93277740478515625000e+00) (47, 1.50000000000000000000e+03) (48, 7.62766218185424804688e+00) (49, -2.16839981079101562500e+00) (50, 1.50000000000000000000e+03) (51, -1.39229288101196289062e+01) (52, 1.50000000000000000000e+03) (53, 1.50000000000000000000e+03) (54, -8.66044616699218750000e+00) (55, -1.02312879562377929688e+01) (56, 1.50000000000000000000e+03) (57, 2.95112323760986328125e+00) (58, 2.05217614769935607910e-01) (59, 2.86515831947326660156e+00) (60, 1.50000000000000000000e+03) (61, -1.56340970993041992188e+01) (62, -1.08760476112365722656e+00) (63, -1.16803929209709167480e-01) (64, -5.43053531646728515625e+00) (65, -1.23235750198364257812e+00) (31, 3.99020981788635253906e+00) (32, 1.44062995910644531250e+01) (33, 1.50000000000000000000e+03) (34, -1.20454397201538085938e+01) (35, -7.98012924194335937500e+00) (36, 1.50000000000000000000e+03) (37, 1.50000000000000000000e+03) (38, -8.33050441741943359375e+00) (39, -3.23551988601684570312e+00) (40, 1.50000000000000000000e+03) (41, 1.57444012165069580078e+00) (42, 5.21364831924438476562e+00) (43, -1.13882036209106445312e+01) (44, -2.95093326568603515625e+01) (45, 7.20867204666137695312e+00) (46, 8.38188076019287109375e+00) (47, 1.50000000000000000000e+03) (48, 1.40221138000488281250e+01) (49, -1.02278404235839843750e+01) (50, 1.50000000000000000000e+03) (51, -1.59334783554077148438e+01) (52, 1.50000000000000000000e+03) (53, 1.50000000000000000000e+03) (54, -9.47514629364013671875e+00) (55, -1.26168880462646484375e+01) (56, 1.50000000000000000000e+03) (57, 6.20847940444946289062e+00) (58, 1.56104936599731445312e+01) (59, -4.16859102249145507812e+00) (60, 1.50000000000000000000e+03) (61, 3.80441055297851562500e+01) (62, 1.93365395069122314453e+00) (63, -1.37649698257446289062e+01) (64, -2.12722635269165039062e+00) (65, 9.21391993761062622070e-02) (31, 2.69577369689941406250e+01) (32, -5.95201015472412109375e+00) (33, 1.50000000000000000000e+03) (34, -7.76411220431327819824e-02) (35, 2.67541480064392089844e+00) (36, 1.50000000000000000000e+03) (37, 1.50000000000000000000e+03) (38, 6.98116874694824218750e+00) (39, -1.77752637863159179688e+00) (40, 1.50000000000000000000e+03) (41, -2.93082928657531738281e+00) (42, -6.17692852020263671875e+00) (43, 4.22155857086181640625e+00) (44, 4.13249588012695312500e+01) (45, 3.28057169914245605469e+00) (46, 3.53517264127731323242e-01) (47, 1.50000000000000000000e+03) (48, 8.56693506240844726562e-01) (49, -1.67668390274047851562e+00) (50, 1.50000000000000000000e+03) (51, -1.18348038196563720703e+00) (52, 1.50000000000000000000e+03) (53, 1.50000000000000000000e+03) (54, 1.12029256820678710938e+01) (55, -1.56985845565795898438e+01) (56, 1.50000000000000000000e+03) (57, 3.15160226821899414062e+00) (58, 1.94650137424468994141e+00) (59, 6.87238740921020507812e+00) (60, 1.50000000000000000000e+03) (61, -1.75222663879394531250e+01) (62, -8.71589183807373046875e+00) (63, -3.70769691467285156250e+00) (64, -3.58644890785217285156e+00) (65, -2.99133825302124023438e+00) (31, 1.53063344955444335938e+01) (32, 2.38166904449462890625e+00) (33, 1.50000000000000000000e+03) (34, 4.62353038787841796875e+00) (35, -5.49286067485809326172e-01) (36, 1.50000000000000000000e+03) (37, 1.50000000000000000000e+03) (38, 2.52793598175048828125e+00) (39, -3.43504166603088378906e+00) (40, 1.50000000000000000000e+03) (41, -1.23051202297210693359e+00) (42, -3.16170191764831542969e+00) (43, 7.15767240524291992188e+00) (44, 7.53978118896484375000e+01) (45, 1.63532817363739013672e+00) (46, 8.56109523773193359375e+00) (47, 1.50000000000000000000e+03) (48, 8.97962570190429687500e+00) (49, -1.41167097091674804688e+01) (50, 1.50000000000000000000e+03) (51, -5.66449356079101562500e+00) (52, 1.50000000000000000000e+03) (53, 1.50000000000000000000e+03) (54, 1.72216117382049560547e+00) (55, -1.25148687362670898438e+01) (56, 1.50000000000000000000e+03) (57, 5.09887002408504486084e-02) (58, 2.52632403373718261719e+00) (59, 2.03335428237915039062e+00) (60, 1.50000000000000000000e+03) (61, -1.32034330368041992188e+01) (62, -3.42846536636352539062e+00) (63, -3.30694007873535156250e+00) (64, -3.77690076828002929688e+00) (65, 1.82952070236206054688e+00) (31, 5.80455255508422851562e+00) (32, 1.16454391479492187500e+01) (33, 1.50000000000000000000e+03) (34, -9.79592990875244140625e+00) (35, -1.86527557373046875000e+01) (36, 1.50000000000000000000e+03) (37, 1.50000000000000000000e+03) (38, -3.60928249359130859375e+00) (39, -3.91395235061645507812e+00) (40, 1.50000000000000000000e+03) (41, 3.62616133689880371094e+00) (42, 1.99381041526794433594e+00) (43, 7.48555183410644531250e+00) (44, 9.26943435668945312500e+01) (45, -3.74976247549057006836e-01) (46, 1.31883068084716796875e+01) (47, 1.50000000000000000000e+03) (48, 1.40899620056152343750e+01) (49, -2.30542392730712890625e+01) (50, 1.50000000000000000000e+03) (51, -7.45000219345092773438e+00) (52, 1.50000000000000000000e+03) (53, 1.50000000000000000000e+03) (54, -6.71557617187500000000e+00) (55, -2.21415882110595703125e+01) (56, 1.50000000000000000000e+03) (57, 1.40336441993713378906e+00) (58, 1.89879951477050781250e+01) (59, -4.21266222000122070312e+00) (60, 1.50000000000000000000e+03) (61, 4.85079078674316406250e+01) (62, -1.94948399066925048828e+00) (63, -1.01392211914062500000e+01) (64, 6.23583018779754638672e-01) (65, 5.27723693847656250000e+00) (31, -4.58582639694213867188e-01) (32, -4.67659378051757812500e+00) (33, 1.50000000000000000000e+03) (34, -6.10832405090332031250e+00) (35, -1.70674610137939453125e+01) (36, 1.50000000000000000000e+03) (37, 1.50000000000000000000e+03) (38, 6.55707895755767822266e-01) (39, -1.55549955368041992188e+00) (40, 1.50000000000000000000e+03) (41, -3.03712874650955200195e-01) (42, 6.15925645828247070312e+00) (43, 8.12165451049804687500e+00) (44, 1.91016044616699218750e+01) (45, -1.28754997253417968750e+00) (46, 2.56820988655090332031e+00) (47, 1.50000000000000000000e+03) (48, 6.58458805084228515625e+00) (49, -1.85896644592285156250e+01) (50, 1.50000000000000000000e+03) (51, 5.07392644882202148438e+00) (52, 1.50000000000000000000e+03) (53, 1.50000000000000000000e+03) (54, -7.40662193298339843750e+00) (55, -1.08131437301635742188e+01) (56, 1.50000000000000000000e+03) (57, 2.73362803459167480469e+00) (58, 9.52394771575927734375e+00) (59, -2.71569347381591796875e+00) (60, 1.50000000000000000000e+03) (61, 2.22969150543212890625e+01) (62, -8.24244022369384765625e+00) (63, 8.08813095092773437500e+00) (64, 1.03157424926757812500e+01) (65, -9.32734966278076171875e-01) (31, 9.64542484283447265625e+00) (32, 1.26658713817596435547e+00) (33, 1.50000000000000000000e+03) (34, 4.47756814956665039062e+00) (35, -3.68005371093750000000e+00) (36, 1.50000000000000000000e+03) (37, 1.50000000000000000000e+03) (38, 4.93841218948364257812e+00) (39, -2.81555867195129394531e+00) (40, 1.50000000000000000000e+03) (41, -3.62767726182937622070e-01) (42, -2.86244541406631469727e-01) (43, 6.05445718765258789062e+00) (44, 1.26053894042968750000e+02) (45, 3.11265206336975097656e+00) (46, 8.36943054199218750000e+00) (47, 1.50000000000000000000e+03) (48, 1.16282832622528076172e+00) (49, -4.97405338287353515625e+00) (50, 1.50000000000000000000e+03) (51, -3.48038816452026367188e+00) (52, 1.50000000000000000000e+03) (53, 1.50000000000000000000e+03) (54, 3.25689554214477539062e+00) (55, -1.25777359008789062500e+01) (56, 1.50000000000000000000e+03) (57, 1.46255040168762207031e+00) (58, 8.82792353630065917969e-01) (59, 2.03887271881103515625e+00) (60, 1.50000000000000000000e+03) (61, 1.38348770141601562500e+00) (62, -6.89530229568481445312e+00) (63, -3.27606058120727539062e+00) (64, -2.63856625556945800781e+00) (65, -1.83696484565734863281e+00) (31, 1.73126182556152343750e+01) (32, -2.78213500976562500000e+00) (33, 1.50000000000000000000e+03) (34, 1.63273906707763671875e+01) (35, 1.56088042259216308594e+00) (36, 1.50000000000000000000e+03) (37, 1.50000000000000000000e+03) (38, -6.91633844375610351562e+00) (39, -4.82299423217773437500e+00) (40, 1.50000000000000000000e+03) (41, -3.85174679756164550781e+00) (42, -3.04347574710845947266e-01) (43, -1.73633403778076171875e+01) (44, 1.18567291259765625000e+02) (45, 4.40259933471679687500e+00) (46, 3.50339818000793457031e+00) (47, 1.50000000000000000000e+03) (48, -1.16196081042289733887e-01) (49, -4.96481752395629882812e+00) (50, 1.50000000000000000000e+03) (51, -5.35191154479980468750e+00) (52, 1.50000000000000000000e+03) (53, 1.50000000000000000000e+03) (54, 1.04074113070964813232e-01) (55, -2.02754650115966796875e+01) (56, 1.50000000000000000000e+03) (57, 2.57078576087951660156e+00) (58, 1.21818523406982421875e+01) (59, 3.39892172813415527344e+00) (60, 1.50000000000000000000e+03) (61, -5.99787616729736328125e+00) (62, -3.48771524429321289062e+00) (63, -8.65380954742431640625e+00) (64, 3.44020068645477294922e-01) (65, -8.03699493408203125000e-01) (31, 5.60969018936157226562e+00) (32, 2.50769996643066406250e+01) (33, 1.50000000000000000000e+03) (34, 7.50434923171997070312e+00) (35, 1.87933778762817382812e+00) (36, 1.50000000000000000000e+03) (37, 1.50000000000000000000e+03) (38, 8.40876865386962890625e+00) (39, -2.59182244539260864258e-01) (40, 1.50000000000000000000e+03) (41, -2.22752118110656738281e+00) (42, -1.16561841964721679688e+00) (43, 5.57573318481445312500e+00) (44, -2.34953212738037109375e+01) (45, 2.45720458030700683594e+00) (46, 6.71766948699951171875e+00) (47, 1.50000000000000000000e+03) (48, 6.06955480575561523438e+00) (49, -1.28328585624694824219e+00) (50, 1.50000000000000000000e+03) (51, -1.24602193832397460938e+01) (52, 1.50000000000000000000e+03) (53, 1.50000000000000000000e+03) (54, -4.86606740951538085938e+00) (55, -8.03459167480468750000e+00) (56, 1.50000000000000000000e+03) (57, 7.15876877307891845703e-01) (58, -9.63129806518554687500e+00) (59, 1.20206379890441894531e+00) (60, 1.50000000000000000000e+03) (61, -2.56403045654296875000e+01) (62, 4.17539548873901367188e+00) (63, -3.31542158126831054688e+00) (64, 1.31034815311431884766e+00) (65, -5.69021046161651611328e-01) (31, -5.58627843856811523438e-01) (32, -3.05465197563171386719e+00) (33, 1.50000000000000000000e+03) (34, 9.16668224334716796875e+00) (35, -5.72498989105224609375e+00) (36, 1.50000000000000000000e+03) (37, 1.50000000000000000000e+03) (38, 4.97702598571777343750e+00) (39, -3.40150260925292968750e+00) (40, 1.50000000000000000000e+03) (41, 3.04016423225402832031e+00) (42, 4.91913604736328125000e+00) (43, 8.02559947967529296875e+00) (44, 2.34926939010620117188e+00) (45, -2.05913519859313964844e+00) (46, 7.72884321212768554688e+00) (47, 1.50000000000000000000e+03) (48, 3.38114166259765625000e+00) (49, -7.25070858001708984375e+00) (50, 1.50000000000000000000e+03) (51, -1.31432933807373046875e+01) (52, 1.50000000000000000000e+03) (53, 1.50000000000000000000e+03) (54, -6.14729785919189453125e+00) (55, -1.06368885040283203125e+01) (56, 1.50000000000000000000e+03) (57, -2.43872359395027160645e-01) (58, -1.62738358974456787109e+00) (59, -8.14905941486358642578e-01) (60, 1.50000000000000000000e+03) (61, 2.70795416831970214844e+00) (62, 6.83851909637451171875e+00) (63, -5.81075787544250488281e-01) (64, 5.78675651550292968750e+00) (65, 5.27334690093994140625e-01) (31, 9.94366931915283203125e+00) (32, -2.98823237419128417969e+00) (33, 1.50000000000000000000e+03) (34, 8.32295227050781250000e+00) (35, 2.69930958747863769531e+00) (36, 1.50000000000000000000e+03) (37, 1.50000000000000000000e+03) (38, -2.35310602188110351562e+00) (39, -5.90875005722045898438e+00) (40, 1.50000000000000000000e+03) (41, 3.48143577575683593750e+00) (42, 1.36445176601409912109e+00) (43, -4.52881240844726562500e+00) (44, 9.04455947875976562500e+01) (45, 2.79576754570007324219e+00) (46, 9.02104759216308593750e+00) (47, 1.50000000000000000000e+03) (48, -1.00057630538940429688e+01) (49, 1.23930244445800781250e+01) (50, 1.50000000000000000000e+03) (51, -2.04343280792236328125e+01) (52, 1.50000000000000000000e+03) (53, 1.50000000000000000000e+03) (54, 2.82848143577575683594e+00) (55, -2.33734817504882812500e+01) (56, 1.50000000000000000000e+03) (57, 3.14752489328384399414e-01) (58, 1.00545558929443359375e+01) (59, 2.39842367172241210938e+00) (60, 1.50000000000000000000e+03) (61, -1.09222822189331054688e+01) (62, 5.99046754837036132812e+00) (63, -1.88173046112060546875e+01) (64, 2.58357453346252441406e+00) (65, 9.17078256607055664062e-01) (31, 7.97790622711181640625e+00) (32, 4.50937604904174804688e+00) (33, 1.50000000000000000000e+03) (34, -2.62030935287475585938e+00) (35, -8.98463344573974609375e+00) (36, 1.50000000000000000000e+03) (37, 1.50000000000000000000e+03) (38, 2.79300880432128906250e+00) (39, -9.98958349227905273438e-01) (40, 1.50000000000000000000e+03) (41, 3.66992497444152832031e+00) (42, 1.55195207595825195312e+01) (43, 7.01495122909545898438e+00) (44, 4.70706710815429687500e+01) (45, -4.12875318527221679688e+00) (46, 8.88827800750732421875e+00) (47, 1.50000000000000000000e+03) (48, 5.38709974288940429688e+00) (49, -1.51288862228393554688e+01) (50, 1.50000000000000000000e+03) (51, -4.08067941665649414062e+00) (52, 1.50000000000000000000e+03) (53, 1.50000000000000000000e+03) (54, -8.39898967742919921875e+00) (55, -1.36541604995727539062e+01) (56, 1.50000000000000000000e+03) (57, -1.93500232696533203125e+00) (58, 6.08504199981689453125e+00) (59, -3.31199622154235839844e+00) (60, 1.50000000000000000000e+03) (61, 1.56397380828857421875e+01) (62, -3.76008534431457519531e+00) (63, 4.24578142166137695312e+00) (64, 8.43554079532623291016e-01) (65, 5.13058960437774658203e-01) (31, 7.28518056869506835938e+00) (32, 3.02369880676269531250e+00) (33, 1.50000000000000000000e+03) (34, 2.99249124526977539062e+00) (35, -2.41779446601867675781e+00) (36, 1.50000000000000000000e+03) (37, 1.50000000000000000000e+03) (38, 3.26934432983398437500e+00) (39, -7.63926029205322265625e-01) (40, 1.50000000000000000000e+03) (41, -8.49738717079162597656e-01) (42, 1.00556335449218750000e+01) (43, 9.87520158290863037109e-01) (44, 1.03763534545898437500e+02) (45, -3.35086077451705932617e-01) (46, 5.12393236160278320312e+00) (47, 1.50000000000000000000e+03) (48, 8.39335346221923828125e+00) (49, -5.75360727310180664062e+00) (50, 1.50000000000000000000e+03) (51, -4.95262384414672851562e+00) (52, 1.50000000000000000000e+03) (53, 1.50000000000000000000e+03) (54, -8.94893550872802734375e+00) (55, -1.03524818420410156250e+01) (56, 1.50000000000000000000e+03) (57, -1.78344500064849853516e+00) (58, -1.54026544094085693359e+00) (59, -1.77567708492279052734e+00) (60, 1.50000000000000000000e+03) (61, -2.28230309486389160156e+00) (62, -1.66588544845581054688e+00) (63, 3.32858157157897949219e+00) (64, 2.34958505630493164062e+00) (65, 1.48296952247619628906e-01) (31, 1.82159786224365234375e+01) (32, 3.86586874723434448242e-01) (33, 1.50000000000000000000e+03) (34, 4.85966563224792480469e-01) (35, -3.21688890457153320312e+00) (36, 1.50000000000000000000e+03) (37, 1.50000000000000000000e+03) (38, -8.17996215820312500000e+00) (39, -3.76394653320312500000e+00) (40, 1.50000000000000000000e+03) (41, -1.74588680267333984375e+00) (42, 1.53896169662475585938e+01) (43, -1.91411018371582031250e+01) (44, 8.57857742309570312500e+01) (45, 2.54422354698181152344e+00) (46, 7.49438714981079101562e+00) (47, 1.50000000000000000000e+03) (48, 3.70878005027770996094e+00) (49, -3.24532270431518554688e+00) (50, 1.50000000000000000000e+03) (51, -2.25866150856018066406e+00) (52, 1.50000000000000000000e+03) (53, 1.50000000000000000000e+03) (54, -5.93263769149780273438e+00) (55, -1.07496385574340820312e+01) (56, 1.50000000000000000000e+03) (57, -9.29595410823822021484e-01) (58, 6.16444253921508789062e+00) (59, -2.52806210517883300781e+00) (60, 1.50000000000000000000e+03) (61, -1.73487415313720703125e+01) (62, -1.10281193256378173828e+00) (63, 2.11529016494750976562e+00) (64, 1.26537394523620605469e+00) (65, -7.59563565254211425781e-01) (31, 6.65547657012939453125e+00) (32, 9.53083324432373046875e+00) (33, 1.50000000000000000000e+03) (34, 1.21448574066162109375e+01) (35, -2.76368260383605957031e-01) (36, 1.50000000000000000000e+03) (37, 1.50000000000000000000e+03) (38, 3.68025851249694824219e+00) (39, 1.61269884556531906128e-02) (40, 1.50000000000000000000e+03) (41, -2.38312101364135742188e+00) (42, 6.04350566864013671875e+00) (43, 8.51868438720703125000e+00) (44, 5.22576789855957031250e+01) (45, -4.52585071325302124023e-01) (46, 4.76517677307128906250e+00) (47, 1.50000000000000000000e+03) (48, 4.50537872314453125000e+00) (49, -2.16712055206298828125e+01) (50, 1.50000000000000000000e+03) (51, 2.20891058444976806641e-01) (52, 1.50000000000000000000e+03) (53, 1.50000000000000000000e+03) (54, -4.87462282180786132812e+00) (55, -9.60907649993896484375e+00) (56, 1.50000000000000000000e+03) (57, -1.16801512241363525391e+00) (58, -4.11545848846435546875e+00) (59, 2.26632213592529296875e+00) (60, 1.50000000000000000000e+03) (61, -1.38335494995117187500e+01) (62, -7.59626770019531250000e+00) (63, 2.40714931488037109375e+01) (64, -7.08300209045410156250e+00) (65, 4.22294318675994873047e-01) (31, 2.57830905914306640625e+00) (32, 1.68994617462158203125e+01) (33, 1.50000000000000000000e+03) (34, 1.09485778808593750000e+01) (35, -3.30310225486755371094e-01) (36, 1.50000000000000000000e+03) (37, 1.50000000000000000000e+03) (38, 2.42972746491432189941e-02) (39, -2.01356387138366699219e+00) (40, 1.50000000000000000000e+03) (41, -1.32648396492004394531e+00) (42, 1.90653967857360839844e+00) (43, 3.28354239463806152344e+00) (44, 3.53916778564453125000e+01) (45, 4.59691077470779418945e-01) (46, 6.51003837585449218750e+00) (47, 1.50000000000000000000e+03) (48, 5.73485708236694335938e+00) (49, -2.07269554138183593750e+01) (50, 1.50000000000000000000e+03) (51, -1.92052888870239257812e+00) (52, 1.50000000000000000000e+03) (53, 1.50000000000000000000e+03) (54, -3.96438193321228027344e+00) (55, -7.79475307464599609375e+00) (56, 1.50000000000000000000e+03) (57, -1.03198885917663574219e+00) (58, 9.03645336627960205078e-01) (59, 2.12000322341918945312e+00) (60, 1.50000000000000000000e+03) (61, -6.00768423080444335938e+00) (62, -2.59758257865905761719e+00) (63, 1.90566844940185546875e+01) (64, -4.88388347625732421875e+00) (65, 9.22953784465789794922e-01) (31, 4.28792461752891540527e-03) (32, -9.19693851470947265625e+00) (33, 1.50000000000000000000e+03) (34, 1.60761280059814453125e+01) (35, 2.83479166030883789062e+00) (36, 1.50000000000000000000e+03) (37, 1.50000000000000000000e+03) (38, -1.35048933029174804688e+01) (39, -4.06919670104980468750e+00) (40, 1.50000000000000000000e+03) (41, -1.51251184940338134766e+00) (42, 2.69480705261230468750e+00) (43, -2.03330135345458984375e+01) (44, 1.88423824310302734375e+01) (45, -9.92159366607666015625e-01) (46, 3.87791657447814941406e+00) (47, 1.50000000000000000000e+03) (48, 2.95189404487609863281e+00) (49, -2.52790451049804687500e+01) (50, 1.50000000000000000000e+03) (51, 7.65844523906707763672e-01) (52, 1.50000000000000000000e+03) (53, 1.50000000000000000000e+03) (54, -1.06240329742431640625e+01) (55, -1.00421476364135742188e+01) (56, 1.50000000000000000000e+03) (57, -2.73968368768692016602e-01) (58, 1.29488563537597656250e+01) (59, 2.45321094989776611328e-01) (60, 1.50000000000000000000e+03) (61, 1.15823554992675781250e+01) (62, 3.03058338165283203125e+00) (63, 2.85425109863281250000e+01) (64, 2.07312560081481933594e+00) (65, 1.42429232597351074219e+00) (31, -8.12902069091796875000e+00) (32, 2.45247387886047363281e+00) (33, 1.50000000000000000000e+03) (34, -2.82798366546630859375e+01) (35, -4.65854787826538085938e+00) (36, 1.50000000000000000000e+03) (37, 1.50000000000000000000e+03) (38, -2.83833074569702148438e+00) (39, -4.01482641696929931641e-01) (40, 1.50000000000000000000e+03) (41, -6.93405628204345703125e-01) (42, 9.78164613246917724609e-01) (43, 5.51478958129882812500e+00) (44, 6.20300521850585937500e+01) (45, 3.23828577995300292969e+00) (46, 1.08752584457397460938e+01) (47, 1.50000000000000000000e+03) (48, -3.04701471328735351562e+00) (49, 1.17539110183715820312e+01) (50, 1.50000000000000000000e+03) (51, -6.19276714324951171875e+00) (52, 1.50000000000000000000e+03) (53, 1.50000000000000000000e+03) (54, 1.51650190353393554688e+00) (55, -1.99369561672210693359e+00) (56, 1.50000000000000000000e+03) (57, -2.69970822334289550781e+00) (58, 6.52946043014526367188e+00) (59, -5.97456376999616622925e-03) (60, 1.50000000000000000000e+03) (61, 1.77781009674072265625e+01) (62, -7.97735691070556640625e-01) (63, -2.09108867645263671875e+01) (64, 6.78131055831909179688e+00) (65, -9.96223986148834228516e-01) (31, -6.65428686141967773438e+00) (32, 4.04224693775177001953e-01) (33, 1.50000000000000000000e+03) (34, -1.79188137054443359375e+01) (35, -1.10907959938049316406e+00) (36, 1.50000000000000000000e+03) (37, 1.50000000000000000000e+03) (38, -1.25456559658050537109e+00) (39, -3.32558274269104003906e-01) (40, 1.50000000000000000000e+03) (41, -1.17855846881866455078e+00) (42, 2.23926156759262084961e-01) (43, 7.89851760864257812500e+00) (44, 8.09604492187500000000e+01) (45, 1.60257565975189208984e+00) (46, 9.40707111358642578125e+00) (47, 1.50000000000000000000e+03) (48, -2.98613965511322021484e-01) (49, 6.92455863952636718750e+00) (50, 1.50000000000000000000e+03) (51, -7.66420269012451171875e+00) (52, 1.50000000000000000000e+03) (53, 1.50000000000000000000e+03) (54, -9.01530757546424865723e-02) (55, -5.72085618972778320312e+00) (56, 1.50000000000000000000e+03) (57, -4.22020912170410156250e+00) (58, 2.48912000656127929688e+00) (59, 1.73840785026550292969e+00) (60, 1.50000000000000000000e+03) (61, -2.88574337959289550781e+00) (62, -2.36132338643074035645e-01) (63, -1.59542827606201171875e+01) (64, 6.78354167938232421875e+00) (65, 7.51533953007310628891e-04) (31, -5.15448617935180664062e+00) (32, -1.83213651180267333984e+00) (33, 1.50000000000000000000e+03) (34, -1.04879846572875976562e+01) (35, 1.39800798892974853516e+00) (36, 1.50000000000000000000e+03) (37, 1.50000000000000000000e+03) (38, -9.25820827484130859375e+00) (39, -1.87649369239807128906e+00) (40, 1.50000000000000000000e+03) (41, -1.34995388984680175781e+00) (42, 1.01677370071411132812e+00) (43, -1.51986455917358398438e+00) (44, 8.99252548217773437500e+01) (45, 1.07070159912109375000e+00) (46, 8.99293422698974609375e+00) (47, 1.50000000000000000000e+03) (48, 7.89682984352111816406e-01) (49, 3.01686048507690429688e+00) (50, 1.50000000000000000000e+03) (51, -7.52025365829467773438e+00) (52, 1.50000000000000000000e+03) (53, 1.50000000000000000000e+03) (54, -5.14798402786254882812e+00) (55, -1.65535020828247070312e+00) (56, 1.50000000000000000000e+03) (57, -3.40164256095886230469e+00) (58, 5.67520523071289062500e+00) (59, 6.80437088012695312500e-01) (60, 1.50000000000000000000e+03) (61, 2.41363191604614257812e+00) (62, 2.48687648773193359375e+00) (63, -8.03225040435791015625e+00) (64, 5.34929323196411132812e+00) (65, -6.18677437305450439453e-02) (31, 8.75355339050292968750e+00) (32, 8.39815044403076171875e+00) (33, 1.50000000000000000000e+03) (34, -5.91262388229370117188e+00) (35, 6.37157583236694335938e+00) (36, 1.50000000000000000000e+03) (37, 1.50000000000000000000e+03) (38, 1.05883646011352539062e+01) (39, -1.28653717041015625000e+00) (40, 1.50000000000000000000e+03) (41, -4.20312786102294921875e+00) (42, -1.49199104309082031250e+00) (43, -1.49728700518608093262e-01) (44, -3.88983345031738281250e+01) (45, 1.60921645164489746094e+00) (46, -8.95227044820785522461e-02) (47, 1.50000000000000000000e+03) (48, -4.27543687820434570312e+00) (49, 2.26731567382812500000e+01) (50, 1.50000000000000000000e+03) (51, 8.67781543731689453125e+00) (52, 1.50000000000000000000e+03) (53, 1.50000000000000000000e+03) (54, 1.81037654876708984375e+01) (55, -9.73470497131347656250e+00) (56, 1.50000000000000000000e+03) (57, -4.50978279113769531250e+00) (58, -1.71472492218017578125e+01) (59, 1.15591216087341308594e+00) (60, 1.50000000000000000000e+03) (61, 7.11654424667358398438e+00) (62, 1.06944918632507324219e+00) (63, -1.94693145751953125000e+01) (64, 1.07407531738281250000e+01) (65, 6.18276059627532958984e-01) (31, -3.97665476799011230469e+00) (32, -1.17953252792358398438e+00) (33, 1.50000000000000000000e+03) (34, -8.72542953491210937500e+00) (35, -3.98717617988586425781e+00) (36, 1.50000000000000000000e+03) (37, 1.50000000000000000000e+03) (38, -1.22804820537567138672e+00) (39, -2.76471233367919921875e+00) (40, 1.50000000000000000000e+03) (41, 3.46946859359741210938e+00) (42, -2.19335865974426269531e+00) (43, -9.95405960083007812500e+00) (44, 2.14963665008544921875e+01) (45, 8.13152730464935302734e-01) (46, 1.40156564712524414062e+01) (47, 1.50000000000000000000e+03) (48, 1.77877807617187500000e+00) (49, -9.17890357971191406250e+00) (50, 1.50000000000000000000e+03) (51, 3.89699959754943847656e+00) (52, 1.50000000000000000000e+03) (53, 1.50000000000000000000e+03) (54, 2.59730505943298339844e+00) (55, -1.76360833644866943359e+00) (56, 1.50000000000000000000e+03) (57, -9.31395471096038818359e-01) (58, 6.44289064407348632812e+00) (59, -8.77498686313629150391e-01) (60, 1.50000000000000000000e+03) (61, 1.37693500518798828125e+01) (62, 4.17347240447998046875e+00) (63, -7.54015588760375976562e+00) (64, 3.81710553169250488281e+00) (65, -1.28412163257598876953e+00) (31, 2.34449416399002075195e-01) (32, -1.11330997943878173828e+00) (33, 1.50000000000000000000e+03) (34, -6.69452095031738281250e+00) (35, -2.94254422187805175781e+00) (36, 1.50000000000000000000e+03) (37, 1.50000000000000000000e+03) (38, -1.05801954269409179688e+01) (39, -3.51340389251708984375e+00) (40, 1.50000000000000000000e+03) (41, 2.52910757064819335938e+00) (42, 1.81736320257186889648e-01) (43, -2.73716220855712890625e+01) (44, 3.49344406127929687500e+01) (45, 2.10168123245239257812e+00) (46, 1.44680919647216796875e+01) (47, 1.50000000000000000000e+03) (48, -4.43364828824996948242e-01) (49, -8.22875785827636718750e+00) (50, 1.50000000000000000000e+03) (51, 5.72969484329223632812e+00) (52, 1.50000000000000000000e+03) (53, 1.50000000000000000000e+03) (54, -2.44047236442565917969e+00) (55, -2.60202765464782714844e+00) (56, 1.50000000000000000000e+03) (57, 2.64573723077774047852e-01) (58, 1.33047561645507812500e+01) (59, -2.87828660011291503906e+00) (60, 1.50000000000000000000e+03) (61, 1.67856292724609375000e+01) (62, 5.76968526840209960938e+00) (63, -2.51910209655761718750e+00) (64, 3.57507920265197753906e+00) (65, -1.91788136959075927734e+00) (31, -1.54431200027465820312e+01) (32, 1.24718894958496093750e+01) (33, 1.50000000000000000000e+03) (34, -1.46073074340820312500e+01) (35, 7.34590101242065429688e+00) (36, 1.50000000000000000000e+03) (37, 1.50000000000000000000e+03) (38, 8.14850044250488281250e+00) (39, -1.24714732170104980469e+00) (40, 1.50000000000000000000e+03) (41, -2.07326754927635192871e-01) (42, -1.41613426208496093750e+01) (43, -8.80460453033447265625e+00) (44, -3.20576214790344238281e+00) (45, 5.98578596115112304688e+00) (46, 5.89090490341186523438e+00) (47, 1.50000000000000000000e+03) (48, -1.16256160736083984375e+01) (49, 2.44948196411132812500e+01) (50, 1.50000000000000000000e+03) (51, 1.76285386085510253906e+00) (52, 1.50000000000000000000e+03) (53, 1.50000000000000000000e+03) (54, -6.43593215942382812500e+00) (55, -1.57724010944366455078e+00) (56, 1.50000000000000000000e+03) (57, 2.00528407096862792969e+00) (58, -6.30305957794189453125e+00) (59, 1.76967704296112060547e+00) (60, 1.50000000000000000000e+03) (61, -2.48147621154785156250e+01) (62, 2.99736112356185913086e-01) (63, -2.97744011878967285156e+00) (64, 1.20495662689208984375e+01) (65, 1.91534668207168579102e-01) (31, 1.18780672550201416016e+00) (32, 6.76976251602172851562e+00) (33, 1.50000000000000000000e+03) (34, -9.40835475921630859375e+00) (35, 6.78776931762695312500e+00) (36, 1.50000000000000000000e+03) (37, 1.50000000000000000000e+03) (38, 7.18549537658691406250e+00) (39, -1.71585035324096679688e+00) (40, 1.50000000000000000000e+03) (41, 1.22314071655273437500e+00) (42, -4.23930501937866210938e+00) (43, -1.69253253936767578125e+00) (44, 2.23998794555664062500e+01) (45, 3.52354431152343750000e+00) (46, 3.35011911392211914062e+00) (47, 1.50000000000000000000e+03) (48, -2.01621685028076171875e+01) (49, 3.08989295959472656250e+01) (50, 1.50000000000000000000e+03) (51, 1.51244015432894229889e-03) (52, 1.50000000000000000000e+03) (53, 1.50000000000000000000e+03) (54, 5.73985862731933593750e+00) (55, -6.38410663604736328125e+00) (56, 1.50000000000000000000e+03) (57, -2.59692519903182983398e-01) (58, -1.12769565582275390625e+01) (59, 3.02835679054260253906e+00) (60, 1.50000000000000000000e+03) (61, -1.82280731201171875000e+01) (62, 7.52973079681396484375e-01) (63, -5.33571004867553710938e+00) (64, 1.39563608169555664062e+00) (65, 3.41255187988281250000e-01) (31, -5.63273370265960693359e-01) (32, 1.06680364608764648438e+01) (33, 1.50000000000000000000e+03) (34, -2.11055068969726562500e+01) (35, 5.39664208889007568359e-01) (36, 1.50000000000000000000e+03) (37, 1.50000000000000000000e+03) (38, -1.34492349624633789062e+01) (39, -2.71737527847290039062e+00) (40, 1.50000000000000000000e+03) (41, 8.16833209991455078125e+00) (42, -2.63629585504531860352e-01) (43, -1.72052402496337890625e+01) (44, 5.72152137756347656250e+01) (45, 3.11203718185424804688e+00) (46, 1.66890487670898437500e+01) (47, 1.50000000000000000000e+03) (48, -7.20281171798706054688e+00) (49, -8.13922214508056640625e+00) (50, 1.50000000000000000000e+03) (51, -1.46937620639801025391e+00) (52, 1.50000000000000000000e+03) (53, 1.50000000000000000000e+03) (54, 2.47211670875549316406e+00) (55, -6.28816068172454833984e-01) (56, 1.50000000000000000000e+03) (57, 2.46664023399353027344e+00) (58, 1.08743906021118164062e+01) (59, -2.84675836563110351562e+00) (60, 1.50000000000000000000e+03) (61, 4.22549819946289062500e+00) (62, 6.39728546142578125000e+00) (63, 2.35387372970581054688e+00) (64, -7.13969039916992187500e+00) (65, -9.62075442075729370117e-02) (31, 2.99445075988769531250e+01) (32, -2.39764046669006347656e+00) (33, 1.50000000000000000000e+03) (34, -2.79624137878417968750e+01) (35, 1.61325283050537109375e+01) (36, 1.50000000000000000000e+03) (37, 1.50000000000000000000e+03) (38, 2.27036495208740234375e+01) (39, 1.09065413475036621094e+00) (40, 1.50000000000000000000e+03) (41, -3.38608503341674804688e+00) (42, 2.18386602401733398438e+00) (43, 3.16808748245239257812e+00) (44, -3.22191131591796875000e+02) (45, -1.83519676327705383301e-01) (46, 6.14959287643432617188e+00) (47, 1.50000000000000000000e+03) (48, -1.64110908508300781250e+01) (49, 3.84794387817382812500e+01) (50, 1.50000000000000000000e+03) (51, 1.47264165878295898438e+01) (52, 1.50000000000000000000e+03) (53, 1.50000000000000000000e+03) (54, 3.20704078674316406250e+00) (55, -1.19204683303833007812e+01) (56, 1.50000000000000000000e+03) (57, -8.55394172668457031250e+00) (58, -3.61778869628906250000e+01) (59, -2.09676742553710937500e-01) (60, 1.50000000000000000000e+03) (61, -2.68348159790039062500e+01) (62, -4.36824512481689453125e+00) (63, 6.22714471817016601562e+00) (64, 7.03528690338134765625e+00) (65, 2.24874830245971679688e+00) (31, 7.30086517333984375000e+00) (32, 6.71103668212890625000e+00) (33, 1.50000000000000000000e+03) (34, -1.20335502624511718750e+01) (35, 1.61302506923675537109e+00) (36, 1.50000000000000000000e+03) (37, 1.50000000000000000000e+03) (38, 1.07038850784301757812e+01) (39, -1.70090425014495849609e+00) (40, 1.50000000000000000000e+03) (41, -1.49321094155311584473e-01) (42, -4.65899276733398437500e+00) (43, -5.27913522720336914062e+00) (44, 6.40147323608398437500e+01) (45, 4.32085609436035156250e+00) (46, 7.58888149261474609375e+00) (47, 1.50000000000000000000e+03) (48, -1.27229757308959960938e+01) (49, 2.06560096740722656250e+01) (50, 1.50000000000000000000e+03) (51, 3.80385589599609375000e+00) (52, 1.50000000000000000000e+03) (53, 1.50000000000000000000e+03) (54, 4.10086011886596679688e+00) (55, -1.88593482971191406250e+01) (56, 1.50000000000000000000e+03) (57, -1.31708109378814697266e+00) (58, -3.71558570861816406250e+00) (59, 1.10721170902252197266e+00) (60, 1.50000000000000000000e+03) (61, -2.59762692451477050781e+00) (62, -2.19668364524841308594e+00) (63, -1.45961494445800781250e+01) (64, 3.81419324874877929688e+00) (65, 2.80862784385681152344e+00) (31, 1.85312163829803466797e+00) (32, 1.26157112121582031250e+01) (33, 1.50000000000000000000e+03) (34, -1.15390434265136718750e+01) (35, -1.30953283309936523438e+01) (36, 1.50000000000000000000e+03) (37, 1.50000000000000000000e+03) (38, 3.81329703330993652344e+00) (39, -2.11068463325500488281e+00) (40, 1.50000000000000000000e+03) (41, 4.86700105667114257812e+00) (42, 6.35224044322967529297e-01) (43, -7.95718765258789062500e+00) (44, 9.44910278320312500000e+01) (45, 3.54001522064208984375e+00) (46, 1.63457622528076171875e+01) (47, 1.50000000000000000000e+03) (48, 7.09035456180572509766e-01) (49, -5.13762617111206054688e+00) (50, 1.50000000000000000000e+03) (51, 3.94482040405273437500e+00) (52, 1.50000000000000000000e+03) (53, 1.50000000000000000000e+03) (54, -2.44001770019531250000e+00) (55, -2.25094165802001953125e+01) (56, 1.50000000000000000000e+03) (57, 1.42019879817962646484e+00) (58, 8.24202537536621093750e+00) (59, -4.36286354064941406250e+00) (60, 1.50000000000000000000e+03) (61, 3.12555770874023437500e+01) (62, -1.19906044006347656250e+00) (63, -1.03511838912963867188e+01) (64, 1.77900493144989013672e+00) (65, 1.85692965984344482422e+00) (31, -1.39329743385314941406e+00) (32, -2.10035276412963867188e+00) (33, 1.50000000000000000000e+03) (34, -1.86828842163085937500e+01) (35, -7.05901145935058593750e+00) (36, 1.50000000000000000000e+03) (37, 1.50000000000000000000e+03) (38, 4.81216996908187866211e-01) (39, 2.20267939567565917969e+00) (40, 1.50000000000000000000e+03) (41, 4.98868560791015625000e+00) (42, 1.84461641311645507812e+00) (43, -2.88139462471008300781e+00) (44, 7.31717453002929687500e+01) (45, 2.29072690010070800781e+00) (46, 4.72385644912719726562e+00) (47, 1.50000000000000000000e+03) (48, -1.16838006973266601562e+01) (49, 6.45442247390747070312e+00) (50, 1.50000000000000000000e+03) (51, 3.90395092964172363281e+00) (52, 1.50000000000000000000e+03) (53, 1.50000000000000000000e+03) (54, 4.80676937103271484375e+00) (55, -1.76180019378662109375e+01) (56, 1.50000000000000000000e+03) (57, 2.93863248825073242188e+00) (58, 1.49733533859252929688e+01) (59, 6.91030204296112060547e-01) (60, 1.50000000000000000000e+03) (61, 2.33326315879821777344e+00) (62, -5.53570365905761718750e+00) (63, -1.36923408508300781250e+01) (64, 3.04567456245422363281e+00) (65, -2.02211189270019531250e+00) (31, 3.63191413879394531250e+00) (32, 4.99644660949707031250e+00) (33, 1.50000000000000000000e+03) (34, -5.27345085144042968750e+00) (35, 2.95433282852172851562e+00) (36, 1.50000000000000000000e+03) (37, 1.50000000000000000000e+03) (38, 8.02578544616699218750e+00) (39, -8.14522385597229003906e-01) (40, 1.50000000000000000000e+03) (41, 1.90969276428222656250e+00) (42, -3.88511538505554199219e+00) (43, -3.87479758262634277344e+00) (44, 1.11099372863769531250e+02) (45, 4.73611354827880859375e+00) (46, 1.10587539672851562500e+01) (47, 1.50000000000000000000e+03) (48, -6.03546524047851562500e+00) (49, 6.16906929016113281250e+00) (50, 1.50000000000000000000e+03) (51, 1.44009256362915039062e+00) (52, 1.50000000000000000000e+03) (53, 1.50000000000000000000e+03) (54, 7.80917978286743164062e+00) (55, -1.84963893890380859375e+01) (56, 1.50000000000000000000e+03) (57, -4.16794180870056152344e-01) (58, -9.34404194355010986328e-01) (59, 3.26824831962585449219e+00) (60, 1.50000000000000000000e+03) (61, -6.99003696441650390625e+00) (62, -3.76581168174743652344e+00) (63, -1.47549190521240234375e+01) (64, -4.72015887498855590820e-01) (65, -6.93973541259765625000e-01) (31, 9.46527767181396484375e+00) (32, 3.53128105401992797852e-01) (33, 1.50000000000000000000e+03) (34, 1.18284120559692382812e+01) (35, 8.51584148406982421875e+00) (36, 1.50000000000000000000e+03) (37, 1.50000000000000000000e+03) (38, 1.27031075954437255859e+00) (39, -2.61726188659667968750e+00) (40, 1.50000000000000000000e+03) (41, -1.97019863128662109375e+00) (42, -3.38587021827697753906e+00) (43, -2.48393936157226562500e+01) (44, 4.72934494018554687500e+01) (45, 5.37617921829223632812e+00) (46, 4.89996242523193359375e+00) (47, 1.50000000000000000000e+03) (48, -1.08763396739959716797e+00) (49, -6.65916621685028076172e-01) (50, 1.50000000000000000000e+03) (51, 1.21838331222534179688e+00) (52, 1.50000000000000000000e+03) (53, 1.50000000000000000000e+03) (54, 2.35131955146789550781e+00) (55, -2.11602306365966796875e+01) (56, 1.50000000000000000000e+03) (57, 1.38484549522399902344e+00) (58, 2.32621264457702636719e+00) (59, 3.11107540130615234375e+00) (60, 1.50000000000000000000e+03) (61, -1.38864288330078125000e+01) (62, -5.38435280323028564453e-01) (63, -9.73839282989501953125e+00) (64, 4.09626817703247070312e+00) (65, -9.98435139656066894531e-01) (31, 2.75320029258728027344e+00) (32, 5.11962738037109375000e+01) (33, 1.50000000000000000000e+03) (34, -7.57696819305419921875e+00) (35, 5.06488084793090820312e+00) (36, 1.50000000000000000000e+03) (37, 1.50000000000000000000e+03) (38, 2.67515254020690917969e+00) (39, 1.57421052455902099609e+00) (40, 1.50000000000000000000e+03) (41, 1.18746948242187500000e+00) (42, -9.59769535064697265625e+00) (43, -7.35960483551025390625e+00) (44, 3.84317550659179687500e+01) (45, 5.24780511856079101562e+00) (46, 1.52204732894897460938e+01) (47, 1.50000000000000000000e+03) (48, 6.18203401565551757812e-01) (49, 4.15845108032226562500e+00) (50, 1.50000000000000000000e+03) (51, 2.77779793739318847656e+00) (52, 1.50000000000000000000e+03) (53, 1.50000000000000000000e+03) (54, 3.54382085800170898438e+00) (55, -7.73281383514404296875e+00) (56, 1.50000000000000000000e+03) (57, 4.11761492490768432617e-01) (58, -1.64619162678718566895e-01) (59, 4.79619741439819335938e+00) (60, 1.50000000000000000000e+03) (61, -2.90647296905517578125e+01) (62, -2.27476075291633605957e-01) (63, -2.32521400451660156250e+01) (64, -3.74027347564697265625e+00) (65, -2.03705096244812011719e+00) (31, -4.74430990219116210938e+00) (32, 2.43118715286254882812e+00) (33, 1.50000000000000000000e+03) (34, -3.15297460556030273438e+00) (35, -9.87815380096435546875e+00) (36, 1.50000000000000000000e+03) (37, 1.50000000000000000000e+03) (38, 1.50674164295196533203e+00) (39, -2.52325868606567382812e+00) (40, 1.50000000000000000000e+03) (41, 7.45030164718627929688e+00) (42, -4.11755895614624023438e+00) (43, -5.65746641159057617188e+00) (44, 9.35603332519531250000e+01) (45, -2.06322193145751953125e-01) (46, 1.28318567276000976562e+01) (47, 1.50000000000000000000e+03) (48, 1.62404525279998779297e+00) (49, -9.13559913635253906250e+00) (50, 1.50000000000000000000e+03) (51, 1.98715716600418090820e-01) (52, 1.50000000000000000000e+03) (53, 1.50000000000000000000e+03) (54, 3.58287501335144042969e+00) (55, -1.69071674346923828125e+01) (56, 1.50000000000000000000e+03) (57, 9.01767432689666748047e-01) (58, 1.47990636825561523438e+01) (59, 1.77699327468872070312e+00) (60, 1.50000000000000000000e+03) (61, -8.78182724118232727051e-02) (62, 3.89922666549682617188e+00) (63, -1.51142921447753906250e+01) (64, 3.96669960021972656250e+00) (65, 1.00037848949432373047e+00) (31, 6.52561378479003906250e+00) (32, 1.74122703075408935547e+00) (33, 1.50000000000000000000e+03) (34, 1.13990583419799804688e+01) (35, -3.56453895568847656250e+00) (36, 1.50000000000000000000e+03) (37, 1.50000000000000000000e+03) (38, 5.89815862476825714111e-02) (39, -4.35478544235229492188e+00) (40, 1.50000000000000000000e+03) (41, 3.12131452560424804688e+00) (42, 1.99278485774993896484e+00) (43, -2.15087909698486328125e+01) (44, 1.17247520446777343750e+02) (45, 3.33357632160186767578e-01) (46, 1.15696496963500976562e+01) (47, 1.50000000000000000000e+03) (48, 1.06308870315551757812e+01) (49, -1.20455398559570312500e+01) (50, 1.50000000000000000000e+03) (51, 5.36214768886566162109e-01) (52, 1.50000000000000000000e+03) (53, 1.50000000000000000000e+03) (54, -9.25851166248321533203e-01) (55, -2.48735637664794921875e+01) (56, 1.50000000000000000000e+03) (57, -1.82457137107849121094e+00) (58, 1.05738077163696289062e+01) (59, 1.14836919307708740234e+00) (60, 1.50000000000000000000e+03) (61, -3.64239621162414550781e+00) (62, 5.52065229415893554688e+00) (63, -1.36785383224487304688e+01) (64, 7.67179965972900390625e+00) (65, 9.62244510650634765625e-01) (31, -1.75533175468444824219e+00) (32, 9.49829006195068359375e+00) (33, 1.50000000000000000000e+03) (34, -1.58470354080200195312e+01) (35, -1.19054632186889648438e+01) (36, 1.50000000000000000000e+03) (37, 1.50000000000000000000e+03) (38, -6.57441329956054687500e+00) (39, 9.10597264766693115234e-01) (40, 1.50000000000000000000e+03) (41, 5.56244754791259765625e+00) (42, 7.39945507049560546875e+00) (43, -9.99491214752197265625e+00) (44, 2.05010051727294921875e+01) (45, -1.03713715076446533203e+00) (46, 1.23217926025390625000e+01) (47, 1.50000000000000000000e+03) (48, -3.90974664688110351562e+00) (49, -6.02501296997070312500e+00) (50, 1.50000000000000000000e+03) (51, 1.39120893478393554688e+01) (52, 1.50000000000000000000e+03) (53, 1.50000000000000000000e+03) (54, 4.37131583690643310547e-01) (55, -4.93439245223999023438e+00) (56, 1.50000000000000000000e+03) (57, -7.22949981689453125000e-01) (58, 9.56229591369628906250e+00) (59, -1.23300945758819580078e+00) (60, 1.50000000000000000000e+03) (61, 8.49322700500488281250e+00) (62, -1.67971861362457275391e+00) (63, -2.72898077964782714844e+00) (64, 1.99011766910552978516e+00) (65, -2.15013742446899414062e+00) (31, -1.73148679733276367188e+00) (32, 7.95056390762329101562e+00) (33, 1.50000000000000000000e+03) (34, -9.01344490051269531250e+00) (35, 1.29982590675354003906e+00) (36, 1.50000000000000000000e+03) (37, 1.50000000000000000000e+03) (38, 1.24675059318542480469e+00) (39, 4.90028291940689086914e-01) (40, 1.50000000000000000000e+03) (41, 9.94811713695526123047e-01) (42, 2.82455921173095703125e-01) (43, -1.11600055694580078125e+01) (44, 8.96511383056640625000e+01) (45, 3.42193913459777832031e+00) (46, 7.78308153152465820312e+00) (47, 1.50000000000000000000e+03) (48, -9.48591613769531250000e+00) (49, 2.02313518524169921875e+01) (50, 1.50000000000000000000e+03) (51, 1.16160039901733398438e+01) (52, 1.50000000000000000000e+03) (53, 1.50000000000000000000e+03) (54, -4.67979639768600463867e-01) (55, -4.32765340805053710938e+00) (56, 1.50000000000000000000e+03) (57, -1.71969604492187500000e+00) (58, -7.68777561187744140625e+00) (59, 3.46967011690139770508e-01) (60, 1.50000000000000000000e+03) (61, -9.17918300628662109375e+00) (62, -1.34561204910278320312e+00) (63, -3.51503968238830566406e+00) (64, 3.34821987152099609375e+00) (65, -1.87005686759948730469e+00) (31, 1.14544878005981445312e+01) (32, 4.21918153762817382812e+00) (33, 1.50000000000000000000e+03) (34, -6.54579973220825195312e+00) (35, 4.23923873901367187500e+00) (36, 1.50000000000000000000e+03) (37, 1.50000000000000000000e+03) (38, -1.37876825332641601562e+01) (39, -2.14519071578979492188e+00) (40, 1.50000000000000000000e+03) (41, 1.45679497718811035156e+00) (42, 5.77077531814575195312e+00) (43, -4.43063964843750000000e+01) (44, 7.20792312622070312500e+01) (45, 5.27352857589721679688e+00) (46, 9.68328285217285156250e+00) (47, 1.50000000000000000000e+03) (48, -1.71216125488281250000e+01) (49, 2.64104499816894531250e+01) (50, 1.50000000000000000000e+03) (51, 1.11563911437988281250e+01) (52, 1.50000000000000000000e+03) (53, 1.50000000000000000000e+03) (54, -1.10206496715545654297e+00) (55, -9.95491886138916015625e+00) (56, 1.50000000000000000000e+03) (57, -8.02957236766815185547e-01) (58, 7.46351051330566406250e+00) (59, -1.49990928173065185547e+00) (60, 1.50000000000000000000e+03) (61, -1.49733915328979492188e+01) (62, 3.86778616905212402344e+00) (63, 