FANN_FLO_2.1
num_layers=5
learning_rate=0.700000
connection_rate=1.000000
network_type=0
learning_momentum=0.000000
training_algorithm=2
train_error_function=1
train_stop_function=0
cascade_output_change_fraction=0.010000
quickprop_decay=-0.000100
quickprop_mu=1.750000
rprop_increase_factor=1.200000
rprop_decrease_factor=0.500000
rprop_delta_min=0.000000
rprop_delta_max=50.000000
rprop_delta_zero=0.100000
cascade_output_stagnation_epochs=12
cascade_candidate_change_fraction=0.010000
cascade_candidate_stagnation_epochs=12
cascade_max_out_epochs=150
cascade_max_cand_epochs=150
cascade_num_candidate_groups=2
bit_fail_limit=3.49999994039535522461e-01
cascade_candidate_limit=1.00000000000000000000e+03
cascade_weight_multiplier=4.00000005960464477539e-01
cascade_activation_functions_count=10
cascade_activation_functions=3 5 7 8 10 11 14 15 16 17 
cascade_activation_steepnesses_count=4
cascade_activation_steepnesses=2.50000000000000000000e-01 5.00000000000000000000e-01 7.50000000000000000000e-01 1.00000000000000000000e+00 
layer_sizes=31 35 41 48 55 
scale_included=0
neurons (num_inputs, activation_function, activation_steepness)=(0, 0, 0.00000000000000000000e+00) (0, 0, 0.00000000000000000000e+00) (0, 0, 0.00000000000000000000e+00) (0, 0, 0.00000000000000000000e+00) (0, 0, 0.00000000000000000000e+00) (0, 0, 0.00000000000000000000e+00) (0, 0, 0.00000000000000000000e+00) (0, 0, 0.00000000000000000000e+00) (0, 0, 0.00000000000000000000e+00) (0, 0, 0.00000000000000000000e+00) (0, 0, 0.00000000000000000000e+00) (0, 0, 0.00000000000000000000e+00) (0, 0, 0.00000000000000000000e+00) (0, 0, 0.00000000000000000000e+00) (0, 0, 0.00000000000000000000e+00) (0, 0, 0.00000000000000000000e+00) (0, 0, 0.00000000000000000000e+00) (0, 0, 0.00000000000000000000e+00) (0, 0, 0.00000000000000000000e+00) (0, 0, 0.00000000000000000000e+00) (0, 0, 0.00000000000000000000e+00) (0, 0, 0.00000000000000000000e+00) (0, 0, 0.00000000000000000000e+00) (0, 0, 0.00000000000000000000e+00) (0, 0, 0.00000000000000000000e+00) (0, 0, 0.00000000000000000000e+00) (0, 0, 0.00000000000000000000e+00) (0, 0, 0.00000000000000000000e+00) (0, 0, 0.00000000000000000000e+00) (0, 0, 0.00000000000000000000e+00) (0, 0, 0.00000000000000000000e+00) (31, 5, 5.00000000000000000000e-01) (31, 5, 5.00000000000000000000e-01) (31, 5, 5.00000000000000000000e-01) (31, 5, 5.00000000000000000000e-01) (31, 5, 5.00000000000000000000e-01) (31, 5, 5.00000000000000000000e-01) (31, 5, 5.00000000000000000000e-01) (31, 5, 5.00000000000000000000e-01) (31, 5, 5.00000000000000000000e-01) (31, 5, 5.00000000000000000000e-01) (31, 5, 5.00000000000000000000e-01) (31, 5, 5.00000000000000000000e-01) (31, 5, 5.00000000000000000000e-01) (31, 5, 5.00000000000000000000e-01) (31, 5, 5.00000000000000000000e-01) (31, 5, 5.00000000000000000000e-01) (31, 5, 5.00000000000000000000e-01) (31, 5, 5.00000000000000000000e-01) (31, 5, 5.00000000000000000000e-01) (31, 5, 5.00000000000000000000e-01) (31, 5, 5.00000000000000000000e-01) (31, 5, 5.00000000000000000000e-01) (31, 5, 5.00000000000000000000e-01) (31, 5, 5.00000000000000000000e-01) (31, 5, 5.00000000000000000000e-01) (31, 5, 5.00000000000000000000e-01) (31, 5, 5.00000000000000000000e-01) (31, 5, 5.00000000000000000000e-01) (31, 5, 5.00000000000000000000e-01) (31, 5, 5.00000000000000000000e-01) (31, 5, 5.00000000000000000000e-01) (31, 5, 5.00000000000000000000e-01) (31, 5, 5.00000000000000000000e-01) (31, 5, 5.00000000000000000000e-01) (0, 5, 0.00000000000000000000e+00) (35, 5, 5.00000000000000000000e-01) (35, 5, 5.00000000000000000000e-01) (35, 5, 5.00000000000000000000e-01) (35, 5, 5.00000000000000000000e-01) (35, 5, 5.00000000000000000000e-01) (35, 5, 5.00000000000000000000e-01) (35, 5, 5.00000000000000000000e-01) (35, 5, 5.00000000000000000000e-01) (35, 5, 5.00000000000000000000e-01) (35, 5, 5.00000000000000000000e-01) (35, 5, 5.00000000000000000000e-01) (35, 5, 5.00000000000000000000e-01) (35, 5, 5.00000000000000000000e-01) (35, 5, 5.00000000000000000000e-01) (35, 5, 5.00000000000000000000e-01) (35, 5, 5.00000000000000000000e-01) (35, 5, 5.00000000000000000000e-01) (35, 5, 5.00000000000000000000e-01) (35, 5, 5.00000000000000000000e-01) (35, 5, 5.00000000000000000000e-01) (35, 5, 5.00000000000000000000e-01) (35, 5, 5.00000000000000000000e-01) (35, 5, 5.00000000000000000000e-01) (35, 5, 5.00000000000000000000e-01) (35, 5, 5.00000000000000000000e-01) (35, 5, 5.00000000000000000000e-01) (35, 5, 5.00000000000000000000e-01) (35, 5, 5.00000000000000000000e-01) (35, 5, 5.00000000000000000000e-01) (35, 5, 5.00000000000000000000e-01) (35, 5, 5.00000000000000000000e-01) (35, 5, 5.00000000000000000000e-01) (35, 5, 5.00000000000000000000e-01) (35, 5, 5.00000000000000000000e-01) (35, 5, 5.00000000000000000000e-01) (35, 5, 5.00000000000000000000e-01) (35, 5, 5.00000000000000000000e-01) (35, 5, 5.00000000000000000000e-01) (35, 5, 5.00000000000000000000e-01) (35, 5, 5.00000000000000000000e-01) (0, 5, 0.00000000000000000000e+00) (41, 5, 5.00000000000000000000e-01) (41, 5, 5.00000000000000000000e-01) (41, 5, 5.00000000000000000000e-01) (41, 5, 5.00000000000000000000e-01) (41, 5, 5.00000000000000000000e-01) (41, 5, 5.00000000000000000000e-01) (41, 5, 5.00000000000000000000e-01) (41, 5, 5.00000000000000000000e-01) (41, 5, 5.00000000000000000000e-01) (41, 5, 5.00000000000000000000e-01) (41, 5, 5.00000000000000000000e-01) (41, 5, 5.00000000000000000000e-01) (41, 5, 5.00000000000000000000e-01) (41, 5, 5.00000000000000000000e-01) (41, 5, 5.00000000000000000000e-01) (41, 5, 5.00000000000000000000e-01) (41, 5, 5.00000000000000000000e-01) (41, 5, 5.00000000000000000000e-01) (41, 5, 5.00000000000000000000e-01) (41, 5, 5.00000000000000000000e-01) (41, 5, 5.00000000000000000000e-01) (41, 5, 5.00000000000000000000e-01) (41, 5, 5.00000000000000000000e-01) (41, 5, 5.00000000000000000000e-01) (41, 5, 5.00000000000000000000e-01) (41, 5, 5.00000000000000000000e-01) (41, 5, 5.00000000000000000000e-01) (41, 5, 5.00000000000000000000e-01) (41, 5, 5.00000000000000000000e-01) (41, 5, 5.00000000000000000000e-01) (41, 5, 5.00000000000000000000e-01) (41, 5, 5.00000000000000000000e-01) (41, 5, 5.00000000000000000000e-01) (41, 5, 5.00000000000000000000e-01) (41, 5, 5.00000000000000000000e-01) (41, 5, 5.00000000000000000000e-01) (41, 5, 5.00000000000000000000e-01) (41, 5, 5.00000000000000000000e-01) (41, 5, 5.00000000000000000000e-01) (41, 5, 5.00000000000000000000e-01) (41, 5, 5.00000000000000000000e-01) (41, 5, 5.00000000000000000000e-01) (41, 5, 5.00000000000000000000e-01) (41, 5, 5.00000000000000000000e-01) (41, 5, 5.00000000000000000000e-01) (41, 5, 5.00000000000000000000e-01) (41, 5, 5.00000000000000000000e-01) (0, 5, 0.00000000000000000000e+00) (48, 5, 2.39999994635581970215e-01) (48, 5, 2.39999994635581970215e-01) (48, 5, 2.39999994635581970215e-01) (48, 5, 2.39999994635581970215e-01) (48, 5, 2.39999994635581970215e-01) (48, 5, 2.39999994635581970215e-01) (48, 5, 2.39999994635581970215e-01) (48, 5, 2.39999994635581970215e-01) (48, 5, 2.39999994635581970215e-01) (48, 5, 2.39999994635581970215e-01) (48, 5, 2.39999994635581970215e-01) (48, 5, 2.39999994635581970215e-01) (48, 5, 2.39999994635581970215e-01) (48, 5, 2.39999994635581970215e-01) (48, 5, 2.39999994635581970215e-01) (48, 5, 2.39999994635581970215e-01) (48, 5, 2.39999994635581970215e-01) (48, 5, 2.39999994635581970215e-01) (48, 5, 2.39999994635581970215e-01) (48, 5, 2.39999994635581970215e-01) (48, 5, 2.39999994635581970215e-01) (48, 5, 2.39999994635581970215e-01) (48, 5, 2.39999994635581970215e-01) (48, 5, 2.39999994635581970215e-01) (48, 5, 2.39999994635581970215e-01) (48, 5, 2.39999994635581970215e-01) (48, 5, 2.39999994635581970215e-01) (48, 5, 2.39999994635581970215e-01) (48, 5, 2.39999994635581970215e-01) (48, 5, 2.39999994635581970215e-01) (48, 5, 2.39999994635581970215e-01) (48, 5, 2.39999994635581970215e-01) (48, 5, 2.39999994635581970215e-01) (48, 5, 2.39999994635581970215e-01) (48, 5, 2.39999994635581970215e-01) (48, 5, 2.39999994635581970215e-01) (48, 5, 2.39999994635581970215e-01) (48, 5, 2.39999994635581970215e-01) (48, 5, 2.39999994635581970215e-01) (48, 5, 2.39999994635581970215e-01) (48, 5, 2.39999994635581970215e-01) (48, 5, 2.39999994635581970215e-01) (48, 5, 2.39999994635581970215e-01) (48, 5, 2.39999994635581970215e-01) (48, 5, 2.39999994635581970215e-01) (48, 5, 2.39999994635581970215e-01) (48, 5, 2.39999994635581970215e-01) (48, 5, 2.39999994635581970215e-01) (48, 5, 2.39999994635581970215e-01) (48, 5, 2.39999994635581970215e-01) (48, 5, 2.39999994635581970215e-01) (48, 5, 2.39999994635581970215e-01) (48, 5, 2.39999994635581970215e-01) (48, 5, 2.39999994635581970215e-01) (0, 5, 2.39999994635581970215e-01) 
connections (connected_to_neuron, weight)=(0, -7.06996843218803405762e-02) (1, -1.33598640561103820801e-01) (2, -9.71985459327697753906e-02) (3, -2.79367994517087936401e-03) (4, -9.66877490282058715820e-02) (5, -1.53223453089594841003e-02) (6, 8.17103609442710876465e-02) (7, 1.30391582846641540527e-01) (8, 2.70414911210536956787e-02) (9, -5.66210262477397918701e-02) (10, 2.95759052038192749023e-01) (11, 1.07287451624870300293e-01) (12, 1.52204108238220214844e+00) (13, -1.02145969867706298828e-01) (14, -4.85769174993038177490e-02) (15, -5.09558379650115966797e-01) (16, 3.24955463409423828125e+00) (17, 4.82561215758323669434e-02) (18, -3.61734867095947265625e+00) (19, 1.45940054208040237427e-02) (20, 1.50048148632049560547e+00) (21, 6.46123886108398437500e-01) (22, -7.54102134704589843750e+00) (23, 1.21406018733978271484e+00) (24, 7.63910770416259765625e-01) (25, 7.25123941898345947266e-01) (26, 3.64714771509170532227e-01) (27, 7.53521382808685302734e-01) (28, 7.23958253860473632812e-01) (29, -5.59032797813415527344e-01) (30, 7.95135915279388427734e-01) (0, -1.05016648769378662109e-01) (1, -5.69540932774543762207e-02) (2, -2.23496079444885253906e-01) (3, -4.02191430330276489258e-02) (4, -6.95911571383476257324e-02) (5, -2.87135150283575057983e-02) (6, -8.32644253969192504883e-02) (7, 1.39032885432243347168e-01) (8, 1.47963508963584899902e-01) (9, -1.49219930171966552734e-01) (10, 6.80285170674324035645e-02) (11, 1.55722334980964660645e-01) (12, -5.36964058876037597656e-01) (13, -1.57767713069915771484e-01) (14, 6.01566731929779052734e-02) (15, -1.89042973518371582031e+00) (16, -1.20515786111354827881e-01) (17, -3.58134448528289794922e-01) (18, -1.31413841247558593750e+00) (19, 7.71735548973083496094e-01) (20, 1.99778687953948974609e+00) (21, 5.02888560295104980469e-01) (22, -3.20111370086669921875e+00) (23, 6.96570813655853271484e-01) (24, 8.97444546222686767578e-01) (25, 7.89356172084808349609e-01) (26, -4.30456495285034179688e+00) (27, 5.94400644302368164062e-01) (28, 6.27886712551116943359e-01) (29, -4.38978701829910278320e-01) (30, 6.67791426181793212891e-01) (0, 4.44701910018920898438e-01) (1, 3.92643690109252929688e-01) (2, 5.34600615501403808594e-01) (3, 1.02266943454742431641e+00) (4, 8.08408856391906738281e-01) (5, 7.02753365039825439453e-01) (6, 4.19786512851715087891e-01) (7, 4.25796180963516235352e-01) (8, 7.31128573417663574219e-01) (9, 9.40995752811431884766e-01) (10, 6.57869291305541992188e+00) (11, 8.92395675182342529297e-01) (12, 8.08968722820281982422e-01) (13, 1.72311067581176757812e+00) (14, 8.46843957901000976562e-01) (15, 1.92653071880340576172e+00) (16, 7.29309749603271484375e+00) (17, 1.91370248794555664062e+00) (18, -5.43901252746582031250e+00) (19, 8.95858466625213623047e-01) (20, 1.64763379096984863281e+00) (21, -1.50359690189361572266e-01) (22, 7.87098765373229980469e-01) (23, 6.53971052169799804688e+00) (24, 2.69347727298736572266e-01) (25, 5.86552858352661132812e-01) (26, 5.73499053716659545898e-02) (27, 1.77404776215553283691e-01) (28, 2.50229984521865844727e-01) (29, 8.39388728141784667969e-01) (30, 2.28080987930297851562e-01) (0, 7.58260369300842285156e-01) (1, 6.08474433422088623047e-01) (2, 5.88615596294403076172e-01) (3, 7.73701488971710205078e-01) (4, 6.72728002071380615234e-01) (5, 7.35004067420959472656e-01) (6, 8.03568363189697265625e-01) (7, 7.31498003005981445312e-01) (8, 7.72398233413696289062e-01) (9, 7.28080391883850097656e-01) (10, 7.16696679592132568359e-01) (11, 1.01138412952423095703e+00) (12, 7.19928383827209472656e-01) (13, 5.71277141571044921875e-01) (14, 1.33280527591705322266e+00) (15, 1.84534549713134765625e+00) (16, 1.13112723827362060547e+00) (17, 4.69579696655273437500e-01) (18, -7.38438415527343750000e+00) (19, 8.46247959136962890625e+00) (20, -8.59292125701904296875e+00) (21, -1.92083799839019775391e+00) (22, -1.23684227466583251953e+00) (23, 4.22825664281845092773e-01) (24, -2.12368220090866088867e-01) (25, -3.86387377977371215820e-01) (26, -2.21872538328170776367e-01) (27, -3.12519580125808715820e-01) (28, -3.96024316549301147461e-01) (29, -5.42953300476074218750e+00) (30, -1.70701861381530761719e-01) (0, -3.90600830316543579102e-01) (1, -2.91017770767211914062e-01) (2, -4.20728921890258789062e-01) (3, -1.36768236756324768066e-01) (4, -1.88331276178359985352e-01) (5, -1.76630720496177673340e-01) (6, -9.83659178018569946289e-02) (7, -1.98040992021560668945e-01) (8, -3.35491523146629333496e-02) (9, -1.22387170791625976562e-01) (10, -2.55345523357391357422e-01) (11, -6.93981721997261047363e-02) (12, -9.69229564070701599121e-02) (13, -1.73511102795600891113e-01) (14, 3.13642956316471099854e-02) (15, 5.34602046012878417969e-01) (16, 4.14408922195434570312e-01) (17, 1.50648370385169982910e-01) (18, -6.12726390361785888672e-01) (19, -5.17435133457183837891e-01) (20, 6.70979499816894531250e-01) (21, 4.64152306318283081055e-01) (22, -1.40530753135681152344e+00) (23, 2.29151272773742675781e+00) (24, 7.99681842327117919922e-01) (25, 6.70882225036621093750e-01) (26, 7.48341441154479980469e-01) (27, 6.16929888725280761719e-01) (28, 3.54225873947143554688e-01) (29, -2.07753396034240722656e+00) (30, 8.76340568065643310547e-01) (0, 3.12928587198257446289e-01) (1, 3.67162376642227172852e-01) (2, 3.77356320619583129883e-01) (3, -3.78368854522705078125e-01) (4, 1.52349606156349182129e-01) (5, 3.94174993038177490234e-01) (6, 1.34853705763816833496e-01) (7, 3.27774703502655029297e-01) (8, 5.14380633831024169922e-01) (9, 1.34859129786491394043e-01) (10, 4.63576056063175201416e-04) (11, 4.63387846946716308594e-01) (12, 4.13627576828002929688e+00) (13, 4.04036551713943481445e-01) (14, 9.78317499160766601562e-01) (15, 4.36727613210678100586e-01) (16, 1.11407613754272460938e+00) (17, 5.79266488552093505859e-01) (18, -7.98464775085449218750e-01) (19, -1.53423416614532470703e+00) (20, -8.70370960235595703125e+00) (21, -4.50770974159240722656e-01) (22, -2.22351474761962890625e+01) (23, 2.40660563111305236816e-01) (24, -2.49889165163040161133e-01) (25, -1.71284481883049011230e-01) (26, 3.62058281898498535156e+00) (27, -4.92048263549804687500e-01) (28, -6.36958718299865722656e-01) (29, 1.72308909893035888672e+00) (30, 1.01911835372447967529e-01) (0, 2.49282136559486389160e-01) (1, 1.41949743032455444336e-01) (2, 9.29533503949642181396e-03) (3, 6.45423293113708496094e-01) (4, 6.19426429271697998047e-01) (5, 9.62499856948852539062e-01) (6, 3.74890029430389404297e-01) (7, 3.89031976461410522461e-01) (8, 8.27994942665100097656e-01) (9, 3.98327440023422241211e-01) (10, 7.48808741569519042969e-01) (11, 1.60737037658691406250e-01) (12, -3.05827641487121582031e+00) (13, 4.23951774835586547852e-01) (14, -1.63699872791767120361e-02) (15, -1.31777286529541015625e+00) (16, 6.61852002143859863281e-01) (17, 1.20076298713684082031e+00) (18, 1.77852332592010498047e+00) (19, -2.47671097517013549805e-01) (20, 2.88802385330200195312e+00) (21, -3.81270140409469604492e-01) (22, 6.31687045097351074219e-01) (23, 2.34262776374816894531e+00) (24, 2.78846144676208496094e-01) (25, 2.54361003637313842773e-01) (26, -3.08545279502868652344e+00) (27, 2.74909675121307373047e-01) (28, 3.04775238037109375000e-01) (29, 7.61663466691970825195e-02) (30, 5.56602656841278076172e-01) (0, 1.85420900583267211914e-01) (1, 9.80846136808395385742e-02) (2, 1.24783024191856384277e-01) (3, 9.56974700093269348145e-02) (4, 9.76985096931457519531e-02) (5, 6.13820366561412811279e-03) (6, -1.51346838101744651794e-02) (7, 1.95712342858314514160e-01) (8, 2.23992571234703063965e-01) (9, 3.76423835754394531250e-01) (10, 2.85376161336898803711e-01) (11, 1.95652440190315246582e-01) (12, 7.05969408154487609863e-02) (13, 2.51909643411636352539e-01) (14, 8.26560035347938537598e-02) (15, 1.77240324020385742188e+00) (16, 2.20426392555236816406e+00) (17, 3.25932294130325317383e-01) (18, -3.67765396833419799805e-01) (19, 4.40072488784790039062e+00) (20, -3.76674747467041015625e+00) (21, 6.30529403686523437500e-01) (22, 4.01332914829254150391e-01) (23, -6.86820387840270996094e-01) (24, 5.71059465408325195312e-01) (25, 6.42150819301605224609e-01) (26, 7.41164088249206542969e-01) (27, 4.86921370029449462891e-01) (28, 5.42711555957794189453e-01) (29, 8.43380391597747802734e-01) (30, 5.62068283557891845703e-01) (0, 6.40919089317321777344e-01) (1, 6.63004040718078613281e-01) (2, 6.87598288059234619141e-01) (3, 7.90020346641540527344e-01) (4, 6.48238778114318847656e-01) (5, 8.36782753467559814453e-01) (6, 4.69124108552932739258e-01) (7, 4.41645622253417968750e-01) (8, 7.51733660697937011719e-01) (9, 6.52595520019531250000e-01) (10, 6.99996292591094970703e-01) (11, 8.40242147445678710938e-01) (12, -1.16742563247680664062e+00) (13, -1.37461817264556884766e+00) (14, 1.17507390677928924561e-01) (15, 1.23550307750701904297e+00) (16, -3.76648545265197753906e-01) (17, 5.97865462303161621094e-01) (18, -1.94286759942770004272e-02) (19, 1.89011096954345703125e-01) (20, -4.29701137542724609375e+00) (21, -2.67577141523361206055e-01) (22, -1.91760158538818359375e+00) (23, -8.77500772476196289062e-01) (24, -1.97323095053434371948e-02) (25, -1.89666002988815307617e-01) (26, 3.62054514884948730469e+00) (27, -3.71104851365089416504e-02) (28, -1.05302520096302032471e-01) (29, 3.71647047996520996094e+00) (30, -1.05777028948068618774e-02) (0, 1.25994727015495300293e-01) (1, 1.20441071689128875732e-01) (2, -1.14317834377288818359e-02) (3, 1.16851322352886199951e-01) (4, 1.44729033112525939941e-01) (5, 1.42165243625640869141e-01) (6, 2.33150243759155273438e-01) (7, 2.24957838654518127441e-01) (8, 1.47380694746971130371e-01) (9, -1.39910578727722167969e-01) (10, 1.05893328785896301270e-01) (11, 1.95482239127159118652e-01) (12, -1.34886002540588378906e+00) (13, 8.69509484618902206421e-03) (14, 7.04669626429677009583e-03) (15, 4.89610999822616577148e-01) (16, 4.64667290449142456055e-01) (17, 1.07779490947723388672e+00) (18, -1.62734258174896240234e+00) (19, -4.27451655268669128418e-02) (20, -1.21111467480659484863e-01) (21, 5.87157189846038818359e-01) (22, 9.77587476372718811035e-02) (23, -5.55189192295074462891e-01) (24, 5.77221214771270751953e-01) (25, 5.16099989414215087891e-01) (26, 4.04992043972015380859e-01) (27, 4.05788183212280273438e-01) (28, 5.06341695785522460938e-01) (29, 4.38670665025711059570e-01) (30, 5.04382133483886718750e-01) (0, 8.35924521088600158691e-02) (1, 1.84967935085296630859e-01) (2, 1.32941544055938720703e-01) (3, -2.44008675217628479004e-02) (4, 1.44192129373550415039e-01) (5, 1.25102147459983825684e-01) (6, 7.47398957610130310059e-02) (7, 1.16222888231277465820e-01) (8, 1.90744742751121520996e-01) (9, 5.14510199427604675293e-02) (10, 1.38819858431816101074e-01) (11, 1.41971513628959655762e-01) (12, -2.25628316402435302734e-02) (13, 5.33194184303283691406e-01) (14, 3.80515679717063903809e-02) (15, 2.38226532936096191406e-01) (16, -2.74074292182922363281e+00) (17, -4.34740734100341796875e+00) (18, -2.26126766204833984375e+00) (19, 6.64523601531982421875e-01) (20, -6.47690439224243164062e+00) (21, 2.09873661398887634277e-01) (22, 7.69503638148307800293e-02) (23, 5.65307959914207458496e-03) (24, 4.45459216833114624023e-01) (25, -2.04750057309865951538e-02) (26, 2.75727272033691406250e-01) (27, 4.74810630083084106445e-01) (28, 5.10464489459991455078e-01) (29, 7.01129317283630371094e-01) (30, 6.09169006347656250000e-01) (0, 4.60951447486877441406e-01) (1, 3.72896492481231689453e-01) (2, 5.31768977642059326172e-01) (3, 4.37211483716964721680e-01) (4, 3.04245322942733764648e-01) (5, 4.92551714181900024414e-01) (6, 3.28641295433044433594e-01) (7, 4.08518105745315551758e-01) (8, 6.79644882678985595703e-01) (9, 4.76515740156173706055e-01) (10, 2.98688083887100219727e-01) (11, 6.66096568107604980469e-01) (12, 7.99059450626373291016e-01) (13, 3.30938220024108886719e-01) (14, 7.61765837669372558594e-01) (15, 8.78869438171386718750e+00) (16, 1.43104052543640136719e+00) (17, 8.43605279922485351562e-01) (18, -9.60290145874023437500e+00) (19, -2.67203629016876220703e-01) (20, -5.20707416534423828125e+00) (21, -2.49004006385803222656e-01) (22, -1.64821296930313110352e-01) (23, 5.23737967014312744141e-02) (24, -1.53696879744529724121e-01) (25, 3.74449528753757476807e-02) (26, 1.14209055900573730469e-01) (27, -1.33069619536399841309e-01) (28, -1.38566359877586364746e-01) (29, -4.50638198852539062500e+00) (30, 1.42808184027671813965e-01) (0, 3.03870532661676406860e-02) (1, -4.48677018284797668457e-02) (2, -7.64001682400703430176e-02) (3, -5.11756762862205505371e-02) (4, -2.40658167749643325806e-02) (5, 2.14544758200645446777e-02) (6, -1.32768049836158752441e-01) (7, -1.08991511166095733643e-01) (8, -3.88384796679019927979e-03) (9, 7.40591064095497131348e-02) (10, 5.59959895908832550049e-02) (11, 1.93583562970161437988e-01) (12, -7.30795001983642578125e+00) (13, -1.01157881319522857666e-01) (14, 1.49346366524696350098e-01) (15, -1.31118500232696533203e+00) (16, -7.05145597457885742188e-01) (17, 5.76541200280189514160e-02) (18, 1.48066794872283935547e+00) (19, 4.69648218154907226562e+00) (20, 3.12114149332046508789e-01) (21, 7.74892628192901611328e-01) (22, 1.10966205596923828125e+00) (23, 1.24342858791351318359e+00) (24, 7.50519037246704101562e-01) (25, 8.45321953296661376953e-01) (26, 1.06357908248901367188e+00) (27, 7.98965215682983398438e-01) (28, 7.13869571685791015625e-01) (29, -2.27111592888832092285e-01) (30, 6.59632086753845214844e-01) (0, -1.48333966732025146484e-01) (1, -4.15788367390632629395e-02) (2, -5.96336945891380310059e-02) (3, -4.95726317167282104492e-02) (4, 5.33336913213133811951e-03) (5, -6.19855802506208419800e-03) (6, -2.09227561950683593750e-01) (7, -7.88675397634506225586e-02) (8, -2.14334547519683837891e-01) (9, 1.47138223052024841309e-01) (10, -1.36022433638572692871e-01) (11, -3.11594456434249877930e-01) (12, -9.45334815979003906250e+00) (13, -2.86590874195098876953e-01) (14, -2.49665260314941406250e-01) (15, -1.29532706737518310547e+00) (16, -1.56791102886199951172e+00) (17, 4.09801602363586425781e-02) (18, 5.59427678585052490234e-01) (19, 8.99654150009155273438e-01) (20, 2.97345340251922607422e-01) (21, 6.70623958110809326172e-01) (22, -6.50433659553527832031e-01) (23, 2.83124804496765136719e+00) (24, 1.00423908233642578125e+00) (25, 1.20541632175445556641e+00) (26, 7.32993066310882568359e-01) (27, 5.61578392982482910156e-01) (28, 7.45811820030212402344e-01) (29, 2.28244349360466003418e-01) (30, 7.45894014835357666016e-01) (0, 1.31803691387176513672e-01) (1, 2.36982569098472595215e-01) (2, 2.50623285770416259766e-01) (3, 2.18744322657585144043e-01) (4, 1.92458361387252807617e-01) (5, 2.32921659946441650391e-01) (6, 6.12281784415245056152e-02) (7, 1.03918433189392089844e-01) (8, 8.53196144104003906250e-01) (9, 2.38691598176956176758e-01) (10, 2.23586499691009521484e-01) (11, 6.74026906490325927734e-02) (12, 4.49413396418094635010e-02) (13, 3.68787050247192382812e-01) (14, 1.09550619125366210938e+00) (15, 5.57055473327636718750e+00) (16, 2.54613757133483886719e+00) (17, 2.18499898910522460938e+00) (18, -4.68236970901489257812e+00) (19, -1.83933568000793457031e+00) (20, 1.09100770950317382812e+00) (21, 4.32374387979507446289e-01) (22, 2.96575427055358886719e-01) (23, 6.04365319013595581055e-02) (24, 8.67721498012542724609e-01) (25, 3.18584471940994262695e-01) (26, 2.69416868686676025391e-01) (27, 4.03912603855133056641e-01) (28, 4.56028580665588378906e-01) (29, 3.57266455888748168945e-01) (30, 4.78819191455841064453e-01) (0, 3.89745920896530151367e-01) (1, -1.09975397586822509766e-01) (2, 3.51886570453643798828e-01) (3, 1.03116929531097412109e+00) (4, 9.79366838932037353516e-01) (5, 8.62234950065612792969e-01) (6, 6.88894689083099365234e-01) (7, 4.63764250278472900391e-01) (8, 5.68160414695739746094e-01) (9, 1.12081444263458251953e+00) (10, 2.23831820487976074219e+00) (11, 6.52848482131958007812e-01) (12, 5.65074265003204345703e-01) (13, -5.57026445865631103516e-01) (14, 4.75393772125244140625e-01) (15, -1.48852217197418212891e+00) (16, -6.46991550922393798828e-01) (17, 2.97920227050781250000e+00) (18, 7.57974743843078613281e-01) (19, -3.55348825454711914062e-01) (20, -4.91655874252319335938e+00) (21, -6.26430034637451171875e-01) (22, -2.56303757429122924805e-01) (23, 5.46940326690673828125e+00) (24, 3.12106758356094360352e-01) (25, 1.10524237155914306641e-01) (26, -8.41754734516143798828e-01) (27, 2.84582495689392089844e-01) (28, 7.18107745051383972168e-02) (29, 1.42426222562789916992e-01) (30, 3.43326628208160400391e-01) (0, -1.42715498805046081543e-01) (1, -9.67156291007995605469e-02) (2, -4.79866340756416320801e-02) (3, -1.96151226758956909180e-01) (4, -1.42886176705360412598e-01) (5, -1.84733048081398010254e-01) (6, -1.53380995616316795349e-02) (7, -4.82828319072723388672e-02) (8, -3.12313288450241088867e-02) (9, -1.56820923089981079102e-01) (10, -1.45264729857444763184e-01) (11, -1.32859824225306510925e-02) (12, -1.60858702659606933594e+00) (13, 2.16477915644645690918e-01) (14, -1.15544475615024566650e-01) (15, 9.94240188598632812500e+00) (16, 3.77415984869003295898e-01) (17, -1.43045437335968017578e+00) (18, 1.72923870086669921875e+01) (19, 2.46210598945617675781e+00) (20, -3.90619206428527832031e+00) (21, 5.36321783065795898438e+00) (22, -4.62498515844345092773e-01) (23, 2.49734377861022949219e+00) (24, 4.19093894958496093750e+00) (25, 9.89045441150665283203e-01) (26, 1.17334442138671875000e+01) (27, 7.14379072189331054688e-01) (28, 6.89187526702880859375e-01) (29, -4.82291269302368164062e+00) (30, 6.33759856224060058594e-01) (0, 3.87422710657119750977e-01) (1, 2.98850893974304199219e-01) (2, -2.39604897797107696533e-02) (3, 3.52076053619384765625e-01) (4, -1.23339354991912841797e-01) (5, -1.28610551357269287109e-01) (6, -1.80729646235704421997e-02) (7, -1.64836555719375610352e-01) (8, -2.14268326759338378906e-01) (9, 2.13457608222961425781e+00) (10, -3.90594303607940673828e-01) (11, -2.83171087503433227539e-01) (12, -1.01972234249114990234e+00) (13, -1.66265398263931274414e-01) (14, 2.97770559787750244141e-01) (15, 3.66233706474304199219e-01) (16, 3.77994358539581298828e-01) (17, -4.78929430246353149414e-01) (18, -8.35548162460327148438e-01) (19, 3.78896147012710571289e-01) (20, 1.17100811004638671875e+00) (21, -2.98656761646270751953e-01) (22, -1.84584569931030273438e+00) (23, 1.18970251083374023438e+01) (24, 4.61455106735229492188e-01) (25, 5.83721041679382324219e-01) (26, 1.16681478917598724365e-01) (27, 3.86528819799423217773e-01) (28, 3.18174451589584350586e-01) (29, 6.75629758834838867188e+00) (30, 5.02329587936401367188e-01) (0, 1.01436913013458251953e-01) (1, 4.51859794557094573975e-02) (2, 1.79747372865676879883e-01) (3, 1.03988401591777801514e-01) (4, 1.97984222322702407837e-02) (5, 2.20270469784736633301e-01) (6, 1.28973647952079772949e-01) (7, 1.42078608274459838867e-01) (8, 1.98842912912368774414e-01) (9, -2.31946915388107299805e-01) (10, 5.15947751700878143311e-02) (11, 1.09383724629878997803e-01) (12, -3.46149158477783203125e+00) (13, 1.25080600380897521973e-01) (14, 3.76814603805541992188e-01) (15, 1.47141969203948974609e+00) (16, 6.87724411487579345703e-01) (17, 4.93043035268783569336e-01) (18, -9.64380085468292236328e-01) (19, -1.17140889167785644531e+00) (20, 6.39684498310089111328e-01) (21, 4.25917416810989379883e-01) (22, -3.04920136928558349609e-01) (23, -9.90841090679168701172e-02) (24, 5.64569830894470214844e-01) (25, 5.49866139888763427734e-01) (26, 6.77758216857910156250e-01) (27, 3.73797059059143066406e-01) (28, 5.72776615619659423828e-01) (29, 3.74371707439422607422e-01) (30, 5.75670480728149414062e-01) (0, 3.09034734964370727539e-01) (1, 3.07280480861663818359e-01) (2, 3.90588253736495971680e-01) (3, 5.35272300243377685547e-01) (4, 5.11326909065246582031e-01) (5, 5.07988870143890380859e-01) (6, 4.30062025785446166992e-01) (7, 5.12601196765899658203e-01) (8, 3.88647705316543579102e-01) (9, 3.96798521280288696289e-01) (10, 8.86420607566833496094e-01) (11, 7.71909236907958984375e-01) (12, 2.94471144676208496094e-01) (13, 5.52471578121185302734e-01) (14, 1.49167701601982116699e-01) (15, -1.50566482543945312500e+00) (16, 2.83382821083068847656e+00) (17, 8.28327387571334838867e-02) (18, -5.79383689910173416138e-03) (19, 8.35917949676513671875e-01) (20, 1.81661963462829589844e+00) (21, 1.31830900907516479492e-01) (22, 2.71004855632781982422e-01) (23, 3.58747869729995727539e-01) (24, 3.17152589559555053711e-01) (25, 3.13565611839294433594e-01) (26, 9.88207906484603881836e-02) (27, 3.69435787200927734375e-01) (28, 3.11646372079849243164e-01) (29, 2.35613346099853515625e-01) (30, 3.32438260316848754883e-01) (0, 4.89425837993621826172e-01) (1, 4.64096069335937500000e-01) (2, -1.99502129107713699341e-02) (3, 4.35933917760848999023e-01) (4, 5.18563330173492431641e-01) (5, 4.07435983419418334961e-01) (6, 1.80047422647476196289e-01) (7, 1.61469236016273498535e-01) (8, 3.85318577289581298828e-01) (9, 3.33180308341979980469e-01) (10, 4.95075494050979614258e-01) (11, -2.29202747344970703125e-01) (12, 4.85989777371287345886e-03) (13, 4.90673750638961791992e-01) (14, 3.75316411256790161133e-01) (15, 2.48411026000976562500e+01) (16, 1.57675952911376953125e+01) (17, 2.00369000434875488281e-01) (18, 8.74818444252014160156e-01) (19, 8.28814923763275146484e-01) (20, 3.52166891098022460938e+00) (21, 2.15234562754631042480e-01) (22, -1.98652431368827819824e-01) (23, -1.06522357463836669922e+00) (24, 9.78437483310699462891e-01) (25, 5.50785005092620849609e-01) (26, -1.40708461403846740723e-01) (27, 8.97559285163879394531e-01) (28, 4.42275106906890869141e-01) (29, 2.57325142621994018555e-01) (30, 8.26048016548156738281e-01) (0, -4.78285923600196838379e-02) (1, -5.05846366286277770996e-02) (2, -1.82542100548744201660e-01) (3, -1.58142566680908203125e-01) (4, -6.65951445698738098145e-02) (5, 4.90542091429233551025e-02) (6, -1.50200843811035156250e-01) (7, -1.27171039581298828125e-01) (8, 1.00826643407344818115e-01) (9, -1.27836763858795166016e-01) (10, -1.59760415554046630859e-01) (11, -9.11247078329324722290e-03) (12, 1.50375217199325561523e-01) (13, -2.08034858107566833496e-01) (14, -1.19425147771835327148e-01) (15, 2.33406126499176025391e-01) (16, -1.03875207901000976562e+00) (17, -1.61486804485321044922e-01) (18, -1.87536406517028808594e+00) (19, 5.21825671195983886719e-01) (20, -8.91304254531860351562e-01) (21, 5.34881472587585449219e-01) (22, -2.00514960289001464844e+00) (23, 8.40652942657470703125e-01) (24, 6.50387704372406005859e-01) (25, 7.36298024654388427734e-01) (26, 5.36145508289337158203e-01) (27, 5.60919642448425292969e-01) (28, 6.12000823020935058594e-01) (29, -1.39750242233276367188e+00) (30, 7.99318134784698486328e-01) (0, 1.03326790034770965576e-01) (1, 2.08086237311363220215e-01) (2, 2.00124070048332214355e-01) (3, 8.91409367322921752930e-02) (4, 4.95157092809677124023e-02) (5, 1.88911467790603637695e-01) (6, -3.40111404657363891602e-02) (7, -3.86027619242668151855e-02) (8, 9.65181663632392883301e-02) (9, -2.89329811930656433105e-02) (10, 5.96934743225574493408e-02) (11, 8.91064479947090148926e-02) (12, -1.59601795673370361328e+00) (13, 6.90754652023315429688e-02) (14, 1.86594367027282714844e-01) (15, 2.01936221122741699219e+00) (16, 1.01072335243225097656e+00) (17, 1.49669080972671508789e-01) (18, 1.37588724493980407715e-01) (19, 5.92374563217163085938e-01) (20, 6.67013704776763916016e-01) (21, 6.75351977348327636719e-01) (22, 3.83137494325637817383e-01) (23, -3.77665422856807708740e-02) (24, 6.80239975452423095703e-01) (25, 5.01490652561187744141e-01) (26, 9.24123466014862060547e-01) (27, 6.31332218647003173828e-01) (28, 5.86936116218566894531e-01) (29, 6.44265115261077880859e-01) (30, 4.84860122203826904297e-01) (0, 7.24635660648345947266e-01) (1, 7.02208459377288818359e-01) (2, 6.60343468189239501953e-01) (3, 8.12725961208343505859e-01) (4, 8.43717396259307861328e-01) (5, 7.09959745407104492188e-01) (6, 5.61654508113861083984e-01) (7, 6.47696197032928466797e-01) (8, 7.60450780391693115234e-01) (9, 6.90489172935485839844e-01) (10, 5.66175341606140136719e-01) (11, 8.57125520706176757812e-01) (12, 6.52130365371704101562e+00) (13, 7.85505414009094238281e-01) (14, 7.95239150524139404297e-01) (15, 1.01708679199218750000e+01) (16, 1.24243247509002685547e+00) (17, 7.61440575122833251953e-01) (18, -2.07738327980041503906e+00) (19, -1.68716430664062500000e-01) (20, -6.90462684631347656250e+00) (21, -2.11035668849945068359e-01) (22, -4.95068073272705078125e-01) (23, -5.06906747817993164062e-01) (24, -2.38950461149215698242e-01) (25, -1.70721828937530517578e-01) (26, 1.60164237022399902344e+00) (27, -1.10439226031303405762e-01) (28, -2.13001236319541931152e-01) (29, -1.67494416236877441406e-01) (30, -1.20910532772541046143e-01) (0, -3.33818018436431884766e-01) (1, -3.13707202672958374023e-01) (2, -2.71740049123764038086e-01) (3, -1.38808041810989379883e-01) (4, -2.82078325748443603516e-01) (5, -2.27040484547615051270e-01) (6, -1.68540373444557189941e-01) (7, -2.51022011041641235352e-01) (8, -2.76698470115661621094e-01) (9, -2.63696104288101196289e-01) (10, -2.69922226667404174805e-01) (11, -4.62969094514846801758e-01) (12, -3.91144585609436035156e+00) (13, -2.96459913253784179688e-01) (14, -2.60924756526947021484e-01) (15, 9.00496542453765869141e-01) (16, 5.13328671455383300781e-01) (17, -4.48125779628753662109e-01) (18, 1.36883554458618164062e+01) (19, 8.12431275844573974609e-01) (20, -2.23210714757442474365e-02) (21, 6.12299561500549316406e-01) (22, 2.73410367965698242188e+00) (23, -4.98107612133026123047e-01) (24, 8.31912279129028320312e-01) (25, 5.70590160787105560303e-02) (26, 6.56163311004638671875e+00) (27, 7.58032083511352539062e-01) (28, 5.73855757713317871094e-01) (29, -2.46543383598327636719e+00) (30, 8.15811336040496826172e-01) (0, 1.37836307287216186523e-01) (1, 2.39492077380418777466e-02) (2, 1.43002763390541076660e-01) (3, 1.19436755776405334473e-02) (4, -8.25583189725875854492e-03) (5, 6.88628435134887695312e-01) (6, -3.38287577033042907715e-02) (7, 1.29147365689277648926e-01) (8, 7.58137106895446777344e-01) (9, -4.71791923046112060547e-02) (10, -9.04707759618759155273e-02) (11, 7.90689408779144287109e-01) (12, -2.46550485491752624512e-01) (13, 1.68243676424026489258e-01) (14, 6.86696946620941162109e-01) (15, 1.32184493541717529297e+00) (16, 2.24798011779785156250e+00) (17, 1.43066918849945068359e+00) (18, -1.45147287845611572266e+00) (19, -1.88076400756835937500e+00) (20, 8.25205862522125244141e-01) (21, -1.97617486119270324707e-01) (22, 5.32873868942260742188e-01) (23, 1.93812951445579528809e-01) (24, 4.27519351243972778320e-01) (25, 3.92688482999801635742e-01) (26, 3.54316920042037963867e-01) (27, 4.08266603946685791016e-01) (28, 3.81313443183898925781e-01) (29, 3.82148146629333496094e-01) (30, 4.98512327671051025391e-01) (0, -2.40935087203979492188e-02) (1, -2.39994004368782043457e-02) (2, 4.88010374829173088074e-03) (3, 2.49110102653503417969e-01) (4, 5.75092732906341552734e-02) (5, 5.27702607214450836182e-02) (6, 3.61016839742660522461e-01) (7, -5.50571409985423088074e-03) (8, 2.11361497640609741211e-01) (9, 3.82625237107276916504e-02) (10, 6.24972209334373474121e-02) (11, 1.60620391368865966797e-01) (12, -2.76830124855041503906e+00) (13, -9.19296443462371826172e-02) (14, 5.24407684803009033203e-01) (15, 2.44015842676162719727e-01) (16, 4.58181142807006835938e-01) (17, 9.81713294982910156250e-01) (18, 6.15080177783966064453e-01) (19, 2.06672763824462890625e+00) (20, 3.28368735313415527344e+00) (21, 7.16046333312988281250e-01) (22, 6.85122013092041015625e-01) (23, -2.41542339324951171875e+00) (24, 5.49539625644683837891e-01) (25, 6.16996705532073974609e-01) (26, 6.14842593669891357422e-01) (27, 5.86782634258270263672e-01) (28, 4.85614627599716186523e-01) (29, 2.98237860202789306641e-01) (30, 4.12950843572616577148e-01) (0, 3.86295706033706665039e-01) (1, 4.38782930374145507812e-01) (2, 3.19091737270355224609e-01) (3, 4.80755120515823364258e-01) (4, 5.29584228992462158203e-01) (5, 5.31684219837188720703e-01) (6, 5.08865177631378173828e-01) (7, 4.45763617753982543945e-01) (8, 5.06309211254119873047e-01) (9, 4.50404882431030273438e-01) (10, 1.48194980621337890625e+00) (11, 5.46459197998046875000e-01) (12, 1.02325439453125000000e+00) (13, 8.46708059310913085938e-01) (14, 6.14258229732513427734e-01) (15, 2.51136922836303710938e+00) (16, 1.60194349288940429688e+00) (17, 2.86762028932571411133e-01) (18, 1.58628262579441070557e-02) (19, 1.02112686634063720703e+00) (20, 3.36517143249511718750e+00) (21, 1.94086902774870395660e-03) (22, 2.75929033756256103516e-01) (23, 7.37202823162078857422e-01) (24, 1.71887919306755065918e-01) (25, 2.24246233701705932617e-01) (26, 3.09984781779348850250e-03) (27, 2.84623831510543823242e-01) (28, 2.77487784624099731445e-01) (29, 2.83012151718139648438e-01) (30, 3.29153507947921752930e-01) (0, -1.40540525317192077637e-01) (1, -8.95626470446586608887e-02) (2, -1.85296937823295593262e-01) (3, -7.39946663379669189453e-02) (4, -3.88917550444602966309e-02) (5, -6.51651471853256225586e-02) (6, -1.77290737628936767578e-01) (7, -1.43509000539779663086e-01) (8, 8.19428488612174987793e-02) (9, -4.01456877589225769043e-02) (10, -3.25204521417617797852e-01) (11, 1.35906368494033813477e-01) (12, 1.28899872303009033203e-01) (13, 2.19689518213272094727e-01) (14, 3.43286097049713134766e-02) (15, -4.86864149570465087891e-01) (16, -9.51040935516357421875e+00) (17, 3.29290688037872314453e-01) (18, -4.43351793289184570312e+00) (19, -5.97930364310741424561e-02) (20, -1.81466364860534667969e+00) (21, 4.31405365467071533203e-01) (22, -4.46255385875701904297e-01) (23, 3.43638986349105834961e-01) (24, 6.14350378513336181641e-01) (25, 7.22815930843353271484e-01) (26, 6.74567520618438720703e-01) (27, 7.10394024848937988281e-01) (28, 5.98483443260192871094e-01) (29, -5.51113069057464599609e-01) (30, 7.67182052135467529297e-01) (0, 6.00724160671234130859e-01) (1, 5.35573840141296386719e-01) (2, 5.69893479347229003906e-01) (3, 6.53506398200988769531e-01) (4, 5.64949810504913330078e-01) (5, 5.73507368564605712891e-01) (6, 7.19836175441741943359e-01) (7, 4.84334528446197509766e-01) (8, 6.66346192359924316406e-01) (9, 6.93553745746612548828e-01) (10, 4.29455637931823730469e-01) (11, 8.74794781208038330078e-01) (12, 7.68372714519500732422e-01) (13, -1.40638077259063720703e+00) (14, 4.49038654565811157227e-01) (15, 9.04421061277389526367e-02) (16, 6.27763271331787109375e-01) (17, -1.95991933345794677734e+00) (18, -5.18089485168457031250e+00) (19, 1.01769027709960937500e+01) (20, -6.79814481735229492188e+00) (21, -1.95597186684608459473e-01) (22, -8.16392660140991210938e-01) (23, -2.35257729887962341309e-01) (24, -1.72207400202751159668e-01) (25, -3.24514880776405334473e-02) (26, -3.47502917051315307617e-01) (27, -1.77311852574348449707e-01) (28, -1.85327768325805664062e-01) (29, -1.71281456947326660156e+00) (30, 9.57057252526283264160e-02) (0, 3.96175682544708251953e-01) (1, 3.44159871339797973633e-01) (2, 3.99951547384262084961e-01) (3, 9.18308794498443603516e-01) (4, 9.12377297878265380859e-01) (5, 9.28001761436462402344e-01) (6, 5.47575056552886962891e-01) (7, 5.29085040092468261719e-01) (8, 6.49121403694152832031e-01) (9, 1.70127689838409423828e+00) (10, 1.48256611824035644531e+00) (11, 9.19367372989654541016e-01) (12, 7.82888293266296386719e-01) (13, 1.62318277359008789062e+00) (14, 7.37214446067810058594e-01) (15, 2.11870461702346801758e-01) (16, -2.78467726707458496094e+00) (17, 4.40398788452148437500e+00) (18, 5.10497450828552246094e-01) (19, 2.89261192083358764648e-01) (20, 8.22667419910430908203e-01) (21, -1.29758298397064208984e-01) (22, 2.22989410161972045898e-01) (23, 2.34830927848815917969e+00) (24, 1.83490112423896789551e-01) (25, 1.54133588075637817383e-01) (26, -5.80968976020812988281e-01) (27, 3.66011381149291992188e-01) (28, 3.50021988153457641602e-01) (29, 3.87829095125198364258e-01) (30, 4.30489331483840942383e-01) (0, 1.70181185007095336914e-01) (1, 9.97451245784759521484e-02) (2, 2.39046975970268249512e-01) (3, 4.55664038658142089844e-01) (4, 5.44022619724273681641e-01) (5, 7.57163204252719879150e-03) (6, -4.31550368666648864746e-02) (7, -3.12872558832168579102e-01) (8, 1.47390484809875488281e-01) (9, 5.45532559044659137726e-04) (10, -3.22036266326904296875e-01) (11, -8.68022367358207702637e-02) (12, -3.52119088172912597656e+00) (13, -9.85334292054176330566e-02) (14, -1.32887857034802436829e-03) (15, -5.37880957126617431641e-01) (16, -3.33537042140960693359e-01) (17, 1.18183696269989013672e+00) (18, -1.00028920173645019531e+00) (19, 1.57720279693603515625e+00) (20, -6.79468631744384765625e-01) (21, 6.76413774490356445312e-02) (22, -4.38603305816650390625e+00) (23, 6.16139602661132812500e+00) (24, 6.30125105381011962891e-01) (25, 2.18988016247749328613e-01) (26, 1.67837834358215332031e+00) (27, 5.05874514579772949219e-01) (28, 5.79994499683380126953e-01) (29, -3.65735435485839843750e+00) (30, 6.94886624813079833984e-01) (0, 8.72886106371879577637e-02) (1, 1.95553034543991088867e-01) (2, 1.38922676444053649902e-01) (3, -2.66127977520227432251e-02) (4, 1.14980287849903106689e-01) (5, 2.23806723952293395996e-01) (6, -2.28854082524776458740e-02) (7, 1.37605860829353332520e-01) (8, 2.08657845854759216309e-01) (9, -1.65079291909933090210e-02) (10, 2.08710040897130966187e-02) (11, 1.96635261178016662598e-01) (12, -3.10414314270019531250e+00) (13, 7.97643959522247314453e-02) (14, 2.26171731948852539062e-01) (15, 1.31573903560638427734e+00) (16, 1.77012598514556884766e+00) (17, 3.62197726964950561523e-01) (18, -1.97899913787841796875e+00) (19, 2.02820062637329101562e+00) (20, 8.06037545204162597656e-01) (21, 3.75013440847396850586e-01) (22, -1.30263850092887878418e-01) (23, -8.66698548197746276855e-02) (24, 5.85740268230438232422e-01) (25, 4.78469818830490112305e-01) (26, 1.68726468086242675781e+00) (27, 5.17945587635040283203e-01) (28, 5.32283127307891845703e-01) (29, 4.07036095857620239258e-01) (30, 4.72063750028610229492e-01) (0, 2.41633847355842590332e-01) (1, 2.36607059836387634277e-01) (2, 3.77389192581176757812e-01) (3, 3.86821359395980834961e-01) (4, 4.93793040513992309570e-01) (5, 5.53794622421264648438e-01) (6, 3.77324283123016357422e-01) (7, 3.37242782115936279297e-01) (8, 1.11426162719726562500e+00) (9, 2.20302134752273559570e-01) (10, 4.68749642372131347656e-01) (11, 1.07569682598114013672e+00) (12, 5.55386066436767578125e-01) (13, 5.28588950634002685547e-01) (14, 5.53265094757080078125e-01) (15, -1.13715887069702148438e+00) (16, 9.73369538784027099609e-01) (17, 2.57709681987762451172e-01) (18, 1.16126477718353271484e+00) (19, 3.66949290037155151367e-01) (20, 1.77134740352630615234e+00) (21, 7.83078223466873168945e-02) (22, 2.70976545289158821106e-03) (23, 4.36684101819992065430e-01) (24, 3.51558744907379150391e-01) (25, 1.75687104463577270508e-01) (26, 1.98300406336784362793e-01) (27, 1.81879460811614990234e-01) (28, 8.11555162072181701660e-02) (29, 2.26499214768409729004e-01) (30, 3.37584167718887329102e-01) (31, 4.19221067428588867188e+00) (32, 8.12466502189636230469e-01) (33, 4.53538835048675537109e-01) (34, -1.53210356831550598145e-01) (35, 1.53564572334289550781e+00) (36, -1.52800336480140686035e-01) (37, -2.63081341981887817383e-01) (38, -3.16043272614479064941e-02) (39, -3.41677188873291015625e-01) (40, -3.08023929595947265625e-01) (41, 1.39178365468978881836e-01) (42, -2.80538618564605712891e-01) (43, 7.93516993522644042969e-01) (44, 8.85104417800903320312e-01) (45, -3.57309758663177490234e-01) (46, 5.47805368900299072266e-01) (47, 2.03921094536781311035e-01) (48, 1.60121726989746093750e+00) (49, 2.50500757247209548950e-02) (50, 4.37529712915420532227e-01) (51, 9.28888320922851562500e-01) (52, 8.54594349861145019531e-01) (53, -1.22467231750488281250e+00) (54, -3.94926249980926513672e-01) (55, 7.14901626110076904297e-01) (56, -8.26495707035064697266e-01) (57, 1.13179776817560195923e-02) (58, 5.11391997337341308594e-01) (59, 8.80390942096710205078e-01) (60, -7.83369839191436767578e-02) (61, 4.41420942544937133789e-01) (62, 1.57222211360931396484e+00) (63, -2.27290749549865722656e-01) (64, 4.54186290502548217773e-01) (65, 7.75443971157073974609e-01) (31, 9.40719544887542724609e-01) (32, -9.26367092132568359375e+00) (33, 2.49560847878456115723e-02) (34, -6.11189186573028564453e-01) (35, 1.91342473030090332031e+00) (36, -5.86217343807220458984e-01) (37, 1.40616208314895629883e-01) (38, 5.63477635383605957031e-01) (39, -6.87074899673461914062e-01) (40, 6.23218238353729248047e-01) (41, 5.96314966678619384766e-01) (42, -6.84432268142700195312e-01) (43, 1.66168522834777832031e+00) (44, 1.88030254840850830078e+00) (45, -5.01205778121948242188e+00) (46, 6.04428946971893310547e-02) (47, 4.97704952955245971680e-01) (48, 6.02041363716125488281e-01) (49, 5.39454400539398193359e-01) (50, 5.02171851694583892822e-02) (51, -2.94727349281311035156e+00) (52, 1.98831474781036376953e+00) (53, 4.78877753019332885742e-01) (54, -6.90017044544219970703e-01) (55, 1.82395792007446289062e+00) (56, 5.17055332660675048828e-01) (57, 5.62524974346160888672e-01) (58, 6.80502727627754211426e-02) (59, 1.92279756069183349609e+00) (60, -6.92827999591827392578e-01) (61, 1.62191495299339294434e-01) (62, 1.52224862575531005859e+00) (63, 3.16919863224029541016e-01) (64, -4.98459907248616218567e-03) (65, 1.96710491180419921875e+00) (31, 1.76899147033691406250e+00) (32, 1.40055727958679199219e+00) (33, 1.98645561933517456055e-01) (34, 1.82030305266380310059e-01) (35, 4.33046281337738037109e-01) (36, 2.37421035766601562500e-01) (37, -4.16017979383468627930e-01) (38, 1.14180827140808105469e+00) (39, 1.02294370532035827637e-01) (40, 1.03133618831634521484e+00) (41, 3.44302153587341308594e+00) (42, 2.11736053228378295898e-01) (43, 4.00906503200531005859e-01) (44, 4.86044496297836303711e-01) (45, -4.13762241601943969727e-01) (46, 2.16236799955368041992e-01) (47, 3.80275636911392211914e-01) (48, 4.93956416845321655273e-01) (49, 1.13433825969696044922e+00) (50, -4.49935346841812133789e-01) (51, -1.60347175598144531250e+00) (52, 4.27595645189285278320e-01) (53, 1.09321188926696777344e+00) (54, 1.51424288749694824219e-01) (55, 3.26874524354934692383e-01) (56, 1.18304646015167236328e+00) (57, 8.19384336471557617188e-01) (58, -5.12369275093078613281e-01) (59, 5.68641662597656250000e-01) (60, 1.40924006700515747070e-01) (61, -4.06904548406600952148e-01) (62, 2.59837841987609863281e+00) (63, 6.87994599342346191406e-01) (64, -5.03169000148773193359e-01) (65, 5.05717337131500244141e-01) (31, 3.53476738929748535156e+00) (32, -7.29369401931762695312e-01) (33, 2.81593739986419677734e-01) (34, 8.65999996662139892578e-01) (35, 2.07876607775688171387e-01) (36, 1.16818630695343017578e+00) (37, 6.23138248920440673828e-02) (38, 2.87645936012268066406e-01) (39, 5.63999712467193603516e-01) (40, 1.63803637027740478516e-01) (41, 8.36527347564697265625e-01) (42, 9.15507674217224121094e-01) (43, -4.16061608120799064636e-03) (44, 9.62286368012428283691e-02) (45, -1.96813582442700862885e-03) (46, 1.55369237065315246582e-01) (47, 3.96691083908081054688e-01) (48, 2.89893709123134613037e-02) (49, -4.10940110683441162109e-01) (50, 1.90315306186676025391e-01) (51, 7.28042274713516235352e-02) (52, 1.14964611828327178955e-01) (53, 1.46447047591209411621e-01) (54, 7.77747809886932373047e-01) (55, 8.14976468682289123535e-02) (56, -2.34322533011436462402e-01) (57, 3.32239210605621337891e-01) (58, 1.30535647273063659668e-01) (59, 1.03952854871749877930e-01) (60, 7.87220239639282226562e-01) (61, 3.09059172868728637695e-01) (62, -1.01785910129547119141e+00) (63, 2.42765694856643676758e-01) (64, 2.27480456233024597168e-01) (65, 2.49745007604360580444e-02) (31, 3.38762450218200683594e+00) (32, -6.01775705814361572266e-01) (33, 7.17462122440338134766e-01) (34, 3.33909362554550170898e-01) (35, 3.51027131080627441406e-01) (36, 2.84275501966476440430e-01) (37, 7.07944095134735107422e-01) (38, 2.94528752565383911133e-02) (39, 2.69580453634262084961e-01) (40, 1.18951484560966491699e-01) (41, -8.60173285007476806641e-01) (42, 8.57488691806793212891e-01) (43, 2.78475254774093627930e-01) (44, 5.08459389209747314453e-01) (45, -1.86201286315917968750e+00) (46, 7.07765400409698486328e-01) (47, 3.12774658203125000000e-01) (48, 1.92589521408081054688e-01) (49, -4.70073260366916656494e-02) (50, 4.36615288257598876953e-01) (51, 9.33294475078582763672e-01) (52, 4.80329483747482299805e-01) (53, -2.64802500605583190918e-02) (54, 3.65138858556747436523e-01) (55, 3.72305214405059814453e-01) (56, 2.14991588592529296875e+01) (57, 9.86806452274322509766e-02) (58, 2.49340236186981201172e-01) (59, 6.21582925319671630859e-01) (60, 3.12209725379943847656e-01) (61, 9.66148078441619873047e-01) (62, 1.46911454200744628906e+00) (63, 8.60707536339759826660e-02) (64, 7.69201815128326416016e-01) (65, 2.80598282814025878906e-01) (31, 1.70458585023880004883e-01) (32, 7.56686449050903320312e-01) (33, 3.92055541276931762695e-01) (34, 3.57522368431091308594e-01) (35, 4.42658036947250366211e-01) (36, 3.87636691331863403320e-01) (37, 1.12679235637187957764e-01) (38, 1.66155993938446044922e+00) (39, 4.81982618570327758789e-01) (40, 1.15112280845642089844e+00) (41, 1.09455788135528564453e+00) (42, 3.33964616060256958008e-01) (43, 3.77070367336273193359e-01) (44, 3.85901153087615966797e-01) (45, 1.59143376350402832031e+00) (46, 1.88517555594444274902e-01) (47, 4.25149887800216674805e-01) (48, 7.32768595218658447266e-01) (49, 3.84587860107421875000e+00) (50, 2.34107896685600280762e-01) (51, 6.93947970867156982422e-01) (52, 3.58069747686386108398e-01) (53, 2.26992726325988769531e+00) (54, 2.96032816171646118164e-01) (55, 4.03018087148666381836e-01) (56, 2.13311886787414550781e+00) (57, 3.53735351562500000000e+00) (58, 2.60305553674697875977e-01) (59, 3.59946221113204956055e-01) (60, 3.15079629421234130859e-01) (61, 7.19070732593536376953e-02) (62, -1.75111979246139526367e-01) (63, 8.08017826080322265625e+00) (64, 1.73976078629493713379e-01) (65, 4.85963523387908935547e-01) (31, 6.77528953552246093750e+00) (32, 1.13234829902648925781e+00) (33, 7.44778454303741455078e-01) (34, 3.24443099088966846466e-04) (35, 4.91171836853027343750e-01) (36, 2.23233774304389953613e-01) (37, 6.97799324989318847656e-01) (38, 2.19731330871582031250e-01) (39, 2.11196660995483398438e+00) (40, 3.19664686918258666992e-01) (41, 3.27465939521789550781e+00) (42, 1.11495109740644693375e-03) (43, 5.51435828208923339844e-01) (44, 3.71033817529678344727e-01) (45, 2.19290232658386230469e+00) (46, 6.96115076541900634766e-01) (47, 1.79600358009338378906e-01) (48, 1.23437128961086273193e-01) (49, 1.54696360230445861816e-01) (50, 6.61443412303924560547e-01) (51, 2.47144293785095214844e+00) (52, 4.54320281744003295898e-01) (53, 1.25944748520851135254e-01) (54, 1.50620609521865844727e-01) (55, 4.07344520092010498047e-01) (56, 5.66560029983520507812e+00) (57, -3.48723083734512329102e-01) (58, 7.33719408512115478516e-01) (59, 4.91601943969726562500e-01) (60, 3.77491116523742675781e-02) (61, 9.34088051319122314453e-01) (62, -8.04809856414794921875e+00) (63, -1.05280496180057525635e-01) (64, 5.11751830577850341797e-01) (65, 4.92328912019729614258e-01) (31, 1.94750890135765075684e-01) (32, 1.45436540246009826660e-01) (33, 1.67065060138702392578e+00) (34, 2.84107506275177001953e-01) (35, 4.03401851654052734375e-01) (36, 1.31272837519645690918e-01) (37, 8.36057901382446289062e-01) (38, 5.68958103656768798828e-01) (39, 6.05869948863983154297e-01) (40, -2.05143108963966369629e-01) (41, -5.69846272468566894531e-01) (42, 2.59692341089248657227e-01) (43, -2.28068642318248748779e-02) (44, 4.65354830026626586914e-01) (45, -1.32116818428039550781e+00) (46, 9.81006085872650146484e-01) (47, -2.61325210332870483398e-01) (48, 5.28935730457305908203e-01) (49, 3.52906554937362670898e-01) (50, 9.24642443656921386719e-01) (51, 8.55778515338897705078e-01) (52, 3.48988354206085205078e-01) (53, 4.36211526393890380859e-01) (54, 1.58210039138793945312e-01) (55, -1.27223774790763854980e-01) (56, 6.15204691886901855469e-01) (57, -1.33444696664810180664e-01) (58, 8.81358385086059570312e-01) (59, 7.74203777313232421875e-01) (60, 1.52277216315269470215e-01) (61, 9.08503234386444091797e-01) (62, 4.25103306770324707031e-01) (63, -9.79895591735839843750e-02) (64, 1.90741255879402160645e-01) (65, 3.88661742210388183594e-01) (31, -4.87174361944198608398e-01) (32, -1.54192721843719482422e+00) (33, 8.06284606456756591797e-01) (34, 2.80646204948425292969e-01) (35, 3.40703457593917846680e-01) (36, 2.53716379404067993164e-01) (37, 6.64427876472473144531e-01) (38, -3.54066938161849975586e-01) (39, 2.19863608479499816895e-01) (40, -1.84790924191474914551e-01) (41, -2.44432950019836425781e+00) (42, 2.31401056051254272461e-01) (43, 2.51467525959014892578e-01) (44, 3.56577724218368530273e-01) (45, -6.16520866751670837402e-02) (46, 9.48533713817596435547e-01) (47, -1.13974772393703460693e-01) (48, 7.65522897243499755859e-01) (49, -1.98993179947137832642e-02) (50, 5.80721557140350341797e-01) (51, -3.63933145999908447266e-01) (52, 2.77416050434112548828e-01) (53, -1.09624534845352172852e-01) (54, 2.25067332386970520020e-01) (55, 2.98014283180236816406e-01) (56, -5.25051176548004150391e-01) (57, -1.64960697293281555176e-01) (58, 7.17837691307067871094e-01) (59, 3.97655367851257324219e-01) (60, 2.52738952636718750000e-01) (61, 7.52374947071075439453e-01) (62, 6.83621835708618164062e+00) (63, -8.98543447256088256836e-02) (64, 8.53059411048889160156e-01) (65, 3.63612443208694458008e-01) (31, 4.80898082256317138672e-01) (32, -5.57078495621681213379e-02) (33, 1.48822799324989318848e-01) (34, 9.55430194735527038574e-02) (35, 5.99912941455841064453e-01) (36, 1.00474357604980468750e-01) (37, 8.03445398807525634766e-01) (38, 8.59450399875640869141e-02) (39, 1.09678342938423156738e-01) (40, -8.94392952322959899902e-02) (41, -2.59236376732587814331e-02) (42, 7.11072534322738647461e-02) (43, 4.61495906114578247070e-01) (44, 4.63724076747894287109e-01) (45, -1.37263387441635131836e-01) (46, 7.22033381462097167969e-01) (47, -6.91755786538124084473e-02) (48, 5.06546676158905029297e-01) (49, 1.55853256583213806152e-02) (50, 6.94721400737762451172e-01) (51, 1.20515894889831542969e+00) (52, 5.45632362365722656250e-01) (53, -7.27658197283744812012e-02) (54, 3.57897207140922546387e-02) (55, 6.52081847190856933594e-01) (56, -6.95524215698242187500e-02) (57, -2.68873155117034912109e-01) (58, 4.81873154640197753906e-01) (59, 6.73392295837402343750e-01) (60, 1.94649800658226013184e-01) (61, 6.90095782279968261719e-01) (62, 2.18178536742925643921e-02) (63, 3.90781788155436515808e-03) (64, 5.86846470832824707031e-01) (65, 5.28823375701904296875e-01) (31, 2.65738272666931152344e+00) (32, 7.30587482452392578125e-01) (33, 1.51889324188232421875e+00) (34, 1.67194932699203491211e-01) (35, 6.44093453884124755859e-01) (36, 7.86311745643615722656e-01) (37, 8.08597445487976074219e-01) (38, -1.57647347450256347656e+00) (39, -7.94388353824615478516e-02) (40, -3.24938535690307617188e-01) (41, -9.91512179374694824219e-01) (42, -3.34616601467132568359e-02) (43, 4.44306343793869018555e-01) (44, 5.14604628086090087891e-01) (45, -3.15163159370422363281e+00) (46, 6.45172536373138427734e-01) (47, 1.16049936041235923767e-02) (48, -9.83512938022613525391e-01) (49, -7.23054856061935424805e-02) (50, 8.06195795536041259766e-01) (51, 9.83931303024291992188e-01) (52, 5.87607324123382568359e-01) (53, -1.78305059671401977539e-01) (54, 6.83357864618301391602e-02) (55, 4.91999417543411254883e-01) (56, 2.41607046127319335938e+00) (57, 2.19830200076103210449e-01) (58, 8.32776010036468505859e-01) (59, 4.80319082736968994141e-01) (60, 1.52586385607719421387e-01) (61, 7.93363809585571289062e-01) (62, 1.34286594390869140625e+00) (63, -2.32022929191589355469e+00) (64, 7.40593433380126953125e-01) (65, 5.81644952297210693359e-01) (31, -1.66106975078582763672e+00) (32, 1.69052815437316894531e+00) (33, 5.24862930178642272949e-02) (34, 5.65410315990447998047e-01) (35, -7.13749751448631286621e-02) (36, 7.01070129871368408203e-01) (37, -1.07361994683742523193e-01) (38, 4.78456646203994750977e-01) (39, 7.11638927459716796875e-01) (40, 5.94371855258941650391e-01) (41, 9.68036234378814697266e-01) (42, 5.95918357372283935547e-01) (43, 2.38434113562107086182e-02) (44, -8.48200917243957519531e-02) (45, 5.84332406520843505859e-01) (46, -1.71994064003229141235e-02) (47, -1.02719157934188842773e-01) (48, 4.97397899627685546875e-01) (49, 5.95586419105529785156e-01) (50, -4.57248762249946594238e-02) (51, -9.86785069108009338379e-02) (52, 4.18358249589800834656e-03) (53, 6.40531659126281738281e-01) (54, 7.45302736759185791016e-01) (55, 6.17105700075626373291e-02) (56, 1.81066125631332397461e-01) (57, 5.85870563983917236328e-01) (58, -1.82773377746343612671e-02) (59, 5.38194254040718078613e-02) (60, 7.17722296714782714844e-01) (61, 2.93724667280912399292e-02) (62, -4.16723400354385375977e-01) (63, 4.93914961814880371094e-01) (64, -1.40540758147835731506e-02) (65, 7.30273276567459106445e-02) (31, 6.23086869716644287109e-01) (32, -5.94565570354461669922e-01) (33, 2.07719147205352783203e-01) (34, 5.30138969421386718750e-01) (35, 5.41637130081653594971e-02) (36, 5.63281297683715820312e-01) (37, 5.05944751203060150146e-02) (38, 5.22329449653625488281e-01) (39, 5.09485185146331787109e-01) (40, 4.73394662141799926758e-01) (41, 4.64609235525131225586e-01) (42, 6.27528727054595947266e-01) (43, 6.92583099007606506348e-02) (44, 8.05523693561553955078e-02) (45, 1.15197193622589111328e+00) (46, 1.66929915547370910645e-01) (47, 5.33078014850616455078e-01) (48, 5.85033416748046875000e-01) (49, 4.45323139429092407227e-01) (50, 1.98952451348304748535e-01) (51, -7.73084521293640136719e-01) (52, 3.87256592512130737305e-02) (53, 5.24370670318603515625e-01) (54, 6.10825896263122558594e-01) (55, 1.22553087770938873291e-01) (56, 6.25652968883514404297e-01) (57, 5.41931092739105224609e-01) (58, 2.64403503388166427612e-02) (59, 1.05318181216716766357e-01) (60, 6.40770971775054931641e-01) (61, 2.12819159030914306641e-01) (62, 6.14685118198394775391e-01) (63, 3.97035866975784301758e-01) (64, 1.64666399359703063965e-01) (65, 1.76041439175605773926e-01) (31, -2.44622468948364257812e+00) (32, 1.01653265953063964844e+00) (33, -1.95492997765541076660e-01) (34, 5.12906312942504882812e-01) (35, 2.20948338508605957031e-01) (36, 9.22454416751861572266e-01) (37, -2.61273264884948730469e-01) (38, 6.71083390712738037109e-01) (39, 3.94239723682403564453e-01) (40, 3.96933019161224365234e-01) (41, 9.51482951641082763672e-01) (42, 4.27688211202621459961e-01) (43, 6.84174478054046630859e-01) (44, 1.03909172117710113525e-01) (45, 6.87409400939941406250e-01) (46, -3.54842305183410644531e-01) (47, 9.88751530647277832031e-01) (48, 2.04826664924621582031e+00) (49, 1.75084972381591796875e+00) (50, -2.15294256806373596191e-01) (51, 1.33425080776214599609e+00) (52, 2.40877807140350341797e-01) (53, 9.90822553634643554688e-01) (54, 5.28377056121826171875e-01) (55, 3.00184726715087890625e-01) (56, 7.09071278572082519531e-01) (57, 1.95115911960601806641e+00) (58, -7.53212943673133850098e-02) (59, 2.24769964814186096191e-01) (60, 5.11410057544708251953e-01) (61, -8.04782435297966003418e-02) (62, -1.26239284873008728027e-01) (63, 1.82872414588928222656e+00) (64, -8.20231065154075622559e-02) (65, 2.13249310851097106934e-01) (31, -3.82503598928451538086e-01) (32, 2.02238097786903381348e-01) (33, 9.50993075966835021973e-02) (34, 7.14859902858734130859e-01) (35, 1.42161664552986621857e-03) (36, 6.81338787078857421875e-01) (37, -6.33372785523533821106e-03) (38, 6.21383190155029296875e-01) (39, 6.52683794498443603516e-01) (40, 3.61565947532653808594e-01) (41, 7.55779564380645751953e-01) (42, 6.76497519016265869141e-01) (43, -8.94700139760971069336e-02) (44, 2.64454931020736694336e-02) (45, 4.93670493364334106445e-01) (46, 1.04206852614879608154e-01) (47, 5.35299956798553466797e-01) (48, 6.53378665447235107422e-01) (49, 2.99952566623687744141e-01) (50, -1.71792116016149520874e-02) (51, 1.06977498531341552734e+00) (52, -1.06945000588893890381e-01) (53, 5.67679047584533691406e-01) (54, 6.22527718544006347656e-01) (55, -1.22877791523933410645e-01) (56, 1.46986973285675048828e+00) (57, 4.59495991468429565430e-01) (58, 1.23190265148878097534e-02) (59, -2.66755193471908569336e-01) (60, 7.53365099430084228516e-01) (61, 1.48683980107307434082e-01) (62, -1.86186206340789794922e+00) (63, 6.31367683410644531250e-01) (64, 2.32326127588748931885e-02) (65, -1.24939143657684326172e-01) (31, -5.38908183574676513672e-01) (32, 4.08201169967651367188e+00) (33, 9.79903101921081542969e-01) (34, 1.40876218676567077637e-01) (35, 7.44575142860412597656e-01) (36, 2.10574969649314880371e-01) (37, 9.63042140007019042969e-01) (38, 6.13266468048095703125e-01) (39, 5.26557955890893936157e-03) (40, 4.77821022272109985352e-01) (41, 1.00588941574096679688e+00) (42, 6.48963674902915954590e-02) (43, 7.74075567722320556641e-01) (44, 8.35967421531677246094e-01) (45, 5.22072017192840576172e-01) (46, 2.33629316091537475586e-01) (47, 7.01274931430816650391e-01) (48, 6.43892884254455566406e-01) (49, 3.12489420175552368164e-01) (50, 6.28042042255401611328e-01) (51, 3.20278525352478027344e+00) (52, 8.16767334938049316406e-01) (53, 5.38641810417175292969e-01) (54, 8.45969617366790771484e-02) (55, 8.21464776992797851562e-01) (56, 1.42325067520141601562e+01) (57, 5.75635194778442382812e-01) (58, 5.95206379890441894531e-01) (59, 7.09694862365722656250e-01) (60, 2.04825520515441894531e-01) (61, 8.76394927501678466797e-01) (62, -2.78257042169570922852e-01) (63, 6.26646101474761962891e-01) (64, 9.32434856891632080078e-01) (65, 7.26301670074462890625e-01) (31, 2.84863829612731933594e+00) (32, 4.88670873641967773438e+00) (33, 4.81812000274658203125e-01) (34, 1.29873585700988769531e+00) (35, -2.99309879541397094727e-01) (36, 1.19192636013031005859e+00) (37, -6.06352463364601135254e-02) (38, 1.87552317976951599121e-01) (39, 9.82531607151031494141e-01) (40, -1.02522008121013641357e-01) (41, -1.73007130622863769531e-01) (42, 1.34506809711456298828e+00) (43, -4.59969699382781982422e-01) (44, -3.42141687870025634766e-01) (45, 5.53253479301929473877e-02) (46, 4.68509405851364135742e-01) (47, 5.35767793655395507812e-01) (48, -2.74000674486160278320e-01) (49, -8.81853848695755004883e-02) (50, 8.06803226470947265625e-01) (51, -6.78083956241607666016e-01) (52, -2.57551550865173339844e-01) (53, 4.84262406826019287109e-02) (54, 1.36218941211700439453e+00) (55, -3.98569077253341674805e-01) (56, -2.49424552917480468750e+00) (57, 2.12659910321235656738e-01) (58, 5.46135485172271728516e-01) (59, -2.10378661751747131348e-01) (60, 1.32424616813659667969e+00) (61, 4.01107370853424072266e-01) (62, -7.75051414966583251953e-01) (63, -1.06117226183414459229e-01) (64, 8.78971636295318603516e-01) (65, -4.20639455318450927734e-01) (31, -6.48596000671386718750e+00) (32, -1.92654564976692199707e-01) (33, 9.16122555732727050781e-01) (34, 9.55764234066009521484e-01) (35, -1.01585544645786285400e-01) (36, 9.92673397064208984375e-01) (37, 1.02436327934265136719e+00) (38, -6.82265996932983398438e-01) (39, 1.08014738559722900391e+00) (40, -6.79236471652984619141e-01) (41, -5.43429195880889892578e-01) (42, 9.93001401424407958984e-01) (43, -1.64311453700065612793e-01) (44, -1.48870706558227539062e-01) (45, -7.45396077632904052734e-01) (46, 9.35363113880157470703e-01) (47, -1.62887588143348693848e-01) (48, -6.56758248805999755859e-01) (49, -6.50896131992340087891e-01) (50, 8.37823331356048583984e-01) (51, -2.12603673338890075684e-01) (52, -1.74716085195541381836e-01) (53, -6.71260833740234375000e-01) (54, 8.89184653759002685547e-01) (55, -2.46017679572105407715e-01) (56, -6.16412818431854248047e-01) (57, -5.60601711273193359375e-01) (58, 1.01161217689514160156e+00) (59, -2.35404074192047119141e-01) (60, 1.31098222732543945312e+00) (61, 8.39785218238830566406e-01) (62, -3.86675924062728881836e-01) (63, -6.63103580474853515625e-01) (64, 1.19976460933685302734e+00) (65, -2.07843288779258728027e-01) (31, 9.30690884590148925781e-01) (32, 2.15877056121826171875e+00) (33, 4.43905621767044067383e-01) (34, -1.99977442622184753418e-01) (35, 6.68064355850219726562e-01) (36, -5.18023595213890075684e-03) (37, 5.22773027420043945312e-01) (38, 1.79180487990379333496e-01) (39, -5.92007711529731750488e-02) (40, 1.36969968676567077637e-01) (41, 3.22571933269500732422e-01) (42, -5.05561009049415588379e-04) (43, 6.76617741584777832031e-01) (44, 7.67020165920257568359e-01) (45, 1.51877865195274353027e-01) (46, 4.17136013507843017578e-01) (47, 2.41810575127601623535e-01) (48, 3.01718026399612426758e-01) (49, 1.39164596796035766602e-01) (50, 5.32413482666015625000e-01) (51, -2.30029858648777008057e-02) (52, 8.80992174148559570312e-01) (53, 1.75655066967010498047e-01) (54, -1.72927945852279663086e-01) (55, 7.14767098426818847656e-01) (56, 3.13581615686416625977e-01) (57, -1.18029952049255371094e+00) (58, 3.67462664842605590820e-01) (59, 8.12780380249023437500e-01) (60, -1.81060925126075744629e-01) (61, 4.62511569261550903320e-01) (62, 8.70434284210205078125e-01) (63, -2.47291997075080871582e-02) (64, 5.41123211383819580078e-01) (65, 9.02900576591491699219e-01) (31, -4.02597218751907348633e-01) (32, 1.21727891266345977783e-01) (33, -5.66736042499542236328e-01) (34, 1.43266528844833374023e-01) (35, 7.14978754520416259766e-01) (36, 7.53688588738441467285e-02) (37, -6.26051962375640869141e-01) (38, 1.48023557662963867188e+00) (39, 5.44470436871051788330e-02) (40, 1.51452982425689697266e+00) (41, 1.99674606323242187500e+00) (42, 1.34404182434082031250e-01) (43, 6.47682428359985351562e-01) (44, 6.40255808830261230469e-01) (45, 1.16916537284851074219e+00) (46, -6.55864357948303222656e-01) (47, 1.59240424633026123047e+00) (48, 5.78393161296844482422e-01) (49, 1.53890299797058105469e+00) (50, -6.51460230350494384766e-01) (51, -7.64393568038940429688e+00) (52, 1.92619240283966064453e+00) (53, 1.54820919036865234375e+00) (54, 1.10663600265979766846e-01) (55, 8.00317645072937011719e-01) (56, 1.43048059940338134766e+00) (57, 1.46431469917297363281e+00) (58, -5.86920559406280517578e-01) (59, 7.21775829792022705078e-01) (60, -7.94747937470674514771e-03) (61, -5.99367201328277587891e-01) (62, 7.45749831199645996094e-01) (63, 1.28357970714569091797e+00) (64, 1.42093479633331298828e-01) (65, 7.24691152572631835938e-01) (31, 6.06534719467163085938e-01) (32, -4.40928602218627929688e+00) (33, -8.17559182643890380859e-01) (34, 5.78227750957012176514e-02) (35, 8.80879819393157958984e-01) (36, 4.44466918706893920898e-02) (37, -7.90819942951202392578e-01) (38, 1.58815968036651611328e+00) (39, -3.94238457083702087402e-02) (40, 1.58313250541687011719e+00) (41, 1.96915793418884277344e+00) (42, -1.71458110213279724121e-01) (43, 6.57615602016448974609e-01) (44, 7.58246898651123046875e-01) (45, 4.40679931640625000000e+00) (46, -7.18472778797149658203e-01) (47, 1.85358607769012451172e+00) (48, -2.80801534652709960938e-01) (49, 1.47480201721191406250e+00) (50, -7.43146538734436035156e-01) (51, -1.10179338455200195312e+01) (52, 9.81542050838470458984e-01) (53, 1.49747323989868164062e+00) (54, -4.02247697114944458008e-01) (55, 6.76447689533233642578e-01) (56, 1.10285615921020507812e+00) (57, 6.18380665779113769531e-01) (58, -7.16155409812927246094e-01) (59, 7.59883522987365722656e-01) (60, -1.81680992245674133301e-02) (61, -8.24023783206939697266e-01) (62, 2.54829883575439453125e+00) (63, 1.03169715404510498047e+00) (64, -7.33112633228302001953e-01) (65, 8.27794790267944335938e-01) (31, -1.48056173324584960938e+00) (32, 7.39427089691162109375e-01) (33, 2.16668862849473953247e-02) (34, 7.71004140377044677734e-01) (35, -8.95374119281768798828e-02) (36, 7.90966808795928955078e-01) (37, 5.23042045533657073975e-02) (38, 4.55143004655838012695e-01) (39, 6.74408555030822753906e-01) (40, 4.55105185508728027344e-01) (41, 5.26261746883392333984e-01) (42, 6.94669663906097412109e-01) (43, -6.05587065219879150391e-02) (44, -3.25321778655052185059e-02) (45, 5.27439296245574951172e-01) (46, -5.55332517251372337341e-04) (47, 4.79272663593292236328e-01) (48, 1.92064911127090454102e-01) (49, 4.37983721494674682617e-01) (50, -9.40046552568674087524e-03) (51, 5.27525059878826141357e-02) (52, -1.05865806341171264648e-01) (53, 5.27069568634033203125e-01) (54, 6.29271328449249267578e-01) (55, -7.32819288969039916992e-02) (56, 4.29067522287368774414e-01) (57, 5.26456117630004882812e-01) (58, 1.29495933651924133301e-01) (59, -1.19791649281978607178e-01) (60, 8.06322574615478515625e-01) (61, 4.96157594025135040283e-02) (62, -1.95806086063385009766e-01) (63, 3.43279093503952026367e-01) (64, 1.47864550352096557617e-01) (65, -9.27938222885131835938e-02) (31, 1.27364599704742431641e+00) (32, 4.78393375873565673828e-01) (33, 4.28713500499725341797e-01) (34, 2.47072443366050720215e-01) (35, 3.95929902791976928711e-01) (36, 2.62129694223403930664e-01) (37, 6.49964392185211181641e-01) (38, 2.91509062051773071289e-01) (39, 3.09174984693527221680e-01) (40, 1.19786746799945831299e-01) (41, 2.74653404951095581055e-01) (42, 9.75384354591369628906e-01) (43, 3.99779975414276123047e-01) (44, 4.41213130950927734375e-01) (45, 3.19471025466918945312e+00) (46, 7.08919644355773925781e-01) (47, 2.89650589227676391602e-01) (48, 1.61675706505775451660e-01) (49, 9.71184000372886657715e-02) (50, 7.77074277400970458984e-01) (51, 7.15642213821411132812e-01) (52, 3.90563696622848510742e-01) (53, 1.57183155417442321777e-01) (54, 2.23022532463073730469e+00) (55, 4.33097749948501586914e-01) (56, 6.39186000823974609375e+00) (57, 1.04916855692863464355e-01) (58, 7.23603546619415283203e-01) (59, 5.93705952167510986328e-01) (60, 3.13825100660324096680e-01) (61, 9.09705400466918945312e-01) (62, 2.21401318907737731934e-01) (63, 8.73253196477890014648e-02) (64, 8.07773590087890625000e-01) (65, 3.94067823886871337891e-01) (31, 1.27656191587448120117e-01) (32, 5.28064250946044921875e-01) (33, 8.87031674385070800781e-01) (34, 3.41861844062805175781e-01) (35, 2.64875173568725585938e-01) (36, 1.56961500644683837891e-01) (37, 1.17989873886108398438e+00) (38, -3.57369154691696166992e-01) (39, 1.47338494658470153809e-01) (40, -4.65166755020618438721e-02) (41, -2.17696689069271087646e-02) (42, 2.47075229883193969727e-01) (43, 3.34716252982616424561e-02) (44, 2.84778982400894165039e-01) (45, 4.93312388658523559570e-01) (46, 9.56694722175598144531e-01) (47, 6.17877304553985595703e-01) (48, -3.36639434099197387695e-01) (49, 1.10625578090548515320e-02) (50, 8.21976900100708007812e-01) (51, 5.15127718448638916016e-01) (52, 3.71773958206176757812e-01) (53, -2.86362111568450927734e-01) (54, 3.85409206151962280273e-01) (55, 3.58399808406829833984e-01) (56, 2.00621366500854492188e+00) (57, -6.74972772598266601562e-01) (58, 6.51286184787750244141e-01) (59, 1.84763506054878234863e-01) (60, 2.00727254152297973633e-01) (61, 2.08872747421264648438e+00) (62, 6.11520910263061523438e+00) (63, -2.13985368609428405762e-01) (64, 8.66133272647857666016e-01) (65, 4.37396436929702758789e-01) (31, -9.32898342609405517578e-01) (32, 1.19730961322784423828e+00) (33, 1.07278656214475631714e-02) (34, 7.25006580352783203125e-01) (35, 1.23112723231315612793e-02) (36, 6.51382803916931152344e-01) (37, 1.42283901572227478027e-01) (38, 4.30143535137176513672e-01) (39, 6.05642259120941162109e-01) (40, 4.17478144168853759766e-01) (41, 6.05376839637756347656e-01) (42, 6.91863417625427246094e-01) (43, 4.79388117790222167969e-01) (44, -1.61618858575820922852e-01) (45, 4.63533550500869750977e-01) (46, -3.86292785406112670898e-02) (47, 3.22590302675962448120e-03) (48, 6.14817202091217041016e-01) (49, 4.95953857898712158203e-01) (50, 1.29777789115905761719e-01) (51, 7.64314115047454833984e-01) (52, -1.65951490402221679688e-01) (53, 4.85032767057418823242e-01) (54, 7.12366998195648193359e-01) (55, -1.01408861577510833740e-01) (56, 2.18392118811607360840e-01) (57, 4.85508501529693603516e-01) (58, 8.98962691426277160645e-02) (59, -8.50392356514930725098e-02) (60, 7.72339522838592529297e-01) (61, -3.68648245930671691895e-02) (62, -2.30342805385589599609e-01) (63, 5.82250237464904785156e-01) (64, 1.04760408401489257812e-01) (65, -1.25875025987625122070e-01) (31, 9.04979705810546875000e-01) (32, 5.25473952293395996094e-01) (33, 2.95809507369995117188e-02) (34, 5.58667182922363281250e-01) (35, 2.59253829717636108398e-01) (36, 5.66367387771606445312e-01) (37, 6.10983967781066894531e-01) (38, 3.31303864717483520508e-01) (39, 6.42199873924255371094e-01) (40, 4.15102005004882812500e-01) (41, 8.52063536643981933594e-01) (42, 4.81030523777008056641e-01) (43, -4.92756487801671028137e-03) (44, 1.84649191796779632568e-02) (45, 2.75419020652770996094e+00) (46, 3.11652421951293945312e-01) (47, 5.81731140613555908203e-01) (48, 4.44820165634155273438e-01) (49, 3.35258394479751586914e-01) (50, 8.05060267448425292969e-02) (51, 4.79711592197418212891e-01) (52, 3.71970571577548980713e-02) (53, 3.41211080551147460938e-01) (54, 4.94546085596084594727e-01) (55, 1.88624128699302673340e-01) (56, 2.41834640502929687500e+00) (57, 4.75006163120269775391e-01) (58, 7.49769732356071472168e-02) (59, 5.70171847939491271973e-02) (60, 6.83082222938537597656e-01) (61, 1.42275989055633544922e-01) (62, 2.41477656364440917969e+00) (63, 2.75969922542572021484e-01) (64, 2.32338875532150268555e-01) (65, 1.36583968997001647949e-01) (31, -1.07042029500007629395e-01) (32, -5.58159500360488891602e-02) (33, 8.41084718704223632812e-01) (34, 2.40583077073097229004e-01) (35, 4.32606488466262817383e-01) (36, 2.59920418262481689453e-01) (37, 7.35639214515686035156e-01) (38, 7.34163150191307067871e-02) (39, 1.99950486421585083008e-01) (40, -4.54442054033279418945e-02) (41, -1.57142326235771179199e-01) (42, 3.69949519634246826172e-01) (43, 4.36454713344573974609e-01) (44, 3.38632583618164062500e-01) (45, -3.66211742162704467773e-01) (46, 9.58235085010528564453e-01) (47, 2.94041424989700317383e-01) (48, 2.11820244789123535156e-01) (49, 6.46722270175814628601e-03) (50, 6.61940157413482666016e-01) (51, -6.57309913635253906250e+00) (52, 3.94694656133651733398e-01) (53, -4.25824597477912902832e-02) (54, 3.32837462425231933594e-01) (55, 4.31889146566390991211e-01) (56, -1.89992994070053100586e-01) (57, -7.80113190412521362305e-02) (58, 6.92014098167419433594e-01) (59, 2.37669661641120910645e-01) (60, 2.03617453575134277344e-01) (61, 6.24228239059448242188e-01) (62, 9.52037239074707031250e+00) (63, 2.68985897302627563477e-01) (64, 1.02162420749664306641e+00) (65, 3.72881591320037841797e-01) (31, 4.25857365131378173828e-01) (32, 7.59383976459503173828e-01) (33, 5.09561240673065185547e-01) (34, 2.36374527215957641602e-01) (35, 5.06166577339172363281e-01) (36, 1.76977440714836120605e-01) (37, 5.07522344589233398438e-01) (38, -7.08504542708396911621e-02) (39, 1.29547044634819030762e-01) (40, 2.59362198412418365479e-02) (41, -7.61323645710945129395e-02) (42, 9.31914523243904113770e-02) (43, 5.10821044445037841797e-01) (44, 6.16597890853881835938e-01) (45, -1.93840399384498596191e-01) (46, 6.32412374019622802734e-01) (47, 4.66928511857986450195e-01) (48, 5.85261821746826171875e-01) (49, -5.86828105151653289795e-02) (50, 4.93564665317535400391e-01) (51, 2.32256025075912475586e-01) (52, 6.00889861583709716797e-01) (53, -1.09664201736450195312e-02) (54, 2.22164705395698547363e-01) (55, 6.22948169708251953125e-01) (56, 4.81951594352722167969e-01) (57, 8.71879979968070983887e-02) (58, 5.40044844150543212891e-01) (59, 5.55164396762847900391e-01) (60, 2.21863418817520141602e-01) (61, 6.58341228961944580078e-01) (62, -1.40766073018312454224e-02) (63, -1.10190100967884063721e-01) (64, 6.76800906658172607422e-01) (65, 5.60506165027618408203e-01) (31, -2.76329469680786132812e+00) (32, -1.14208209514617919922e+00) (33, 7.29578256607055664062e-01) (34, 7.58257389068603515625e-01) (35, -1.07572317123413085938e-01) (36, 6.90095424652099609375e-01) (37, 2.69182007759809494019e-02) (38, 5.50345182418823242188e-01) (39, 8.11662137508392333984e-01) (40, 5.43071508407592773438e-01) (41, 1.02779519557952880859e+00) (42, 1.45832225680351257324e-01) (43, 5.90511798858642578125e-01) (44, 5.04075050354003906250e-01) (45, 6.04816555976867675781e-01) (46, 6.62134289741516113281e-02) (47, -5.66158667206764221191e-02) (48, 9.79487478733062744141e-01) (49, 4.81363207101821899414e-01) (50, -1.08884766697883605957e-01) (51, 1.90633881092071533203e+00) (52, -2.56950166076421737671e-02) (53, 4.57777500152587890625e-01) (54, 6.24839186668395996094e-01) (55, -1.02982632815837860107e-01) (56, 9.09740850329399108887e-02) (57, 5.76393723487854003906e-01) (58, 1.68504834175109863281e-01) (59, -1.02744139730930328369e-01) (60, 7.77935802936553955078e-01) (61, 4.90311235189437866211e-02) (62, 2.10904335975646972656e+00) (63, 7.91230320930480957031e-01) (64, -3.59138250350952148438e-02) (65, -1.12944714725017547607e-01) (31, -1.32751911878585815430e-01) (32, 5.42771995067596435547e-01) (33, 1.57579094171524047852e-01) (34, 6.83287262916564941406e-01) (35, -4.21217456459999084473e-02) (36, 7.67257928848266601562e-01) (37, 1.47055864334106445312e-01) (38, 4.57133293151855468750e-01) (39, 6.91353559494018554688e-01) (40, 4.67535138130187988281e-01) (41, 5.29813528060913085938e-01) (42, 8.42912971973419189453e-01) (43, -5.76811209321022033691e-02) (44, -1.59870475530624389648e-01) (45, 4.06553179025650024414e-01) (46, 1.04375869035720825195e-01) (47, 5.68309068679809570312e-01) (48, -7.20253527164459228516e-01) (49, 5.63695669174194335938e-01) (50, 1.51218608021736145020e-01) (51, 3.34475226700305938721e-02) (52, 1.81246865540742874146e-02) (53, 5.46147286891937255859e-01) (54, 8.55882883071899414062e-01) (55, -1.56650066375732421875e-01) (56, 1.54493764042854309082e-01) (57, 2.10719257593154907227e-01) (58, 1.28885611891746520996e-01) (59, -8.52278769016265869141e-02) (60, 7.10943758487701416016e-01) (61, 1.11464612185955047607e-01) (62, -3.26167345046997070312e-01) (63, 1.74951672554016113281e-01) (64, 1.72050714492797851562e-01) (65, -1.56254753470420837402e-01) (31, 1.21617245674133300781e+00) (32, 2.71645188331604003906e+00) (33, 3.69229078292846679688e-01) (34, -5.19001949578523635864e-03) (35, 8.74708116054534912109e-01) (36, -6.57764077186584472656e-02) (37, 4.04850453138351440430e-01) (38, 8.71421769261360168457e-02) (39, -2.84987062215805053711e-01) (40, 8.25130641460418701172e-02) (41, 1.68723747134208679199e-01) (42, -2.49964464455842971802e-02) (43, 6.66199445724487304688e-01) (44, 7.93397307395935058594e-01) (45, 1.81581482291221618652e-01) (46, 3.70081335306167602539e-01) (47, 6.76114022731781005859e-01) (48, 1.55900627374649047852e-01) (49, 1.60830974578857421875e-01) (50, 4.87740397453308105469e-01) (51, 4.88612502813339233398e-01) (52, 7.86736428737640380859e-01) (53, 1.67174085974693298340e-01) (54, -9.24777537584304809570e-02) (55, 6.25226557254791259766e-01) (56, 1.58851459622383117676e-01) (57, -1.06146335601806640625e+00) (58, 3.94480705261230468750e-01) (59, 7.77341544628143310547e-01) (60, -1.49895623326301574707e-01) (61, 4.13052529096603393555e-01) (62, 2.87378519773483276367e-01) (63, 1.29307731986045837402e-01) (64, 4.08322900533676147461e-01) (65, 8.85605812072753906250e-01) (31, -2.96372957527637481689e-02) (32, 2.15076863765716552734e-01) (33, -6.62035107612609863281e-01) (34, 4.42367017269134521484e-01) (35, 2.19829693436622619629e-01) (36, 5.41068613529205322266e-01) (37, -3.00417572259902954102e-01) (38, -3.28585207462310791016e-01) (39, 8.62797856330871582031e-01) (40, -2.97048807144165039062e-01) (41, -3.13401848077774047852e-01) (42, 5.77769339084625244141e-01) (43, 2.31371149420738220215e-01) (44, 6.93115442991256713867e-02) (45, -9.91568922996520996094e-01) (46, -2.05426663160324096680e-01) (47, 2.87778466939926147461e-01) (48, -2.19431579113006591797e-01) (49, -3.07858794927597045898e-01) (50, -6.50221288204193115234e-01) (51, -8.45992326736450195312e-01) (52, 2.12399944663047790527e-01) (53, -2.83428102731704711914e-01) (54, 5.40484070777893066406e-01) (55, 6.78360015153884887695e-02) (56, -9.35631692409515380859e-01) (57, -9.01094913482666015625e-01) (58, -7.21566617488861083984e-01) (59, 1.85965165495872497559e-01) (60, 7.29519903659820556641e-01) (61, -5.10878562927246093750e-01) (62, 6.42165184020996093750e-01) (63, -2.92629897594451904297e-01) (64, 3.17500323057174682617e-01) (65, 1.09013684093952178955e-01) (31, 2.23285168409347534180e-01) (32, -8.67431089282035827637e-02) (33, 9.30195450782775878906e-01) (34, 1.68071851134300231934e-01) (35, 3.78148943185806274414e-01) (36, 1.58902898430824279785e-01) (37, 7.66250193119049072266e-01) (38, 4.50075045228004455566e-02) (39, 1.39449834823608398438e-01) (40, 1.30211561918258666992e-01) (41, 2.18601137399673461914e-01) (42, 2.57419675588607788086e-01) (43, 4.30634737014770507812e-01) (44, 4.08656835556030273438e-01) (45, -6.77920937538146972656e-01) (46, 8.63282024860382080078e-01) (47, 1.84072509407997131348e-01) (48, 4.78819131851196289062e-01) (49, 1.34204670786857604980e-01) (50, 8.90900552272796630859e-01) (51, 1.13099586963653564453e+00) (52, 4.52080994844436645508e-01) (53, 1.11988717690110206604e-02) (54, 3.06619673967361450195e-01) (55, 3.68960052728652954102e-01) (56, 1.21411785483360290527e-01) (57, -1.95800997316837310791e-02) (58, 9.41474854946136474609e-01) (59, 4.67796504497528076172e-01) (60, 3.24308514595031738281e-01) (61, 9.98632967472076416016e-01) (62, -7.83629179000854492188e-01) (63, 1.27107843756675720215e-01) (64, 6.90844714641571044922e-01) (65, 3.94135624170303344727e-01) (31, 5.80915026366710662842e-02) (32, 8.69286775588989257812e-01) (33, 8.31974029541015625000e-01) (34, 1.50595486164093017578e-01) (35, 2.30472743511199951172e-01) (36, 2.26157873868942260742e-01) (37, 8.11323046684265136719e-01) (38, 1.62495836615562438965e-01) (39, 1.64670288562774658203e-01) (40, 3.11117004603147506714e-02) (41, 1.63610267639160156250e+00) (42, 1.57841831445693969727e-01) (43, 5.15821695327758789062e-01) (44, 4.49406534433364868164e-01) (45, -5.21346616744995117188e+00) (46, 7.05244183540344238281e-01) (47, -4.23502236604690551758e-01) (48, 1.44419622421264648438e+00) (49, 1.55983977019786834717e-02) (50, 6.81315183639526367188e-01) (51, 2.65648901462554931641e-01) (52, 3.83387655019760131836e-01) (53, -4.19078720733523368835e-03) (54, 2.21493855118751525879e-01) (55, 3.26692491769790649414e-01) (56, 2.47112488746643066406e+00) (57, -1.00208431482315063477e-01) (58, 7.22221434116363525391e-01) (59, 3.83699864149093627930e-01) (60, 1.70357048511505126953e-01) (61, 9.92492616176605224609e-01) (62, -8.63109648227691650391e-01) (63, -1.73856943845748901367e-01) (64, 8.01413059234619140625e-01) (65, 4.20989274978637695312e-01) (31, -2.63212591409683227539e-01) (32, 1.27086922526359558105e-01) (33, 2.07135558128356933594e-01) (34, 1.07967495918273925781e+00) (35, 1.85845881700515747070e-01) (36, 1.11012399196624755859e+00) (37, 2.02302932739257812500e-01) (38, 4.04566079378128051758e-01) (39, 7.04661488533020019531e-01) (40, 3.21061581373214721680e-01) (41, 6.06274962425231933594e-01) (42, 8.81710052490234375000e-01) (43, 3.11811149120330810547e-01) (44, 3.67441713809967041016e-01) (45, 4.34394985437393188477e-01) (46, 2.30089038610458374023e-01) (47, 5.83093464374542236328e-01) (48, 2.64831364154815673828e-01) (49, 3.38749378919601440430e-01) (50, 1.61214947700500488281e-01) (51, -1.66431322693824768066e-01) (52, 2.93948739767074584961e-01) (53, 2.68586874008178710938e-01) (54, 8.61734211444854736328e-01) (55, 3.51072728633880615234e-01) (56, 1.51098802685737609863e-01) (57, 3.45416277647018432617e-01) (58, 2.72247850894927978516e-01) (59, 3.70357662439346313477e-01) (60, 1.17930388450622558594e+00) (61, 2.07231968641281127930e-01) (62, 2.75872182101011276245e-04) (63, -2.31731440871953964233e-02) (64, 3.79031479358673095703e-01) (65, 2.05040752887725830078e-01) (31, 8.13062095642089843750e+00) (32, -2.33707356452941894531e+00) (33, 1.02194738388061523438e+00) (34, -4.92810010910034179688e-02) (35, 2.84571599960327148438e+00) (36, 1.37650027871131896973e-01) (37, 3.75028192996978759766e-01) (38, 2.25445568561553955078e-01) (39, -3.92458997666835784912e-02) (40, 3.47558557987213134766e-01) (41, 4.07419294118881225586e-01) (42, -1.20839908719062805176e-01) (43, 1.06884253025054931641e+00) (44, 1.01316690444946289062e+00) (45, -1.97451323270797729492e-01) (46, 3.59333276748657226562e-01) (47, 3.20958822965621948242e-01) (48, -8.29377770423889160156e-01) (49, 9.76536452770233154297e-01) (50, 1.60716131329536437988e-01) (51, -2.16287016868591308594e+00) (52, 1.00810122489929199219e+00) (53, 2.79917776584625244141e-01) (54, 3.96678298711776733398e-02) (55, 1.05205821990966796875e+00) (56, -2.61464446783065795898e-01) (57, -1.03075928986072540283e-01) (58, 3.06471824645996093750e-01) (59, 1.09947586059570312500e+00) (60, -7.76797011494636535645e-02) (61, 3.11481446027755737305e-01) (62, 4.37060087919235229492e-01) (63, 3.63819114863872528076e-03) (64, 2.70999819040298461914e-01) (65, 1.03780615329742431641e+00) (31, 7.49689996242523193359e-01) (32, 4.41857457160949707031e-01) (33, 5.94759166240692138672e-01) (34, -1.42418265342712402344e-01) (35, 6.57263159751892089844e-01) (36, -1.18609800934791564941e-01) (37, 1.64392039179801940918e-01) (38, 1.32434919476509094238e-01) (39, -9.48609486222267150879e-02) (40, -3.54273170232772827148e-02) (41, 3.78966867923736572266e-01) (42, -2.14901715517044067383e-02) (43, 7.13683366775512695312e-01) (44, 7.74724304676055908203e-01) (45, 1.99757456779479980469e-01) (46, 4.77714747190475463867e-01) (47, 4.98276185989379882812e+00) (48, 1.88858020305633544922e+00) (49, 4.72900122404098510742e-02) (50, 5.73832809925079345703e-01) (51, 8.42872500419616699219e-01) (52, 7.64817535877227783203e-01) (53, -1.30321234464645385742e-02) (54, -4.53684777021408081055e-02) (55, 5.02950251102447509766e-01) (56, 1.95648550987243652344e-01) (57, -3.44723200798034667969e+00) (58, 5.80457329750061035156e-01) (59, 7.94115304946899414062e-01) (60, -1.37924864888191223145e-01) (61, 4.34467941522598266602e-01) (62, -3.40486478805541992188e+00) (63, 9.36145707964897155762e-02) (64, 4.15500372648239135742e-01) (65, 7.73014068603515625000e-01) (31, -4.46735906600952148438e+00) (32, 2.31866255402565002441e-01) (33, 9.18272435665130615234e-02) (34, 1.48618328571319580078e+00) (35, 4.13300804793834686279e-02) (36, 1.58216929435729980469e+00) (37, 1.92201003432273864746e-01) (38, 2.48339012265205383301e-01) (39, 1.42151916027069091797e+00) (40, 3.66275429725646972656e-01) (41, 4.35558110475540161133e-01) (42, 1.55073356628417968750e+00) (43, -8.22687894105911254883e-02) (44, 7.70126506686210632324e-02) (45, 3.07076722383499145508e-01) (46, 1.54484827071428298950e-02) (47, 2.75153249502182006836e-01) (48, 4.84120219945907592773e-01) (49, 2.20258027315139770508e-01) (50, 2.42516905069351196289e-01) (51, -9.07965749502182006836e-02) (52, 3.06357704102993011475e-02) (53, 3.24787229299545288086e-01) (54, 1.52390432357788085938e+00) (55, -4.27441969513893127441e-02) (56, -1.86732843518257141113e-01) (57, 3.69762003421783447266e-01) (58, 3.50547283887863159180e-01) (59, -1.30568733438849449158e-02) (60, 1.57830202579498291016e+00) (61, 6.16791583597660064697e-02) (62, 5.03876864910125732422e-01) (63, 2.14940890669822692871e-01) (64, 1.88870668411254882812e-01) (65, -8.01126882433891296387e-02) (31, 1.20335054397583007812e+00) (32, 3.29714679718017578125e+00) (33, 6.75581812858581542969e-01) (34, 4.84839268028736114502e-02) (35, 5.71449279785156250000e-01) (36, 8.02625775337219238281e-01) (37, 7.71415829658508300781e-01) (38, -3.04905772209167480469e-01) (39, -8.17092210054397583008e-02) (40, 2.68188063055276870728e-02) (41, 1.37729033827781677246e-01) (42, 2.65499800443649291992e-01) (43, 6.17423593997955322266e-01) (44, 5.64675271511077880859e-01) (45, -1.14622466266155242920e-01) (46, 4.78136181831359863281e-01) (47, 4.50997501611709594727e-01) (48, -5.14340579509735107422e-01) (49, 7.67045199871063232422e-01) (50, 8.88179183006286621094e-01) (51, 1.50515675544738769531e+00) (52, 4.65618848800659179688e-01) (53, 9.30554866790771484375e-02) (54, 2.41912767291069030762e-01) (55, 5.93760848045349121094e-01) (56, 1.27488982677459716797e+00) (57, 1.92715778946876525879e-01) (58, 6.49591267108917236328e-01) (59, -1.29460349678993225098e-01) (60, -7.20550119876861572266e-02) (61, 7.68656492233276367188e-01) (62, -1.05014705657958984375e+00) (63, 2.42739066481590270996e-01) (64, 5.27450382709503173828e-01) (65, 6.63130879402160644531e-01) (31, -6.50615787506103515625e+00) (32, -6.83890724182128906250e+00) (33, 1.71229645609855651855e-01) (34, -6.75619423389434814453e-01) (35, 1.96149897575378417969e+00) (36, -7.11372196674346923828e-01) (37, 1.68716207146644592285e-01) (38, 5.13518393039703369141e-01) (39, -6.46866142749786376953e-01) (40, 5.04749834537506103516e-01) (41, 6.93022370338439941406e-01) (42, -6.29166364669799804688e-01) (43, 1.59601914882659912109e+00) (44, 1.81508743762969970703e+00) (45, 2.98043578863143920898e-01) (46, 2.11080573499202728271e-02) (47, 5.01875042915344238281e-01) (48, 5.28251588344573974609e-01) (49, 6.16668760776519775391e-01) (50, 3.23415100574493408203e-02) (51, -2.97663021087646484375e+00) (52, 1.90564596652984619141e+00) (53, 6.17923736572265625000e-01) (54, -7.38387823104858398438e-01) (55, 1.93154966831207275391e+00) (56, -2.40286564826965332031e+00) (57, 5.49890339374542236328e-01) (58, 6.12697638571262359619e-02) (59, 1.84577190876007080078e+00) (60, -6.70821607112884521484e-01) (61, 1.22483022511005401611e-01) (62, -6.68590688705444335938e+00) (63, 3.67041379213333129883e-01) (64, 9.28037315607070922852e-02) (65, 2.00083661079406738281e+00) (66, 3.82584214210510253906e+00) (67, 8.47033381462097167969e-01) (68, 5.66415071487426757812e-01) (69, 2.14731901884078979492e-01) (70, -4.16590124368667602539e-01) (71, 1.27638840675354003906e+00) (72, -3.75064723193645477295e-02) (73, 2.38995164632797241211e-01) (74, 1.35987550020217895508e-01) (75, 1.50221452116966247559e-01) (76, -3.63828055560588836670e-02) (77, -2.81015634536743164062e-01) (78, -5.77504396438598632812e-01) (79, 6.73844146728515625000e+00) (80, -2.51598030328750610352e-01) (81, -5.31686022877693176270e-02) (82, 9.97773408889770507812e-02) (83, 1.85705035924911499023e-01) (84, 6.67730391025543212891e-01) (85, 7.47127175331115722656e-01) (86, 8.54577600955963134766e-01) (87, -1.01447425782680511475e-01) (88, 1.80496186017990112305e-01) (89, -1.59499626606702804565e-02) (90, -6.52097016572952270508e-02) (91, 9.16916370391845703125e-01) (92, 9.73827779293060302734e-01) (93, 3.75040078163146972656e+00) (94, 1.87252357602119445801e-01) (95, -4.93307299911975860596e-02) (96, 4.10510092973709106445e-01) (97, 2.07855373620986938477e-01) (98, 5.27796566486358642578e-01) (99, 2.02602267265319824219e+00) (100, 2.52931773662567138672e-01) (101, 6.29841089248657226562e-01) (102, 1.37027812004089355469e+00) (103, 8.59635695815086364746e-02) (104, -2.08380627632141113281e+00) (105, 8.80120694637298583984e-01) (106, 5.14962792396545410156e-01) (66, 5.62312960624694824219e-01) (67, 3.58722746372222900391e-01) (68, 6.87466502189636230469e-01) (69, 3.64353388547897338867e-01) (70, 1.24383664131164550781e+00) (71, 3.73610258102416992188e-01) (72, -1.53507876396179199219e+00) (73, 4.43527251482009887695e-02) (74, 8.90082240104675292969e-01) (75, 2.80874483287334442139e-02) (76, 4.36185337603092193604e-02) (77, 1.36943280696868896484e-01) (78, 1.68580546975135803223e-01) (79, 6.12364351749420166016e-01) (80, 6.52821958065032958984e-01) (81, 1.87916851043701171875e+00) (82, 8.24655219912528991699e-02) (83, 2.26313307881355285645e-01) (84, 6.57891690731048583984e-01) (85, 2.85043627023696899414e-01) (86, 7.86327421665191650391e-01) (87, 2.26450279355049133301e-01) (88, 3.28262895345687866211e-01) (89, 9.92720544338226318359e-01) (90, 6.07529163360595703125e-01) (91, 4.14822041988372802734e-01) (92, -1.67756691575050354004e-01) (93, -4.01468944549560546875e+00) (94, -1.26552760601043701172e+00) (95, 2.87348896265029907227e-01) (96, 5.96949994564056396484e-01) (97, 4.33958435058593750000e+00) (98, 2.39773079752922058105e-01) (99, 1.90912878513336181641e+00) (100, 3.12273651361465454102e-01) (101, 4.62879985570907592773e-01) (102, 6.96523010730743408203e-01) (103, 2.32126593589782714844e-01) (104, -9.78764817118644714355e-02) (105, 3.86971086263656616211e-01) (106, 7.61160731315612792969e-01) (66, -2.86163479089736938477e-01) (67, 7.86413475871086120605e-02) (68, -1.24555267393589019775e-01) (69, 3.14732760190963745117e-01) (70, 5.54419851303100585938e+00) (71, 1.61393082141876220703e+00) (72, -4.24904525279998779297e-01) (73, 8.10189485549926757812e-01) (74, 1.38384133577346801758e-01) (75, 2.71368771791458129883e-01) (76, 1.18287265300750732422e+00) (77, -2.86399483680725097656e-01) (78, -1.27904052734375000000e+01) (79, -2.75594174861907958984e-01) (80, 3.29795181751251220703e-01) (81, -1.82572379708290100098e-01) (82, 9.43779230117797851562e-01) (83, 7.70272672176361083984e-01) (84, -1.68131649494171142578e+00) (85, 1.73108518123626708984e-01) (86, -2.35927700996398925781e+00) (87, 4.35288250446319580078e-01) (88, 9.93633449077606201172e-01) (89, -2.53271937370300292969e+00) (90, 9.44221377372741699219e-01) (91, 6.56276941299438476562e-02) (92, 1.24083924293518066406e+00) (93, 1.09301900863647460938e+00) (94, 1.45294749736785888672e+00) (95, 5.70840656757354736328e-01) (96, -1.16777315735816955566e-01) (97, 1.12400901317596435547e+00) (98, 2.27124142646789550781e+00) (99, 2.03831171989440917969e+00) (100, 5.23537814617156982422e-01) (101, -3.48412185907363891602e-01) (102, -3.41562569141387939453e-01) (103, 6.15890681743621826172e-01) (104, 2.95668039470911026001e-02) (105, 2.35766813158988952637e-01) (106, -1.98526918888092041016e-01) (66, 7.18038916587829589844e-01) (67, 3.66663038730621337891e-01) (68, 5.86778283119201660156e-01) (69, 4.06203716993331909180e-01) (70, 9.47027564048767089844e-01) (71, 3.97170543670654296875e-01) (72, 7.79356360435485839844e-01) (73, 3.22698354721069335938e-02) (74, 9.61874246597290039062e-01) (75, -2.49139890074729919434e-01) (76, 3.67619730532169342041e-02) (77, 4.44340556859970092773e-02) (78, 1.10884509980678558350e-01) (79, 6.85837984085083007812e-01) (80, 2.57795006036758422852e-01) (81, 4.96659845113754272461e-01) (82, -8.61695483326911926270e-02) (83, 2.11840897798538208008e-01) (84, 7.70875632762908935547e-01) (85, 3.06551009416580200195e-01) (86, 1.89801380038261413574e-01) (87, 1.01110622286796569824e-01) (88, 3.06527197360992431641e-01) (89, 9.93286907672882080078e-01) (90, 2.61379510164260864258e-01) (91, 5.71658909320831298828e-01) (92, 9.89547252655029296875e-01) (93, -1.41731142997741699219e+00) (94, 1.20149183273315429688e+00) (95, 1.46563351154327392578e-01) (96, 6.64717555046081542969e-01) (97, 3.24881505966186523438e+00) (98, 3.74475985765457153320e-01) (99, 1.17595911026000976562e+00) (100, 2.74000644683837890625e-01) (101, 4.73453879356384277344e-01) (102, 6.90540671348571777344e-01) (103, 2.55927830934524536133e-01) (104, 1.32110789418220520020e-02) (105, 3.76327395439147949219e-01) (106, 7.06928193569183349609e-01) (66, 8.68498980998992919922e-02) (67, 1.69229879975318908691e-01) (68, 3.27775299549102783203e-01) (69, 5.95793604850769042969e-01) (70, -3.25287878513336181641e-01) (71, 3.00148338079452514648e-01) (72, -1.83368012309074401855e-01) (73, 2.25174689292907714844e+00) (74, 1.58680665493011474609e+00) (75, 2.69706702232360839844e+00) (76, 2.36804455518722534180e-01) (77, 9.31511580944061279297e-01) (78, 1.03429803848266601562e+01) (79, 1.73969730734825134277e-01) (80, 2.91535115242004394531e+00) (81, 5.00625610351562500000e-01) (82, 4.42793726921081542969e-01) (83, 6.18200540542602539062e-01) (84, 2.14972570538520812988e-01) (85, 7.77522772550582885742e-02) (86, 2.52974241971969604492e-01) (87, 7.41577386856079101562e-01) (88, -9.04786065220832824707e-02) (89, -4.11961257457733154297e-01) (90, 7.04887151718139648438e-01) (91, 1.05319470167160034180e-01) (92, 3.42160677909851074219e+00) (93, 4.87764739990234375000e+00) (94, 8.99906063079833984375e+00) (95, 6.79898142814636230469e-01) (96, 1.21063135564327239990e-01) (97, 1.00205814838409423828e+00) (98, 1.26665318012237548828e+00) (99, -1.60075557231903076172e+00) (100, 5.89740335941314697266e-01) (101, 4.79598551988601684570e-01) (102, 4.03945595026016235352e-01) (103, 4.18476104736328125000e-01) (104, 6.57482802867889404297e-01) (105, 2.75902271270751953125e-01) (106, 2.61503189802169799805e-01) (66, 6.34043276309967041016e-01) (67, 2.43920341134071350098e-01) (68, 6.84738159179687500000e-01) (69, 3.91648262739181518555e-01) (70, 4.44377601146697998047e-01) (71, 4.27893012762069702148e-01) (72, 1.19770705699920654297e+00) (73, -2.07248777151107788086e-02) (74, 1.33438229560852050781e+00) (75, 1.86944693326950073242e-01) (76, 2.17394888401031494141e-01) (77, 1.82785496115684509277e-01) (78, 5.40084934234619140625e+00) (79, 7.46127247810363769531e-01) (80, 5.69075405597686767578e-01) (81, 9.47886109352111816406e-01) (82, 5.71019798517227172852e-02) (83, 2.73881435394287109375e-01) (84, 5.92298388481140136719e-01) (85, 3.17891806364059448242e-01) (86, 2.32904300093650817871e-01) (87, 1.25849097967147827148e-01) (88, 3.38969856500625610352e-01) (89, -2.41555973887443542480e-01) (90, 2.03551217913627624512e-01) (91, 3.35701026916503906250e+01) (92, -2.21913528442382812500e+00) (93, 4.99190151691436767578e-01) (94, 4.09489065408706665039e-01) (95, 2.81965702772140502930e-01) (96, 7.80704617500305175781e-01) (97, 4.40426677465438842773e-01) (98, 3.50947409868240356445e-01) (99, -1.86339521408081054688e+00) (100, 3.88347804546356201172e-01) (101, 5.84819167852401733398e-02) (102, 5.38857042789459228516e-01) (103, 2.75251120328903198242e-01) (104, -6.52155652642250061035e-02) (105, 2.47576624155044555664e-01) (106, 7.42682874202728271484e-01) (66, 1.58892005681991577148e-01) (67, -7.74776737671345472336e-04) (68, 2.07932576537132263184e-01) (69, 5.90888023376464843750e-01) (70, -6.72443962097167968750e+00) (71, -4.26738113164901733398e-02) (72, 2.30857983231544494629e-01) (73, 1.47680509090423583984e+00) (74, 6.74885809421539306641e-02) (75, 3.61682438850402832031e+00) (76, 1.30724573135375976562e+00) (77, -2.04943776130676269531e+00) (78, 4.36916780471801757812e+00) (79, -1.69051721692085266113e-01) (80, -1.74387931823730468750e+00) (81, 5.48743963241577148438e+00) (82, 9.00913536548614501953e-01) (83, 6.68907403945922851562e-01) (84, 7.90284648537635803223e-02) (85, -6.48475587368011474609e-02) (86, -1.68931794166564941406e+00) (87, 4.67548042535781860352e-01) (88, 1.71608611941337585449e-01) (89, 1.41585838794708251953e+00) (90, 4.48811262845993041992e-01) (91, 4.01100337505340576172e-01) (92, -5.02600483596324920654e-02) (93, 1.20116748809814453125e+01) (94, 2.97595500946044921875e+00) (95, 8.26157510280609130859e-01) (96, -1.84208169579505920410e-01) (97, 1.89001560211181640625e-01) (98, 8.48891139030456542969e-01) (99, 9.80683386325836181641e-01) (100, 5.50774812698364257812e-01) (101, -3.85952740907669067383e-01) (102, 1.79292663931846618652e-01) (103, 5.56260943412780761719e-01) (104, -9.75657582283020019531e-01) (105, 7.98637717962265014648e-02) (106, -2.91908502578735351562e-01) (66, -6.97224661707878112793e-02) (67, -1.04594463482499122620e-03) (68, 6.43173530697822570801e-02) (69, 8.82120549678802490234e-01) (70, 1.34942698478698730469e+00) (71, 1.52952241897583007812e+00) (72, -8.04501697421073913574e-02) (73, 3.86689424514770507812e-01) (74, 3.80611807107925415039e-01) (75, 2.57810473442077636719e-01) (76, 5.95250844955444335938e-01) (77, 5.39935648441314697266e-01) (78, 