FANN_FLO_2.1
num_layers=3
learning_rate=0.700000
connection_rate=1.000000
network_type=0
learning_momentum=0.000000
training_algorithm=2
train_error_function=1
train_stop_function=0
cascade_output_change_fraction=0.010000
quickprop_decay=-0.000100
quickprop_mu=1.750000
rprop_increase_factor=1.200000
rprop_decrease_factor=0.500000
rprop_delta_min=0.000000
rprop_delta_max=50.000000
rprop_delta_zero=0.100000
cascade_output_stagnation_epochs=12
cascade_candidate_change_fraction=0.010000
cascade_candidate_stagnation_epochs=12
cascade_max_out_epochs=150
cascade_max_cand_epochs=150
cascade_num_candidate_groups=2
bit_fail_limit=3.49999994039535522461e-01
cascade_candidate_limit=1.00000000000000000000e+03
cascade_weight_multiplier=4.00000005960464477539e-01
cascade_activation_functions_count=10
cascade_activation_functions=3 5 7 8 10 11 14 15 16 17 
cascade_activation_steepnesses_count=4
cascade_activation_steepnesses=2.50000000000000000000e-01 5.00000000000000000000e-01 7.50000000000000000000e-01 1.00000000000000000000e+00 
layer_sizes=31 6 55 
scale_included=0
neurons (num_inputs, activation_function, activation_steepness)=(0, 0, 0.00000000000000000000e+00) (0, 0, 0.00000000000000000000e+00) (0, 0, 0.00000000000000000000e+00) (0, 0, 0.00000000000000000000e+00) (0, 0, 0.00000000000000000000e+00) (0, 0, 0.00000000000000000000e+00) (0, 0, 0.00000000000000000000e+00) (0, 0, 0.00000000000000000000e+00) (0, 0, 0.00000000000000000000e+00) (0, 0, 0.00000000000000000000e+00) (0, 0, 0.00000000000000000000e+00) (0, 0, 0.00000000000000000000e+00) (0, 0, 0.00000000000000000000e+00) (0, 0, 0.00000000000000000000e+00) (0, 0, 0.00000000000000000000e+00) (0, 0, 0.00000000000000000000e+00) (0, 0, 0.00000000000000000000e+00) (0, 0, 0.00000000000000000000e+00) (0, 0, 0.00000000000000000000e+00) (0, 0, 0.00000000000000000000e+00) (0, 0, 0.00000000000000000000e+00) (0, 0, 0.00000000000000000000e+00) (0, 0, 0.00000000000000000000e+00) (0, 0, 0.00000000000000000000e+00) (0, 0, 0.00000000000000000000e+00) (0, 0, 0.00000000000000000000e+00) (0, 0, 0.00000000000000000000e+00) (0, 0, 0.00000000000000000000e+00) (0, 0, 0.00000000000000000000e+00) (0, 0, 0.00000000000000000000e+00) (0, 0, 0.00000000000000000000e+00) (31, 4, 5.00000000000000000000e-01) (31, 4, 5.00000000000000000000e-01) (31, 4, 5.00000000000000000000e-01) (31, 4, 5.00000000000000000000e-01) (31, 4, 5.00000000000000000000e-01) (0, 0, 0.00000000000000000000e+00) (6, 4, 2.00000002980232238770e-01) (6, 4, 2.00000002980232238770e-01) (6, 4, 2.00000002980232238770e-01) (6, 4, 2.00000002980232238770e-01) (6, 4, 2.00000002980232238770e-01) (6, 4, 2.00000002980232238770e-01) (6, 4, 2.00000002980232238770e-01) (6, 4, 2.00000002980232238770e-01) (6, 4, 2.00000002980232238770e-01) (6, 4, 2.00000002980232238770e-01) (6, 4, 2.00000002980232238770e-01) (6, 4, 2.00000002980232238770e-01) (6, 4, 2.00000002980232238770e-01) (6, 4, 2.00000002980232238770e-01) (6, 4, 2.00000002980232238770e-01) (6, 4, 2.00000002980232238770e-01) (6, 4, 2.00000002980232238770e-01) (6, 4, 2.00000002980232238770e-01) (6, 4, 2.00000002980232238770e-01) (6, 4, 2.00000002980232238770e-01) (6, 4, 2.00000002980232238770e-01) (6, 4, 2.00000002980232238770e-01) (6, 4, 2.00000002980232238770e-01) (6, 4, 2.00000002980232238770e-01) (6, 4, 2.00000002980232238770e-01) (6, 4, 2.00000002980232238770e-01) (6, 4, 2.00000002980232238770e-01) (6, 4, 2.00000002980232238770e-01) (6, 4, 2.00000002980232238770e-01) (6, 4, 2.00000002980232238770e-01) (6, 4, 2.00000002980232238770e-01) (6, 4, 2.00000002980232238770e-01) (6, 4, 2.00000002980232238770e-01) (6, 4, 2.00000002980232238770e-01) (6, 4, 2.00000002980232238770e-01) (6, 4, 2.00000002980232238770e-01) (6, 4, 2.00000002980232238770e-01) (6, 4, 2.00000002980232238770e-01) (6, 4, 2.00000002980232238770e-01) (6, 4, 2.00000002980232238770e-01) (6, 4, 2.00000002980232238770e-01) (6, 4, 2.00000002980232238770e-01) (6, 4, 2.00000002980232238770e-01) (6, 4, 2.00000002980232238770e-01) (6, 4, 2.00000002980232238770e-01) (6, 4, 2.00000002980232238770e-01) (6, 4, 2.00000002980232238770e-01) (6, 4, 2.00000002980232238770e-01) (6, 4, 2.00000002980232238770e-01) (6, 4, 2.00000002980232238770e-01) (6, 4, 2.00000002980232238770e-01) (6, 4, 2.00000002980232238770e-01) (6, 4, 2.00000002980232238770e-01) (6, 4, 2.00000002980232238770e-01) (0, 0, 2.00000002980232238770e-01) 
connections (connected_to_neuron, weight)=(0, -1.38042545318603515625e+01) (1, -1.59501523971557617188e+01) (2, 1.76154270172119140625e+01) (3, -1.22740678787231445312e+01) (4, 6.69309329986572265625e+00) (5, -1.13605661392211914062e+01) (6, -9.23845577239990234375e+00) (7, -1.24344873428344726562e+00) (8, 2.43177757263183593750e+01) (9, -1.11841430664062500000e+01) (10, -1.47777423858642578125e+01) (11, 6.94883346557617187500e+00) (12, -1.24943792819976806641e+00) (13, -2.77696490287780761719e+00) (14, -2.62544810771942138672e-01) (15, 1.19106066226959228516e+00) (16, 7.67936563491821289062e+00) (17, -4.76054191589355468750e+00) (18, 1.36898863315582275391e+00) (19, -8.95670986175537109375e+00) (20, -1.17645902633666992188e+01) (21, 1.69102585315704345703e+00) (22, -1.30826151371002197266e+00) (23, 6.00039386749267578125e+00) (24, 4.29316377639770507812e+00) (25, 9.00733470916748046875e+00) (26, -1.56511291861534118652e-01) (27, -2.37816047668457031250e+00) (28, 2.12772083282470703125e+00) (29, 5.89960241317749023438e+00) (30, -2.64761686325073242188e+00) (0, 6.59269897460937500000e+02) (1, 2.89458217620849609375e+01) (2, -6.48092346191406250000e+02) (3, -1.48500000000000000000e+03) (4, -1.48919995117187500000e+03) (5, -1.48919995117187500000e+03) (6, 4.23442916870117187500e+01) (7, -5.50353393554687500000e+02) (8, -1.48919995117187500000e+03) (9, 1.29432775878906250000e+03) (10, -2.56405010223388671875e+01) (11, -5.49434265136718750000e+02) (12, -7.39450561523437500000e+02) (13, -1.49999877929687500000e+03) (14, 1.45006701660156250000e+03) (15, -1.09330320358276367188e+01) (16, -1.31910522460937500000e+03) (17, 1.50000000000000000000e+03) (18, 6.76095764160156250000e+02) (19, 4.99515037536621093750e+01) (20, 1.13046289062500000000e+03) (21, 5.24925231933593750000e+02) (22, 1.40140655517578125000e+02) (23, 7.62652526855468750000e+02) (24, -1.84369297027587890625e+01) (25, -2.78615140914916992188e+00) (26, 1.50000000000000000000e+03) (27, 1.68131576538085937500e+02) (28, 1.79184188842773437500e+02) (29, 1.12732528686523437500e+02) (30, -5.91230468750000000000e+02) (0, -5.12218818664550781250e+01) (1, 4.56167840957641601562e+00) (2, 3.21776885986328125000e+01) (3, -5.04628419876098632812e+00) (4, 6.83998227119445800781e-01) (5, -7.34361457824707031250e+00) (6, 1.72224426269531250000e+01) (7, -5.12044310569763183594e-01) (8, -5.15997982025146484375e+00) (9, 4.48486618697643280029e-02) (10, -8.52507495880126953125e+00) (11, -6.32913160324096679688e+00) (12, -2.04039931297302246094e+00) (13, 1.12643361091613769531e+00) (14, 4.80749273300170898438e+00) (15, -1.69078278541564941406e+00) (16, 1.35310239791870117188e+01) (17, 6.87565374374389648438e+00) (18, -3.39276695251464843750e+00) (19, 1.27042603492736816406e+00) (20, -6.05944728851318359375e+00) (21, 2.73394346237182617188e-01) (22, 3.23572254180908203125e+00) (23, -5.39864122867584228516e-01) (24, 4.27907049655914306641e-01) (25, 1.02965078353881835938e+01) (26, -4.30903911590576171875e+00) (27, -2.85232567787170410156e+00) (28, -2.32980751991271972656e+00) (29, 5.89270830154418945312e+00) (30, -7.40910339355468750000e+00) (0, -1.22608385980129241943e-01) (1, 4.72836613655090332031e-01) (2, -3.98096108436584472656e+00) (3, -1.45648918151855468750e+01) (4, 2.02790775299072265625e+01) (5, -8.46947669982910156250e+00) (6, 1.37673997879028320312e+00) (7, -1.72694149017333984375e+01) (8, 1.31739912033081054688e+01) (9, 8.94120097160339355469e-01) (10, -4.56285285949707031250e+00) (11, 3.27118492126464843750e+00) (12, -2.45917272567749023438e+00) (13, -3.20103335380554199219e+00) (14, 5.77085781097412109375e+00) (15, 1.74633967876434326172e+00) (16, 1.22116012573242187500e+01) (17, -4.98484134674072265625e+00) (18, -1.22284650802612304688e+01) (19, -7.10812044143676757812e+00) (20, -2.47533273696899414062e+00) (21, 1.29532661437988281250e+01) (22, -3.59841632843017578125e+00) (23, 2.41751980781555175781e+00) (24, -4.72154331207275390625e+00) (25, 8.20594882965087890625e+00) (26, -4.50267970561981201172e-01) (27, 3.45408177375793457031e+00) (28, -4.69867038726806640625e+00) (29, 2.64088749885559082031e+00) (30, -8.66644263267517089844e-01) (0, -1.28113460540771484375e+01) (1, 1.50197706222534179688e+01) (2, -1.09618606567382812500e+01) (3, -3.88812613487243652344e+00) (4, -3.76001048088073730469e+00) (5, 3.07739377021789550781e+00) (6, 4.21517658233642578125e+00) (7, 6.73068809509277343750e+00) (8, -6.25886201858520507812e+00) (9, 5.81361055374145507812e+00) (10, 6.30556392669677734375e+00) (11, 3.58131909370422363281e+00) (12, -3.73001956939697265625e+00) (13, -4.97370243072509765625e+00) (14, -3.04513549804687500000e+00) (15, 1.74592840671539306641e+00) (16, 3.02527928352355957031e+00) (17, 4.87584352493286132812e+00) (18, -3.73368334770202636719e+00) (19, 1.16321086883544921875e+00) (20, 3.16333818435668945312e+00) (21, 3.45832347869873046875e+00) (22, 6.65558636188507080078e-01) (23, -1.70182132720947265625e+00) (24, -4.88174533843994140625e+00) (25, 6.36073780059814453125e+00) (26, -5.18044424057006835938e+00) (27, -7.51993179321289062500e+00) (28, -4.67054986953735351562e+00) (29, 8.26107215881347656250e+00) (30, 9.68600630760192871094e-01) (31, -8.87646555900573730469e-01) (32, -2.54873771667480468750e+01) (33, -3.52562451362609863281e+00) (34, 2.44684863090515136719e+00) (35, 7.77565860748291015625e+00) (36, 1.52293615341186523438e+01) (31, -7.06134676933288574219e-01) (32, -2.60120143890380859375e+01) (33, -3.74474763870239257812e+00) (34, 3.01062989234924316406e+00) (35, 7.83021068572998046875e+00) (36, 1.52230596542358398438e+01) (31, -1.40497469902038574219e+00) (32, -2.55105819702148437500e+01) (33, -3.83873033523559570312e+00) (34, 4.34440612792968750000e+00) (35, 7.44163036346435546875e+00) (36, 1.44625053405761718750e+01) (31, 2.51540050506591796875e+01) (32, 1.59604740142822265625e+01) (33, -5.19799346923828125000e+01) (34, -1.01051969528198242188e+01) (35, 6.73782577514648437500e+01) (36, -2.38800067901611328125e+01) (31, 2.07702293395996093750e+01) (32, 1.63681030273437500000e+01) (33, -4.82098655700683593750e+01) (34, -4.05759859085083007812e+00) (35, 6.09199371337890625000e+01) (36, -2.48167858123779296875e+01) (31, 1.34221401214599609375e+01) (32, 1.37939968109130859375e+01) (33, -4.19399642944335937500e+01) (34, 8.26559734344482421875e+00) (35, 5.03326110839843750000e+01) (36, -2.50289955139160156250e+01) (31, 5.61364269256591796875e+00) (32, -3.16437187194824218750e+01) (33, -8.64735603332519531250e-01) (34, -8.97325706481933593750e+00) (35, 5.50337505340576171875e+00) (36, 2.64394645690917968750e+01) (31, 3.33594918251037597656e+00) (32, -2.63646736145019531250e+01) (33, 3.17336297035217285156e+00) (34, -5.35972023010253906250e+00) (35, -1.00223457813262939453e+00) (36, 2.13382358551025390625e+01) (31, 1.82200670242309570312e+00) (32, -2.25743484497070312500e+01) (33, 1.60762500762939453125e+00) (34, -3.02154493331909179688e+00) (35, -2.36702013015747070312e+00) (36, 1.86217384338378906250e+01) (31, -4.04767684936523437500e+01) (32, 7.17571926116943359375e+00) (33, 4.60114555358886718750e+01) (34, 5.03889579772949218750e+01) (35, -4.39021072387695312500e+01) (36, -1.62620429992675781250e+01) (31, -3.94489898681640625000e+01) (32, 7.02991485595703125000e+00) (33, 4.47249488830566406250e+01) (34, 5.24022483825683593750e+01) (35, -4.57132377624511718750e+01) (36, -1.69479160308837890625e+01) (31, -4.05211753845214843750e+01) (32, 2.86457419395446777344e+00) (33, 5.03637809753417968750e+01) (34, 6.24158096313476562500e+01) (35, -5.75078659057617187500e+01) (36, -1.67101364135742187500e+01) (31, 2.38003468513488769531e+00) (32, -7.84187889099121093750e+00) (33, -2.40280246734619140625e+00) (34, -1.09388828277587890625e+00) (35, 8.54933738708496093750e+00) (36, 3.44025206565856933594e+00) (31, 8.31637203693389892578e-01) (32, -1.51572446823120117188e+01) (33, -3.02493858337402343750e+00) (34, 6.01387166976928710938e+00) (35, 8.41492366790771484375e+00) (36, 8.09206295013427734375e+00) (31, -7.44319725036621093750e+00) (32, -3.05761098861694335938e+00) (33, 3.47908544540405273438e+00) (34, 1.09359245300292968750e+01) (35, -4.03008317947387695312e+00) (36, -2.65225577354431152344e+00) (31, 1.02179563045501708984e+00) (32, -6.04947242736816406250e+01) (33, -5.01187849044799804688e+00) (34, 1.29771690368652343750e+01) (35, 1.59148349761962890625e+01) (36, 4.65911712646484375000e+01) (31, -5.20974683761596679688e+00) (32, -2.30300483703613281250e+01) (33, 4.39422464370727539062e+00) (34, 1.25948219299316406250e+01) (35, -1.14514374732971191406e+00) (36, 1.47711200714111328125e+01) (31, -1.78301753997802734375e+01) (32, -4.28381586074829101562e+00) (33, 1.09694900512695312500e+01) (34, 2.47084674835205078125e+01) (35, -1.12536001205444335938e+01) (36, -6.26653528213500976562e+00) (31, -1.85710251331329345703e-01) (32, -4.27672433853149414062e+00) (33, -2.59413450956344604492e-01) (34, -1.13086748123168945312e+00) (35, 5.76523256301879882812e+00) (36, 4.78809475898742675781e-01) (31, -4.83477735519409179688e+00) (32, -1.02480630874633789062e+01) (33, 3.14161801338195800781e+00) (34, 1.19043378829956054688e+01) (35, 1.13202929496765136719e+00) (36, 1.90655314922332763672e+00) (31, -5.00057578086853027344e-01) (32, -2.04262409210205078125e+01) (33, -1.44580590724945068359e+00) (34, 1.27949447631835937500e+01) (35, 3.37557840347290039062e+00) (36, 1.07481632232666015625e+01) (31, -5.55910301208496093750e+00) (32, -9.93360996246337890625e+00) (33, 4.03541231155395507812e+00) (34, 1.16860847473144531250e+01) (35, 1.59489893913269042969e+00) (36, 2.58998823165893554688e+00) (31, -7.10701322555541992188e+00) (32, -1.71948242187500000000e+00) (33, -1.76661467552185058594e+00) (34, 1.24388303756713867188e+01) (35, 7.14565229415893554688e+00) (36, -6.18568420410156250000e+00) (31, -1.11067285537719726562e+01) (32, -3.43954238891601562500e+01) (33, -2.06570410728454589844e+00) (34, 2.89974784851074218750e+01) (35, 8.79274559020996093750e+00) (36, 1.74603252410888671875e+01) (31, -4.82353878021240234375e+00) (32, -5.10995864868164062500e+00) (33, 6.05143642425537109375e+00) (34, 5.49094629287719726562e+00) (35, -2.43834495544433593750e+00) (36, 1.19553029537200927734e+00) (31, -4.57852220535278320312e+00) (32, -8.09612464904785156250e+00) (33, 4.77067917585372924805e-01) (34, 1.16142892837524414062e+01) (35, 3.70018315315246582031e+00) (36, 8.68674635887145996094e-01) (31, -1.05308923721313476562e+01) (32, -1.87539424896240234375e+01) (33, 3.50254988670349121094e+00) (34, 2.20389385223388671875e+01) (35, -7.12643802165985107422e-01) (36, 7.76067781448364257812e+00) (31, -6.87351131439208984375e+00) (32, 1.80251369476318359375e+01) (33, 3.33945007324218750000e+01) (34, 7.18054723739624023438e+00) (35, -3.75441017150878906250e+01) (36, -1.58786773681640625000e+01) (31, -9.74378871917724609375e+00) (32, 5.02209711074829101562e+00) (33, 3.20006942749023437500e+01) (34, 1.35421104431152343750e+01) (35, -3.70769844055175781250e+01) (36, -5.38448381423950195312e+00) (31, -1.70317630767822265625e+01) (32, 2.58791923522949218750e+00) (33, 3.59120483398437500000e+01) (34, 2.79287376403808593750e+01) (35, -4.37849578857421875000e+01) (36, -7.63496541976928710938e+00) (31, -9.95498275756835937500e+00) (32, 1.25070357322692871094e+00) (33, -1.33117210865020751953e+00) (34, 1.15033578872680664062e+01) (35, 9.88886165618896484375e+00) (36, -1.02874345779418945312e+01) (31, -1.06631193161010742188e+01) (32, 4.63815748691558837891e-01) (33, -2.33739782124757766724e-02) (34, 1.43620386123657226562e+01) (35, 7.25429439544677734375e+00) (36, -1.04225244522094726562e+01) (31, -1.25953769683837890625e+01) (32, 1.68867364525794982910e-01) (33, 9.68386292457580566406e-01) (34, 2.00892677307128906250e+01) (35, 4.19054651260375976562e+00) (36, -1.19975137710571289062e+01) (31, -2.44082145690917968750e+01) (32, -6.38547935485839843750e+01) (33, 1.06151008605957031250e+01) (34, 4.38388633728027343750e+01) (35, -1.19650208950042724609e+00) (36, 4.47215805053710937500e+01) (31, -1.76052780151367187500e+01) (32, 2.15365219116210937500e+00) (33, 3.75812077522277832031e+00) (34, 2.13574066162109375000e+01) (35, -1.79378008842468261719e+00) (36, -9.25274658203125000000e+00) (31, -2.14093914031982421875e+01) (32, -2.81660962104797363281e+00) (33, 5.66953897476196289062e+00) (34, 3.01628246307373046875e+01) (35, -4.62216329574584960938e+00) (36, -8.29551792144775390625e+00) (31, -2.22046298980712890625e+01) (32, 2.79895234107971191406e+00) (33, 6.37123870849609375000e+00) (34, 2.81315402984619140625e+01) (35, 1.26914203166961669922e+00) (36, -1.24346475601196289062e+01) (31, -1.53907575607299804688e+01) (32, -2.84055328369140625000e+01) (33, 5.04147148132324218750e+00) (34, 2.57873954772949218750e+01) (35, 4.25354719161987304688e-01) (36, 1.81482257843017578125e+01) (31, -2.65482807159423828125e+01) (32, 1.52857100963592529297e+00) (33, 1.59677076339721679688e+01) (34, 3.27677879333496093750e+01) (35, -2.05074558258056640625e+01) (36, -9.22125148773193359375e+00) (31, -2.25495376586914062500e+01) (32, -5.57816276550292968750e+01) (33, -5.63905954360961914062e-01) (34, 4.33416481018066406250e+01) (35, 1.80580978393554687500e+01) (36, 3.36211738586425781250e+01) (31, -1.54349164962768554688e+01) (32, -1.20473346710205078125e+01) (33, 3.77710390090942382812e+00) (34, 2.54135055541992187500e+01) (35, 1.57645785808563232422e+00) (36, 2.12504649162292480469e+00) (31, -2.50728569030761718750e+01) (32, 3.51640176773071289062e+00) (33, 1.06550807952880859375e+01) (34, 3.29587631225585937500e+01) (35, -1.16394653320312500000e+01) (36, -1.34897069931030273438e+01) (31, -4.69445276260375976562e+00) (32, 2.61945319175720214844e+00) (33, -6.96424022316932678223e-02) (34, 2.49285650253295898438e+00) (35, 4.70590305328369140625e+00) (36, -3.79391813278198242188e+00) (31, -1.60138664245605468750e+01) (32, -5.78884267807006835938e+00) (33, 5.35333967208862304688e+00) (34, 2.49933300018310546875e+01) (35, -5.40138483047485351562e-01) (36, -3.74247264862060546875e+00) (31, -1.80071887969970703125e+01) (32, -2.51374511718750000000e+01) (33, 2.13831520080566406250e+00) (34, 3.61488304138183593750e+01) (35, 2.49493312835693359375e+00) (36, 9.52771091461181640625e+00) (31, -2.19571800231933593750e+01) (32, -1.78700208663940429688e+00) (33, 9.00478839874267578125e+00) (34, 2.99187774658203125000e+01) (35, -3.84773516654968261719e+00) (36, -7.16751432418823242188e+00) (31, -2.04839401245117187500e+01) (32, 6.32518672943115234375e+00) (33, 2.70107531547546386719e+00) (34, 2.63752136230468750000e+01) (35, 1.29003977775573730469e+00) (36, -1.44680461883544921875e+01) (31, -2.68289699554443359375e+01) (32, -2.43517246246337890625e+01) (33, 3.46974104642868041992e-01) (34, 4.78878593444824218750e+01) (35, 5.12543725967407226562e+00) (36, 4.75519657135009765625e+00) (31, -2.20669994354248046875e+01) (32, 5.01557111740112304688e+00) (33, 1.19397697448730468750e+01) (34, 2.50379085540771484375e+01) (35, -1.02229375839233398438e+01) (36, -1.03706932067871093750e+01) (31, -2.33446426391601562500e+01) (32, 1.06710827350616455078e+00) (33, 4.75264883041381835938e+00) (34, 3.66365623474121093750e+01) (35, -7.79344379901885986328e-01) (36, -1.30019321441650390625e+01) (31, -2.75198822021484375000e+01) (32, -1.98430099487304687500e+01) (33, 6.46565055847167968750e+00) (34, 4.87222557067871093750e+01) (35, -3.50193953514099121094e+00) (36, 1.63821971416473388672e+00) (31, -4.05500526428222656250e+01) (32, 7.21142673492431640625e+00) (33, 4.60373039245605468750e+01) (34, 5.04982223510742187500e+01) (35, -4.39214096069335937500e+01) (36, -1.63323154449462890625e+01) (31, -3.94957313537597656250e+01) (32, 7.06338548660278320312e+00) (33, 4.47387313842773437500e+01) (34, 5.24511299133300781250e+01) (35, -4.57315216064453125000e+01) (36, -1.69868774414062500000e+01) (31, -4.05466651916503906250e+01) (32, 2.91146278381347656250e+00) (33, 5.03703727722167968750e+01) (34, 6.24500503540039062500e+01) (35, -5.75131797790527343750e+01) (36, -1.67653541564941406250e+01) 
