FANN_FLO_2.1
num_layers=5
learning_rate=0.700000
connection_rate=1.000000
network_type=0
learning_momentum=0.000000
training_algorithm=2
train_error_function=1
train_stop_function=0
cascade_output_change_fraction=0.010000
quickprop_decay=-0.000100
quickprop_mu=1.750000
rprop_increase_factor=1.200000
rprop_decrease_factor=0.500000
rprop_delta_min=0.000000
rprop_delta_max=50.000000
rprop_delta_zero=0.100000
cascade_output_stagnation_epochs=12
cascade_candidate_change_fraction=0.010000
cascade_candidate_stagnation_epochs=12
cascade_max_out_epochs=150
cascade_min_out_epochs=50
cascade_max_cand_epochs=150
cascade_min_cand_epochs=50
cascade_num_candidate_groups=2
bit_fail_limit=3.49999994039535522461e-01
cascade_candidate_limit=1.00000000000000000000e+03
cascade_weight_multiplier=4.00000005960464477539e-01
cascade_activation_functions_count=10
cascade_activation_functions=3 5 7 8 10 11 14 15 16 17 
cascade_activation_steepnesses_count=4
cascade_activation_steepnesses=2.50000000000000000000e-01 5.00000000000000000000e-01 7.50000000000000000000e-01 1.00000000000000000000e+00 
layer_sizes=31 35 41 48 55 
scale_included=0
neurons (num_inputs, activation_function, activation_steepness)=(0, 0, 0.00000000000000000000e+00) (0, 0, 0.00000000000000000000e+00) (0, 0, 0.00000000000000000000e+00) (0, 0, 0.00000000000000000000e+00) (0, 0, 0.00000000000000000000e+00) (0, 0, 0.00000000000000000000e+00) (0, 0, 0.00000000000000000000e+00) (0, 0, 0.00000000000000000000e+00) (0, 0, 0.00000000000000000000e+00) (0, 0, 0.00000000000000000000e+00) (0, 0, 0.00000000000000000000e+00) (0, 0, 0.00000000000000000000e+00) (0, 0, 0.00000000000000000000e+00) (0, 0, 0.00000000000000000000e+00) (0, 0, 0.00000000000000000000e+00) (0, 0, 0.00000000000000000000e+00) (0, 0, 0.00000000000000000000e+00) (0, 0, 0.00000000000000000000e+00) (0, 0, 0.00000000000000000000e+00) (0, 0, 0.00000000000000000000e+00) (0, 0, 0.00000000000000000000e+00) (0, 0, 0.00000000000000000000e+00) (0, 0, 0.00000000000000000000e+00) (0, 0, 0.00000000000000000000e+00) (0, 0, 0.00000000000000000000e+00) (0, 0, 0.00000000000000000000e+00) (0, 0, 0.00000000000000000000e+00) (0, 0, 0.00000000000000000000e+00) (0, 0, 0.00000000000000000000e+00) (0, 0, 0.00000000000000000000e+00) (0, 0, 0.00000000000000000000e+00) (31, 5, 5.00000000000000000000e-01) (31, 5, 5.00000000000000000000e-01) (31, 5, 5.00000000000000000000e-01) (31, 5, 5.00000000000000000000e-01) (31, 5, 5.00000000000000000000e-01) (31, 5, 5.00000000000000000000e-01) (31, 5, 5.00000000000000000000e-01) (31, 5, 5.00000000000000000000e-01) (31, 5, 5.00000000000000000000e-01) (31, 5, 5.00000000000000000000e-01) (31, 5, 5.00000000000000000000e-01) (31, 5, 5.00000000000000000000e-01) (31, 5, 5.00000000000000000000e-01) (31, 5, 5.00000000000000000000e-01) (31, 5, 5.00000000000000000000e-01) (31, 5, 5.00000000000000000000e-01) (31, 5, 5.00000000000000000000e-01) (31, 5, 5.00000000000000000000e-01) (31, 5, 5.00000000000000000000e-01) (31, 5, 5.00000000000000000000e-01) (31, 5, 5.00000000000000000000e-01) (31, 5, 5.00000000000000000000e-01) (31, 5, 5.00000000000000000000e-01) (31, 5, 5.00000000000000000000e-01) (31, 5, 5.00000000000000000000e-01) (31, 5, 5.00000000000000000000e-01) (31, 5, 5.00000000000000000000e-01) (31, 5, 5.00000000000000000000e-01) (31, 5, 5.00000000000000000000e-01) (31, 5, 5.00000000000000000000e-01) (31, 5, 5.00000000000000000000e-01) (31, 5, 5.00000000000000000000e-01) (31, 5, 5.00000000000000000000e-01) (31, 5, 5.00000000000000000000e-01) (0, 5, 0.00000000000000000000e+00) (35, 5, 5.00000000000000000000e-01) (35, 5, 5.00000000000000000000e-01) (35, 5, 5.00000000000000000000e-01) (35, 5, 5.00000000000000000000e-01) (35, 5, 5.00000000000000000000e-01) (35, 5, 5.00000000000000000000e-01) (35, 5, 5.00000000000000000000e-01) (35, 5, 5.00000000000000000000e-01) (35, 5, 5.00000000000000000000e-01) (35, 5, 5.00000000000000000000e-01) (35, 5, 5.00000000000000000000e-01) (35, 5, 5.00000000000000000000e-01) (35, 5, 5.00000000000000000000e-01) (35, 5, 5.00000000000000000000e-01) (35, 5, 5.00000000000000000000e-01) (35, 5, 5.00000000000000000000e-01) (35, 5, 5.00000000000000000000e-01) (35, 5, 5.00000000000000000000e-01) (35, 5, 5.00000000000000000000e-01) (35, 5, 5.00000000000000000000e-01) (35, 5, 5.00000000000000000000e-01) (35, 5, 5.00000000000000000000e-01) (35, 5, 5.00000000000000000000e-01) (35, 5, 5.00000000000000000000e-01) (35, 5, 5.00000000000000000000e-01) (35, 5, 5.00000000000000000000e-01) (35, 5, 5.00000000000000000000e-01) (35, 5, 5.00000000000000000000e-01) (35, 5, 5.00000000000000000000e-01) (35, 5, 5.00000000000000000000e-01) (35, 5, 5.00000000000000000000e-01) (35, 5, 5.00000000000000000000e-01) (35, 5, 5.00000000000000000000e-01) (35, 5, 5.00000000000000000000e-01) (35, 5, 5.00000000000000000000e-01) (35, 5, 5.00000000000000000000e-01) (35, 5, 5.00000000000000000000e-01) (35, 5, 5.00000000000000000000e-01) (35, 5, 5.00000000000000000000e-01) (35, 5, 5.00000000000000000000e-01) (0, 5, 0.00000000000000000000e+00) (41, 5, 5.00000000000000000000e-01) (41, 5, 5.00000000000000000000e-01) (41, 5, 5.00000000000000000000e-01) (41, 5, 5.00000000000000000000e-01) (41, 5, 5.00000000000000000000e-01) (41, 5, 5.00000000000000000000e-01) (41, 5, 5.00000000000000000000e-01) (41, 5, 5.00000000000000000000e-01) (41, 5, 5.00000000000000000000e-01) (41, 5, 5.00000000000000000000e-01) (41, 5, 5.00000000000000000000e-01) (41, 5, 5.00000000000000000000e-01) (41, 5, 5.00000000000000000000e-01) (41, 5, 5.00000000000000000000e-01) (41, 5, 5.00000000000000000000e-01) (41, 5, 5.00000000000000000000e-01) (41, 5, 5.00000000000000000000e-01) (41, 5, 5.00000000000000000000e-01) (41, 5, 5.00000000000000000000e-01) (41, 5, 5.00000000000000000000e-01) (41, 5, 5.00000000000000000000e-01) (41, 5, 5.00000000000000000000e-01) (41, 5, 5.00000000000000000000e-01) (41, 5, 5.00000000000000000000e-01) (41, 5, 5.00000000000000000000e-01) (41, 5, 5.00000000000000000000e-01) (41, 5, 5.00000000000000000000e-01) (41, 5, 5.00000000000000000000e-01) (41, 5, 5.00000000000000000000e-01) (41, 5, 5.00000000000000000000e-01) (41, 5, 5.00000000000000000000e-01) (41, 5, 5.00000000000000000000e-01) (41, 5, 5.00000000000000000000e-01) (41, 5, 5.00000000000000000000e-01) (41, 5, 5.00000000000000000000e-01) (41, 5, 5.00000000000000000000e-01) (41, 5, 5.00000000000000000000e-01) (41, 5, 5.00000000000000000000e-01) (41, 5, 5.00000000000000000000e-01) (41, 5, 5.00000000000000000000e-01) (41, 5, 5.00000000000000000000e-01) (41, 5, 5.00000000000000000000e-01) (41, 5, 5.00000000000000000000e-01) (41, 5, 5.00000000000000000000e-01) (41, 5, 5.00000000000000000000e-01) (41, 5, 5.00000000000000000000e-01) (41, 5, 5.00000000000000000000e-01) (0, 5, 0.00000000000000000000e+00) (48, 5, 2.39999994635581970215e-01) (48, 5, 2.39999994635581970215e-01) (48, 5, 2.39999994635581970215e-01) (48, 5, 2.39999994635581970215e-01) (48, 5, 2.39999994635581970215e-01) (48, 5, 2.39999994635581970215e-01) (48, 5, 2.39999994635581970215e-01) (48, 5, 2.39999994635581970215e-01) (48, 5, 2.39999994635581970215e-01) (48, 5, 2.39999994635581970215e-01) (48, 5, 2.39999994635581970215e-01) (48, 5, 2.39999994635581970215e-01) (48, 5, 2.39999994635581970215e-01) (48, 5, 2.39999994635581970215e-01) (48, 5, 2.39999994635581970215e-01) (48, 5, 2.39999994635581970215e-01) (48, 5, 2.39999994635581970215e-01) (48, 5, 2.39999994635581970215e-01) (48, 5, 2.39999994635581970215e-01) (48, 5, 2.39999994635581970215e-01) (48, 5, 2.39999994635581970215e-01) (48, 5, 2.39999994635581970215e-01) (48, 5, 2.39999994635581970215e-01) (48, 5, 2.39999994635581970215e-01) (48, 5, 2.39999994635581970215e-01) (48, 5, 2.39999994635581970215e-01) (48, 5, 2.39999994635581970215e-01) (48, 5, 2.39999994635581970215e-01) (48, 5, 2.39999994635581970215e-01) (48, 5, 2.39999994635581970215e-01) (48, 5, 2.39999994635581970215e-01) (48, 5, 2.39999994635581970215e-01) (48, 5, 2.39999994635581970215e-01) (48, 5, 2.39999994635581970215e-01) (48, 5, 2.39999994635581970215e-01) (48, 5, 2.39999994635581970215e-01) (48, 5, 2.39999994635581970215e-01) (48, 5, 2.39999994635581970215e-01) (48, 5, 2.39999994635581970215e-01) (48, 5, 2.39999994635581970215e-01) (48, 5, 2.39999994635581970215e-01) (48, 5, 2.39999994635581970215e-01) (48, 5, 2.39999994635581970215e-01) (48, 5, 2.39999994635581970215e-01) (48, 5, 2.39999994635581970215e-01) (48, 5, 2.39999994635581970215e-01) (48, 5, 2.39999994635581970215e-01) (48, 5, 2.39999994635581970215e-01) (48, 5, 2.39999994635581970215e-01) (48, 5, 2.39999994635581970215e-01) (48, 5, 2.39999994635581970215e-01) (48, 5, 2.39999994635581970215e-01) (48, 5, 2.39999994635581970215e-01) (48, 5, 2.39999994635581970215e-01) (0, 5, 2.39999994635581970215e-01) 
connections (connected_to_neuron, weight)=(0, 3.04692476987838745117e-01) (1, 2.31134489178657531738e-01) (2, 1.52227550745010375977e-01) (3, 1.97343662381172180176e-01) (4, 2.86160379648208618164e-01) (5, 1.83576881885528564453e-01) (6, 2.88529664278030395508e-01) (7, 2.25199714303016662598e-01) (8, 2.29323714971542358398e-01) (9, 2.46285840868949890137e-01) (10, 2.25004285573959350586e-01) (11, 3.29540640115737915039e-01) (12, 4.17984277009963989258e-01) (13, 2.00801685452461242676e-01) (14, 1.58145844936370849609e-01) (15, -1.44516122341156005859e+00) (16, 3.10977101325988769531e-01) (17, 3.04712414741516113281e-01) (18, 2.35520243644714355469e-01) (19, -6.24577581882476806641e-01) (20, 1.37533247470855712891e+00) (21, 3.45436811447143554688e-01) (22, 2.99824327230453491211e-01) (23, -9.20156836509704589844e-01) (24, 3.46805393695831298828e-01) (25, 2.54985600709915161133e-01) (26, 1.99222445487976074219e-01) (27, 2.52353131771087646484e-01) (28, 3.71490538120269775391e-01) (29, 1.21905438601970672607e-01) (30, 2.52365261316299438477e-01) (0, 7.34303534030914306641e-01) (1, 7.20775783061981201172e-01) (2, 6.40765726566314697266e-01) (3, 6.07956826686859130859e-01) (4, 5.27890026569366455078e-01) (5, 5.64870476722717285156e-01) (6, 7.97216475009918212891e-01) (7, 8.54008018970489501953e-01) (8, 7.99939632415771484375e-01) (9, 6.26883208751678466797e-01) (10, 7.60457098484039306641e-01) (11, 8.44471454620361328125e-01) (12, 8.71381342411041259766e-01) (13, 8.54183197021484375000e-01) (14, 1.91768333315849304199e-01) (15, 4.36820983886718750000e-01) (16, 5.79844892024993896484e-01) (17, 7.65266180038452148438e-01) (18, -4.76196169853210449219e-01) (19, -1.25302597880363464355e-01) (20, 2.61336874961853027344e+00) (21, -4.85306754708290100098e-02) (22, -1.31217792630195617676e-01) (23, -2.81944322586059570312e+00) (24, -9.66406017541885375977e-02) (25, -8.76921564340591430664e-02) (26, -3.90983894467353820801e-02) (27, -2.69933789968490600586e-01) (28, -1.47945836186408996582e-01) (29, -1.78751409053802490234e-01) (30, -2.57599204778671264648e-01) (0, 2.59259134531021118164e-01) (1, 2.41714671254158020020e-01) (2, 2.16740891337394714355e-01) (3, 1.48022189736366271973e-01) (4, 1.15189850330352783203e-01) (5, 2.31834962964057922363e-01) (6, -3.11372186988592147827e-02) (7, 3.13522666692733764648e-01) (8, 7.98838734626770019531e-01) (9, -2.05443963408470153809e-01) (10, 1.72522455453872680664e-01) (11, 1.52559185028076171875e+00) (12, 1.64711654186248779297e+00) (13, 2.08243548870086669922e-01) (14, 5.51245808601379394531e-01) (15, 4.14531421661376953125e+00) (16, 1.61859357357025146484e+00) (17, 5.28157465159893035889e-02) (18, 2.27710914611816406250e+00) (19, -1.11915016174316406250e+00) (20, 1.70348751544952392578e+00) (21, 1.93583428859710693359e-01) (22, 2.18340292572975158691e-01) (23, 2.29413175582885742188e+00) (24, 7.57669985294342041016e-01) (25, 8.05005371570587158203e-01) (26, 6.06621265411376953125e-01) (27, 1.63592979311943054199e-01) (28, 2.23634973168373107910e-01) (29, 6.71815872192382812500e-01) (30, 2.87506759166717529297e-01) (0, 1.27939358353614807129e-01) (1, 5.66964030265808105469e-01) (2, -8.09461623430252075195e-02) (3, 1.94255903363227844238e-01) (4, 3.69828902184963226318e-02) (5, 4.74488176405429840088e-03) (6, 1.07534714043140411377e-02) (7, 3.19557525217533111572e-02) (8, 5.95897249877452850342e-02) (9, 1.04829482734203338623e-02) (10, -3.14463973045349121094e-02) (11, 1.37714996933937072754e-01) (12, -5.25531172752380371094e-01) (13, 3.45254391431808471680e-01) (14, 2.66490435600280761719e+00) (15, 4.03833240270614624023e-01) (16, 2.92466068267822265625e+00) (17, 7.56569325923919677734e-01) (18, 6.25588893890380859375e-01) (19, 2.83918166160583496094e+00) (20, 4.03145265579223632812e+00) (21, -2.52875685691833496094e-01) (22, -8.34811553359031677246e-02) (23, 1.60716819763183593750e+00) (24, 5.03798246383666992188e-01) (25, 4.58919972181320190430e-01) (26, 1.39562644958496093750e+01) (27, 7.22731292247772216797e-01) (28, 7.53486096858978271484e-01) (29, 1.62852180004119873047e+00) (30, 3.51157784461975097656e-01) (0, -1.27341076731681823730e-01) (1, 9.88837890326976776123e-03) (2, -1.59445792436599731445e-01) (3, -5.31021580100059509277e-02) (4, -5.70739954710006713867e-02) (5, -3.03657054901123046875e-02) (6, -5.94813376665115356445e-02) (7, 8.75073671340942382812e-02) (8, 1.35584339499473571777e-01) (9, -1.62531305104494094849e-02) (10, -7.51845017075538635254e-02) (11, -8.34550485014915466309e-02) (12, -5.93776082992553710938e+00) (13, -4.98757511377334594727e-02) (14, 3.82446385920047760010e-02) (15, 2.13041949272155761719e+00) (16, 8.16064953804016113281e-01) (17, -1.62283822894096374512e-01) (18, 6.07650578022003173828e-01) (19, 1.00606191158294677734e+00) (20, 1.00586342811584472656e+00) (21, 2.38336175680160522461e-01) (22, 3.48715782165527343750e-01) (23, 2.41713476181030273438e+00) (24, 5.25793850421905517578e-01) (25, 4.24118429422378540039e-01) (26, -5.73028087615966796875e+00) (27, 3.52552950382232666016e-01) (28, 4.83291447162628173828e-01) (29, -3.18801939487457275391e-01) (30, 3.71766149997711181641e-01) (0, 7.21520304679870605469e-01) (1, 6.71430408954620361328e-01) (2, 6.88671112060546875000e-01) (3, 6.12590372562408447266e-01) (4, 4.10344988107681274414e-01) (5, 4.95833277702331542969e-01) (6, 7.06125497817993164062e-01) (7, 6.49170994758605957031e-01) (8, 7.04666495323181152344e-01) (9, 4.81079876422882080078e-01) (10, 7.14727401733398437500e-01) (11, 8.61568689346313476562e-01) (12, 9.03952479362487792969e-01) (13, 7.60415136814117431641e-01) (14, 4.20450508594512939453e-01) (15, 6.66389524936676025391e-01) (16, 2.67349779605865478516e-01) (17, 8.78996253013610839844e-01) (18, -1.02292776107788085938e+00) (19, -2.00591057538986206055e-01) (20, 1.21322894096374511719e+00) (21, 1.92110557109117507935e-02) (22, -4.22935634851455688477e-02) (23, -2.06118440628051757812e+00) (24, -1.09949588775634765625e-01) (25, -1.25468924641609191895e-01) (26, -1.46036833524703979492e-01) (27, -6.31632134318351745605e-02) (28, -1.76973387598991394043e-01) (29, -4.52489376068115234375e-01) (30, -1.61623701453208923340e-01) (0, -6.74565285444259643555e-02) (1, 4.13122057914733886719e-01) (2, 2.99863547086715698242e-01) (3, -3.94319832324981689453e-01) (4, 4.36749726533889770508e-01) (5, 6.92095160484313964844e-02) (6, 3.73985469341278076172e-01) (7, 4.42978769540786743164e-01) (8, 5.67585468292236328125e-01) (9, 7.28670835494995117188e-01) (10, -1.41135573387145996094e+00) (11, 2.06360325217247009277e-01) (12, 7.20305263996124267578e-01) (13, 4.48658823966979980469e-01) (14, 5.22334575653076171875e-01) (15, 2.09779047966003417969e+00) (16, 7.01842069625854492188e-01) (17, 6.52923822402954101562e-01) (18, 6.81433618068695068359e-01) (19, 1.86960375308990478516e+00) (20, -6.80846750736236572266e-01) (21, -3.67194116115570068359e-01) (22, -4.29205447435379028320e-02) (23, 7.00717329978942871094e-01) (24, 5.65727949142456054688e-01) (25, -6.46775215864181518555e-02) (26, -2.18119516968727111816e-01) (27, 1.93541005253791809082e-01) (28, 9.81138423085212707520e-02) (29, 2.36207339912652969360e-02) (30, 1.59124340862035751343e-02) (0, 6.92545592784881591797e-01) (1, 6.80598139762878417969e-01) (2, 8.30403387546539306641e-01) (3, 1.29851734638214111328e+00) (4, 4.41454440355300903320e-01) (5, 1.99641931056976318359e+00) (6, 5.59630990028381347656e-01) (7, 5.57747185230255126953e-01) (8, 1.00139248371124267578e+00) (9, 8.33878099918365478516e-01) (10, -1.94752717018127441406e+00) (11, 8.43468725681304931641e-01) (12, 1.14761304855346679688e+00) (13, 3.29486429691314697266e-01) (14, 2.74825263023376464844e+00) (15, 1.27924716472625732422e+00) (16, -1.33235177993774414062e+01) (17, -7.77592301368713378906e-01) (18, -7.11057424545288085938e-01) (19, 1.14262253046035766602e-01) (20, 2.04757928848266601562e+00) (21, -7.11453199386596679688e-01) (22, 1.66902017593383789062e+00) (23, 6.60593688488006591797e-01) (24, -3.07132542133331298828e-01) (25, -2.67054466530680656433e-03) (26, -1.34882879257202148438e+01) (27, -7.77173191308975219727e-02) (28, -6.19269549846649169922e-01) (29, -9.19500350952148437500e-01) (30, -1.03301957249641418457e-01) (0, 6.36275053024291992188e-01) (1, 5.75564861297607421875e-01) (2, 6.32088661193847656250e-01) (3, 7.30411887168884277344e-01) (4, 6.93043351173400878906e-01) (5, 8.41666221618652343750e-01) (6, 4.73113566637039184570e-01) (7, 5.58534026145935058594e-01) (8, 7.61597275733947753906e-01) (9, 3.79677683115005493164e-01) (10, 1.59835383296012878418e-01) (11, 7.55387425422668457031e-01) (12, 4.91408646106719970703e-01) (13, 2.72928327322006225586e-01) (14, 4.87878978252410888672e-01) (15, 1.89763918519020080566e-01) (16, 3.91115427017211914062e-01) (17, 2.58960783481597900391e-01) (18, -1.74688667058944702148e-01) (19, 3.77423465251922607422e-01) (20, 4.20022755861282348633e-01) (21, -1.90964743494987487793e-01) (22, -1.37476921081542968750e-01) (23, 6.73852443695068359375e-01) (24, 8.04058089852333068848e-02) (25, 6.76201432943344116211e-02) (26, 2.56676524877548217773e-01) (27, -1.42034199088811874390e-02) (28, -8.95905047655105590820e-02) (29, -2.88171563297510147095e-02) (30, -1.35947279632091522217e-02) (0, 1.65193542838096618652e-01) (1, 1.89949274063110351562e-01) (2, 1.90681040287017822266e-01) (3, 1.36769786477088928223e-01) (4, 2.76193052530288696289e-01) (5, 2.19383448362350463867e-01) (6, -7.46327936649322509766e-01) (7, 2.05307919532060623169e-02) (8, 5.27631103992462158203e-01) (9, -1.72883033752441406250e+00) (10, -1.27589568495750427246e-01) (11, 2.33542278409004211426e-01) (12, -3.71036469936370849609e-01) (13, 1.06651954352855682373e-01) (14, 4.54921364784240722656e-01) (15, 1.66525673866271972656e+00) (16, 1.62515491247177124023e-01) (17, 5.37895500659942626953e-01) (18, 1.99075186252593994141e+00) (19, -1.31803989410400390625e+00) (20, 6.29010379314422607422e-01) (21, 3.43275099992752075195e-01) (22, 3.06846387684345245361e-02) (23, 9.71153438091278076172e-01) (24, 6.08188450336456298828e-01) (25, 6.35955452919006347656e-01) (26, 5.59500791132450103760e-02) (27, 2.92766660451889038086e-01) (28, 2.08280593156814575195e-01) (29, -1.91963687539100646973e-01) (30, 3.84300231933593750000e-01) (0, 1.58407628536224365234e-01) (1, 1.69267982244491577148e-01) (2, 1.59297496080398559570e-01) (3, 1.06100499629974365234e-01) (4, 2.95233666896820068359e-01) (5, 1.92146956920623779297e-01) (6, -3.51787358522415161133e-01) (7, 1.01797871291637420654e-01) (8, 5.55560886859893798828e-01) (9, -2.15733200311660766602e-01) (10, -5.31477332115173339844e-01) (11, 1.20749735832214355469e+00) (12, -2.52021998167037963867e-01) (13, -1.17983400821685791016e+00) (14, 7.68113255500793457031e-01) (15, 9.57881271839141845703e-01) (16, 9.71590340137481689453e-01) (17, 1.87885057926177978516e+00) (18, -6.18342304229736328125e+00) (19, -5.87816810607910156250e+00) (20, 8.71142446994781494141e-01) (21, 2.57660806179046630859e-01) (22, 3.01434695720672607422e-01) (23, 2.10579529404640197754e-01) (24, 1.28946089744567871094e+00) (25, 3.55307668447494506836e-01) (26, -1.09686791896820068359e+00) (27, 3.21923822164535522461e-01) (28, 1.83189451694488525391e-01) (29, -1.35480001568794250488e-01) (30, 3.53733927011489868164e-01) (0, 4.99805599451065063477e-01) (1, 5.32019436359405517578e-01) (2, 4.12567675113677978516e-01) (3, 6.05292201042175292969e-01) (4, 6.96643948554992675781e-01) (5, 6.11747562885284423828e-01) (6, -9.55461189150810241699e-02) (7, 4.12234634160995483398e-01) (8, 5.39845228195190429688e-01) (9, -2.22799372673034667969e+00) (10, 1.78001284599304199219e-01) (11, 7.04759836196899414062e-01) (12, 4.42799896001815795898e-01) (13, -3.91838014125823974609e-01) (14, 2.35847592353820800781e+00) (15, 1.14522862434387207031e+00) (16, -2.38386583328247070312e+00) (17, -2.03507751226425170898e-01) (18, -2.18313097953796386719e+00) (19, 1.54204082489013671875e+00) (20, 6.07012557983398437500e+00) (21, 1.33473932743072509766e+00) (22, -2.41271257400512695312e-02) (23, 4.75350230932235717773e-01) (24, 1.41774445772171020508e-01) (25, 6.05866797268390655518e-02) (26, -2.29373469948768615723e-01) (27, 1.31846684962511062622e-02) (28, 8.55237916111946105957e-02) (29, 3.12443435192108154297e-01) (30, 1.10636306926608085632e-02) (0, 4.22243058681488037109e-01) (1, -8.16529095172882080078e-01) (2, 4.10595029592514038086e-01) (3, 3.39218646287918090820e-01) (4, 5.35628139972686767578e-01) (5, 1.05693757534027099609e+00) (6, 2.99322307109832763672e-01) (7, 3.53288292884826660156e-01) (8, 4.62897032499313354492e-01) (9, 4.18773949146270751953e-01) (10, 3.03741991519927978516e-01) (11, 4.68586802482604980469e-01) (12, -6.32019519805908203125e-01) (13, 2.64940597116947174072e-02) (14, 5.62559723854064941406e-01) (15, 4.43033725023269653320e-01) (16, 3.57065498828887939453e-01) (17, 2.44780987501144409180e-01) (18, 2.23736310005187988281e+00) (19, 5.86624205112457275391e-01) (20, -7.74411320686340332031e-01) (21, -8.35076689720153808594e-01) (22, 1.94832887500524520874e-02) (23, -4.72740679979324340820e-01) (24, 6.43366947770118713379e-02) (25, -1.22205668594688177109e-03) (26, 4.57913070917129516602e-01) (27, 1.01137429475784301758e-01) (28, 2.00801730155944824219e-01) (29, -2.64738723635673522949e-02) (30, 3.97319756448268890381e-02) (0, 2.50293612480163574219e-01) (1, 2.91799515485763549805e-01) (2, 1.14506185054779052734e-01) (3, 3.43378454446792602539e-01) (4, 2.49082282185554504395e-01) (5, 3.25550734996795654297e-01) (6, 2.81121432781219482422e-01) (7, 3.27049076557159423828e-01) (8, 3.50135087966918945312e-01) (9, 3.95504027605056762695e-01) (10, 5.48383533954620361328e-01) (11, 4.34726178646087646484e-01) (12, 6.74044430255889892578e-01) (13, 6.16021692752838134766e-01) (14, 8.50244984030723571777e-02) (15, 3.25647044181823730469e+00) (16, -5.51307439804077148438e-01) (17, 1.03779494762420654297e+00) (18, 1.66786655783653259277e-01) (19, -4.41813915967941284180e-01) (20, 7.08844482898712158203e-01) (21, 3.47397238016128540039e-01) (22, 2.19213977456092834473e-01) (23, -1.96049988269805908203e-01) (24, 2.03547492623329162598e-01) (25, 2.19715252518653869629e-01) (26, -1.09193436801433563232e-01) (27, 1.58532500267028808594e-01) (28, 2.38446831703186035156e-01) (29, 2.98008859157562255859e-01) (30, 2.49148666858673095703e-01) (0, -2.74462312459945678711e-01) (1, -1.96266070008277893066e-01) (2, -2.38409191370010375977e-01) (3, -1.41320124268531799316e-01) (4, -1.65496528148651123047e+00) (5, -6.91258490085601806641e-01) (6, -1.67141065001487731934e-01) (7, 1.28000795841217041016e+00) (8, -2.83350255340337753296e-02) (9, -1.05005919933319091797e-01) (10, -2.43721619248390197754e-01) (11, -1.70672789216041564941e-01) (12, -1.81035280227661132812e-01) (13, -1.76103666424751281738e-01) (14, -5.75606226921081542969e-01) (15, -3.16090393066406250000e+00) (16, -1.31025075912475585938e+00) (17, -4.32716198265552520752e-02) (18, 9.07804816961288452148e-03) (19, 3.90371680259704589844e-02) (20, -3.70866203308105468750e+00) (21, 3.03221535682678222656e+00) (22, 7.67858922481536865234e-01) (23, -7.69712090492248535156e-01) (24, 6.05197727680206298828e-01) (25, 9.85787630081176757812e-01) (26, 5.56811355054378509521e-02) (27, 6.03365242481231689453e-01) (28, 6.02796077728271484375e-01) (29, -8.80778729915618896484e-01) (30, 7.56409466266632080078e-01) (0, 2.92114168405532836914e-01) (1, 2.91712343692779541016e-01) (2, 1.96072593331336975098e-01) (3, 2.34930172562599182129e-01) (4, 2.29948163032531738281e-01) (5, 2.43667080998420715332e-01) (6, 2.55233198404312133789e-01) (7, 3.11711996793746948242e-01) (8, 1.99935674667358398438e-01) (9, 1.17824062705039978027e-01) (10, 3.36010038852691650391e-01) (11, 1.89905926585197448730e-01) (12, 2.47153073549270629883e-01) (13, 3.14381599426269531250e-01) (14, 1.12471342086791992188e-01) (15, 3.35837572813034057617e-01) (16, -1.20454323291778564453e+00) (17, 2.54393965005874633789e-01) (18, 1.42259821295738220215e-01) (19, -5.93401527404785156250e+00) (20, -4.24045503139495849609e-01) (21, 2.29818791151046752930e-01) (22, 1.69084891676902770996e-01) (23, -1.48959231376647949219e+00) (24, 2.77022808790206909180e-01) (25, 2.69616812467575073242e-01) (26, -1.57881170511245727539e-01) (27, 1.54924690723419189453e-01) (28, 8.69354531168937683105e-02) (29, 1.46252781152725219727e-01) (30, 1.46045133471488952637e-01) (0, -1.79226905107498168945e-01) (1, -2.92935937643051147461e-01) (2, -2.61344641447067260742e-01) (3, -2.58676081895828247070e-01) (4, -2.70877391099929809570e-01) (5, -3.20812880992889404297e-01) (6, -8.83929207921028137207e-02) (7, -1.33576050400733947754e-01) (8, -1.89134597778320312500e-01) (9, -4.15267854928970336914e-01) (10, -2.42546364665031433105e-01) (11, -1.69107854366302490234e-01) (12, 4.23922568559646606445e-01) (13, -1.84412896633148193359e-01) (14, -8.65559577941894531250e-01) (15, -7.85301268100738525391e-01) (16, -4.81358766555786132812e-01) (17, -1.50177985429763793945e-01) (18, -5.33667623996734619141e-01) (19, -5.28060853481292724609e-01) (20, -7.01205492019653320312e-01) (21, 8.69393944740295410156e-01) (22, 5.14186143875122070312e-01) (23, -2.03292870521545410156e+00) (24, 9.49804604053497314453e-01) (25, 8.00542891025543212891e-01) (26, 4.55008536577224731445e-01) (27, 7.15004563331604003906e-01) (28, 7.38771140575408935547e-01) (29, 1.52968436479568481445e-01) (30, 7.94411838054656982422e-01) (0, -1.43959030508995056152e-01) (1, -2.02639490365982055664e-01) (2, -1.60377860069274902344e-01) (3, -3.26175242662429809570e-02) (4, -1.23529164120554924011e-02) (5, -1.07686422765254974365e-01) (6, -7.93129503726959228516e-02) (7, -5.60180731117725372314e-02) (8, -1.58683974295854568481e-02) (9, -9.94444489479064941406e-02) (10, -6.17689900100231170654e-02) (11, -2.22382292151451110840e-01) (12, -2.41700857877731323242e-01) (13, -1.40402063727378845215e-01) (14, -2.18399669975042343140e-02) (15, -5.11226832866668701172e-01) (16, 6.27728581428527832031e-01) (17, -1.28605902194976806641e-01) (18, 1.68244183063507080078e+00) (19, -1.80962896347045898438e+00) (20, -1.03161001205444335938e+00) (21, 5.11088669300079345703e-01) (22, 4.21201199293136596680e-01) (23, -1.49771600961685180664e-01) (24, 7.10686504840850830078e-01) (25, 5.98876714706420898438e-01) (26, 7.16308057308197021484e-01) (27, 3.98258477449417114258e-01) (28, 5.29893696308135986328e-01) (29, 1.32731243968009948730e-01) (30, 5.56137323379516601562e-01) (0, -7.88569748401641845703e-02) (1, -9.93279963731765747070e-02) (2, -1.53421968221664428711e-01) (3, -5.61526678502559661865e-02) (4, -2.43773266673088073730e-01) (5, -7.30002000927925109863e-02) (6, -2.61031776666641235352e-01) (7, -1.77336767315864562988e-01) (8, -1.58925518393516540527e-01) (9, -6.59309089183807373047e-01) (10, -3.20610582828521728516e-01) (11, -1.52269080281257629395e-01) (12, 1.50949776172637939453e+00) (13, -4.13745701313018798828e-01) (14, -2.22130507230758666992e-01) (15, -1.49397349357604980469e+00) (16, 3.07301282882690429688e-02) (17, -1.73045322299003601074e-01) (18, -6.80120849609375000000e+00) (19, 1.90602970123291015625e+00) (20, 3.37530970573425292969e-01) (21, 3.53963583707809448242e-01) (22, 4.63476181030273437500e-01) (23, 1.98422193527221679688e+00) (24, 3.87006610631942749023e-01) (25, 7.47118473052978515625e-01) (26, 3.56007027626037597656e+00) (27, 4.04073238372802734375e-01) (28, 4.58297550678253173828e-01) (29, 2.89272367954254150391e-01) (30, 8.36576640605926513672e-01) (0, -3.97921204566955566406e-02) (1, -1.65336996316909790039e-01) (2, -2.25462675094604492188e-01) (3, 3.54074388742446899414e-02) (4, -1.38869225978851318359e-01) (5, 6.11398927867412567139e-02) (6, -1.51251494884490966797e-01) (7, 2.30982080101966857910e-02) (8, -7.37004680559039115906e-03) (9, 5.68402349948883056641e-01) (10, -1.73896104097366333008e-01) (11, 1.51769106741994619370e-03) (12, -1.31157751083374023438e+01) (13, 1.60437764134258031845e-03) (14, 5.55250644683837890625e-02) (15, 7.98468232154846191406e-01) (16, 8.05268108844757080078e-01) (17, 5.71103356778621673584e-02) (18, -1.44225025177001953125e+00) (19, -4.83797454833984375000e+00) (20, 1.65099191665649414062e+00) (21, 3.95064383745193481445e-01) (22, 3.98421615362167358398e-01) (23, 1.07079105377197265625e+01) (24, 5.68891406059265136719e-01) (25, 3.94689947366714477539e-01) (26, -1.37729912996292114258e-01) (27, 4.78084594011306762695e-01) (28, 3.93057167530059814453e-01) (29, 1.96639016270637512207e-01) (30, 5.26716232299804687500e-01) (0, 2.03241690993309020996e-01) (1, 1.99716404080390930176e-01) (2, 2.26632326841354370117e-01) (3, 3.06558966636657714844e-01) (4, 2.35333457589149475098e-01) (5, 1.42033636569976806641e-01) (6, 2.86219626665115356445e-01) (7, 1.10524617135524749756e-01) (8, 1.74210801720619201660e-01) (9, 1.87483668327331542969e-01) (10, 2.21843108534812927246e-01) (11, 3.32565784454345703125e-01) (12, -9.42988395690917968750e-02) (13, 8.79510045051574707031e-02) (14, 6.08194649219512939453e-01) (15, 8.53276431560516357422e-01) (16, -2.04358601570129394531e+00) (17, 4.79409813880920410156e-01) (18, 2.11394101381301879883e-01) (19, -2.26005718111991882324e-01) (20, 5.33077359199523925781e-01) (21, 2.79538817703723907471e-02) (22, 3.34871351718902587891e-01) (23, 4.15520519018173217773e-01) (24, 3.27716141939163208008e-01) (25, 1.86814546585083007812e-01) (26, 1.98888242244720458984e-01) (27, 3.35309416055679321289e-01) (28, 3.38362723588943481445e-01) (29, 3.15831482410430908203e-01) (30, 2.60735481977462768555e-01) (0, 8.91200423240661621094e-01) (1, 9.29196953773498535156e-01) (2, 9.61779594421386718750e-01) (3, 8.17442774772644042969e-01) (4, 9.01955306529998779297e-01) (5, 9.63651835918426513672e-01) (6, 8.09498012065887451172e-01) (7, 9.06065464019775390625e-01) (8, 1.29978716373443603516e+00) (9, 6.50138735771179199219e-01) (10, 9.64601993560791015625e-01) (11, 1.57421541213989257812e+00) (12, 9.98149394989013671875e-01) (13, 9.00689840316772460938e-01) (14, 1.07184267044067382812e+00) (15, 4.13601207733154296875e+00) (16, 1.68647933006286621094e+00) (17, 1.26827991008758544922e+00) (18, -7.76458680629730224609e-02) (19, 5.72254538536071777344e-01) (20, 7.20830142498016357422e-01) (21, -4.21471059322357177734e-01) (22, -3.58371824026107788086e-01) (23, -3.08788686990737915039e-01) (24, -1.82266294956207275391e-01) (25, -3.13229262828826904297e-01) (26, -5.49484670162200927734e-01) (27, -3.34866881370544433594e-01) (28, -4.16119992733001708984e-01) (29, -4.77328151464462280273e-01) (30, -4.03854429721832275391e-01) (0, 4.16554331779479980469e-01) (1, 6.79333746433258056641e-01) (2, 4.09861356019973754883e-01) (3, 1.04758284986019134521e-01) (4, 2.76431590318679809570e-01) (5, 1.94247618317604064941e-01) (6, 1.94680169224739074707e-01) (7, 1.58563449978828430176e-01) (8, 1.53879001736640930176e-01) (9, 2.73778259754180908203e-01) (10, 2.05431163311004638672e-01) (11, 2.88642644882202148438e-01) (12, -4.41243834793567657471e-02) (13, 2.41202622652053833008e-01) (14, 4.23659533262252807617e-01) (15, 1.21783518791198730469e+00) (16, -1.85142946243286132812e+00) (17, -8.28111231327056884766e-01) (18, 3.32423985004425048828e-01) (19, -1.36872601509094238281e+00) (20, 6.77035689353942871094e-01) (21, 2.72072367370128631592e-02) (22, 2.30927705764770507812e-01) (23, 4.45229560136795043945e-01) (24, 4.10087525844573974609e-01) (25, 3.87913525104522705078e-01) (26, 8.25027823448181152344e-01) (27, 2.63365000486373901367e-01) (28, 3.51253002882003784180e-01) (29, 2.91573315858840942383e-01) (30, 3.48979592323303222656e-01) (0, 7.18489050865173339844e-01) (1, 5.52947759628295898438e-01) (2, 4.29783880710601806641e-01) (3, 8.60745310783386230469e-01) (4, 1.20818471908569335938e+00) (5, 9.85690414905548095703e-01) (6, 3.25963944196701049805e-01) (7, 5.29273569583892822266e-01) (8, 5.90538501739501953125e-01) (9, 9.21714186668395996094e-01) (10, 3.45920950174331665039e-01) (11, 5.96261918544769287109e-01) (12, 1.37925195693969726562e+00) (13, 6.23863041400909423828e-01) (14, 1.56136775016784667969e+00) (15, 2.23492164611816406250e+01) (16, 2.07691001892089843750e+00) (17, 6.08972251415252685547e-01) (18, -2.06518486142158508301e-01) (19, -2.31943187713623046875e+01) (20, 1.35892677307128906250e+00) (21, -2.00484776496887207031e+00) (22, -1.50628685951232910156e+00) (23, 1.13739073276519775391e+00) (24, -3.56312394142150878906e-02) (25, -7.30009675025939941406e-02) (26, -2.48839225769042968750e+01) (27, 2.56384685635566711426e-02) (28, 5.43462410569190979004e-02) (29, 3.32253009080886840820e-01) (30, -2.57477480918169021606e-02) (0, 3.14068615436553955078e-01) (1, 3.20045977830886840820e-01) (2, 2.57038414478302001953e-01) (3, 2.33231231570243835449e-01) (4, 3.05561184883117675781e-01) (5, 4.50900733470916748047e-01) (6, 2.58738905191421508789e-01) (7, 3.25055420398712158203e-01) (8, 4.22183394432067871094e-01) (9, 2.70578205585479736328e-01) (10, 4.62554335594177246094e-01) (11, 4.83515530824661254883e-01) (12, 3.34649264812469482422e-01) (13, 7.12643325328826904297e-01) (14, 2.08038926124572753906e-01) (15, 1.18306553363800048828e+00) (16, -1.40162813663482666016e+00) (17, 4.02742654085159301758e-01) (18, 3.67063343524932861328e-01) (19, 1.39228844642639160156e+00) (20, 7.59908246994018554688e+00) (21, 2.44289889931678771973e-01) (22, 1.39228522777557373047e-01) (23, 7.08067119121551513672e-01) (24, 6.24607503414154052734e-02) (25, 2.64250278472900390625e-01) (26, 1.67749643325805664062e-01) (27, 3.11551868915557861328e-01) (28, 1.44082874059677124023e-01) (29, 1.94600597023963928223e-01) (30, 3.18507224321365356445e-01) (0, 4.58665609359741210938e-01) (1, 4.04786765575408935547e-01) (2, 3.92789810895919799805e-01) (3, 6.67091846466064453125e-01) (4, 5.35899341106414794922e-01) (5, 3.63089472055435180664e-01) (6, -6.57922208309173583984e-01) (7, 3.64805072546005249023e-01) (8, 5.43272554874420166016e-01) (9, 1.35988628864288330078e+00) (10, 3.37058037519454956055e-01) (11, 5.35383462905883789062e-01) (12, -1.48982868194580078125e+01) (13, -2.24967145919799804688e+00) (14, -1.56653988361358642578e+00) (15, -6.30232286453247070312e+00) (16, -1.53060464859008789062e+01) (17, 4.34716415405273437500e+00) (18, 1.50501680374145507812e+00) (19, 4.09112125635147094727e-01) (20, -5.71259796619415283203e-01) (21, -7.45512664318084716797e-01) (22, -3.93306761980056762695e-02) (23, 1.72620281577110290527e-01) (24, -5.62672577798366546631e-02) (25, -3.86823527514934539795e-02) (26, -7.04044699668884277344e-01) (27, 1.29068508744239807129e-01) (28, 2.28725552558898925781e-01) (29, 1.00114434957504272461e-01) (30, 1.23287573456764221191e-01) (0, 2.83133268356323242188e-01) (1, 3.17560732364654541016e-01) (2, 1.19996346533298492432e-01) (3, 2.43973419070243835449e-01) (4, 2.98609286546707153320e-01) (5, 2.41352930665016174316e-01) (6, 2.29922384023666381836e-01) (7, 3.47471028566360473633e-01) (8, 3.36855649948120117188e-01) (9, 2.32576698064804077148e-01) (10, 2.52374321222305297852e-01) (11, 3.81825119256973266602e-01) (12, 1.71793222427368164062e-01) (13, 2.71081000566482543945e-01) (14, 9.89311188459396362305e-02) (15, 1.60642981529235839844e+00) (16, -1.39580011367797851562e+00) (17, 2.15295270085334777832e-01) (18, 1.56662642955780029297e-01) (19, 6.65272474288940429688e-01) (20, 8.94786953926086425781e-01) (21, 1.48797705769538879395e-01) (22, 4.23656165599822998047e-01) (23, 1.17718970775604248047e+00) (24, 2.23807513713836669922e-01) (25, 4.37857538461685180664e-01) (26, 1.42100557684898376465e-01) (27, 4.18403714895248413086e-01) (28, 2.30339393019676208496e-01) (29, 4.73536849021911621094e-01) (30, 3.40075105428695678711e-01) (0, 9.07358467578887939453e-01) (1, 8.47048163414001464844e-01) (2, 8.41461002826690673828e-01) (3, 9.45799887180328369141e-01) (4, 9.50182497501373291016e-01) (5, 9.68150138854980468750e-01) (6, 7.77983725070953369141e-01) (7, 7.27454125881195068359e-01) (8, 8.54195415973663330078e-01) (9, 8.22636365890502929688e-01) (10, 7.77353167533874511719e-01) (11, 7.08751678466796875000e-01) (12, 6.86632871627807617188e-01) (13, 8.19720327854156494141e-01) (14, 7.88193702697753906250e-01) (15, 9.56652343273162841797e-01) (16, 8.81695151329040527344e-01) (17, 5.30158698558807373047e-01) (18, -1.45271690562367439270e-02) (19, 1.41659602522850036621e-01) (20, 6.47808194160461425781e-01) (21, -4.01466816663742065430e-01) (22, -3.75516265630722045898e-02) (23, 2.97128289937973022461e-01) (24, -1.99021294713020324707e-01) (25, -1.03218816220760345459e-01) (26, -6.39715528488159179688e+00) (27, -2.39160731434822082520e-01) (28, -8.37447866797447204590e-02) (29, -1.27265989780426025391e-01) (30, -8.83357822895050048828e-02) (0, 9.05037149786949157715e-02) (1, 3.87137383222579956055e-02) (2, 5.79459518194198608398e-02) (3, 2.44041517376899719238e-01) (4, 1.93744599819183349609e-01) (5, 1.91400200128555297852e-01) (6, 8.25155526399612426758e-02) (7, 6.89421594142913818359e-02) (8, 2.11582466959953308105e-01) (9, -5.70395708084106445312e-01) (10, 1.83316529728472232819e-03) (11, 1.09109945595264434814e-01) (12, 1.81448435783386230469e+00) (13, 1.23200185596942901611e-01) (14, 3.50116729736328125000e-01) (15, 2.67179346084594726562e+00) (16, -5.68416357040405273438e+00) (17, 6.85074329376220703125e-02) (18, 6.07066214084625244141e-01) (19, -1.52650890350341796875e+01) (20, -5.34965991973876953125e+00) (21, -2.10259497165679931641e-01) (22, -2.73019284009933471680e-01) (23, -2.43751907348632812500e+00) (24, 4.86786961555480957031e-01) (25, 2.14914754033088684082e-01) (26, -1.31155312061309814453e+00) (27, 1.91257730126380920410e-01) (28, 3.04077208042144775391e-01) (29, 3.47583591938018798828e-01) (30, 4.50915783643722534180e-01) (0, 3.48778292536735534668e-02) (1, 6.08433187007904052734e-01) (2, 7.14230656623840332031e-01) (3, -2.29381725192070007324e-01) (4, 8.80896374583244323730e-02) (5, 3.55810165405273437500e-01) (6, -2.18064218759536743164e-01) (7, -1.77819460630416870117e-01) (8, 7.32240140438079833984e-01) (9, -4.16987329721450805664e-01) (10, -1.81153997778892517090e-01) (11, 2.02856853604316711426e-01) (12, -4.13443356752395629883e-01) (13, 7.33916833996772766113e-02) (14, -9.66344028711318969727e-02) (15, -1.42338693141937255859e+00) (16, 9.77638900279998779297e-01) (17, -2.45780423283576965332e-01) (18, -3.68842422962188720703e-01) (19, -8.77037346363067626953e-01) (20, 6.69510126113891601562e-01) (21, 3.89110471587628126144e-04) (22, 3.59108418226242065430e-01) (23, 3.94770920276641845703e-01) (24, 6.01824760437011718750e-01) (25, 5.32559037208557128906e-01) (26, -3.80769073963165283203e-01) (27, 4.37640190124511718750e-01) (28, 4.08425211906433105469e-01) (29, 3.43522459268569946289e-01) (30, 5.31907498836517333984e-01) (0, -7.01776742935180664062e-02) (1, 1.45875370502471923828e+00) (2, -4.78050529956817626953e-01) (3, -3.23796480894088745117e-01) (4, -1.72094061970710754395e-01) (5, -9.61009681224822998047e-01) (6, -4.26674813032150268555e-01) (7, -1.91309824585914611816e-01) (8, 9.15200561285018920898e-02) (9, -2.85578191280364990234e-01) (10, -1.07096743583679199219e+00) (11, -4.13869947195053100586e-01) (12, -3.82023334503173828125e-01) (13, -2.79735660552978515625e+00) (14, -1.04541254043579101562e+00) (15, 1.15811906754970550537e-01) (16, -1.13551461696624755859e+00) (17, -5.49331426620483398438e-01) (18, 4.82360413298010826111e-03) (19, -5.99890327453613281250e+00) (20, -9.36891019344329833984e-01) (21, 3.41890871524810791016e-01) (22, 1.15592789649963378906e+00) (23, -4.78265210986137390137e-02) (24, 1.06499779224395751953e+00) (25, 1.19504511356353759766e+00) (26, -7.63097524642944335938e-01) (27, 1.15325307846069335938e+00) (28, 9.24487054347991943359e-01) (29, 4.81738120317459106445e-01) (30, 1.11816442012786865234e+00) (0, -3.98464024066925048828e-01) (1, -3.03019434213638305664e-01) (2, -4.42900449037551879883e-01) (3, -3.00956487655639648438e-01) (4, -1.11245751380920410156e-01) (5, -2.46862113475799560547e-01) (6, -1.42318591475486755371e-01) (7, -1.81909725069999694824e-01) (8, 1.65556907653808593750e-01) (9, -3.23197901248931884766e-01) (10, -2.92044579982757568359e-01) (11, 4.09101068973541259766e-01) (12, -1.15200138092041015625e+00) (13, -7.20090746879577636719e-01) (14, 1.87144696712493896484e-01) (15, -1.04205188751220703125e+01) (16, 6.68073654174804687500e-01) (17, 8.68026316165924072266e-01) (18, 1.77624559402465820312e+00) (19, -3.77428340911865234375e+00) (20, -1.53564081192016601562e+01) (21, 7.63241469860076904297e-01) (22, 7.49371588230133056641e-01) (23, -1.33101291656494140625e+01) (24, 8.81140410900115966797e-01) (25, 9.15282666683197021484e-01) (26, -5.37390291690826416016e-01) (27, 7.65527963638305664062e-01) (28, 6.89573705196380615234e-01) (29, 2.42688357830047607422e-01) (30, 8.07283461093902587891e-01) (0, -1.51514232158660888672e-01) (1, 3.12561571598052978516e-01) (2, 3.06682288646697998047e-01) (3, -5.99586665630340576172e-02) (4, -1.54295116662979125977e-01) (5, -1.41613855957984924316e-01) (6, 3.97796362638473510742e-01) (7, 3.83252620697021484375e-01) (8, -2.77843892574310302734e-01) (9, 9.68980193138122558594e-02) (10, 6.32577389478683471680e-03) (11, -6.60181701183319091797e-01) (12, -4.88628372550010681152e-02) (13, -1.41880273818969726562e-01) (14, 4.27808575332164764404e-02) (15, -6.23025357723236083984e-01) (16, -4.63611245155334472656e-01) (17, -4.82526831328868865967e-02) (18, -1.44766971468925476074e-01) (19, -7.58972585201263427734e-01) (20, -3.12358379364013671875e-01) (21, 5.51883764564990997314e-02) (22, -6.89625069499015808105e-02) (23, -8.89742314815521240234e-01) (24, -2.71583013236522674561e-02) (25, -5.58989010751247406006e-02) (26, -8.93744528293609619141e-02) (27, 1.17217145860195159912e-01) (28, 1.10946871340274810791e-01) (29, 5.09044647216796875000e-01) (30, 9.46972668170928955078e-02) (0, -2.23092222213745117188e+00) (1, -5.29463112354278564453e-01) (2, 3.30157577991485595703e-01) (3, 4.85671669244766235352e-01) (4, 5.85184454917907714844e-01) (5, 9.62474107742309570312e-01) (6, 4.19331401586532592773e-01) (7, 4.12269085645675659180e-01) (8, 4.02793020009994506836e-01) (9, 2.09669184684753417969e+00) (10, 2.02250957489013671875e-01) (11, 4.23459887504577636719e-01) (12, 6.24108970165252685547e-01) (13, -2.21998021006584167480e-02) (14, 6.70730352401733398438e-01) (15, 1.24590456485748291016e+00) (16, 8.38156819343566894531e-01) (17, -4.00855302810668945312e+00) (18, -6.56070858240127563477e-02) (19, 1.30089998245239257812e+00) (20, 8.68781685829162597656e-01) (21, -6.80509150028228759766e-01) (22, -5.81556558609008789062e-02) (23, 1.09556245803833007812e+00) (24, 1.11030712723731994629e-02) (25, -9.49658919125795364380e-03) (26, -5.15307128429412841797e-01) (27, 7.59508833289146423340e-03) (28, 2.02021505683660507202e-02) (29, 3.24931293725967407227e-01) (30, 1.05979047715663909912e-01) (31, 1.15609741210937500000e+00) (32, 4.68400508165359497070e-01) (33, -1.77038423717021942139e-02) (34, 4.44753140211105346680e-01) (35, -3.44565242528915405273e-01) (36, 5.66902220249176025391e-01) (37, 2.42988225072622299194e-02) (38, -8.95919874310493469238e-02) (39, -8.58923047780990600586e-02) (40, 2.78163373470306396484e-01) (41, 2.82699674367904663086e-01) (42, -1.01747143268585205078e+00) (43, -8.02688896656036376953e-02) (44, 2.54465311765670776367e-01) (45, 5.77111601829528808594e-01) (46, 5.68696260452270507812e-01) (47, 4.48051512241363525391e-01) (48, 6.11575067043304443359e-01) (49, 2.66442000865936279297e-02) (50, 5.93043863773345947266e-01) (51, -2.47746028900146484375e+01) (52, -6.41279220581054687500e-02) (53, -4.61589545011520385742e-01) (54, -1.79473847150802612305e-01) (55, 1.38908052444458007812e+00) (56, -6.78083717823028564453e-01) (57, 3.72065678238868713379e-02) (58, -1.47178843617439270020e-01) (59, -2.32274961471557617188e+00) (60, 3.57726328074932098389e-02) (61, 6.25974655151367187500e-01) (62, 1.23670436441898345947e-01) (63, 3.33624672889709472656e+00) (64, 2.02465367317199707031e+00) (65, 6.09138786792755126953e-01) (31, 2.44346354156732559204e-02) (32, 1.95796802639961242676e-01) (33, 2.13253691792488098145e-01) (34, 6.89713060855865478516e-01) (35, 7.74875044822692871094e-01) (36, 1.67330756783485412598e-01) (37, -2.96062827110290527344e-01) (38, -3.14285188913345336914e-01) (39, -7.79989808797836303711e-02) (40, 2.60968774557113647461e-01) (41, 2.60180950164794921875e-01) (42, -2.43174433708190917969e-01) (43, -9.94518548250198364258e-02) (44, 1.25586509704589843750e-01) (45, 8.83827269077301025391e-01) (46, 4.80376839637756347656e-01) (47, 8.22790980339050292969e-01) (48, 7.38060891628265380859e-01) (49, 3.59518319368362426758e-01) (50, 8.03470671176910400391e-01) (51, -1.29558646678924560547e+00) (52, -2.07464158535003662109e-01) (53, -3.68648111820220947266e-01) (54, -3.77231210470199584961e-01) (55, 1.12088553607463836670e-01) (56, -1.76426351070404052734e-01) (57, -3.49280722439289093018e-02) (58, -1.35778799653053283691e-01) (59, 4.96122539043426513672e-01) (60, 3.04903775453567504883e-01) (61, 7.21715867519378662109e-01) (62, 8.46402823925018310547e-01) (63, 6.59528225660324096680e-02) (64, -2.06876575946807861328e-01) (65, 6.41922593116760253906e-01) (31, 5.70628464221954345703e-01) (32, 7.55348920822143554688e-01) (33, -2.47795227915048599243e-02) (34, -7.31891512870788574219e-01) (35, -1.63129836320877075195e-01) (36, 7.16320335865020751953e-01) (37, 1.91886857151985168457e-01) (38, 4.23939019441604614258e-01) (39, 3.33678513765335083008e-01) (40, -3.20731610059738159180e-01) (41, -2.00499221682548522949e-01) (42, 4.93429929018020629883e-01) (43, 5.14130401611328125000e+00) (44, 5.85022330284118652344e-01) (45, 2.25349292159080505371e-01) (46, 5.53522646427154541016e-01) (47, -1.32136785984039306641e+00) (48, 8.60282853245735168457e-02) (49, -3.25720399618148803711e-01) (50, -1.22373628616333007812e+00) (51, -1.90251022577285766602e-01) (52, 3.60006690025329589844e-01) (53, -2.05642446875572204590e-01) (54, 9.40665155649185180664e-02) (55, 5.87441444396972656250e-01) (56, -6.29234218597412109375e+00) (57, 5.13630628585815429688e-01) (58, 5.01132011413574218750e-01) (59, -2.69465714693069458008e-01) (60, -3.08101892471313476562e-01) (61, 5.84949366748332977295e-02) (62, 6.22225627303123474121e-02) (63, 3.51668983697891235352e-01) (64, 1.27970314025878906250e+00) (65, 1.69240072369575500488e-01) (31, 3.34252685308456420898e-01) (32, 3.85363906621932983398e-01) (33, 4.28369343280792236328e-02) (34, -8.09042870998382568359e-01) (35, -1.14774048328399658203e-01) (36, 3.54324668645858764648e-01) (37, 4.99957054853439331055e-01) (38, 4.82148379087448120117e-01) (39, 6.20886504650115966797e-01) (40, -7.58120656013488769531e-01) (41, -6.51631355285644531250e-01) (42, 5.01360356807708740234e-01) (43, 4.81508553028106689453e-01) (44, 4.63880032300949096680e-01) (45, -1.90944582223892211914e-01) (46, -1.64561137557029724121e-01) (47, -8.71802419424057006836e-02) (48, -1.19274355471134185791e-01) (49, 8.63423347473144531250e-01) (50, -4.76443916559219360352e-01) (51, -2.43482160568237304688e+00) (52, 6.05960309505462646484e-01) (53, -3.20747542381286621094e+00) (54, 6.01032197475433349609e-01) (55, 2.14079007506370544434e-01) (56, 6.15415513515472412109e-01) (57, 4.24638032913208007812e-01) (58, 5.53636014461517333984e-01) (59, 6.79616570472717285156e-01) (60, 4.09338138997554779053e-02) (61, -1.42431750893592834473e-01) (62, 3.04210092872381210327e-02) (63, 5.42715728282928466797e-01) (64, 7.05041289329528808594e-01) (65, -8.79301354289054870605e-02) (31, 1.01914964616298675537e-01) (32, 5.63777327537536621094e-01) (33, -3.87040935456752777100e-02) (34, 2.07435703277587890625e+00) (35, 1.05743849277496337891e+00) (36, 6.59383893013000488281e-01) (37, -3.02616387605667114258e-01) (38, -2.08985030651092529297e-01) (39, 1.41084313392639160156e-01) (40, 1.42205321788787841797e+00) (41, 1.08483746647834777832e-01) (42, 2.18689292669296264648e-01) (43, -2.73826301097869873047e-01) (44, 4.46822531521320343018e-02) (45, 2.05058902502059936523e-01) (46, 4.96785938739776611328e-01) (47, 6.33392632007598876953e-01) (48, 7.96579480171203613281e-01) (49, 7.80805587768554687500e-01) (50, 1.57522344589233398438e+00) (51, 9.74572658538818359375e-01) (52, -2.26600617170333862305e-01) (53, 8.93031597137451171875e-01) (54, -2.91901379823684692383e-01) (55, 7.11736738681793212891e-01) (56, 1.11365580558776855469e+00) (57, 6.79797589778900146484e-01) (58, -2.05609053373336791992e-01) (59, -3.97380799055099487305e-01) (60, -1.26527643203735351562e+00) (61, 2.07756653428077697754e-01) (62, 8.03072810173034667969e-01) (63, 1.62981259822845458984e+00) (64, -7.41062581539154052734e-01) (65, 7.94894099235534667969e-01) (31, 1.95298767089843750000e+01) (32, 8.32487940788269042969e-01) (33, 1.06209945678710937500e+01) (34, 1.32299631834030151367e-01) (35, 1.24668884277343750000e+00) (36, 8.83957803249359130859e-01) (37, 2.80432641506195068359e-01) (38, 2.44430050253868103027e-01) (39, 3.31527054309844970703e-01) (40, -1.97921961545944213867e-01) (41, -2.68262147903442382812e+00) (42, 8.48971652984619140625e+00) (43, 4.09607887268066406250e-01) (44, 3.35656583309173583984e-01) (45, 1.13910838961601257324e-01) (46, 6.28465339541435241699e-02) (47, 3.50492000579833984375e-02) (48, 1.47149026393890380859e-01) (49, -2.21985399723052978516e-01) (50, -1.13326768875122070312e+01) (51, 1.79255056381225585938e+00) (52, 4.27984744310379028320e-01) (53, -1.95117384195327758789e-01) (54, -1.88314592838287353516e+00) (55, 1.00293135643005371094e+00) (56, 1.76139533519744873047e+00) (57, 6.30686879158020019531e-01) (58, 2.63881027698516845703e-01) (59, -5.89579582214355468750e+00) (60, -2.43035659193992614746e-01) (61, 1.85880139470100402832e-01) (62, -2.37031996250152587891e-01) (63, 2.78048396110534667969e-01) (64, -5.84421217441558837891e-01) (65, 8.07875990867614746094e-02) (31, -1.00034937262535095215e-01) (32, -8.20115022361278533936e-03) (33, 4.87491935491561889648e-01) (34, 3.48682999610900878906e-01) (35, 2.58103042840957641602e-01) (36, 2.90118575096130371094e-01) (37, 3.16045194864273071289e-01) (38, 1.36920109391212463379e-01) (39, 5.70611298084259033203e-01) (40, 3.78119409084320068359e-01) (41, 6.41848802566528320312e-01) (42, 6.64614260196685791016e-01) (43, 7.86575227975845336914e-02) (44, 1.22988829389214515686e-02) (45, -1.39287561178207397461e-01) (46, 1.10778346657752990723e-01) (47, 3.25711429119110107422e-01) (48, 3.17168980836868286133e-01) (49, 7.23479449748992919922e-01) (50, 2.69622236490249633789e-01) (51, -3.85374808683991432190e-03) (52, 1.44592791795730590820e-01) (53, 4.46030199527740478516e-01) (54, 1.27938956022262573242e-01) (55, 3.76972764730453491211e-01) (56, 9.27411466836929321289e-02) (57, 4.14363294839859008789e-01) (58, 8.40247496962547302246e-02) (59, 6.03088080883026123047e-01) (60, 7.27778971195220947266e-01) (61, 3.47005397081375122070e-01) (62, 2.31832578778266906738e-01) (63, -7.79608130455017089844e-01) (64, 1.53038308024406433105e-01) (65, 3.24433654546737670898e-01) (31, 2.17089161276817321777e-01) (32, 1.19081512093544006348e-01) (33, 6.60227477550506591797e-01) (34, 7.04436361789703369141e-01) (35, 7.80784010887145996094e-01) (36, 1.83134406805038452148e-01) (37, -2.36113190650939941406e-01) (38, -1.87326520681381225586e-01) (39, -1.44325166940689086914e-01) (40, 1.81064590811729431152e-01) (41, 9.82661545276641845703e-02) (42, -2.02281400561332702637e-01) (43, -1.75389826297760009766e-01) (44, 8.03695470094680786133e-02) (45, 8.80437016487121582031e-01) (46, 1.18023955821990966797e+00) (47, 8.17501664161682128906e-01) (48, 7.63085603713989257812e-01) (49, 2.21296146512031555176e-01) (50, 6.63746893405914306641e-01) (51, -6.72706007957458496094e-01) (52, -1.67962446808815002441e-01) (53, -9.00102928280830383301e-02) (54, -2.79502898454666137695e-01) (55, 1.16532377898693084717e-01) (56, -3.15522104501724243164e-01) (57, 1.99641510844230651855e-01) (58, -2.47590020298957824707e-01) (59, 6.13122940063476562500e-01) (60, 2.56650090217590332031e-01) (61, 7.59836852550506591797e-01) (62, 6.35003685951232910156e-01) (63, 4.03992861509323120117e-01) (64, -2.92373061180114746094e-01) (65, 7.72410750389099121094e-01) (31, -5.78222632408142089844e-01) (32, 7.75492250919342041016e-01) (33, -1.65454775094985961914e-01) (34, -1.26545839011669158936e-02) (35, 2.69785877317190170288e-02) (36, 6.74415290355682373047e-01) (37, 3.82879644632339477539e-01) (38, 4.01579022407531738281e-01) (39, 3.37964951992034912109e-01) (40, -1.24934661388397216797e+00) (41, -2.41193920373916625977e-01) (42, 4.03379917144775390625e-01) (43, 4.14247125387191772461e-01) (44, 4.71796423196792602539e-01) (45, 2.13796854019165039062e-01) (46, -6.22513830661773681641e-01) (47, 1.62825301289558410645e-01) (48, 6.83036670088768005371e-02) (49, 4.68751311302185058594e-01) (50, 1.98795706033706665039e-01) (51, -3.35760384798049926758e-01) (52, 2.45167940855026245117e-01) (53, -7.07813724875450134277e-02) (54, 3.30377846956253051758e-01) (55, 1.31222355365753173828e+00) (56, 2.44246935844421386719e+00) (57, 4.75199997425079345703e-01) (58, 4.04666572809219360352e-01) (59, 1.18606555461883544922e+00) (60, -2.16856741905212402344e+00) (61, 2.02901005744934082031e-01) (62, -1.24514710903167724609e+00) (63, 3.16291379928588867188e+00) (64, 3.41888070106506347656e+00) (65, 2.51245766878128051758e-01) (31, -4.02818709611892700195e-01) (32, 2.07124248147010803223e-01) (33, 6.37354993820190429688e+00) (34, -2.90065097808837890625e+00) (35, -2.39820265769958496094e+00) (36, 3.24019730091094970703e-01) (37, 8.68479728698730468750e-01) (38, 1.74792599678039550781e+00) (39, 1.03335940837860107422e+00) (40, 2.15544557571411132812e+00) (41, 1.79933381080627441406e+00) (42, 1.79408085346221923828e+00) (43, 9.04216289520263671875e-01) (44, 3.08146446943283081055e-01) (45, -1.14565455913543701172e+00) (46, 1.26820058822631835938e+01) (47, -2.43437200784683227539e-01) (48, -3.19361537694931030273e-01) (49, 2.72070616483688354492e-02) (50, 4.96157795190811157227e-01) (51, 5.52116751670837402344e-01) (52, 8.50515186786651611328e-01) (53, 6.21282052993774414062e+00) (54, 2.58348965644836425781e+00) (55, 1.07741796970367431641e+00) (56, 4.45718669891357421875e+00) (57, 5.03531992435455322266e-01) (58, 1.01336538791656494141e+00) (59, 3.61285438537597656250e+01) (60, 1.66125559806823730469e+00) (61, 4.52925384044647216797e-01) (62, -2.10602016448974609375e+01) (63, -1.40174254775047302246e-01) (64, 1.53761129379272460938e+01) (65, 4.45924341678619384766e-01) (31, 3.35730761289596557617e-01) (32, 3.75925481319427490234e-01) (33, -1.66117802262306213379e-01) (34, -2.04836830496788024902e-01) (35, -2.68826663494110107422e-01) (36, 2.58586376905441284180e-01) (37, 5.45200824737548828125e-01) (38, 5.85923373699188232422e-01) (39, 5.75904965400695800781e-01) (40, 7.05273747444152832031e-02) (41, 1.34871527552604675293e-01) (42, 5.15797197818756103516e-01) (43, 6.92923069000244140625e-01) (44, 3.76897722482681274414e-01) (45, -1.87949165701866149902e-01) (46, 5.56014060974121093750e-01) (47, -1.79815024137496948242e-01) (48, -2.17825517058372497559e-01) (49, 1.56525149941444396973e-01) (50, -1.97922587394714355469e-01) (51, -5.82984149456024169922e-01) (52, 6.47702217102050781250e-01) (53, -4.98942911624908447266e-01) (54, 6.04696691036224365234e-01) (55, 3.23925584554672241211e-01) (56, 9.12176012992858886719e-01) (57, 3.87737959623336791992e-01) (58, 6.21792197227478027344e-01) (59, 3.06240409612655639648e-01) (60, 1.79423093795776367188e-01) (61, -1.86085686087608337402e-01) (62, -4.12381403148174285889e-02) (63, 4.93523329496383666992e-01) (64, 4.99288976192474365234e-01) (65, -1.96990296244621276855e-01) (31, -1.29615336656570434570e-01) (32, 4.61967736482620239258e-01) (33, 1.02951121330261230469e+00) (34, 1.67875492572784423828e+00) (35, 5.30102074146270751953e-01) (36, 5.47977089881896972656e-01) (37, -1.30359362810850143433e-02) (38, -1.19843609631061553955e-01) (39, -3.31032350659370422363e-02) (40, 3.40681016445159912109e-01) (41, 3.24937522411346435547e-01) (42, -2.44873692281544208527e-03) (43, -1.26732543110847473145e-01) (44, 8.90578180551528930664e-02) (45, 4.16448175907135009766e-01) (46, 3.22340816259384155273e-01) (47, 4.47587519884109497070e-01) (48, 5.48925817012786865234e-01) (49, 1.51610095053911209106e-02) (50, -4.11369502544403076172e-01) (51, -1.24349057674407958984e+00) (52, -7.36389458179473876953e-02) (53, 4.19452011585235595703e-01) (54, -9.27789956331253051758e-02) (55, 1.22405029833316802979e-01) (56, -7.29607224464416503906e-01) (57, -3.86836916208267211914e-01) (58, -7.12918415665626525879e-02) (59, 5.58088481426239013672e-01) (60, -3.30688267946243286133e-01) (61, 6.01928949356079101562e-01) (62, 5.33816218376159667969e-01) (63, 7.38355875015258789062e-01) (64, 2.64620363712310791016e-01) (65, 5.99207282066345214844e-01) (31, -6.63823008537292480469e-01) (32, 7.56823778152465820312e-01) (33, 1.15680254995822906494e-01) (34, -5.56755252182483673096e-02) (35, 6.89187109470367431641e-01) (36, 7.57086813449859619141e-01) (37, 8.52272361516952514648e-02) (38, 2.18296587467193603516e-01) (39, 3.85345131158828735352e-01) (40, 4.26192469894886016846e-02) (41, -6.37223482131958007812e-01) (42, 4.61279302835464477539e-01) (43, 3.51789355278015136719e-01) (44, -2.14182758331298828125e+00) (45, 9.09681022167205810547e-02) (46, 4.86570954322814941406e-01) (47, 1.57760590314865112305e-01) (48, 1.80056348443031311035e-01) (49, -2.04469919204711914062e-01) (50, -1.20060968399047851562e+00) (51, -2.24708840250968933105e-01) (52, 4.49308156967163085938e-01) (53, -1.40521854162216186523e-01) (54, -1.24593330547213554382e-02) (55, 6.90051257610321044922e-01) (56, -4.81467574834823608398e-01) (57, 6.42239451408386230469e-01) (58, 3.02833437919616699219e-01) (59, -6.95373713970184326172e-01) (60, 2.62676715850830078125e-01) (61, 4.78608347475528717041e-02) (62, -2.19448491930961608887e-01) (63, 8.58324944972991943359e-01) (64, 2.72772699594497680664e-01) (65, 2.04366430640220642090e-01) (31, -8.79777446389198303223e-02) (32, -2.07497533410787582397e-02) (33, 3.50310534238815307617e-01) (34, 2.99964956939220428467e-02) (35, 5.48322677612304687500e-01) (36, 1.93302810192108154297e-01) (37, 1.41049757599830627441e-01) (38, 3.58563251793384552002e-02) (39, 5.41702270507812500000e-01) (40, 5.45823872089385986328e-01) (41, 5.92599511146545410156e-01) (42, 5.29795646667480468750e-01) (43, -5.37433512508869171143e-02) (44, -1.57144591212272644043e-01) (45, 3.86272847652435302734e-01) (46, -5.45240007340908050537e-02) (47, 3.26111227273941040039e-01) (48, 3.39137196540832519531e-01) (49, 7.60170698165893554688e-01) (50, 2.47650459408760070801e-01) (51, -3.30763339996337890625e+00) (52, 7.09083378314971923828e-02) (53, 2.13489308953285217285e-01) (54, 1.09432362020015716553e-01) (55, -2.49920502305030822754e-01) (56, 1.63087978959083557129e-01) (57, 4.75547909736633300781e-01) (58, 4.26889806985855102539e-02) (59, 2.83973932266235351562e-01) (60, 1.06253910064697265625e+00) (61, 3.11374664306640625000e-01) (62, 1.01685965061187744141e+00) (63, 3.97803604602813720703e-01) (64, 1.78474932909011840820e-01) (65, 3.85590195655822753906e-01) (31, 1.88893586397171020508e-01) (32, 4.56417590379714965820e-01) (33, 2.07902953028678894043e-01) (34, 6.59988403320312500000e-01) (35, 1.04730260372161865234e+00) (36, 4.21068966388702392578e-01) (37, 4.57518398761749267578e-02) (38, -5.55957779288291931152e-02) (39, -6.93170279264450073242e-02) (40, -5.36339059472084045410e-02) (41, 8.32404732704162597656e-01) (42, -2.66655497252941131592e-02) (43, -1.12619204446673393250e-02) (44, 2.47206136584281921387e-01) (45, 5.30556976795196533203e-01) (46, 2.00550392270088195801e-01) (47, 4.66253191232681274414e-01) (48, 3.91140311956405639648e-01) (49, -4.52309995889663696289e-01) (50, 3.60209703445434570312e-01) (51, 5.19447088241577148438e-01) (52, -1.00291274487972259521e-01) (53, 3.89404088258743286133e-01) (54, -3.93307507038116455078e-02) (55, 7.22879022359848022461e-02) (56, -1.86780607700347900391e+00) (57, -1.37192592024803161621e-01) (58, 7.38596022129058837891e-02) (59, 2.97003716230392456055e-01) (60, -9.52560752630233764648e-02) (61, 5.09912490844726562500e-01) (62, 2.69914507865905761719e-01) (63, 4.09330797195434570312e+00) (64, 1.22931349277496337891e+00) (65, 5.64735233783721923828e-01) (31, 2.79400646686553955078e-01) (32, 3.33347558975219726562e-01) (33, 7.66933932900428771973e-02) (34, -2.25836038589477539062e-01) (35, -2.14574992656707763672e-01) (36, 5.20810902118682861328e-01) (37, 6.75585389137268066406e-01) (38, 6.13696992397308349609e-01) (39, 5.61423182487487792969e-01) (40, 7.28394016623497009277e-02) (41, 7.48371332883834838867e-02) (42, 5.26881396770477294922e-01) (43, 5.06874561309814453125e-01) (44, 4.48408871889114379883e-01) (45, -5.92320561408996582031e-02) (46, -1.48374615237116813660e-02) (47, -7.36052691936492919922e-02) (48, -2.43358269333839416504e-01) (49, 1.83435246348381042480e-01) (50, -4.62451130151748657227e-01) (51, -1.91099250316619873047e+00) (52, 5.46179056167602539062e-01) (53, -1.28592050075531005859e+00) (54, 4.69718098640441894531e-01) (55, 3.84340494871139526367e-01) (56, 5.76152563095092773438e-01) (57, 4.34892445802688598633e-01) (58, 5.78422904014587402344e-01) (59, 7.85358250141143798828e-01) (60, 2.08439499139785766602e-01) (61, -1.38002216815948486328e-01) (62, -5.40817938745021820068e-02) (63, 5.00756561756134033203e-01) (64, 7.18081533908843994141e-01) (65, -1.78294047713279724121e-01) (31, 3.85327070951461791992e-01) (32, 2.28342533111572265625e-01) (33, 5.42902112007141113281e-01) (34, 3.60076457262039184570e-01) (35, 1.80522296577692031860e-02) (36, 4.07934725284576416016e-01) (37, 9.57370519638061523438e-01) (38, 5.26039898395538330078e-01) (39, 5.75551807880401611328e-01) (40, 2.78111696243286132812e-01) (41, 5.65583527088165283203e-01) (42, 7.49347031116485595703e-01) (43, 5.63857972621917724609e-01) (44, 4.48564469814300537109e-01) (45, 1.95217162370681762695e-01) (46, 4.24588978290557861328e-01) (47, 2.87840276956558227539e-01) (48, 4.35202866792678833008e-01) (49, 3.19333940744400024414e-01) (50, 1.41040667891502380371e-01) (51, 6.14271640777587890625e-01) (52, 5.03760993480682373047e-01) (53, -2.81934142112731933594e+00) (54, 1.39144670963287353516e+00) (55, 3.22866225242614746094e+00) (56, -8.68347942829132080078e-01) (57, 4.86155080795288085938e+00) (58, 5.02943396568298339844e-01) (59, 3.32829296588897705078e-01) (60, -9.89667296409606933594e-01) (61, 3.32460880279541015625e-01) (62, 1.66459476947784423828e+00) (63, -4.26305830478668212891e-01) (64, -6.40256345272064208984e-01) (65, 3.60714346170425415039e-01) (31, -2.03220665454864501953e-01) (32, -1.09325423836708068848e-02) (33, 7.12071180343627929688e-01) (34, 1.48041963577270507812e+00) (35, -1.30321428179740905762e-01) (36, -2.76406258344650268555e-01) (37, 1.69074803590774536133e-01) (38, 2.73333251476287841797e-01) (39, 1.11432023346424102783e-01) (40, 1.03804099559783935547e+00) (41, 3.26672732830047607422e-01) (42, 4.64695990085601806641e-02) (43, 4.39581088721752166748e-02) (44, -5.20862340927124023438e-02) (45, 3.84612858295440673828e-01) (46, 2.42344617843627929688e-01) (47, 3.15739363431930541992e-01) (48, 3.11693280935287475586e-01) (49, 1.16461969912052154541e-01) (50, -3.44216823577880859375e-01) (51, -9.41901028156280517578e-01) (52, 1.06914132833480834961e-01) (53, 1.59355595707893371582e-01) (54, 1.23246885836124420166e-01) (55, -5.31584173440933227539e-02) (56, 9.52869355678558349609e-01) (57, -3.58416497707366943359e-01) (58, 5.88238015770912170410e-02) (59, -1.22117035090923309326e-01) (60, -2.73183882236480712891e-01) (61, 3.99833917617797851562e-01) (62, 2.65761017799377441406e-01) (63, 2.91214823722839355469e-01) (64, 1.83178991079330444336e-01) (65, 3.52428078651428222656e-01) (31, 2.36657083034515380859e-01) (32, 2.25413460284471511841e-02) (33, 1.43893942236900329590e-01) (34, 1.83235108852386474609e+00) (35, 1.85927414894104003906e+00) (36, 5.90043127536773681641e-01) (37, -2.52496510744094848633e-01) (38, -4.82659220695495605469e-01) (39, 2.19137772917747497559e-01) (40, 5.96237242221832275391e-01) (41, -2.17482119798660278320e-01) (42, 2.65382975339889526367e-01) (43, -4.45025026798248291016e-01) (44, 2.86938071250915527344e-01) (45, 3.01798403263092041016e-01) (46, -1.78422689437866210938e+00) (47, 8.61463069915771484375e-01) (48, 8.56691777706146240234e-01) (49, 1.24788832664489746094e+00) (50, 9.41167116165161132812e-01) (51, -1.82896837592124938965e-01) (52, -3.51110666990280151367e-01) (53, 2.16550305485725402832e-01) (54, -3.13012093305587768555e-01) (55, 2.84228026866912841797e-01) (56, -2.37570792436599731445e-01) (57, 1.00969612598419189453e+00) (58, -2.19797357916831970215e-01) (59, -1.66914034634828567505e-02) (60, 1.15784816443920135498e-01) (61, 7.89314150810241699219e-01) (62, 8.08803915977478027344e-01) (63, -6.34846735000610351562e+00) (64, -6.18771255016326904297e-01) (65, 8.86205971240997314453e-01) (31, 3.10056746006011962891e-01) (32, -3.78313124179840087891e-01) (33, 3.43592107295989990234e-01) (34, 1.17136979103088378906e+00) (35, -1.91423341631889343262e-01) (36, -3.98811846971511840820e-01) (37, 1.59195065498352050781e-01) (38, 1.33044168353080749512e-01) (39, 1.38295814394950866699e-01) (40, 3.98394823074340820312e-01) (41, 4.72770899534225463867e-01) (42, 4.24576066434383392334e-02) (43, 1.27082496881484985352e-01) (44, -7.78003484010696411133e-02) (45, 5.15560090541839599609e-01) (46, -6.52224645018577575684e-02) (47, 5.11652410030364990234e-01) (48, 4.71950501203536987305e-01) (49, 1.40269660949707031250e+00) (50, 8.89210104942321777344e-02) (51, -1.07397770881652832031e+00) (52, 2.07035690546035766602e-02) (53, -1.61453068256378173828e-01) (54, -1.95852797478437423706e-02) (55, -1.01842053234577178955e-01) (56, 5.42196482419967651367e-02) (57, -3.49176377058029174805e-01) (58, -9.52466391026973724365e-03) (59, 1.09227859973907470703e+00) (60, 1.54047870635986328125e+00) (61, 4.33920979499816894531e-01) (62, 4.44950520992279052734e-01) (63, 4.73837792873382568359e-01) (64, 7.04420134425163269043e-02) (65, 3.39694470167160034180e-01) (31, 4.16040927171707153320e-01) (32, 4.30891543626785278320e-01) (33, 2.58381720632314682007e-02) (34, 1.31660461425781250000e+00) (35, -2.52946764230728149414e-01) (36, 2.95504629611968994141e-01) (37, 5.38193702697753906250e-01) (38, 6.42508268356323242188e-01) (39, 6.20219290256500244141e-01) (40, 3.29929590225219726562e-01) (41, 4.17082548141479492188e-01) (42, 6.29205524921417236328e-01) (43, 5.91645121574401855469e-01) (44, 4.52339708805084228516e-01) (45, -1.35437414050102233887e-01) (46, -7.10517242550849914551e-02) (47, -1.17505013942718505859e-01) (48, 2.64122094959020614624e-02) (49, 4.03294354677200317383e-01) (50, 2.15768031775951385498e-02) (51, 1.99468418955802917480e-01) (52, 5.50034224987030029297e-01) (53, -2.31007933616638183594e-01) (54, 6.75522208213806152344e-01) (55, 2.74882942438125610352e-01) (56, 8.91863107681274414062e-01) (57, 4.17308986186981201172e-01) (58, 5.56986093521118164062e-01) (59, -9.97913062572479248047e-01) (60, 3.56843769550323486328e-01) (61, -2.90713310241699218750e-02) (62, 3.06752324104309082031e-01) (63, 4.11730200052261352539e-01) (64, 1.04166410863399505615e-01) (65, -1.51177600026130676270e-01) (31, 1.10958166420459747314e-01) (32, -4.45475399494171142578e-01) (33, -9.31448876857757568359e-01) (34, 2.12451040744781494141e-01) (35, 2.52970810979604721069e-02) (36, -5.80407798290252685547e-01) (37, 2.84341536462306976318e-02) (38, -3.21528092026710510254e-02) (39, 3.45400154590606689453e-01) (40, 5.14262616634368896484e-01) (41, 3.71796727180480957031e-01) (42, 4.13910955190658569336e-01) (43, 9.26692038774490356445e-03) (44, -3.34254115819931030273e-01) (45, 5.50428867340087890625e-01) (46, -1.22815892100334167480e-02) (47, 4.35726314783096313477e-01) (48, 3.86737227439880371094e-01) (49, 9.36273753643035888672e-01) (50, 2.75177329778671264648e-01) (51, -4.27958822250366210938e+00) (52, 2.97805573791265487671e-02) (53, 4.03600424528121948242e-01) (54, -8.52411761879920959473e-02) (55, 7.49005153775215148926e-02) (56, -5.94106353819370269775e-02) (57, -3.35935592651367187500e-01) (58, 7.66224786639213562012e-02) (59, 3.09670233726501464844e+00) (60, 1.09286630153656005859e+00) (61, 4.29230958223342895508e-01) (62, 1.11798441410064697266e+00) (63, -1.08218669891357421875e+01) (64, 2.04022318124771118164e-01) (65, 4.96029675006866455078e-01) (31, 5.50180554389953613281e-01) (32, 7.96648085117340087891e-01) (33, 7.50109481811523437500e+01) (34, -3.57623138427734375000e+01) (35, 1.59978821873664855957e-01) (36, 7.43192493915557861328e-01) (37, 7.16451930999755859375e+00) (38, 4.10422086715698242188e-01) (39, 9.30514574050903320312e-01) (40, 6.57993850708007812500e+01) (41, 7.48556315898895263672e-01) (42, 4.24901247024536132812e-01) (43, 5.33605712890625000000e+02) (44, 2.18940210342407226562e+00) (45, 4.25229705870151519775e-02) (46, 5.76089024543762207031e-01) (47, -9.84725773334503173828e-01) (48, -4.58842366933822631836e-02) (49, 4.62977838516235351562e+00) (50, -4.69939788818359375000e+02) (51, -2.12207302451133728027e-01) (52, 3.46513509750366210938e-01) (53, -2.28073164820671081543e-01) (54, 3.16823959350585937500e-01) (55, 5.64787805080413818359e-01) (56, -5.60057497024536132812e+00) (57, 6.28769099712371826172e-01) (58, 5.40093243122100830078e-01) (59, 1.70236956328153610229e-02) (60, -2.27776020765304565430e-01) (61, 2.72197253070771694183e-03) (62, -1.43053874373435974121e-01) (63, 1.92698657512664794922e-01) (64, -4.79383736848831176758e-01) (65, 1.38362511992454528809e-01) (31, 3.92000615596771240234e-01) (32, 7.03571140766143798828e-01) (33, 1.69029772281646728516e-01) (34, -5.06546378135681152344e-01) (35, -1.27674028277397155762e-01) (36, 6.96277618408203125000e-01) (37, 3.28061074018478393555e-01) (38, 6.31107091903686523438e-01) (39, 3.24434280395507812500e-01) (40, -2.45362639427185058594e-01) (41, 7.93667137622833251953e-01) (42, 9.58174467086791992188e-01) (43, 4.14677381515502929688e-01) (44, 4.32729035615921020508e-01) (45, 5.88546805083751678467e-02) (46, -7.06688165664672851562e-02) (47, 1.08212240040302276611e-01) (48, 2.08552286028861999512e-01) (49, -6.95407688617706298828e-02) (50, -1.61914885044097900391e-01) (51, 2.13978409767150878906e+00) (52, 4.16700780391693115234e-01) (53, -5.63327297568321228027e-02) (54, 8.52675735950469970703e-02) (55, 7.73806869983673095703e-01) (56, -1.47176229953765869141e+00) (57, 6.45606338977813720703e-01) (58, 3.11690300703048706055e-01) (59, 2.24796128273010253906e+00) (60, 2.62373298406600952148e-01) (61, 2.02678740024566650391e-01) (62, 1.67109832167625427246e-01) (63, -9.86735165119171142578e-01) (64, -1.58103537559509277344e+00) (65, 2.60365307331085205078e-01) (31, 1.79197323322296142578e+00) (32, 1.48058652877807617188e-01) (33, -7.55497887730598449707e-02) (34, -6.91000401973724365234e-01) (35, -3.21801304817199707031e-01) (36, 1.82776242494583129883e-01) (37, 1.51077404618263244629e-01) (38, 4.82545793056488037109e-01) (39, 4.72616612911224365234e-01) (40, 1.61612129211425781250e+00) (41, -1.93841848522424697876e-02) (42, 5.12038350105285644531e-01) (43, 3.60267907381057739258e-02) (44, -1.06071390211582183838e-01) (45, -7.17516094446182250977e-02) (46, 1.53182148933410644531e-01) (47, -1.11737258732318878174e-01) (48, 3.69092732667922973633e-01) (49, 4.46223795413970947266e-01) (50, -1.48203909397125244141e-01) (51, -5.80039262771606445312e-01) (52, 5.52534937858581542969e-01) (53, -1.03486669063568115234e+00) (54, 4.70223695039749145508e-01) (55, 2.53649383783340454102e-01) (56, 3.56441468000411987305e-01) (57, 1.58787041902542114258e-01) (58, 5.85813462734222412109e-01) (59, 5.42281448841094970703e-01) (60, 2.78017282485961914062e-01) (61, -7.56215974688529968262e-02) (62, -4.50310669839382171631e-03) (63, 3.03513944149017333984e-01) (64, -1.53907012939453125000e+00) (65, -1.70366361737251281738e-01) (31, -1.30764832720160484314e-02) (32, 6.24152481555938720703e-01) (33, 1.61005449295043945312e+00) (34, 3.93256157636642456055e-01) (35, 9.55761015415191650391e-01) (36, 5.39410352706909179688e-01) (37, 1.61112584173679351807e-02) (38, 7.60333240032196044922e-01) (39, 5.74100673198699951172e-01) (40, 7.70927608013153076172e-01) (41, 1.63189399242401123047e+00) (42, 6.07501268386840820312e-01) (43, -1.40710836276412010193e-02) (44, 8.64079371094703674316e-02) (45, -1.67525202035903930664e-01) (46, -1.62728905677795410156e-01) (47, 4.14392590522766113281e-01) (48, 4.88363891839981079102e-01) (49, -3.35871055722236633301e-02) (50, 4.85035717487335205078e-01) (51, 2.37946078181266784668e-01) (52, 1.23722597956657409668e-01) (53, -4.42188930511474609375e+00) (54, 8.15151259303092956543e-02) (55, 9.03479039669036865234e-01) (56, -8.74984040856361389160e-02) (57, 8.38415920734405517578e-01) (58, -4.16928110644221305847e-03) (59, -7.73688480257987976074e-02) (60, 7.26628676056861877441e-02) (61, -1.60342603921890258789e-01) (62, 3.35678935050964355469e-01) (63, 3.79520505666732788086e-01) (64, 1.18380576372146606445e-01) (65, 4.27240878343582153320e-01) (31, 6.59746527671813964844e-01) (32, 4.77388113737106323242e-01) (33, -1.15757897496223449707e-01) (34, -2.14591711759567260742e-01) (35, -1.02126479148864746094e-01) (36, 4.27621871232986450195e-01) (37, 6.84676706790924072266e-01) (38, 5.66074132919311523438e-01) (39, 6.97863876819610595703e-01) (40, 1.58582955598831176758e-01) (41, -1.05305515229701995850e-01) (42, 4.91340786218643188477e-01) (43, 7.00567007064819335938e-01) (44, 3.78365755081176757812e-01) (45, -1.76181226968765258789e-01) (46, 1.92380622029304504395e-01) (47, -2.13208690285682678223e-01) (48, -2.32259631156921386719e-01) (49, 2.43717133998870849609e-01) (50, -1.06338120996952056885e-01) (51, -9.88314270973205566406e-01) (52, 6.81271374225616455078e-01) (53, -6.44763350486755371094e-01) (54, 5.72379291057586669922e-01) (55, 3.96346241235733032227e-01) (56, -1.92259407043457031250e+00) (57, 2.41144955158233642578e-01) (58, 6.91937923431396484375e-01) (59, 8.19986343383789062500e-01) (60, 2.53960251808166503906e-01) (61, -1.83280140161514282227e-01) (62, -1.37002453207969665527e-01) (63, 2.97732442617416381836e-01) (64, 5.70803225040435791016e-01) (65, -1.43786862492561340332e-01) (31, -6.77680015563964843750e-01) (32, 5.51338076591491699219e-01) (33, -8.07895600795745849609e-01) (34, 1.95042774081230163574e-01) (35, 2.92458391189575195312e+00) (36, 5.84891140460968017578e-01) (37, -9.21631902456283569336e-02) (38, 1.30232721567153930664e-02) (39, 2.76280287653207778931e-02) (40, -2.46227666735649108887e-01) (41, 4.56834137439727783203e-01) (42, -2.04081311821937561035e-02) (43, -5.51812089979648590088e-02) (44, 2.39722236990928649902e-01) (45, 3.94174158573150634766e-01) (46, 1.55465036630630493164e-01) (47, 4.50396239757537841797e-01) (48, 5.17224490642547607422e-01) (49, 1.05942852795124053955e-01) (50, -1.50344476103782653809e-01) (51, -1.32378649711608886719e+00) (52, -3.48050193861126899719e-03) (53, -4.50768530368804931641e-01) (54, -4.95605580508708953857e-02) (55, 3.85622531175613403320e-01) (56, -9.68764960765838623047e-01) (57, -8.77079442143440246582e-02) (58, 6.92478716373443603516e-02) (59, 4.14599806070327758789e-01) (60, -7.50662028789520263672e-01) (61, 4.29792732000350952148e-01) (62, -1.64344787597656250000e-01) (63, 3.73583585023880004883e-01) (64, 9.61586177349090576172e-01) (65, 5.01574397087097167969e-01) (31, 7.08141863346099853516e-01) (32, 1.15641832351684570312e+00) (33, 2.96469807624816894531e-01) (34, -5.59494137763977050781e-01) (35, 3.98153722286224365234e-01) (36, 1.45939826965332031250e+00) (37, 2.60010436177253723145e-02) (38, 5.01193590462207794189e-02) (39, 9.13143530488014221191e-02) (40, -1.22105669975280761719e+00) (41, -7.42852866649627685547e-01) (42, -1.38941124081611633301e-01) (43, 2.05094322562217712402e-01) (44, 9.81187641620635986328e-01) (45, 4.08754557371139526367e-01) (46, 4.08808439970016479492e-01) (47, 4.14234399795532226562e-01) (48, 3.33679854869842529297e-01) (49, -7.46763169765472412109e-01) (50, 3.34350407123565673828e-01) (51, -6.31980955600738525391e-01) (52, 1.23767770826816558838e-01) (53, -1.69204723834991455078e+00) (54, 1.52592407539486885071e-02) (55, 2.13123869895935058594e+00) (56, -1.77563011646270751953e-01) (57, 7.96858012676239013672e-01) (58, 9.74847152829170227051e-02) (59, -1.49415910243988037109e+00) (60, -4.12012994289398193359e-01) (61, 2.85765767097473144531e-01) (62, 2.67724037170410156250e+00) (63, -4.63977766036987304688e+00) (64, 5.47553300857543945312e-02) (65, 4.48024600744247436523e-01) (31, -2.76156806945800781250e+00) (32, 2.72363811731338500977e-01) (33, 3.45363281667232513428e-02) (34, 4.58829611539840698242e-01) (35, 1.83114922046661376953e+00) (36, 1.96872249245643615723e-01) (37, -3.52931642532348632812e+00) (38, -1.15533873438835144043e-01) (39, -6.43086954951286315918e-02) (40, 4.96811151504516601562e-01) (41, -4.56814587116241455078e-01) (42, 8.53346101939678192139e-03) (43, -1.09420455992221832275e-01) (44, 2.96315737068653106689e-02) (45, 5.73125541210174560547e-01) (46, 2.67241671681404113770e-02) (47, 5.27679622173309326172e-01) (48, 5.59206783771514892578e-01) (49, 5.01264333724975585938e-01) (50, 1.12328469753265380859e-01) (51, -1.82206749916076660156e-01) (52, -9.57813709974288940430e-02) (53, 4.80796664953231811523e-01) (54, 8.74593295156955718994e-03) (55, -6.44196867942810058594e-01) (56, 3.74731349945068359375e+00) (57, -1.57471954822540283203e-01) (58, -1.17383673787117004395e-01) (59, 1.13329076766967773438e+00) (60, 2.07823324203491210938e+00) (61, 7.24673449993133544922e-01) (62, -4.64308187365531921387e-02) (63, 2.68583655357360839844e-01) (64, -1.42640992999076843262e-02) (65, 8.53505313396453857422e-01) (31, 8.65741491317749023438e-01) (32, 1.30756449699401855469e+00) (33, -2.81127363443374633789e-01) (34, 5.51533162593841552734e-01) (35, 4.51121687889099121094e-01) (36, 1.17682945728302001953e+00) (37, 1.13550141453742980957e-01) (38, -4.53299134969711303711e-02) (39, -6.48182809352874755859e-01) (40, -5.81040441989898681641e-01) (41, -2.93049514293670654297e-01) (42, -7.41030931472778320312e-01) (43, -1.59884523600339889526e-02) (44, 9.14253473281860351562e-01) (45, 5.11292338371276855469e-01) (46, 2.40737646818161010742e-01) (47, 4.77071136236190795898e-01) (48, 4.55384939908981323242e-01) (49, -4.47818428277969360352e-01) (50, 2.66837865114212036133e-01) (51, -6.13679170608520507812e-01) (52, 1.57904010266065597534e-02) (53, -4.46387290954589843750e-01) (54, 9.00073945522308349609e-02) (55, 8.10753464698791503906e-01) (56, 1.63489565253257751465e-01) (57, 6.45493865013122558594e-01) (58, 5.71892037987709045410e-02) (59, 2.69173324108123779297e-01) (60, -4.12107378244400024414e-01) (61, 4.04535382986068725586e-01) (62, 4.75051403045654296875e-01) (63, -9.81728956103324890137e-02) (64, 1.23078025877475738525e-01) (65, 4.40619289875030517578e-01) (31, -8.23036611080169677734e-01) (32, -1.23702847957611083984e+00) (33, 7.80408084392547607422e-01) (34, -1.17616951465606689453e-01) (35, 3.52232009172439575195e-02) (36, -1.38547885417938232422e+00) (37, 4.62947309017181396484e-01) (38, 2.53974020481109619141e-01) (39, 1.31060212850570678711e-01) (40, 1.14582896232604980469e+00) (41, 1.72251188755035400391e+00) (42, 1.97456121444702148438e-01) (43, 1.51249364018440246582e-01) (44, -5.17586648464202880859e-01) (45, 1.39019399881362915039e-01) (46, -3.41794759035110473633e-01) (47, 2.75382071733474731445e-01) (48, 1.72559022903442382812e-01) (49, 1.81049883365631103516e+00) (50, 7.74575233459472656250e-01) (51, -8.65154027938842773438e-01) (52, 1.02748475968837738037e-01) (53, -7.27764889597892761230e-02) (54, 2.04483062028884887695e-01) (55, -6.46483957767486572266e-01) (56, 8.70134234428405761719e-02) (57, -3.08148503303527832031e+00) (58, 2.88412570953369140625e-01) (59, 2.65046477317810058594e+00) (60, 1.27927601337432861328e+00) (61, 3.03163051605224609375e-01) (62, -2.48723530769348144531e+00) (63, 5.52970886230468750000e+00) (64, 3.24133229255676269531e+00) (65, 2.45646476745605468750e-01) (31, 8.44490751624107360840e-02) (32, 5.01807868480682373047e-01) (33, -1.66986536979675292969e+00) (34, 5.45024275779724121094e-01) (35, -5.69244861602783203125e-01) (36, 5.75141012668609619141e-01) (37, 1.72767043113708496094e+00) (38, -1.70250218361616134644e-02) (39, -1.12983234226703643799e-01) (40, 1.69120311737060546875e-01) (41, 4.13520097732543945312e-01) (42, 2.46539935469627380371e-02) (43, 1.45467683672904968262e-01) (44, 1.48373678326606750488e-01) (45, 4.67237114906311035156e-01) (46, 4.10894542932510375977e-01) (47, 6.22561752796173095703e-01) (48, 4.67929691076278686523e-01) (49, -8.32001745700836181641e-01) (50, -1.90752465277910232544e-02) (51, 1.15341043472290039062e+00) (52, -7.52537101507186889648e-02) (53, -6.55512988567352294922e-01) (54, -1.11493498086929321289e-01) (55, -4.26162064075469970703e-01) (56, 3.30189037322998046875e+00) (57, -1.39586639124900102615e-03) (58, -1.07813909649848937988e-01) (59, -1.44237697124481201172e-01) (60, -2.31457996368408203125e+00) (61, 5.35543680191040039062e-01) (62, 1.48763060569763183594e+00) (63, 1.33921432495117187500e+00) (64, -6.77028238773345947266e-01) (65, 5.63382446765899658203e-01) (31, 3.56911182403564453125e-01) (32, 6.46832168102264404297e-01) (33, 2.57078498601913452148e-01) (34, 2.63484299182891845703e-01) (35, 3.92759740352630615234e-01) (36, 6.16097390651702880859e-01) (37, 1.99747905135154724121e-01) (38, -1.70711338520050048828e-01) (39, 2.58861482143402099609e-01) (40, 1.40563935041427612305e-01) (41, -1.88022121787071228027e-01) (42, 3.05233687162399291992e-01) (43, -2.63095825910568237305e-01) (44, 3.69581252336502075195e-01) (45, 3.40600818395614624023e-01) (46, -1.67498700320720672607e-02) (47, 2.75956273078918457031e-01) (48, 2.32163041830062866211e-01) (49, -9.79251042008399963379e-02) (50, 1.66048824787139892578e-01) (51, 5.82105636596679687500e+00) (52, 2.82887041568756103516e-01) (53, 6.96541166305541992188e+00) (54, 1.47334098815917968750e-01) (55, 2.48423647880554199219e+00) (56, -2.06128883361816406250e+00) (57, -6.06020450592041015625e-01) (58, -2.18836456537246704102e-01) (59, 6.73298761248588562012e-02) (60, -1.99051842093467712402e-01) (61, 1.74003809690475463867e-01) (62, 1.40332709997892379761e-02) (63, -1.48027572631835937500e+01) (64, -3.08261966705322265625e+00) (65, 2.97563880681991577148e-01) (31, 4.71061825752258300781e-01) (32, 4.09102529287338256836e-01) (33, -2.47334629297256469727e-01) (34, -3.52706730365753173828e-01) (35, -2.64596968889236450195e-01) (36, 3.62319201231002807617e-01) (37, 6.07991814613342285156e-01) (38, 6.34225904941558837891e-01) (39, 6.18431210517883300781e-01) (40, 1.79731905460357666016e-01) (41, 1.46076381206512451172e-01) (42, 5.52149116992950439453e-01) (43, 5.76495707035064697266e-01) (44, 3.82173269987106323242e-01) (45, -4.97189462184906005859e-02) (46, 5.31117737293243408203e-01) (47, 5.76808862388134002686e-03) (48, -1.10261730849742889404e-01) (49, 2.24441468715667724609e-01) (50, -2.89529025554656982422e-01) (51, -3.60716283321380615234e-01) (52, 6.56443297863006591797e-01) (53, -3.39340865612030029297e-01) (54, 4.24277305603027343750e-01) (55, 2.75762259960174560547e-01) (56, -3.24639141559600830078e-01) (57, 2.41940170526504516602e-01) (58, 5.80689191818237304688e-01) (59, 1.16862857341766357422e+00) (60, 1.52774542570114135742e-01) (61, -1.24328225851058959961e-01) (62, -1.00345708429813385010e-01) (63, -1.82753533124923706055e-01) (64, 4.06030505895614624023e-01) (65, -1.55612364411354064941e-01) (31, 4.99868571758270263672e-01) (32, 8.45446288585662841797e-01) (33, -4.85992878675460815430e-01) (34, -1.25488984584808349609e+00) (35, 1.22603438794612884521e-01) (36, 7.95166254043579101562e-01) (37, 4.46733474731445312500e-01) (38, 2.96749949455261230469e-01) (39, 2.50605165958404541016e-01) (40, 1.07810139656066894531e+00) (41, -3.06947380304336547852e-01) (42, 3.37810188531875610352e-01) (43, 2.87366390228271484375e-01) (44, 5.62260627746582031250e-01) (45, 7.02716931700706481934e-02) (46, 9.51357185840606689453e-01) (47, 1.05612605810165405273e-01) (48, 2.36946299672126770020e-01) (49, -1.39797106385231018066e-02) (50, -3.49730074405670166016e-01) (51, -1.90472304821014404297e-01) (52, 3.14274013042449951172e-01) (53, 1.44896745681762695312e+00) (54, -2.33154952526092529297e-01) (55, 3.73933672904968261719e-01) (56, 6.75215065479278564453e-01) (57, 3.37997525930404663086e-01) (58, 3.54978173971176147461e-01) (59, 1.52259063720703125000e+00) (60, -1.68152821063995361328e+00) (61, 2.16867685317993164062e-01) (62, 2.97065675258636474609e-01) (63, 1.74180924892425537109e+00) (64, 4.38332974910736083984e-01) (65, 2.39696711301803588867e-01) (31, 2.51343339681625366211e-01) (32, 2.00453415513038635254e-01) (33, 1.91521808505058288574e-01) (34, 1.47011756896972656250e-01) (35, -1.27079039812088012695e-01) (36, 1.58075034618377685547e-01) (37, 6.04799270629882812500e-01) (38, 2.05120906233787536621e-01) (39, 5.37077844142913818359e-01) (40, 4.77529108524322509766e-01) (41, -1.98503267765045166016e+00) (42, 4.80868935585021972656e-01) (43, 6.43598794937133789062e-01) (44, 4.50025677680969238281e-01) (45, -1.32213190197944641113e-01) (46, -1.16875573992729187012e-01) (47, -1.59183055162429809570e-01) (48, -6.46985322237014770508e-02) (49, 3.21041166782379150391e-01) (50, -2.24869817495346069336e-01) (51, -4.25413370132446289062e+00) (52, 5.06262421607971191406e-01) (53, -2.23840546607971191406e+00) (54, 4.65816378593444824219e-01) (55, 3.58220636844635009766e-01) (56, 6.03491425514221191406e-01) (57, -1.25672742724418640137e-01) (58, 5.77259778976440429688e-01) (59, 1.01932279765605926514e-01) (60, 2.33828544616699218750e-01) (61, -1.26888960599899291992e-01) (62, -4.41163592040538787842e-02) (63, 4.72143679857254028320e-01) (64, 5.90788602828979492188e-01) (65, -1.73393189907073974609e-01) (31, -4.96058255434036254883e-01) (32, -1.13412892818450927734e+00) (33, 1.12429225444793701172e+00) (34, 9.40674245357513427734e-02) (35, 4.78043884038925170898e-01) (36, -1.12674748897552490234e+00) (37, 4.02934491634368896484e-01) (38, 2.80586153268814086914e-01) (39, 2.22099050879478454590e-01) (40, 2.44723224639892578125e+00) (41, 2.67875385284423828125e+00) (42, 2.86532878875732421875e-01) (43, 2.96918720006942749023e-01) (44, -5.69800615310668945312e-01) (45, 2.15740963816642761230e-01) (46, 2.69440203905105590820e-01) (47, 3.08041751384735107422e-01) (48, 2.37895682454109191895e-01) (49, 1.89348709583282470703e+00) (50, 3.70793603360652923584e-02) (51, -6.74720573425292968750e+00) (52, 1.63368389010429382324e-01) (53, -4.20441389083862304688e+00) (54, 2.68702358007431030273e-01) (55, -2.01459497213363647461e-01) (56, 1.62705671787261962891e+00) (57, -1.17090559005737304688e+00) (58, 3.45625817775726318359e-01) (59, 3.36952388286590576172e-01) (60, 1.83331239223480224609e+00) (61, 1.44144877791404724121e-01) (62, -1.33317685127258300781e+00) (63, 1.29059469699859619141e+00) (64, 1.81868124008178710938e+00) (65, 1.84041365981101989746e-01) (31, -3.14008027315139770508e-01) (32, 4.81959283351898193359e-01) (33, -1.67462909221649169922e+00) (34, 6.12977504730224609375e-01) (35, 6.91060423851013183594e-01) (36, 5.06861805915832519531e-01) (37, -1.72417610883712768555e-01) (38, -1.42837807536125183105e-01) (39, -1.17726214230060577393e-01) (40, 3.43921035528182983398e-01) (41, 4.65066850185394287109e-01) (42, -6.67044222354888916016e-02) (43, -7.21985772252082824707e-02) (44, 1.90577596426010131836e-01) (45, 5.94465672969818115234e-01) (46, 5.40891528129577636719e-01) (47, 5.67730486392974853516e-01) (48, 5.90711593627929687500e-01) (49, 3.76424826681613922119e-02) (50, 6.01539373397827148438e-01) (51, -1.56491460800170898438e+01) (52, -1.31932601332664489746e-01) (53, -5.60169667005538940430e-02) (54, 7.07859778776764869690e-03) (55, -1.82178986072540283203e+00) (56, -1.15255367755889892578e+00) (57, -3.78391057252883911133e-01) (58, -1.69220745563507080078e-01) (59, 3.87275069952011108398e-01) (60, -5.51004335284233093262e-02) (61, 4.71299737691879272461e-01) (62, 6.40356481075286865234e-01) (63, -2.75755405426025390625e-01) (64, 8.30868339538574218750e+00) (65, 6.06668889522552490234e-01) (31, 2.78213977813720703125e-01) (32, 1.36319234967231750488e-01) (33, 1.64226610213518142700e-02) (34, 2.71890193223953247070e-01) (35, -1.52119308710098266602e-01) (36, 2.12978869676589965820e-01) (37, 6.77585780620574951172e-01) (38, 4.71474528312683105469e-01) (39, 4.76645857095718383789e-01) (40, 2.09684938192367553711e-01) (41, -2.12213173508644104004e-02) (42, 5.83075284957885742188e-01) (43, 5.13939738273620605469e-01) (44, 3.36635857820510864258e-01) (45, -1.56998440623283386230e-01) (46, 5.91495156288146972656e-01) (47, -1.62021785974502563477e-01) (48, -1.06134034693241119385e-01) (49, 3.48841547966003417969e-01) (50, -1.55868427827954292297e-02) (51, -1.35199457406997680664e-01) (52, 4.54937636852264404297e-01) (53, -2.58439928293228149414e-01) (54, 4.64295238256454467773e-01) (55, 5.09838521480560302734e-01) (56, -1.64884412288665771484e+00) (57, 4.20656681060791015625e-01) (58, 4.83063638210296630859e-01) (59, 2.33952119946479797363e-01) (60, 2.24964290857315063477e-01) (61, -3.98695282638072967529e-03) (62, -1.52035936713218688965e-01) (63, 9.77830946445465087891e-01) (64, 6.39404952526092529297e-01) (65, -1.34651944041252136230e-01) (66, -5.12090873718261718750e+00) (67, -2.12529197335243225098e-01) (68, 2.57251918315887451172e-01) (69, 2.33959108591079711914e-01) (70, 8.35693955421447753906e-01) (71, 2.10722044110298156738e-01) (72, -1.21051669120788574219e+00) (73, -1.94719672203063964844e-01) (74, 2.50602453947067260742e-01) (75, 1.81251630187034606934e-01) (76, 2.98094421625137329102e-01) (77, 2.57954835891723632812e-01) (78, 2.90457516908645629883e-01) (79, 8.31635177135467529297e-01) (80, 1.32043588161468505859e+00) (81, 2.19731613993644714355e-01) (82, 8.87442231178283691406e-01) (83, 5.22447824478149414062e-01) (84, 1.84530243277549743652e-01) (85, 2.21071496605873107910e-01) (86, 2.29035586118698120117e-01) (87, 7.48964071273803710938e-01) (88, 2.80601143836975097656e-01) (89, 1.45831927657127380371e-01) (90, 5.88433086872100830078e-01) (91, 7.26963639259338378906e-01) (92, 2.20245704054832458496e-01) (93, 8.89060348272323608398e-02) (94, 8.12526345252990722656e-01) (95, 2.22193285822868347168e-01) (96, -1.46426832675933837891e+00) (97, 5.11331379413604736328e-01) (98, 1.57223656773567199707e-01) (99, -4.79938364028930664062e+00) (100, 3.49600732326507568359e-01) (101, 1.55967664718627929688e+00) (102, 1.50085413455963134766e+00) (103, 8.50184857845306396484e-01) (104, 5.81865608692169189453e-01) (105, 3.11018973588943481445e-01) (106, -2.64991998672485351562e-01) (66, 6.43136382102966308594e-01) (67, 1.35472953319549560547e-01) (68, 9.45082545280456542969e-01) (69, 5.15326149761676788330e-02) (70, -8.52663040161132812500e-01) (71, 1.00870215892791748047e+00) (72, 9.19155955314636230469e-01) (73, 2.30347454547882080078e-01) (74, 8.79115462303161621094e-01) (75, 9.05131518840789794922e-01) (76, -1.19992040097713470459e-01) (77, 5.96083045005798339844e-01) (78, 1.00532984733581542969e+00) (79, 1.24126404523849487305e-01) (80, 6.16931319236755371094e-01) (81, -8.65748524665832519531e-02) (82, 3.47607254981994628906e-01) (83, -3.73941332101821899414e-01) (84, 1.64600029587745666504e-01) (85, -4.17819797992706298828e-01) (86, -1.12037360668182373047e-01) (87, 2.14869081974029541016e-01) (88, 5.51036417484283447266e-01) (89, 9.83994424343109130859e-01) (90, 3.36196944117546081543e-02) (91, 1.43282282352447509766e+00) (92, -2.43067834526300430298e-02) (93, 6.15163564682006835938e-01) (94, 3.56563830375671386719e+00) (95, 5.08509814739227294922e-01) (96, 6.29520950317382812500e+01) (97, -2.79439598321914672852e-01) (98, 5.82124471664428710938e-01) (99, 1.24362039566040039062e+00) (100, -1.39185667037963867188e-01) (101, 1.39917397499084472656e+00) (102, -6.93394899368286132812e-01) (103, 9.95056331157684326172e-02) (104, 5.25686264038085937500e-01) (105, -5.42475618422031402588e-02) (106, 4.56542558968067169189e-02) (66, -4.94037568569183349609e-02) (67, 2.11621820926666259766e-01) (68, -3.01791697740554809570e-01) (69, 5.13000667095184326172e-01) (70, 2.11899936199188232422e-01) (71, -4.08379018306732177734e-01) (72, 1.29687917232513427734e+00) (73, 2.32691779732704162598e-01) (74, -3.26593846082687377930e-01) (75, -3.24597805738449096680e-01) (76, 5.96602380275726318359e-01) (77, -9.48065966367721557617e-02) (78, -2.50034779310226440430e-01) (79, 8.53065907955169677734e-01) (80, 4.41948890686035156250e-01) (81, 6.21762692928314208984e-01) (82, 2.30432838201522827148e-01) (83, 1.00165057182312011719e+00) (84, 3.05196136236190795898e-01) (85, 8.54974210262298583984e-01) (86, 6.59314453601837158203e-01) (87, 7.97877669334411621094e-01) (88, -9.23168733716011047363e-02) (89, -3.70984643697738647461e-01) (90, 6.74589693546295166016e-01) (91, 3.72741706669330596924e-02) (92, 6.17499887943267822266e-01) (93, -6.05567216873168945312e-01) (94, 2.85675227642059326172e-01) (95, -1.90522879362106323242e-01) (96, 1.39055359363555908203e+00) (97, 5.88124990463256835938e-01) (98, -3.84142667055130004883e-01) (99, -1.76194846630096435547e-01) (100, 6.73292160034179687500e-01) (101, -9.16108429431915283203e-01) (102, 6.29832386970520019531e-01) (103, 3.75469893217086791992e-01) (104, -4.59676086902618408203e-01) (105, 5.41383922100067138672e-01) (106, 3.33014160394668579102e-01) (66, 6.18287920951843261719e-01) (67, 3.30329567193984985352e-01) (68, 8.50889742374420166016e-01) (69, -2.54819244146347045898e-01) (70, 7.34042704105377197266e-01) (71, 7.87759184837341308594e-01) (72, -2.85674214363098144531e-01) (73, 1.92525997757911682129e-01) (74, 7.42865920066833496094e-01) (75, 9.17431041598320007324e-02) (76, -2.91090220212936401367e-01) (77, 7.77282595634460449219e-01) (78, 7.18435525894165039062e-01) (79, 3.18217515945434570312e-01) (80, 7.53769099712371826172e-01) (81, -1.83022022247314453125e-01) (82, 8.20517763495445251465e-02) (83, -2.94603168964385986328e-01) (84, -2.58284538984298706055e-01) (85, -3.06498229503631591797e-01) (86, -1.18979103863239288330e-01) (87, 2.74052619934082031250e-01) (88, 6.81271970272064208984e-01) (89, 7.58964419364929199219e-01) (90, -2.89009004831314086914e-01) (91, 7.31291890144348144531e-01) (92, -1.53513222932815551758e-01) (93, 6.48078262805938720703e-01) (94, 3.73593389987945556641e-01) (95, 7.69084990024566650391e-01) (96, 4.85189288854598999023e-01) (97, -1.06943622231483459473e-02) (98, 7.21957325935363769531e-01) (99, 5.15080451965332031250e-01) (100, -1.06581091880798339844e-01) (101, 7.95770525932312011719e-01) (102, -2.44871884584426879883e-01) (103, 3.66283833980560302734e-01) (104, 6.97281479835510253906e-01) (105, -1.94159343838691711426e-01) (106, 1.67832106351852416992e-01) (66, 2.28361673653125762939e-02) (67, 1.45721301436424255371e-01) (68, -1.91275238990783691406e-01) (69, 6.23754143714904785156e-01) (70, 2.16487273573875427246e-01) (71, -7.89602920413017272949e-02) (72, 1.61227595806121826172e+00) (73, 1.56014859676361083984e-01) (74, -1.67846679687500000000e-01) (75, 2.73827403783798217773e-01) (76, 6.99264049530029296875e-01) (77, -1.82011082768440246582e-01) (78, -2.01656088232994079590e-01) (79, 7.62479126453399658203e-01) (80, -2.55327254533767700195e-01) (81, 6.23620092868804931641e-01) (82, 1.93360403180122375488e-01) (83, 8.16406011581420898438e-01) (84, 7.73393213748931884766e-01) (85, 7.02871143817901611328e-01) (86, 6.37465476989746093750e-01) (87, 9.55021560192108154297e-01) (88, -1.76333457231521606445e-01) (89, -2.32226938009262084961e-01) (90, 7.73214280605316162109e-01) (91, 8.77656698226928710938e-01) (92, 6.72442197799682617188e-01) (93, -5.61223566532135009766e-01) (94, -2.97364056110382080078e-01) (95, -6.27801343798637390137e-02) (96, -2.77189350128173828125e+00) (97, 9.49584186077117919922e-01) (98, 7.78430998325347900391e-02) (99, 3.21904093027114868164e-01) (100, 7.51680493354797363281e-01) (101, -4.65704537928104400635e-02) (102, 6.91832065582275390625e-01) (103, 7.24489927291870117188e-01) (104, -2.28400155901908874512e-01) (105, 7.60189354419708251953e-01) (106, 1.55707940459251403809e-01) (66, -2.69175112247467041016e-01) (67, 2.72893667221069335938e-01) (68, -3.27429980039596557617e-01) (69, 5.83259224891662597656e-01) (70, -1.47907286882400512695e-01) (71, -3.09389829635620117188e-01) (72, 1.34673702716827392578e+00) (73, 1.97562709450721740723e-01) (74, -4.22095417976379394531e-01) (75, -3.26967984437942504883e-01) (76, 4.80170816183090209961e-01) (77, -1.19644701480865478516e-02) (78, -3.77170145511627197266e-01) (79, 9.92694437503814697266e-01) (80, 3.48677247762680053711e-01) (81, 5.32872855663299560547e-01) (82, 1.57976090908050537109e-01) (83, 9.21205520629882812500e-01) (84, -4.07704412937164306641e-01) (85, 9.73200857639312744141e-01) (86, 5.76953053474426269531e-01) (87, 1.52827358245849609375e+00) (88, -2.51196384429931640625e-01) (89, -4.24533069133758544922e-01) (90, 5.40374755859375000000e-01) (91, 2.88874983787536621094e-01) (92, 6.03434681892395019531e-01) (93, -2.05455899238586425781e-01) (94, 5.47199487686157226562e-01) (95, -6.49179965257644653320e-02) (96, 1.46052932739257812500e+00) (97, 5.75536191463470458984e-01) (98, -9.12950515747070312500e-01) (99, -1.77853479981422424316e-01) (100, 5.93009471893310546875e-01) (101, -1.59349584579467773438e+00) (102, 5.57779610157012939453e-01) (103, 4.53709840774536132812e-01) (104, -2.55951792001724243164e-01) (105, 6.27010405063629150391e-01) (106, 3.51937204599380493164e-01) (66, 2.17506229877471923828e-01) (67, 2.27570503950119018555e-01) (68, 1.89793422818183898926e-01) (69, 2.53545343875885009766e-01) (70, 4.43948328495025634766e-01) (71, 2.91964650154113769531e-01) (72, 1.89202800393104553223e-01) (73, 8.44809472560882568359e-01) (74, 3.26386451721191406250e-01) (75, -1.68266505002975463867e-01) (76, 2.07110613584518432617e-01) (77, 3.09836059808731079102e-01) (78, 2.13873356580734252930e-01) (79, 2.60746955871582031250e-01) (80, 1.36909052729606628418e-01) (81, 2.90982931852340698242e-01) (82, -2.21465721726417541504e-01) (83, 1.68457716703414916992e-01) (84, 8.15992712974548339844e-01) (85, 1.49642646312713623047e-01) (86, 3.09836149215698242188e-01) (87, -2.42092296481132507324e-01) (88, 3.33631962537765502930e-01) (89, 2.50439673662185668945e-01) (90, 2.71807968616485595703e-01) (91, 4.42592829465866088867e-01) (92, 1.07548542320728302002e-01) (93, 3.06704103946685791016e-01) (94, 4.07494515180587768555e-01) (95, 4.68593329191207885742e-01) (96, -2.83148288726806640625e-01) (97, 1.15727372467517852783e-01) (98, 2.22136437892913818359e-01) (99, 6.03862166404724121094e-01) (100, 1.07649542391300201416e-01) (101, 1.90735414624214172363e-01) (102, 1.64244666695594787598e-01) (103, -4.41123060882091522217e-02) (104, 2.04321011900901794434e-01) (105, 1.33795514702796936035e-01) (106, 7.98956990242004394531e-01) (66, 1.23435251414775848389e-01) (67, -1.64557188749313354492e-01) (68, 7.93423280119895935059e-02) (69, 2.65220642089843750000e-01) (70, 1.13148801028728485107e-01) (71, 2.95403271913528442383e-01) (72, 