FANN_FLO_2.1
num_layers=5
learning_rate=0.700000
connection_rate=1.000000
network_type=0
learning_momentum=0.000000
training_algorithm=2
train_error_function=1
train_stop_function=0
cascade_output_change_fraction=0.010000
quickprop_decay=-0.000100
quickprop_mu=1.750000
rprop_increase_factor=1.200000
rprop_decrease_factor=0.500000
rprop_delta_min=0.000000
rprop_delta_max=50.000000
rprop_delta_zero=0.100000
cascade_output_stagnation_epochs=12
cascade_candidate_change_fraction=0.010000
cascade_candidate_stagnation_epochs=12
cascade_max_out_epochs=150
cascade_min_out_epochs=50
cascade_max_cand_epochs=150
cascade_min_cand_epochs=50
cascade_num_candidate_groups=2
bit_fail_limit=3.49999994039535522461e-01
cascade_candidate_limit=1.00000000000000000000e+03
cascade_weight_multiplier=4.00000005960464477539e-01
cascade_activation_functions_count=10
cascade_activation_functions=3 5 7 8 10 11 14 15 16 17 
cascade_activation_steepnesses_count=4
cascade_activation_steepnesses=2.50000000000000000000e-01 5.00000000000000000000e-01 7.50000000000000000000e-01 1.00000000000000000000e+00 
layer_sizes=31 35 41 48 55 
scale_included=0
neurons (num_inputs, activation_function, activation_steepness)=(0, 0, 0.00000000000000000000e+00) (0, 0, 0.00000000000000000000e+00) (0, 0, 0.00000000000000000000e+00) (0, 0, 0.00000000000000000000e+00) (0, 0, 0.00000000000000000000e+00) (0, 0, 0.00000000000000000000e+00) (0, 0, 0.00000000000000000000e+00) (0, 0, 0.00000000000000000000e+00) (0, 0, 0.00000000000000000000e+00) (0, 0, 0.00000000000000000000e+00) (0, 0, 0.00000000000000000000e+00) (0, 0, 0.00000000000000000000e+00) (0, 0, 0.00000000000000000000e+00) (0, 0, 0.00000000000000000000e+00) (0, 0, 0.00000000000000000000e+00) (0, 0, 0.00000000000000000000e+00) (0, 0, 0.00000000000000000000e+00) (0, 0, 0.00000000000000000000e+00) (0, 0, 0.00000000000000000000e+00) (0, 0, 0.00000000000000000000e+00) (0, 0, 0.00000000000000000000e+00) (0, 0, 0.00000000000000000000e+00) (0, 0, 0.00000000000000000000e+00) (0, 0, 0.00000000000000000000e+00) (0, 0, 0.00000000000000000000e+00) (0, 0, 0.00000000000000000000e+00) (0, 0, 0.00000000000000000000e+00) (0, 0, 0.00000000000000000000e+00) (0, 0, 0.00000000000000000000e+00) (0, 0, 0.00000000000000000000e+00) (0, 0, 0.00000000000000000000e+00) (31, 5, 5.00000000000000000000e-01) (31, 5, 5.00000000000000000000e-01) (31, 5, 5.00000000000000000000e-01) (31, 5, 5.00000000000000000000e-01) (31, 5, 5.00000000000000000000e-01) (31, 5, 5.00000000000000000000e-01) (31, 5, 5.00000000000000000000e-01) (31, 5, 5.00000000000000000000e-01) (31, 5, 5.00000000000000000000e-01) (31, 5, 5.00000000000000000000e-01) (31, 5, 5.00000000000000000000e-01) (31, 5, 5.00000000000000000000e-01) (31, 5, 5.00000000000000000000e-01) (31, 5, 5.00000000000000000000e-01) (31, 5, 5.00000000000000000000e-01) (31, 5, 5.00000000000000000000e-01) (31, 5, 5.00000000000000000000e-01) (31, 5, 5.00000000000000000000e-01) (31, 5, 5.00000000000000000000e-01) (31, 5, 5.00000000000000000000e-01) (31, 5, 5.00000000000000000000e-01) (31, 5, 5.00000000000000000000e-01) (31, 5, 5.00000000000000000000e-01) (31, 5, 5.00000000000000000000e-01) (31, 5, 5.00000000000000000000e-01) (31, 5, 5.00000000000000000000e-01) (31, 5, 5.00000000000000000000e-01) (31, 5, 5.00000000000000000000e-01) (31, 5, 5.00000000000000000000e-01) (31, 5, 5.00000000000000000000e-01) (31, 5, 5.00000000000000000000e-01) (31, 5, 5.00000000000000000000e-01) (31, 5, 5.00000000000000000000e-01) (31, 5, 5.00000000000000000000e-01) (0, 5, 0.00000000000000000000e+00) (35, 5, 5.00000000000000000000e-01) (35, 5, 5.00000000000000000000e-01) (35, 5, 5.00000000000000000000e-01) (35, 5, 5.00000000000000000000e-01) (35, 5, 5.00000000000000000000e-01) (35, 5, 5.00000000000000000000e-01) (35, 5, 5.00000000000000000000e-01) (35, 5, 5.00000000000000000000e-01) (35, 5, 5.00000000000000000000e-01) (35, 5, 5.00000000000000000000e-01) (35, 5, 5.00000000000000000000e-01) (35, 5, 5.00000000000000000000e-01) (35, 5, 5.00000000000000000000e-01) (35, 5, 5.00000000000000000000e-01) (35, 5, 5.00000000000000000000e-01) (35, 5, 5.00000000000000000000e-01) (35, 5, 5.00000000000000000000e-01) (35, 5, 5.00000000000000000000e-01) (35, 5, 5.00000000000000000000e-01) (35, 5, 5.00000000000000000000e-01) (35, 5, 5.00000000000000000000e-01) (35, 5, 5.00000000000000000000e-01) (35, 5, 5.00000000000000000000e-01) (35, 5, 5.00000000000000000000e-01) (35, 5, 5.00000000000000000000e-01) (35, 5, 5.00000000000000000000e-01) (35, 5, 5.00000000000000000000e-01) (35, 5, 5.00000000000000000000e-01) (35, 5, 5.00000000000000000000e-01) (35, 5, 5.00000000000000000000e-01) (35, 5, 5.00000000000000000000e-01) (35, 5, 5.00000000000000000000e-01) (35, 5, 5.00000000000000000000e-01) (35, 5, 5.00000000000000000000e-01) (35, 5, 5.00000000000000000000e-01) (35, 5, 5.00000000000000000000e-01) (35, 5, 5.00000000000000000000e-01) (35, 5, 5.00000000000000000000e-01) (35, 5, 5.00000000000000000000e-01) (35, 5, 5.00000000000000000000e-01) (0, 5, 0.00000000000000000000e+00) (41, 5, 5.00000000000000000000e-01) (41, 5, 5.00000000000000000000e-01) (41, 5, 5.00000000000000000000e-01) (41, 5, 5.00000000000000000000e-01) (41, 5, 5.00000000000000000000e-01) (41, 5, 5.00000000000000000000e-01) (41, 5, 5.00000000000000000000e-01) (41, 5, 5.00000000000000000000e-01) (41, 5, 5.00000000000000000000e-01) (41, 5, 5.00000000000000000000e-01) (41, 5, 5.00000000000000000000e-01) (41, 5, 5.00000000000000000000e-01) (41, 5, 5.00000000000000000000e-01) (41, 5, 5.00000000000000000000e-01) (41, 5, 5.00000000000000000000e-01) (41, 5, 5.00000000000000000000e-01) (41, 5, 5.00000000000000000000e-01) (41, 5, 5.00000000000000000000e-01) (41, 5, 5.00000000000000000000e-01) (41, 5, 5.00000000000000000000e-01) (41, 5, 5.00000000000000000000e-01) (41, 5, 5.00000000000000000000e-01) (41, 5, 5.00000000000000000000e-01) (41, 5, 5.00000000000000000000e-01) (41, 5, 5.00000000000000000000e-01) (41, 5, 5.00000000000000000000e-01) (41, 5, 5.00000000000000000000e-01) (41, 5, 5.00000000000000000000e-01) (41, 5, 5.00000000000000000000e-01) (41, 5, 5.00000000000000000000e-01) (41, 5, 5.00000000000000000000e-01) (41, 5, 5.00000000000000000000e-01) (41, 5, 5.00000000000000000000e-01) (41, 5, 5.00000000000000000000e-01) (41, 5, 5.00000000000000000000e-01) (41, 5, 5.00000000000000000000e-01) (41, 5, 5.00000000000000000000e-01) (41, 5, 5.00000000000000000000e-01) (41, 5, 5.00000000000000000000e-01) (41, 5, 5.00000000000000000000e-01) (41, 5, 5.00000000000000000000e-01) (41, 5, 5.00000000000000000000e-01) (41, 5, 5.00000000000000000000e-01) (41, 5, 5.00000000000000000000e-01) (41, 5, 5.00000000000000000000e-01) (41, 5, 5.00000000000000000000e-01) (41, 5, 5.00000000000000000000e-01) (0, 5, 0.00000000000000000000e+00) (48, 5, 2.39999994635581970215e-01) (48, 5, 2.39999994635581970215e-01) (48, 5, 2.39999994635581970215e-01) (48, 5, 2.39999994635581970215e-01) (48, 5, 2.39999994635581970215e-01) (48, 5, 2.39999994635581970215e-01) (48, 5, 2.39999994635581970215e-01) (48, 5, 2.39999994635581970215e-01) (48, 5, 2.39999994635581970215e-01) (48, 5, 2.39999994635581970215e-01) (48, 5, 2.39999994635581970215e-01) (48, 5, 2.39999994635581970215e-01) (48, 5, 2.39999994635581970215e-01) (48, 5, 2.39999994635581970215e-01) (48, 5, 2.39999994635581970215e-01) (48, 5, 2.39999994635581970215e-01) (48, 5, 2.39999994635581970215e-01) (48, 5, 2.39999994635581970215e-01) (48, 5, 2.39999994635581970215e-01) (48, 5, 2.39999994635581970215e-01) (48, 5, 2.39999994635581970215e-01) (48, 5, 2.39999994635581970215e-01) (48, 5, 2.39999994635581970215e-01) (48, 5, 2.39999994635581970215e-01) (48, 5, 2.39999994635581970215e-01) (48, 5, 2.39999994635581970215e-01) (48, 5, 2.39999994635581970215e-01) (48, 5, 2.39999994635581970215e-01) (48, 5, 2.39999994635581970215e-01) (48, 5, 2.39999994635581970215e-01) (48, 5, 2.39999994635581970215e-01) (48, 5, 2.39999994635581970215e-01) (48, 5, 2.39999994635581970215e-01) (48, 5, 2.39999994635581970215e-01) (48, 5, 2.39999994635581970215e-01) (48, 5, 2.39999994635581970215e-01) (48, 5, 2.39999994635581970215e-01) (48, 5, 2.39999994635581970215e-01) (48, 5, 2.39999994635581970215e-01) (48, 5, 2.39999994635581970215e-01) (48, 5, 2.39999994635581970215e-01) (48, 5, 2.39999994635581970215e-01) (48, 5, 2.39999994635581970215e-01) (48, 5, 2.39999994635581970215e-01) (48, 5, 2.39999994635581970215e-01) (48, 5, 2.39999994635581970215e-01) (48, 5, 2.39999994635581970215e-01) (48, 5, 2.39999994635581970215e-01) (48, 5, 2.39999994635581970215e-01) (48, 5, 2.39999994635581970215e-01) (48, 5, 2.39999994635581970215e-01) (48, 5, 2.39999994635581970215e-01) (48, 5, 2.39999994635581970215e-01) (48, 5, 2.39999994635581970215e-01) (0, 5, 2.39999994635581970215e-01) 
connections (connected_to_neuron, weight)=(0, -1.47335723042488098145e-01) (1, -1.29598990082740783691e-01) (2, -1.01674543693661689758e-02) (3, 5.68163432180881500244e-02) (4, 1.32675111293792724609e-01) (5, 1.74834609031677246094e-01) (6, -5.84355145692825317383e-02) (7, -4.20197751373052597046e-03) (8, -8.06816071271896362305e-02) (9, -2.52156145870685577393e-02) (10, -1.53178274631500244141e-01) (11, 2.83175949007272720337e-02) (12, -1.54412567615509033203e-01) (13, 2.08212390542030334473e-01) (14, 7.18449771404266357422e-01) (15, 1.13193416595458984375e+00) (16, 1.57856845855712890625e+00) (17, 2.74628460407257080078e-01) (18, -2.86491185426712036133e-01) (19, -1.78319796919822692871e-01) (20, -3.26941996812820434570e-01) (21, 5.27644991874694824219e-01) (22, 5.48192918300628662109e-01) (23, 6.39158904552459716797e-01) (24, 4.90286260843276977539e-01) (25, 5.72157382965087890625e-01) (26, -1.34819912910461425781e+00) (27, 5.90725541114807128906e-01) (28, 4.97966170310974121094e-01) (29, 2.73012131452560424805e-01) (30, 6.17928862571716308594e-01) (0, 5.15332698822021484375e-01) (1, 6.55069231986999511719e-01) (2, 5.68545758724212646484e-01) (3, 9.85872089862823486328e-01) (4, 1.13439464569091796875e+00) (5, 1.07903778553009033203e+00) (6, 5.12002348899841308594e-01) (7, 5.77737927436828613281e-01) (8, 9.14130508899688720703e-01) (9, 1.00785267353057861328e+00) (10, 5.29557406902313232422e-01) (11, 9.49328958988189697266e-01) (12, 4.57300335168838500977e-01) (13, 6.14809513092041015625e-01) (14, 4.53896135091781616211e-01) (15, 5.39191770553588867188e+00) (16, 8.45139205455780029297e-01) (17, -8.26194602996110916138e-03) (18, 4.06777083873748779297e-01) (19, 1.03845261037349700928e-01) (20, 1.06213891506195068359e+00) (21, -5.16486823558807373047e-01) (22, -1.43998771905899047852e-01) (23, 1.46068349480628967285e-01) (24, -1.86538115143775939941e-01) (25, -2.23774909973144531250e-01) (26, -1.02130949497222900391e-01) (27, -2.35709071159362792969e-01) (28, -1.64524778723716735840e-01) (29, -8.08593407273292541504e-02) (30, -4.76101338863372802734e-02) (0, 2.94538170099258422852e-01) (1, 2.89036571979522705078e-01) (2, 2.54404038190841674805e-01) (3, 2.19295665621757507324e-01) (4, 1.90713614225387573242e-01) (5, 3.15947502851486206055e-01) (6, 2.65054374933242797852e-01) (7, 3.02612036466598510742e-01) (8, 2.45795071125030517578e-01) (9, 1.98787793517112731934e-01) (10, 1.85302242636680603027e-01) (11, 3.50786387920379638672e-01) (12, 2.08126187324523925781e-01) (13, 2.23153933882713317871e-01) (14, 4.04658824205398559570e-01) (15, 4.10899543762207031250e+00) (16, 5.20632648468017578125e+00) (17, 1.27894133329391479492e-01) (18, 1.54206976294517517090e-01) (19, 3.06816577911376953125e+00) (20, 2.89455699920654296875e+00) (21, 4.83146831393241882324e-02) (22, 1.68927386403083801270e-01) (23, 6.76276743412017822266e-01) (24, 1.12517155706882476807e-01) (25, 1.43441542983055114746e-01) (26, -5.31217530369758605957e-02) (27, 1.26111835241317749023e-01) (28, 3.06565016508102416992e-02) (29, 2.71328985691070556641e-01) (30, 1.21331296861171722412e-01) (0, 3.13445813953876495361e-02) (1, 1.40942066907882690430e-01) (2, 6.11756704747676849365e-02) (3, 3.10743078589439392090e-02) (4, 1.84532821178436279297e-01) (5, 2.41958424448966979980e-01) (6, -3.29502433538436889648e-01) (7, 9.24247279763221740723e-02) (8, 2.39098340272903442383e-01) (9, -5.97675815224647521973e-02) (10, -5.19313886761665344238e-02) (11, 4.28356349468231201172e-01) (12, -1.17188272997736930847e-03) (13, -2.93083786964416503906e-01) (14, -2.85592675209045410156e-01) (15, 1.02553975582122802734e+00) (16, -3.97492742538452148438e+00) (17, -1.76559150218963623047e+00) (18, -3.00888657569885253906e+00) (19, 1.73527732491493225098e-01) (20, 2.79069483280181884766e-01) (21, 1.14161342382431030273e-01) (22, -1.37872219085693359375e-01) (23, 1.06606590747833251953e+00) (24, 3.61942201852798461914e-01) (25, 3.31660866737365722656e-01) (26, 2.89057612419128417969e-01) (27, 2.88697659969329833984e-01) (28, 1.73272594809532165527e-01) (29, 3.12177449464797973633e-01) (30, 2.31494545936584472656e-01) (0, 4.24039542675018310547e-01) (1, 4.45533275604248046875e-01) (2, 4.50351446866989135742e-01) (3, 9.54638481140136718750e-01) (4, 8.84581565856933593750e-01) (5, 9.60686028003692626953e-01) (6, 4.41374152898788452148e-01) (7, 6.08056187629699707031e-01) (8, 1.06282949447631835938e-01) (9, 7.91310548782348632812e-01) (10, -7.29221776127815246582e-02) (11, 5.50793766975402832031e-01) (12, 4.61003333330154418945e-01) (13, 4.96411323547363281250e-02) (14, 1.77459940314292907715e-01) (15, 4.58149147033691406250e+00) (16, 2.20142990350723266602e-01) (17, -1.25318050384521484375e-01) (18, -2.06866836547851562500e+00) (19, 6.10023289918899536133e-02) (20, 6.83743536472320556641e-01) (21, -4.39316719770431518555e-01) (22, -1.69989600777626037598e-01) (23, 2.11401060223579406738e-01) (24, -1.75079226493835449219e-01) (25, -1.88882157206535339355e-01) (26, -3.36520254611968994141e-01) (27, -3.25465947389602661133e-02) (28, -9.65873077511787414551e-02) (29, 3.60825419425964355469e-01) (30, -1.63156032562255859375e-01) (0, 2.84925848245620727539e-01) (1, 2.15293765068054199219e-01) (2, 1.98002621531486511230e-01) (3, 2.18261092901229858398e-01) (4, 4.08985882997512817383e-01) (5, 2.05798104405403137207e-01) (6, 1.13989271223545074463e-01) (7, 1.30148246884346008301e-01) (8, 1.01344890892505645752e-01) (9, 1.48347645998001098633e-01) (10, 3.21254223585128784180e-01) (11, 1.30393296480178833008e-01) (12, 2.65083163976669311523e-01) (13, 3.19838792085647583008e-01) (14, 3.79883557558059692383e-01) (15, 1.34966731071472167969e+00) (16, 3.42601895332336425781e+00) (17, -3.36059987545013427734e-01) (18, -3.22546094655990600586e-01) (19, 3.86323899030685424805e-01) (20, -1.19974002838134765625e+01) (21, 1.88599135726690292358e-02) (22, 1.43324539065361022949e-01) (23, 1.36564242839813232422e+00) (24, 1.43811330199241638184e-01) (25, 2.07977667450904846191e-01) (26, 8.38965028524398803711e-02) (27, 1.39194175601005554199e-01) (28, 1.55417189002037048340e-01) (29, 9.98802855610847473145e-02) (30, 2.07283467054367065430e-01) (0, 6.90430283546447753906e-01) (1, 2.23575651645660400391e-01) (2, 2.23291702568531036377e-02) (3, 1.16286002099514007568e-01) (4, 8.59405845403671264648e-02) (5, 1.23480539768934249878e-02) (6, 1.55702665448188781738e-01) (7, -6.25247508287429809570e-03) (8, 3.68803814053535461426e-02) (9, 2.74719744920730590820e-02) (10, -5.58658428490161895752e-02) (11, 1.63285210728645324707e-02) (12, 7.52094164490699768066e-02) (13, 2.13591575622558593750e-01) (14, -1.67216226458549499512e-01) (15, 5.49433946609497070312e+00) (16, -3.84820199012756347656e+00) (17, -4.88258749246597290039e-01) (18, 1.33813409805297851562e+01) (19, -1.05548834800720214844e+00) (20, 2.40880623459815979004e-01) (21, 1.93247109651565551758e-01) (22, -1.34052500128746032715e-01) (23, 1.25870954990386962891e+00) (24, 2.96588093042373657227e-01) (25, 4.72960144281387329102e-01) (26, 4.14759755134582519531e-01) (27, 3.22720766067504882812e-01) (28, 4.48115050792694091797e-01) (29, 3.39978158473968505859e-01) (30, 3.84146660566329956055e-01) (0, 6.20335161685943603516e-01) (1, 5.78567147254943847656e-01) (2, 5.90269923210144042969e-01) (3, 7.95859396457672119141e-01) (4, 8.95894289016723632812e-01) (5, 9.07662034034729003906e-01) (6, 6.15448415279388427734e-01) (7, 5.69969236850738525391e-01) (8, 7.52783715724945068359e-01) (9, 7.86354005336761474609e-01) (10, 5.68171262741088867188e-01) (11, 9.71148550510406494141e-01) (12, 4.75837826728820800781e-01) (13, 6.15336477756500244141e-01) (14, 1.13059735298156738281e+00) (15, 5.50820112228393554688e+00) (16, 2.68290948867797851562e+00) (17, 4.76586520671844482422e-01) (18, -3.22038918733596801758e-01) (19, 1.42098814249038696289e-01) (20, 3.14803290367126464844e+00) (21, -4.65458720922470092773e-01) (22, -1.51614397764205932617e-01) (23, 1.34662196040153503418e-01) (24, -1.79068416357040405273e-01) (25, -2.13914319872856140137e-01) (26, -4.84847187995910644531e-01) (27, -1.32856145501136779785e-01) (28, -1.85537636280059814453e-01) (29, -2.16202870011329650879e-01) (30, -1.82645201683044433594e-01) (0, 5.97233116626739501953e-01) (1, 7.40414023399353027344e-01) (2, 6.39570534229278564453e-01) (3, 6.14676177501678466797e-01) (4, 7.87607491016387939453e-01) (5, 7.95604646205902099609e-01) (6, 4.63059097528457641602e-01) (7, 5.50190389156341552734e-01) (8, 5.99324643611907958984e-01) (9, 7.71841526031494140625e-01) (10, 5.89378237724304199219e-01) (11, 4.72458690404891967773e-01) (12, 5.04902660846710205078e-01) (13, 8.94142687320709228516e-01) (14, 8.20545792579650878906e-01) (15, 5.05251502990722656250e+00) (16, 7.06363797187805175781e-01) (17, 2.53684371709823608398e-01) (18, -2.72346496582031250000e-01) (19, 4.05915886163711547852e-01) (20, 4.74632680416107177734e-01) (21, -2.51641422510147094727e-01) (22, -1.69397994875907897949e-01) (23, -2.40063294768333435059e-02) (24, -4.77849617600440979004e-02) (25, -1.02485239505767822266e-01) (26, -3.22166204452514648438e-01) (27, -1.40866905450820922852e-01) (28, -5.64297214150428771973e-02) (29, -1.65431976318359375000e-01) (30, -1.29398748278617858887e-01) (0, 5.86852908134460449219e-01) (1, 2.13774800300598144531e-01) (2, 2.82586008310317993164e-01) (3, 5.70314705371856689453e-01) (4, 3.50059658288955688477e-01) (5, 3.96382212638854980469e-01) (6, 4.81395721435546875000e-01) (7, 3.02681356668472290039e-01) (8, 1.42249837517738342285e-01) (9, 7.53098368644714355469e-01) (10, 4.77149814367294311523e-01) (11, 4.61044274270534515381e-02) (12, 2.70145773887634277344e-01) (13, -1.47455483675003051758e-01) (14, 3.70666086673736572266e-01) (15, 1.48918855190277099609e+00) (16, -3.42379570007324218750e+00) (17, -2.22997689247131347656e+00) (18, 2.26074934005737304688e-01) (19, -3.51248979568481445312e-01) (20, 3.27101983129978179932e-02) (21, 6.29414897412061691284e-03) (22, 2.89080113172531127930e-01) (23, 2.41374039649963378906e+00) (24, 1.77718639373779296875e-01) (25, 2.91817128658294677734e-01) (26, 3.23409497737884521484e-01) (27, 4.96375948190689086914e-01) (28, 3.89016270637512207031e-01) (29, 4.66722518205642700195e-01) (30, 2.90782570838928222656e-01) (0, 7.43727609515190124512e-02) (1, 9.53345671296119689941e-02) (2, 1.91576331853866577148e-01) (3, 6.08116611838340759277e-02) (4, 9.04970839619636535645e-02) (5, 6.89570009708404541016e-02) (6, 4.86519783735275268555e-02) (7, 1.79742991924285888672e-01) (8, 7.42301225662231445312e-01) (9, 2.36080676317214965820e-01) (10, 7.85001665353775024414e-02) (11, 1.85522750020027160645e-01) (12, 4.35104630887508392334e-02) (13, -4.65400993824005126953e-01) (14, 2.46411472558975219727e-01) (15, -2.03919243812561035156e+00) (16, 6.43364608287811279297e-01) (17, 1.70017433166503906250e+00) (18, -1.12350177764892578125e+00) (19, -4.37449645996093750000e+00) (20, 2.90200400352478027344e+00) (21, -2.96165019273757934570e-01) (22, 3.00149232149124145508e-01) (23, -8.54233920574188232422e-01) (24, -4.08150941133499145508e-01) (25, 8.92862677574157714844e-02) (26, 1.11300632357597351074e-01) (27, 2.48623341321945190430e-01) (28, 1.47349759936332702637e-01) (29, 1.48761197924613952637e-01) (30, 1.04155868291854858398e-01) (0, 4.98586054891347885132e-03) (1, 3.75719517469406127930e-02) (2, -3.29270064830780029297e-02) (3, 5.44521868228912353516e-01) (4, 5.91734409332275390625e-01) (5, 6.11368477344512939453e-01) (6, 2.92243719100952148438e-01) (7, 2.74130314588546752930e-01) (8, 3.68365406990051269531e-01) (9, 9.33142840862274169922e-01) (10, 6.72007560729980468750e-01) (11, 1.72512561082839965820e-01) (12, 3.72292727231979370117e-01) (13, 7.04725325107574462891e-01) (14, 4.00835186243057250977e-01) (15, -5.14091551303863525391e-01) (16, 4.67628240585327148438e-01) (17, -8.93904641270637512207e-02) (18, -1.52985081076622009277e-02) (19, 3.20979923009872436523e-01) (20, 8.19369316101074218750e-01) (21, 3.46922457218170166016e-01) (22, 5.12618064880371093750e-01) (23, 1.31182745099067687988e-02) (24, 5.18335938453674316406e-01) (25, 4.01075065135955810547e-01) (26, -8.52169748395681381226e-03) (27, 3.69358658790588378906e-01) (28, 2.50559568405151367188e-01) (29, 2.54754066467285156250e-01) (30, 4.26287353038787841797e-01) (0, 1.69200479984283447266e-01) (1, 2.31946870684623718262e-01) (2, 1.66183784604072570801e-01) (3, -3.06016597896814346313e-02) (4, 1.86566993594169616699e-01) (5, 2.79789268970489501953e-01) (6, -1.23667083680629730225e-01) (7, 7.01948776841163635254e-02) (8, 3.53587865829467773438e-01) (9, 1.98673456907272338867e-01) (10, 1.14837750792503356934e-01) (11, 1.12007176876068115234e+00) (12, 4.09298181533813476562e-01) (13, 1.98754325509071350098e-01) (14, 3.32630306482315063477e-01) (15, 2.83484339714050292969e+00) (16, 1.41051268577575683594e+00) (17, 9.13765132427215576172e-01) (18, -1.18454420566558837891e+00) (19, -2.00226378440856933594e+00) (20, -8.82152318954467773438e-02) (21, 4.17997270822525024414e-01) (22, 5.51324903964996337891e-01) (23, 4.46898984909057617188e+00) (24, 5.82890212535858154297e-01) (25, 5.48237681388854980469e-01) (26, 5.01259148120880126953e-01) (27, 5.55726945400238037109e-01) (28, 6.69139504432678222656e-01) (29, 5.43419599533081054688e-01) (30, 5.36408185958862304688e-01) (0, 3.43520522117614746094e-01) (1, 3.49055647850036621094e-01) (2, 2.55124330520629882812e-01) (3, 4.00523304939270019531e-01) (4, 2.80315756797790527344e-01) (5, 3.47598075866699218750e-01) (6, 3.06543409824371337891e-01) (7, 3.19515228271484375000e-01) (8, -8.39167088270187377930e-02) (9, 4.21639710664749145508e-01) (10, 1.36528658866882324219e+00) (11, -2.21790019422769546509e-02) (12, 4.60540980100631713867e-01) (13, 9.31448936462402343750e-01) (14, -3.21019023656845092773e-01) (15, 2.68688090145587921143e-02) (16, -1.91250905394554138184e-01) (17, -9.86565172672271728516e-01) (18, 4.18468683958053588867e-01) (19, 2.98859089612960815430e-01) (20, 4.04262214899063110352e-01) (21, 5.22123217582702636719e-01) (22, 3.84940147399902343750e-01) (23, 9.84867215156555175781e-02) (24, 4.50450330972671508789e-01) (25, 3.72425049543380737305e-01) (26, 4.84065771102905273438e-01) (27, 5.51149606704711914062e-01) (28, 3.59430998563766479492e-01) (29, 4.34485405683517456055e-01) (30, 4.19159412384033203125e-01) (0, 4.24638748168945312500e-01) (1, 4.79451715946197509766e-01) (2, 2.46988117694854736328e-01) (3, 4.62155371904373168945e-01) (4, 3.63571345806121826172e-01) (5, 4.39745306968688964844e-01) (6, 3.70349079370498657227e-01) (7, 2.88341432809829711914e-01) (8, 5.00587344169616699219e-01) (9, 5.43739795684814453125e-01) (10, 8.91079187393188476562e-01) (11, 3.81304979324340820312e-01) (12, 6.40175104141235351562e-01) (13, 6.00642323493957519531e-01) (14, 1.88466832041740417480e-01) (15, -2.60730534791946411133e-02) (16, 2.39602136611938476562e+00) (17, -1.31384074687957763672e+00) (18, 2.23782777786254882812e-01) (19, 2.56655454635620117188e+00) (20, 6.28833627700805664062e+00) (21, -1.25369861721992492676e-01) (22, 2.39920914173126220703e-01) (23, 5.50280451774597167969e-01) (24, 7.96115212142467498779e-03) (25, 2.01696425676345825195e-01) (26, 3.95530276000499725342e-02) (27, 4.60445463657379150391e-01) (28, 4.22021239995956420898e-01) (29, 3.06802839040756225586e-01) (30, 3.61543774604797363281e-01) (0, 3.18637579679489135742e-01) (1, 3.01739871501922607422e-01) (2, 1.09969310462474822998e-01) (3, 4.04582172632217407227e-01) (4, 3.78728777170181274414e-01) (5, 3.27258944511413574219e-01) (6, 2.47232224792242050171e-02) (7, 9.82522070407867431641e-02) (8, 2.55452394485473632812e-01) (9, 2.35039055347442626953e-01) (10, 2.83512145280838012695e-01) (11, 3.05902987718582153320e-01) (12, 2.69779920578002929688e-01) (13, 2.19325274229049682617e-01) (14, 4.57434445619583129883e-01) (15, 2.35174226760864257812e+00) (16, 2.39239740371704101562e+00) (17, 2.80269473791122436523e-01) (18, -1.47549569606781005859e+00) (19, 8.20925354957580566406e-01) (20, 3.07149529457092285156e+00) (21, -4.47172299027442932129e-02) (22, 2.08504766225814819336e-01) (23, 1.44461438059806823730e-01) (24, 2.60735332965850830078e-01) (25, 1.05692394077777862549e-01) (26, -9.65733528137207031250e-02) (27, 1.72558188438415527344e-01) (28, 2.39476099610328674316e-01) (29, 9.89045053720474243164e-02) (30, 1.53060197830200195312e-01) (0, 4.75932896137237548828e-01) (1, 5.53310751914978027344e-01) (2, 4.39380407333374023438e-01) (3, 9.06423330307006835938e-01) (4, 9.60690975189208984375e-01) (5, 1.10371661186218261719e+00) (6, 5.47970533370971679688e-01) (7, 6.67297005653381347656e-01) (8, 1.34959256649017333984e+00) (9, 7.79187917709350585938e-01) (10, 5.47959089279174804688e-01) (11, 2.46233415603637695312e+00) (12, 5.43496727943420410156e-01) (13, 6.05589449405670166016e-01) (14, 1.11438262462615966797e+00) (15, 5.17324399948120117188e+00) (16, 2.70543479919433593750e+00) (17, 5.99697887897491455078e-01) (18, -2.40632057189941406250e-01) (19, 8.07515606284141540527e-02) (20, 3.56591606140136718750e+00) (21, -4.03558373451232910156e-01) (22, -1.96695789694786071777e-01) (23, 1.16502165794372558594e-01) (24, -1.82797685265541076660e-01) (25, -1.39955744147300720215e-01) (26, -4.36234414577484130859e-01) (27, -1.01943738758563995361e-01) (28, -1.63835227489471435547e-01) (29, -1.04221686720848083496e-01) (30, -6.24691471457481384277e-02) (0, 4.81737434864044189453e-01) (1, 4.44593667984008789062e-01) (2, 7.19420492649078369141e-01) (3, 4.20166581869125366211e-01) (4, 3.92769455909729003906e-01) (5, 3.49665164947509765625e-01) (6, -1.17577090859413146973e-01) (7, -1.62264809012413024902e-01) (8, 4.11604464054107666016e-01) (9, 2.16869115829467773438e-02) (10, -9.88338813185691833496e-02) (11, -2.09957420825958251953e-01) (12, 3.58998358249664306641e-01) (13, 5.14036953449249267578e-01) (14, -1.54630577564239501953e+00) (15, -1.42101335525512695312e+00) (16, 4.09228849411010742188e+00) (17, -1.29497432708740234375e+01) (18, 2.85532045364379882812e+00) (19, -1.79025852680206298828e+00) (20, -6.39902019500732421875e+00) (21, 1.42902731895446777344e-01) (22, 2.71192580461502075195e-01) (23, -3.68974876403808593750e+00) (24, 6.94813013076782226562e-01) (25, 4.88368391990661621094e-01) (26, 3.81122790277004241943e-02) (27, 5.90670645236968994141e-01) (28, 7.12965488433837890625e-01) (29, 7.09976255893707275391e-01) (30, 8.86650502681732177734e-01) (0, -1.45790809765458106995e-02) (1, -5.82674220204353332520e-02) (2, -3.97671312093734741211e-02) (3, 4.22988161444664001465e-02) (4, 1.82303674519062042236e-02) (5, 1.43364846706390380859e-01) (6, -2.27186486124992370605e-01) (7, -1.46356403827667236328e-01) (8, 1.51343786716461181641e+00) (9, -6.24402582645416259766e-01) (10, -2.18934923410415649414e-01) (11, 1.32446765899658203125e+00) (12, -6.46463036537170410156e-02) (13, -7.59328126907348632812e-01) (14, -3.30415777862071990967e-02) (15, -1.30466425418853759766e+00) (16, 3.91252368688583374023e-01) (17, 2.92055532336235046387e-02) (18, 1.52680420875549316406e+00) (19, -1.59735047817230224609e+00) (20, -2.53916764259338378906e+00) (21, 4.83893573284149169922e-01) (22, 2.99857378005981445312e-01) (23, 1.25160431861877441406e+00) (24, 3.38459789752960205078e-01) (25, 3.10190856456756591797e-01) (26, 4.14619505405426025391e-01) (27, 3.39693158864974975586e-01) (28, 4.23029214143753051758e-01) (29, 3.69502365589141845703e-01) (30, 3.16461116075515747070e-01) (0, -9.25682485103607177734e-02) (1, 3.04241180419921875000e-02) (2, -6.75588548183441162109e-02) (3, 5.29294162988662719727e-02) (4, 1.19632266461849212646e-01) (5, 5.87166920304298400879e-02) (6, -1.68445140123367309570e-01) (7, -3.47147360444068908691e-02) (8, -3.04047670215368270874e-02) (9, -2.68645975738763809204e-02) (10, -9.27283912897109985352e-02) (11, 2.46929407119750976562e-01) (12, -2.57874578237533569336e-01) (13, 2.25494980812072753906e-01) (14, 8.47944498062133789062e-01) (15, 4.52830404043197631836e-01) (16, 1.44912183284759521484e+00) (17, 5.73027849197387695312e-01) (18, -7.10337400436401367188e-01) (19, 5.79610317945480346680e-02) (20, 1.38079321384429931641e+00) (21, 6.18069946765899658203e-01) (22, 4.49581712484359741211e-01) (23, 5.26877343654632568359e-01) (24, 6.49179637432098388672e-01) (25, 5.64924001693725585938e-01) (26, 3.99879932403564453125e-01) (27, 4.71265286207199096680e-01) (28, 5.46440124511718750000e-01) (29, 4.33955013751983642578e-01) (30, 5.25027751922607421875e-01) (0, 5.43974101543426513672e-01) (1, 5.69292902946472167969e-01) (2, 6.27852201461791992188e-01) (3, 8.96731734275817871094e-01) (4, 8.95919859409332275391e-01) (5, 1.06732845306396484375e+00) (6, 5.12746453285217285156e-01) (7, 6.12526893615722656250e-01) (8, 9.13450121879577636719e-01) (9, 8.12126815319061279297e-01) (10, 4.83344405889511108398e-01) (11, 1.71687734127044677734e+00) (12, 1.22849249839782714844e+00) (13, 5.45717298984527587891e-01) (14, 9.63395714759826660156e-01) (15, 2.66007828712463378906e+00) (16, 1.43736302852630615234e+00) (17, 7.34034061431884765625e-01) (18, 2.37622469663619995117e-01) (19, 5.37412345409393310547e-01) (20, 2.76337409019470214844e+00) (21, 2.60716527700424194336e-01) (22, 3.36100429296493530273e-01) (23, 1.42646297812461853027e-01) (24, -7.14961141347885131836e-02) (25, -7.73287937045097351074e-02) (26, -6.56409859657287597656e-01) (27, 2.75036513805389404297e-01) (28, -2.05266639590263366699e-01) (29, -1.91052615642547607422e-01) (30, -1.41508311033248901367e-01) (0, 2.76997298002243041992e-01) (1, 4.32173401117324829102e-01) (2, 3.12001556158065795898e-01) (3, 3.20435732603073120117e-01) (4, 2.71735191345214843750e-01) (5, 2.65645921230316162109e-01) (6, 4.48148697614669799805e-01) (7, 4.54020291566848754883e-01) (8, 3.82371813058853149414e-01) (9, 5.63399553298950195312e-01) (10, 4.30006176233291625977e-01) (11, 2.89700448513031005859e-01) (12, 2.99730598926544189453e-01) (13, 4.97629761695861816406e-01) (14, 3.78362447023391723633e-01) (15, 5.84846556186676025391e-01) (16, 6.18320927023887634277e-02) (17, 4.38415735960006713867e-01) (18, 7.24224686622619628906e-01) (19, 5.48098504543304443359e-01) (20, 2.00046226382255554199e-01) (21, 4.48345035314559936523e-01) (22, 1.00216209888458251953e+00) (23, 4.31464724242687225342e-02) (24, 5.67757129669189453125e-01) (25, 5.71678578853607177734e-01) (26, 2.20552176237106323242e-01) (27, 2.68119126558303833008e-01) (28, 1.57617583870887756348e-01) (29, 5.98504722118377685547e-01) (30, 1.41190066933631896973e-01) (0, -1.16176225244998931885e-01) (1, -1.97676494717597961426e-02) (2, -9.56729128956794738770e-02) (3, -9.01629477739334106445e-02) (4, -6.90454943105578422546e-03) (5, -5.78158944845199584961e-02) (6, -1.88111081719398498535e-01) (7, -4.43473272025585174561e-02) (8, 7.91342630982398986816e-02) (9, -1.05209454894065856934e-01) (10, -4.63925823569297790527e-02) (11, 5.37132322788238525391e-01) (12, -1.12017786502838134766e+00) (13, 4.48645621538162231445e-01) (14, 1.61624336242675781250e+00) (15, -1.98879289627075195312e+00) (16, 2.04349684715270996094e+00) (17, 5.09957551956176757812e-01) (18, -2.45024919509887695312e+00) (19, 1.39213025569915771484e+00) (20, 1.18806147575378417969e+00) (21, 6.30113840103149414062e-01) (22, 6.01792454719543457031e-01) (23, 4.62958765029907226562e+00) (24, 5.26822149753570556641e-01) (25, 5.63149034976959228516e-01) (26, 3.78308248519897460938e+00) (27, 4.71400260925292968750e-01) (28, 5.87294280529022216797e-01) (29, 2.84692615270614624023e-01) (30, 5.79579055309295654297e-01) (0, -4.16076369583606719971e-02) (1, -4.76724095642566680908e-02) (2, -3.40170077979564666748e-02) (3, -1.28475785255432128906e-01) (4, -8.40072184801101684570e-02) (5, -1.17313668131828308105e-01) (6, -1.05761982500553131104e-01) (7, -1.39306530356407165527e-01) (8, -3.90785112977027893066e-02) (9, -1.74903079867362976074e-01) (10, -1.36149227619171142578e-01) (11, 1.52095332741737365723e-01) (12, -5.06412649154663085938e+00) (13, 7.54395574331283569336e-02) (14, -1.29047632217407226562e-02) (15, 3.53324949741363525391e-01) (16, -3.01092958450317382812e+00) (17, 5.19336402416229248047e-01) (18, -1.56433618068695068359e+00) (19, -1.65222808718681335449e-01) (20, 2.44458413124084472656e+00) (21, 6.91822171211242675781e-01) (22, 6.61810040473937988281e-01) (23, 1.33721208572387695312e+00) (24, 6.35988771915435791016e-01) (25, 6.84042632579803466797e-01) (26, 1.57754719257354736328e+00) (27, 6.27036809921264648438e-01) (28, 6.53832554817199707031e-01) (29, -6.16605207324028015137e-02) (30, 5.31854271888732910156e-01) (0, 2.86991804838180541992e-01) (1, 1.62849515676498413086e-01) (2, 1.41493409872055053711e-01) (3, 1.91136807203292846680e-01) (4, 2.83558815717697143555e-01) (5, 2.26279214024543762207e-01) (6, 6.24069347977638244629e-02) (7, 1.62810564041137695312e-01) (8, 1.73882320523262023926e-01) (9, 2.97116160392761230469e-01) (10, 3.15762370824813842773e-01) (11, 2.08936199545860290527e-01) (12, -2.29209829121828079224e-02) (13, 2.30864331126213073730e-01) (14, 1.70881226658821105957e-01) (15, 9.00038301944732666016e-01) (16, -9.75793898105621337891e-01) (17, 1.54674708843231201172e-01) (18, 3.85430365800857543945e-01) (19, 4.13241446018218994141e-01) (20, 2.27480649948120117188e+00) (21, -1.76394730806350708008e-01) (22, 3.60938489437103271484e-01) (23, 1.06129825115203857422e+00) (24, 1.87935218214988708496e-01) (25, 3.92961561679840087891e-01) (26, -9.14306938648223876953e-02) (27, 1.98166742920875549316e-01) (28, 3.63528966903686523438e-01) (29, 3.40488493442535400391e-01) (30, 2.32407465577125549316e-01) (0, -7.71788060665130615234e-02) (1, -6.06296248733997344971e-02) (2, -2.15447753667831420898e-01) (3, -3.18425819277763366699e-02) (4, 1.40827909111976623535e-01) (5, -6.16665408015251159668e-02) (6, -5.82170449197292327881e-02) (7, -4.50988113880157470703e-02) (8, 5.11483401060104370117e-02) (9, -2.16224968433380126953e-01) (10, -1.01666763424873352051e-01) (11, -3.96299101412296295166e-02) (12, -1.24724268913269042969e+00) (13, -1.62096381187438964844e-01) (14, 3.38692039251327514648e-01) (15, 1.57752931118011474609e+00) (16, 2.11008858680725097656e+00) (17, 3.26050490140914916992e-01) (18, -1.58624827861785888672e+00) (19, 2.00793862342834472656e+00) (20, 7.88698613643646240234e-01) (21, 5.71193873882293701172e-01) (22, 5.30227601528167724609e-01) (23, 3.13145697116851806641e-01) (24, 6.88910067081451416016e-01) (25, 2.37616896629333496094e+00) (26, 2.66345620155334472656e+00) (27, 6.38217508792877197266e-01) (28, 6.72684133052825927734e-01) (29, -1.50361859798431396484e+00) (30, 6.70069873332977294922e-01) (0, -1.43683880567550659180e-01) (1, -2.96046901494264602661e-02) (2, -3.21933776140213012695e-02) (3, -1.76947176456451416016e-01) (4, -1.41151428222656250000e-01) (5, -1.17559961974620819092e-01) (6, -2.06726819276809692383e-01) (7, -1.59299269318580627441e-01) (8, -1.35545134544372558594e-01) (9, -1.79545894265174865723e-01) (10, -7.91883394122123718262e-02) (11, 1.53316095471382141113e-01) (12, -3.84238910675048828125e+00) (13, -2.19219446182250976562e-01) (14, 1.16910435259342193604e-01) (15, -8.03440749645233154297e-01) (16, 8.66129398345947265625e-01) (17, 4.55028563737869262695e-01) (18, -2.20458912849426269531e+00) (19, 6.40250205993652343750e-01) (20, 1.40894174575805664062e+00) (21, 6.78133487701416015625e-01) (22, 6.96263849735260009766e-01) (23, 8.48166465759277343750e-01) (24, 5.85128307342529296875e-01) (25, 8.56940388679504394531e-01) (26, 2.21032905578613281250e+00) (27, 5.34017622470855712891e-01) (28, 5.10724246501922607422e-01) (29, -2.41069167852401733398e-01) (30, 5.23650527000427246094e-01) (0, -1.25916734337806701660e-01) (1, -7.56186097860336303711e-02) (2, -2.09674596786499023438e-01) (3, -7.57589936256408691406e-02) (4, -3.55426192283630371094e-01) (5, 2.65996098518371582031e-01) (6, -2.67292886972427368164e-01) (7, -9.41906273365020751953e-02) (8, 2.51063376665115356445e-01) (9, -5.44326722621917724609e-01) (10, -2.51195937395095825195e-01) (11, 6.45800828933715820312e-01) (12, -1.88400939106941223145e-01) (13, -2.42510095238685607910e-01) (14, 2.59578647091984748840e-03) (15, -1.77622392773628234863e-01) (16, -8.49526375532150268555e-03) (17, 6.84991553425788879395e-02) (18, -3.04708528518676757812e+00) (19, -4.67855119705200195312e+00) (20, -4.93389797210693359375e+00) (21, 8.01718711853027343750e-01) (22, 1.60038158297538757324e-01) (23, 2.94102638959884643555e-01) (24, 5.99696218967437744141e-01) (25, 6.04357302188873291016e-01) (26, 5.88255226612091064453e-01) (27, 6.56741559505462646484e-01) (28, 6.70503079891204833984e-01) (29, 5.44199407100677490234e-01) (30, 4.78247761726379394531e-01) (0, 2.48074997216463088989e-02) (1, -5.05139976739883422852e-02) (2, -5.65987452864646911621e-02) (3, -2.31414884328842163086e-02) (4, -1.61254238337278366089e-02) (5, 8.52590799331665039062e-03) (6, -2.69952472299337387085e-02) (7, -1.04739621281623840332e-01) (8, -1.74772739410400390625e-02) (9, -1.21090032160282135010e-01) (10, 2.20035813981667160988e-04) (11, -5.57795874774456024170e-02) (12, -2.95788586139678955078e-01) (13, 2.83186465501785278320e-01) (14, 3.25191825628280639648e-01) (15, 1.57248362898826599121e-01) (16, 2.72094917297363281250e+00) (17, 7.77911126613616943359e-01) (18, -1.55185863375663757324e-01) (19, -9.07938385009765625000e+00) (20, 6.85274779796600341797e-01) (21, -1.70435354113578796387e-01) (22, 2.46337518095970153809e-01) (23, 3.67237162590026855469e+00) (24, 2.82412797212600708008e-01) (25, 3.92905354499816894531e-01) (26, 4.23344612121582031250e-01) (27, 4.51093584299087524414e-01) (28, 3.84490072727203369141e-01) (29, 3.02722185850143432617e-01) (30, 3.06993901729583740234e-01) (0, 5.90290486812591552734e-01) (1, 4.26797807216644287109e-01) (2, 3.93078893423080444336e-01) (3, 9.03680145740509033203e-01) (4, 9.58657145500183105469e-01) (5, 1.03543829917907714844e+00) (6, 6.14221394062042236328e-01) (7, 6.22264385223388671875e-01) (8, 5.84337592124938964844e-01) (9, 9.37795102596282958984e-01) (10, 6.12241864204406738281e-01) (11, 7.24257171154022216797e-01) (12, 5.50709247589111328125e-01) (13, 5.45408129692077636719e-01) (14, 1.23388564586639404297e+00) (15, 5.85285663604736328125e+00) (16, 1.15685069561004638672e+00) (17, 6.58526897430419921875e-01) (18, -3.82426023483276367188e-01) (19, -1.23862624168395996094e-01) (20, 1.26581633090972900391e+00) (21, -4.24530059099197387695e-01) (22, -1.78500935435295104980e-01) (23, 1.99994191527366638184e-01) (24, -1.34547829627990722656e-01) (25, -2.37096413969993591309e-01) (26, -3.78773272037506103516e-01) (27, -1.04391448199748992920e-01) (28, -5.78504800796508789062e-02) (29, -9.72301289439201354980e-02) (30, -8.80039483308792114258e-02) (0, 4.17938560247421264648e-01) (1, 3.51953953504562377930e-01) (2, 2.45447903871536254883e-01) (3, 3.02198320627212524414e-01) (4, 4.08839851617813110352e-01) (5, 4.22647595405578613281e-01) (6, 7.80056864023208618164e-02) (7, 1.70162871479988098145e-01) (8, 1.53742879629135131836e-01) (9, 2.54947453737258911133e-01) (10, 3.73943686485290527344e-01) (11, 5.02396404743194580078e-01) (12, 2.26747661828994750977e-01) (13, 1.69755369424819946289e-01) (14, 4.19104754924774169922e-01) (15, 6.45200669765472412109e-01) (16, -2.50218361616134643555e-01) (17, -4.53576743602752685547e-02) (18, -3.03344655036926269531e+00) (19, 1.24135605990886688232e-01) (20, 9.91605818271636962891e-01) (21, 4.54683117568492889404e-02) (22, 6.80796653032302856445e-02) (23, 1.47334367036819458008e-01) (24, 1.05464272201061248779e-01) (25, 1.26677200198173522949e-01) (26, -2.05440483987331390381e-02) (27, 2.11372897028923034668e-01) (28, 2.71568357944488525391e-01) (29, 9.59279984235763549805e-02) (30, 1.26330003142356872559e-01) (0, -3.51241856813430786133e-01) (1, -6.29723131656646728516e-01) (2, -6.42812430858612060547e-01) (3, 2.21425175666809082031e-01) (4, 1.84699565172195434570e-01) (5, 2.39760711789131164551e-01) (6, -4.54793661832809448242e-01) (7, -4.47648525238037109375e-01) (8, -4.23643589019775390625e-01) (9, 1.52408495545387268066e-01) (10, 2.80046194791793823242e-01) (11, -5.36781847476959228516e-01) (12, -6.80362164974212646484e-01) (13, -5.96297025680541992188e-01) (14, -7.40007907152175903320e-02) (15, 2.75164544582366943359e-01) (16, 5.76285183429718017578e-01) (17, -2.56343698501586914062e+00) (18, 7.46412873268127441406e-01) (19, 1.05704104900360107422e+00) (20, -8.55780506134033203125e+00) (21, 3.76055181026458740234e-01) (22, 6.29422664642333984375e-01) (23, 1.27025976777076721191e-01) (24, 1.14953076839447021484e+00) (25, 1.28406846523284912109e+00) (26, -1.11085914075374603271e-01) (27, 1.24051201343536376953e+00) (28, 1.24490189552307128906e+00) (29, 5.86469709873199462891e-01) (30, 1.22615134716033935547e+00) (0, 4.27014112472534179688e-01) (1, 3.12506109476089477539e-01) (2, 3.84393900632858276367e-01) (3, 3.88974547386169433594e-01) (4, 4.20690715312957763672e-01) (5, 2.99766182899475097656e-01) (6, 4.24735754728317260742e-01) (7, 2.64105886220932006836e-01) (8, 2.00412228703498840332e-01) (9, 3.24543118476867675781e-01) (10, 4.89877134561538696289e-01) (11, -2.69109010696411132812e-01) (12, -1.83317586779594421387e-01) (13, -4.02203015983104705811e-03) (14, 5.84121234714984893799e-02) (15, 1.13623060286045074463e-01) (16, -2.57669299840927124023e-01) (17, -1.23767745494842529297e+00) (18, 5.39725720882415771484e-01) (19, 8.12908470630645751953e-01) (20, 1.47379779815673828125e+00) (21, 1.28849089145660400391e-01) (22, 7.18623995780944824219e-01) (23, 5.63167393207550048828e-01) (24, 6.30525827407836914062e-01) (25, 2.42621049284934997559e-01) (26, 4.00845617055892944336e-01) (27, 2.04048439860343933105e-01) (28, 2.27967396378517150879e-01) (29, 7.20778584480285644531e-01) (30, 2.12053269147872924805e-01) (0, -1.49815157055854797363e-01) (1, -4.05033007264137268066e-02) (2, -3.90867926180362701416e-02) (3, -5.17859011888504028320e-02) (4, -8.03216397762298583984e-02) (5, -1.74309179186820983887e-01) (6, -9.85514596104621887207e-02) (7, -9.23204123973846435547e-02) (8, -1.14596188068389892578e-01) (9, -7.04806521534919738770e-02) (10, -1.00216053426265716553e-01) (11, -2.63942347373813390732e-04) (12, -1.58541715145111083984e+00) (13, 1.39035940170288085938e-01) (14, 1.30499854683876037598e-01) (15, 1.12458057701587677002e-01) (16, 5.66351652145385742188e-01) (17, 3.63342553377151489258e-01) (18, -1.45741283893585205078e+00) (19, 3.53239417076110839844e-01) (20, 8.59600782394409179688e-01) (21, 5.43187201023101806641e-01) (22, 5.36342382431030273438e-01) (23, 3.45754003524780273438e+00) (24, 6.81726634502410888672e-01) (25, 7.04759299755096435547e-01) (26, 6.32260322570800781250e-01) (27, 4.98657852411270141602e-01) (28, 5.44132649898529052734e-01) (29, -6.02938115596771240234e-01) (30, 6.90839529037475585938e-01) (31, 3.85878413915634155273e-01) (32, 3.26833516359329223633e-01) (33, 5.14368772506713867188e-01) (34, 2.00490161776542663574e-01) (35, 3.11284631490707397461e-01) (36, -3.10390323400497436523e-01) (37, -8.42333063483238220215e-02) (38, 4.07278835773468017578e-01) (39, 3.88389796018600463867e-01) (40, 1.10108804702758789062e+00) (41, 1.71280473470687866211e-01) (42, 2.89605915546417236328e-01) (43, 9.33737400919198989868e-03) (44, 1.20091386139392852783e-01) (45, 3.72199922800064086914e-01) (46, 2.49050438404083251953e-01) (47, 4.68352943658828735352e-01) (48, 3.33111375570297241211e-01) (49, -3.18985842168331146240e-02) (50, 4.52853560447692871094e-01) (51, 3.31014305353164672852e-01) (52, 3.15283387899398803711e-01) (53, 2.67811834812164306641e-01) (54, 4.20235544443130493164e-01) (55, 4.74071949720382690430e-01) (56, 6.05372413992881774902e-02) (57, 3.21160912513732910156e-01) (58, 3.99310812354087829590e-02) (59, -4.78105135262012481689e-02) (60, 2.67161607742309570312e-01) (61, 3.12378883361816406250e-01) (62, 1.54561102390289306641e-01) (63, 1.05190682411193847656e+00) (64, 4.11156982183456420898e-01) (65, 2.16024577617645263672e-01) (31, -1.54617533087730407715e-01) (32, 1.73272192478179931641e-01) (33, 1.63993775844573974609e-01) (34, 1.12286686897277832031e-01) (35, 4.75418455898761749268e-02) (36, 5.21859563887119293213e-02) (37, 1.65612518787384033203e-01) (38, 2.85944622009992599487e-02) (39, 6.20427489280700683594e-01) (40, 8.56465041637420654297e-01) (41, 7.17795193195343017578e-02) (42, 7.14125990867614746094e-01) (43, -9.17053967714309692383e-02) (44, -2.16189384460449218750e+00) (45, 5.62279701232910156250e-01) (46, 2.07066342234611511230e-01) (47, 4.08618524670600891113e-03) (48, 1.46299374103546142578e+00) (49, 1.33847907185554504395e-01) (50, -1.03982292115688323975e-01) (51, 1.32946267724037170410e-01) (52, 1.16628623008728027344e+00) (53, -2.21858203411102294922e-01) (54, -1.51820704340934753418e-01) (55, 6.64945960044860839844e-01) (56, -1.10347628593444824219e-01) (57, -1.86701178550720214844e-01) (58, 1.97516992688179016113e-01) (59, 1.35655641555786132812e-01) (60, 2.04285960644483566284e-02) (61, 3.04958410561084747314e-03) (62, 7.09374368190765380859e-01) (63, 8.38738918304443359375e+00) (64, -5.19471950829029083252e-02) (65, 2.79691398143768310547e-01) (31, 4.66724306344985961914e-01) (32, 1.75413921475410461426e-01) (33, 3.25107932090759277344e-01) (34, 3.01625747233629226685e-02) (35, 2.80431747436523437500e-01) (36, 2.91879147291183471680e-01) (37, 1.49488285183906555176e-01) (38, 2.61988639831542968750e-01) (39, -1.73243522644042968750e-01) (40, -2.88383275270462036133e-01) (41, 4.84993726015090942383e-01) (42, 8.46251286566257476807e-03) (43, 1.91244296729564666748e-02) (44, 1.85717642307281494141e-01) (45, -1.59829631447792053223e-02) (46, 2.63353437185287475586e-01) (47, 2.84173488616943359375e-01) (48, 8.05760920047760009766e-02) (49, 7.18895971775054931641e-01) (50, 4.62751716375350952148e-01) (51, 2.00403928756713867188e-01) (52, -1.07273593544960021973e-01) (53, 4.90215212106704711914e-01) (54, 5.60844779014587402344e-01) (55, -2.35703289508819580078e-01) (56, 5.42883336544036865234e-01) (57, 5.74538528919219970703e-01) (58, 7.88324400782585144043e-02) (59, -1.15911044180393218994e-01) (60, 2.92510151863098144531e-01) (61, 2.29906395077705383301e-01) (62, 2.76334527879953384399e-02) (63, -3.68684113025665283203e-01) (64, 4.79013562202453613281e-01) (65, -3.52238453924655914307e-02) (31, -8.99350106716156005859e-01) (32, 2.54271954298019409180e-01) (33, 6.77808225154876708984e-01) (34, -9.85120594501495361328e-01) (35, 3.52007299661636352539e-01) (36, -1.94161131978034973145e-01) (37, 2.20305949449539184570e-01) (38, 2.48097047209739685059e-01) (39, 7.60336697101593017578e-01) (40, 1.49145984649658203125e+01) (41, 9.75913286209106445312e-01) (42, 1.63027179241180419922e+00) (43, -8.63951444625854492188e-02) (44, 2.69641280174255371094e+00) (45, 1.07879686355590820312e+00) (46, 2.49860957264900207520e-01) (47, 2.55859315395355224609e-01) (48, -1.56043434143066406250e+00) (49, -2.64725875854492187500e+00) (50, -2.23716184496879577637e-01) (51, 4.65560287237167358398e-01) (52, -5.06530094146728515625e+00) (53, -2.78603404760360717773e-01) (54, -2.69615441560745239258e-01) (55, 4.19241142272949218750e+00) (56, -4.25024121999740600586e-01) (57, -2.11586505174636840820e-01) (58, 4.26489189267158508301e-02) (59, 1.04992903769016265869e-01) (60, 2.41735860705375671387e-01) (61, 3.22249412536621093750e-01) (62, 1.01992571353912353516e+00) (63, 1.42016565799713134766e+00) (64, -3.59669834375381469727e-01) (65, 2.93189194053411483765e-03) (31, 5.12175917625427246094e-01) (32, 4.56018775701522827148e-01) (33, 3.43311220407485961914e-01) (34, 5.62249660491943359375e-01) (35, 4.64555978775024414062e-01) (36, 4.25661891698837280273e-01) (37, -3.70108157396316528320e-01) (38, 3.81924241781234741211e-01) (39, 4.49934780597686767578e-01) (40, 2.88600414991378784180e-01) (41, 5.01505844295024871826e-02) (42, -1.01749338209629058838e-01) (43, 6.05251431465148925781e-01) (44, -1.49118423461914062500e+00) (45, -1.08737245202064514160e-01) (46, 3.06582242250442504883e-01) (47, 3.24474453926086425781e-01) (48, 6.56776875257492065430e-02) (49, 5.82022547721862792969e-01) (50, 5.27814388275146484375e-01) (51, 3.33238124847412109375e-01) (52, 3.61270718276500701904e-02) (53, 5.29555082321166992188e-01) (54, 5.18161177635192871094e-01) (55, -6.76279291510581970215e-02) (56, 5.84968149662017822266e-01) (57, 4.15916979312896728516e-01) (58, 4.59106534719467163086e-01) (59, -3.49089235067367553711e-01) (60, 4.09021675586700439453e-01) (61, 3.50067615509033203125e-01) (62, 6.06182962656021118164e-02) (63, -7.75598406791687011719e-01) (64, 5.83998799324035644531e-01) (65, 6.15350715816020965576e-03) (31, 4.44806605577468872070e-01) (32, 2.74137556552886962891e-01) (33, 3.87364149093627929688e-01) (34, 8.65226686000823974609e-02) (35, 2.15480282902717590332e-01) (36, -6.07695102691650390625e-01) (37, 2.27381914854049682617e-01) (38, 2.29664698243141174316e-01) (39, 2.79826790094375610352e-01) (40, 1.98538914322853088379e-01) (41, 5.24926662445068359375e-01) (42, 3.15978154540061950684e-02) (43, 5.14426171779632568359e-01) (44, -1.65057492256164550781e+00) (45, -1.13872990012168884277e-01) (46, 3.32363396883010864258e-01) (47, 2.85821497440338134766e-01) (48, -1.79716736078262329102e-01) (49, 2.89429593831300735474e-02) (50, 4.51566070318222045898e-01) (51, 2.22495868802070617676e-01) (52, -6.41382709145545959473e-02) (53, 5.36783695220947265625e-01) (54, 4.69711422920227050781e-01) (55, 1.92600548267364501953e-01) (56, 5.81701219081878662109e-01) (57, 5.03125846385955810547e-01) (58, 7.72447139024734497070e-02) (59, 2.63708561658859252930e-01) (60, 2.60164499282836914062e-01) (61, 2.96161234378814697266e-01) (62, -4.13858518004417419434e-02) (63, -2.71167725324630737305e-01) (64, 5.14194667339324951172e-01) (65, 2.62192636728286743164e-02) (31, -1.19927100837230682373e-01) (32, 1.32959514856338500977e-01) (33, 6.08942136168479919434e-02) (34, 1.42080381512641906738e-01) (35, 2.08467021584510803223e-01) (36, 1.41622185707092285156e+00) (37, 8.15629243850708007812e-01) (38, 1.32809147238731384277e-01) (39, 6.83919668197631835938e-01) (40, 1.19160366058349609375e+00) (41, 9.45739448070526123047e-01) (42, 5.50081968307495117188e-01) (43, -1.36881619691848754883e-01) (44, 2.59738779067993164062e+00) (45, 5.02876937389373779297e-01) (46, -1.94316208362579345703e-02) (47, 7.40885585546493530273e-02) (48, -2.71356217563152313232e-02) (49, 5.12875080108642578125e-01) (50, -2.24152907729148864746e-01) (51, 1.97119861841201782227e-01) (52, 6.44966363906860351562e-01) (53, -2.98547111451625823975e-02) (54, -2.07844063639640808105e-01) (55, -2.23921909928321838379e-01) (56, -8.70048552751541137695e-02) (57, -1.54241412878036499023e-01) (58, 1.11554598808288574219e+00) (59, 1.20190024375915527344e+00) (60, 7.14967995882034301758e-02) (61, 2.73542046546936035156e-01) (62, 7.02454626560211181641e-01) (63, 4.98041123151779174805e-01) (64, -2.08772540092468261719e-01) (65, 2.53885209560394287109e-01) (31, 3.90731304883956909180e-01) (32, 5.25339543819427490234e-01) (33, 6.40571713447570800781e-01) (34, 1.12833309173583984375e+00) (35, 5.16307771205902099609e-01) (36, 5.96718609333038330078e-01) (37, 7.56852567195892333984e-01) (38, 6.31178975105285644531e-01) (39, 6.58639669418334960938e-01) (40, -9.07316356897354125977e-02) (41, 2.86230921745300292969e-01) (42, -1.02435788139700889587e-02) (43, 5.19646108150482177734e-01) (44, -2.15729403495788574219e+00) (45, -1.21938541531562805176e-01) (46, 7.71786808967590332031e-01) (47, 5.98399817943572998047e-01) (48, 7.22025185823440551758e-02) (49, 4.04689669609069824219e-01) (50, 5.31459689140319824219e-01) (51, 6.58036947250366210938e-01) (52, -9.24689769744873046875e-02) (53, 8.60696211457252502441e-02) (54, 4.31094139814376831055e-01) (55, -4.94578838348388671875e-01) (56, 4.82941299676895141602e-01) (57, 4.35575544834136962891e-01) (58, 3.85993093252182006836e-01) (59, -2.91221328079700469971e-02) (60, 6.20903313159942626953e-01) (61, 7.30479180812835693359e-01) (62, -4.35940399765968322754e-02) (63, -4.59699928760528564453e-01) (64, 4.54370886087417602539e-01) (65, -1.44391702488064765930e-02) (31, -1.16927459836006164551e-01) (32, 4.72924649715423583984e-01) (33, 4.01835650205612182617e-01) (34, -1.08116261661052703857e-01) (35, 3.05342316627502441406e-01) (36, 2.13761925697326660156e+00) (37, -7.38397419452667236328e-01) (38, 3.91698241233825683594e-01) (39, 2.40584850311279296875e-01) (40, -1.59968185424804687500e+00) (41, 8.49872648715972900391e-01) (42, 2.26836636662483215332e-01) (43, -3.26092988252639770508e-01) (44, -3.66102385520935058594e+00) (45, -1.55238300561904907227e-01) (46, 3.39193046092987060547e-01) (47, 3.55197876691818237305e-01) (48, -4.02372360229492187500e-01) (49, 7.16590434312820434570e-02) (50, 3.62059980630874633789e-01) (51, 3.47174793481826782227e-01) (52, 2.30702623724937438965e-01) (53, 6.33489489555358886719e-01) (54, 6.58656597137451171875e-01) (55, -3.64226132631301879883e-01) (56, 2.70289242267608642578e-01) (57, 5.59244990348815917969e-01) (58, -4.06156331300735473633e-02) (59, 9.64312672615051269531e-01) (60, 2.91751176118850708008e-01) (61, 4.36472624540328979492e-01) (62, -4.81856763362884521484e-01) (63, -1.12628030776977539062e+00) (64, 2.77610868215560913086e-01) (65, -9.94040071964263916016e-03) (31, 6.44155204296112060547e-01) (32, 3.68508458137512207031e-01) (33, 3.85882794857025146484e-01) (34, -1.75347179174423217773e-02) (35, 4.78654950857162475586e-01) (36, 3.43752354383468627930e-01) (37, 3.77514101564884185791e-02) (38, 3.51820558309555053711e-01) (39, 3.97930324077606201172e-01) (40, 2.00844556093215942383e-01) (41, 7.47728228569030761719e-01) (42, 2.62978434562683105469e-01) (43, 6.08257114887237548828e-01) (44, -1.40707802772521972656e+00) (45, -2.28216424584388732910e-01) (46, 4.73591595888137817383e-01) (47, 4.32973295450210571289e-01) (48, -2.49562337994575500488e-01) (49, 4.99605759978294372559e-02) (50, 5.70822477340698242188e-01) (51, 3.74261558055877685547e-01) (52, 2.93022799491882324219e+00) (53, 6.09045147895812988281e-01) (54, 6.71819150447845458984e-01) (55, 6.74867749214172363281e-01) (56, 5.67478895187377929688e-01) (57, 6.02625548839569091797e-01) (58, 2.82453626394271850586e-01) (59, 1.90250560641288757324e-01) (60, 4.49415504932403564453e-01) (61, 4.69310283660888671875e-01) (62, -3.12836438417434692383e-01) (63, 3.00353854894638061523e-01) (64, 5.49803495407104492188e-01) (65, 1.30281606689095497131e-02) (31, 3.68671864271163940430e-02) (32, -1.92053630948066711426e-01) (33, -1.41125395894050598145e-01) (34, 1.47909069061279296875e+00) (35, -1.04025885462760925293e-01) (36, -1.36806145310401916504e-01) (37, 5.71025192737579345703e-01) (38, -1.57893955707550048828e-01) (39, -1.06580123305320739746e-01) (40, -3.50695215165615081787e-02) (41, 3.19159537553787231445e-01) (42, 3.98620784282684326172e-01) (43, -5.69847106933593750000e-01) (44, -6.32927417755126953125e-02) (45, 1.71155408024787902832e-01) (46, -1.62169009447097778320e-01) (47, -8.08347538113594055176e-02) (48, 3.22734504938125610352e-01) (49, 6.27307355403900146484e-01) (50, -2.90829181671142578125e-01) (51, -2.01947271823883056641e-01) (52, 5.02429068088531494141e-01) (53, -2.29211226105690002441e-01) (54, -3.73854413628578186035e-02) (55, 2.05436348915100097656e+00) (56, -6.87811225652694702148e-02) (57, -8.24921354651451110840e-02) (58, 5.97000896930694580078e-01) (59, 7.64986872673034667969e-02) (60, -1.59785702824592590332e-01) (61, -1.69602841138839721680e-01) (62, 3.48347574472427368164e-01) (63, 2.58621573448181152344e-01) (64, -7.79950842261314392090e-02) (65, 6.27150714397430419922e-01) (31, -1.82790458202362060547e-01) (32, 1.97676628828048706055e-01) (33, 1.39357388019561767578e-01) (34, 2.51634150743484497070e-01) (35, 1.31776258349418640137e-01) (36, 1.51092648506164550781e-01) (37, 3.67222636938095092773e-01) (38, 5.01366667449474334717e-02) (39, 9.89548396319150924683e-03) (40, 1.04590487480163574219e+00) (41, 1.25464992597699165344e-02) (42, 5.79728007316589355469e-01) (43, -2.22775787115097045898e-01) (44, -2.00219690799713134766e-01) (45, 5.70822536945343017578e-01) (46, 1.15624740719795227051e-01) (47, 1.62343874573707580566e-01) (48, 1.45366227626800537109e+00) (49, 2.82725989818572998047e-01) (50, -2.03293561935424804688e-01) (51, 2.06601526588201522827e-03) (52, 4.66220557689666748047e-01) (53, -1.12549766898155212402e-01) (54, -1.51840463280677795410e-01) (55, 6.06263279914855957031e-01) (56, -9.21920314431190490723e-02) (57, -9.45007130503654479980e-02) (58, -1.45087480545043945312e-01) (59, 2.66358435153961181641e-01) (60, 5.00496737658977508545e-02) (61, 1.68395545333623886108e-02) (62, 7.09880709648132324219e-01) (63, 6.07990443706512451172e-01) (64, -1.08744084835052490234e-01) (65, 2.55379557609558105469e-01) (31, 4.78190988302230834961e-01) (32, 5.66571533679962158203e-01) (33, 6.65230810642242431641e-01) (34, -1.60345867276191711426e-01) (35, 5.77315270900726318359e-01) (36, 7.51598000526428222656e-01) (37, -4.94752004742622375488e-02) (38, 4.43681150674819946289e-01) (39, 3.19460220634937286377e-02) (40, 4.11182902753353118896e-02) (41, -1.53143420815467834473e-01) (42, 1.56878284178674221039e-03) (43, 7.69804418087005615234e-01) (44, -1.80389821529388427734e-01) (45, -7.00315833091735839844e-02) (46, 7.76824831962585449219e-01) (47, 4.65872436761856079102e-01) (48, 4.60808239877223968506e-02) (49, 2.01383046805858612061e-02) (50, 5.09992241859436035156e-01) (51, 5.87622404098510742188e-01) (52, -1.46858364343643188477e-01) (53, 5.00606834888458251953e-01) (54, 4.37627255916595458984e-01) (55, -3.15005272626876831055e-01) (56, 3.22205275297164916992e-01) (57, 4.81360673904418945312e-01) (58, 4.09316644072532653809e-02) (59, -5.17202867195010185242e-03) (60, 5.22029042243957519531e-01) (61, 6.54566526412963867188e-01) (62, -1.06769330799579620361e-01) (63, -8.03558647632598876953e-01) (64, 4.96796965599060058594e-01) (65, -7.51462252810597419739e-03) (31, 5.02514719963073730469e-01) (32, 3.21594387292861938477e-01) (33, 2.93836116790771484375e-01) (34, 9.83594581484794616699e-02) (35, 3.16192775964736938477e-01) (36, 6.39857292175292968750e-01) (37, -7.79620651155710220337e-03) (38, 2.53468245267868041992e-01) (39, -7.83314257860183715820e-02) (40, -2.81245112419128417969e-01) (41, 4.37820345163345336914e-01) (42, -6.82961866259574890137e-02) (43, 5.48339545726776123047e-01) (44, 1.43622517585754394531e-01) (45, 9.71442926675081253052e-03) (46, 2.99844712018966674805e-01) (47, 3.01462620496749877930e-01) (48, -6.26405179500579833984e-02) (49, 2.60804831981658935547e-01) (50, 4.98184919357299804688e-01) (51, 1.99699580669403076172e-01) (52, 3.20514738559722900391e-02) (53, 4.46783125400543212891e-01) (54, 6.15767538547515869141e-01) (55, -2.60706394910812377930e-01) (56, 5.73881089687347412109e-01) (57, 5.01384079456329345703e-01) (58, 4.94255036115646362305e-01) (59, -2.30291247367858886719e-01) (60, 2.35410660505294799805e-01) (61, 3.13254684209823608398e-01) (62, 1.61896571516990661621e-02) (63, -4.80882972478866577148e-01) (64, 5.45176208019256591797e-01) (65, 3.74835245311260223389e-02) (31, 5.41113913059234619141e-01) (32, 2.27528646588325500488e-01) (33, 2.48862996697425842285e-01) (34, -4.31857369840145111084e-02) (35, 3.12057346105575561523e-01) (36, 6.75124228000640869141e-01) (37, -1.52914673089981079102e-01) (38, 1.91530436277389526367e-01) (39, -1.47223668172955513000e-02) (40, 6.98976144194602966309e-02) (41, 5.95069468021392822266e-01) (42, -1.00851833820343017578e-01) (43, 4.51876014471054077148e-01) (44, 3.12159150838851928711e-01) (45, 2.68889237195253372192e-02) (46, 3.16369324922561645508e-01) (47, 2.46016159653663635254e-01) (48, -7.56387487053871154785e-02) (49, 1.11063353717327117920e-01) (50, 4.22854632139205932617e-01) (51, 2.80309647321701049805e-01) (52, 5.29183037579059600830e-02) (53, 5.45222997665405273438e-01) (54, 5.67254006862640380859e-01) (55, -3.06827872991561889648e-01) (56, 3.79775226116180419922e-01) (57, 5.24571299552917480469e-01) (58, 6.06720894575119018555e-02) (59, -2.13108882308006286621e-02) (60, 2.43073120713233947754e-01) (61, 3.85961771011352539062e-01) (62, 3.10195554047822952271e-02) (63, -3.35426300764083862305e-01) (64, 4.71370875835418701172e-01) (65, -9.43750981241464614868e-03) (31, 5.54384648799896240234e-01) (32, -2.85412490367889404297e-01) (33, -2.35106483101844787598e-01) (34, -4.91819158196449279785e-02) (35, -1.83192610740661621094e-01) (36, 8.67948114871978759766e-01) (37, 5.73424160480499267578e-01) (38, -1.37744337320327758789e-01) (39, -2.09766820073127746582e-01) (40, -1.98796272277832031250e-01) (41, 2.88664162158966064453e-01) (42, 3.76057893037796020508e-01) (43, -1.31466817855834960938e+00) (44, -6.72082126140594482422e-01) (45, 8.39379012584686279297e-01) (46, -1.64962112903594970703e-01) (47, -1.55957415699958801270e-01) (48, 2.18824863433837890625e-01) (49, -6.20909750461578369141e-01) (50, -5.44944703578948974609e-02) (51, -1.94282367825508117676e-01) (52, 3.68859678506851196289e-01) (53, -1.43010511994361877441e-01) (54, -6.12710192799568176270e-02) (55, -5.74761927127838134766e-01) (56, 4.56105768680572509766e-02) (57, -6.54373541474342346191e-02) (58, -5.62472403049468994141e-01) (59, 5.79281091690063476562e-01) (60, -1.96507617831230163574e-01) (61, -1.33891627192497253418e-01) (62, 3.64870935678482055664e-01) (63, -6.35028660297393798828e-01) (64, -6.00667856633663177490e-02) (65, 7.68433928489685058594e-01) (31, 7.45078250765800476074e-02) (32, 5.95206439495086669922e-01) (33, 7.73356318473815917969e-01) (34, 6.53935313224792480469e-01) (35, 5.13945996761322021484e-01) (36, 1.29577052593231201172e+00) (37, -1.03436732292175292969e+00) (38, 5.80911636352539062500e-01) (39, 7.02026784420013427734e-01) (40, 6.39848530292510986328e-01) (41, 9.26372468471527099609e-01) (42, 7.17836990952491760254e-02) (43, 8.49233686923980712891e-01) (44, -2.64202445745468139648e-01) (45, -3.10672316700220108032e-02) (46, 6.10448956489562988281e-01) (47, 8.47144842147827148438e-01) (48, 4.93614554405212402344e-01) (49, 4.77328240871429443359e-01) (50, 3.63191455602645874023e-01) (51, 8.31775724887847900391e-01) (52, -7.69202634692192077637e-02) (53, -1.18186458945274353027e-01) (54, 4.08051967620849609375e-01) (55, 1.38763844966888427734e+00) (56, 2.29377686977386474609e-01) (57, 4.02074635028839111328e-01) (58, 4.00991141796112060547e-01) (59, 5.95758110284805297852e-02) (60, 6.92163288593292236328e-01) (61, 3.02490498870611190796e-02) (62, 7.39328324794769287109e-01) (63, -5.06039905548095703125e+00) (64, 3.56506794691085815430e-01) (65, -1.71025142073631286621e-01) (31, 4.57509815692901611328e-01) (32, 2.51753956079483032227e-01) (33, 8.17000642418861389160e-02) (34, 5.78372836112976074219e-01) (35, 6.87603950500488281250e-01) (36, 1.25355437397956848145e-01) (37, 4.33298557996749877930e-01) (38, 2.22246944904327392578e-01) (39, 3.99901509284973144531e-01) (40, 5.57886421680450439453e-01) (41, 6.48956120014190673828e-01) (42, 5.92236399650573730469e-01) (43, 5.36564230918884277344e-01) (44, 4.93123263120651245117e-01) (45, 5.40081202983856201172e-01) (46, 1.45564198493957519531e-01) (47, 1.40190705657005310059e-01) (48, 9.34143662452697753906e-01) (49, 1.71403586864471435547e-01) (50, 9.32421758770942687988e-02) (51, 2.63184249401092529297e-01) (52, 4.55795913934707641602e-01) (53, 7.06630619242787361145e-03) (54, 1.08702024444937705994e-02) (55, 5.37208318710327148438e-01) (56, 4.63781595230102539062e-01) (57, 1.02433361113071441650e-01) (58, 5.74278891086578369141e-01) (59, 8.47454071044921875000e-01) (60, 6.14670038223266601562e-01) (61, 9.78984907269477844238e-02) (62, 5.50760388374328613281e-01) (63, 8.64070177078247070312e-01) (64, -7.17118103057146072388e-03) (65, 5.25938451290130615234e-01) (31, 4.94580268859863281250e-01) (32, 5.43625473976135253906e-01) (33, 5.06037175655364990234e-01) (34, -2.12374165654182434082e-01) (35, 5.90568363666534423828e-01) (36, 2.47225135564804077148e-01) (37, -1.05143256485462188721e-01) (38, 6.71558439731597900391e-01) (39, 6.96484804153442382812e-01) (40, -1.25518083572387695312e+00) (41, -6.52949392795562744141e-01) (42, -7.35821276903152465820e-02) (43, 2.10373848676681518555e-01) (44, -2.09038686752319335938e+00) (45, 3.02133202552795410156e-01) (46, 6.51492536067962646484e-01) (47, 6.21101260185241699219e-01) (48, -1.22374379634857177734e+00) (49, -1.19973349571228027344e+00) (50, 3.27174782752990722656e-01) (51, 6.41251981258392333984e-01) (52, -8.47266614437103271484e-01) (53, 5.19828379154205322266e-01) (54, 4.37352329492568969727e-01) (55, 1.57061159610748291016e+00) (56, 3.86637508869171142578e-01) (57, 4.34670835733413696289e-01) (58, 2.78774589300155639648e-01) (59, 7.92697966098785400391e-02) (60, 6.94938242435455322266e-01) (61, 5.07220983505249023438e-01) (62, -6.22762143611907958984e-02) (63, -1.95012331008911132812e-01) (64, 3.18197906017303466797e-01) (65, -1.31243601441383361816e-01) (31, -3.05600967258214950562e-02) (32, -2.25136518478393554688e-01) (33, -2.72783458232879638672e-01) (34, 3.79680484533309936523e-01) (35, -2.36276417970657348633e-01) (36, 1.24753415584564208984e+00) (37, 7.48858809471130371094e-01) (38, -2.77212202548980712891e-01) (39, 2.39300042390823364258e-01) (40, 2.43047401309013366699e-01) (41, -3.72561216354370117188e-01) (42, 4.43660438060760498047e-01) (43, -6.26831650733947753906e-01) (44, -3.23354601860046386719e+00) (45, 1.45179480314254760742e-01) (46, -1.12219974398612976074e-01) (47, -2.64220446348190307617e-01) (48, 4.16776418685913085938e-01) (49, 6.19970440864562988281e-01) (50, -1.87824279069900512695e-01) (51, -2.47783914208412170410e-01) (52, 5.79181313514709472656e-01) (53, -2.48843252658843994141e-01) (54, 5.47259598970413208008e-02) (55, 1.04446363449096679688e+00) (56, -3.09805404394865036011e-02) (57, 7.10236132144927978516e-02) (58, 6.83521270751953125000e-01) (59, -3.42019259929656982422e-01) (60, -1.35014235973358154297e-01) (61, -2.51914769411087036133e-01) (62, 3.19441795349121093750e-01) (63, 3.79504156112670898438e+00) (64, 4.49803359806537628174e-02) (65, 7.50575304031372070312e-01) (31, 5.72026968002319335938e-01) (32, 3.36606115102767944336e-01) (33, 2.62279927730560302734e-01) (34, -6.05154216289520263672e-01) (35, 3.50165903568267822266e-01) (36, 3.77842843532562255859e-01) (37, 4.41517867147922515869e-02) (38, 3.37897568941116333008e-01) (39, -2.41737253963947296143e-02) (40, 1.13640701770782470703e+00) (41, 3.62916558980941772461e-01) (42, 6.68359994888305664062e-02) (43, 4.31909054517745971680e-01) (44, 2.12590694427490234375e-01) (45, -2.77573391795158386230e-02) (46, 3.62442016601562500000e-01) (47, 2.67326980829238891602e-01) (48, 2.16324523091316223145e-01) (49, 3.29657979309558868408e-02) (50, 4.58757638931274414062e-01) (51, 2.69138395786285400391e-01) (52, 1.50736123323440551758e-01) (53, 5.06090164184570312500e-01) (54, 4.83477205038070678711e-01) (55, -1.45754784345626831055e-01) (56, 4.16377723217010498047e-01) (57, 6.00956082344055175781e-01) (58, 1.28644511103630065918e-01) (59, 1.04512646794319152832e-01) (60, -1.22186280786991119385e-02) (61, 3.30802112817764282227e-01) (62, -7.83593654632568359375e-02) (63, -3.35017681121826171875e-01) (64, 4.49726223945617675781e-01) (65, 2.95874336734414100647e-03) (31, -2.79353976249694824219e-01) (32, 1.52939856052398681641e-01) (33, 4.56161759793758392334e-02) (34, 1.67029947042465209961e-01) (35, 7.87559002637863159180e-02) (36, 3.34801524877548217773e-02) (37, 2.26505562663078308105e-01) (38, 6.89342617988586425781e-03) (39, 5.40204107761383056641e-01) (40, 1.94998311996459960938e+00) (41, 1.29742786288261413574e-01) (42, 5.56317806243896484375e-01) (43, -8.98239091038703918457e-02) (44, 2.37171459197998046875e+00) (45, 6.31431519985198974609e-01) (46, 3.12538333237171173096e-02) (47, -2.13688500225543975830e-02) (48, 8.74640822410583496094e-01) (49, 2.19289585947990417480e-01) (50, -1.36352986097335815430e-01) (51, -5.29686687514185905457e-03) (52, 5.85613369941711425781e-01) (53, -1.53445571660995483398e-01) (54, -2.11534276604652404785e-01) (55, 8.25689136981964111328e-01) (56, -2.14794710278511047363e-01) (57, -5.37460707128047943115e-02) (58, 1.58103361725807189941e-01) (59, 2.11828067898750305176e-01) (60, -1.98494102805852890015e-02) (61, 3.16304899752140045166e-02) (62, 7.52765834331512451172e-01) (63, 2.26285052299499511719e+00) (64, -6.95540159940719604492e-02) (65, 1.23854950070381164551e-01) (31, 6.47306025028228759766e-01) (32, 2.53091752529144287109e-01) (33, 3.12197983264923095703e-01) (34, 3.69936935603618621826e-02) (35, -1.91708177328109741211e-01) (36, 1.14424169063568115234e+00) (37, -1.91222861409187316895e-01) (38, 3.38393688201904296875e-01) (39, -1.05666086077690124512e-01) (40, 3.61531525850296020508e-02) (41, -2.25806146860122680664e-01) (42, -8.49109962582588195801e-02) (43, 7.04571902751922607422e-01) (44, -4.89234268665313720703e-01) (45, 8.62711742520332336426e-02) (46, 3.12142133712768554688e-01) (47, 3.77036869525909423828e-01) (48, 3.13944429159164428711e-01) (49, 1.38157317414879798889e-02) (50, 6.09607160091400146484e-01) (51, 2.95878231525421142578e-01) (52, -5.32051809132099151611e-02) (53, 6.36112868785858154297e-01) (54, 5.96393585205078125000e-01) (55, -1.69606223702430725098e-01) (56, 5.30250966548919677734e-01) (57, 6.57876074314117431641e-01) (58, -7.97584950923919677734e-02) (59, -4.04236733913421630859e-01) (60, -1.75027132034301757812e-01) (61, 2.98772215843200683594e-01) (62, 3.09615600854158401489e-02) (63, -4.36475813388824462891e-01) (64, 5.36509931087493896484e-01) (65, 3.53850796818733215332e-03) (31, 9.00490209460258483887e-02) (32, -5.57527393102645874023e-02) (33, 1.81006461381912231445e-01) (34, 6.50708675384521484375e-01) (35, -1.18949852883815765381e-01) (36, 6.80970489978790283203e-01) (37, 4.15524542331695556641e-01) (38, -1.46338805556297302246e-01) (39, 3.18328708410263061523e-01) (40, -3.62552732229232788086e-01) (41, 1.25732231140136718750e+00) (42, 1.90522223711013793945e-01) (43, -8.77662003040313720703e-02) (44, 8.10999274253845214844e-01) (45, 3.20100039243698120117e-01) (46, -1.67366385459899902344e-01) (47, 1.24486666172742843628e-02) (48, 2.09943130612373352051e-01) (49, 5.85859775543212890625e-01) (50, -1.67417258024215698242e-01) (51, -4.86694760620594024658e-02) (52, 1.94734901189804077148e-01) (53, -2.04728513956069946289e-01) (54, 1.12523935735225677490e-01) (55, 2.32169449329376220703e-01) (56, -1.19822463020682334900e-02) (57, -3.12183387577533721924e-02) (58, 5.49341499805450439453e-01) (59, 1.64645373821258544922e+00) (60, -2.42135152220726013184e-02) (61, -1.48464351892471313477e-01) (62, 2.20314428210258483887e-01) (63, 1.07871450483798980713e-01) (64, -9.66268684715032577515e-03) (65, 4.80792194604873657227e-01) (31, 4.27647292613983154297e-01) (32, 6.04369044303894042969e-01) (33, 6.50909423828125000000e-01) (34, 3.70795279741287231445e-02) (35, 5.58604955673217773438e-01) (36, 6.05599462985992431641e-01) (37, 7.89367631077766418457e-02) (38, 5.79119026660919189453e-01) (39, -4.97868284583091735840e-02) (40, -2.37949132919311523438e-01) (41, -5.93837946653366088867e-02) (42, -6.28122612833976745605e-02) (43, 4.50960546731948852539e-01) (44, -5.13424038887023925781e-01) (45, -1.92718386650085449219e-01) (46, 7.01213717460632324219e-01) (47, 5.31262159347534179688e-01) (48, -5.41924655437469482422e-01) (49, -6.06305571272969245911e-03) (50, 3.61064225435256958008e-01) (51, 5.72415590286254882812e-01) (52, -7.23634660243988037109e-02) (53, 3.12873452901840209961e-01) (54, 3.69228690862655639648e-01) (55, -1.02731454372406005859e+00) (56, 2.82181620597839355469e-01) (57, 3.92409384250640869141e-01) (58, -8.96862372756004333496e-02) (59, -5.23678421974182128906e-01) (60, -2.74485889822244644165e-02) (61, 6.74699068069458007812e-01) (62, -1.30629772320389747620e-03) (63, -1.98243772983551025391e+00) (64, 4.79602515697479248047e-01) (65, -1.40409693121910095215e-02) (31, -3.07192206382751464844e-01) (32, 1.61858379840850830078e-01) (33, 1.43980950117111206055e-01) (34, 1.63429036736488342285e-01) (35, 2.55578309297561645508e-01) (36, -1.79474627971649169922e+00) (37, 1.37675726413726806641e+00) (38, 1.52276918292045593262e-01) (39, 6.63348019123077392578e-01) (40, 6.63837313652038574219e-01) (41, 7.07596540451049804688e-01) (42, 6.56534433364868164062e-01) (43, -2.90658533573150634766e-01) (44, -3.08474421501159667969e+00) (45, 7.58092403411865234375e-01) (46, 1.51391386985778808594e-01) (47, 1.48294791579246520996e-01) (48, 3.94356667995452880859e-01) (49, -3.72514575719833374023e-02) (50, -2.76112705469131469727e-01) (51, 1.64123386144638061523e-01) (52, 6.42964661121368408203e-01) (53, -1.65226131677627563477e-01) (54, -2.75361180305480957031e-01) (55, 4.87046778202056884766e-01) (56, -2.62179523706436157227e-01) (57, -1.69885650277137756348e-01) (58, -2.73860603570938110352e-01) (59, 1.80104720592498779297e+00) (60, 3.02932083606719970703e-01) (61, 2.46453449130058288574e-01) (62, 5.68904161453247070312e-01) (63, 5.85951685905456542969e-01) (64, -1.59026697278022766113e-01) (65, 1.52550846338272094727e-01) (31, 5.09942352771759033203e-01) (32, 4.65046912431716918945e-01) (33, 4.32112485170364379883e-01) (34, -3.53120490908622741699e-02) (35, 3.56841117143630981445e-01) (36, 3.26533734798431396484e-01) (37, -6.52145966887474060059e-02) (38, 3.78625571727752685547e-01) (39, 3.55468004941940307617e-01) (40, 1.62465482950210571289e-01) (41, 1.13691478967666625977e-01) (42, -6.90195942297577857971e-03) (43, 5.93269646167755126953e-01) (44, -6.74787223339080810547e-01) (45, -2.74844206869602203369e-02) (46, 3.24125766754150390625e-01) (47, 3.13530296087265014648e-01) (48, -1.35752037167549133301e-01) (49, -1.31169438362121582031e-01) (50, 5.13376891613006591797e-01) (51, 3.37000131607055664062e-01) (52, 2.46823281049728393555e-01) (53, 4.77010071277618408203e-01) (54, 4.55668836832046508789e-01) (55, 3.17149609327316284180e-01) (56, 4.35568124055862426758e-01) (57, 5.52088797092437744141e-01) (58, 5.30142128467559814453e-01) (59, 3.08430716395378112793e-02) (60, 4.03451532125473022461e-01) (61, 4.30021911859512329102e-01) (62, -6.07885867357254028320e-02) (63, 6.76834210753440856934e-03) (64, 5.09787738323211669922e-01) (65, 4.15018238127231597900e-02) (31, 6.54678761959075927734e-01) (32, 3.85104537010192871094e-01) (33, 4.16016995906829833984e-01) (34, 9.73944067955017089844e-02) (35, 2.51991242170333862305e-01) (36, 2.88030117750167846680e-01) (37, -3.50402981042861938477e-01) (38, 4.07794386148452758789e-01) (39, 2.67600655555725097656e-01) (40, -6.24394035339355468750e+00) (41, -2.79404699802398681641e-01) (42, -5.36421537399291992188e-02) (43, 1.28873586654663085938e+00) (44, 1.06061589717864990234e+00) (45, -7.44502097368240356445e-02) (46, 4.59684938192367553711e-01) (47, 3.93512874841690063477e-01) (48, 2.05767422914505004883e-01) (49, 1.31117179989814758301e-01) (50, 6.81538820266723632812e-01) (51, 3.03209125995635986328e-01) (52, -1.30017250776290893555e-01) (53, 6.58201396465301513672e-01) (54, 6.56550884246826171875e-01) (55, -6.49245977401733398438e-01) (56, 5.07034957408905029297e-01) (57, 6.58793628215789794922e-01) (58, 5.72598755359649658203e-01) (59, -8.39588224887847900391e-01) (60, 2.61017173528671264648e-01) (61, 3.84984850883483886719e-01) (62, -5.64798936247825622559e-02) (63, -2.58184462785720825195e-01) (64, 5.26852965354919433594e-01) (65, 2.07476958632469177246e-01) (31, 4.62457507848739624023e-01) (32, 4.69131052494049072266e-01) (33, 6.78994834423065185547e-01) (34, -2.80958488583564758301e-02) (35, 5.02033948898315429688e-01) (36, -2.25697666406631469727e-01) (37, -4.56588178873062133789e-01) (38, 3.78834396600723266602e-01) (39, -6.29229173064231872559e-02) (40, -4.60278928279876708984e-01) (41, -3.29301729798316955566e-02) (42, -6.46979659795761108398e-02) (43, 5.87842285633087158203e-01) (44, -2.68052797764539718628e-02) (45, 7.24636614322662353516e-02) (46, 4.30125623941421508789e-01) (47, 5.19919574260711669922e-01) (48, 2.47748151421546936035e-01) (49, 5.76715528964996337891e-01) (50, 4.39927786588668823242e-01) (51, 3.91240447759628295898e-01) (52, -1.83462366461753845215e-01) (53, 3.92071574926376342773e-01) (54, 3.25070977210998535156e-01) (55, -9.92614448070526123047e-01) (56, 4.19696658849716186523e-01) (57, 4.75809872150421142578e-01) (58, -3.81137207150459289551e-02) (59, -1.43685668706893920898e-01) (60, 3.58875155448913574219e-01) (61, 4.62241560220718383789e-01) (62, 1.06529608368873596191e-01) (63, -8.76225352287292480469e-01) (64, 4.76065635681152343750e-01) (65, -1.32303357124328613281e-01) (31, -4.39858287572860717773e-01) (32, -2.60875791311264038086e-01) (33, -1.96155354380607604980e-01) (34, 5.52518725395202636719e-01) (35, -2.37794220447540283203e-01) (36, -9.23346281051635742188e-01) (37, 6.25423312187194824219e-01) (38, -1.98854133486747741699e-01) (39, -3.31720709800720214844e-01) (40, 7.05234766006469726562e-01) (41, 2.51861453056335449219e-01) (42, 3.45095217227935791016e-01) (43, -9.77428317070007324219e-01) (44, 4.64088708162307739258e-01) (45, 1.83322846889495849609e-01) (46, -2.74805516004562377930e-01) (47, -3.22536855936050415039e-01) (48, 3.95083457231521606445e-01) (49, -7.36093819141387939453e-02) (50, -4.31571990251541137695e-01) (51, -2.24188774824142456055e-01) (52, 2.94198453426361083984e-01) (53, -2.82304555177688598633e-01) (54, -7.54504427313804626465e-02) (55, 1.53699243068695068359e+00) (56, -5.75211286544799804688e-01) (57, 6.58621499314904212952e-03) (58, 6.98812544345855712891e-01) (59, 1.76795041561126708984e+00) (60, -2.34263792634010314941e-01) (61, -1.86036959290504455566e-01) (62, 4.47462618350982666016e-01) (63, 5.46768426895141601562e-01) (64, 3.69054600596427917480e-02) (65, 6.95524394512176513672e-01) (31, 1.05719361454248428345e-02) (32, 8.98555815219879150391e-02) (33, 1.71453401446342468262e-01) (34, 2.26687431335449218750e-01) (35, 1.10687837004661560059e-01) (36, 5.33089451491832733154e-02) (37, 3.65716725587844848633e-01) (38, -1.86695111915469169617e-03) (39, 5.68510554730892181396e-02) (40, 1.38340905308723449707e-01) (41, 5.35049773752689361572e-02) (42, 8.37022006511688232422e-01) (43, -1.14643871784210205078e-01) (44, 4.64947730302810668945e-01) (45, 7.78187990188598632812e-01) (46, 1.72344490885734558105e-01) (47, 1.44406244158744812012e-01) (48, 8.42160999774932861328e-01) (49, -3.51247161626815795898e-01) (50, -5.21136522293090820312e-02) (51, 1.93490549921989440918e-01) (52, 7.73916363716125488281e-01) (53, 1.02651491761207580566e-01) (54, -2.88567487150430679321e-02) (55, 5.70456862449645996094e-01) (56, 2.55939997732639312744e-02) (57, -7.71343335509300231934e-02) (58, 6.83623105287551879883e-02) (59, 2.64117062091827392578e-01) (60, -3.33388857543468475342e-02) (61, 1.33439823985099792480e-01) (62, 7.97006428241729736328e-01) (63, -3.68742418289184570312e+00) (64, 6.94146677851676940918e-02) (65, 2.53623723983764648438e-01) (31, 4.61171537637710571289e-01) (32, 3.36756289005279541016e-01) (33, 3.10221195220947265625e-01) (34, 6.59702643752098083496e-02) (35, 2.37026393413543701172e-01) (36, 1.46403467655181884766e+00) (37, -5.14429926872253417969e-01) (38, 1.68247640132904052734e-01) (39, -1.39310926198959350586e-01) (40, -1.35599747300148010254e-01) (41, 3.97237181663513183594e-01) (42, 4.58402733784168958664e-04) (43, 6.42558991909027099609e-01) (44, 1.97345718741416931152e-01) (45, -1.67257532477378845215e-01) (46, 3.18847894668579101562e-01) (47, 1.95231020450592041016e-01) (48, 3.64884696900844573975e-02) (49, 7.46059715747833251953e-02) (50, 5.35358071327209472656e-01) (51, 2.70300805568695068359e-01) (52, -1.99919089674949645996e-01) (53, 1.49047589302062988281e+00) (54, 5.45603394508361816406e-01) (55, -3.22601757943630218506e-02) (56, 7.16065764427185058594e-01) (57, 6.06407284736633300781e-01) (58, 8.29439237713813781738e-02) (59, 1.71684443950653076172e-01) (60, 2.79569745063781738281e-01) (61, 3.14411401748657226562e-01) (62, 1.10723145306110382080e-01) (63, -5.45332610607147216797e-01) (64, 5.24237632751464843750e-01) (65, 9.29372832179069519043e-02) (31, -8.39081555604934692383e-02) (32, -1.01540446281433105469e-01) (33, 1.48649156093597412109e-01) (34, 3.66026997566223144531e-01) (35, -4.34301830828189849854e-02) (36, -2.73346044123172760010e-02) (37, 4.34903770685195922852e-01) (38, -8.01739692687988281250e-02) (39, 3.56974959373474121094e-01) (40, -4.88313362002372741699e-02) (41, 1.75569605827331542969e+00) (42, -6.87116980552673339844e-02) (43, 4.90877449512481689453e-01) (44, 2.12706074118614196777e-01) (45, 1.68712332844734191895e-01) (46, 1.53605863451957702637e-01) (47, 2.16893292963504791260e-02) (48, 2.24554985761642456055e-01) (49, 5.71571737527847290039e-02) (50, 6.61962013691663742065e-03) (51, -3.12504097819328308105e-02) (52, 2.86603510379791259766e-01) (53, -1.76958553493022918701e-03) (54, -3.42994481325149536133e-02) (55, 3.51740121841430664062e-01) (56, 1.03954896330833435059e-01) (57, 1.11966580152511596680e-01) (58, 7.23169520497322082520e-02) (59, 2.07190752029418945312e+00) (60, -1.03782661259174346924e-01) (61, -1.24572724103927612305e-01) (62, 2.54330903291702270508e-01) (63, 1.42163261771202087402e-01) (64, 1.37760758399963378906e-01) (65, 5.02451360225677490234e-01) (31, -2.06480056047439575195e-01) (32, 8.20318698883056640625e-01) (33, 5.91755390167236328125e-01) (34, 2.68537729978561401367e-01) (35, 7.98448801040649414062e-01) (36, -2.46847391128540039062e+00) (37, -3.84458690881729125977e-01) (38, 9.03862476348876953125e-01) (39, 8.80615770816802978516e-01) (40, 6.58196830749511718750e+00) (41, 8.54907110333442687988e-02) (42, 6.68012276291847229004e-02) (43, 2.90276974439620971680e-01) (44, 1.08309149742126464844e+00) (45, 1.39760291576385498047e+00) (46, 7.69090712070465087891e-01) (47, 8.69383037090301513672e-01) (48, -2.98259043693542480469e+00) (49, -1.13565146923065185547e+00) (50, 3.87151151895523071289e-01) (51, 9.41885113716125488281e-01) (52, 1.59316033124923706055e-01) (53, -2.69464194774627685547e-01) (54, 3.41745883226394653320e-01) (55, 3.68190503120422363281e+00) (56, 4.11381363868713378906e-01) (57, 3.67608636617660522461e-01) (58, 2.01533332467079162598e-01) (59, -3.98360878229141235352e-01) (60, 8.72653007507324218750e-01) (61, 7.16147780418395996094e-01) (62, -9.47835892438888549805e-02) (63, 5.49587249755859375000e-01) (64, 3.56423854827880859375e-01) (65, -2.33017057180404663086e-01) (31, 4.40170466899871826172e-02) (32, 3.74630600214004516602e-01) (33, -2.42780041694641113281e+00) (34, 8.45850288867950439453e-01) (35, 3.55713397264480590820e-01) (36, -2.67367303371429443359e-01) (37, 1.47928193211555480957e-01) (38, -1.69856145977973937988e-01) (39, 3.87260884046554565430e-01) (40, 2.84326052665710449219e+00) (41, -8.53953883051872253418e-02) (42, 2.30064958333969116211e-01) (43, -1.61360967159271240234e+00) (44, -6.44777345657348632812e+00) (45, 5.30463635921478271484e-01) (46, -1.04074545204639434814e-01) (47, 3.86438310146331787109e-01) (48, 4.77204471826553344727e-01) (49, 6.60302698612213134766e-01) (50, -3.24538834393024444580e-02) (51, -7.97575339674949645996e-02) (52, -1.10314500331878662109e+00) (53, 1.13854952156543731689e-01) (54, 1.69234588742256164551e-01) (55, 1.15686722099781036377e-01) (56, 5.01867890357971191406e-01) (57, 1.33490011096000671387e-01) (58, 7.45254635810852050781e-01) (59, 3.85702848434448242188e-01) (60, 3.42732310295104980469e-01) (61, -3.83590236306190490723e-02) (62, 4.34352278709411621094e-01) (63, 3.56014108657836914062e+00) (64, 1.14620000123977661133e-01) (65, 6.22526407241821289062e-01) (31, 3.47890466451644897461e-01) (32, 6.44227623939514160156e-01) (33, 7.54573285579681396484e-01) (34, 1.54632604122161865234e+00) (35, 5.70508182048797607422e-01) (36, 6.00470542907714843750e-01) (37, 2.22933694720268249512e-01) (38, 6.09020173549652099609e-01) (39, -1.07305653393268585205e-01) (40, -8.58783870935440063477e-02) (41, 3.18426042795181274414e-01) (42, -7.40897506475448608398e-02) (43, 7.04967737197875976562e-01) (44, -2.00907874107360839844e+00) (45, -2.10855752229690551758e-01) (46, 6.18843197822570800781e-01) (47, 6.14831209182739257812e-01) (48, -2.85734474658966064453e-01) (49, 1.55884012579917907715e-01) (50, 4.70264941453933715820e-01) (51, 5.42198479175567626953e-01) (52, -1.49456411600112915039e-01) (53, 3.78289580345153808594e-01) (54, 3.79347711801528930664e-01) (55, 3.32062602043151855469e-01) (56, 4.43986624479293823242e-01) (57, 4.65547680854797363281e-01) (58, -1.02665700018405914307e-01) (59, -4.43339198827743530273e-02) (60, 5.32617568969726562500e-01) (61, 7.43877112865447998047e-01) (62, -1.18436299264430999756e-01) (63, -6.85151696205139160156e-01) (64, 4.06927794218063354492e-01) (65, -5.28715774416923522949e-02) (31, 4.85906183719635009766e-01) (32, 3.22370797395706176758e-01) (33, 3.65010529756546020508e-01) (34, 1.11839842796325683594e+00) (35, 3.56875449419021606445e-01) (36, 1.09088861942291259766e+00) (37, -1.56271252781152725220e-02) (38, 4.55433070659637451172e-01) (39, 3.88473659753799438477e-01) (40, 2.84385289996862411499e-02) (41, 7.23970353603363037109e-01) (42, -7.11266636848449707031e-01) (43, 6.15893661975860595703e-01) (44, -1.25964593887329101562e+01) (45, -2.48579025268554687500e-01) (46, 3.26475352048873901367e-01) (47, 4.91518437862396240234e-01) (48, 4.99529205262660980225e-02) (49, 3.97238045930862426758e-01) (50, 5.07035911083221435547e-01) (51, 3.63549888134002685547e-01) (52, 2.70675987005233764648e-01) (53, 1.97627216577529907227e-01) (54, 3.23647826910018920898e-01) (55, 8.27167451381683349609e-01) (56, 2.97973066568374633789e-01) (57, 2.92326748371124267578e-01) (58, 3.60648274421691894531e-01) (59, 1.36498972773551940918e-01) (60, 4.65629905462265014648e-01) (61, 4.59992825984954833984e-01) (62, -1.68334349989891052246e-01) (63, 1.65240061283111572266e+00) (64, 3.19210618734359741211e-01) (65, -2.05178465694189071655e-02) (31, 2.20204472541809082031e-01) (32, 4.53721374273300170898e-01) (33, 2.74981975555419921875e-01) (34, 1.42578184604644775391e-01) (35, 3.38888078927993774414e-01) (36, 3.57483237981796264648e-01) (37, -2.23382025957107543945e-01) (38, 4.57603424787521362305e-01) (39, 3.41823220252990722656e-01) (40, -6.67805910110473632812e-01) (41, 1.24706923961639404297e+00) (42, 2.58179485797882080078e-01) (43, 5.90505719184875488281e-01) (44, -4.81295585632324218750e+00) (45, -2.26696357131004333496e-01) (46, 4.44205820560455322266e-01) (47, 3.70840430259704589844e-01) (48, -5.41990232467651367188e+00) (49, -3.44651862978935241699e-02) (50, 3.34528952836990356445e-01) (51, 4.66739505529403686523e-01) (52, 2.39891201257705688477e-01) (53, 5.12306988239288330078e-01) (54, 5.59255599975585937500e-01) (55, -1.28079223632812500000e+00) (56, 3.70431810617446899414e-01) (57, 2.50974327325820922852e-01) (58, -8.72644335031509399414e-02) (59, 1.09201535582542419434e-01) (60, 3.07976484298706054688e-01) (61, 5.01481771469116210938e-01) (62, -4.30323600769042968750e-01) (63, -1.60238265991210937500e+00) (64, 1.99429601430892944336e-01) (65, -1.97012303397059440613e-03) (31, 4.71193790435791015625e-02) (32, 2.01556488871574401855e-01) (33, 2.46651276946067810059e-01) (34, 4.10786196589469909668e-02) (35, -1.52361676096916198730e-01) (36, 6.44507050514221191406e-01) (37, 5.25188207626342773438e-01) (38, 2.52251714468002319336e-01) (39, 1.20040737092494964600e-02) (40, -1.58743456006050109863e-01) (41, 3.56692850589752197266e-01) (42, -6.94769471883773803711e-02) (43, 5.02505838871002197266e-01) (44, -6.55508339405059814453e-02) (45, -6.87428889796137809753e-03) (46, 2.20270812511444091797e-01) (47, 2.68824815750122070312e-01) (48, 3.11485137790441513062e-02) (49, 6.42265737056732177734e-01) (50, 1.26803204417228698730e-01) (51, 2.29604899883270263672e-01) (52, -1.54060855507850646973e-01) (53, 4.46143627166748046875e-01) (54, 5.48090994358062744141e-01) (55, -1.07361994683742523193e-01) (56, 6.05422556400299072266e-01) (57, 5.11398494243621826172e-01) (58, 1.39645710587501525879e-01) (59, -6.70017361640930175781e-01) (60, -6.06636777520179748535e-02) (61, 2.73201644420623779297e-01) (62, 4.29529771208763122559e-02) (63, -3.00968140363693237305e-01) (64, 5.09733676910400390625e-01) (65, -3.40360142290592193604e-02) (31, -1.58866897225379943848e-01) (32, 2.56252974271774291992e-01) (33, 8.08032274246215820312e-01) (34, 5.47823905944824218750e-01) (35, 2.19472512602806091309e-01) (36, 5.05244195461273193359e-01) (37, 2.93602734804153442383e-01) (38, 1.14995874464511871338e-01) (39, 6.33387863636016845703e-01) (40, -6.47104978561401367188e-01) (41, 6.06302797794342041016e-01) (42, 7.26685523986816406250e-01) (43, -1.55438378453254699707e-01) (44, 1.40599775314331054688e+00) (45, 1.23244190216064453125e+00) (46, -3.88223640620708465576e-02) (47, 1.07318706810474395752e-01) (48, 1.03560805320739746094e+00) (49, -1.25395268201828002930e-01) (50, -1.70075610280036926270e-01) (51, 1.99635013937950134277e-01) (52, 9.30810034275054931641e-01) (53, -2.50601500272750854492e-01) (54, -2.13937893509864807129e-01) (55, 3.07773709297180175781e-01) (56, -1.89294278621673583984e-01) (57, -8.95252749323844909668e-02) (58, 9.88108739256858825684e-02) (59, -1.25722259283065795898e-01) (60, 1.78669974207878112793e-01) (61, 2.00514700263738632202e-02) (62, 5.93560039997100830078e-01) (63, 3.89745426177978515625e+00) (64, -1.80151954293251037598e-01) (65, 1.97643563151359558105e-01) (66, -1.45097821950912475586e-01) (67, -4.78357136249542236328e-01) (68, 1.93264827132225036621e-01) (69, -3.97310376167297363281e-01) (70, -1.68693438172340393066e-01) (71, -4.95261013507843017578e-01) (72, 1.77035748958587646484e-01) (73, 4.46632415056228637695e-01) (74, -1.53296366333961486816e-01) (75, -8.60772505402565002441e-02) (76, 9.07470807433128356934e-02) (77, -4.23125952482223510742e-01) (78, 3.63368332386016845703e-01) (79, 2.35139578580856323242e-01) (80, 1.82625874876976013184e-01) (81, 6.33694976568222045898e-02) (82, 3.60397666692733764648e-01) (83, 5.12723671272397041321e-03) (84, -1.92942038178443908691e-01) (85, 5.93245252966880798340e-02) (86, 1.87771931290626525879e-01) (87, -4.25237417221069335938e-01) (88, -8.90934560447931289673e-03) (89, 1.93359419703483581543e-01) (90, 5.19494235515594482422e-01) (91, 2.24371433258056640625e-01) (92, 2.89762653410434722900e-02) (93, 1.52106672525405883789e-01) (94, 4.01221543550491333008e-01) (95, -5.63717298209667205811e-02) (96, -4.36114698648452758789e-01) (97, -2.98457622528076171875e-01) (98, 2.45890572667121887207e-01) (99, -2.25334495306015014648e-01) (100, 1.29942417144775390625e-01) (101, 4.19008225202560424805e-01) (102, 8.43312442302703857422e-02) (103, -1.63113385438919067383e-01) (104, 2.09532067179679870605e-01) (105, 3.06974709033966064453e-01) (106, 9.34013277292251586914e-02) (66, 3.64505887031555175781e-01) (67, 7.91320562362670898438e-01) (68, -7.04400956630706787109e-01) (69, 2.39775562658905982971e-03) (70, 1.37611493468284606934e-01) (71, -7.93640673160552978516e-01) (72, 6.58395588397979736328e-01) (73, 8.88819992542266845703e-01) (74, -9.97685566544532775879e-02) (75, -4.46026809513568878174e-02) (76, 2.59567469358444213867e-01) (77, 2.51907157897949218750e+00) (78, 1.19965481758117675781e+00) (79, -3.21769267320632934570e-01) (80, -7.54027009010314941406e-01) (81, 3.68820995092391967773e-01) (82, 5.33954203128814697266e-01) (83, 1.42538040876388549805e-01) (84, 7.06040143966674804688e-01) (85, 4.35613721609115600586e-01) (86, -4.74386692047119140625e-01) (87, 7.13799893856048583984e-01) (88, 6.85635387897491455078e-01) (89, 1.73532724380493164062e+00) (90, 8.45320940017700195312e-01) (91, 8.53924095630645751953e-01) (92, 5.95879971981048583984e-01) (93, -3.91732841730117797852e-01) (94, 2.84780788421630859375e+00) (95, 3.70742052793502807617e-01) (96, -1.64675116539001464844e+00) (97, -8.12951564788818359375e-01) (98, -6.65638685226440429688e+00) (99, 7.24374890327453613281e-01) (100, 1.34191405773162841797e+00) (101, 8.10048401355743408203e-01) (102, -1.94761431217193603516e+00) (103, 7.54049271345138549805e-02) (104, -4.50366616249084472656e-01) (105, 1.01623892784118652344e+00) (106, 7.95870125293731689453e-01) (66, -1.20518706738948822021e-01) (67, -3.96823734045028686523e-01) (68, 4.07208681106567382812e-01) (69, 1.97431311011314392090e-01) (70, -2.55318313837051391602e-01) (71, -3.60380224883556365967e-02) (72, 3.80750298500061035156e-01) (73, 8.07981610298156738281e-01) (74, 4.78717684745788574219e-01) (75, 1.37718394398689270020e-01) (76, 5.43311536312103271484e-01) (77, -5.34907519817352294922e-01) (78, 1.81168094277381896973e-01) (79, 5.88600337505340576172e-01) (80, 4.38379287719726562500e-01) (81, 1.29560485482215881348e-01) (82, 6.67526066303253173828e-01) (83, -8.90192855149507522583e-03) (84, 8.57914909720420837402e-02) (85, 1.09872058033943176270e-01) (86, 3.29085052013397216797e-01) (87, -2.95524179935455322266e-01) (88, -3.05263370275497436523e-01) (89, 5.42190313339233398438e-01) (90, 1.69154033064842224121e-01) (91, 4.70328301191329956055e-01) (92, -2.14730173349380493164e-01) (93, -4.67049144208431243896e-02) (94, -3.99594545364379882812e-01) (95, 1.76390752196311950684e-01) (96, 1.77761101722717285156e+00) (97, 9.22460779547691345215e-02) (98, 1.49275645613670349121e-01) (99, 3.11776828020811080933e-02) (100, 5.22558204829692840576e-02) (101, 7.58864581584930419922e-01) (102, -5.10072894394397735596e-02) (103, -3.73387634754180908203e-01) (104, 4.84308630228042602539e-01) (105, 6.51808857917785644531e-01) (106, -3.16298067569732666016e-01) (66, -3.58918935060501098633e-01) (67, 2.02504798769950866699e-01) (68, -1.71130359172821044922e-01) (69, 7.77125358581542968750e-02) (70, -4.22699779272079467773e-01) (71, 2.00435996055603027344e-01) (72, 5.93850091099739074707e-02) (73, 3.21950055658817291260e-02) (74, 2.47174322605133056641e-01) (75, 4.29758608341217041016e-01) (76, 7.01632261276245117188e-01) (77, 1.68260350823402404785e-01) (78, 1.17318499833345413208e-02) (79, -3.14099967479705810547e-01) (80, -5.90821206569671630859e-01) (81, 4.93651211261749267578e-01) (82, -4.27530631422996520996e-02) (83, 1.03851571679115295410e-01) (84, 7.52894282341003417969e-01) (85, 5.59311330318450927734e-01) (86, -1.19918048381805419922e-01) (87, 1.01525895297527313232e-01) (88, 2.44520097970962524414e-01) (89, 7.02200159430503845215e-02) (90, -1.15973755717277526855e-01) (91, 2.16906711459159851074e-01) (92, 3.90546232461929321289e-01) (93, 1.63114741444587707520e-01) (94, -2.67868489027023315430e-01) (95, 4.67645585536956787109e-01) (96, -7.20609068870544433594e-01) (97, -2.02463746070861816406e-01) (98, -1.09822404384613037109e+00) (99, 6.66985452175140380859e-01) (100, 7.69499003887176513672e-01) (101, 7.17642232775688171387e-02) (102, 2.28858903050422668457e-01) (103, 3.69347840547561645508e-01) (104, -3.29157143831253051758e-01) (105, 9.75811406970024108887e-02) (106, 3.18342238664627075195e-01) (66, -5.28157614171504974365e-02) (67, -2.42195636034011840820e-01) (68, 5.01379609107971191406e-01) (69, 1.64374679327011108398e-01) (70, -2.47524812817573547363e-01) (71, 1.24645568430423736572e-01) (72, 3.00743520259857177734e-01) (73, 7.86930322647094726562e-01) (74, -3.56168448925018310547e-01) (75, 4.20212894678115844727e-01) (76, 5.27569532394409179688e-01) (77, -4.51239123940467834473e-02) (78, 2.02795386314392089844e-01) (79, 4.99907732009887695312e-01) (80, 4.59371238946914672852e-01) (81, 5.10077595710754394531e-01) (82, 6.28268718719482421875e-01) (83, 1.39911043643951416016e+00) (84, 9.50363278388977050781e-02) (85, 1.64971709251403808594e-01) (86, 4.68688398599624633789e-01) (87, -4.60702180862426757812e-01) (88, -2.20848858356475830078e-01) (89, 4.99079912900924682617e-01) (90, 1.15157529711723327637e-01) (91, 5.78483104705810546875e-01) (92, 1.24496924877166748047e+00) (93, 4.52996902167797088623e-02) (94, -1.03856289386749267578e+00) (95, 2.17633455991744995117e-01) (96, -8.82988274097442626953e-01) (97, 5.86748957633972167969e-01) (98, 5.05908250808715820312e-01) (99, 5.16043454408645629883e-02) (100, 2.73535013198852539062e-01) (101, 7.69263088703155517578e-01) (102, 8.59900951385498046875e-01) (103, 7.17374384403228759766e-01) (104, 5.37388205528259277344e-01) (105, 5.24058401584625244141e-01) (106, -3.68601500988006591797e-01) (66, -6.69385135173797607422e-01) (67, 1.15415796637535095215e-01) (68, -1.78931549191474914551e-01) (69, 1.86336636543273925781e-01) (70, 1.11717373132705688477e-01) (71, 1.83565363287925720215e-01) (72, 1.62708312273025512695e-01) (73, 7.89025425910949707031e-03) (74, 2.16721087694168090820e-01) (75, 2.58693873882293701172e-01) (76, 5.36743938922882080078e-01) (77, 3.57077158987522125244e-02) (78, -3.18935476243495941162e-02) (79, -2.68116384744644165039e-01) (80, -3.73899638652801513672e-02) (81, 3.46187919378280639648e-01) (82, 7.48012512922286987305e-02) (83, -7.80407965183258056641e-01) (84, 9.44224774837493896484e-01) (85, 3.64750355482101440430e-01) (86, -7.49522522091865539551e-02) (87, 1.38433992862701416016e-01) (88, 2.54584521055221557617e-01) (89, -7.93351233005523681641e-02) (90, -1.85610935091972351074e-01) (91, 2.06566497683525085449e-01) (92, 2.04484179615974426270e-01) (93, 4.91276144981384277344e-01) (94, -2.29591101408004760742e-01) (95, 4.08905416727066040039e-01) (96, -4.77373749017715454102e-01) (97, -5.68656660616397857666e-02) (98, -3.25943576171994209290e-03) (99, 8.83780658245086669922e-01) (100, 5.76952934265136718750e-01) (101, 5.96751905977725982666e-02) (102, -6.13959021866321563721e-02) (103, 2.17770963907241821289e-01) (104, -1.34765163064002990723e-01) (105, 6.30680024623870849609e-02) (106, 1.67797788977622985840e-01) (66, -2.16365959495306015015e-02) (67, 8.71573984622955322266e-01) (68, 2.07752990536391735077e-03) (69, -2.03829005360603332520e-01) (70, 1.62304723262786865234e+00) (71, 2.80035912990570068359e-01) (72, 4.18676547706127166748e-02) (73, -2.35850796103477478027e-01) (74, 3.94317269325256347656e-01) (75, 2.46370643377304077148e-01) (76, 7.08516985177993774414e-02) (77, 8.83151829242706298828e-01) (78, 1.46904274821281433105e-01) (79, 1.43416360020637512207e-01) (80, -3.70779931545257568359e-02) (81, 2.33480155467987060547e-01) (82, -9.34133678674697875977e-02) (83, -3.13994050025939941406e-01) (84, 3.65059971809387207031e-01) (85, 2.92537301778793334961e-01) (86, -1.51541128754615783691e-01) (87, 7.83069610595703125000e-01) (88, 6.61613225936889648438e-01) (89, -2.17090904712677001953e-01) (90, 1.41351237893104553223e-01) (91, -1.18108779191970825195e-01) (92, 4.99487042427062988281e-01) (93, 4.72711175680160522461e-01) (94, 5.40490308776497840881e-03) (95, 3.15543413162231445312e-01) (96, -8.22984814643859863281e-01) (97, 3.69670480489730834961e-01) (98, -2.34985208511352539062e+00) (99, 3.52786302566528320312e-01) (100, 3.20064961910247802734e-01) (101, -2.33722805976867675781e-01) (102, 7.24938213825225830078e-02) (103, 4.69728559255599975586e-01) (104, -1.98463518172502517700e-02) (105, 3.25559318298473954201e-04) (106, 6.09682321548461914062e-01) (66, 1.26954126358032226562e+00) (67, 7.79690563678741455078e-01) (68, -2.33755841851234436035e-01) (69, 5.17043650150299072266e-01) (70, 1.19192555546760559082e-01) (71, 5.45014858245849609375e-01) (72, 4.67772394418716430664e-01) (73, 