FANN_FLO_2.1
num_layers=3
learning_rate=0.700000
connection_rate=1.000000
network_type=0
learning_momentum=0.000000
training_algorithm=2
train_error_function=1
train_stop_function=0
cascade_output_change_fraction=0.010000
quickprop_decay=-0.000100
quickprop_mu=1.750000
rprop_increase_factor=1.200000
rprop_decrease_factor=0.500000
rprop_delta_min=0.000000
rprop_delta_max=50.000000
rprop_delta_zero=0.100000
cascade_output_stagnation_epochs=12
cascade_candidate_change_fraction=0.010000
cascade_candidate_stagnation_epochs=12
cascade_max_out_epochs=150
cascade_min_out_epochs=50
cascade_max_cand_epochs=150
cascade_min_cand_epochs=50
cascade_num_candidate_groups=2
bit_fail_limit=3.49999994039535522461e-01
cascade_candidate_limit=1.00000000000000000000e+03
cascade_weight_multiplier=4.00000005960464477539e-01
cascade_activation_functions_count=10
cascade_activation_functions=3 5 7 8 10 11 14 15 16 17 
cascade_activation_steepnesses_count=4
cascade_activation_steepnesses=2.50000000000000000000e-01 5.00000000000000000000e-01 7.50000000000000000000e-01 1.00000000000000000000e+00 
layer_sizes=31 4 55 
scale_included=0
neurons (num_inputs, activation_function, activation_steepness)=(0, 0, 0.00000000000000000000e+00) (0, 0, 0.00000000000000000000e+00) (0, 0, 0.00000000000000000000e+00) (0, 0, 0.00000000000000000000e+00) (0, 0, 0.00000000000000000000e+00) (0, 0, 0.00000000000000000000e+00) (0, 0, 0.00000000000000000000e+00) (0, 0, 0.00000000000000000000e+00) (0, 0, 0.00000000000000000000e+00) (0, 0, 0.00000000000000000000e+00) (0, 0, 0.00000000000000000000e+00) (0, 0, 0.00000000000000000000e+00) (0, 0, 0.00000000000000000000e+00) (0, 0, 0.00000000000000000000e+00) (0, 0, 0.00000000000000000000e+00) (0, 0, 0.00000000000000000000e+00) (0, 0, 0.00000000000000000000e+00) (0, 0, 0.00000000000000000000e+00) (0, 0, 0.00000000000000000000e+00) (0, 0, 0.00000000000000000000e+00) (0, 0, 0.00000000000000000000e+00) (0, 0, 0.00000000000000000000e+00) (0, 0, 0.00000000000000000000e+00) (0, 0, 0.00000000000000000000e+00) (0, 0, 0.00000000000000000000e+00) (0, 0, 0.00000000000000000000e+00) (0, 0, 0.00000000000000000000e+00) (0, 0, 0.00000000000000000000e+00) (0, 0, 0.00000000000000000000e+00) (0, 0, 0.00000000000000000000e+00) (0, 0, 0.00000000000000000000e+00) (31, 5, 5.00000000000000000000e-01) (31, 5, 5.00000000000000000000e-01) (31, 5, 5.00000000000000000000e-01) (0, 5, 0.00000000000000000000e+00) (4, 5, 2.00000002980232238770e-01) (4, 5, 2.00000002980232238770e-01) (4, 5, 2.00000002980232238770e-01) (4, 5, 2.00000002980232238770e-01) (4, 5, 2.00000002980232238770e-01) (4, 5, 2.00000002980232238770e-01) (4, 5, 2.00000002980232238770e-01) (4, 5, 2.00000002980232238770e-01) (4, 5, 2.00000002980232238770e-01) (4, 5, 2.00000002980232238770e-01) (4, 5, 2.00000002980232238770e-01) (4, 5, 2.00000002980232238770e-01) (4, 5, 2.00000002980232238770e-01) (4, 5, 2.00000002980232238770e-01) (4, 5, 2.00000002980232238770e-01) (4, 5, 2.00000002980232238770e-01) (4, 5, 2.00000002980232238770e-01) (4, 5, 2.00000002980232238770e-01) (4, 5, 2.00000002980232238770e-01) (4, 5, 2.00000002980232238770e-01) (4, 5, 2.00000002980232238770e-01) (4, 5, 2.00000002980232238770e-01) (4, 5, 2.00000002980232238770e-01) (4, 5, 2.00000002980232238770e-01) (4, 5, 2.00000002980232238770e-01) (4, 5, 2.00000002980232238770e-01) (4, 5, 2.00000002980232238770e-01) (4, 5, 2.00000002980232238770e-01) (4, 5, 2.00000002980232238770e-01) (4, 5, 2.00000002980232238770e-01) (4, 5, 2.00000002980232238770e-01) (4, 5, 2.00000002980232238770e-01) (4, 5, 2.00000002980232238770e-01) (4, 5, 2.00000002980232238770e-01) (4, 5, 2.00000002980232238770e-01) (4, 5, 2.00000002980232238770e-01) (4, 5, 2.00000002980232238770e-01) (4, 5, 2.00000002980232238770e-01) (4, 5, 2.00000002980232238770e-01) (4, 5, 2.00000002980232238770e-01) (4, 5, 2.00000002980232238770e-01) (4, 5, 2.00000002980232238770e-01) (4, 5, 2.00000002980232238770e-01) (4, 5, 2.00000002980232238770e-01) (4, 5, 2.00000002980232238770e-01) (4, 5, 2.00000002980232238770e-01) (4, 5, 2.00000002980232238770e-01) (4, 5, 2.00000002980232238770e-01) (4, 5, 2.00000002980232238770e-01) (4, 5, 2.00000002980232238770e-01) (4, 5, 2.00000002980232238770e-01) (4, 5, 2.00000002980232238770e-01) (4, 5, 2.00000002980232238770e-01) (4, 5, 2.00000002980232238770e-01) (0, 5, 2.00000002980232238770e-01) 
connections (connected_to_neuron, weight)=(0, 1.56549263000488281250e+00) (1, 1.60048198699951171875e+00) (2, 1.59175252914428710938e+00) (3, 1.49374973773956298828e+00) (4, 1.45648550987243652344e+00) (5, 1.49965715408325195312e+00) (6, 1.58550405502319335938e+00) (7, 1.55321836471557617188e+00) (8, 1.61209464073181152344e+00) (9, 1.63709485530853271484e+00) (10, 1.57619166374206542969e+00) (11, 1.45991039276123046875e+00) (12, 1.64779019355773925781e+00) (13, 1.49333190917968750000e+00) (14, 1.57432544231414794922e+00) (15, 1.46845805644989013672e+00) (16, 1.61203610897064208984e+00) (17, 1.51254010200500488281e+00) (18, 1.47088456153869628906e+00) (19, 1.47479593753814697266e+00) (20, 1.45148313045501708984e+00) (21, 1.59369969367980957031e+00) (22, 1.58679378032684326172e+00) (23, 1.60065114498138427734e+00) (24, 1.56278526782989501953e+00) (25, 1.47047722339630126953e+00) (26, 1.64927220344543457031e+00) (27, 1.64216697216033935547e+00) (28, 1.58052110671997070312e+00) (29, 1.64386820793151855469e+00) (30, 1.57091283798217773438e+00) (0, 2.47444197535514831543e-01) (1, 3.45780581235885620117e-01) (2, 2.64095783233642578125e-01) (3, 2.91285157203674316406e-01) (4, 3.52357327938079833984e-01) (5, 3.13844174146652221680e-01) (6, 2.26880401372909545898e-01) (7, 2.55666971206665039062e-01) (8, 2.76030093431472778320e-01) (9, 2.14066535234451293945e-01) (10, 3.81949841976165771484e-01) (11, 2.86031693220138549805e-01) (12, 2.11947977542877197266e-01) (13, 2.25373044610023498535e-01) (14, 2.10448369383811950684e-01) (15, 2.30497315526008605957e-01) (16, 3.87500405311584472656e-01) (17, 2.73079723119735717773e-01) (18, 2.51473128795623779297e-01) (19, 2.12387621402740478516e-01) (20, 2.74654060602188110352e-01) (21, 3.95264059305191040039e-01) (22, 3.49272608757019042969e-01) (23, 2.25396499037742614746e-01) (24, 3.08140575885772705078e-01) (25, 3.69841128587722778320e-01) (26, 2.24759876728057861328e-01) (27, 3.00398796796798706055e-01) (28, 3.00453424453735351562e-01) (29, 2.18719273805618286133e-01) (30, 2.21402838826179504395e-01) (0, 5.21196842193603515625e-01) (1, 5.37799060344696044922e-01) (2, 4.58797842264175415039e-01) (3, 4.11233961582183837891e-01) (4, 4.88908410072326660156e-01) (5, 5.71394026279449462891e-01) (6, 4.36866343021392822266e-01) (7, 5.43327331542968750000e-01) (8, 4.46176052093505859375e-01) (9, 4.49684858322143554688e-01) (10, 5.24029135704040527344e-01) (11, 5.30959725379943847656e-01) (12, 4.60384815931320190430e-01) (13, 5.48154175281524658203e-01) (14, 5.40160059928894042969e-01) (15, 4.89634126424789428711e-01) (16, 5.34406602382659912109e-01) (17, 4.11991775035858154297e-01) (18, 5.39859235286712646484e-01) (19, 5.45546174049377441406e-01) (20, 4.85397815704345703125e-01) (21, 5.33875286579132080078e-01) (22, 4.93570774793624877930e-01) (23, 5.09546279907226562500e-01) (24, 4.40767794847488403320e-01) (25, 4.62163865566253662109e-01) (26, 5.33058166503906250000e-01) (27, 5.39918601512908935547e-01) (28, 5.61369299888610839844e-01) (29, 5.50529420375823974609e-01) (30, 5.60073375701904296875e-01) (31, 3.88287603855133056641e-01) (32, 1.56179470941424369812e-02) (33, -1.77007347345352172852e-01) (34, 4.23726379871368408203e-01) (31, 4.23975914716720581055e-01) (32, 7.85594135522842407227e-02) (33, -8.57626497745513916016e-02) (34, 6.31878972053527832031e-02) (31, 3.90572249889373779297e-01) (32, -1.97450444102287292480e-02) (33, -7.86710083484649658203e-02) (34, 3.45736682415008544922e-01) (31, 1.63587331771850585938e+00) (32, 5.13771235942840576172e-01) (33, 2.54037469625473022461e-01) (34, 1.54971206188201904297e+00) (31, 1.54649603366851806641e+00) (32, 4.64781224727630615234e-01) (33, 2.65115320682525634766e-01) (34, 1.51624691486358642578e+00) (31, 1.64849722385406494141e+00) (32, 3.97742569446563720703e-01) (33, 3.85361671447753906250e-01) (34, 1.58224821090698242188e+00) (31, 4.61044698953628540039e-01) (32, -1.96573091670870780945e-03) (33, -2.36456245183944702148e-02) (34, 4.25168007612228393555e-01) (31, 4.30181115865707397461e-01) (32, -8.11147596687078475952e-03) (33, -7.79267698526382446289e-02) (34, 5.61156749725341796875e-01) (31, 3.75199347734451293945e-01) (32, 3.01539301872253417969e-02) (33, 4.01981323957443237305e-02) (34, 4.25050407648086547852e-01) (31, 1.61539006233215332031e+00) (32, 5.56726813316345214844e-01) (33, 2.69556701183319091797e-01) (34, 1.54865026473999023438e+00) (31, 1.53221523761749267578e+00) (32, 4.09721016883850097656e-01) (33, 3.88414204120635986328e-01) (34, 1.51817977428436279297e+00) (31, 1.62181043624877929688e+00) (32, 4.15750890970230102539e-01) (33, 3.69322359561920166016e-01) (34, 1.51839768886566162109e+00) (31, 1.36983132362365722656e+00) (32, 4.07736927270889282227e-01) (33, 2.99787133932113647461e-01) (34, 1.36841988563537597656e+00) (31, 1.50379765033721923828e+00) (32, 4.94736045598983764648e-01) (33, 2.61117547750473022461e-01) (34, 1.59071755409240722656e+00) (31, 5.63547968864440917969e-01) (32, 7.70239084959030151367e-02) (33, 7.86038637161254882812e-02) (34, 4.19604212045669555664e-01) (31, 1.46371722221374511719e+00) (32, 4.02968406677246093750e-01) (33, 2.33759224414825439453e-01) (34, 1.46479165554046630859e+00) (31, 1.57968389987945556641e+00) (32, 5.61752617359161376953e-01) (33, 2.67056494951248168945e-01) (34, 1.54516518115997314453e+00) (31, 5.41013777256011962891e-01) (32, 2.25829169154167175293e-01) (33, 2.76877969503402709961e-01) (34, 4.23320204019546508789e-01) (31, 9.36151802539825439453e-01) (32, 2.72876173257827758789e-01) (33, 2.00346350669860839844e-01) (34, 9.08053576946258544922e-01) (31, 1.47102844715118408203e+00) (32, 4.61335957050323486328e-01) (33, 2.09681570529937744141e-01) (34, 1.59997010231018066406e+00) (31, 1.35837209224700927734e+00) (32, 5.19055902957916259766e-01) (33, 2.78839349746704101562e-01) (34, 1.41226112842559814453e+00) (31, 1.51211023330688476562e+00) (32, 5.13256132602691650391e-01) (33, 3.13428044319152832031e-01) (34, 1.50153326988220214844e+00) (31, 1.32782256603240966797e+00) (32, 4.79827195405960083008e-01) (33, 2.62063860893249511719e-01) (34, 1.34163105487823486328e+00) (31, 1.58111381530761718750e+00) (32, 5.05410254001617431641e-01) (33, 3.16872179508209228516e-01) (34, 1.51088893413543701172e+00) (31, 1.35646224021911621094e+00) (32, 4.70136702060699462891e-01) (33, 3.21196556091308593750e-01) (34, 1.32335102558135986328e+00) (31, 1.56545853614807128906e+00) (32, 5.26029765605926513672e-01) (33, 3.32904607057571411133e-01) (34, 1.53350150585174560547e+00) (31, 1.58130741119384765625e+00) (32, 4.24918204545974731445e-01) (33, 2.24785342812538146973e-01) (34, 1.60242712497711181641e+00) (31, 1.58457243442535400391e+00) (32, 4.07766133546829223633e-01) (33, 3.03827643394470214844e-01) (34, 1.50205469131469726562e+00) (31, 1.62514030933380126953e+00) (32, 5.55966198444366455078e-01) (33, 2.24765256047248840332e-01) (34, 1.48734176158905029297e+00) (31, 1.56754052639007568359e+00) (32, 5.11492490768432617188e-01) (33, 2.90305465459823608398e-01) (34, 1.45447337627410888672e+00) (31, 8.07838141918182373047e-01) (32, 2.77873307466506958008e-01) (33, 1.88185840845108032227e-01) (34, 9.39043104648590087891e-01) (31, 8.83885204792022705078e-01) (32, 1.12642005085945129395e-01) (33, 1.14794328808784484863e-01) (34, 7.99457609653472900391e-01) (31, 7.70471513271331787109e-01) (32, 2.79862910509109497070e-01) (33, 1.96689918637275695801e-01) (34, 8.86021316051483154297e-01) (31, 1.58829414844512939453e+00) (32, 4.21261757612228393555e-01) (33, 2.02753186225891113281e-01) (34, 1.51969265937805175781e+00) (31, 1.33547925949096679688e+00) (32, 3.13746511936187744141e-01) (33, 1.87262296676635742188e-01) (34, 1.27014291286468505859e+00) (31, 1.29790318012237548828e+00) (32, 4.13585960865020751953e-01) (33, 2.46359050273895263672e-01) (34, 1.27313470840454101562e+00) (31, 1.55496168136596679688e+00) (32, 4.80711549520492553711e-01) (33, 2.70925819873809814453e-01) (34, 1.47259342670440673828e+00) (31, 1.49052226543426513672e+00) (32, 5.34530520439147949219e-01) (33, 2.28497296571731567383e-01) (34, 1.53025138378143310547e+00) (31, 9.13005411624908447266e-01) (32, 2.24267110228538513184e-01) (33, 1.34156867861747741699e-01) (34, 8.28781664371490478516e-01) (31, 1.60339379310607910156e+00) (32, 4.58986461162567138672e-01) (33, 2.93269455432891845703e-01) (34, 1.60575652122497558594e+00) (31, 1.52125084400177001953e+00) (32, 3.81626605987548828125e-01) (33, 2.75008141994476318359e-01) (34, 1.45963609218597412109e+00) (31, 8.19406807422637939453e-01) (32, 1.66977316141128540039e-01) (33, 1.62391334772109985352e-01) (34, 9.13996160030364990234e-01) (31, 1.34119760990142822266e+00) (32, 3.90517652034759521484e-01) (33, 3.40100347995758056641e-01) (34, 1.39821088314056396484e+00) (31, 1.47660434246063232422e+00) (32, 4.32334631681442260742e-01) (33, 3.90813946723937988281e-01) (34, 1.58165717124938964844e+00) (31, 1.61136436462402343750e+00) (32, 4.35038983821868896484e-01) (33, 3.55681091547012329102e-01) (34, 1.45197784900665283203e+00) (31, 1.46788775920867919922e+00) (32, 5.57477653026580810547e-01) (33, 2.83659815788269042969e-01) (34, 1.61278414726257324219e+00) (31, 1.56414628028869628906e+00) (32, 5.09483873844146728516e-01) (33, 2.24796235561370849609e-01) (34, 1.51763129234313964844e+00) (31, 1.46678853034973144531e+00) (32, 4.91364926099777221680e-01) (33, 2.24818274378776550293e-01) (34, 1.53813064098358154297e+00) (31, 1.57130968570709228516e+00) (32, 4.73125666379928588867e-01) (33, 2.62909233570098876953e-01) (34, 1.62260758876800537109e+00) (31, 1.62250447273254394531e+00) (32, 5.53255796432495117188e-01) (33, 3.19834053516387939453e-01) (34, 1.52281224727630615234e+00) (31, 1.52918291091918945312e+00) (32, 4.69521641731262207031e-01) (33, 2.31472536921501159668e-01) (34, 1.55587840080261230469e+00) (31, 1.60017454624176025391e+00) (32, 3.95585715770721435547e-01) (33, 2.38966107368469238281e-01) (34, 1.56163012981414794922e+00) (31, 1.52894294261932373047e+00) (32, 5.67946434020996093750e-01) (33, 3.15038532018661499023e-01) (34, 1.54692184925079345703e+00) (31, 1.62374234199523925781e+00) (32, 5.71997582912445068359e-01) (33, 2.61136561632156372070e-01) (34, 1.53797972202301025391e+00) 
