FANN_FLO_2.1
num_layers=5
learning_rate=0.700000
connection_rate=1.000000
network_type=0
learning_momentum=0.000000
training_algorithm=2
train_error_function=1
train_stop_function=0
cascade_output_change_fraction=0.010000
quickprop_decay=-0.000100
quickprop_mu=1.750000
rprop_increase_factor=1.200000
rprop_decrease_factor=0.500000
rprop_delta_min=0.000000
rprop_delta_max=50.000000
rprop_delta_zero=0.100000
cascade_output_stagnation_epochs=12
cascade_candidate_change_fraction=0.010000
cascade_candidate_stagnation_epochs=12
cascade_max_out_epochs=150
cascade_min_out_epochs=50
cascade_max_cand_epochs=150
cascade_min_cand_epochs=50
cascade_num_candidate_groups=2
bit_fail_limit=3.49999994039535522461e-01
cascade_candidate_limit=1.00000000000000000000e+03
cascade_weight_multiplier=4.00000005960464477539e-01
cascade_activation_functions_count=10
cascade_activation_functions=3 5 7 8 10 11 14 15 16 17 
cascade_activation_steepnesses_count=4
cascade_activation_steepnesses=2.50000000000000000000e-01 5.00000000000000000000e-01 7.50000000000000000000e-01 1.00000000000000000000e+00 
layer_sizes=31 35 41 48 55 
scale_included=0
neurons (num_inputs, activation_function, activation_steepness)=(0, 0, 0.00000000000000000000e+00) (0, 0, 0.00000000000000000000e+00) (0, 0, 0.00000000000000000000e+00) (0, 0, 0.00000000000000000000e+00) (0, 0, 0.00000000000000000000e+00) (0, 0, 0.00000000000000000000e+00) (0, 0, 0.00000000000000000000e+00) (0, 0, 0.00000000000000000000e+00) (0, 0, 0.00000000000000000000e+00) (0, 0, 0.00000000000000000000e+00) (0, 0, 0.00000000000000000000e+00) (0, 0, 0.00000000000000000000e+00) (0, 0, 0.00000000000000000000e+00) (0, 0, 0.00000000000000000000e+00) (0, 0, 0.00000000000000000000e+00) (0, 0, 0.00000000000000000000e+00) (0, 0, 0.00000000000000000000e+00) (0, 0, 0.00000000000000000000e+00) (0, 0, 0.00000000000000000000e+00) (0, 0, 0.00000000000000000000e+00) (0, 0, 0.00000000000000000000e+00) (0, 0, 0.00000000000000000000e+00) (0, 0, 0.00000000000000000000e+00) (0, 0, 0.00000000000000000000e+00) (0, 0, 0.00000000000000000000e+00) (0, 0, 0.00000000000000000000e+00) (0, 0, 0.00000000000000000000e+00) (0, 0, 0.00000000000000000000e+00) (0, 0, 0.00000000000000000000e+00) (0, 0, 0.00000000000000000000e+00) (0, 0, 0.00000000000000000000e+00) (31, 5, 5.00000000000000000000e-01) (31, 5, 5.00000000000000000000e-01) (31, 5, 5.00000000000000000000e-01) (31, 5, 5.00000000000000000000e-01) (31, 5, 5.00000000000000000000e-01) (31, 5, 5.00000000000000000000e-01) (31, 5, 5.00000000000000000000e-01) (31, 5, 5.00000000000000000000e-01) (31, 5, 5.00000000000000000000e-01) (31, 5, 5.00000000000000000000e-01) (31, 5, 5.00000000000000000000e-01) (31, 5, 5.00000000000000000000e-01) (31, 5, 5.00000000000000000000e-01) (31, 5, 5.00000000000000000000e-01) (31, 5, 5.00000000000000000000e-01) (31, 5, 5.00000000000000000000e-01) (31, 5, 5.00000000000000000000e-01) (31, 5, 5.00000000000000000000e-01) (31, 5, 5.00000000000000000000e-01) (31, 5, 5.00000000000000000000e-01) (31, 5, 5.00000000000000000000e-01) (31, 5, 5.00000000000000000000e-01) (31, 5, 5.00000000000000000000e-01) (31, 5, 5.00000000000000000000e-01) (31, 5, 5.00000000000000000000e-01) (31, 5, 5.00000000000000000000e-01) (31, 5, 5.00000000000000000000e-01) (31, 5, 5.00000000000000000000e-01) (31, 5, 5.00000000000000000000e-01) (31, 5, 5.00000000000000000000e-01) (31, 5, 5.00000000000000000000e-01) (31, 5, 5.00000000000000000000e-01) (31, 5, 5.00000000000000000000e-01) (31, 5, 5.00000000000000000000e-01) (0, 5, 0.00000000000000000000e+00) (35, 5, 5.00000000000000000000e-01) (35, 5, 5.00000000000000000000e-01) (35, 5, 5.00000000000000000000e-01) (35, 5, 5.00000000000000000000e-01) (35, 5, 5.00000000000000000000e-01) (35, 5, 5.00000000000000000000e-01) (35, 5, 5.00000000000000000000e-01) (35, 5, 5.00000000000000000000e-01) (35, 5, 5.00000000000000000000e-01) (35, 5, 5.00000000000000000000e-01) (35, 5, 5.00000000000000000000e-01) (35, 5, 5.00000000000000000000e-01) (35, 5, 5.00000000000000000000e-01) (35, 5, 5.00000000000000000000e-01) (35, 5, 5.00000000000000000000e-01) (35, 5, 5.00000000000000000000e-01) (35, 5, 5.00000000000000000000e-01) (35, 5, 5.00000000000000000000e-01) (35, 5, 5.00000000000000000000e-01) (35, 5, 5.00000000000000000000e-01) (35, 5, 5.00000000000000000000e-01) (35, 5, 5.00000000000000000000e-01) (35, 5, 5.00000000000000000000e-01) (35, 5, 5.00000000000000000000e-01) (35, 5, 5.00000000000000000000e-01) (35, 5, 5.00000000000000000000e-01) (35, 5, 5.00000000000000000000e-01) (35, 5, 5.00000000000000000000e-01) (35, 5, 5.00000000000000000000e-01) (35, 5, 5.00000000000000000000e-01) (35, 5, 5.00000000000000000000e-01) (35, 5, 5.00000000000000000000e-01) (35, 5, 5.00000000000000000000e-01) (35, 5, 5.00000000000000000000e-01) (35, 5, 5.00000000000000000000e-01) (35, 5, 5.00000000000000000000e-01) (35, 5, 5.00000000000000000000e-01) (35, 5, 5.00000000000000000000e-01) (35, 5, 5.00000000000000000000e-01) (35, 5, 5.00000000000000000000e-01) (0, 5, 0.00000000000000000000e+00) (41, 5, 5.00000000000000000000e-01) (41, 5, 5.00000000000000000000e-01) (41, 5, 5.00000000000000000000e-01) (41, 5, 5.00000000000000000000e-01) (41, 5, 5.00000000000000000000e-01) (41, 5, 5.00000000000000000000e-01) (41, 5, 5.00000000000000000000e-01) (41, 5, 5.00000000000000000000e-01) (41, 5, 5.00000000000000000000e-01) (41, 5, 5.00000000000000000000e-01) (41, 5, 5.00000000000000000000e-01) (41, 5, 5.00000000000000000000e-01) (41, 5, 5.00000000000000000000e-01) (41, 5, 5.00000000000000000000e-01) (41, 5, 5.00000000000000000000e-01) (41, 5, 5.00000000000000000000e-01) (41, 5, 5.00000000000000000000e-01) (41, 5, 5.00000000000000000000e-01) (41, 5, 5.00000000000000000000e-01) (41, 5, 5.00000000000000000000e-01) (41, 5, 5.00000000000000000000e-01) (41, 5, 5.00000000000000000000e-01) (41, 5, 5.00000000000000000000e-01) (41, 5, 5.00000000000000000000e-01) (41, 5, 5.00000000000000000000e-01) (41, 5, 5.00000000000000000000e-01) (41, 5, 5.00000000000000000000e-01) (41, 5, 5.00000000000000000000e-01) (41, 5, 5.00000000000000000000e-01) (41, 5, 5.00000000000000000000e-01) (41, 5, 5.00000000000000000000e-01) (41, 5, 5.00000000000000000000e-01) (41, 5, 5.00000000000000000000e-01) (41, 5, 5.00000000000000000000e-01) (41, 5, 5.00000000000000000000e-01) (41, 5, 5.00000000000000000000e-01) (41, 5, 5.00000000000000000000e-01) (41, 5, 5.00000000000000000000e-01) (41, 5, 5.00000000000000000000e-01) (41, 5, 5.00000000000000000000e-01) (41, 5, 5.00000000000000000000e-01) (41, 5, 5.00000000000000000000e-01) (41, 5, 5.00000000000000000000e-01) (41, 5, 5.00000000000000000000e-01) (41, 5, 5.00000000000000000000e-01) (41, 5, 5.00000000000000000000e-01) (41, 5, 5.00000000000000000000e-01) (0, 5, 0.00000000000000000000e+00) (48, 5, 2.39999994635581970215e-01) (48, 5, 2.39999994635581970215e-01) (48, 5, 2.39999994635581970215e-01) (48, 5, 2.39999994635581970215e-01) (48, 5, 2.39999994635581970215e-01) (48, 5, 2.39999994635581970215e-01) (48, 5, 2.39999994635581970215e-01) (48, 5, 2.39999994635581970215e-01) (48, 5, 2.39999994635581970215e-01) (48, 5, 2.39999994635581970215e-01) (48, 5, 2.39999994635581970215e-01) (48, 5, 2.39999994635581970215e-01) (48, 5, 2.39999994635581970215e-01) (48, 5, 2.39999994635581970215e-01) (48, 5, 2.39999994635581970215e-01) (48, 5, 2.39999994635581970215e-01) (48, 5, 2.39999994635581970215e-01) (48, 5, 2.39999994635581970215e-01) (48, 5, 2.39999994635581970215e-01) (48, 5, 2.39999994635581970215e-01) (48, 5, 2.39999994635581970215e-01) (48, 5, 2.39999994635581970215e-01) (48, 5, 2.39999994635581970215e-01) (48, 5, 2.39999994635581970215e-01) (48, 5, 2.39999994635581970215e-01) (48, 5, 2.39999994635581970215e-01) (48, 5, 2.39999994635581970215e-01) (48, 5, 2.39999994635581970215e-01) (48, 5, 2.39999994635581970215e-01) (48, 5, 2.39999994635581970215e-01) (48, 5, 2.39999994635581970215e-01) (48, 5, 2.39999994635581970215e-01) (48, 5, 2.39999994635581970215e-01) (48, 5, 2.39999994635581970215e-01) (48, 5, 2.39999994635581970215e-01) (48, 5, 2.39999994635581970215e-01) (48, 5, 2.39999994635581970215e-01) (48, 5, 2.39999994635581970215e-01) (48, 5, 2.39999994635581970215e-01) (48, 5, 2.39999994635581970215e-01) (48, 5, 2.39999994635581970215e-01) (48, 5, 2.39999994635581970215e-01) (48, 5, 2.39999994635581970215e-01) (48, 5, 2.39999994635581970215e-01) (48, 5, 2.39999994635581970215e-01) (48, 5, 2.39999994635581970215e-01) (48, 5, 2.39999994635581970215e-01) (48, 5, 2.39999994635581970215e-01) (48, 5, 2.39999994635581970215e-01) (48, 5, 2.39999994635581970215e-01) (48, 5, 2.39999994635581970215e-01) (48, 5, 2.39999994635581970215e-01) (48, 5, 2.39999994635581970215e-01) (48, 5, 2.39999994635581970215e-01) (0, 5, 2.39999994635581970215e-01) 
connections (connected_to_neuron, weight)=(0, 1.93345069885253906250e-01) (1, 6.58209502696990966797e-01) (2, 4.30335819721221923828e-01) (3, 4.57550287246704101562e-01) (4, 5.26974380016326904297e-01) (5, 3.52174103260040283203e-01) (6, 9.26882088184356689453e-01) (7, 7.85598337650299072266e-01) (8, 6.63675487041473388672e-01) (9, 3.69996428489685058594e-01) (10, 2.73746639490127563477e-01) (11, 7.66147375106811523438e-01) (12, -1.38869142532348632812e+01) (13, 9.23106133937835693359e-01) (14, 1.11235010623931884766e+00) (15, -3.96486222743988037109e-01) (16, 2.86291867494583129883e-01) (17, 2.69963479042053222656e+00) (18, -2.65131711959838867188e-01) (19, 1.51331365108489990234e+00) (20, 1.53729999065399169922e+00) (21, 2.18750190734863281250e+00) (22, -3.46519201993942260742e-01) (23, -4.84947347640991210938e+00) (24, 2.12363386154174804688e+00) (25, 1.54805016517639160156e+00) (26, 1.31807076930999755859e+00) (27, 1.43616306781768798828e+00) (28, 1.11621332168579101562e+00) (29, 2.87482172250747680664e-01) (30, 1.59985685348510742188e+00) (0, 1.27806568145751953125e+00) (1, 1.27614498138427734375e+00) (2, 1.42096245288848876953e+00) (3, 6.82575881481170654297e-01) (4, 8.12585294246673583984e-01) (5, 7.39685833454132080078e-01) (6, 8.48931849002838134766e-01) (7, 8.92510414123535156250e-01) (8, 9.58435177803039550781e-01) (9, 7.85651266574859619141e-01) (10, 8.18697571754455566406e-01) (11, 1.41651499271392822266e+00) (12, 9.09993290901184082031e-01) (13, 8.88028979301452636719e-01) (14, 8.77159953117370605469e-01) (15, 2.64053153991699218750e+00) (16, 2.86860036849975585938e+00) (17, 1.33515059947967529297e+00) (18, 1.58444917201995849609e+00) (19, 2.63316798210144042969e+00) (20, 2.93214106559753417969e+00) (21, 8.26915204524993896484e-01) (22, 9.57699954509735107422e-01) (23, 1.32001626491546630859e+00) (24, 1.43517589569091796875e+00) (25, 9.04891073703765869141e-01) (26, 1.48836269974708557129e-01) (27, 1.48359966278076171875e+00) (28, 1.44868373870849609375e+00) (29, 1.42253422737121582031e+00) (30, 8.91054928302764892578e-01) (0, 1.34047210216522216797e+00) (1, 1.39568603038787841797e+00) (2, 1.33560872077941894531e+00) (3, 1.48901903629302978516e+00) (4, 1.23704779148101806641e+00) (5, 1.38295626640319824219e+00) (6, 1.26735568046569824219e+00) (7, 1.42667174339294433594e+00) (8, 1.41910862922668457031e+00) (9, 9.60879564285278320312e-01) (10, 1.17286026477813720703e+00) (11, 1.51372969150543212891e+00) (12, 2.19395995140075683594e+00) (13, 9.84837889671325683594e-01) (14, 1.19239187240600585938e+00) (15, 4.36008548736572265625e+00) (16, 1.47607791423797607422e+00) (17, 2.63356351852416992188e+00) (18, 4.46383297443389892578e-01) (19, 1.48078119754791259766e+00) (20, 6.62693309783935546875e+00) (21, 6.40987217426300048828e-01) (22, 7.03096508979797363281e-01) (23, -1.85123503208160400391e+00) (24, 2.99456548690795898438e+00) (25, 6.73009991645812988281e-01) (26, 1.06776916980743408203e+00) (27, 7.93663918972015380859e-01) (28, 6.48989200592041015625e-01) (29, 6.26710474491119384766e-01) (30, 8.94396424293518066406e-01) (0, 1.36310076713562011719e+00) (1, 1.34848141670227050781e+00) (2, 1.45220327377319335938e+00) (3, 1.41863203048706054688e+00) (4, 1.35292673110961914062e+00) (5, 1.31549799442291259766e+00) (6, 1.47322499752044677734e+00) (7, 1.40088284015655517578e+00) (8, 1.27837359905242919922e+00) (9, 1.41691291332244873047e+00) (10, 1.46880769729614257812e+00) (11, 1.22895371913909912109e+00) (12, 1.31774711608886718750e+00) (13, 1.94446730613708496094e+00) (14, 7.27189600467681884766e-01) (15, 9.51658821105957031250e+00) (16, 2.58638548851013183594e+00) (17, 5.57738244533538818359e-01) (18, 1.48930227756500244141e+00) (19, 2.25313878059387207031e+00) (20, 3.90600657463073730469e+00) (21, 8.44713985919952392578e-01) (22, 8.26164782047271728516e-01) (23, 7.35026657581329345703e-01) (24, 8.72983336448669433594e-01) (25, 8.71503829956054687500e-01) (26, 7.52820253372192382812e-01) (27, 9.24174666404724121094e-01) (28, 9.82108473777770996094e-01) (29, 9.09161567687988281250e-01) (30, 9.89366173744201660156e-01) (0, 8.05803015828132629395e-02) (1, 9.16766971349716186523e-02) (2, 4.44272384047508239746e-02) (3, 3.57325017452239990234e-01) (4, 1.40236958861351013184e-01) (5, 5.91267108917236328125e-01) (6, 3.54261726140975952148e-01) (7, 6.39668524265289306641e-01) (8, 6.86259567737579345703e-01) (9, 1.71276539564132690430e-01) (10, 2.83203721046447753906e-01) (11, 6.93990647792816162109e-01) (12, 3.82971763610839843750e+00) (13, 3.12894821166992187500e-01) (14, -2.37624955177307128906e+00) (15, -5.77373218536376953125e+00) (16, 4.27722930908203125000e+00) (17, 1.50858432054519653320e-01) (18, 5.70796653628349304199e-02) (19, -6.55351257324218750000e+00) (20, 8.73701453208923339844e-01) (21, 1.02051448822021484375e+00) (22, -3.41486644744873046875e+00) (23, 1.85419285297393798828e+00) (24, 2.19760298728942871094e+00) (25, 1.72562003135681152344e+00) (26, -7.23741412162780761719e-01) (27, 1.34890246391296386719e+00) (28, 1.37419855594635009766e+00) (29, -8.37628781795501708984e-01) (30, 1.78466117382049560547e+00) (0, 2.94600069522857666016e-01) (1, 1.43658578395843505859e-01) (2, -7.25992262363433837891e-01) (3, 6.51452243328094482422e-01) (4, 7.36816883087158203125e-01) (5, 5.38964867591857910156e-01) (6, 7.34029829502105712891e-01) (7, 7.92471766471862792969e-01) (8, 8.40423941612243652344e-01) (9, 9.14015829563140869141e-01) (10, 4.49168443679809570312e-01) (11, 1.02888953685760498047e+00) (12, 5.07084503769874572754e-02) (13, -2.36070483922958374023e-01) (14, 1.71877849102020263672e+00) (15, -2.85638421773910522461e-01) (16, 2.50295221805572509766e-01) (17, 2.66081166267395019531e+00) (18, 5.57155728340148925781e-01) (19, 1.90004754066467285156e+00) (20, 1.40733167529106140137e-01) (21, 8.42878699302673339844e-01) (22, -5.28253078460693359375e-01) (23, 8.67931270599365234375e+00) (24, 1.52170133590698242188e+00) (25, 1.03948318958282470703e+00) (26, 9.66078281402587890625e+00) (27, 1.75300550460815429688e+00) (28, 1.53424334526062011719e+00) (29, 1.66754460334777832031e+00) (30, 1.69076192378997802734e+00) (0, 2.22350597381591796875e-01) (1, 3.27314376831054687500e-01) (2, 4.07064855098724365234e-01) (3, -6.70854687690734863281e-01) (4, -4.80514377355575561523e-01) (5, 2.68689185380935668945e-01) (6, 1.13328538835048675537e-01) (7, 8.48960459232330322266e-01) (8, 6.83017015457153320312e-01) (9, 3.16103994846343994141e-01) (10, 5.07207810878753662109e-01) (11, 1.25872552394866943359e+00) (12, -1.41896724700927734375e+00) (13, 7.15543150901794433594e-01) (14, 3.57066452503204345703e-01) (15, -1.49698486328125000000e+01) (16, -2.51357269287109375000e+00) (17, -7.51511240005493164062e+00) (18, 7.52088069915771484375e-01) (19, 4.60994511842727661133e-01) (20, -1.02802515029907226562e+01) (21, 1.77095127105712890625e+00) (22, 9.50545251369476318359e-01) (23, 6.48066759109497070312e-01) (24, 1.68157625198364257812e+00) (25, 1.49356150627136230469e+00) (26, 1.61204016208648681641e+00) (27, 1.56720113754272460938e+00) (28, 1.42255580425262451172e+00) (29, 1.15375614166259765625e+00) (30, 1.92734789848327636719e+00) (0, 1.29280912876129150391e+00) (1, 8.40597867965698242188e-01) (2, 8.58389616012573242188e-01) (3, 6.98841810226440429688e-01) (4, 5.96032977104187011719e-01) (5, 5.16012966632843017578e-01) (6, 1.28884255886077880859e+00) (7, 1.10130846500396728516e+00) (8, 2.95877695083618164062e-01) (9, 1.13510513305664062500e+00) (10, 1.18933689594268798828e+00) (11, 5.92699766159057617188e-01) (12, 1.14436435699462890625e+00) (13, 1.36462163925170898438e+00) (14, 7.92234718799591064453e-01) (15, 3.08940339088439941406e+00) (16, -3.95506978034973144531e-01) (17, 9.75926280021667480469e-01) (18, -3.54623526334762573242e-01) (19, -6.76612091064453125000e+00) (20, 2.92024374008178710938e+00) (21, 7.42246985435485839844e-01) (22, 7.59396731853485107422e-01) (23, 2.77053165435791015625e+00) (24, 1.46918141841888427734e+00) (25, 1.37489092350006103516e+00) (26, 1.27596735954284667969e+00) (27, 1.39621663093566894531e+00) (28, 9.09290969371795654297e-01) (29, 1.40867602825164794922e+00) (30, 9.18045461177825927734e-01) (0, 9.33927476406097412109e-01) (1, 7.53161728382110595703e-01) (2, 9.46485579013824462891e-01) (3, 7.90865898132324218750e-01) (4, 8.79995882511138916016e-01) (5, 7.96100914478302001953e-01) (6, 1.14683270454406738281e+00) (7, 7.95249104499816894531e-01) (8, 8.92958581447601318359e-01) (9, 6.39984011650085449219e-01) (10, 1.12216782569885253906e+00) (11, 1.17449450492858886719e+00) (12, 8.01580071449279785156e-01) (13, 1.10999369621276855469e+00) (14, 1.40738832950592041016e+00) (15, 1.95141160488128662109e+00) (16, 1.62739765644073486328e+00) (17, 1.22810220718383789062e+00) (18, 6.65233373641967773438e-01) (19, 5.39777636528015136719e-01) (20, 1.02338314056396484375e+00) (21, 1.40479898452758789062e+00) (22, 1.40643942356109619141e+00) (23, 1.37285423278808593750e+00) (24, 1.38892567157745361328e+00) (25, 1.47691679000854492188e+00) (26, 1.62521851062774658203e+00) (27, 1.47086572647094726562e+00) (28, 1.55023169517517089844e+00) (29, 1.55675971508026123047e+00) (30, 1.58358514308929443359e+00) (0, 8.35826516151428222656e-01) (1, 8.28675031661987304688e-01) (2, 8.75583708286285400391e-01) (3, 7.89601981639862060547e-01) (4, 8.08909833431243896484e-01) (5, 9.18105959892272949219e-01) (6, 8.54396820068359375000e-01) (7, 7.60424375534057617188e-01) (8, 1.10000634193420410156e+00) (9, 7.24507212638854980469e-01) (10, 8.67192685604095458984e-01) (11, 9.38082456588745117188e-01) (12, 1.20378828048706054688e+00) (13, 9.08214569091796875000e-01) (14, 6.84599578380584716797e-01) (15, 9.45662879943847656250e+00) (16, 3.45575404167175292969e+00) (17, 1.05405557155609130859e+00) (18, 6.01498782634735107422e-01) (19, 1.52577674388885498047e+00) (20, 1.75773873925209045410e-01) (21, 8.80389750003814697266e-01) (22, 1.15913546085357666016e+00) (23, 2.54719543457031250000e+00) (24, 1.31058192253112792969e+00) (25, 1.06404232978820800781e+00) (26, 4.33689355850219726562e-01) (27, 1.20205712318420410156e+00) (28, 1.09260368347167968750e+00) (29, 9.78657245635986328125e-01) (30, 1.37868094444274902344e+00) (0, 1.20779609680175781250e+00) (1, 1.58502328395843505859e+00) (2, 1.25182080268859863281e+00) (3, 1.29849016666412353516e+00) (4, 1.45301723480224609375e+00) (5, 1.61091649532318115234e+00) (6, 1.51621258258819580078e+00) (7, 1.61036312580108642578e+00) (8, 1.61179363727569580078e+00) (9, 9.66297864913940429688e-01) (10, 1.16745853424072265625e+00) (11, 1.25287723541259765625e+00) (12, 6.47817730903625488281e-01) (13, 5.80601513385772705078e-01) (14, 1.29383325576782226562e+00) (15, -2.75962501764297485352e-01) (16, 6.36410427093505859375e+00) (17, 2.11259865760803222656e+00) (18, 5.26483297348022460938e-01) (19, 8.85874807834625244141e-01) (20, 7.89149880409240722656e-01) (21, 7.91397154331207275391e-01) (22, 7.43869006633758544922e-01) (23, -3.36707621812820434570e-01) (24, 8.59508812427520751953e-01) (25, 8.43390583992004394531e-01) (26, 9.20413672924041748047e-01) (27, 6.97132766246795654297e-01) (28, 6.60771310329437255859e-01) (29, 3.82497936487197875977e-01) (30, 7.63402521610260009766e-01) (0, 7.42265403270721435547e-01) (1, 7.56982028484344482422e-01) (2, 8.74036133289337158203e-01) (3, 7.99832403659820556641e-01) (4, 8.10371100902557373047e-01) (5, 8.26526582241058349609e-01) (6, 8.88173997402191162109e-01) (7, 7.38269448280334472656e-01) (8, 7.29956090450286865234e-01) (9, 7.97604620456695556641e-01) (10, 8.35909962654113769531e-01) (11, 8.18207681179046630859e-01) (12, 7.39981412887573242188e-01) (13, 7.97465503215789794922e-01) (14, 8.30132901668548583984e-01) (15, -2.49182677268981933594e+00) (16, -3.29584270715713500977e-01) (17, 1.77752971649169921875e-01) (18, 7.69329488277435302734e-01) (19, 1.16844809055328369141e+00) (20, -2.63396382331848144531e+00) (21, 9.45788145065307617188e-01) (22, 9.28539156913757324219e-01) (23, 9.22945618629455566406e-01) (24, 8.01781535148620605469e-01) (25, 9.35216784477233886719e-01) (26, 1.00276005268096923828e+00) (27, 8.86445879936218261719e-01) (28, 7.78941810131072998047e-01) (29, 9.79959845542907714844e-01) (30, 1.42168796062469482422e+00) (0, 1.06930780410766601562e+00) (1, 1.13823843002319335938e+00) (2, 1.30468165874481201172e+00) (3, 8.71466457843780517578e-01) (4, 9.26999568939208984375e-01) (5, 9.30992960929870605469e-01) (6, 7.08524882793426513672e-01) (7, 8.75890791416168212891e-01) (8, 8.78816843032836914062e-01) (9, 6.79134070873260498047e-01) (10, 6.00380003452301025391e-01) (11, 8.51234495639801025391e-01) (12, 1.42615830898284912109e+00) (13, 7.83762454986572265625e-01) (14, 1.19165265560150146484e+00) (15, 3.08884000778198242188e+00) (16, 1.19355821609497070312e+00) (17, 5.86828291416168212891e-01) (18, 6.74069464206695556641e-01) (19, 1.14332497119903564453e+00) (20, 1.65558254718780517578e+00) (21, 9.46711361408233642578e-01) (22, 8.63018214702606201172e-01) (23, 8.71733129024505615234e-01) (24, 1.50495934486389160156e+00) (25, 1.35238540172576904297e+00) (26, 1.36529564857482910156e+00) (27, 1.35491347312927246094e+00) (28, 1.29264283180236816406e+00) (29, 1.24645674228668212891e+00) (30, 9.90433871746063232422e-01) (0, 8.17745983600616455078e-01) (1, 9.04051482677459716797e-01) (2, 8.67788553237915039062e-01) (3, 1.39268732070922851562e+00) (4, 7.93447732925415039062e-01) (5, 1.24595129489898681641e+00) (6, 1.44677412509918212891e+00) (7, 9.15424287319183349609e-01) (8, 1.07876050472259521484e+00) (9, 8.47919404506683349609e-01) (10, 9.27096307277679443359e-01) (11, 4.79691773653030395508e-01) (12, 8.27120959758758544922e-01) (13, 6.91382825374603271484e-01) (14, 8.06714236736297607422e-01) (15, 2.33607634902000427246e-01) (16, 5.11445820331573486328e-01) (17, 9.96221184730529785156e-01) (18, 1.17306435108184814453e+00) (19, 9.12916243076324462891e-01) (20, 1.53196072578430175781e+00) (21, 1.43092370033264160156e+00) (22, 1.53841412067413330078e+00) (23, 1.11303770542144775391e+00) (24, 1.43553900718688964844e+00) (25, 1.03990232944488525391e+00) (26, 1.43341684341430664062e+00) (27, 1.53831160068511962891e+00) (28, 1.57494175434112548828e+00) (29, 1.44725942611694335938e+00) (30, 1.45100986957550048828e+00) (0, 9.33029055595397949219e-01) (1, 5.63888072967529296875e-01) (2, 5.85914671421051025391e-01) (3, 9.09395515918731689453e-01) (4, 1.04428803920745849609e+00) (5, 1.10825324058532714844e+00) (6, 6.90759301185607910156e-01) (7, 7.23349332809448242188e-01) (8, 1.09899508953094482422e+00) (9, 8.80039215087890625000e-01) (10, 4.68883097171783447266e-01) (11, 9.80372786521911621094e-01) (12, 9.08621311187744140625e-01) (13, 4.77031767368316650391e-01) (14, 7.44379639625549316406e-01) (15, -1.79287493228912353516e+00) (16, 2.13918551802635192871e-01) (17, 2.38903045654296875000e-01) (18, 6.97631657123565673828e-01) (19, 1.00947666168212890625e+00) (20, -1.31792426109313964844e+00) (21, 1.67720055580139160156e+00) (22, -1.15526415407657623291e-01) (23, -1.07547104358673095703e+00) (24, 1.78221130371093750000e+00) (25, 1.18764400482177734375e+00) (26, -5.28193831443786621094e-01) (27, 1.67013561725616455078e+00) (28, 1.39344727993011474609e+00) (29, 5.48282682895660400391e-01) (30, 1.50411033630371093750e+00) (0, 1.04159295558929443359e+00) (1, 1.02494835853576660156e+00) (2, 1.01664960384368896484e+00) (3, 9.93252873420715332031e-01) (4, 8.94018888473510742188e-01) (5, 1.07803440093994140625e+00) (6, 9.54703927040100097656e-01) (7, 1.05460286140441894531e+00) (8, 1.55649912357330322266e+00) (9, 9.48909282684326171875e-01) (10, 9.32667732238769531250e-01) (11, 1.80733799934387207031e+00) (12, 1.46783435344696044922e+00) (13, 1.59285628795623779297e+00) (14, 2.46459603309631347656e+00) (15, -3.59932661056518554688e+00) (16, -2.61062097549438476562e+00) (17, 2.30119585990905761719e+00) (18, -5.00847816467285156250e+00) (19, 1.10283565521240234375e+00) (20, 2.29272150993347167969e+00) (21, 6.42011046409606933594e-01) (22, 6.98808014392852783203e-01) (23, 2.94610834121704101562e+00) (24, 7.64203965663909912109e-01) (25, 6.62876188755035400391e-01) (26, 9.20490443706512451172e-01) (27, 6.64476156234741210938e-01) (28, 6.15972459316253662109e-01) (29, 3.18537145853042602539e-01) (30, 1.15778565406799316406e+00) (0, 5.84123253822326660156e-01) (1, -2.78110709041357040405e-02) (2, 7.57412910461425781250e-01) (3, 1.51983034610748291016e+00) (4, 1.05065310001373291016e+00) (5, 1.16923499107360839844e+00) (6, 1.47312462329864501953e+00) (7, 1.55786287784576416016e+00) (8, 2.47024416923522949219e+00) (9, 1.01721930503845214844e+00) (10, 6.60494983196258544922e-01) (11, 1.36200749874114990234e+00) (12, 2.86897838115692138672e-01) (13, 1.63315606117248535156e+00) (14, 1.96907663345336914062e+00) (15, -6.60092067718505859375e+00) (16, -3.82887482643127441406e+00) (17, 9.81534481048583984375e-01) (18, -4.63573646545410156250e+00) (19, 3.46084117889404296875e+00) (20, 4.36379480361938476562e+00) (21, 9.57762897014617919922e-02) (22, 1.34707510471343994141e+00) (23, 7.63565599918365478516e-01) (24, -5.17016410827636718750e-01) (25, 2.39942640066146850586e-01) (26, 1.66155362129211425781e+00) (27, 6.30109250545501708984e-01) (28, 5.96772193908691406250e-01) (29, 4.59944814443588256836e-01) (30, 1.19121003150939941406e+00) (0, 3.87443825602531433105e-02) (1, 1.30440652370452880859e-01) (2, 3.61930847167968750000e-01) (3, 4.72420379519462585449e-02) (4, -1.60820007324218750000e-01) (5, 3.13467800617218017578e-01) (6, 3.07335883378982543945e-01) (7, 2.27602690458297729492e-01) (8, 1.00317454338073730469e+00) (9, 1.21389403939247131348e-01) (10, -1.85161903500556945801e-02) (11, 1.42175590991973876953e+00) (12, 6.66166424751281738281e-01) (13, 5.07518425583839416504e-02) (14, -9.70083141326904296875e+00) (15, -4.18090581893920898438e-01) (16, 6.77183270454406738281e-01) (17, 5.27059555053710937500e-01) (18, -6.08658027648925781250e+00) (19, -6.60491108894348144531e-01) (20, -3.73329496383666992188e+00) (21, 1.70146644115447998047e+00) (22, 8.05519819259643554688e-01) (23, -1.59809947013854980469e+00) (24, 1.86604666709899902344e+00) (25, 1.32469844818115234375e+00) (26, 1.37529289722442626953e+00) (27, 1.80543696880340576172e+00) (28, 1.34955263137817382812e+00) (29, 1.43137678503990173340e-01) (30, 1.95437979698181152344e+00) (0, 1.18590378761291503906e+00) (1, 1.18162357807159423828e+00) (2, 8.62910747528076171875e-01) (3, 1.59213650226593017578e+00) (4, 1.50792324542999267578e+00) (5, 1.54419744014739990234e+00) (6, 9.52055096626281738281e-01) (7, 1.14908456802368164062e+00) (8, 9.78378057479858398438e-01) (9, 1.66818237304687500000e+00) (10, 1.41081058979034423828e+00) (11, 8.86019170284271240234e-01) (12, 5.34420430660247802734e-01) (13, 1.42441749572753906250e-01) (14, 1.21985006332397460938e+00) (15, 1.15366494655609130859e+00) (16, -3.45194041728973388672e-01) (17, 1.91125833988189697266e+00) (18, 1.08472692966461181641e+00) (19, 1.48972368240356445312e+00) (20, -9.25699329376220703125e+00) (21, 6.92094445228576660156e-01) (22, 1.89187419414520263672e+00) (23, 5.66097021102905273438e+00) (24, 1.00905394554138183594e+00) (25, 1.19223177433013916016e+00) (26, 1.36811822652816772461e-01) (27, 1.51238620281219482422e+00) (28, 1.22515296936035156250e+00) (29, 1.45292615890502929688e+00) (30, 1.28009068965911865234e+00) (0, 3.07993441820144653320e-01) (1, 2.51456260681152343750e-01) (2, 2.42438763380050659180e-01) (3, 1.45943313837051391602e-01) (4, 1.20025433599948883057e-01) (5, 2.19261914491653442383e-01) (6, 1.17636919021606445312e+00) (7, 8.08142185211181640625e-01) (8, 4.60198163986206054688e-01) (9, -2.63610064983367919922e-01) (10, 6.76658809185028076172e-01) (11, 1.25114655494689941406e+00) (12, -5.94491195678710937500e+00) (13, -2.03886628150939941406e-01) (14, 2.06403806805610656738e-01) (15, -5.17191469669342041016e-01) (16, -7.99669313430786132812e+00) (17, -6.30003333091735839844e-01) (18, -1.78843963146209716797e+00) (19, 5.79973518848419189453e-01) (20, -2.55544543266296386719e+00) (21, 1.59759187698364257812e+00) (22, 1.43169730901718139648e-01) (23, -1.19956612586975097656e+00) (24, 1.70317649841308593750e+00) (25, 1.73179483413696289062e+00) (26, 1.64336431026458740234e+00) (27, 1.73892223834991455078e+00) (28, 1.22093760967254638672e+00) (29, 4.72593188285827636719e-01) (30, 1.73976862430572509766e+00) (0, 9.36008095741271972656e-01) (1, 8.21523129940032958984e-01) (2, 7.83162653446197509766e-01) (3, 9.18602108955383300781e-01) (4, 8.44373822212219238281e-01) (5, 9.31264400482177734375e-01) (6, 8.09707701206207275391e-01) (7, 8.81321907043457031250e-01) (8, 8.88323068618774414062e-01) (9, 1.52008998394012451172e+00) (10, 1.46852159500122070312e+00) (11, 9.81050372123718261719e-01) (12, 8.54636907577514648438e-01) (13, 7.40563333034515380859e-01) (14, 1.17926216125488281250e+00) (15, 3.06223720312118530273e-01) (16, 1.70374774932861328125e+00) (17, 1.37297785282135009766e+00) (18, 8.92664968967437744141e-01) (19, 1.53426635265350341797e+00) (20, -1.01728463172912597656e+00) (21, 1.52913141250610351562e+00) (22, 8.46032023429870605469e-01) (23, -5.80384254455566406250e-01) (24, 1.47224998474121093750e+00) (25, 8.90749752521514892578e-01) (26, 5.10253250598907470703e-01) (27, 1.48858702182769775391e+00) (28, 1.41259777545928955078e+00) (29, 1.47871994972229003906e+00) (30, 1.50436222553253173828e+00) (0, -2.77852397412061691284e-02) (1, 5.22186577320098876953e-01) (2, 6.25429928302764892578e-01) (3, -1.80979408323764801025e-02) (4, 7.28512108325958251953e-01) (5, 7.66099095344543457031e-01) (6, 7.11951375007629394531e-01) (7, 7.76885330677032470703e-01) (8, 9.63292837142944335938e-01) (9, 4.60904806852340698242e-01) (10, 5.04140615463256835938e-01) (11, 1.22069776058197021484e+00) (12, 9.40649867057800292969e-01) (13, 4.62888598442077636719e-01) (14, 8.03552329540252685547e-01) (15, -5.08563423156738281250e+00) (16, 1.68249174952507019043e-01) (17, 9.18509483337402343750e-01) (18, -5.53979873657226562500e+00) (19, -9.71480309963226318359e-02) (20, -2.54536128044128417969e+00) (21, 1.61688125133514404297e+00) (22, 1.50517535209655761719e+00) (23, 5.86160898208618164062e-01) (24, 2.04772734642028808594e+00) (25, 1.96653485298156738281e+00) (26, -7.75018513202667236328e-01) (27, 1.27600955963134765625e+00) (28, 1.22896730899810791016e+00) (29, -5.58259069919586181641e-01) (30, 1.51227045059204101562e+00) (0, 7.80335485935211181641e-01) (1, 9.19004797935485839844e-01) (2, 3.67148816585540771484e-01) (3, 1.88887581229209899902e-01) (4, 4.37002301216125488281e-01) (5, 2.01636612415313720703e-01) (6, 2.28008806705474853516e-01) (7, 5.43349921703338623047e-01) (8, 5.73052227497100830078e-01) (9, 5.59251844882965087891e-01) (10, -4.81571793556213378906e-01) (11, -8.62311795353889465332e-02) (12, 1.26209235191345214844e+00) (13, -7.79550015926361083984e-01) (14, 5.69181263446807861328e-01) (15, 2.56597728729248046875e+01) (16, 1.31413149833679199219e+00) (17, -1.36868000030517578125e+00) (18, 2.78247261047363281250e+00) (19, 1.68097305297851562500e+00) (20, -5.20588970184326171875e+00) (21, 1.71546328067779541016e+00) (22, 7.52411425113677978516e-01) (23, 8.18201601505279541016e-01) (24, 5.40149450302124023438e-01) (25, 4.23591941595077514648e-01) (26, 8.37952554225921630859e-01) (27, 1.85944628715515136719e+00) (28, 1.08228540420532226562e+00) (29, 1.02327454090118408203e+00) (30, 1.51035559177398681641e+00) (0, 1.20521032810211181641e+00) (1, 1.28658449649810791016e+00) (2, 1.30555057525634765625e+00) (3, 1.00116682052612304688e+00) (4, 1.19099545478820800781e+00) (5, 1.10849893093109130859e+00) (6, 3.00916731357574462891e-01) (7, 1.19434237480163574219e+00) (8, 9.07357990741729736328e-01) (9, 8.36333215236663818359e-01) (10, 9.46451604366302490234e-01) (11, 1.11939859390258789062e+00) (12, 6.08095407485961914062e-01) (13, 1.26480138301849365234e+00) (14, 7.87458539009094238281e-01) (15, 1.18967138230800628662e-01) (16, 1.59014058113098144531e+00) (17, 4.31063830852508544922e-01) (18, 5.48634052276611328125e-01) (19, 1.90255904197692871094e+00) (20, -1.42662394046783447266e+00) (21, 1.74900615215301513672e+00) (22, 1.31721544265747070312e+00) (23, 8.46708655357360839844e-01) (24, 1.63061892986297607422e+00) (25, 1.37840640544891357422e+00) (26, 1.31657528877258300781e+00) (27, 1.51213777065277099609e+00) (28, 1.40341222286224365234e+00) (29, 1.27583515644073486328e+00) (30, 1.34580695629119873047e+00) (0, 1.54065060615539550781e+00) (1, 1.52268826961517333984e+00) (2, 1.60488653182983398438e+00) (3, 1.47242355346679687500e+00) (4, 1.50382852554321289062e+00) (5, 1.55504810810089111328e+00) (6, 1.46308434009552001953e+00) (7, 1.56370878219604492188e+00) (8, 1.55905246734619140625e+00) (9, 1.43474328517913818359e+00) (10, 1.26041793823242187500e+00) (11, 1.70481514930725097656e+00) (12, 1.78156971931457519531e+00) (13, 8.10730648040771484375e+00) (14, 1.65995657444000244141e+00) (15, 4.29378628730773925781e-01) (16, 2.32614350318908691406e+00) (17, 2.64310407638549804688e+00) (18, 9.17558014392852783203e-01) (19, 1.85979712009429931641e+00) (20, -3.55817246437072753906e+00) (21, 1.14640533924102783203e+00) (22, 1.19525742530822753906e+00) (23, -1.33742913603782653809e-01) (24, 1.30705213546752929688e+00) (25, 7.20137000083923339844e-01) (26, 8.52893948554992675781e-01) (27, 6.86520874500274658203e-01) (28, 6.64734840393066406250e-01) (29, 4.65613216161727905273e-01) (30, 7.67657995223999023438e-01) (0, 1.81975257396697998047e+00) (1, 1.92297828197479248047e+00) (2, 1.93139398097991943359e+00) (3, 1.29903292655944824219e+00) (4, 1.77641415596008300781e+00) (5, 1.86448097229003906250e+00) (6, 1.95423066616058349609e+00) (7, 2.06832146644592285156e+00) (8, 2.15190505981445312500e+00) (9, 1.24397099018096923828e+00) (10, 1.97183299064636230469e+00) (11, 2.36941504478454589844e+00) (12, 1.41999304294586181641e+00) (13, 1.41186130046844482422e+00) (14, 1.35630035400390625000e+00) (15, -2.54915642738342285156e+00) (16, -2.52795672416687011719e+00) (17, 4.34140110015869140625e+00) (18, 6.89705759286880493164e-02) (19, -1.12821693420410156250e+01) (20, -2.93010425567626953125e+00) (21, 4.55353349447250366211e-01) (22, 6.39736652374267578125e-01) (23, -1.13395128250122070312e+01) (24, 1.22043383121490478516e+00) (25, 1.32333779335021972656e+00) (26, -2.23213052749633789062e+00) (27, 4.87292498350143432617e-01) (28, 5.63133001327514648438e-01) (29, 2.62270957231521606445e-01) (30, 1.18667936325073242188e+00) (0, 1.47907364368438720703e+00) (1, 1.40680444240570068359e+00) (2, 1.41699326038360595703e+00) (3, 1.24727225303649902344e+00) (4, 1.38122534751892089844e+00) (5, 1.53154194355010986328e+00) (6, 3.04415017366409301758e-01) (7, 6.88656508922576904297e-01) (8, 1.66871058940887451172e+00) (9, -2.92924314737319946289e-01) (10, -1.49465993046760559082e-01) (11, 1.58688282966613769531e+00) (12, 8.71046245098114013672e-01) (13, -3.90919893980026245117e-01) (14, 7.35836446285247802734e-01) (15, -3.05599904060363769531e+00) (16, 1.04163086414337158203e+00) (17, 2.15689754486083984375e+00) (18, 1.79826065897941589355e-01) (19, 2.81979537010192871094e+00) (20, 3.52276897430419921875e+00) (21, 1.15951550006866455078e+00) (22, 1.41774773597717285156e+00) (23, 1.46598386764526367188e+00) (24, 1.39257431030273437500e+00) (25, 1.44248330593109130859e+00) (26, 8.71045708656311035156e-01) (27, 9.08550739288330078125e-01) (28, 1.40908789634704589844e+00) (29, 8.92163991928100585938e-01) (30, 8.61159324645996093750e-01) (0, 6.41451776027679443359e-01) (1, 6.00491642951965332031e-01) (2, 5.37665188312530517578e-01) (3, 7.62694954872131347656e-01) (4, 9.93864774703979492188e-01) (5, 6.53708755970001220703e-01) (6, 4.58601176738739013672e-01) (7, 6.20729565620422363281e-01) (8, 6.23244345188140869141e-01) (9, 1.04308259487152099609e+00) (10, -4.08987849950790405273e-02) (11, 2.19220250844955444336e-01) (12, 4.56231594085693359375e-01) (13, -1.30337679386138916016e+00) (14, 2.13725745677947998047e-01) (15, -4.74399656057357788086e-01) (16, 1.75074553489685058594e+00) (17, 6.24096810817718505859e-01) (18, -3.73402059078216552734e-01) (19, 5.72962474822998046875e+00) (20, 9.85781848430633544922e-01) (21, 8.70786845684051513672e-01) (22, 9.70237143337726593018e-03) (23, 3.48037481307983398438e+00) (24, 2.03902459144592285156e+00) (25, 1.12763643264770507812e+00) (26, 5.76256453990936279297e-01) (27, 1.15944027900695800781e+00) (28, 1.25588428974151611328e+00) (29, 1.51085484027862548828e+00) (30, 1.50828468799591064453e+00) (0, 9.70352411270141601562e-01) (1, 8.22879016399383544922e-01) (2, 1.03347361087799072266e+00) (3, 1.01488316059112548828e+00) (4, 9.55472826957702636719e-01) (5, 9.69588041305541992188e-01) (6, 8.82401823997497558594e-01) (7, 9.78916764259338378906e-01) (8, 1.08833682537078857422e+00) (9, 1.04722476005554199219e+00) (10, 7.81846463680267333984e-01) (11, 1.60971808433532714844e+00) (12, 1.00884556770324707031e+00) (13, 7.83068895339965820312e-01) (14, 1.54001069068908691406e+00) (15, -2.06913709640502929688e+00) (16, -7.74388313293457031250e-01) (17, 2.02793669700622558594e+00) (18, 8.89747917652130126953e-01) (19, -8.18665981292724609375e+00) (20, -1.11660468578338623047e+00) (21, 1.19295585155487060547e+00) (22, 1.16555726528167724609e+00) (23, 3.46238672733306884766e-01) (24, 1.20149838924407958984e+00) (25, 1.17432343959808349609e+00) (26, 6.81066870689392089844e-01) (27, 1.28475320339202880859e+00) (28, 1.27157473564147949219e+00) (29, 6.25183939933776855469e-01) (30, 1.35760128498077392578e+00) (0, 1.45271408557891845703e+00) (1, 1.41924011707305908203e+00) (2, 9.51191127300262451172e-01) (3, 2.15448546409606933594e+00) (4, 1.97444486618041992188e+00) (5, 1.96991968154907226562e+00) (6, 8.34576249122619628906e-01) (7, 7.80949056148529052734e-01) (8, 1.49652886390686035156e+00) (9, 2.06445717811584472656e+00) (10, 1.51735603809356689453e+00) (11, 9.43496286869049072266e-01) (12, 2.65051412582397460938e+00) (13, 1.98627197742462158203e+00) (14, 9.82557058334350585938e-01) (15, 4.43911027908325195312e+00) (16, -1.52920329570770263672e+00) (17, 1.92543995380401611328e+00) (18, 9.44130182266235351562e-01) (19, 5.66380858421325683594e-01) (20, -4.60634613037109375000e+00) (21, 4.00558263063430786133e-01) (22, 5.85845351219177246094e-01) (23, 1.01306512951850891113e-01) (24, 5.67436814308166503906e-01) (25, 1.01179027557373046875e+00) (26, 1.00462079048156738281e+00) (27, 1.06425428390502929688e+00) (28, 8.82493972778320312500e-01) (29, 6.84403479099273681641e-01) (30, 9.97179567813873291016e-01) (0, -4.76716682314872741699e-02) (1, 1.66700974106788635254e-01) (2, 1.57568946480751037598e-01) (3, -1.16283214092254638672e+00) (4, -2.25510194897651672363e-01) (5, -6.09722733497619628906e-02) (6, -2.27967560291290283203e-01) (7, -3.22449728846549987793e-02) (8, 9.03142511844635009766e-01) (9, 3.27106751501560211182e-02) (10, 1.26082047820091247559e-01) (11, 6.77874922752380371094e-01) (12, -5.19840791821479797363e-02) (13, 8.86963009834289550781e-01) (14, 7.92805552482604980469e-02) (15, 8.31593799591064453125e+00) (16, 1.67587327957153320312e+00) (17, 8.42914879322052001953e-01) (18, 1.13291435241699218750e+01) (19, 7.98128843307495117188e+00) (20, 1.39889502525329589844e+00) (21, 1.78874540328979492188e+00) (22, 1.06555967330932617188e+01) (23, -1.61241388320922851562e+00) (24, 2.02291059494018554688e+00) (25, 1.99144852161407470703e+00) (26, 1.45596151351928710938e+01) (27, 1.29673099517822265625e+00) (28, 1.68709778785705566406e+00) (29, 1.44551038742065429688e-01) (30, 2.40084481239318847656e+00) (0, 5.33085942268371582031e-01) (1, 6.45990371704101562500e-01) (2, 7.13635444641113281250e-01) (3, 4.26794916391372680664e-01) (4, 4.55909818410873413086e-01) (5, 4.74569350481033325195e-01) (6, 8.10555577278137207031e-01) (7, 8.30049574375152587891e-01) (8, 4.35642689466476440430e-01) (9, 5.66268444061279296875e-01) (10, 4.20159071683883666992e-01) (11, 8.33857953548431396484e-01) (12, 7.82867848873138427734e-01) (13, 8.93164873123168945312e-02) (14, 4.93648976087570190430e-01) (15, 1.72451925277709960938e+00) (16, 1.67813730239868164062e+00) (17, 9.82260465621948242188e-01) (18, 7.88694322109222412109e-01) (19, 9.37088251113891601562e-01) (20, 1.51591837406158447266e+00) (21, 2.01539754867553710938e+00) (22, 6.37885987758636474609e-01) (23, -5.59686064720153808594e-01) (24, 1.28769719600677490234e+00) (25, 8.80428194999694824219e-01) (26, 1.43438911437988281250e+00) (27, 1.45101070404052734375e+00) (28, 1.34902822971343994141e+00) (29, 6.26182913780212402344e-01) (30, 1.38708031177520751953e+00) (0, 7.02643394470214843750e-01) (1, 5.67181944847106933594e-01) (2, 9.19045805931091308594e-01) (3, 4.40391272306442260742e-01) (4, 2.19582468271255493164e-01) (5, 7.79747247695922851562e-01) (6, 9.25573408603668212891e-01) (7, 9.07635807991027832031e-01) (8, 9.93883132934570312500e-01) (9, -2.88215721957385540009e-03) (10, -1.72244980931282043457e-01) (11, 4.41731840372085571289e-01) (12, 3.39912101626396179199e-02) (13, -2.61209630966186523438e+00) (14, -5.75921893119812011719e-01) (15, -1.43209803104400634766e+00) (16, -1.22833509445190429688e+01) (17, -1.69347059726715087891e+00) (18, 1.26430678367614746094e+00) (19, 4.39406919479370117188e+00) (20, -5.98326349258422851562e+00) (21, 1.72567415237426757812e+00) (22, -9.83911827206611633301e-02) (23, -2.04524219036102294922e-01) (24, 1.32152366638183593750e+00) (25, 1.15229868888854980469e+00) (26, 2.38828372955322265625e+00) (27, 1.29120266437530517578e+00) (28, 1.26427006721496582031e+00) (29, 8.24715375900268554688e-01) (30, 1.48151981830596923828e+00) (0, 5.52457630634307861328e-01) (1, 6.24456465244293212891e-01) (2, 7.47246742248535156250e-01) (3, 1.22525238990783691406e+00) (4, 5.73836684226989746094e-01) (5, 1.02467072010040283203e+00) (6, 1.25296008586883544922e+00) (7, 8.81146311759948730469e-01) (8, 1.49994540214538574219e+00) (9, 1.21201038360595703125e+00) (10, 1.31328260898590087891e+00) (11, 2.49736857414245605469e+00) (12, 7.62045204639434814453e-01) (13, 1.01073873043060302734e+00) (14, 1.73961329460144042969e+00) (15, 1.64575397968292236328e+00) (16, -9.40324246883392333984e-01) (17, 1.09036378860473632812e+01) (18, -4.65903615951538085938e+00) (19, -5.62588071823120117188e+00) (20, 5.05176782608032226562e-01) (21, 8.74387800693511962891e-01) (22, 8.75821769237518310547e-01) (23, 1.96401894092559814453e+00) (24, 7.52596020698547363281e-01) (25, 8.29027712345123291016e-01) (26, 1.02673995494842529297e+00) (27, 6.65675699710845947266e-01) (28, 6.80277705192565917969e-01) (29, 3.04565453529357910156e+00) (30, 1.38675260543823242188e+00) (31, 1.12452054023742675781e+00) (32, 2.46480107307434082031e+00) (33, 1.27288663387298583984e+00) (34, -7.49496757984161376953e-01) (35, 1.86131787300109863281e+00) (36, 2.67752587795257568359e-01) (37, 8.26731503009796142578e-01) (38, 5.54442524909973144531e-01) (39, -1.18327784538269042969e+00) (40, 1.53563010692596435547e+00) (41, 1.27982211112976074219e+00) (42, -2.26584291458129882812e+00) (43, 1.03690254688262939453e+00) (44, -4.25207912921905517578e-01) (45, 4.99399006366729736328e-01) (46, 6.34019911289215087891e-01) (47, 4.14785146713256835938e-01) (48, 7.34523832798004150391e-01) (49, 2.07881641387939453125e+00) (50, 6.85686767101287841797e-01) (51, 1.83805525302886962891e+00) (52, 1.20218776166439056396e-01) (53, 2.54647850990295410156e+00) (54, -2.09813475608825683594e+00) (55, 1.30735421180725097656e+00) (56, 6.30396783351898193359e-01) (57, -5.07544231414794921875e+00) (58, 5.10962247848510742188e-01) (59, 6.83944702148437500000e-01) (60, 1.53368270397186279297e+00) (61, 1.03260517120361328125e+00) (62, -2.09205555915832519531e+00) (63, 8.05546522140502929688e-01) (64, 1.18668532371520996094e+00) (65, 1.86228501796722412109e+00) (31, 6.37516677379608154297e-01) (32, 8.26253473758697509766e-01) (33, 1.28449237346649169922e+00) (34, -1.46367168426513671875e+00) (35, 2.43054792284965515137e-01) (36, 3.34614133834838867188e+00) (37, 1.26113569736480712891e+00) (38, 1.02212131023406982422e+00) (39, 6.81987822055816650391e-01) (40, 1.31387698650360107422e+00) (41, 7.12832868099212646484e-01) (42, -1.89975154399871826172e+00) (43, 1.15532433986663818359e+00) (44, 3.39028537273406982422e-01) (45, -1.43578541278839111328e+00) (46, 6.52682960033416748047e-01) (47, 1.12474775314331054688e+00) (48, 1.40348553657531738281e+00) (49, 9.17008280754089355469e-01) (50, 6.28837823867797851562e-01) (51, -1.96896836161613464355e-01) (52, 5.69110691547393798828e-01) (53, 8.68855267763137817383e-02) (54, -6.17203414440155029297e-01) (55, 7.30866730213165283203e-01) (56, 7.60690689086914062500e-01) (57, 7.78805732727050781250e-01) (58, 1.82380247116088867188e+00) (59, 7.20964074134826660156e-01) (60, 1.39301574230194091797e+00) (61, 1.25243508815765380859e+00) (62, -7.91128873825073242188e-01) (63, 1.21948981285095214844e+00) (64, 6.47999286651611328125e-01) (65, 1.82907199859619140625e+00) (31, 1.26448881626129150391e+00) (32, 1.96765482425689697266e+00) (33, 4.73892778158187866211e-01) (34, 1.51434600353240966797e+00) (35, 1.39661788940429687500e+00) (36, 2.41629648208618164062e+00) (37, 1.12583231925964355469e+00) (38, 8.94775211811065673828e-01) (39, 1.48106336593627929688e+00) (40, -1.12310588359832763672e+00) (41, 2.07203403115272521973e-01) (42, 1.18271265029907226562e+01) (43, 1.72311091423034667969e+00) (44, 1.53066515922546386719e+00) (45, -3.06363910436630249023e-01) (46, 3.82138848304748535156e-01) (47, 1.25168240070343017578e+00) (48, 1.11734938621520996094e+00) (49, 7.16081082820892333984e-01) (50, 1.23408639430999755859e+00) (51, 3.87234389781951904297e-01) (52, 9.03470933437347412109e-01) (53, -2.79971170425415039062e+00) (54, 1.21838879585266113281e+00) (55, -2.24022455513477325439e-02) (56, 3.38650494813919067383e-01) (57, 3.75823426246643066406e+00) (58, 1.40657174587249755859e+00) (59, 3.34003984928131103516e-01) (60, 1.18496227264404296875e+00) (61, 5.32977759838104248047e-01) (62, 5.29405593872070312500e-01) (63, 1.08249354362487792969e+00) (64, 2.31433108448982238770e-01) (65, 1.67703425884246826172e+00) (31, 1.84986746311187744141e+00) (32, 6.53686821460723876953e-01) (33, 5.56927263736724853516e-01) (34, 8.14126059412956237793e-02) (35, 2.99550914764404296875e+00) (36, 4.04208242893218994141e-01) (37, 1.52961587905883789062e+00) (38, 8.34308862686157226562e-01) (39, -3.17881298065185546875e+00) (40, 4.41622853279113769531e-01) (41, 5.51133990287780761719e-01) (42, 2.36565399169921875000e+00) (43, -1.44872200489044189453e+00) (44, 6.08383081853389739990e-02) (45, -7.64254271984100341797e-01) (46, 4.97725188732147216797e-01) (47, 1.31706547737121582031e+00) (48, 1.46724224090576171875e+00) (49, 8.08160901069641113281e-01) (50, 1.40294563770294189453e+00) (51, 8.38583290576934814453e-01) (52, -1.46584659814834594727e-01) (53, 1.27322244644165039062e+00) (54, -3.92403632402420043945e-01) (55, 3.60936164855957031250e-01) (56, 4.78618204593658447266e-01) (57, -1.91943019628524780273e-01) (58, 5.26365458965301513672e-01) (59, 3.88734817504882812500e-01) (60, 6.85285568237304687500e-01) (61, 1.80205178260803222656e+00) (62, -8.45262527465820312500e-01) (63, 1.52545642852783203125e+00) (64, 5.77141642570495605469e-01) (65, 2.04466295242309570312e+00) (31, 7.16952621936798095703e-01) (32, 2.84950405359268188477e-01) (33, 7.39477574825286865234e-01) (34, 2.24394351243972778320e-01) (35, 6.54053509235382080078e-01) (36, 1.35226380825042724609e+00) (37, 7.82999932765960693359e-01) (38, 7.21718251705169677734e-01) (39, 4.74386751651763916016e-01) (40, 7.90152132511138916016e-01) (41, 1.18526446819305419922e+00) (42, 3.47691774368286132812e-01) (43, 1.44403338432312011719e+00) (44, 9.33645725250244140625e-01) (45, 1.12849891185760498047e+00) (46, 1.26101744174957275391e+00) (47, 1.37417876720428466797e+00) (48, 1.25557434558868408203e+00) (49, 9.33879852294921875000e-01) (50, 7.96010017395019531250e-01) (51, 5.47528028488159179688e-01) (52, 7.75023758411407470703e-01) (53, -1.41435551643371582031e+00) (54, -1.68502891063690185547e+00) (55, 1.35360419750213623047e+00) (56, 1.25005173683166503906e+00) (57, -6.99036538600921630859e-01) (58, 1.53756821155548095703e+00) (59, 1.21560943126678466797e+00) (60, 1.63045156002044677734e+00) (61, 1.42120063304901123047e+00) (62, -4.02335554361343383789e-01) (63, 6.48376882076263427734e-01) (64, 6.13588869571685791016e-01) (65, 1.22327172756195068359e+00) (31, 1.05359280109405517578e+00) (32, 6.23060837388038635254e-02) (33, 5.76475918292999267578e-01) (34, -4.95409160852432250977e-01) (35, 1.78167235851287841797e+00) (36, -2.22671985626220703125e-01) (37, 1.50007665157318115234e+00) (38, 1.87235009670257568359e+00) (39, 9.23726320266723632812e-01) (40, 7.42609739303588867188e-01) (41, 1.05341625213623046875e+00) (42, -8.41126203536987304688e-01) (43, -8.15525114536285400391e-01) (44, -7.68284916877746582031e-01) (45, -6.24523639678955078125e-01) (46, 1.16285502910614013672e+00) (47, 1.64031493663787841797e+00) (48, 1.45965325832366943359e+00) (49, 9.84049141407012939453e-01) (50, 1.60788023471832275391e+00) (51, -2.53264427185058593750e-01) (52, 1.86874079704284667969e+00) (53, -9.55862104892730712891e-01) (54, 1.13027989864349365234e+00) (55, 9.84073877334594726562e-01) (56, 1.15827906131744384766e+00) (57, 4.97066043317317962646e-02) (58, -5.60194998979568481445e-02) (59, 1.11515080928802490234e+00) (60, 7.30011224746704101562e-01) (61, -1.90036141872406005859e+00) (62, -5.25878369808197021484e-01) (63, 1.47307550907135009766e+00) (64, 1.84555304050445556641e+00) (65, 1.20153951644897460938e+00) (31, 1.14000904560089111328e+00) (32, -3.16308647394180297852e-01) (33, 9.28511738777160644531e-01) (34, -5.63479804992675781250e+00) (35, 1.21418905258178710938e+00) (36, 1.19936116039752960205e-01) (37, 1.27806043624877929688e+00) (38, 1.60617899894714355469e+00) (39, 7.50718116760253906250e-01) (40, 9.97773051261901855469e-01) (41, 1.64758992195129394531e+00) (42, -6.13628001883625984192e-03) (43, 4.30336618423461914062e+00) (44, -4.92287731170654296875e+00) (45, 4.64834421873092651367e-01) (46, 8.83780241012573242188e-01) (47, 4.76100862026214599609e-01) (48, 1.80178320407867431641e+00) (49, 1.37044310569763183594e+00) (50, 1.10675048828125000000e+00) (51, 7.17500448226928710938e-01) (52, 1.01333403587341308594e+00) (53, -1.27745028585195541382e-02) (54, -1.05287528038024902344e+00) (55, 1.48876106739044189453e+00) (56, 9.84033942222595214844e-01) (57, 3.19920599460601806641e-01) (58, 9.87827241420745849609e-01) (59, 9.51806426048278808594e-01) (60, 8.04430902004241943359e-01) (61, 1.10288381576538085938e+00) (62, -3.07287669181823730469e+00) (63, 1.14262092113494873047e+00) (64, 9.75990891456604003906e-01) (65, 1.35062956809997558594e+00) (31, 8.70401322841644287109e-01) (32, 7.58826434612274169922e-01) (33, 1.19193220138549804688e+00) (34, -4.93428677320480346680e-01) (35, 9.73886430263519287109e-01) (36, 4.88015204668045043945e-01) (37, 8.51348817348480224609e-01) (38, 1.42562699317932128906e+00) (39, -2.08764147758483886719e+00) (40, 1.18836116790771484375e+00) (41, 1.21967768669128417969e+00) (42, -1.81708264350891113281e+00) (43, 1.12399613857269287109e+00) (44, 1.38757690787315368652e-01) (45, -1.51588761806488037109e+00) (46, 1.30843400955200195312e+00) (47, 1.00903344154357910156e+00) (48, 1.02537024021148681641e+00) (49, 1.42367887496948242188e+00) (50, 7.58327960968017578125e-01) (51, 8.37829709053039550781e-01) (52, 1.74367159605026245117e-01) (53, 7.10175454616546630859e-01) (54, 5.49123845994472503662e-02) (55, 1.13623356819152832031e+00) (56, 1.21873569488525390625e+00) (57, 9.04437184333801269531e-01) (58, 5.22189676761627197266e-01) (59, 1.28105819225311279297e+00) (60, 1.47799098491668701172e+00) (61, 1.39326786994934082031e+00) (62, -1.22248339653015136719e+00) (63, 7.11371779441833496094e-01) (64, 9.47487890720367431641e-01) (65, 1.34878563880920410156e+00) (31, 8.24416041374206542969e-01) (32, 5.52978634834289550781e-01) (33, 1.44989740848541259766e+00) (34, -1.66143745183944702148e-01) (35, 2.38105940818786621094e+00) (36, 2.08065018057823181152e-01) (37, 1.46444964408874511719e+00) (38, 5.99125432968139648438e+00) (39, 4.86568748950958251953e-01) (40, 1.14550471305847167969e+00) (41, 1.40900754928588867188e+00) (42, -3.81582355499267578125e+00) (43, 5.42772054672241210938e-01) (44, -3.70340299606323242188e+00) (45, 1.12023746967315673828e+00) (46, 1.17976558208465576172e+00) (47, 9.09254193305969238281e-01) (48, 1.54653811454772949219e+00) (49, 7.86948084831237792969e-01) (50, 4.52937096357345581055e-01) (51, 8.80731821060180664062e-01) (52, 2.07814717292785644531e+00) (53, 1.80992043018341064453e+00) (54, -2.87524318695068359375e+00) (55, 1.19433367252349853516e+00) (56, 1.89251232147216796875e+00) (57, -2.30457639694213867188e+00) (58, 1.88042536377906799316e-01) (59, 1.78107666969299316406e+00) (60, 6.96339249610900878906e-01) (61, -3.06697010993957519531e-01) (62, 2.14653298258781433105e-01) (63, 8.22637796401977539062e-01) (64, 2.55892443656921386719e+00) (65, 4.23344939947128295898e-01) (31, 1.75468122959136962891e+00) (32, 3.86764526367187500000e+00) (33, 6.55910670757293701172e-01) (34, 1.32765769958496093750e-01) (35, 4.04216021299362182617e-01) (36, 1.90247201919555664062e+00) (37, 1.94829738140106201172e+00) (38, 1.15964305400848388672e+00) (39, -1.57509193420410156250e+01) (40, 6.17505967617034912109e-01) (41, 1.30897974967956542969e+00) (42, 3.07937455177307128906e+00) (43, -9.98462643474340438843e-03) (44, 2.01789379119873046875e-01) (45, 1.89594209194183349609e+00) (46, -2.57747739553451538086e-01) (47, 2.35400342941284179688e+00) (48, 2.60804247856140136719e+00) (49, -3.11158955097198486328e-01) (50, 2.00639891624450683594e+00) (51, 3.31987410783767700195e-01) (52, 1.86949563026428222656e+00) (53, 1.32047569751739501953e+00) (54, -6.96501779556274414062e+00) (55, 5.76130628585815429688e-01) (56, 7.13038802146911621094e-01) (57, 5.45462191104888916016e-01) (58, 1.69840991497039794922e+00) (59, 8.15432071685791015625e-01) (60, -2.46053695678710937500e-01) (61, 1.96611344814300537109e+00) (62, 3.24312984943389892578e-01) (63, 2.61426496505737304688e+00) (64, 6.36829435825347900391e-01) (65, 1.10076057910919189453e+00) (31, 1.12011775374412536621e-01) (32, 5.97734689712524414062e-01) (33, 2.14197301864624023438e+00) (34, -1.03749775886535644531e+00) (35, -2.05375552177429199219e+00) (36, 3.44458520412445068359e-01) (37, 8.70834827423095703125e-01) (38, 1.24700820446014404297e+00) (39, -2.72641122341156005859e-01) (40, 1.18914699554443359375e+00) (41, 2.32744956016540527344e+00) (42, 2.93293857574462890625e+00) (43, -6.11253559589385986328e-01) (44, -1.16219604015350341797e+00) (45, -2.71597933769226074219e+00) (46, 2.42753648757934570312e+00) (47, 9.84964251518249511719e-01) (48, 7.82819390296936035156e-01) (49, 1.39736831188201904297e+00) (50, 8.48499059677124023438e-01) (51, 1.02434825897216796875e+00) (52, -1.21945035457611083984e+00) (53, 9.73369789123535156250e+00) (54, -1.30192222595214843750e+01) (55, 2.34461450576782226562e+00) (56, 2.37613511085510253906e+00) (57, 7.09404468536376953125e-01) (58, -2.21908950805664062500e+00) (59, 2.34722709655761718750e+00) (60, 1.32957684993743896484e+00) (61, 5.26470899581909179688e-01) (62, -8.93476128578186035156e-01) (63, 8.98356854915618896484e-01) (64, 1.34623360633850097656e+00) (65, 2.49006316065788269043e-01) (31, 3.83345413208007812500e+00) (32, -2.21415057778358459473e-01) (33, 5.43860137462615966797e-01) (34, -5.82501316070556640625e+00) (35, 1.27855062484741210938e+00) (36, 1.49422848224639892578e+00) (37, 3.32727932929992675781e+00) (38, -1.10040225088596343994e-01) (39, -1.25447092056274414062e+01) (40, -7.83399213105440139771e-03) (41, 2.11567461490631103516e-01) (42, 3.69724617004394531250e+01) (43, -2.01565170288085937500e+00) (44, -1.05013334751129150391e+00) (45, -6.82861506938934326172e-01) (46, 2.21590220928192138672e-01) (47, 3.63610714673995971680e-01) (48, 2.96031737327575683594e+00) (49, -1.37710559368133544922e+00) (50, 3.10089135169982910156e+00) (51, -1.37887823581695556641e+00) (52, 3.37855839729309082031e+00) (53, 2.05948308110237121582e-01) (54, -9.01698470115661621094e-01) (55, 2.45254904031753540039e-01) (56, -4.91502955555915832520e-02) (57, -4.47355389595031738281e-01) (58, 5.78543424606323242188e-01) (59, -9.31066870689392089844e-02) (60, -7.38119423389434814453e-01) (61, 2.65921759605407714844e+00) (62, 3.14118236303329467773e-01) (63, 3.33942174911499023438e+00) (64, 4.39605414867401123047e-01) (65, 2.30738520622253417969e+00) (31, 3.16109728813171386719e+00) (32, 1.03092873096466064453e+00) (33, 1.00577747821807861328e+00) (34, -9.36912631988525390625e+00) (35, 3.13416719436645507812e+00) (36, -1.99984109401702880859e+00) (37, 3.03151440620422363281e+00) (38, 1.95374906063079833984e+00) (39, -6.89737915992736816406e-01) (40, 1.47925126552581787109e+00) (41, 1.00100517272949218750e+00) (42, 3.78682212829589843750e+01) (43, 1.10374999046325683594e+00) (44, -2.74066495895385742188e+00) (45, -1.20799179077148437500e+01) (46, -4.72324818372726440430e-01) (47, 3.66566896438598632812e-01) (48, 2.01894688606262207031e+00) (49, -2.67222225666046142578e-01) (50, 2.98054957389831542969e+00) (51, -4.50702905654907226562e+00) (52, 2.09007215499877929688e+00) (53, 4.15141463279724121094e-01) (54, -1.67555069923400878906e+00) (55, 8.30658614635467529297e-01) (56, 8.68191719055175781250e-01) (57, -8.02633166313171386719e-01) (58, -6.54855787754058837891e-01) (59, 1.01753854751586914062e+00) (60, -3.59186857938766479492e-01) (61, 2.73019504547119140625e+00) (62, 2.01146411895751953125e+00) (63, 2.31883788108825683594e+00) (64, 3.76624107360839843750e-01) (65, 1.55519223213195800781e+00) (31, 1.13118493556976318359e+00) (32, 1.05372667312622070312e+00) (33, 1.09720277786254882812e+00) (34, -3.31716030836105346680e-01) (35, 1.50103759765625000000e+00) (36, 7.22272634506225585938e-01) (37, 1.42007422447204589844e+00) (38, 1.37807941436767578125e+00) (39, 1.88149929046630859375e-01) (40, 1.08016693592071533203e+00) (41, 9.52385365962982177734e-01) (42, 2.88257288932800292969e+00) (43, 6.92033231258392333984e-01) (44, -1.02690052986145019531e+00) (45, -2.42085844278335571289e-01) (46, 1.57918417453765869141e+00) (47, 4.53766912221908569336e-01) (48, 1.18131363391876220703e+00) (49, 1.06512260437011718750e+00) (50, 1.70645105838775634766e+00) (51, 3.63702625036239624023e-01) (52, 1.16714668273925781250e+00) (53, 1.48780477046966552734e+00) (54, -4.73654031753540039062e+00) (55, 1.81001794338226318359e+00) (56, 1.80219757556915283203e+00) (57, 3.87148290872573852539e-01) (58, 1.10280919075012207031e+00) (59, 1.77836978435516357422e+00) (60, 1.29675292968750000000e+00) (61, 1.02765107154846191406e+00) (62, 1.04808044433593750000e+00) (63, 1.00056469440460205078e+00) (64, 9.93212163448333740234e-01) (65, 6.57283127307891845703e-01) (31, 3.19806337356567382812e-01) (32, 1.08058953285217285156e+00) (33, 1.07102477550506591797e+00) (34, -1.48793578147888183594e+00) (35, 1.71121907234191894531e+00) (36, 9.53661561012268066406e-01) (37, 9.66348052024841308594e-01) (38, 1.34650909900665283203e+00) (39, 1.39058959484100341797e+00) (40, 1.11582493782043457031e+00) (41, 9.55786466598510742188e-01) (42, 5.56311428546905517578e-01) (43, 1.35383296012878417969e+00) (44, -5.24317681789398193359e-01) (45, 1.33457696437835693359e+00) (46, 1.20585775375366210938e+00) (47, 1.43157625198364257812e+00) (48, 8.31352949142456054688e-01) (49, 8.49866807460784912109e-01) (50, 8.28027486801147460938e-01) (51, 9.53966856002807617188e-01) (52, 5.13644933700561523438e-01) (53, 1.57626545429229736328e+00) (54, -2.91478276252746582031e-01) (55, 9.51893568038940429688e-01) (56, 1.13511002063751220703e+00) (57, 1.19442117214202880859e+00) (58, 1.02312552928924560547e+00) (59, 1.10241031646728515625e+00) (60, 1.32232356071472167969e+00) (61, 8.81773173809051513672e-01) (62, 1.37210929393768310547e+00) (63, 7.06545114517211914062e-01) (64, 1.53745278716087341309e-01) (65, 1.42245101928710937500e+00) (31, 2.05315589904785156250e+00) (32, 1.97238162159919738770e-01) (33, 9.51907157897949218750e-01) (34, -3.86224150657653808594e-01) (35, 1.86686885356903076172e+00) (36, 3.77217888832092285156e-01) (37, 2.03926873207092285156e+00) (38, -3.22579932212829589844e+00) (39, -1.68719425201416015625e+01) (40, 7.15432465076446533203e-01) (41, 9.92021083831787109375e-01) (42, 1.24299564361572265625e+01) (43, 4.69225704669952392578e-01) (44, -9.33949887752532958984e-01) (45, 3.36988425254821777344e+00) (46, 9.11083817481994628906e-01) (47, 6.00605547428131103516e-01) (48, 1.93731904029846191406e+00) (49, 6.90615028142929077148e-02) (50, 2.10418081283569335938e+00) (51, 5.83046972751617431641e-01) (52, 8.18251967430114746094e-01) (53, 2.93258118629455566406e+00) (54, -7.34600067138671875000e-01) (55, 9.57071781158447265625e-01) (56, 9.39916372299194335938e-01) (57, -8.19129371643066406250e+00) (58, 1.14231431484222412109e+00) (59, 9.66848015785217285156e-01) (60, 1.36049792170524597168e-01) (61, 1.20869684219360351562e+00) (62, 4.13170957565307617188e+00) (63, 2.07364773750305175781e+00) (64, 8.64870190620422363281e-01) (65, 1.28425598144531250000e+00) (31, 7.04406738281250000000e-01) (32, 6.03909730911254882812e-01) (33, 1.68940436840057373047e+00) (34, -1.18477478623390197754e-01) (35, 5.34102499485015869141e-01) (36, 6.86580598354339599609e-01) (37, 9.14937317371368408203e-01) (38, 1.45502352714538574219e+00) (39, 1.22672510147094726562e+00) (40, 1.11307120323181152344e+00) (41, 1.67423963546752929688e+00) (42, 2.80054163932800292969e+00) (43, -4.20949190855026245117e-01) (44, -1.37839603424072265625e+00) (45, 9.00870680809020996094e-01) (46, 1.86133456230163574219e+00) (47, 1.19172275066375732422e+00) (48, 1.14677941799163818359e+00) (49, 9.18970584869384765625e-01) (50, 8.86237323284149169922e-01) (51, 6.74101650714874267578e-01) (52, 7.55438268184661865234e-01) (53, -1.00932550430297851562e+00) (54, -2.53698277473449707031e+00) (55, 1.65477478504180908203e+00) (56, 1.15493392944335937500e+00) (57, -9.77482438087463378906e-01) (58, 1.26559808850288391113e-01) (59, 1.67315280437469482422e+00) (60, 1.25490105152130126953e+00) (61, 9.56905305385589599609e-01) (62, 6.88325226306915283203e-01) (63, 1.04986298084259033203e+00) (64, 1.17412662506103515625e+00) (65, 6.05334997177124023438e-01) (31, 6.36366128921508789062e-01) (32, 1.40260171890258789062e+00) (33, 1.06883549690246582031e+00) (34, 7.92447626590728759766e-01) (35, 4.51112687587738037109e-01) (36, 8.05200576782226562500e-01) (37, 8.16962480545043945312e-01) (38, -4.44359350204467773438e+00) (39, -5.16513824462890625000e-01) (40, 1.13056647777557373047e+00) (41, 1.12091326713562011719e+00) (42, -7.62557387351989746094e-02) (43, 1.60650655627250671387e-01) (44, -4.78848248720169067383e-01) (45, 1.09755206108093261719e+00) (46, 6.69343233108520507812e-01) (47, 1.68725562095642089844e+00) (48, 8.59881877899169921875e-01) (49, 1.43530941009521484375e+00) (50, 4.79601442813873291016e-01) (51, 1.26849877834320068359e+00) (52, 1.07943201065063476562e+00) (53, 1.11946570873260498047e+00) (54, -1.14124631881713867188e+00) (55, 6.83593034744262695312e-01) (56, 6.86111032962799072266e-01) (57, 5.45120418071746826172e-01) (58, 1.16943371295928955078e+00) (59, 6.60709738731384277344e-01) (60, 1.60649371147155761719e+00) (61, 9.06772971153259277344e-01) (62, 3.91942441463470458984e-01) (63, 5.35303711891174316406e-01) (64, 6.93959534168243408203e-01) (65, 1.42265689373016357422e+00) (31, 1.74460792541503906250e+00) (32, 5.83853244781494140625e-01) (33, 1.20269191265106201172e+00) (34, 1.79872035980224609375e-01) (35, 5.01031100749969482422e-01) (36, -2.56123989820480346680e-01) (37, 1.46237576007843017578e+00) (38, 6.80391609668731689453e-01) (39, -2.81504797935485839844e+00) (40, 9.16314125061035156250e-01) (41, 1.24009811878204345703e+00) (42, -4.52863883972167968750e+00) (43, 6.23566567897796630859e-01) (44, 6.11801624298095703125e-01) (45, 4.94168341159820556641e-01) (46, 1.80292737483978271484e+00) (47, 1.45105004310607910156e+00) (48, 1.46284937858581542969e+00) (49, 6.75892293453216552734e-01) (50, 9.90264952182769775391e-01) (51, 1.86384582519531250000e+00) (52, 8.18040907382965087891e-01) (53, 7.54799365997314453125e-01) (54, -1.85363900661468505859e+00) (55, 1.32353043556213378906e+00) (56, 1.18870806694030761719e+00) (57, 9.30310130119323730469e-01) (58, -1.85635185241699218750e+00) (59, 1.08436179161071777344e+00) (60, 7.05569744110107421875e-01) (61, 8.35306525230407714844e-01) (62, -4.87266391515731811523e-01) (63, 1.60640442371368408203e+00) (64, 1.30558896064758300781e+00) (65, 5.54604709148406982422e-01) (31, 3.44686269760131835938e+00) (32, 7.78928816318511962891e-01) (33, 6.13770067691802978516e-01) (34, -5.68576240539550781250e+00) (35, 5.27782964706420898438e+00) (36, -1.80897545814514160156e+00) (37, 3.11819171905517578125e+00) (38, 5.12924194335937500000e-01) (39, 2.47302904725074768066e-01) (40, 1.26076877117156982422e+00) (41, 6.17517173290252685547e-01) (42, -3.10459842681884765625e+01) (43, 5.11536645889282226562e+00) (44, -8.47680950164794921875e+00) (45, -4.71373462677001953125e+00) (46, 5.47284543514251708984e-01) (47, 5.40021955966949462891e-01) (48, 3.16332674026489257812e+00) (49, 9.46184992790222167969e-02) (50, 3.09469628334045410156e+00) (51, -9.77588593959808349609e-01) (52, 1.77582490444183349609e+00) (53, 6.99034595489501953125e+00) (54, -1.08367276191711425781e+00) (55, 3.40809643268585205078e-01) (56, 5.38048028945922851562e-01) (57, 1.31884300708770751953e+00) (58, 2.05622220039367675781e+00) (59, 4.82334554195404052734e-01) (60, -5.39025902748107910156e-01) (61, 3.12087011337280273438e+00) (62, 1.40059649944305419922e+00) (63, 3.02625584602355957031e+00) (64, 1.15223610401153564453e+00) (65, 1.96966123580932617188e+00) (31, 1.98203933238983154297e+00) (32, -1.89618214964866638184e-01) (33, 7.16174662113189697266e-01) (34, -1.16952538490295410156e+00) (35, 1.61334663629531860352e-01) (36, -1.32464480400085449219e+00) (37, 3.11515212059020996094e-01) (38, -1.44257736206054687500e+00) (39, 1.79847906110808253288e-04) (40, 3.15881311893463134766e-01) (41, 1.05211162567138671875e+00) (42, 2.16147756576538085938e+00) (43, -4.46754366159439086914e-01) (44, 1.74777016043663024902e-01) (45, 2.58940744400024414062e+00) (46, 1.22293865680694580078e+00) (47, 1.51454627513885498047e+00) (48, 1.61787256598472595215e-01) (49, 5.76304376125335693359e-01) (50, 3.04617226123809814453e-01) (51, 3.04911160469055175781e+00) (52, 3.28179746866226196289e-01) (53, 3.84573364257812500000e+00) (54, 3.03435832262039184570e-01) (55, 9.71025288105010986328e-01) (56, 1.15800189971923828125e+00) (57, -8.22723329067230224609e-01) (58, 5.44076561927795410156e-01) (59, 1.19868731498718261719e+00) (60, 2.01445174217224121094e+00) (61, 1.14790797233581542969e+00) (62, -7.16906011104583740234e-01) (63, 3.96198302507400512695e-01) (64, 1.01631402969360351562e+00) (65, 9.31453645229339599609e-01) (31, 7.24289715290069580078e-01) (32, 1.39622867107391357422e-01) (33, 4.54064548015594482422e-01) (34, 1.20617926120758056641e+00) (35, 6.38521134853363037109e-01) (36, 8.86354625225067138672e-01) (37, 1.16882085800170898438e+00) (38, 4.79445755481719970703e-01) (39, -3.31790953874588012695e-01) (40, 1.05596208572387695312e+00) (41, 6.97464346885681152344e-01) (42, -1.84479570388793945312e+00) (43, -3.79020512104034423828e-01) (44, 4.91140693426132202148e-01) (45, -4.22365397214889526367e-01) (46, 5.18299520015716552734e-01) (47, -4.53226827085018157959e-02) (48, 1.10606539249420166016e+00) (49, 9.99790787696838378906e-01) (50, 7.90449857711791992188e-01) (51, 6.15917563438415527344e-01) (52, -6.92483663558959960938e-01) (53, 3.46677517890930175781e+00) (54, 9.66275274753570556641e-01) (55, 7.69128084182739257812e-01) (56, 8.63003551959991455078e-01) (57, -1.26885509490966796875e+00) (58, 1.23837184906005859375e+00) (59, 8.19375872611999511719e-01) (60, 1.04420840740203857422e+00) (61, -3.91062460839748382568e-02) (62, 6.27889513969421386719e-01) (63, 5.06047725677490234375e-01) (64, 1.74687874317169189453e+00) (65, 1.66281664371490478516e+00) (31, 4.87798959016799926758e-01) (32, -2.60204577445983886719e+00) (33, 7.54666924476623535156e-01) (34, 1.18868522346019744873e-01) (35, 4.26714509725570678711e-01) (36, 1.25433397293090820312e+00) (37, 7.78111159801483154297e-01) (38, 7.50780776143074035645e-02) (39, 5.75159907341003417969e-01) (40, 1.51078832149505615234e+00) (41, 1.12607347965240478516e+00) (42, 1.66526865959167480469e+00) (43, 2.56042033433914184570e-01) (44, -1.81829488277435302734e+00) (45, 1.00254988670349121094e+00) (46, 1.24504399299621582031e+00) (47, 1.55058932304382324219e+00) (48, 9.10577535629272460938e-01) (49, 1.82215189933776855469e+00) (50, 9.13483619689941406250e-01) (51, 1.64822685718536376953e+00) (52, -6.80205971002578735352e-02) (53, 4.75992918014526367188e+00) (54, -7.26612925529479980469e-01) (55, 1.25132012367248535156e+00) (56, 1.38111412525177001953e+00) (57, -6.24746978282928466797e-01) (58, 1.11112225055694580078e+00) (59, 9.96908128261566162109e-01) (60, 1.82671785354614257812e+00) (61, 8.15342426300048828125e-01) (62, 2.39032968878746032715e-01) (63, 1.07162499427795410156e+00) (64, 8.48244726657867431641e-01) (65, 1.37627327442169189453e+00) (31, 1.17442393302917480469e+00) (32, -8.09356331825256347656e-01) (33, -1.09922669827938079834e-01) (34, 6.45484685897827148438e-01) (35, -1.08056461811065673828e+00) (36, 2.87143278121948242188e+00) (37, 1.18717265129089355469e+00) (38, 1.50201702117919921875e+00) (39, 1.45747423171997070312e+01) (40, 1.47470757365226745605e-01) (41, 5.34619987010955810547e-01) (42, 3.54207563400268554688e+00) (43, -3.48423504829406738281e+00) (44, -5.07405221462249755859e-01) (45, -2.85784673690795898438e+00) (46, 3.11853766441345214844e-01) (47, 1.78843331336975097656e+00) (48, 1.68987202644348144531e+00) (49, 1.27758526802062988281e+00) (50, 1.45059812068939208984e+00) (51, -1.78509697318077087402e-01) (52, 1.99462449550628662109e+00) (53, -3.86273950338363647461e-01) (54, 4.95519828796386718750e+00) (55, 2.22847145050764083862e-02) (56, 8.45273613929748535156e-01) (57, -1.38644501566886901855e-01) (58, 2.37464213371276855469e+00) (59, 3.65230798721313476562e-01) (60, 7.35644817352294921875e-01) (61, 1.43349909782409667969e+00) (62, -2.91419076919555664062e+00) (63, 8.84454309940338134766e-01) (64, 2.05330824851989746094e+00) (65, 1.83849847316741943359e+00) (31, 1.22822511196136474609e+00) (32, -6.30221189931035041809e-03) (33, 2.90984995663166046143e-02) (34, -4.34942483901977539062e-01) (35, -1.85710191726684570312e+00) (36, 1.61159694194793701172e+00) (37, 8.14597308635711669922e-01) (38, 3.96143972873687744141e-01) (39, 8.40855240821838378906e-02) (40, -1.13166797161102294922e+00) (41, 3.77808153629302978516e-01) (42, -1.54330480098724365234e+00) (43, -8.88302624225616455078e-02) (44, 6.83151721954345703125e-01) (45, -6.74382150173187255859e-01) (46, 7.74236679077148437500e-01) (47, 2.19763731956481933594e+00) (48, 6.59880876541137695312e-01) (49, 1.17360603809356689453e+00) (50, 8.02685976028442382812e-01) (51, 1.10174727439880371094e+00) (52, 8.01413476467132568359e-01) (53, 8.00774335861206054688e-01) (54, -7.23390221595764160156e-01) (55, 4.17550802230834960938e-01) (56, 8.31720232963562011719e-01) (57, -1.91612645983695983887e-01) (58, 1.38493287563323974609e+00) (59, 7.27274000644683837891e-01) (60, 1.52358877658843994141e+00) (61, 9.25541341304779052734e-01) (62, 2.26911053061485290527e-01) (63, 2.27883115410804748535e-01) (64, 5.00151515007019042969e-01) (65, 1.40705251693725585938e+00) (31, 1.63656747341156005859e+00) (32, 9.66983616352081298828e-01) (33, 1.28804790973663330078e+00) (34, -6.03529334068298339844e-01) (35, 1.25285542011260986328e+00) (36, 8.11354041099548339844e-01) (37, 1.43223345279693603516e+00) (38, 9.23028349876403808594e-01) (39, -3.52429933845996856689e-02) (40, 1.36770331859588623047e+00) (41, 1.27925050258636474609e+00) (42, 8.09606313705444335938e-01) (43, 5.48950910568237304688e-01) (44, -5.33543682098388671875e+00) (45, 4.32069927453994750977e-01) (46, 1.52256262302398681641e+00) (47, 6.62088990211486816406e-01) (48, 1.16282892227172851562e+00) (49, 7.93514490127563476562e-01) (50, 1.42236912250518798828e+00) (51, 1.26536667346954345703e+00) (52, 1.17158269882202148438e+00) (53, 7.43854880332946777344e-01) (54, -1.10246551036834716797e+00) (55, 1.59861660003662109375e+00) (56, 1.30300652980804443359e+00) (57, 2.73968487977981567383e-01) (58, 8.17637145519256591797e-01) (59, 1.31864356994628906250e+00) (60, 9.96407628059387207031e-01) (61, 1.64920771121978759766e+00) (62, 1.20881080627441406250e+00) (63, 1.49256527423858642578e+00) (64, 1.11720991134643554688e+00) (65, 1.05430483818054199219e+00) (31, 1.55755734443664550781e+00) (32, 5.44964373111724853516e-01) (33, 1.23631072044372558594e+00) (34, 1.35328900068998336792e-02) (35, 1.10558390617370605469e+00) (36, -2.65111064910888671875e+00) (37, 1.60704362392425537109e+00) (38, 5.84790825843811035156e-01) (39, 9.32264886796474456787e-03) (40, 8.15644562244415283203e-01) (41, 1.22359120845794677734e+00) (42, -7.45202302932739257812e+00) (43, 6.34204387664794921875e-01) (44, -3.28324770927429199219e+00) (45, 2.40869212150573730469e+00) (46, 1.71894919872283935547e+00) (47, 1.88216114044189453125e+00) (48, 7.91843950748443603516e-01) (49, 7.15484142303466796875e-01) (50, 1.49034035205841064453e+00) (51, 7.31593132019042968750e-01) (52, 4.50490355491638183594e-01) (53, -7.58521199226379394531e-01) (54, 1.63541507720947265625e+00) (55, 1.19630908966064453125e+00) (56, 1.25861239433288574219e+00) (57, -2.27888628840446472168e-01) (58, -5.39901554584503173828e-01) (59, 1.40483760833740234375e+00) (60, 7.50901937484741210938e-01) (61, 9.54730451107025146484e-01) (62, 5.93436770141124725342e-02) (63, 1.41445600986480712891e+00) (64, 1.74116277694702148438e+00) (65, 1.21859300136566162109e+00) (31, 3.88200092315673828125e+00) (32, 8.29475784301757812500e+00) (33, -2.69010633230209350586e-01) (34, -9.31801378726959228516e-01) (35, 6.61480426788330078125e+00) (36, -8.16056668758392333984e-01) (37, 2.40929150581359863281e+00) (38, 4.54298675060272216797e-01) (39, -1.64347028732299804688e+00) (40, 1.08024299144744873047e+00) (41, -1.58613830804824829102e-01) (42, -1.62583999633789062500e+01) (43, 2.65756092071533203125e+01) (44, -3.16958737373352050781e+00) (45, 5.33721685409545898438e+00) (46, 3.67480963468551635742e-02) (47, -3.88183742761611938477e-02) (48, 3.50684356689453125000e+00) (49, -8.29627227783203125000e+00) (50, 3.36418128013610839844e+00) (51, 1.28860485553741455078e+00) (52, 4.03595876693725585938e+00) (53, -1.28130025863647460938e+01) (54, 9.07486534118652343750e+00) (55, -6.17174915969371795654e-02) (56, -2.13914796710014343262e-01) (57, -6.78014338016510009766e-01) (58, 2.53102755546569824219e+00) (59, -1.87821835279464721680e-01) (60, -1.19139301776885986328e+00) (61, 7.23407506942749023438e+00) (62, 7.05251741409301757812e+00) (63, 3.65616273880004882812e+00) (64, 1.08905732631683349609e-02) (65, 2.42718720436096191406e+00) (31, 3.64928960800170898438e-01) (32, 1.52078413963317871094e+00) (33, 1.12823009490966796875e+00) (34, 8.76714766025543212891e-01) (35, 6.45604059100151062012e-02) (36, 6.03906452655792236328e-01) (37, 8.92674148082733154297e-01) (38, 1.94131422042846679688e+00) (39, 1.06142616271972656250e+00) (40, 3.20867538452148437500e-01) (41, 7.39710032939910888672e-01) (42, 2.51793920993804931641e-01) (43, 8.80350887775421142578e-01) (44, -5.42932331562042236328e-01) (45, -1.66560781002044677734e+00) (46, 1.20689678192138671875e+00) (47, 4.13070678710937500000e+00) (48, 1.46883144974708557129e-01) (49, 1.45804059505462646484e+00) (50, 8.05758953094482421875e-01) (51, 1.49851489067077636719e+00) (52, 7.51803576946258544922e-01) (53, -1.17936231195926666260e-01) (54, -2.08860778808593750000e+00) (55, 6.95571064949035644531e-01) (56, 6.77320241928100585938e-01) (57, 1.05221211910247802734e+00) (58, 6.35123431682586669922e-01) (59, 7.35486805438995361328e-01) (60, 1.44377839565277099609e+00) (61, 6.35833203792572021484e-01) (62, -7.09605503082275390625e+00) (63, 7.90083467960357666016e-01) (64, 6.78801715373992919922e-01) (65, 1.50912022590637207031e+00) (31, 3.32431888580322265625e+00) (32, 1.53325951099395751953e+00) (33, 4.97346818447113037109e-01) (34, 8.29840278625488281250e+00) (35, 6.89017343521118164062e+00) (36, 1.32955873012542724609e+00) (37, 2.97396898269653320312e+00) (38, 4.37335968017578125000e+00) (39, -2.13379211425781250000e+01) (40, 1.00645411014556884766e+00) (41, 2.11732715368270874023e-01) (42, -2.14139127731323242188e+00) (43, 5.51389408111572265625e+00) (44, 1.11016213893890380859e+00) (45, 5.96004152297973632812e+00) (46, 1.72358036041259765625e-01) (47, 1.15877342224121093750e+00) (48, 2.99570369720458984375e+00) (49, -1.02429604530334472656e+00) (50, 3.02907490730285644531e+00) (51, 3.65990519523620605469e+00) (52, 1.81929564476013183594e+00) (53, 3.86333394050598144531e+00) (54, 3.42797756195068359375e+00) (55, 3.18712621927261352539e-01) (56, -1.35696244239807128906e+00) (57, -3.81263828277587890625e+00) (58, 1.71135330200195312500e+00) (59, 5.07875084877014160156e-01) (60, -1.14368999004364013672e+00) (61, 2.09956502914428710938e+00) (62, 4.57794570922851562500e+00) (63, 2.91028523445129394531e+00) (64, 3.80799919366836547852e-01) (65, 2.49545454978942871094e+00) (31, 8.75418663024902343750e-01) (32, 2.22897052764892578125e+00) (33, 2.87359046936035156250e+00) (34, -1.37649178504943847656e-01) (35, -1.48417699337005615234e+00) (36, 8.62343430519104003906e-01) (37, 9.13955628871917724609e-01) (38, 8.23102295398712158203e-01) (39, 4.12136942148208618164e-01) (40, 1.32142841815948486328e+00) (41, 7.96723186969757080078e-01) (42, -2.00742411613464355469e+00) (43, 1.55866360664367675781e+00) (44, -2.47935771942138671875e+00) (45, 1.45301222801208496094e-01) (46, 9.75072860717773437500e-01) (47, 2.34045481681823730469e+00) (48, 3.56487363576889038086e-01) (49, 1.50005877017974853516e+00) (50, 8.11525702476501464844e-01) (51, 1.41790747642517089844e+00) (52, 1.02055907249450683594e+00) (53, 6.05674922466278076172e-01) (54, -2.76600170135498046875e+00) (55, 1.77781140804290771484e+00) (56, 8.40133488178253173828e-01) (57, 2.40509915351867675781e+00) (58, 1.30680835247039794922e+00) (59, 8.25483143329620361328e-01) (60, 1.43085587024688720703e+00) (61, 1.04828524589538574219e+00) (62, 6.58827662467956542969e-01) (63, 9.68252003192901611328e-01) (64, 8.06912720203399658203e-01) (65, 1.29426252841949462891e+00) (31, 1.36028304696083068848e-01) (32, -3.84599298238754272461e-01) (33, -2.75556705892086029053e-02) (34, -1.04424767196178436279e-01) (35, 7.22214996814727783203e-01) (36, 7.99396097660064697266e-01) (37, 5.70679247379302978516e-01) (38, -6.96907341480255126953e-01) (39, 5.49229323863983154297e-01) (40, -8.81272912025451660156e-01) (41, 6.05327785015106201172e-01) (42, 4.85505533218383789062e+00) (43, -2.38873171806335449219e+00) (44, 7.02925175428390502930e-02) (45, 1.16209673881530761719e+00) (46, 1.17000377178192138672e+00) (47, 1.14010930061340332031e+00) (48, 4.25416558980941772461e-01) (49, 2.83012080192565917969e+00) (50, 4.49985951185226440430e-01) (51, 3.65889579057693481445e-01) (52, -1.03228247165679931641e+00) (53, 4.48936730623245239258e-01) (54, -3.63363027572631835938e-02) (55, 3.00695866346359252930e-01) (56, 1.26068317890167236328e+00) (57, -8.22930335998535156250e-01) (58, 4.78145688772201538086e-01) (59, 1.18065798282623291016e+00) (60, 1.74610543251037597656e+00) (61, 1.08923542499542236328e+00) (62, -9.06862244009971618652e-02) (63, 1.14192974567413330078e+00) (64, 1.76076710224151611328e-01) (65, 9.70286786556243896484e-01) (31, 2.77701884508132934570e-01) (32, -1.66437399387359619141e+00) (33, 5.97122371196746826172e-01) (34, 8.38339030742645263672e-01) (35, 1.49934053421020507812e+00) (36, 1.21582996845245361328e+00) (37, 3.46607446670532226562e-01) (38, 6.13548755645751953125e-01) (39, 7.10473716259002685547e-01) (40, 7.28438973426818847656e-01) (41, 1.06064534187316894531e+00) (42, -6.09040069580078125000e+00) (43, -3.48021775484085083008e-01) (44, 1.84798344969749450684e-01) (45, -1.07964456081390380859e+00) (46, 1.19620180130004882812e+00) (47, 1.03089809417724609375e+00) (48, 2.36987888813018798828e-01) (49, 3.14780497550964355469e+00) (50, -1.52505353093147277832e-01) (51, 1.22953295707702636719e+00) (52, -4.23564481735229492188e+00) (53, 1.53594720363616943359e+00) (54, 4.70043659210205078125e-01) (55, 1.03258562088012695312e+00) (56, 1.98582673072814941406e+00) (57, 1.33511924743652343750e+00) (58, 5.29297471046447753906e-01) (59, 1.19962918758392333984e+00) (60, 2.00587654113769531250e+00) (61, 4.16183799505233764648e-01) (62, 1.60166203975677490234e-01) (63, 2.53675222396850585938e-01) (64, 8.93687069416046142578e-01) (65, 9.32769477367401123047e-01) (31, 2.43288111686706542969e+00) (32, -2.42737555503845214844e+00) (33, -4.20502275228500366211e-01) (34, 3.90060007572174072266e-01) (35, 1.83646845817565917969e+00) (36, -1.79251754283905029297e+00) (37, 2.27216076850891113281e+00) (38, -1.98768472671508789062e+00) (39, -7.48923867940902709961e-02) (40, -9.71016645431518554688e-01) (41, -3.01126033067703247070e-01) (42, 4.20196266174316406250e+01) (43, -2.95463871955871582031e+00) (44, 3.66827212274074554443e-02) (45, -8.34280204772949218750e+00) (46, -3.10597419738769531250e-01) (47, 2.78879087418317794800e-02) (48, 2.88949179649353027344e+00) (49, -5.88680505752563476562e-01) (50, 2.75012898445129394531e+00) (51, 1.34101271629333496094e+00) (52, 2.20208621025085449219e+00) (53, -1.26482701301574707031e+00) (54, -3.55259108543395996094e+00) (55, -3.40823471546173095703e-01) (56, -4.41005647182464599609e-01) (57, 3.24556589126586914062e+00) (58, 1.85763025283813476562e+00) (59, -3.38801681995391845703e-01) (60, 3.45807760953903198242e-01) (61, 1.65729928016662597656e+00) (62, -1.64257860183715820312e+00) (63, 3.01312494277954101562e+00) (64, 3.44248086214065551758e-01) (65, 2.78670597076416015625e+00) (31, 9.75764811038970947266e-01) (32, 2.35502272844314575195e-01) (33, 1.24127221107482910156e+00) (34, 2.59544700384140014648e-01) (35, 1.55239593982696533203e+00) (36, 2.02873063087463378906e+00) (37, 1.29839587211608886719e+00) (38, 9.97188806533813476562e-01) (39, 6.85909450054168701172e-01) (40, 9.02465939521789550781e-01) (41, 1.25903856754302978516e+00) (42, 3.18917036056518554688e+00) (43, 5.22707998752593994141e-01) (44, -1.05547542572021484375e+01) (45, 5.61118304729461669922e-01) (46, 1.20501720905303955078e+00) (47, 2.04726314544677734375e+00) (48, 1.58197462558746337891e+00) (49, 5.39519309997558593750e-01) (50, 1.61936616897583007812e+00) (51, -1.87498056888580322266e+00) (52, 7.96071767807006835938e-01) (53, 1.67873114347457885742e-01) (54, 3.49576473236083984375e+00) (55, 1.23696923255920410156e+00) (56, 1.32214081287384033203e+00) (57, -6.79610311985015869141e-01) (58, -2.70227169990539550781e+00) (59, 1.21483576297760009766e+00) (60, 6.60803794860839843750e-01) (61, 5.74967980384826660156e-01) (62, -3.45031714439392089844e+00) (63, 8.57596576213836669922e-01) (64, 1.28675794601440429688e+00) (65, 1.17263484001159667969e+00) (31, 8.93137395381927490234e-01) (32, 7.16721117496490478516e-01) (33, 8.47855806350708007812e-01) (34, -2.53046464920043945312e+00) (35, 1.18403196334838867188e+00) (36, 9.88923788070678710938e-01) (37, 1.49798882007598876953e+00) (38, 3.89182567596435546875e-01) (39, -7.93489933013916015625e-01) (40, 8.06793153285980224609e-01) (41, 5.73158800601959228516e-01) (42, -1.27250142395496368408e-02) (43, 7.92918324470520019531e-01) (44, -1.81235921382904052734e+00) (45, 1.33355832099914550781e+00) (46, 1.03541398048400878906e+00) (47, 6.16348326206207275391e-01) (48, 1.85161888599395751953e+00) (49, 7.58239388465881347656e-01) (50, 1.32145857810974121094e+00) (51, 5.88800132274627685547e-01) (52, 1.08454179763793945312e+00) (53, 3.35688233375549316406e+00) (54, -2.89816528558731079102e-01) (55, 5.16253709793090820312e-01) (56, 4.88566935062408447266e-01) (57, -1.20316825807094573975e-01) (58, 1.09903025627136230469e+00) (59, 5.32593607902526855469e-01) (60, 7.32997417449951171875e-01) (61, 1.18366754055023193359e+00) (62, -1.17555474862456321716e-02) (63, 7.91721880435943603516e-01) (64, 6.44900858402252197266e-01) (65, 2.01714110374450683594e+00) (31, 1.88728177547454833984e+00) (32, 3.93386065959930419922e-01) (33, 1.74191236495971679688e+00) (34, -2.36123394966125488281e+00) (35, -1.42778426408767700195e-01) (36, 1.69201755523681640625e+00) (37, 1.04265260696411132812e+00) (38, 8.34578752517700195312e-01) (39, 4.13424283266067504883e-01) (40, 9.33968245983123779297e-01) (41, 1.59438931941986083984e+00) (42, -1.39525699615478515625e+00) (43, 3.95692974328994750977e-01) (44, -7.39225506782531738281e-01) (45, 9.55601036548614501953e-01) (46, 1.23546278476715087891e+00) (47, 1.28575050830841064453e+00) (48, 1.33214449882507324219e+00) (49, 1.15437281131744384766e+00) (50, 1.11638104915618896484e+00) (51, 4.36500050127506256104e-02) (52, 2.80056619644165039062e+00) (53, 2.50053554773330688477e-01) (54, -1.00474154949188232422e+00) (55, 9.45941507816314697266e-01) (56, 1.34065949916839599609e+00) (57, 1.98838698863983154297e+00) (58, 1.25151741504669189453e+00) (59, 1.06177091598510742188e+00) (60, 1.03350007534027099609e+00) (61, 1.86780512332916259766e+00) (62, -1.25752770900726318359e+00) (63, 1.74658000469207763672e+00) (64, 1.34233367443084716797e+00) (65, 1.16474664211273193359e+00) (31, 4.94068294763565063477e-01) (32, 1.64722645282745361328e+00) (33, 1.10611033439636230469e+00) (34, 5.76840460300445556641e-01) (35, 1.15698611736297607422e+00) (36, 1.70374953746795654297e+00) (37, 7.41792201995849609375e-01) (38, 3.97185683250427246094e-01) (39, -1.40403017401695251465e-01) (40, 1.33708155155181884766e+00) (41, 1.08909320831298828125e+00) (42, -6.35950118303298950195e-02) (43, 5.00305175781250000000e-01) (44, -4.77092981338500976562e-01) (45, 1.48659288883209228516e-01) (46, 9.62348997592926025391e-01) (47, 1.46101415157318115234e+00) (48, 1.02045059204101562500e+00) (49, 1.14012932777404785156e+00) (50, 7.84760951995849609375e-01) (51, 1.37632799148559570312e+00) (52, 1.21345818042755126953e+00) (53, 7.36589074134826660156e-01) (54, -3.15976053476333618164e-01) (55, 1.22355163097381591797e+00) (56, 1.05701375007629394531e+00) (57, -1.12281948328018188477e-01) (58, 1.15201151371002197266e+00) (59, 1.05353319644927978516e+00) (60, 1.05720996856689453125e+00) (61, 8.15912604331970214844e-01) (62, 5.48761188983917236328e-01) (63, 9.67980504035949707031e-01) (64, 9.93866324424743652344e-01) (65, 1.04924190044403076172e+00) (31, 1.73814797401428222656e+00) (32, 9.81913566589355468750e+00) (33, -2.17881962656974792480e-01) (34, 5.07793426513671875000e-01) (35, -1.48713326454162597656e+00) (36, 1.47978067398071289062e+00) (37, 1.20890140533447265625e+00) (38, -7.76245737075805664062e+00) (39, 1.15630686283111572266e+00) (40, -1.71495938301086425781e+00) (41, 1.19550786912441253662e-01) (42, -2.80026936531066894531e+00) (43, 1.88058567047119140625e+00) (44, 1.25988006591796875000e+00) (45, 9.85267460346221923828e-02) (46, -2.03693687915802001953e-01) (47, -3.47384899854660034180e-01) (48, 3.13437128067016601562e+00) (49, 1.17267370223999023438e+00) (50, 9.56545531749725341797e-01) (51, -3.03605198860168457031e-01) (52, 1.36656093597412109375e+00) (53, 2.68883085250854492188e+00) (54, -1.90614092350006103516e+00) (55, -1.37275099754333496094e-01) (56, 5.64507484436035156250e-01) (57, 1.55817832946777343750e+01) (58, 2.62616467475891113281e+00) (59, 5.93644082546234130859e-01) (60, 1.14291036128997802734e+00) (61, 3.92463415861129760742e-01) (62, -3.50394457578659057617e-01) (63, -1.36642265319824218750e+00) (64, -1.95744085311889648438e+00) (65, 1.67619919776916503906e+00) (31, 5.58328211307525634766e-01) (32, 4.58854331970214843750e+01) (33, 7.20546424388885498047e-01) (34, -1.75312721729278564453e+00) (35, -3.71522307395935058594e+00) (36, 1.05702221393585205078e+00) (37, 1.00260424613952636719e+00) (38, 5.47840178012847900391e-01) (39, -4.92917823791503906250e+00) (40, -6.25818014144897460938e-01) (41, 8.41918468475341796875e-01) (42, -2.45787639617919921875e+01) (43, -6.60877895355224609375e+00) (44, -1.29781842231750488281e+00) (45, -1.85170400142669677734e+00) (46, 8.29417407512664794922e-01) (47, 6.81411683559417724609e-01) (48, 1.05915939807891845703e+00) (49, 1.23725616931915283203e+00) (50, 1.15525281429290771484e+00) (51, 1.31258559226989746094e+00) (52, 1.14413952827453613281e+00) (53, 5.66574287414550781250e+00) (54, -3.20605158805847167969e+00) (55, 7.69311904907226562500e-01) (56, 7.94406473636627197266e-01) (57, 5.54133772850036621094e-01) (58, 1.06673181056976318359e+00) (59, 7.18620657920837402344e-01) (60, 1.20434331893920898438e+00) (61, 4.26879137754440307617e-01) (62, 5.60592293739318847656e-01) (63, 1.03018867969512939453e+00) (64, 7.50847995281219482422e-01) (65, 1.62507891654968261719e+00) (66, 8.83426964282989501953e-01) (67, 1.36853027343750000000e+00) (68, 2.10554823279380798340e-01) (69, 1.14362823963165283203e+00) (70, 1.10389053821563720703e+00) (71, 6.03208005428314208984e-01) (72, 1.39758694171905517578e+00) (73, 1.66012167930603027344e+00) (74, 3.20885002613067626953e-01) (75, 1.93539166450500488281e+00) (76, 1.42790794372558593750e+00) (77, 1.93421924114227294922e+00) (78, 2.48420214653015136719e+00) (79, 1.15814268589019775391e+00) (80, 1.25781524181365966797e+00) (81, 1.89232623577117919922e+00) (82, 7.32257962226867675781e-01) (83, 3.25335431098937988281e+00) (84, 2.25394353270530700684e-01) (85, 2.19604444503784179688e+00) (86, 5.49589157104492187500e-01) (87, -5.91999053955078125000e-01) (88, -1.60675793886184692383e-01) (89, 1.31952416896820068359e+00) (90, 4.51692432165145874023e-01) (91, 1.60280156135559082031e+00) (92, 3.12702894210815429688e-01) (93, 3.51600122451782226562e+00) (94, 3.37885081768035888672e-01) (95, 2.07246971130371093750e+00) (96, 3.78851264715194702148e-01) (97, 2.86300033330917358398e-01) (98, 6.52015566825866699219e-01) (99, 4.05048280954360961914e-01) (100, 1.82392016053199768066e-01) (101, 2.16720938682556152344e+00) (102, -1.95352733135223388672e+00) (103, -4.61361557245254516602e-02) (104, -2.34390377998352050781e+00) (105, 8.86886596679687500000e-01) (106, 2.16313481330871582031e+00) (66, 2.72762012481689453125e+00) (67, -8.54864406585693359375e+00) (68, 1.45439839363098144531e+00) (69, 1.13271641731262207031e+00) (70, 4.72143030166625976562e+00) (71, -3.69899868965148925781e-02) (72, 1.01969695091247558594e+00) (73, 3.00285077095031738281e+00) (74, -1.30280220508575439453e+00) (75, 9.50510144233703613281e-01) (76, 8.02614986896514892578e-01) (77, 1.19692695140838623047e+00) (78, 2.48450279235839843750e+00) (79, 9.06768068671226501465e-02) (80, 6.23053216934204101562e+00) (81, 1.19097518920898437500e+00) (82, 1.44038856029510498047e+00) (83, 5.02935171127319335938e-01) (84, 6.48300457000732421875e+00) (85, 8.85494589805603027344e-01) (86, 2.64846295118331909180e-01) (87, -3.79331254959106445312e+00) (88, 5.75940310955047607422e-02) (89, 3.82298201322555541992e-01) (90, 1.81096410751342773438e+00) (91, 3.08694982528686523438e+00) (92, 6.88293266296386718750e+00) (93, 2.34968948364257812500e+00) (94, 1.28767693042755126953e+00) (95, -1.49483823776245117188e+00) (96, 9.80424404144287109375e-01) (97, 1.18497395515441894531e+00) (98, 1.55695295333862304688e+00) (99, -7.36626684665679931641e-01) (100, 3.62502932548522949219e+00) (101, 2.19848155975341796875e+00) (102, 5.76125562191009521484e-01) (103, 9.41737174987792968750e-01) (104, 1.39407575130462646484e+00) (105, 2.73773103952407836914e-01) (106, 9.64668929576873779297e-01) (66, 1.46191394329071044922e+00) (67, -9.04148340225219726562e-01) (68, 1.37742018699645996094e+00) (69, -4.86179620027542114258e-01) (70, 5.87775766849517822266e-01) (71, 1.47038209438323974609e+00) (72, 6.98404908180236816406e-01) (73, 1.15428495407104492188e+00) (74, 1.45389282703399658203e+00) (75, 1.26582860946655273438e+00) (76, 1.04330384731292724609e+00) (77, 1.97088074684143066406e+00) (78, 9.60515439510345458984e-01) (79, 1.08466827869415283203e+00) (80, -5.03509998321533203125e-01) (81, 1.08808267116546630859e+00) (82, 2.97195243835449218750e+00) (83, 6.78523111343383789062e+00) (84, 1.94508206844329833984e+00) (85, 1.18121707439422607422e+00) (86, 4.30056363344192504883e-01) (87, 1.24920356273651123047e+00) (88, 3.59719067811965942383e-01) (89, 2.23911687731742858887e-01) (90, -9.27713453769683837891e-01) (91, -5.02734959125518798828e-01) (92, 1.32935357093811035156e+00) (93, 2.03811717033386230469e+00) (94, 1.39629411697387695312e+00) (95, 9.18675363063812255859e-01) (96, 1.01370489597320556641e+00) (97, -7.03977644443511962891e-01) (98, 7.31741070747375488281e-01) (99, 2.33355236053466796875e+00) (100, 3.19862037897109985352e-01) (101, 7.47703731060028076172e-01) (102, 1.44168090820312500000e+00) (103, -1.53475844860076904297e+00) (104, -1.79722845554351806641e-01) (105, 4.71249294281005859375e+00) (106, 1.10540556907653808594e+00) (66, 4.62296724319458007812e-01) (67, -8.93151283264160156250e-01) (68, 9.76034402847290039062e-01) (69, 1.54363346099853515625e+00) (70, -2.60772585868835449219e+00) (71, 3.76970678567886352539e-01) (72, 2.42835712432861328125e+00) (73, 8.71339559555053710938e-01) (74, 3.00739288330078125000e-01) (75, 1.43393528461456298828e+00) (76, 1.52104330062866210938e+00) (77, 1.50878131389617919922e+00) (78, 1.23367166519165039062e+00) (79, 1.40116596221923828125e+00) (80, 8.20339560508728027344e-01) (81, 2.78100562095642089844e+00) (82, -2.93044984340667724609e-01) (83, 7.86280512809753417969e-01) (84, -3.54764908552169799805e-02) (85, 2.09886074066162109375e+00) (86, 9.59980487823486328125e-02) (87, 1.10667967796325683594e+00) (88, -1.11238524317741394043e-01) (89, -4.50595825910568237305e-01) (90, -4.23053860664367675781e-01) (91, 9.54019546508789062500e-01) (92, 1.05865085124969482422e+00) (93, 6.09854519367218017578e-01) (94, 1.13288772106170654297e+00) (95, 1.04013967514038085938e+00) (96, 3.78054022789001464844e-01) (97, -1.33851706981658935547e+00) (98, 7.42408335208892822266e-01) (99, -7.07580149173736572266e-01) (100, 6.64273023605346679688e-01) (101, -1.90724223852157592773e-01) (102, 5.64015768468379974365e-02) (103, 2.80908393859863281250e+00) (104, 4.13992834091186523438e+00) (105, 2.28868424892425537109e-01) (106, 1.57942354679107666016e+00) (66, -5.42041957378387451172e-01) (67, 6.16386175155639648438e-01) (68, 7.73625254631042480469e-01) (69, 1.28868329524993896484e+00) (70, 6.69683992862701416016e-01) (71, 9.80468094348907470703e-01) (72, 7.67857551574707031250e+00) (73, 1.14350712299346923828e+00) (74, 8.53906810283660888672e-01) (75, 1.67640578746795654297e+00) (76, 8.80867481231689453125e-01) (77, 1.57154691219329833984e+00) (78, 1.69871270656585693359e+00) (79, -5.42959988117218017578e-01) (80, 1.50043070316314697266e+00) (81, 1.76532065868377685547e+00) (82, 1.00696206092834472656e+00) (83, -1.12713127136230468750e+01) (84, 9.15874719619750976562e-01) (85, 1.49173712730407714844e+00) (86, -4.88236999511718750000e+00) (87, 1.58697175979614257812e+00) (88, 9.42334651947021484375e-01) (89, 3.70245486497879028320e-01) (90, -3.30278706550598144531e+00) (91, 2.69989891052246093750e+01) (92, 7.82370150089263916016e-01) (93, 1.09520876407623291016e+00) (94, 4.30554151535034179688e-01) (95, 1.96220958232879638672e+00) (96, 8.30036759376525878906e-01) (97, -2.40960764884948730469e+00) (98, -4.13214492797851562500e+00) (99, 4.55681037902832031250e+00) (100, 9.91726338863372802734e-01) (101, 1.32614898681640625000e+00) (102, -2.72572946548461914062e+00) (103, -4.03737974166870117188e+00) (104, 4.55250501632690429688e+00) (105, -2.36810278892517089844e+00) (106, 2.02381348609924316406e+00) (66, -9.55873966217041015625e-01) (67, 1.70502293109893798828e+00) (68, 3.64498424530029296875e+00) (69, 1.35676658153533935547e+00) (70, 8.47510278224945068359e-01) (71, 6.07421696186065673828e-01) (72, -9.07838726043701171875e+00) (73, 4.73479509353637695312e-01) (74, 8.84925246238708496094e-01) (75, 9.60430204868316650391e-01) (76, 1.95357298851013183594e+00) (77, 1.00867938995361328125e+00) (78, 7.44576036930084228516e-01) (79, 4.76429641246795654297e-01) (80, 1.09944045543670654297e+00) (81, -6.52330875396728515625e+00) (82, 7.79411673545837402344e-01) (83, 1.03071904182434082031e+00) (84, 1.27980124950408935547e+00) (85, 9.37884390354156494141e-01) (86, -6.87707138061523437500e+00) (87, 2.24655628204345703125e+00) (88, 1.63868942260742187500e+01) (89, 4.29624223709106445312e+00) (90, 3.63999819755554199219e+00) (91, -3.41535854339599609375e+00) (92, 7.13189601898193359375e-01) (93, -2.71266967058181762695e-01) (94, 1.24165391921997070312e+00) (95, 2.27234911918640136719e+00) (96, 1.89518699645996093750e+01) (97, 1.27773201465606689453e+00) (98, 1.46652817726135253906e+00) (99, -1.55824041366577148438e+01) (100, 9.14155423641204833984e-01) (101, 1.11512684822082519531e+00) (102, 7.76266872882843017578e-01) (103, 1.06890525817871093750e+01) (104, 1.12259757518768310547e+00) (105, -5.04495191574096679688e+00) (106, 9.72172856330871582031e-01) (66, -2.06692397594451904297e-01) (67, 1.25680494308471679688e+00) (68, 6.99830293655395507812e-01) (69, 7.45875477790832519531e-01) (70, 5.62220513820648193359e-01) (71, 9.98280048370361328125e-01) (72, 1.47144436836242675781e+00) (73, -1.32385805249214172363e-01) (74, 1.59924316406250000000e+00) (75, 7.57955849170684814453e-01) (76, 1.78574693202972412109e+00) (77, 5.54452419281005859375e-01) (78, 7.27846741676330566406e-01) (79, 3.19144368171691894531e+00) (80, 5.71224331855773925781e-01) (81, 4.16803407669067382812e+00) (82, 1.73223137855529785156e+00) (83, 1.81374001502990722656e+00) (84, 1.48831987380981445312e+00) (85, 6.42484068870544433594e-01) (86, 1.35470533370971679688e+00) (87, 6.76987707614898681641e-01) (88, -7.67178654670715332031e-01) (89, 8.24132382869720458984e-01) (90, 1.69634950160980224609e+00) (91, -9.27068138122558593750e+00) (92, 1.25951814651489257812e+00) (93, 1.49084711074829101562e+00) (94, 1.59150493144989013672e+00) (95, 8.19406092166900634766e-01) (96, 1.35252940654754638672e+00) (97, 1.26351428031921386719e+00) (98, 1.06974756717681884766e+00) (99, 2.43134617805480957031e-01) (100, 1.13054108619689941406e+00) (101, 8.89408886432647705078e-01) (102, 2.07694232463836669922e-01) (103, 2.39566601812839508057e-02) (104, 1.92776978015899658203e+00) (105, -7.00138956308364868164e-02) (106, 6.26932322978973388672e-01) (66, 1.23635089397430419922e+00) (67, 1.28171420097351074219e+00) (68, 1.08123731613159179688e+00) (69, 1.14254248142242431641e+00) (70, 8.82962226867675781250e-01) (71, 1.19592702388763427734e+00) (72, 2.19298100471496582031e+00) (73, 3.54425668716430664062e-01) (74, 1.77799832820892333984e+00) (75, 1.08748006820678710938e+00) (76, 1.42506945133209228516e+00) (77, 1.11327886581420898438e+00) (78, 1.03244543075561523438e+00) (79, 7.64737546443939208984e-01) (80, 3.87363433837890625000e-01) (81, 1.33172750473022460938e+00) (82, 1.54239833354949951172e+00) (83, 5.43267726898193359375e-01) (84, 