FANN_FLO_2.1
num_layers=5
learning_rate=0.700000
connection_rate=1.000000
network_type=0
learning_momentum=0.000000
training_algorithm=2
train_error_function=1
train_stop_function=0
cascade_output_change_fraction=0.010000
quickprop_decay=-0.000100
quickprop_mu=1.750000
rprop_increase_factor=1.200000
rprop_decrease_factor=0.500000
rprop_delta_min=0.000000
rprop_delta_max=50.000000
rprop_delta_zero=0.100000
cascade_output_stagnation_epochs=12
cascade_candidate_change_fraction=0.010000
cascade_candidate_stagnation_epochs=12
cascade_max_out_epochs=150
cascade_max_cand_epochs=150
cascade_num_candidate_groups=2
bit_fail_limit=3.49999994039535522461e-01
cascade_candidate_limit=1.00000000000000000000e+03
cascade_weight_multiplier=4.00000005960464477539e-01
cascade_activation_functions_count=10
cascade_activation_functions=3 5 7 8 10 11 14 15 16 17 
cascade_activation_steepnesses_count=4
cascade_activation_steepnesses=2.50000000000000000000e-01 5.00000000000000000000e-01 7.50000000000000000000e-01 1.00000000000000000000e+00 
layer_sizes=31 35 41 48 55 
scale_included=0
neurons (num_inputs, activation_function, activation_steepness)=(0, 0, 0.00000000000000000000e+00) (0, 0, 0.00000000000000000000e+00) (0, 0, 0.00000000000000000000e+00) (0, 0, 0.00000000000000000000e+00) (0, 0, 0.00000000000000000000e+00) (0, 0, 0.00000000000000000000e+00) (0, 0, 0.00000000000000000000e+00) (0, 0, 0.00000000000000000000e+00) (0, 0, 0.00000000000000000000e+00) (0, 0, 0.00000000000000000000e+00) (0, 0, 0.00000000000000000000e+00) (0, 0, 0.00000000000000000000e+00) (0, 0, 0.00000000000000000000e+00) (0, 0, 0.00000000000000000000e+00) (0, 0, 0.00000000000000000000e+00) (0, 0, 0.00000000000000000000e+00) (0, 0, 0.00000000000000000000e+00) (0, 0, 0.00000000000000000000e+00) (0, 0, 0.00000000000000000000e+00) (0, 0, 0.00000000000000000000e+00) (0, 0, 0.00000000000000000000e+00) (0, 0, 0.00000000000000000000e+00) (0, 0, 0.00000000000000000000e+00) (0, 0, 0.00000000000000000000e+00) (0, 0, 0.00000000000000000000e+00) (0, 0, 0.00000000000000000000e+00) (0, 0, 0.00000000000000000000e+00) (0, 0, 0.00000000000000000000e+00) (0, 0, 0.00000000000000000000e+00) (0, 0, 0.00000000000000000000e+00) (0, 0, 0.00000000000000000000e+00) (31, 5, 5.00000000000000000000e-01) (31, 5, 5.00000000000000000000e-01) (31, 5, 5.00000000000000000000e-01) (31, 5, 5.00000000000000000000e-01) (31, 5, 5.00000000000000000000e-01) (31, 5, 5.00000000000000000000e-01) (31, 5, 5.00000000000000000000e-01) (31, 5, 5.00000000000000000000e-01) (31, 5, 5.00000000000000000000e-01) (31, 5, 5.00000000000000000000e-01) (31, 5, 5.00000000000000000000e-01) (31, 5, 5.00000000000000000000e-01) (31, 5, 5.00000000000000000000e-01) (31, 5, 5.00000000000000000000e-01) (31, 5, 5.00000000000000000000e-01) (31, 5, 5.00000000000000000000e-01) (31, 5, 5.00000000000000000000e-01) (31, 5, 5.00000000000000000000e-01) (31, 5, 5.00000000000000000000e-01) (31, 5, 5.00000000000000000000e-01) (31, 5, 5.00000000000000000000e-01) (31, 5, 5.00000000000000000000e-01) (31, 5, 5.00000000000000000000e-01) (31, 5, 5.00000000000000000000e-01) (31, 5, 5.00000000000000000000e-01) (31, 5, 5.00000000000000000000e-01) (31, 5, 5.00000000000000000000e-01) (31, 5, 5.00000000000000000000e-01) (31, 5, 5.00000000000000000000e-01) (31, 5, 5.00000000000000000000e-01) (31, 5, 5.00000000000000000000e-01) (31, 5, 5.00000000000000000000e-01) (31, 5, 5.00000000000000000000e-01) (31, 5, 5.00000000000000000000e-01) (0, 5, 0.00000000000000000000e+00) (35, 5, 5.00000000000000000000e-01) (35, 5, 5.00000000000000000000e-01) (35, 5, 5.00000000000000000000e-01) (35, 5, 5.00000000000000000000e-01) (35, 5, 5.00000000000000000000e-01) (35, 5, 5.00000000000000000000e-01) (35, 5, 5.00000000000000000000e-01) (35, 5, 5.00000000000000000000e-01) (35, 5, 5.00000000000000000000e-01) (35, 5, 5.00000000000000000000e-01) (35, 5, 5.00000000000000000000e-01) (35, 5, 5.00000000000000000000e-01) (35, 5, 5.00000000000000000000e-01) (35, 5, 5.00000000000000000000e-01) (35, 5, 5.00000000000000000000e-01) (35, 5, 5.00000000000000000000e-01) (35, 5, 5.00000000000000000000e-01) (35, 5, 5.00000000000000000000e-01) (35, 5, 5.00000000000000000000e-01) (35, 5, 5.00000000000000000000e-01) (35, 5, 5.00000000000000000000e-01) (35, 5, 5.00000000000000000000e-01) (35, 5, 5.00000000000000000000e-01) (35, 5, 5.00000000000000000000e-01) (35, 5, 5.00000000000000000000e-01) (35, 5, 5.00000000000000000000e-01) (35, 5, 5.00000000000000000000e-01) (35, 5, 5.00000000000000000000e-01) (35, 5, 5.00000000000000000000e-01) (35, 5, 5.00000000000000000000e-01) (35, 5, 5.00000000000000000000e-01) (35, 5, 5.00000000000000000000e-01) (35, 5, 5.00000000000000000000e-01) (35, 5, 5.00000000000000000000e-01) (35, 5, 5.00000000000000000000e-01) (35, 5, 5.00000000000000000000e-01) (35, 5, 5.00000000000000000000e-01) (35, 5, 5.00000000000000000000e-01) (35, 5, 5.00000000000000000000e-01) (35, 5, 5.00000000000000000000e-01) (0, 5, 0.00000000000000000000e+00) (41, 5, 5.00000000000000000000e-01) (41, 5, 5.00000000000000000000e-01) (41, 5, 5.00000000000000000000e-01) (41, 5, 5.00000000000000000000e-01) (41, 5, 5.00000000000000000000e-01) (41, 5, 5.00000000000000000000e-01) (41, 5, 5.00000000000000000000e-01) (41, 5, 5.00000000000000000000e-01) (41, 5, 5.00000000000000000000e-01) (41, 5, 5.00000000000000000000e-01) (41, 5, 5.00000000000000000000e-01) (41, 5, 5.00000000000000000000e-01) (41, 5, 5.00000000000000000000e-01) (41, 5, 5.00000000000000000000e-01) (41, 5, 5.00000000000000000000e-01) (41, 5, 5.00000000000000000000e-01) (41, 5, 5.00000000000000000000e-01) (41, 5, 5.00000000000000000000e-01) (41, 5, 5.00000000000000000000e-01) (41, 5, 5.00000000000000000000e-01) (41, 5, 5.00000000000000000000e-01) (41, 5, 5.00000000000000000000e-01) (41, 5, 5.00000000000000000000e-01) (41, 5, 5.00000000000000000000e-01) (41, 5, 5.00000000000000000000e-01) (41, 5, 5.00000000000000000000e-01) (41, 5, 5.00000000000000000000e-01) (41, 5, 5.00000000000000000000e-01) (41, 5, 5.00000000000000000000e-01) (41, 5, 5.00000000000000000000e-01) (41, 5, 5.00000000000000000000e-01) (41, 5, 5.00000000000000000000e-01) (41, 5, 5.00000000000000000000e-01) (41, 5, 5.00000000000000000000e-01) (41, 5, 5.00000000000000000000e-01) (41, 5, 5.00000000000000000000e-01) (41, 5, 5.00000000000000000000e-01) (41, 5, 5.00000000000000000000e-01) (41, 5, 5.00000000000000000000e-01) (41, 5, 5.00000000000000000000e-01) (41, 5, 5.00000000000000000000e-01) (41, 5, 5.00000000000000000000e-01) (41, 5, 5.00000000000000000000e-01) (41, 5, 5.00000000000000000000e-01) (41, 5, 5.00000000000000000000e-01) (41, 5, 5.00000000000000000000e-01) (41, 5, 5.00000000000000000000e-01) (0, 5, 0.00000000000000000000e+00) (48, 5, 2.39999994635581970215e-01) (48, 5, 2.39999994635581970215e-01) (48, 5, 2.39999994635581970215e-01) (48, 5, 2.39999994635581970215e-01) (48, 5, 2.39999994635581970215e-01) (48, 5, 2.39999994635581970215e-01) (48, 5, 2.39999994635581970215e-01) (48, 5, 2.39999994635581970215e-01) (48, 5, 2.39999994635581970215e-01) (48, 5, 2.39999994635581970215e-01) (48, 5, 2.39999994635581970215e-01) (48, 5, 2.39999994635581970215e-01) (48, 5, 2.39999994635581970215e-01) (48, 5, 2.39999994635581970215e-01) (48, 5, 2.39999994635581970215e-01) (48, 5, 2.39999994635581970215e-01) (48, 5, 2.39999994635581970215e-01) (48, 5, 2.39999994635581970215e-01) (48, 5, 2.39999994635581970215e-01) (48, 5, 2.39999994635581970215e-01) (48, 5, 2.39999994635581970215e-01) (48, 5, 2.39999994635581970215e-01) (48, 5, 2.39999994635581970215e-01) (48, 5, 2.39999994635581970215e-01) (48, 5, 2.39999994635581970215e-01) (48, 5, 2.39999994635581970215e-01) (48, 5, 2.39999994635581970215e-01) (48, 5, 2.39999994635581970215e-01) (48, 5, 2.39999994635581970215e-01) (48, 5, 2.39999994635581970215e-01) (48, 5, 2.39999994635581970215e-01) (48, 5, 2.39999994635581970215e-01) (48, 5, 2.39999994635581970215e-01) (48, 5, 2.39999994635581970215e-01) (48, 5, 2.39999994635581970215e-01) (48, 5, 2.39999994635581970215e-01) (48, 5, 2.39999994635581970215e-01) (48, 5, 2.39999994635581970215e-01) (48, 5, 2.39999994635581970215e-01) (48, 5, 2.39999994635581970215e-01) (48, 5, 2.39999994635581970215e-01) (48, 5, 2.39999994635581970215e-01) (48, 5, 2.39999994635581970215e-01) (48, 5, 2.39999994635581970215e-01) (48, 5, 2.39999994635581970215e-01) (48, 5, 2.39999994635581970215e-01) (48, 5, 2.39999994635581970215e-01) (48, 5, 2.39999994635581970215e-01) (48, 5, 2.39999994635581970215e-01) (48, 5, 2.39999994635581970215e-01) (48, 5, 2.39999994635581970215e-01) (48, 5, 2.39999994635581970215e-01) (48, 5, 2.39999994635581970215e-01) (48, 5, 2.39999994635581970215e-01) (0, 5, 2.39999994635581970215e-01) 
connections (connected_to_neuron, weight)=(0, 7.02288806438446044922e-01) (1, 4.89883989095687866211e-01) (2, 4.81598585844039916992e-01) (3, 4.70066547393798828125e-01) (4, 4.90606606006622314453e-01) (5, 4.47491407394409179688e-01) (6, 4.77635152637958526611e-02) (7, 2.30411380529403686523e-01) (8, 5.35830855369567871094e-01) (9, 8.18336248397827148438e-01) (10, 5.71718394756317138672e-01) (11, 4.91858989000320434570e-01) (12, 1.15365147590637207031e+00) (13, 5.09511709213256835938e-01) (14, 9.75612759590148925781e-01) (15, -1.13147330284118652344e+00) (16, -6.81452035903930664062e+00) (17, 9.41295325756072998047e-01) (18, 1.56146240234375000000e+00) (19, 6.23122692108154296875e+00) (20, 1.04758429527282714844e+00) (21, -3.10899298638105392456e-02) (22, -1.42183184623718261719e+00) (23, 7.19494998455047607422e-01) (24, 1.51058629155158996582e-01) (25, -1.73792839050292968750e-01) (26, -9.68947529792785644531e-01) (27, 2.39931210875511169434e-01) (28, 2.25315764546394348145e-01) (29, 4.69971388578414916992e-01) (30, 2.92537391185760498047e-01) (0, 9.23885256052017211914e-02) (1, -5.05731925368309020996e-02) (2, 4.73905682563781738281e-01) (3, -4.16745208203792572021e-02) (4, -6.77450671792030334473e-02) (5, 5.04139602184295654297e-01) (6, 4.08005088567733764648e-01) (7, -1.10400296747684478760e-01) (8, 4.60131675004959106445e-01) (9, -1.43049106001853942871e-01) (10, -1.51731118559837341309e-01) (11, 5.21407946944236755371e-02) (12, -8.02590250968933105469e-01) (13, -1.75142139196395874023e-02) (14, 4.07351374626159667969e-01) (15, 1.53406754136085510254e-01) (16, 2.81600356101989746094e-01) (17, -6.50375187397003173828e-02) (18, 2.12260633707046508789e-01) (19, 2.77311831712722778320e-01) (20, 2.21285820007324218750e+00) (21, 5.79424798488616943359e-01) (22, 6.70520484447479248047e-01) (23, 3.06612998247146606445e-01) (24, 5.19507408142089843750e-01) (25, 6.67762994766235351562e-01) (26, 9.59097966551780700684e-02) (27, 6.06373608112335205078e-01) (28, 1.50621339678764343262e-01) (29, 1.50570809841156005859e-01) (30, 5.80208539962768554688e-01) (0, 5.22102773189544677734e-01) (1, 5.40622055530548095703e-01) (2, 4.69431161880493164062e-01) (3, 4.38479930162429809570e-01) (4, 2.74829864501953125000e-01) (5, 2.97051459550857543945e-01) (6, 1.82608470320701599121e-01) (7, 1.98705285787582397461e-01) (8, 3.38939666748046875000e-01) (9, 7.07742273807525634766e-01) (10, 3.36783528327941894531e-01) (11, 1.00712835788726806641e-01) (12, 4.27190095186233520508e-01) (13, 3.35442647337913513184e-02) (14, -8.73898491263389587402e-02) (15, -9.34622466564178466797e-01) (16, 1.95361480116844177246e-01) (17, 2.78147250413894653320e-01) (18, 2.13194027543067932129e-01) (19, -1.24335312843322753906e+00) (20, -2.04342752695083618164e-01) (21, -9.60416257381439208984e-01) (22, 2.60578334331512451172e-01) (23, -2.05838829278945922852e-02) (24, -4.14795577526092529297e-02) (25, 7.74346366524696350098e-02) (26, 2.54234105348587036133e-01) (27, 1.67870908975601196289e-01) (28, 2.73228853940963745117e-01) (29, 2.59074598550796508789e-01) (30, 2.48135939240455627441e-01) (0, 2.92929839342832565308e-02) (1, 6.34823888540267944336e-02) (2, -2.74932570755481719971e-02) (3, -7.43183419108390808105e-02) (4, 7.78326252475380897522e-03) (5, 4.61649388074874877930e-01) (6, -4.03316095471382141113e-02) (7, -1.52847424149513244629e-01) (8, 5.12928724288940429688e-01) (9, 2.81462401151657104492e-01) (10, -5.24413846433162689209e-02) (11, 5.01208424568176269531e-01) (12, 3.36498945951461791992e-01) (13, 3.76832932233810424805e-02) (14, -6.18580579757690429688e-02) (15, 1.56722629070281982422e+00) (16, 4.11268413066864013672e-01) (17, 5.49936413764953613281e-01) (18, 5.24990260601043701172e-01) (19, 8.49857628345489501953e-02) (20, 8.06734636425971984863e-02) (21, 4.48178976774215698242e-01) (22, 2.09118381142616271973e-01) (23, 1.37404131889343261719e+00) (24, 6.67942583560943603516e-01) (25, 5.22364497184753417969e-01) (26, 5.48846900463104248047e-01) (27, 5.89595377445220947266e-01) (28, 4.30126041173934936523e-01) (29, 2.83184379339218139648e-01) (30, 4.11794558167457580566e-02) (0, 4.38269168138504028320e-01) (1, 4.29973810911178588867e-01) (2, 4.05300468206405639648e-01) (3, 1.89789935946464538574e-01) (4, 2.70756602287292480469e-01) (5, 3.36873054504394531250e-01) (6, 4.00784581899642944336e-01) (7, 2.44686633348464965820e-01) (8, 4.82835739850997924805e-01) (9, 1.68896123766899108887e-01) (10, 3.48069876432418823242e-01) (11, 6.50775730609893798828e-01) (12, 8.55840370059013366699e-02) (13, 3.99369299411773681641e-01) (14, 1.20421826839447021484e+00) (15, 1.73891973495483398438e+00) (16, 1.34684145450592041016e+00) (17, -4.78586530685424804688e+00) (18, -5.26433420181274414062e+00) (19, 6.22477591037750244141e-01) (20, 7.10996747016906738281e-01) (21, 1.40034079551696777344e-01) (22, 2.28711456060409545898e-01) (23, 1.05186247825622558594e+00) (24, 2.67214536666870117188e-01) (25, 2.28467062115669250488e-01) (26, 1.64890378713607788086e-01) (27, 2.99025952816009521484e-01) (28, 2.09046036005020141602e-01) (29, 2.42023736238479614258e-01) (30, 3.00702571868896484375e-01) (0, 7.86258697509765625000e-01) (1, 4.91082459688186645508e-01) (2, 7.06161975860595703125e-01) (3, 9.05647814273834228516e-01) (4, 7.26408183574676513672e-01) (5, 4.52867478132247924805e-01) (6, 6.61900997161865234375e-01) (7, 7.27044403553009033203e-01) (8, 8.77718210220336914062e-01) (9, 8.99703025817871093750e-01) (10, 1.39907491207122802734e+00) (11, 6.39097213745117187500e-01) (12, 1.99926531314849853516e+00) (13, 9.54604923725128173828e-01) (14, 7.36671030521392822266e-01) (15, -2.02780151367187500000e+00) (16, 6.20914459228515625000e-01) (17, -1.29721567034721374512e-01) (18, -4.64049726724624633789e-01) (19, 7.88034558296203613281e-01) (20, -1.74925029277801513672e+00) (21, -1.51088476181030273438e-01) (22, -1.52295589447021484375e-01) (23, 3.15642535686492919922e-01) (24, 2.24053338170051574707e-02) (25, 9.67058911919593811035e-02) (26, -6.99939951300621032715e-02) (27, -4.61614727973937988281e-01) (28, 1.95524290204048156738e-01) (29, 1.53766766190528869629e-01) (30, 1.65252000093460083008e-01) (0, 3.41558814048767089844e-01) (1, 3.43478858470916748047e-01) (2, 2.46285334229469299316e-01) (3, 2.75780797004699707031e-01) (4, 1.59608945250511169434e-01) (5, 3.37803900241851806641e-01) (6, 1.73830091953277587891e-01) (7, 2.88815826177597045898e-01) (8, 3.53343039751052856445e-01) (9, 1.20774425566196441650e-01) (10, 2.98251897096633911133e-01) (11, 5.06972670555114746094e-01) (12, 2.08460822701454162598e-01) (13, 5.56460440158843994141e-01) (14, 6.25262975692749023438e-01) (15, 3.71545505523681640625e+00) (16, 3.35232090950012207031e+00) (17, 5.26617884635925292969e-01) (18, -2.20573592185974121094e+00) (19, 1.95802763104438781738e-01) (20, 2.48633646965026855469e+00) (21, 1.33725836873054504395e-01) (22, 1.67192026972770690918e-01) (23, 1.51455867290496826172e+00) (24, 2.86540329456329345703e-01) (25, 2.47742548584938049316e-01) (26, 2.03527271747589111328e-01) (27, 4.51897114515304565430e-01) (28, 1.85238227248191833496e-01) (29, 2.53955900669097900391e-01) (30, 3.83876085281372070312e-01) (0, -8.74937325716018676758e-02) (1, -5.76616497710347175598e-03) (2, -7.14999884366989135742e-02) (3, 4.82386440038681030273e-01) (4, 4.04795706272125244141e-01) (5, 4.97186213731765747070e-01) (6, 8.59870314598083496094e-02) (7, 3.58153522014617919922e-01) (8, 4.28581684827804565430e-01) (9, 4.73965615034103393555e-01) (10, 4.13693815469741821289e-01) (11, 1.25602394342422485352e-01) (12, 1.99257299304008483887e-01) (13, 4.34955954551696777344e-01) (14, -4.80697751045227050781e-02) (15, -5.46203076839447021484e-01) (16, 3.22468400001525878906e-01) (17, 2.69389212131500244141e-01) (18, 2.55121898651123046875e+00) (19, 3.65062832832336425781e-01) (20, -1.59324085712432861328e+00) (21, 3.92449975013732910156e-01) (22, 3.93962830305099487305e-01) (23, -6.87567651271820068359e-01) (24, 2.60361850261688232422e-01) (25, 5.34620702266693115234e-01) (26, -6.34838998317718505859e-01) (27, 7.30480030179023742676e-02) (28, 5.49373388290405273438e-01) (29, 3.29461187124252319336e-01) (30, 6.38188660144805908203e-01) (0, -4.09420579671859741211e-01) (1, -2.57488518953323364258e-01) (2, -2.54370123147964477539e-01) (3, 1.78823873400688171387e-01) (4, 4.33465950191020965576e-02) (5, 1.39916658401489257812e-01) (6, 1.50145962834358215332e-01) (7, 5.36759383976459503174e-02) (8, -3.11226900666952133179e-02) (9, 1.27324551343917846680e-01) (10, 1.34476214647293090820e-01) (11, 2.13833585381507873535e-01) (12, -3.12686920166015625000e-01) (13, -5.80079518258571624756e-02) (14, 3.02297435700893402100e-02) (15, -3.94054204225540161133e-01) (16, -6.90043419599533081055e-02) (17, -6.96657085791230201721e-03) (18, 1.33146941661834716797e-01) (19, 3.69858002662658691406e+00) (20, 3.84228900074958801270e-02) (21, 6.93429648876190185547e-01) (22, -6.64232373237609863281e-01) (23, 1.85924023389816284180e-01) (24, 1.01004743576049804688e+00) (25, 6.13795399665832519531e-01) (26, 6.18499815464019775391e-02) (27, 2.84215390682220458984e-01) (28, -9.12787914276123046875e-02) (29, 3.16765308380126953125e-01) (30, 4.93899643421173095703e-01) (0, 4.44363534450531005859e-01) (1, 4.49760705232620239258e-01) (2, 3.98849248886108398438e-01) (3, 3.57005268335342407227e-01) (4, 1.98459163308143615723e-01) (5, 2.54494518041610717773e-01) (6, 3.95341843366622924805e-01) (7, 1.87342211604118347168e-01) (8, 2.37312585115432739258e-01) (9, 1.05408179759979248047e+00) (10, 4.11195695400238037109e-01) (11, 4.11811470985412597656e-02) (12, 7.16136693954467773438e-01) (13, 4.20741379261016845703e-01) (14, 3.49172614514827728271e-02) (15, -7.16550588607788085938e-01) (16, -5.38490228354930877686e-02) (17, 4.29979026317596435547e-01) (18, 6.43787831068038940430e-02) (19, 4.05114609748125076294e-03) (20, -1.76520124077796936035e-01) (21, -7.02242136001586914062e-01) (22, 5.99052757024765014648e-02) (23, -1.26583492755889892578e+00) (24, 1.04023009538650512695e-01) (25, 1.82893529534339904785e-01) (26, 1.22598683834075927734e+00) (27, 3.54068487882614135742e-01) (28, 4.24202740192413330078e-01) (29, 4.24968659877777099609e-01) (30, 3.58757406473159790039e-01) (0, 2.94492423534393310547e-01) (1, 2.08927124738693237305e-01) (2, 2.88019984960556030273e-01) (3, 9.23589468002319335938e-02) (4, 2.31709167361259460449e-01) (5, 3.21198195219039916992e-01) (6, 2.58252441883087158203e-01) (7, 2.81721144914627075195e-01) (8, 2.04046070575714111328e-01) (9, 1.63123384118080139160e-01) (10, 1.87761545181274414062e-01) (11, 3.83760035037994384766e-01) (12, 8.16155225038528442383e-02) (13, 1.77640840411186218262e-01) (14, 1.46207109093666076660e-01) (15, 6.41163408756256103516e-01) (16, -1.51888281106948852539e-01) (17, 4.37481045722961425781e-01) (18, 3.11211675405502319336e-01) (19, 3.65423917770385742188e-01) (20, 3.72648954391479492188e-01) (21, 1.95763081312179565430e-01) (22, -2.79617011547088623047e-01) (23, 8.13778936862945556641e-01) (24, 3.03768038749694824219e-01) (25, 2.07138240337371826172e-01) (26, 1.52417555451393127441e-01) (27, 3.59038293361663818359e-01) (28, 2.07272380590438842773e-01) (29, 3.17632883787155151367e-01) (30, 2.92802661657333374023e-01) (0, 3.07318717241287231445e-01) (1, 3.12540382146835327148e-01) (2, 3.27637374401092529297e-01) (3, 1.55343823134899139404e-02) (4, 1.27545371651649475098e-01) (5, 3.42807531356811523438e-01) (6, 1.66086316108703613281e-01) (7, 5.40950298309326171875e-02) (8, 3.36674302816390991211e-01) (9, 1.05111047625541687012e-01) (10, 1.74285456538200378418e-01) (11, 5.77927052974700927734e-01) (12, 6.88976109027862548828e-01) (13, 6.21008947491645812988e-02) (14, 1.39185599982738494873e-02) (15, -1.29909902811050415039e-01) (16, 1.31258010864257812500e+00) (17, 1.18616044521331787109e+00) (18, 6.25071704387664794922e-01) (19, 2.11043858528137207031e+00) (20, 1.05225458741188049316e-01) (21, 8.22458744049072265625e-01) (22, 7.37574517726898193359e-01) (23, 6.09180390834808349609e-01) (24, 5.70476502180099487305e-02) (25, 1.05934828519821166992e-01) (26, 1.33026391267776489258e-01) (27, 1.81806206703186035156e-01) (28, 2.11982861161231994629e-01) (29, 1.49945929646492004395e-01) (30, 2.58575856685638427734e-01) (0, -2.82748281955718994141e-01) (1, -2.50543117523193359375e-01) (2, -2.12600901722908020020e-01) (3, -2.62957721948623657227e-01) (4, 1.25019233673810958862e-02) (5, -3.58986377716064453125e-01) (6, -2.62828975915908813477e-01) (7, 6.95887282490730285645e-02) (8, 1.82121023535728454590e-01) (9, -3.64543408155441284180e-01) (10, 6.47687092423439025879e-02) (11, -2.73011505603790283203e-01) (12, -1.17727577686309814453e+00) (13, 1.08192451298236846924e-01) (14, 4.47408407926559448242e-01) (15, 3.02886867523193359375e+00) (16, 7.68880486488342285156e-01) (17, -3.78888487815856933594e-01) (18, 5.71419906616210937500e+00) (19, 2.84760189056396484375e+00) (20, 1.67386221885681152344e+00) (21, 9.79478240013122558594e-01) (22, 5.85592448711395263672e-01) (23, -9.76531863212585449219e-01) (24, 8.14574480056762695312e-01) (25, 7.31119394302368164062e-01) (26, 3.14839553833007812500e+00) (27, 2.24813744425773620605e-01) (28, 1.79439783096313476562e-01) (29, -3.98346096277236938477e-01) (30, 4.86282199621200561523e-01) (0, 1.51875331997871398926e-01) (1, 1.89187675714492797852e-01) (2, 4.12638604640960693359e-01) (3, 4.42639678716659545898e-01) (4, 1.72829374670982360840e-01) (5, 4.90598887205123901367e-01) (6, 1.25871494412422180176e-01) (7, 1.38051837682723999023e-01) (8, 5.50997674465179443359e-01) (9, 3.39338093996047973633e-01) (10, -7.62222986668348312378e-03) (11, 8.69359001517295837402e-02) (12, 9.86393392086029052734e-01) (13, 6.73732459545135498047e-02) (14, -6.25750124454498291016e-02) (15, -1.36720824241638183594e+00) (16, -3.08881968259811401367e-01) (17, 1.00484201684594154358e-02) (18, -7.47756287455558776855e-02) (19, 1.20938611030578613281e+00) (20, -4.87517684698104858398e-01) (21, 1.23599931597709655762e-01) (22, 1.26057195663452148438e+00) (23, 3.08502554893493652344e-01) (24, 1.23990312218666076660e-01) (25, 3.04912984371185302734e-01) (26, 6.93943500518798828125e-01) (27, 1.36398091912269592285e-01) (28, 3.98971229791641235352e-01) (29, 7.06196188926696777344e-01) (30, 4.58084493875503540039e-01) (0, 4.51298415660858154297e-01) (1, 4.72293049097061157227e-01) (2, 2.72935420274734497070e-01) (3, 3.42426121234893798828e-01) (4, 4.72213715314865112305e-01) (5, 3.91410320997238159180e-01) (6, 3.14228355884552001953e-01) (7, 3.56605023145675659180e-01) (8, 3.58150810003280639648e-01) (9, -4.28282409906387329102e-01) (10, -9.21614050865173339844e-01) (11, 5.35156607627868652344e-01) (12, -3.70978981256484985352e-01) (13, -4.12166357040405273438e-01) (14, 8.58009755611419677734e-01) (15, 5.90097844600677490234e-01) (16, 1.90827548503875732422e+00) (17, 1.37489390373229980469e+00) (18, -2.54076218605041503906e+00) (19, 3.88374149799346923828e-01) (20, 9.58482146263122558594e-01) (21, 1.93690106272697448730e-01) (22, 2.35245570540428161621e-01) (23, 2.91067272424697875977e-01) (24, 2.48510941863059997559e-01) (25, 2.65756845474243164062e-01) (26, 8.67144241929054260254e-02) (27, 1.53737172484397888184e-01) (28, 3.02477449178695678711e-01) (29, 3.06009113788604736328e-01) (30, 3.18611860275268554688e-01) (0, 8.37499648332595825195e-02) (1, 9.64278057217597961426e-02) (2, 1.01835638284683227539e-01) (3, -6.01826012134552001953e-02) (4, 1.17970488965511322021e-01) (5, 1.60517301410436630249e-02) (6, 2.96351220458745956421e-03) (7, 2.06733196973800659180e-02) (8, 1.52728825807571411133e-01) (9, 1.09091331250965595245e-03) (10, 2.26587624638341367245e-04) (11, 2.06380039453506469727e-01) (12, 6.69991746544837951660e-02) (13, -3.22333537042140960693e-02) (14, 6.55964836478233337402e-02) (15, 6.27883672714233398438e-01) (16, 4.03637856245040893555e-01) (17, 6.33539199829101562500e-01) (18, -2.67439067363739013672e-01) (19, -2.49993562698364257812e+00) (20, 1.22186636924743652344e+00) (21, 6.26417696475982666016e-01) (22, 1.99074577540159225464e-02) (23, 8.82550120353698730469e-01) (24, 5.37875890731811523438e-01) (25, 4.05902236700057983398e-01) (26, 5.68954944610595703125e-01) (27, 4.79792356491088867188e-01) (28, 5.52466869354248046875e-01) (29, 5.76159119606018066406e-01) (30, 4.30696755647659301758e-01) (0, 1.22402474284172058105e-01) (1, 1.52664259076118469238e-01) (2, 2.21169948577880859375e-01) (3, 1.90630719065666198730e-01) (4, 1.22813440859317779541e-01) (5, 1.66689366102218627930e-01) (6, -2.45471764355897903442e-02) (7, 2.70711928606033325195e-01) (8, 4.57038700580596923828e-01) (9, -9.88256633281707763672e-02) (10, -5.22916197776794433594e-01) (11, 5.96381366252899169922e-01) (12, 2.76141434907913208008e-01) (13, 1.55312225222587585449e-01) (14, 5.94942033290863037109e-01) (15, 3.72301548719406127930e-01) (16, -1.57403990626335144043e-01) (17, 1.75886380672454833984e+00) (18, -3.09528303146362304688e+00) (19, 5.84427535533905029297e-01) (20, 6.15465164184570312500e-01) (21, 4.01753395795822143555e-01) (22, 7.68873021006584167480e-02) (23, 5.14000952243804931641e-01) (24, 7.16075956821441650391e-01) (25, 3.82898092269897460938e-01) (26, 1.66563317179679870605e-02) (27, 3.12638103961944580078e-01) (28, 2.48713538050651550293e-01) (29, 3.18792206235229969025e-03) (30, 3.41539025306701660156e-01) (0, 4.34323757886886596680e-01) (1, 5.72045266628265380859e-01) (2, -1.38332426548004150391e-01) (3, 2.11884617805480957031e-01) (4, 6.19805037975311279297e-01) (5, 5.48344731330871582031e-01) (6, -4.74278956651687622070e-01) (7, 6.68042302131652832031e-02) (8, 6.71057999134063720703e-01) (9, -4.95348542928695678711e-01) (10, 2.07992032170295715332e-01) (11, 7.75379121303558349609e-01) (12, -7.03419625759124755859e-01) (13, 4.73719626665115356445e-01) (14, 2.43185371160507202148e-01) (15, 3.13924640417098999023e-01) (16, 1.97800052165985107422e+00) (17, 4.38504666090011596680e-01) (18, 6.16585509851574897766e-03) (19, -6.61332428455352783203e-01) (20, -1.39955222606658935547e-01) (21, -8.93748849630355834961e-02) (22, 2.52623111009597778320e-01) (23, 6.75183176994323730469e-01) (24, 2.24389433860778808594e-01) (25, 5.86463138461112976074e-02) (26, 7.72401630878448486328e-01) (27, 4.03937667608261108398e-01) (28, 9.72910970449447631836e-02) (29, 7.69853666424751281738e-02) (30, 7.20668315887451171875e-01) (0, 4.35042381286621093750e-01) (1, 3.22813928127288818359e-01) (2, 3.50916773080825805664e-01) (3, 4.07056391239166259766e-01) (4, 4.04370993375778198242e-01) (5, 5.71062207221984863281e-01) (6, 4.69766229391098022461e-01) (7, 4.60516542196273803711e-01) (8, 5.44713616371154785156e-01) (9, 2.41415545344352722168e-01) (10, 6.75048828125000000000e-01) (11, 7.50486314296722412109e-01) (12, 1.02934193611145019531e+00) (13, 2.24227383732795715332e-01) (14, 6.45942211151123046875e+00) (15, 1.18561458587646484375e+00) (16, -2.16419482231140136719e+00) (17, 9.95895564556121826172e-01) (18, 2.35346984863281250000e+00) (19, 3.50639045238494873047e-01) (20, 1.33149147033691406250e+00) (21, 8.38400423526763916016e-02) (22, 2.23581194877624511719e-01) (23, 3.89198869466781616211e-01) (24, 6.40673935413360595703e-01) (25, 2.82823145389556884766e-01) (26, 1.50722339749336242676e-01) (27, 1.25586524605751037598e-01) (28, 3.01382541656494140625e-01) (29, 4.88155812025070190430e-01) (30, 2.34884843230247497559e-01) (0, -2.45121151208877563477e-01) (1, -4.04424339532852172852e-01) (2, -3.23173999786376953125e-01) (3, -2.32298940420150756836e-01) (4, -6.05117604136466979980e-02) (5, -3.43272715806961059570e-01) (6, -3.55526119470596313477e-01) (7, 1.26055451110005378723e-02) (8, 4.08693961799144744873e-02) (9, 1.67208492755889892578e-01) (10, -9.70702320337295532227e-02) (11, -3.56712430715560913086e-01) (12, 7.73865282535552978516e-01) (13, -3.17645221948623657227e-01) (14, -2.19780936837196350098e-01) (15, -3.43156963586807250977e-01) (16, 4.39025199739262461662e-04) (17, -3.66097599267959594727e-01) (18, -5.52753496170043945312e+00) (19, 2.06533432006835937500e+00) (20, 8.10817241668701171875e-01) (21, 2.22493797540664672852e-01) (22, -2.10029393434524536133e-01) (23, 3.19547605514526367188e+00) (24, -7.29532465338706970215e-02) (25, 4.37018930912017822266e-01) (26, 1.37975561618804931641e+00) (27, 6.17672801017761230469e-01) (28, 3.64814043045043945312e-01) (29, -2.84923374652862548828e-01) (30, 9.28001940250396728516e-01) (0, -1.44454352557659149170e-02) (1, -8.87186825275421142578e-02) (2, -5.73030859231948852539e-02) (3, 2.10192129015922546387e-01) (4, 1.46574094891548156738e-01) (5, -6.54891803860664367676e-02) (6, 5.18304526805877685547e-01) (7, 2.20446541905403137207e-01) (8, 2.44633078575134277344e-01) (9, 7.63712078332901000977e-02) (10, 1.49049863219261169434e-01) (11, 1.94625660777091979980e-01) (12, -5.63446640968322753906e-01) (13, 4.79432865977287292480e-02) (14, 3.89211088418960571289e-01) (15, -1.09788477420806884766e+00) (16, 1.21835768222808837891e+00) (17, -5.43453171849250793457e-02) (18, -1.07001566886901855469e+00) (19, 9.50865209102630615234e-01) (20, 1.96201771497726440430e-01) (21, 3.83260399103164672852e-01) (22, 6.06573402881622314453e-01) (23, -2.24728390574455261230e-01) (24, 7.42589533329010009766e-01) (25, 6.11217737197875976562e-01) (26, 5.46670973300933837891e-01) (27, 7.00971126556396484375e-01) (28, 6.85209155082702636719e-01) (29, 7.39239096641540527344e-01) (30, 5.89900851249694824219e-01) (0, 8.52909445762634277344e-01) (1, 8.29672694206237792969e-01) (2, 8.30257475376129150391e-01) (3, 6.36894404888153076172e-01) (4, 5.73622763156890869141e-01) (5, 6.65977001190185546875e-01) (6, 3.95691901445388793945e-01) (7, 4.85060304403305053711e-01) (8, 8.94745469093322753906e-01) (9, 1.06331598758697509766e+00) (10, 8.97921979427337646484e-01) (11, 9.07264173030853271484e-01) (12, 2.08961939811706542969e+00) (13, 1.54131448268890380859e+00) (14, 5.78505575656890869141e-01) (15, 2.41551548242568969727e-01) (16, 9.50707852840423583984e-01) (17, -1.23444996774196624756e-01) (18, -5.47301862388849258423e-03) (19, -4.33172225952148437500e-01) (20, -2.18370890617370605469e+00) (21, -2.70833849906921386719e-01) (22, 3.10707986354827880859e-01) (23, 5.00932276248931884766e-01) (24, 8.44806283712387084961e-02) (25, 1.88868433237075805664e-01) (26, -4.04579117894172668457e-02) (27, 3.07106107473373413086e-01) (28, 2.80394911766052246094e-01) (29, 7.54741653800010681152e-02) (30, 3.56431335210800170898e-01) (0, -2.38796081393957138062e-02) (1, 1.31764292716979980469e-01) (2, 1.75533629953861236572e-02) (3, 1.26333251595497131348e-01) (4, 1.31258413195610046387e-01) (5, -2.14452408254146575928e-02) (6, -5.64405694603919982910e-02) (7, 7.55716264247894287109e-02) (8, 1.25168666243553161621e-01) (9, -1.22724628448486328125e+00) (10, -9.19459611177444458008e-02) (11, 7.35067725181579589844e-02) (12, -4.46849346160888671875e-01) (13, 6.76022171974182128906e-02) (14, -1.43722623586654663086e-01) (15, -5.18867559731006622314e-02) (16, 4.56809997558593750000e+00) (17, 9.11687374114990234375e-01) (18, -1.81275761127471923828e+00) (19, 7.42231607437133789062e+00) (20, 3.91410738229751586914e-01) (21, 3.76628577709197998047e-01) (22, -1.46749675273895263672e+00) (23, 1.31043314933776855469e+00) (24, 6.57145202159881591797e-01) (25, 3.73311311006546020508e-01) (26, -2.31555119156837463379e-01) (27, 3.55211555957794189453e-01) (28, 3.57682138681411743164e-01) (29, 7.93997228145599365234e-01) (30, 3.52935165166854858398e-01) (0, 3.77949327230453491211e-01) (1, -6.45604506134986877441e-02) (2, 4.30904477834701538086e-02) (3, 7.56242126226425170898e-02) (4, -3.66946011781692504883e-02) (5, -1.85417402535676956177e-02) (6, 5.55109918117523193359e-01) (7, 8.64621549844741821289e-02) (8, -2.10439991205930709839e-02) (9, 8.65490660071372985840e-02) (10, -2.91788019239902496338e-02) (11, 3.51515673100948333740e-02) (12, 7.34987258911132812500e-01) (13, -4.83950562775135040283e-02) (14, -4.61654514074325561523e-02) (15, -9.65431705117225646973e-02) (16, 3.82244259119033813477e-01) (17, 3.58227401971817016602e-01) (18, 4.82961952686309814453e-01) (19, 4.61717247962951660156e-02) (20, -1.01790465414524078369e-02) (21, 4.72378939390182495117e-01) (22, 3.63721370697021484375e-01) (23, 8.15944448113441467285e-02) (24, 5.19766569137573242188e-01) (25, 8.29571336507797241211e-02) (26, 9.25853922963142395020e-02) (27, 5.91178596019744873047e-01) (28, 1.39241158962249755859e-01) (29, 3.65710407495498657227e-02) (30, 5.00299870967864990234e-01) (0, -1.01644329726696014404e-01) (1, -2.00162440538406372070e-01) (2, -1.76723018288612365723e-01) (3, 2.64277428388595581055e-01) (4, 1.64075747132301330566e-01) (5, 3.30955415964126586914e-01) (6, 1.21931862086057662964e-02) (7, 7.93056488037109375000e-02) (8, 6.93423986434936523438e-01) (9, 2.00785607099533081055e-01) (10, 9.40219610929489135742e-02) (11, 5.09209334850311279297e-01) (12, -5.20521588623523712158e-02) (13, 2.27344840764999389648e-01) (14, 8.42152535915374755859e-02) (15, -1.06913782656192779541e-01) (16, -1.76935046911239624023e-01) (17, -1.73613414168357849121e-01) (18, 4.38860476016998291016e-01) (19, 9.05212521553039550781e-01) (20, -1.57176387310028076172e+00) (21, 4.17218506336212158203e-01) (22, 1.88164681196212768555e-01) (23, -7.02288448810577392578e-01) (24, 7.53803074359893798828e-01) (25, 6.46637082099914550781e-01) (26, 2.59587466716766357422e-01) (27, 2.15236246585845947266e-01) (28, 6.89830899238586425781e-01) (29, 4.95960086584091186523e-01) (30, 7.21692860126495361328e-01) (0, 7.98457711935043334961e-02) (1, 2.34371889382600784302e-02) (2, 4.11578774452209472656e-01) (3, -5.39039447903633117676e-02) (4, 6.94595053791999816895e-02) (5, 8.15869867801666259766e-02) (6, 1.49298429489135742188e-01) (7, 7.85972774028778076172e-02) (8, 4.17560189962387084961e-01) (9, 9.24690812826156616211e-03) (10, 1.51679545640945434570e-01) (11, 4.43178445100784301758e-01) (12, -1.47856414318084716797e-01) (13, -7.45213180780410766602e-02) (14, 4.74756300449371337891e-01) (15, 2.77835369110107421875e-01) (16, 1.34282693266868591309e-01) (17, 3.74984025955200195312e-01) (18, 2.63861477375030517578e-01) (19, 7.39231526851654052734e-01) (20, 6.57605588436126708984e-01) (21, 6.29874169826507568359e-01) (22, 2.33988538384437561035e-01) (23, 3.72557789087295532227e-01) (24, 1.28783836960792541504e-01) (25, 1.50704637169837951660e-01) (26, 1.99625998735427856445e-01) (27, 5.16642689704895019531e-01) (28, 1.41096636652946472168e-01) (29, 1.17162793874740600586e-01) (30, 4.75598007440567016602e-01) (0, 5.57180106639862060547e-01) (1, 5.02454638481140136719e-01) (2, 4.69719946384429931641e-01) (3, 2.74802446365356445312e-01) (4, 3.73167283833026885986e-02) (5, 4.72192168235778808594e-02) (6, 1.87801510095596313477e-01) (7, 2.67374590039253234863e-02) (8, 2.19292983412742614746e-01) (9, 9.45001319050788879395e-02) (10, 1.50520816445350646973e-01) (11, 6.26255273818969726562e-02) (12, 2.26506638526916503906e+00) (13, 5.45707285404205322266e-01) (14, 1.04807488620281219482e-01) (15, 1.79143857955932617188e+00) (16, -3.34083497524261474609e-01) (17, -1.11062288284301757812e+00) (18, 3.56493204832077026367e-01) (19, 2.08009076118469238281e+00) (20, -1.21154642105102539062e+00) (21, 3.59557449817657470703e-01) (22, 7.52078056335449218750e-01) (23, -1.34481713175773620605e-02) (24, -1.68440401554107666016e-01) (25, 1.81969538331031799316e-01) (26, 3.62641960382461547852e-01) (27, 9.28900614380836486816e-02) (28, 2.04593867063522338867e-01) (29, 1.19750879704952239990e-01) (30, 6.35355055332183837891e-01) (0, 3.90154302120208740234e-01) (1, 1.49217784404754638672e-01) (2, 1.38755217194557189941e-01) (3, 4.08955812454223632812e-01) (4, 3.34002375602722167969e-01) (5, 4.62526500225067138672e-01) (6, 2.02084004878997802734e-01) (7, 2.18159332871437072754e-01) (8, 4.44105863571166992188e-01) (9, -4.20251265168190002441e-02) (10, 4.92304563522338867188e-01) (11, 6.19522392749786376953e-01) (12, 2.57851034402847290039e-01) (13, 6.58854246139526367188e-01) (14, 6.36560738086700439453e-01) (15, 5.61227202415466308594e-02) (16, 4.12369430065155029297e-01) (17, 6.24421238899230957031e-01) (18, -8.91319572925567626953e-01) (19, 2.69230872392654418945e-01) (20, 3.24438661336898803711e-01) (21, 2.14099004864692687988e-01) (22, 2.78332978487014770508e-01) (23, 4.92187924683094024658e-02) (24, 4.57572937011718750000e-01) (25, 2.33836412429809570312e-01) (26, 1.86761215329170227051e-01) (27, 2.53534853458404541016e-01) (28, 4.11452978849411010742e-01) (29, 3.08911919593811035156e-01) (30, 2.60819375514984130859e-01) (0, 9.17017832398414611816e-02) (1, 2.49257028102874755859e-01) (2, 2.22993701696395874023e-01) (3, 2.31624066829681396484e-01) (4, 1.21213786303997039795e-01) (5, 1.99101194739341735840e-01) (6, 5.38248382508754730225e-02) (7, 1.57662734389305114746e-01) (8, 2.51541405916213989258e-01) (9, 6.33936673402786254883e-02) (10, -4.86410334706306457520e-02) (11, 1.73300027847290039062e-01) (12, 2.57002949714660644531e-01) (13, -3.13315503299236297607e-02) (14, -1.58598065376281738281e-01) (15, 1.71700048446655273438e+00) (16, 2.67992407083511352539e-01) (17, 4.12870168685913085938e-01) (18, 3.42287451028823852539e-01) (19, 1.49518325924873352051e-01) (20, 1.11134684085845947266e+00) (21, 2.93778151273727416992e-01) (22, -3.39818179607391357422e-01) (23, 9.81523334980010986328e-01) (24, 3.12672525644302368164e-01) (25, 2.00199127197265625000e-01) (26, 1.89753130078315734863e-01) (27, 3.20991516113281250000e-01) (28, 3.62242519855499267578e-01) (29, 2.04876050353050231934e-01) (30, 4.01818752288818359375e-01) (0, 6.37891709804534912109e-01) (1, 5.13684809207916259766e-01) (2, 4.39639776945114135742e-01) (3, 1.90091833472251892090e-01) (4, 9.40766483545303344727e-02) (5, 5.71330130100250244141e-01) (6, -3.01844388246536254883e-01) (7, 1.79121240973472595215e-01) (8, 3.39825063943862915039e-01) (9, -3.10444205999374389648e-01) (10, 3.10443699359893798828e-01) (11, 6.57108426094055175781e-01) (12, -1.46900370717048645020e-01) (13, 2.11066812276840209961e-01) (14, 4.46334928274154663086e-01) (15, 8.56834352016448974609e-01) (16, -3.70238721370697021484e-01) (17, 3.04134845733642578125e-01) (18, -1.17483162879943847656e+00) (19, -1.14943337440490722656e+00) (20, 1.91613472998142242432e-02) (21, 2.89194822311401367188e-01) (22, 2.85661667585372924805e-01) (23, 2.53974056243896484375e+00) (24, 5.09514689445495605469e-01) (25, 6.18415534496307373047e-01) (26, 4.77661609649658203125e-01) (27, 6.42306283116340637207e-02) (28, 4.20480012893676757812e-01) (29, 4.05068784952163696289e-01) (30, 1.40058904886245727539e-01) (0, -3.72814118862152099609e-01) (1, -1.09073877334594726562e-01) (2, -3.75680625438690185547e-01) (3, 1.90447941422462463379e-01) (4, 6.20297640562057495117e-02) (5, 2.32994243502616882324e-01) (6, 1.19820281863212585449e-01) (7, 1.56701937317848205566e-01) (8, 3.95045787096023559570e-01) (9, 1.37187764048576354980e-01) (10, 7.09592029452323913574e-02) (11, 2.55648344755172729492e-01) (12, 1.44986480474472045898e-01) (13, 1.22982375323772430420e-01) (14, -3.34707826375961303711e-01) (15, -1.74544870853424072266e+00) (16, -9.01310145854949951172e-01) (17, -1.90327793359756469727e-01) (18, -2.61684489250183105469e+00) (19, 1.45905745029449462891e+00) (20, -8.93519043922424316406e-01) (21, 3.44164729118347167969e-01) (22, -3.35208624601364135742e-02) (23, -1.39095997810363769531e+00) (24, 4.88861024379730224609e-01) (25, 5.43435573577880859375e-01) (26, 1.45179378986358642578e+00) (27, 4.29471492767333984375e-01) (28, 2.51561582088470458984e-01) (29, 4.30762290954589843750e-01) (30, 5.12184441089630126953e-01) (0, 9.94691193103790283203e-01) (1, 1.08204340934753417969e+00) (2, 1.12626695632934570312e+00) (3, 6.15358531475067138672e-01) (4, 7.14191436767578125000e-01) (5, 8.14824461936950683594e-01) (6, 1.17406499385833740234e+00) (7, 1.28863608837127685547e+00) (8, 1.21404504776000976562e+00) (9, 6.89941883087158203125e-01) (10, 1.10573911666870117188e+00) (11, 3.50119566917419433594e+00) (12, 1.41544139385223388672e+00) (13, 1.95926618576049804688e+00) (14, 7.04040825366973876953e-01) (15, -1.22205424308776855469e+00) (16, 4.64508354663848876953e-01) (17, 7.02951312065124511719e-01) (18, -2.86608994007110595703e-01) (19, -1.29171371459960937500e-01) (20, -1.26464322209358215332e-01) (21, -1.54570966958999633789e-01) (22, -3.82571190595626831055e-01) (23, -6.83879330754280090332e-02) (24, 2.27068766951560974121e-01) (25, -3.67982178926467895508e-01) (26, -1.52839675545692443848e-01) (27, -6.19517743587493896484e-01) (28, -5.89453160762786865234e-01) (29, -4.72639739513397216797e-01) (30, -6.77101969718933105469e-01) (0, 1.09451162815093994141e+00) (1, 9.94510471820831298828e-01) (2, 5.39678096771240234375e-01) (3, 1.02212345600128173828e+00) (4, 7.57962763309478759766e-01) (5, 9.41950023174285888672e-01) (6, 1.04168987274169921875e+00) (7, 8.07966470718383789062e-01) (8, 1.67529046535491943359e+00) (9, 8.78074109554290771484e-01) (10, 1.01143026351928710938e+00) (11, 9.97000038623809814453e-01) (12, 5.16520977020263671875e+00) (13, 1.17247748374938964844e+00) (14, 6.69611036777496337891e-01) (15, -1.19578242301940917969e+00) (16, 8.39742600917816162109e-01) (17, 5.63293635845184326172e-01) (18, 1.84341266751289367676e-01) (19, 4.39978748559951782227e-01) (20, 6.96855008602142333984e-01) (21, -1.71668559312820434570e-01) (22, -4.53206837177276611328e-01) (23, -1.37284129858016967773e-01) (24, -1.61327272653579711914e-01) (25, -4.00798261165618896484e-01) (26, 3.15260469913482666016e-01) (27, -2.79774278402328491211e-01) (28, -1.21548265218734741211e-01) (29, 3.05285125970840454102e-01) (30, -1.84384733438491821289e-01) (0, 2.91435033082962036133e-01) (1, 1.87290340662002563477e-01) (2, 3.16342085599899291992e-01) (3, 3.01612704992294311523e-01) (4, 2.24390879273414611816e-01) (5, 1.09465166926383972168e-01) (6, 2.99462944269180297852e-01) (7, 2.44600489735603332520e-01) (8, 2.25798532366752624512e-01) (9, 1.84794813394546508789e-01) (10, 2.53258138895034790039e-01) (11, 5.64845085144042968750e-01) (12, 1.38616487383842468262e-01) (13, 5.87900876998901367188e-01) (14, 1.09100639820098876953e+00) (15, 1.65094912052154541016e+00) (16, 1.07681810855865478516e+00) (17, 6.91166782379150390625e+00) (18, -5.22647574543952941895e-02) (19, 2.27175995707511901855e-01) (20, 1.55481052398681640625e+00) (21, 4.02055561542510986328e-01) (22, 9.54848453402519226074e-02) (23, 6.85042515397071838379e-02) (24, 6.27840220928192138672e-01) (25, 2.39783957600593566895e-01) (26, 1.38410180807113647461e-01) (27, 6.13058447837829589844e-01) (28, 4.68315541744232177734e-01) (29, 3.23231488466262817383e-01) (30, 4.10677701234817504883e-01) (31, 4.32957649230957031250e-01) (32, -4.16019827127456665039e-01) (33, 3.42175841331481933594e-01) (34, 2.21163302659988403320e-01) (35, 8.72473269701004028320e-02) (36, -9.95460376143455505371e-02) (37, 1.55400469899177551270e-01) (38, 6.73420727252960205078e-01) (39, 8.08593034744262695312e-02) (40, 1.44099906086921691895e-01) (41, -1.80342122912406921387e-02) (42, -2.27120131254196166992e-01) (43, 7.84920901060104370117e-02) (44, -1.18172943592071533203e+00) (45, 5.29208183288574218750e-01) (46, -4.27789628505706787109e-01) (47, 1.58936411142349243164e-01) (48, 8.39743077754974365234e-01) (49, -1.23868860304355621338e-01) (50, 1.45663112401962280273e-01) (51, -4.08661693334579467773e-01) (52, 5.58395445346832275391e-01) (53, -1.35730952024459838867e-01) (54, 7.59628820419311523438e+00) (55, 6.51073038578033447266e-01) (56, -5.95966148376464843750e+00) (57, -2.84344053268432617188e+00) (58, -5.24259433150291442871e-02) (59, -7.42427185177803039551e-02) (60, -1.33871152997016906738e-01) (61, 7.73480892181396484375e-01) (62, 5.54419636726379394531e-01) (63, 3.89213532209396362305e-01) (64, -2.67759244889020919800e-02) (65, 7.97139704227447509766e-01) (31, 2.24597707390785217285e-01) (32, -5.68479299545288085938e-01) (33, 3.49630296230316162109e-01) (34, 5.93881569802761077881e-02) (35, -4.13116812705993652344e-01) (36, 5.83110749721527099609e-01) (37, -4.12148296833038330078e-01) (38, 1.14077830314636230469e+00) (39, -2.39717904478311538696e-02) (40, -2.52925246953964233398e-01) (41, 2.80568122863769531250e-01) (42, 6.83548673987388610840e-02) (43, -1.91281497478485107422e-01) (44, -1.65480577945709228516e+00) (45, -2.41547778248786926270e-01) (46, 2.43939787149429321289e-01) (47, -1.34807288646697998047e-01) (48, 5.93499056994915008545e-02) (49, -3.84641498327255249023e-01) (50, -4.41646650433540344238e-02) (51, -5.43224334716796875000e-01) (52, 5.94754338264465332031e-01) (53, -4.28936481475830078125e-02) (54, -1.98020470142364501953e+00) (55, 6.39969646930694580078e-01) (56, -1.39589321613311767578e+00) (57, 3.54997694492340087891e-01) (58, -2.66336947679519653320e-01) (59, 5.82853443920612335205e-02) (60, 6.68436521664261817932e-03) (61, 6.11271440982818603516e-01) (62, 5.73426604270935058594e-01) (63, 6.24863147735595703125e-01) (64, -3.91199976205825805664e-01) (65, 5.78393936157226562500e-01) (31, -3.04163515567779541016e-01) (32, -7.07175016403198242188e-01) (33, -7.10041634738445281982e-03) (34, 3.72876465320587158203e-01) (35, -3.32641214132308959961e-01) (36, 1.24435946345329284668e-01) (37, 1.62217244505882263184e-02) (38, 4.98225271701812744141e-01) (39, 2.51157522201538085938e-01) (40, 6.94858084898442029953e-04) (41, 2.95394748449325561523e-01) (42, -3.96953569725155830383e-03) (43, 3.47023069858551025391e-01) (44, -1.55147290229797363281e+00) (45, -1.66780352592468261719e-01) (46, -2.32252627611160278320e-01) (47, -1.14181697368621826172e+00) (48, 2.95251667499542236328e-01) (49, -1.51212185621261596680e-01) (50, 4.06954854726791381836e-01) (51, -5.02356290817260742188e-01) (52, 1.31507813930511474609e-01) (53, -1.01238243281841278076e-01) (54, -7.51905322074890136719e-01) (55, 9.56892490386962890625e-01) (56, -5.29549896717071533203e-01) (57, 2.73399353027343750000e-01) (58, -3.02684426307678222656e-01) (59, -3.17278541624546051025e-02) (60, 8.11807930469512939453e-01) (61, 1.10332810878753662109e+00) (62, 1.41138225793838500977e-01) (63, 1.70852318406105041504e-01) (64, -7.24337100982666015625e-02) (65, 1.09146940708160400391e+00) (31, 2.91776806116104125977e-01) (32, 6.29616498947143554688e-01) (33, 1.34913867805153131485e-03) (34, 8.61062622070312500000e+00) (35, 7.08957374095916748047e-01) (36, 1.65711790323257446289e-01) (37, 7.70217359066009521484e-01) (38, 6.57292529940605163574e-02) (39, 5.23940086364746093750e-01) (40, -1.38025104999542236328e-01) (41, 7.75122404098510742188e-01) (42, 2.53603911399841308594e+00) (43, 5.65335631370544433594e-01) (44, 1.98472785949707031250e+00) (45, 2.23212456703186035156e+00) (46, 3.95913273096084594727e-01) (47, 1.62659084796905517578e+00) (48, 2.01018899679183959961e-02) (49, 8.16865324974060058594e-01) (50, 3.44949692487716674805e-01) (51, 9.41097557544708251953e-01) (52, 1.15315482020378112793e-01) (53, 1.79839402437210083008e-01) (54, -2.36972784996032714844e+00) (55, 2.54776984453201293945e-01) (56, -2.88814520835876464844e+00) (57, -8.91434252262115478516e-01) (58, 5.65379858016967773438e-01) (59, 5.51117360591888427734e-02) (60, 1.71289682388305664062e+00) (61, -3.45600187778472900391e-01) (62, 1.67976126074790954590e-01) (63, 5.59858381748199462891e-02) (64, 5.86699187755584716797e-01) (65, -1.23460844159126281738e-01) (31, -9.36007499694824218750e-02) (32, 5.23269951343536376953e-01) (33, -5.71152627468109130859e-01) (34, 7.47585654258728027344e-01) (35, 5.32327532768249511719e-01) (36, -2.35989034175872802734e-01) (37, 3.85161638259887695312e-01) (38, 4.04804386198520660400e-02) (39, 8.20339083671569824219e-01) (40, -1.00435137748718261719e+00) (41, 3.92975300550460815430e-01) (42, -5.54170966148376464844e-01) (43, 6.13793909549713134766e-01) (44, 2.13031396269798278809e-01) (45, 3.66308152675628662109e-01) (46, 5.83438575267791748047e-01) (47, 4.16884809732437133789e-01) (48, 2.15160235762596130371e-01) (49, 3.44499260187149047852e-01) (50, 6.45519733428955078125e-01) (51, 7.92555272579193115234e-01) (52, -1.72799021005630493164e-01) (53, 1.01431155204772949219e+00) (54, -2.27208471298217773438e+00) (55, 2.54621416330337524414e-01) (56, 1.86420112848281860352e-01) (57, 5.43484747409820556641e-01) (58, 2.52146571874618530273e-01) (59, 1.89596712589263916016e-01) (60, 8.51842343807220458984e-01) (61, 2.57446765899658203125e-01) (62, -2.18483671545982360840e-01) (63, -1.94706708192825317383e-01) (64, 2.94970393180847167969e-01) (65, 3.16926419734954833984e-01) (31, 1.92715063691139221191e-01) (32, 4.00728732347488403320e-01) (33, -1.57043859362602233887e-02) (34, 6.15840971469879150391e-01) (35, 9.48034822940826416016e-01) (36, 1.58634617924690246582e-01) (37, 4.97759699821472167969e-01) (38, 3.76829385757446289062e+00) (39, 5.47235965728759765625e-01) (40, -1.81624025106430053711e-01) (41, -1.04393157958984375000e+01) (42, -1.14814504981040954590e-01) (43, 4.12081569433212280273e-01) (44, -1.64359188079833984375e+00) (45, 1.04365038871765136719e+00) (46, 4.05551612377166748047e-01) (47, 1.95900840759277343750e+01) (48, -1.05292141437530517578e+00) (49, 8.74552667140960693359e-01) (50, 3.50865185260772705078e-01) (51, 1.23444750905036926270e-01) (52, 1.45047679543495178223e-01) (53, 2.90225654840469360352e-01) (54, -4.33985680341720581055e-01) (55, 4.18746531009674072266e-01) (56, -5.68965005874633789062e+00) (57, 6.46543323993682861328e-01) (58, 9.41290020942687988281e-01) (59, 4.76970046758651733398e-01) (60, 3.83330202102661132812e+00) (61, -1.28520205616950988770e-01) (62, 1.65329426527023315430e-01) (63, 1.80269166827201843262e-01) (64, 1.49036848545074462891e+00) (65, -5.52148595452308654785e-02) (31, 5.97205519676208496094e-01) (32, 1.02547757327556610107e-01) (33, -2.83437162637710571289e-01) (34, 7.00559914112091064453e-01) (35, 2.64515399932861328125e-01) (36, 1.87685023993253707886e-02) (37, 3.58279168605804443359e-01) (38, -3.76100870198570191860e-05) (39, 5.40615499019622802734e-01) (40, -2.79049038887023925781e-01) (41, 9.12710666656494140625e-01) (42, -7.00659215450286865234e-01) (43, 1.36237061023712158203e+00) (44, -8.04151773452758789062e-01) (45, 3.15227836370468139648e-01) (46, 8.11025142669677734375e-01) (47, 1.90489828586578369141e-01) (48, 3.28012049198150634766e-01) (49, 5.61613440513610839844e-01) (50, 6.17113888263702392578e-01) (51, 5.60005381703376770020e-02) (52, 1.15316964685916900635e-01) (53, -1.54770004749298095703e+00) (54, -2.42232131958007812500e+00) (55, -1.61323919892311096191e-02) (56, -1.84465795755386352539e-01) (57, 2.45148707181215286255e-02) (58, 2.95277714729309082031e-01) (59, 4.33845430612564086914e-01) (60, 5.64249455928802490234e-01) (61, -2.06060096621513366699e-01) (62, 2.93125938624143600464e-02) (63, -2.98767928034067153931e-02) (64, 3.03683519363403320312e-01) (65, -5.74035495519638061523e-02) (31, 6.00010097026824951172e-01) (32, 5.39863407611846923828e-01) (33, 1.64806544780731201172e-01) (34, 4.10150736570358276367e-01) (35, 7.17652082443237304688e-01) (36, 2.04160120338201522827e-02) (37, 2.87131166458129882812e+00) (38, -8.39518070220947265625e+00) (39, 6.10138237476348876953e-01) (40, 1.26642733812332153320e-01) (41, 1.01135988235473632812e+01) (42, 8.61692667007446289062e-01) (43, 5.30682623386383056641e-01) (44, 1.64947533607482910156e+00) (45, 6.53721868991851806641e-01) (46, 4.46430921554565429688e-01) (47, -6.96599602699279785156e-01) (48, 1.05541074275970458984e+00) (49, 4.80764269828796386719e-01) (50, 4.58233296871185302734e-01) (51, 5.59354484081268310547e-01) (52, -5.06447628140449523926e-02) (53, 2.95331418514251708984e-01) (54, 1.25277447700500488281e+00) (55, 6.71628713607788085938e-02) (56, 1.07411539554595947266e+00) (57, 1.72154438495635986328e+00) (58, 6.27725541591644287109e-01) (59, 1.62636184692382812500e+00) (60, 9.06968295574188232422e-01) (61, 1.02374918758869171143e-01) (62, 9.89726372063159942627e-03) (63, 1.30019351840019226074e-01) (64, 3.12230324745178222656e+00) (65, 9.66178476810455322266e-02) (31, 6.72306537628173828125e-01) (32, -7.89580523967742919922e-01) (33, -3.50350201129913330078e-01) (34, 4.92705971002578735352e-01) (35, 2.66103178262710571289e-01) (36, 2.96963274478912353516e-01) (37, 1.52030482888221740723e-01) (38, -2.05564767122268676758e-01) (39, 5.27908623218536376953e-01) (40, -2.75101184844970703125e-01) (41, 6.36384844779968261719e-01) (42, -5.22729873657226562500e-01) (43, 1.01191747188568115234e+00) (44, -2.90503168106079101562e+00) (45, 4.79487150907516479492e-01) (46, 8.81755292415618896484e-01) (47, 1.94556206464767456055e-01) (48, 4.13319557905197143555e-01) (49, 7.70266354084014892578e-01) (50, 9.31256651878356933594e-01) (51, 2.17204496264457702637e-01) (52, 2.40919157862663269043e-01) (53, 8.82809400558471679688e-01) (54, -2.21646547317504882812e+00) (55, -1.26765549182891845703e-01) (56, -1.73147082328796386719e+00) (57, -4.11004796624183654785e-02) (58, 2.56517648696899414062e-01) (59, 8.08563172817230224609e-01) (60, 1.40006184577941894531e+00) (61, -1.64166659116744995117e-01) (62, 2.14219346642494201660e-01) (63, 3.32152903079986572266e-01) (64, 1.80150926113128662109e-01) (65, -2.16037842619698494673e-05) (31, -1.50031179189682006836e-01) (32, -5.89507520198822021484e-01) (33, 6.56612813472747802734e-02) (34, -5.52423000335693359375e-01) (35, -1.47506609559059143066e-01) (36, 5.01147985458374023438e-01) (37, 1.54246136546134948730e-01) (38, -1.79048720747232437134e-02) (39, 1.09406881034374237061e-01) (40, 7.19261765480041503906e-02) (41, 1.35501816868782043457e-01) (42, 2.49719277024269104004e-01) (43, 1.50401875376701354980e-01) (44, 1.78940176963806152344e+00) (45, -9.82776805758476257324e-02) (46, -5.75747251510620117188e-01) (47, 2.41091042757034301758e-01) (48, 1.93426385521888732910e-01) (49, -2.30126813054084777832e-01) (50, 2.12048992514610290527e-01) (51, 3.05695354938507080078e-01) (52, 3.95035028457641601562e-01) (53, -3.90600234270095825195e-01) (54, 2.24770128726959228516e-01) (55, 6.57577872276306152344e-01) (56, -3.19304943084716796875e-01) (57, 2.70504951477050781250e-01) (58, -1.61701455712318420410e-01) (59, -1.21113002300262451172e-01) (60, 2.17464849352836608887e-01) (61, 7.20232129096984863281e-01) (62, 5.16948282718658447266e-01) (63, 3.67802292108535766602e-01) (64, 2.13343262672424316406e-01) (65, 6.95114433765411376953e-01) (31, 2.89186060428619384766e-01) (32, 1.00499801337718963623e-01) (33, -9.74460422992706298828e-01) (34, 6.07530653476715087891e-01) (35, 4.43117350339889526367e-01) (36, -1.57144442200660705566e-01) (37, 2.21452578902244567871e-01) (38, 4.97292369604110717773e-01) (39, 7.93920040130615234375e-01) (40, -1.01831293106079101562e+00) (41, 5.62419056892395019531e-01) (42, -9.66628864407539367676e-02) (43, 7.27688431739807128906e-01) (44, -3.48192006349563598633e-02) (45, 2.13105976581573486328e-01) (46, 3.75599563121795654297e-01) (47, 2.87086784839630126953e-01) (48, 4.64424520730972290039e-01) (49, 2.32938557863235473633e-01) (50, 8.54359745979309082031e-01) (51, 7.05699503421783447266e-01) (52, -1.11933946609497070312e-01) (53, 7.29892551898956298828e-01) (54, 1.73171591758728027344e+00) (55, 3.07226032018661499023e-01) (56, 2.06957206130027770996e-01) (57, 1.79910525679588317871e-01) (58, 1.97465777397155761719e-01) (59, 5.28456628322601318359e-01) (60, 5.11977553367614746094e-01) (61, 3.68952274322509765625e-01) (62, -2.32436597347259521484e-01) (63, -1.13696046173572540283e-01) (64, 9.99334603548049926758e-02) (65, 2.91171133518218994141e-01) (31, -1.92745819687843322754e-01) (32, 7.55701923370361328125e+00) (33, 2.62617450207471847534e-02) (34, -5.30279934406280517578e-01) (35, 2.27230623364448547363e-01) (36, -2.26870253682136535645e-01) (37, 2.48769968748092651367e-01) (38, -1.72685325145721435547e+00) (39, 6.44387722015380859375e-01) (40, 9.26932245492935180664e-02) (41, 1.11663615703582763672e+00) (42, -2.37165018916130065918e-01) (43, 7.32428252696990966797e-01) (44, -6.07549786567687988281e-01) (45, 3.84212255477905273438e-01) (46, 4.05769675970077514648e-01) (47, 4.20537620782852172852e-01) (48, 3.28636139631271362305e-01) (49, 4.58782970905303955078e-01) (50, 2.57202553749084472656e+00) (51, 2.03360304236412048340e-01) (52, -2.99819380044937133789e-01) (53, -2.09068322181701660156e+00) (54, 2.47154384851455688477e-02) (55, -1.19828760623931884766e-01) (56, 3.60089373588562011719e+00) (57, -3.92386651039123535156e+00) (58, 4.31293696165084838867e-01) (59, 2.68126940727233886719e+00) (60, 7.64101803302764892578e-01) (61, 2.02097520232200622559e-01) (62, -3.35503876209259033203e-01) (63, -3.82893323898315429688e-01) (64, 5.87386190891265869141e-01) (65, 2.47740119695663452148e-01) (31, -2.41447135806083679199e-01) (32, -8.76709997653961181641e-01) (33, -1.58392697572708129883e-01) (34, 5.00513762235641479492e-02) (35, -1.12820960581302642822e-01) (36, 2.55986094474792480469e-01) (37, -1.09610885381698608398e-01) (38, 3.91720384359359741211e-01) (39, 3.35187405347824096680e-01) (40, -1.39243096113204956055e-01) (41, 1.51571288704872131348e-01) (42, 3.46361964941024780273e-01) (43, -8.93905460834503173828e-02) (44, -4.71392899751663208008e-01) (45, -2.85478860139846801758e-01) (46, -1.10873887315392494202e-02) (47, -2.97245562076568603516e-01) (48, -6.77142962813377380371e-02) (49, -1.78783178329467773438e-01) (50, 2.87489175796508789062e-01) (51, -2.61281341314315795898e-01) (52, 2.56890356540679931641e-01) (53, -1.03180386126041412354e-01) (54, 1.95082984864711761475e-02) (55, 6.71168744564056396484e-01) (56, -6.72818899154663085938e-01) (57, 1.24256289005279541016e+00) (58, -1.77450954914093017578e-01) (59, 3.06313693523406982422e-01) (60, 2.86706745624542236328e-01) (61, 8.03799629211425781250e-01) (62, 2.20331206917762756348e-01) (63, 2.77557164430618286133e-01) (64, 2.98430860042572021484e-01) (65, 7.58466839790344238281e-01) (31, -2.14953631162643432617e-01) (32, -2.24876061081886291504e-01) (33, 1.06728993356227874756e-01) (34, 1.59864813089370727539e-01) (35, 5.73386698961257934570e-02) (36, 4.58389371633529663086e-01) (37, -6.90692961215972900391e-02) (38, 6.98471516370773315430e-02) (39, 1.47619575262069702148e-01) (40, 2.24393218755722045898e-01) (41, -1.60414278507232666016e-01) (42, -7.99959991127252578735e-03) (43, 1.23355127871036529541e-01) (44, 3.46848517656326293945e-01) (45, -2.39825353026390075684e-01) (46, 5.08545786142349243164e-02) (47, -1.06568731367588043213e-01) (48, 1.60526490211486816406e+00) (49, -2.13200837373733520508e-01) (50, 3.61579537391662597656e-01) (51, -7.58732110261917114258e-02) (52, 5.16693890094757080078e-01) (53, 2.34438583254814147949e-01) (54, 8.89436081051826477051e-02) (55, 9.05523240566253662109e-01) (56, -8.25497806072235107422e-01) (57, 4.04243230819702148438e-01) (58, -9.45213884115219116211e-02) (59, -9.78860557079315185547e-02) (60, 9.57182407379150390625e-01) (61, 8.70918095111846923828e-01) (62, 4.55281049013137817383e-01) (63, 3.91234785318374633789e-01) (64, -3.29130023717880249023e-01) (65, 8.66916358470916748047e-01) (31, 1.32301282882690429688e+00) (32, 7.04987168312072753906e-01) (33, -7.43988761678338050842e-03) (34, 5.03743052482604980469e-01) (35, 9.72391963005065917969e-01) (36, 3.63914489746093750000e-01) (37, 2.27429628372192382812e+00) (38, -2.00327181816101074219e+00) (39, -3.46384882926940917969e-01) (40, 1.53666228055953979492e-01) (41, 4.73940461874008178711e-01) (42, 3.72520834207534790039e-02) (43, 5.05630254745483398438e-01) (44, -3.18567514419555664062e+00) (45, 1.01673758029937744141e+00) (46, 6.03726923465728759766e-01) (47, 9.54536736011505126953e-01) (48, 3.64454805850982666016e-01) (49, 9.14121687412261962891e-01) (50, -5.25671601295471191406e-01) (51, 4.89798903465270996094e-01) (52, 2.96052783727645874023e-01) (53, 6.99603855609893798828e-01) (54, -7.13043957948684692383e-02) (55, -1.97470411658287048340e-01) (56, 5.53913652896881103516e-01) (57, -9.60306357592344284058e-03) (58, 1.31716525554656982422e+00) (59, 7.11846411228179931641e-01) (60, 5.01074790954589843750e-01) (61, -3.82444590330123901367e-01) (62, 4.10703957080841064453e-01) (63, 1.11983478069305419922e+00) (64, 1.44257724285125732422e+00) (65, -3.25142145156860351562e-01) (31, 2.78849333524703979492e-01) (32, -2.81293392181396484375e-01) (33, 8.27160537242889404297e-01) (34, -6.08149647712707519531e-01) (35, 6.49048984050750732422e-01) (36, 1.21302318572998046875e+00) (37, 1.08137711882591247559e-01) (38, 1.92295587062835693359e+00) (39, -7.25104153156280517578e-01) (40, 1.15749633312225341797e+00) (41, 1.39304831624031066895e-01) (42, 2.91523844003677368164e-01) (43, -6.13075077533721923828e-01) (44, -7.35901641845703125000e+00) (45, 2.89849519729614257812e-01) (46, -1.10487008094787597656e+00) (47, 1.92244887351989746094e-01) (48, 3.68653535842895507812e-01) (49, 2.44603212922811508179e-02) (50, -6.63964390754699707031e-01) (51, -3.39183479547500610352e-01) (52, 1.32053446769714355469e+00) (53, -5.34963071346282958984e-01) (54, 6.43600344657897949219e-01) (55, 1.51722848415374755859e-01) (56, -1.84621286392211914062e+00) (57, 7.76939690113067626953e-01) (58, 4.16385471820831298828e-01) (59, 5.34920871257781982422e-01) (60, -2.80318677425384521484e-01) (61, -4.44568134844303131104e-02) (62, 1.47060036659240722656e+00) (63, 1.31192398071289062500e+00) (64, 1.48578304797410964966e-02) (65, 5.61784803867340087891e-02) (31, 1.24649584293365478516e+00) (32, 4.76416915655136108398e-01) (33, 3.25374394655227661133e-01) (34, -2.08996891975402832031e-01) (35, 8.38245391845703125000e-01) (36, 2.36708328127861022949e-01) (37, 1.20751607418060302734e+00) (38, 2.39779639244079589844e+00) (39, 3.16107064485549926758e-01) (40, 4.36572134494781494141e-01) (41, -3.62949967384338378906e+00) (42, 2.49623805284500122070e-01) (43, 1.69720008969306945801e-01) (44, 1.58535575866699218750e+00) (45, 1.77483415603637695312e+00) (46, -9.23993706703186035156e-01) (47, 2.13564515113830566406e+00) (48, 9.72270107269287109375e+00) (49, 2.06952333450317382812e+00) (50, 3.27311694622039794922e-01) (51, 4.94372904300689697266e-01) (52, 2.51003116369247436523e-01) (53, 5.50432085990905761719e-01) (54, 5.59308469295501708984e-01) (55, -5.89993357658386230469e-01) (56, 7.70839214324951171875e-01) (57, 1.50136530399322509766e-01) (58, 2.27020454406738281250e+00) (59, -9.95707929134368896484e-01) (60, 2.49503314495086669922e-01) (61, -3.74691456556320190430e-01) (62, 1.89079910516738891602e-01) (63, 2.95274466276168823242e-01) (64, 2.07370209693908691406e+00) (65, -3.76875311136245727539e-01) (31, 5.94942867755889892578e-01) (32, -2.77417629957199096680e-01) (33, 5.05865812301635742188e-01) (34, 2.92073369026184082031e-01) (35, 9.93576198816299438477e-02) (36, 6.82195544242858886719e-01) (37, -3.68913382291793823242e-01) (38, 5.48967003822326660156e-01) (39, -5.77537063509225845337e-03) (40, 5.23941576480865478516e-01) (41, -2.21884414553642272949e-01) (42, 3.71553450822830200195e-01) (43, 4.07842963933944702148e-01) (44, 1.26665741205215454102e-01) (45, -4.95471153408288955688e-03) (46, 2.66352623701095581055e-01) (47, -3.05181384086608886719e-01) (48, 2.24755719304084777832e-01) (49, -3.16500030457973480225e-02) (50, 2.80973821878433227539e-01) (51, -1.71631276607513427734e-01) (52, 6.80931329727172851562e-01) (53, 2.13882461190223693848e-01) (54, -2.76021808385848999023e-01) (55, 6.53315603733062744141e-01) (56, -4.60141658782958984375e-01) (57, 8.80479872226715087891e-01) (58, -4.05617058277130126953e-02) (59, 8.15510004758834838867e-02) (60, 2.77889460325241088867e-01) (61, 9.28396284580230712891e-01) (62, 1.53024971485137939453e-01) (63, 6.70878052711486816406e-01) (64, -4.38208043575286865234e-01) (65, 9.73494827747344970703e-01) (31, 3.33606004714965820312e-01) (32, 2.34301924705505371094e-01) (33, -7.77170583605766296387e-02) (34, 6.26233816146850585938e-01) (35, 5.53178489208221435547e-01) (36, -1.94147214293479919434e-01) (37, 3.20952117443084716797e-01) (38, 2.31402277946472167969e+00) (39, 8.88789772987365722656e-01) (40, -2.43257462978363037109e-01) (41, 7.26540803909301757812e-01) (42, -4.30379003286361694336e-01) (43, 7.16699421405792236328e-01) (44, -1.32383072376251220703e+00) (45, 4.38507586717605590820e-01) (46, 7.64001071453094482422e-01) (47, 4.93789315223693847656e-01) (48, 5.79753875732421875000e-01) (49, 2.97161370515823364258e-01) (50, 5.15834450721740722656e-01) (51, 3.69456678628921508789e-01) (52, -1.80865019559860229492e-01) (53, 7.69091963768005371094e-01) (54, -5.27457141876220703125e+00) (55, 2.40793585777282714844e-01) (56, -5.99096012115478515625e+00) (57, -1.85353532433509826660e-01) (58, 3.57649207115173339844e-01) (59, 6.39406681060791015625e-01) (60, 2.09624624252319335938e+00) (61, 8.27194657176733016968e-03) (62, -1.55113235116004943848e-01) (63, -1.39201745390892028809e-01) (64, 8.07309567928314208984e-01) (65, 3.07788342237472534180e-01) (31, 2.47287943959236145020e-01) (32, 3.73751491308212280273e-01) (33, -4.40197110176086425781e-01) (34, 2.76579678058624267578e-01) (35, 3.86434555053710937500e-01) (36, -3.46153438091278076172e-01) (37, 5.99857687950134277344e-01) (38, -3.60478125512599945068e-02) (39, 9.45177316665649414062e-01) (40, -3.28987270593643188477e-01) (41, 4.28856998682022094727e-01) (42, -4.19149786233901977539e-01) (43, 9.29556429386138916016e-01) (44, -1.27793622016906738281e+00) (45, 3.02443683147430419922e-01) (46, 5.24540841579437255859e-01) (47, 2.38375157117843627930e-01) (48, 3.46567898988723754883e-01) (49, 2.62700945138931274414e-01) (50, 9.89805519580841064453e-01) (51, 2.99425274133682250977e-01) (52, -4.93697226047515869141e-01) (53, 1.89796403050422668457e-01) (54, -6.63965702056884765625e+00) (55, 1.29337549209594726562e-01) (56, -3.96956741809844970703e-01) (57, -3.21579396724700927734e-01) (58, 1.95597007870674133301e-01) (59, 5.83524882793426513672e-01) (60, 6.51135563850402832031e-01) (61, 2.15636342763900756836e-01) (62, -3.57044756412506103516e-01) (63, -4.34655517339706420898e-01) (64, 4.54598218202590942383e-01) (65, 3.14393639564514160156e-01) (31, -1.88707560300827026367e-01) (32, -3.42029511928558349609e-01) (33, 6.62955641746520996094e-01) (34, -1.16999638080596923828e+00) (35, -1.26463338732719421387e-01) (36, 3.46307218074798583984e-01) (37, -2.07198590040206909180e-01) (38, 3.69856953620910644531e-01) (39, 1.93947955965995788574e-01) (40, 6.13431751728057861328e-01) (41, -6.60936534404754638672e-02) (42, 2.48019054532051086426e-01) (43, 2.79530197381973266602e-01) (44, 1.20972669124603271484e+00) (45, -2.05480575561523437500e-01) (46, -2.31334909796714782715e-01) (47, 2.18885466456413269043e-01) (48, 4.23866689205169677734e-01) (49, 2.98278898000717163086e-01) (50, 2.87903606891632080078e-01) (51, 3.34371477365493774414e-01) (52, 2.48193219304084777832e-01) (53, 1.07133425772190093994e-01) (54, 2.73397493362426757812e+00) (55, 3.90027552843093872070e-01) (56, 1.13721035420894622803e-01) (57, 5.86687624454498291016e-01) (58, 2.08855390548706054688e-01) (59, -1.10176730155944824219e+00) (60, -2.00143051147460937500e+00) (61, 4.79555040597915649414e-01) (62, 2.79692977666854858398e-01) (63, 2.84687012434005737305e-01) (64, 2.81303465366363525391e-01) (65, 7.46196806430816650391e-01) (31, -6.06641829013824462891e-01) (32, 6.45359992980957031250e-01) (33, 1.23069271445274353027e-01) (34, -2.66106057167053222656e+00) (35, 5.33717691898345947266e-01) (36, -7.24930047988891601562e-01) (37, 2.51299560070037841797e-01) (38, 5.11288404464721679688e+00) (39, 1.44569480419158935547e+00) (40, -2.49373865127563476562e+00) (41, 3.00220400094985961914e-01) (42, -6.93987369537353515625e-01) (43, 1.02486729621887207031e+00) (44, -1.73425064086914062500e+01) (45, -3.71254295110702514648e-01) (46, -2.62775063514709472656e-01) (47, -1.67020946741104125977e-01) (48, 9.80358049273490905762e-02) (49, 2.40366265177726745605e-01) (50, 1.49371469020843505859e+00) (51, 2.87518769502639770508e-01) (52, -6.09456300735473632812e-01) (53, 3.74174565076828002930e-01) (54, 2.82992863655090332031e+00) (55, 1.47597348690032958984e+00) (56, -9.14251338690519332886e-03) (57, 6.29247650504112243652e-02) (58, 1.71305122785270214081e-03) (59, 2.04831302165985107422e-01) (60, 3.94982695579528808594e-01) (61, 5.27902543544769287109e-01) (62, -5.49534797668457031250e-01) (63, -6.03340148925781250000e-01) (64, 9.54600200057029724121e-02) (65, 5.68650424480438232422e-01) (31, 8.42675447463989257812e-01) (32, 5.71899414062500000000e-01) (33, 1.94296151399612426758e-01) (34, 4.04415369033813476562e-01) (35, 7.84955859184265136719e-01) (36, 1.90935924649238586426e-01) (37, 8.32583069801330566406e-01) (38, 7.18225955963134765625e-01) (39, 4.36863601207733154297e-01) (40, 8.75353962182998657227e-02) (41, 1.28899431228637695312e+00) (42, 5.05471646785736083984e-01) (43, 4.37440633773803710938e-01) (44, -1.94838237762451171875e+00) (45, 9.45835709571838378906e-01) (46, 9.57270562648773193359e-02) (47, 7.04951345920562744141e-01) (48, 9.63995337486267089844e-01) (49, 6.68452739715576171875e-01) (50, 4.72508549690246582031e-01) (51, 4.28978800773620605469e-01) (52, 2.21439570188522338867e-01) (53, 4.25989180803298950195e-01) (54, -2.42904387414455413818e-02) (55, -1.62701308727264404297e-01) (56, 7.94535994529724121094e-01) (57, -1.03624927997589111328e+00) (58, 7.63191640377044677734e-01) (59, 6.37061178684234619141e-01) (60, -6.17818546295166015625e+00) (61, -1.72554418444633483887e-01) (62, 1.48090407252311706543e-01) (63, 1.03238806128501892090e-01) (64, 1.05179321765899658203e+00) (65, -1.02275267243385314941e-01) (31, 4.05979663133621215820e-01) (32, -4.04880084097385406494e-02) (33, 4.23098236322402954102e-01) (34, 1.15036416053771972656e+00) (35, 1.39795720577239990234e-01) (36, 4.96658712625503540039e-01) (37, 2.03402973711490631104e-02) (38, 3.70192098617553710938e+00) (39, 4.44829285144805908203e-01) (40, 3.39506894350051879883e-01) (41, 2.00681343674659729004e-01) (42, 2.99741578102111816406e+00) (43, 4.13984775543212890625e-01) (44, 7.86532700061798095703e-01) (45, 3.51861029863357543945e-01) (46, 5.61924457550048828125e-01) (47, 4.41645145416259765625e-01) (48, 7.95242071151733398438e-01) (49, -5.49472384154796600342e-02) (50, 4.45049166679382324219e-01) (51, 2.99903839826583862305e-01) (52, 4.57532018423080444336e-01) (53, 1.16543281078338623047e+00) (54, -3.14954924583435058594e+00) (55, 5.19346237182617187500e-01) (56, -2.41559028625488281250e+00) (57, 1.75193190574645996094e+00) (58, 1.95914823561906814575e-02) (59, 4.58031797409057617188e+00) (60, -2.24087506532669067383e-01) (61, 8.98580610752105712891e-01) (62, 3.57658535242080688477e-01) (63, 5.00916838645935058594e-01) (64, 2.22450643777847290039e-01) (65, 9.03252482414245605469e-01) (31, 1.38737833499908447266e+00) (32, -2.12621927261352539062e+00) (33, 9.47885096073150634766e-01) (34, 5.04652619361877441406e-01) (35, 1.79216966032981872559e-01) (36, 1.17375624179840087891e+00) (37, 2.65779197216033935547e-01) (38, 8.16214144229888916016e-01) (39, -5.73363542556762695312e-01) (40, 1.22828733921051025391e+00) (41, 7.38615214824676513672e-01) (42, -1.05883014202117919922e+00) (43, -5.99643349647521972656e-01) (44, 8.36713135242462158203e-01) (45, 3.16494852304458618164e-01) (46, 1.20970535278320312500e+00) (47, 1.74666061997413635254e-01) (48, -7.48234093189239501953e-01) (49, 3.50866734981536865234e-01) (50, -8.35596859455108642578e-01) (51, -3.30733716487884521484e-01) (52, 1.34401917457580566406e+00) (53, -6.71674132347106933594e-01) (54, 1.55219039916992187500e+01) (55, -5.16537316143512725830e-02) (56, -1.18811452388763427734e+00) (57, 3.10553461313247680664e-01) (58, 8.99118036031723022461e-02) (59, 1.83100426197052001953e+00) (60, -2.63431787490844726562e-01) (61, 1.87774494290351867676e-01) (62, 1.58015143871307373047e+00) (63, 1.46815514564514160156e+00) (64, 3.59656721353530883789e-01) (65, 1.71790391206741333008e-01) (31, 1.49496138095855712891e-01) (32, -1.93485215306282043457e-01) (33, 1.68121412396430969238e-01) (34, 4.75050479173660278320e-01) (35, -4.22126293182373046875e-01) (36, 2.84111499786376953125e-01) (37, -3.37751328945159912109e-01) (38, 7.05729246139526367188e-01) (39, -1.04985736310482025146e-01) (40, 3.83981049060821533203e-01) (41, 2.42782101035118103027e-01) (42, 4.73746210336685180664e-01) (43, -7.17151388525962829590e-02) (44, -1.57626318931579589844e+00) (45, -4.61854070425033569336e-01) (46, -1.66705861687660217285e-01) (47, 2.72529661655426025391e-01) (48, 2.03639008104801177979e-02) (49, -4.99563306570053100586e-01) (50, 3.09008032083511352539e-01) (51, -5.58846890926361083984e-01) (52, 1.97464808821678161621e-01) (53, 1.24790277332067489624e-02) (54, -2.20136414282023906708e-03) (55, 9.76365804672241210938e-01) (56, -5.08274674415588378906e-01) (57, 3.22617799043655395508e-01) (58, 3.85611690580844879150e-02) (59, 1.69555097818374633789e-01) (60, 9.19405162334442138672e-01) (61, 9.78850126266479492188e-01) (62, 3.04794758558273315430e-01) (63, 1.39313027262687683105e-01) (64, 1.03405408561229705811e-01) (65, 1.05400884151458740234e+00) (31, 8.17342460155487060547e-01) (32, 1.07517421245574951172e+00) (33, 6.67331993579864501953e-01) (34, -5.14460206031799316406e-01) (35, -3.65084290504455566406e-01) (36, -1.41962096095085144043e-01) (37, 3.23687404394149780273e-01) (38, -1.36056244373321533203e+00) (39, -1.95246279239654541016e-01) (40, 3.14565539360046386719e-01) (41, 1.04309928417205810547e+00) (42, 2.39857703447341918945e-01) (43, -2.23691657185554504395e-01) (44, -1.73588728904724121094e+00) (45, 7.28434503078460693359e-01) (46, 1.22422255575656890869e-01) (47, 3.26670229434967041016e-01) (48, 1.55775952339172363281e+00) (49, 3.09993505477905273438e-01) (50, 8.18319857120513916016e-01) (51, 1.98778271675109863281e-01) (52, 2.98894315958023071289e-01) (53, -3.76054018735885620117e-01) (54, -2.69761419296264648438e+00) (55, -2.27238386869430541992e-01) (56, 8.37106257677078247070e-02) (57, -9.57931935787200927734e-01) (58, 7.97304332256317138672e-01) (59, 3.00615876913070678711e-01) (60, 3.18669945001602172852e-01) (61, 1.22951261699199676514e-01) (62, 4.11192744970321655273e-01) (63, 4.03714209794998168945e-01) (64, 3.12743008136749267578e-01) (65, 8.10241758823394775391e-01) (31, -4.26235735416412353516e-01) (32, 5.75910322368144989014e-02) (33, 3.53035211563110351562e-01) (34, -3.79128307104110717773e-01) (35, 1.92036256194114685059e-01) (36, 1.48110076785087585449e-01) (37, -1.25337451696395874023e-01) (38, 5.29944121837615966797e-01) (39, 5.11270046234130859375e-01) (40, 3.24530243873596191406e-01) (41, -1.44998013973236083984e+00) (42, 1.05375218391418457031e+00) (43, 3.37279066443443298340e-02) (44, 7.71267890930175781250e-01) (45, 1.68577343225479125977e-01) (46, -8.37865710258483886719e-01) (47, -3.53278607130050659180e-01) (48, 4.31497049331665039062e+00) (49, -3.39700877666473388672e-01) (50, 6.68316558003425598145e-02) (51, 3.84183883666992187500e-01) (52, 1.11212804913520812988e-01) (53, -6.10450282692909240723e-02) (54, -9.97874513268470764160e-02) (55, 5.21746456623077392578e-01) (56, -8.84830236434936523438e-01) (57, 2.19321548938751220703e-01) (58, 2.84595817327499389648e-01) (59, -1.13384675979614257812e+00) (60, 4.01457905769348144531e-01) (61, 1.03012752532958984375e+00) (62, 1.53731182217597961426e-01) (63, 9.60131064057350158691e-02) (64, -7.89726614952087402344e-01) (65, 9.93362963199615478516e-01) (31, -1.02970041334629058838e-02) (32, -4.24039661884307861328e-01) (33, -6.53985887765884399414e-02) (34, 6.98629796504974365234e-01) (35, 6.39943659305572509766e-01) (36, -7.44875892996788024902e-02) (37, 2.27076038718223571777e-01) (38, -4.53126505017280578613e-02) (39, -1.39650329947471618652e-01) (40, 9.63909402489662170410e-02) (41, 9.34741556644439697266e-01) (42, -7.03767478466033935547e-01) (43, 8.00128459930419921875e-01) (44, 1.42498547211289405823e-02) (45, 4.82031852006912231445e-01) (46, 8.90914082527160644531e-01) (47, -2.21610486507415771484e-01) (48, 1.76160752773284912109e-01) (49, 7.06903576850891113281e-01) (50, 7.84386396408081054688e-01) (51, 1.34809970855712890625e-01) (52, -1.73726022243499755859e-01) (53, -8.15238475799560546875e-01) (54, 2.20497429370880126953e-01) (55, -1.07168011367321014404e-01) (56, 4.66244906187057495117e-01) (57, 6.69127926230430603027e-02) (58, 5.20248174667358398438e-01) (59, 1.01786339282989501953e+00) (60, 1.10941505432128906250e+00) (61, -4.17906939983367919922e-02) (62, 5.34618377685546875000e-01) (63, 5.91464936733245849609e-01) (64, -4.28039222955703735352e-01) (65, 8.88082981109619140625e-02) (31, -1.06847740709781646729e-01) (32, -2.55465716123580932617e-01) (33, 3.21227222681045532227e-01) (34, -4.49652701616287231445e-01) (35, -1.91283360123634338379e-01) (36, 3.88247251510620117188e-01) (37, -3.35809439420700073242e-01) (38, 2.01592683792114257812e-01) (39, 1.70682221651077270508e-01) (40, 2.57991373538970947266e-01) (41, -1.57661139965057373047e-01) (42, 4.73871201276779174805e-01) (43, 2.36197218298912048340e-01) (44, 5.82205891609191894531e-01) (45, -2.16999083757400512695e-01) (46, -2.45737373828887939453e-01) (47, -1.63211569190025329590e-01) (48, -4.32086944580078125000e-01) (49, -2.66997128725051879883e-01) (50, -9.80574116110801696777e-02) (51, -2.23717853426933288574e-01) (52, 3.93343746662139892578e-01) (53, -3.26983034610748291016e-01) (54, 1.08497273921966552734e+00) (55, 6.42986238002777099609e-01) (56, -2.85001814365386962891e-01) (57, 4.83884066343307495117e-01) (58, -1.77958548069000244141e-01) (59, -1.78283497691154479980e-01) (60, 2.44638517498970031738e-01) (61, 6.54349505901336669922e-01) (62, 4.79052394628524780273e-01) (63, 3.37081164121627807617e-01) (64, -4.17740136384963989258e-01) (65, 7.30838060379028320312e-01) (31, 4.29470896720886230469e-01) (32, 8.21427631378173828125e+00) (33, -2.43336081504821777344e-01) (34, 2.12947696447372436523e-01) (35, 2.89467990398406982422e-01) (36, -4.37313109636306762695e-01) (37, 2.13811725378036499023e-01) (38, -3.57770532369613647461e-01) (39, 1.27260458469390869141e+00) (40, -4.41319257020950317383e-01) (41, 7.46488213539123535156e-01) (42, -2.05595940351486206055e-01) (43, 1.03247654438018798828e+00) (44, -3.04192781448364257812e-01) (45, 3.06279718875885009766e-01) (46, 3.38319182395935058594e-01) (47, 3.04976433515548706055e-01) (48, 3.32019269466400146484e-01) (49, 1.86569839715957641602e-01) (50, 9.04463946819305419922e-01) (51, 5.06987869739532470703e-01) (52, -5.22612512111663818359e-01) (53, 2.35183811187744140625e+00) (54, -3.53944373130798339844e+00) (55, 1.75177380442619323730e-01) (56, 4.03764396905899047852e-01) (57, -4.69496250152587890625e-01) (58, 1.30988240242004394531e-01) (59, 8.46130907535552978516e-01) (60, 4.29914683103561401367e-01) (61, 2.72597908973693847656e-01) (62, -5.10044932365417480469e-01) (63, -4.46665078401565551758e-01) (64, 2.05190584063529968262e-01) (65, 4.20189380645751953125e-01) (31, 2.97352433204650878906e-01) (32, 9.62426960468292236328e-01) (33, 1.82353965938091278076e-02) (34, 7.16903984546661376953e-01) (35, 3.52724909782409667969e-01) (36, -4.14176255464553833008e-01) (37, 2.14849546551704406738e-01) (38, -2.22013688087463378906e+00) (39, 9.86203134059906005859e-01) (40, 1.61254063248634338379e-01) (41, 3.15869450569152832031e-01) (42, -2.90674120187759399414e-01) (43, 1.14954876899719238281e+00) (44, -2.37393472343683242798e-02) (45, 6.49896800518035888672e-01) (46, 8.53663682937622070312e-01) (47, 3.11027467250823974609e-01) (48, 5.20137071609497070312e-01) (49, 2.58053392171859741211e-01) (50, 1.65416967868804931641e+00) (51, 6.17521181702613830566e-02) (52, -4.34361010789871215820e-01) (53, 2.32343769073486328125e+00) (54, -5.73067760467529296875e+00) (55, -1.07156172394752502441e-01) (56, -1.59061297774314880371e-01) (57, -1.66555285453796386719e-01) (58, 1.85974463820457458496e-01) (59, 9.11503434181213378906e-01) (60, 7.96523332595825195312e-01) (61, -3.64204123616218566895e-02) (62, -3.49773496389389038086e-01) (63, -2.48135194182395935059e-01) (64, 5.50826609134674072266e-01) (65, 3.69829505681991577148e-01) (31, 3.26106429100036621094e-01) (32, 1.35612040758132934570e-01) (33, -1.98656216263771057129e-01) (34, 2.27363324165344238281e+00) (35, -1.38420909643173217773e-01) (36, 5.06150662899017333984e-01) (37, -2.67303466796875000000e-01) (38, -1.28884866833686828613e-01) (39, 2.08063930273056030273e-01) (40, -1.27764344215393066406e-01) (41, 1.26619130373001098633e-01) (42, -3.48892249166965484619e-02) (43, -3.59226435422897338867e-01) (44, -6.85116827487945556641e-01) (45, -1.96611493825912475586e-01) (46, -3.50871533155441284180e-02) (47, -4.07741010189056396484e-01) (48, -8.28196942806243896484e-01) (49, -2.63010382652282714844e-01) (50, 4.48140949010848999023e-01) (51, -5.59961318969726562500e-01) (52, 5.36128580570220947266e-01) (53, 8.20675641298294067383e-02) (54, -6.59443473815917968750e+00) (55, 6.32701039314270019531e-01) (56, -1.27508020401000976562e+00) (57, -2.50611829757690429688e+00) (58, -3.96808505058288574219e-01) (59, -4.76668864488601684570e-01) (60, -1.92755654454231262207e-01) (61, 5.23825764656066894531e-01) (62, 4.23895865678787231445e-01) (63, 3.75039368867874145508e-01) (64, -4.78524863719940185547e-02) (65, 5.92475831508636474609e-01) (31, 4.36491727828979492188e-01) (32, 4.52209889888763427734e-01) (33, 2.98596411943435668945e-01) (34, -3.22349905967712402344e-01) (35, 1.02814424037933349609e+00) (36, 4.09468293190002441406e-01) (37, 1.10361409187316894531e+00) (38, 1.29162991046905517578e+00) (39, 1.65689334273338317871e-01) (40, 2.27419584989547729492e-01) (41, 5.00695824623107910156e-01) (42, 2.52950668334960937500e-01) (43, 3.02771836519241333008e-01) (44, -3.88228201866149902344e+00) (45, 3.39006233215332031250e+00) (46, -6.27206191420555114746e-02) (47, -1.71801716089248657227e-01) (48, 2.93335700035095214844e+00) (49, 1.14688539505004882812e+00) (50, 3.06236237287521362305e-01) (51, 5.53713500499725341797e-01) (52, 3.39622229337692260742e-01) (53, 6.15041553974151611328e-01) (54, -1.68989133834838867188e+00) (55, -5.80529868602752685547e-01) (56, 6.83187365531921386719e-01) (57, -2.28055238723754882812e+00) (58, 3.31253385543823242188e+00) (59, 1.10725965350866317749e-02) (60, -4.53151851892471313477e-01) (61, -5.43417513370513916016e-01) (62, 3.90475124120712280273e-01) (63, 2.91250407695770263672e-01) (64, 7.08957135677337646484e-01) (65, -5.29552221298217773438e-01) (31, 8.87505650520324707031e-01) (32, -1.98774051666259765625e+00) (33, 1.61758880130946636200e-03) (34, 1.14033925533294677734e+00) (35, 8.42625081539154052734e-01) (36, 1.61994859576225280762e-01) (37, 5.14735460281372070312e-01) (38, 3.19305419921875000000e+00) (39, 3.05410265922546386719e-01) (40, -1.44227638840675354004e-01) (41, 1.88429319858551025391e+00) (42, -1.32890284061431884766e-01) (43, 5.51114857196807861328e-01) (44, -2.27779412269592285156e+00) (45, 7.19672620296478271484e-01) (46, -2.41075205802917480469e+00) (47, 4.99400496482849121094e-01) (48, 7.27301657199859619141e-01) (49, 7.14071929454803466797e-01) (50, -3.35261523723602294922e-01) (51, 2.80248969793319702148e-01) (52, 1.24879747629165649414e-01) (53, 1.94425606727600097656e+00) (54, 3.76646071672439575195e-01) (55, -3.32854717969894409180e-01) (56, -5.09306526184082031250e+00) (57, -4.35460180044174194336e-01) (58, 5.99745094776153564453e-01) (59, 2.61692851781845092773e-01) (60, -2.50182271003723144531e+00) (61, -3.12761127948760986328e-01) (62, 7.41904675960540771484e-01) (63, 9.44384187459945678711e-02) (64, 1.12459266185760498047e+00) (65, -1.84101477265357971191e-01) (31, 6.45478904247283935547e-01) (32, 6.12526357173919677734e-01) (33, 1.38555064797401428223e-01) (34, 8.41156065464019775391e-01) (35, 5.29644370079040527344e-01) (36, 1.46264642477035522461e-01) (37, 6.88627779483795166016e-01) (38, 1.08146178722381591797e+00) (39, 4.82709228992462158203e-01) (40, 1.17520242929458618164e-01) (41, 4.37729110717773437500e+01) (42, 1.50636899471282958984e+00) (43, 6.21068120002746582031e-01) (44, 8.06257629394531250000e+00) (45, 5.47860324382781982422e-01) (46, 8.52157294750213623047e-01) (47, -8.54121267795562744141e-01) (48, -1.39242029190063476562e+00) (49, 6.25355660915374755859e-01) (50, -1.70037150382995605469e-03) (51, 3.98917913436889648438e-01) (52, 1.27555713057518005371e-01) (53, 5.69734811782836914062e-01) (54, 7.26021111011505126953e-01) (55, 9.12004336714744567871e-02) (56, 1.32463598251342773438e+00) (57, -1.65343105792999267578e-01) (58, 6.90817594528198242188e-01) (59, 3.51624917984008789062e+00) (60, -1.11291088163852691650e-01) (61, 3.35286185145378112793e-02) (62, 1.63101717829704284668e-01) (63, 9.51110348105430603027e-02) (64, 4.37159210443496704102e-01) (65, 3.85455787181854248047e-02) (31, 4.07906800508499145508e-01) (32, 1.46753117442131042480e-01) (33, -3.46114248037338256836e-01) (34, 5.47384798526763916016e-01) (35, 3.97112756967544555664e-01) (36, -1.09453745186328887939e-01) (37, 6.87726974487304687500e-01) (38, 1.89564153552055358887e-01) (39, 7.32167899608612060547e-01) (40, -2.00929194688796997070e-01) (41, 8.09570908546447753906e-01) (42, 4.06111121177673339844e-01) (43, 8.15330982208251953125e-01) (44, -3.91420555114746093750e+00) (45, 2.43361070752143859863e-01) (46, 4.83209580183029174805e-01) (47, 2.52577841281890869141e-01) (48, 8.15441966056823730469e-01) (49, 2.27657645940780639648e-01) (50, 8.44574213027954101562e-01) (51, -1.98372796177864074707e-01) (52, -8.90302807092666625977e-02) (53, 2.86199837923049926758e-01) (54, -8.45558702945709228516e-01) (55, 3.55698049068450927734e-01) (56, -1.87385964393615722656e+00) (57, -5.45499026775360107422e-01) (58, 3.54748725891113281250e-01) (59, 1.40394723415374755859e+00) (60, 7.84505248069763183594e-01) (61, 1.85450479388236999512e-01) (62, -1.50571674108505249023e-01) (63, -1.63816809654235839844e-01) (64, 6.58012390136718750000e-01) (65, 2.18326821923255920410e-01) (31, -2.04909712076187133789e-01) (32, 2.45212003588676452637e-01) (33, -3.30087065696716308594e-01) (34, 1.23910484835505485535e-02) (35, 2.08775803446769714355e-01) (36, -1.83076843619346618652e-01) (37, -6.78288578987121582031e-01) (38, 5.94471979141235351562e+00) (39, 7.92133271694183349609e-01) (40, -1.44609972834587097168e-01) (41, -1.10443532466888427734e+00) (42, 2.58375853300094604492e-01) (43, 7.89707303047180175781e-01) (44, -3.32789495587348937988e-02) (45, 2.25094974040985107422e-01) (46, -2.32652395963668823242e-01) (47, 1.48935899138450622559e-01) (48, -1.71340694427490234375e+01) (49, 2.26396590471267700195e-01) (50, 7.58010327816009521484e-01) (51, 8.99393379688262939453e-01) (52, -1.95627242326736450195e-01) (53, 1.85033902525901794434e-01) (54, 3.12813305854797363281e+00) (55, 4.44829791784286499023e-01) (56, -1.92965965270996093750e+01) (57, -2.39524602890014648438e-01) (58, 1.99359387159347534180e-01) (59, 2.16662004590034484863e-01) (60, -1.99735832214355468750e+01) (61, 3.48512232303619384766e-01) (62, -2.27207362651824951172e-01) (63, -7.58956670761108398438e-02) (64, -2.50329065322875976562e+00) (65, 3.66489201784133911133e-01) (31, -2.91757762432098388672e-01) (32, -1.09886955469846725464e-02) (33, 2.11749404668807983398e-01) (34, -2.35058844089508056641e-01) (35, -3.14594864845275878906e-01) (36, 4.07694309949874877930e-01) (37, -2.97507405281066894531e-01) (38, 9.29593801498413085938e-01) (39, 3.04760515689849853516e-01) (40, 2.15891182422637939453e-01) (41, -1.77393093705177307129e-01) (42, 6.32767796516418457031e-01) (43, 2.42876216769218444824e-01) (44, 2.01982911676168441772e-02) (45, -3.29574078321456909180e-01) (46, -4.56147462129592895508e-01) (47, -3.26732277870178222656e-01) (48, -3.33573222160339355469e-01) (49, -2.75132656097412109375e-01) (50, 1.73330858349800109863e-01) (51, 2.36787259578704833984e-01) (52, 4.41132754087448120117e-01) (53, -5.20617067813873291016e-01) (54, 2.58207887411117553711e-01) (55, 8.02725255489349365234e-01) (56, -3.14772546291351318359e-01) (57, 1.84627026319503784180e-01) (58, -2.38152757287025451660e-01) (59, -4.66110646724700927734e-01) (60, 2.78864234685897827148e-01) (61, 7.11611747741699218750e-01) (62, 2.98085093498229980469e-01) (63, 4.32954400777816772461e-01) (64, -2.35455647110939025879e-01) (65, 7.70911753177642822266e-01) (31, -4.00253176689147949219e-01) (32, 1.76722660660743713379e-01) (33, 4.02112960815429687500e-01) (34, -1.31591701507568359375e+00) (35, -5.22773787379264831543e-02) (36, 2.53591835498809814453e-01) (37, -2.59877331554889678955e-02) (38, -1.16824068129062652588e-01) (39, 4.10766631364822387695e-01) (40, 3.47785860300064086914e-01) (41, -5.67567672729492187500e+01) (42, 1.59427419304847717285e-01) (43, 4.43011015653610229492e-01) (44, 8.26598072052001953125e+00) (45, 1.39947161078453063965e-01) (46, -3.25502425432205200195e-01) (47, -5.63139319419860839844e-01) (48, 7.69073152542114257812e+00) (49, -7.54995122551918029785e-02) (50, 4.02224391698837280273e-01) (51, 3.70689541101455688477e-01) (52, 2.28848099708557128906e-01) (53, -1.73690795898437500000e-01) (54, -2.58651912212371826172e-01) (55, 7.28530764579772949219e-01) (56, -5.57997703552246093750e-01) (57, 5.20489573478698730469e-01) (58, 3.74655351042747497559e-02) (59, -1.09506368637084960938e+01) (60, 3.34468984603881835938e+00) (61, 8.24681580066680908203e-01) (62, -2.11459279060363769531e-01) (63, -1.07846364378929138184e-01) (64, -9.35117721557617187500e+00) (65, 8.64943385124206542969e-01) (66, 7.23239257931709289551e-02) (67, 3.41652601957321166992e-01) (68, 5.96791505813598632812e-01) (69, 8.57158154249191284180e-02) (70, -3.29977720975875854492e-02) (71, 3.53343605995178222656e-01) (72, 3.45653474330902099609e-01) (73, -1.14065900444984436035e-01) (74, -2.54590809345245361328e-01) (75, 4.10553276538848876953e-01) (76, 9.55193489789962768555e-02) (77, 9.70873981714248657227e-02) (78, -5.94860985875129699707e-02) (79, 1.98560416698455810547e-01) (80, 3.60807701945304870605e-02) (81, 1.73508841544389724731e-02) (82, -3.73641550540924072266e-02) (83, 1.10649242997169494629e-01) (84, 3.62380117177963256836e-01) (85, -3.98387201130390167236e-02) (86, 1.40900254249572753906e-01) (87, 3.87430816888809204102e-01) (88, 1.69507227838039398193e-02) (89, 5.07031440734863281250e-01) (90, 1.26523962244391441345e-02) (91, 5.89788556098937988281e-01) (92, 4.10120397806167602539e-01) (93, 5.99438846111297607422e-01) (94, -1.03578694164752960205e-01) (95, 1.11346876621246337891e+00) (96, -7.60849341750144958496e-02) (97, 3.50093632936477661133e-01) (98, 7.24791705608367919922e-01) (99, -1.06376856565475463867e-01) (100, 4.56290394067764282227e-01) (101, -1.97039827704429626465e-01) (102, 2.35302537679672241211e-01) (103, -2.49255727976560592651e-02) (104, 5.53966224193572998047e-01) (105, 2.81863123178482055664e-01) (106, 5.75040876865386962891e-01) (66, -3.08999776840209960938e+00) (67, 2.48737156391143798828e-01) (68, 1.01549312472343444824e-01) (69, -2.91238570213317871094e+00) (70, -4.36292812228202819824e-02) (71, 6.83235585689544677734e-01) (72, -7.78971195220947265625e-01) (73, -5.98630666732788085938e-01) (74, -2.03234463930130004883e-01) (75, 7.86935150623321533203e-01) (76, 2.58996307849884033203e-01) (77, -1.53148245811462402344e+00) (78, 1.99431791901588439941e-01) (79, -3.93784070014953613281e+00) (80, 3.21132659912109375000e-01) (81, 6.55330717563629150391e-01) (82, 9.74572062492370605469e-01) (83, 3.98218899965286254883e-01) (84, 3.16945075988769531250e-01) (85, -5.19448578357696533203e-01) (86, 1.19047486782073974609e+00) (87, -2.24825397133827209473e-01) (88, 6.79019689559936523438e+00) (89, 1.70474255084991455078e+00) (90, 8.90936076641082763672e-01) (91, 2.52661168575286865234e-01) (92, 5.00012814998626708984e-01) (93, -7.63997411727905273438e+00) (94, -3.15176439285278320312e+00) (95, 7.73682653903961181641e-01) (96, -4.32349324226379394531e-01) (97, -3.38849335908889770508e-01) (98, 3.96199047565460205078e-01) (99, 7.00352847576141357422e-01) (100, 8.68250131607055664062e-01) (101, 2.65008449554443359375e+00) (102, 1.74343287944793701172e-01) (103, -1.65028142929077148438e+00) (104, 1.14396512508392333984e+00) (105, 1.16633105278015136719e+00) (106, -1.54900208115577697754e-01) (66, -2.66921103000640869141e-01) (67, 1.70454919338226318359e+00) (68, 7.90274083614349365234e-01) (69, -2.86239194869995117188e+00) (70, 3.90244096517562866211e-01) (71, 3.05328607559204101562e-01) (72, 5.27561962604522705078e-01) (73, 2.08818446844816207886e-03) (74, 2.23969340324401855469e-01) (75, 3.83715704083442687988e-02) (76, 7.29317069053649902344e-01) (77, -2.29475945234298706055e-01) (78, 2.06032848358154296875e+00) (79, 1.21751928329467773438e+01) (80, -2.04094916582107543945e-01) (81, -6.52466267347335815430e-02) (82, -2.33553778380155563354e-02) (83, 3.99996936321258544922e-01) (84, 8.93681347370147705078e-02) (85, 2.97374039888381958008e-01) (86, 1.53316840529441833496e-01) (87, 8.32587659358978271484e-01) (88, -1.45288145542144775391e+00) (89, 1.48828744888305664062e+00) (90, -2.70357877016067504883e-02) (91, 9.15002107620239257812e-01) (92, 3.05550955235958099365e-02) (93, 4.12679576873779296875e+00) (94, 5.91098517179489135742e-02) (95, 1.98727810382843017578e+00) (96, 2.97122389078140258789e-01) (97, -8.94615426659584045410e-03) (98, 3.79638385772705078125e+00) (99, -2.40731224417686462402e-01) (100, -2.21970021724700927734e-01) (101, -4.99190837144851684570e-02) (102, 8.68342161178588867188e-01) (103, 9.23940360546112060547e-01) (104, 3.48458379507064819336e-01) (105, 5.36523878574371337891e-01) (106, 8.48895132541656494141e-01) (66, -5.10887801647186279297e-01) (67, 1.47228822112083435059e-01) (68, 5.00043332576751708984e-01) (69, 1.05446910858154296875e+00) (70, 3.35319370031356811523e-01) (71, 1.54040768742561340332e-01) (72, -8.79366457462310791016e-01) (73, 5.81335872411727905273e-02) (74, 3.12494009733200073242e-01) (75, 7.05008447170257568359e-01) (76, 3.69670242071151733398e-01) (77, 5.51908075809478759766e-01) (78, 3.37630845606327056885e-02) (79, -1.57345324754714965820e-01) (80, 1.29210904240608215332e-01) (81, 1.03389777243137359619e-01) (82, 3.53040367364883422852e-01) (83, 1.95424363017082214355e-01) (84, 2.70907670259475708008e-01) (85, -2.42696493864059448242e-01) (86, -1.74494273960590362549e-02) (87, 4.59064722061157226562e-01) (88, 3.11071872711181640625e-02) (89, 8.72244060039520263672e-01) (90, 4.74262833595275878906e-02) (91, 3.24743032455444335938e-01) (92, 4.80592131614685058594e-01) (93, 2.41161867976188659668e-01) (94, 1.77096039056777954102e-01) (95, 9.47764217853546142578e-01) (96, 3.25338423252105712891e-01) (97, -3.70108246803283691406e-01) (98, 8.17598879337310791016e-01) (99, 2.41074785590171813965e-01) (100, 2.37222045660018920898e-01) (101, 3.39037895202636718750e-01) (102, 1.81230664253234863281e-01) (103, 7.16651499271392822266e-01) (104, 6.14464759826660156250e-01) (105, 2.97499448060989379883e-01) (106, 5.58969378471374511719e-01) (66, -8.06078016757965087891e-01) (67, 2.46278181672096252441e-01) (68, 4.63607281446456909180e-01) (69, -5.03115534782409667969e-01) (70, 1.53107851743698120117e-01) (71, 1.11847674846649169922e+00) (72, -3.42710226774215698242e-01) (73, -2.70006299018859863281e-01) (74, 8.10849010944366455078e-01) (75, -8.15641507506370544434e-02) (76, 2.80598789453506469727e-01) (77, 6.36913359165191650391e-01) (78, 3.52610373497009277344e+00) (79, -1.59947294741868972778e-02) (80, 1.13040894269943237305e-01) (81, 3.07455092668533325195e-01) (82, 2.25504547357559204102e-01) (83, 6.34196519851684570312e-01) (84, 4.95103865861892700195e-01) (85, 3.86495351791381835938e-01) (86, 6.16033375263214111328e-01) (87, 4.25115853548049926758e-01) (88, 6.04594826698303222656e-01) (89, 1.00522923469543457031e+00) (90, 3.98587644100189208984e-01) (91, 3.45155656337738037109e-01) (92, -1.37569263577461242676e-01) (93, 5.49797236919403076172e-01) (94, -3.87908041477203369141e-01) (95, -1.27251118421554565430e-01) (96, 2.99155354499816894531e-01) (97, 7.18685328960418701172e-01) (98, 3.38457942008972167969e-01) (99, 4.66893136501312255859e-01) (100, 6.09135866165161132812e-01) (101, 4.56030189990997314453e-01) (102, 4.23435240983963012695e-01) (103, 6.33082211017608642578e-01) (104, -8.07515680789947509766e-01) (105, 4.17283356189727783203e-01) (106, 3.49301606416702270508e-01) (66, 2.59363293647766113281e-01) (67, -3.55680108070373535156e+00) (68, -4.38949763774871826172e-01) (69, 2.13050007820129394531e+00) (70, -3.25791001319885253906e-01) (71, -5.72827681899070739746e-02) (72, 1.09535992145538330078e-01) (73, 6.73079609870910644531e-01) (74, -7.28378742933273315430e-02) (75, 1.47282600402832031250e+00) (76, 1.11025989055633544922e-01) (77, -4.81942534446716308594e-01) (78, 1.45788729190826416016e-01) (79, 5.41126914322376251221e-02) (80, 9.03466522693634033203e-01) (81, 8.55154395103454589844e-01) (82, 9.23634648323059082031e-01) (83, 1.00857782363891601562e+00) (84, 7.65274912118911743164e-02) (85, -6.96523427963256835938e-01) (86, -1.75741946697235107422e+00) (87, -2.10847362875938415527e-01) (88, -2.03530669212341308594e+00) (89, -8.02857995033264160156e-01) (90, 7.36579537391662597656e-01) (91, -2.82129108905792236328e-01) (92, 6.10984623432159423828e-01) (93, 1.69131016731262207031e+00) (94, 6.23570561408996582031e-01) (95, 6.12492024898529052734e-01) (96, -2.00803756713867187500e-01) (97, -1.66461035609245300293e-01) (98, -2.00930309295654296875e+00) (99, 7.89179861545562744141e-01) (100, 1.01655793190002441406e+00) (101, -7.63400197029113769531e-01) (102, 1.33741521835327148438e+00) (103, 1.00220322608947753906e+00) (104, 4.62975859642028808594e-01) (105, 3.89818847179412841797e-01) (106, -3.89977723360061645508e-01) (66, -2.83085203170776367188e+00) (67, 5.33887445926666259766e-01) (68, 2.17239588499069213867e-01) (69, 6.87830030918121337891e-01) (70, 2.84984856843948364258e-01) (71, 1.24246954917907714844e+00) (72, 6.13686442375183105469e-01) (73, 2.83377265930175781250e+00) (74, 3.35579323768615722656e+00) (75, -1.35181948542594909668e-01) (76, 8.08744251728057861328e-01) (77, 5.74493587017059326172e-01) (78, 3.11432862281799316406e+00) (79, 7.45236754417419433594e-01) (80, 4.73113730549812316895e-02) (81, 2.11429391056299209595e-02) (82, 3.31083148717880249023e-01) (83, 1.64424538612365722656e+00) (84, 1.80920624732971191406e+00) (85, 6.41447663307189941406e-01) (86, -1.44965791702270507812e+01) (87, 2.37455144524574279785e-01) (88, 3.27021121978759765625e-01) (89, -7.09449052810668945312e-01) (90, -6.50877356529235839844e-02) (91, 6.26842737197875976562e-01) (92, 1.49132221937179565430e-01) (93, -5.17900884151458740234e-01) (94, 5.58508694171905517578e-01) (95, -1.29392132163047790527e-01) (96, 5.17183959484100341797e-01) (97, 5.70245742797851562500e-01) (98, 6.17608785629272460938e-01) (99, 4.88675862550735473633e-01) (100, 4.44028705358505249023e-01) (101, 9.52053427696228027344e-01) (102, 9.80657935142517089844e-01) (103, 6.40220403671264648438e-01) (104, 1.28269210457801818848e-01) (105, 5.53890943527221679688e-01) (106, 7.10394561290740966797e-01) (66, 2.00564527511596679688e+00) (67, 2.03177973628044128418e-01) (68, 5.29579073190689086914e-02) (69, 1.45119786262512207031e-01) (70, 6.63638636469841003418e-02) (71, -7.75767788290977478027e-02) (72, -3.13816547393798828125e+00) (73, 2.53454446792602539062e-01) (74, 1.54412257671356201172e+00) (75, 4.46432195603847503662e-02) (76, 