FANN_FLO_2.1
num_layers=3
learning_rate=0.700000
connection_rate=1.000000
network_type=0
learning_momentum=0.000000
training_algorithm=2
train_error_function=1
train_stop_function=0
cascade_output_change_fraction=0.010000
quickprop_decay=-0.000100
quickprop_mu=1.750000
rprop_increase_factor=1.200000
rprop_decrease_factor=0.500000
rprop_delta_min=0.000000
rprop_delta_max=50.000000
rprop_delta_zero=0.100000
cascade_output_stagnation_epochs=12
cascade_candidate_change_fraction=0.010000
cascade_candidate_stagnation_epochs=12
cascade_max_out_epochs=150
cascade_max_cand_epochs=150
cascade_num_candidate_groups=2
bit_fail_limit=3.49999994039535522461e-01
cascade_candidate_limit=1.00000000000000000000e+03
cascade_weight_multiplier=4.00000005960464477539e-01
cascade_activation_functions_count=10
cascade_activation_functions=3 5 7 8 10 11 14 15 16 17 
cascade_activation_steepnesses_count=4
cascade_activation_steepnesses=2.50000000000000000000e-01 5.00000000000000000000e-01 7.50000000000000000000e-01 1.00000000000000000000e+00 
layer_sizes=31 33 55 
scale_included=0
neurons (num_inputs, activation_function, activation_steepness)=(0, 0, 0.00000000000000000000e+00) (0, 0, 0.00000000000000000000e+00) (0, 0, 0.00000000000000000000e+00) (0, 0, 0.00000000000000000000e+00) (0, 0, 0.00000000000000000000e+00) (0, 0, 0.00000000000000000000e+00) (0, 0, 0.00000000000000000000e+00) (0, 0, 0.00000000000000000000e+00) (0, 0, 0.00000000000000000000e+00) (0, 0, 0.00000000000000000000e+00) (0, 0, 0.00000000000000000000e+00) (0, 0, 0.00000000000000000000e+00) (0, 0, 0.00000000000000000000e+00) (0, 0, 0.00000000000000000000e+00) (0, 0, 0.00000000000000000000e+00) (0, 0, 0.00000000000000000000e+00) (0, 0, 0.00000000000000000000e+00) (0, 0, 0.00000000000000000000e+00) (0, 0, 0.00000000000000000000e+00) (0, 0, 0.00000000000000000000e+00) (0, 0, 0.00000000000000000000e+00) (0, 0, 0.00000000000000000000e+00) (0, 0, 0.00000000000000000000e+00) (0, 0, 0.00000000000000000000e+00) (0, 0, 0.00000000000000000000e+00) (0, 0, 0.00000000000000000000e+00) (0, 0, 0.00000000000000000000e+00) (0, 0, 0.00000000000000000000e+00) (0, 0, 0.00000000000000000000e+00) (0, 0, 0.00000000000000000000e+00) (0, 0, 0.00000000000000000000e+00) (31, 4, 5.00000000000000000000e-01) (31, 4, 5.00000000000000000000e-01) (31, 4, 5.00000000000000000000e-01) (31, 4, 5.00000000000000000000e-01) (31, 4, 5.00000000000000000000e-01) (31, 4, 5.00000000000000000000e-01) (31, 4, 5.00000000000000000000e-01) (31, 4, 5.00000000000000000000e-01) (31, 4, 5.00000000000000000000e-01) (31, 4, 5.00000000000000000000e-01) (31, 4, 5.00000000000000000000e-01) (31, 4, 5.00000000000000000000e-01) (31, 4, 5.00000000000000000000e-01) (31, 4, 5.00000000000000000000e-01) (31, 4, 5.00000000000000000000e-01) (31, 4, 5.00000000000000000000e-01) (31, 4, 5.00000000000000000000e-01) (31, 4, 5.00000000000000000000e-01) (31, 4, 5.00000000000000000000e-01) (31, 4, 5.00000000000000000000e-01) (31, 4, 5.00000000000000000000e-01) (31, 4, 5.00000000000000000000e-01) (31, 4, 5.00000000000000000000e-01) (31, 4, 5.00000000000000000000e-01) (31, 4, 5.00000000000000000000e-01) (31, 4, 5.00000000000000000000e-01) (31, 4, 5.00000000000000000000e-01) (31, 4, 5.00000000000000000000e-01) (31, 4, 5.00000000000000000000e-01) (31, 4, 5.00000000000000000000e-01) (31, 4, 5.00000000000000000000e-01) (31, 4, 5.00000000000000000000e-01) (0, 0, 0.00000000000000000000e+00) (33, 4, 2.19999998807907104492e-01) (33, 4, 2.19999998807907104492e-01) (33, 4, 2.19999998807907104492e-01) (33, 4, 2.19999998807907104492e-01) (33, 4, 2.19999998807907104492e-01) (33, 4, 2.19999998807907104492e-01) (33, 4, 2.19999998807907104492e-01) (33, 4, 2.19999998807907104492e-01) (33, 4, 2.19999998807907104492e-01) (33, 4, 2.19999998807907104492e-01) (33, 4, 2.19999998807907104492e-01) (33, 4, 2.19999998807907104492e-01) (33, 4, 2.19999998807907104492e-01) (33, 4, 2.19999998807907104492e-01) (33, 4, 2.19999998807907104492e-01) (33, 4, 2.19999998807907104492e-01) (33, 4, 2.19999998807907104492e-01) (33, 4, 2.19999998807907104492e-01) (33, 4, 2.19999998807907104492e-01) (33, 4, 2.19999998807907104492e-01) (33, 4, 2.19999998807907104492e-01) (33, 4, 2.19999998807907104492e-01) (33, 4, 2.19999998807907104492e-01) (33, 4, 2.19999998807907104492e-01) (33, 4, 2.19999998807907104492e-01) (33, 4, 2.19999998807907104492e-01) (33, 4, 2.19999998807907104492e-01) (33, 4, 2.19999998807907104492e-01) (33, 4, 2.19999998807907104492e-01) (33, 4, 2.19999998807907104492e-01) (33, 4, 2.19999998807907104492e-01) (33, 4, 2.19999998807907104492e-01) (33, 4, 2.19999998807907104492e-01) (33, 4, 2.19999998807907104492e-01) (33, 4, 2.19999998807907104492e-01) (33, 4, 2.19999998807907104492e-01) (33, 4, 2.19999998807907104492e-01) (33, 4, 2.19999998807907104492e-01) (33, 4, 2.19999998807907104492e-01) (33, 4, 2.19999998807907104492e-01) (33, 4, 2.19999998807907104492e-01) (33, 4, 2.19999998807907104492e-01) (33, 4, 2.19999998807907104492e-01) (33, 4, 2.19999998807907104492e-01) (33, 4, 2.19999998807907104492e-01) (33, 4, 2.19999998807907104492e-01) (33, 4, 2.19999998807907104492e-01) (33, 4, 2.19999998807907104492e-01) (33, 4, 2.19999998807907104492e-01) (33, 4, 2.19999998807907104492e-01) (33, 4, 2.19999998807907104492e-01) (33, 4, 2.19999998807907104492e-01) (33, 4, 2.19999998807907104492e-01) (33, 4, 2.19999998807907104492e-01) (0, 0, 2.19999998807907104492e-01) 
connections (connected_to_neuron, weight)=(0, 5.37514328956604003906e-01) (1, 2.49797973632812500000e+01) (2, -4.21942901611328125000e+01) (3, -5.12675237655639648438e+00) (4, -5.50899934768676757812e+00) (5, -4.78825956583023071289e-01) (6, -6.24674224853515625000e+00) (7, -6.58080339431762695312e-01) (8, 1.23965770006179809570e-01) (9, -3.87329101562500000000e-01) (10, 1.35574138164520263672e+00) (11, 2.84308505058288574219e+00) (12, 1.32082116603851318359e+00) (13, 1.63023078441619873047e+00) (14, 6.86552941799163818359e-01) (15, 3.45815658569335937500e+00) (16, 1.44215595722198486328e+00) (17, -5.12921661138534545898e-02) (18, -3.04171949625015258789e-01) (19, 1.61018356680870056152e-01) (20, 4.41409170627593994141e-01) (21, -2.40494340658187866211e-01) (22, -1.45314559340476989746e-01) (23, 4.30619940161705017090e-02) (24, 1.21325381100177764893e-01) (25, -4.71472322940826416016e-01) (26, -9.65906798839569091797e-01) (27, -7.43683457374572753906e-01) (28, -2.42320954799652099609e-01) (29, 4.17285785079002380371e-02) (30, -2.51835107803344726562e-01) (0, 4.32976335287094116211e-01) (1, 2.35579538345336914062e+00) (2, 3.55686426162719726562e+00) (3, -5.29658269882202148438e+00) (4, 3.83605885505676269531e+00) (5, -5.04153668880462646484e-01) (6, -1.73651111125946044922e+00) (7, 4.24093693494796752930e-01) (8, 5.19458770751953125000e-01) (9, -1.06703460216522216797e+00) (10, 8.70607078075408935547e-01) (11, 1.27297472953796386719e+00) (12, 1.25234341621398925781e+00) (13, -3.50019395351409912109e-01) (14, -5.89461982250213623047e-01) (15, -1.46827101707458496094e+00) (16, -1.00017942488193511963e-01) (17, -1.66560500860214233398e-01) (18, -6.51178300380706787109e-01) (19, -5.86564019322395324707e-02) (20, -1.21670208871364593506e-01) (21, -7.85999000072479248047e-01) (22, -2.41638228297233581543e-01) (23, 4.55168664455413818359e-01) (24, -2.47186064720153808594e-01) (25, -3.94269600510597229004e-02) (26, 3.58790189027786254883e-01) (27, -4.34322416782379150391e-01) (28, -2.74491637945175170898e-01) (29, -3.10462445020675659180e-01) (30, -3.61562103033065795898e-01) (0, -1.33761962890625000000e+02) (1, -1.50000000000000000000e+03) (2, -1.49992163085937500000e+03) (3, -5.09949827194213867188e+00) (4, -6.47232866287231445312e+00) (5, -1.31409573554992675781e+00) (6, -6.11798950195312500000e+02) (7, -1.77713498473167419434e-01) (8, 8.49627256393432617188e-01) (9, -1.00195288658142089844e+00) (10, -1.28579132080078125000e+02) (11, -2.78229936957359313965e-02) (12, -1.16067814826965332031e+00) (13, -5.73012568056583404541e-02) (14, -1.06725418567657470703e+00) (15, 1.49002537131309509277e-01) (16, -2.02619314193725585938e-01) (17, -1.44750070571899414062e+00) (18, -8.95840823650360107422e-01) (19, -2.33934326171875000000e+02) (20, -9.97654125094413757324e-02) (21, -6.14510774612426757812e-01) (22, -3.91427040100097656250e+00) (23, 1.01346440613269805908e-01) (24, -1.78526356816291809082e-01) (25, -5.62438890337944030762e-02) (26, 5.62952160835266113281e-01) (27, -7.16207385063171386719e-01) (28, -7.84010171890258789062e-01) (29, -6.56752765178680419922e-01) (30, -6.72575891017913818359e-01) (0, -2.73980212211608886719e+00) (1, 1.70188033580780029297e+00) (2, -1.32474505901336669922e+00) (3, -5.32902479171752929688e+00) (4, -1.64323186874389648438e+00) (5, 9.95782852172851562500e-01) (6, -2.23679447174072265625e+00) (7, -2.04552888870239257812e-01) (8, 1.79467940330505371094e+00) (9, -1.42533826828002929688e+00) (10, -3.81687968969345092773e-01) (11, 3.18422079086303710938e+00) (12, -1.07623398303985595703e+00) (13, -1.26768648624420166016e-01) (14, 2.79793262481689453125e-01) (15, 1.26055955886840820312e-01) (16, -5.60849964618682861328e-01) (17, 1.32464602589607238770e-01) (18, 1.01262554526329040527e-01) (19, -2.09823027253150939941e-01) (20, 6.39473125338554382324e-02) (21, 5.61803042888641357422e-01) (22, -1.52989268302917480469e-01) (23, 1.68529510498046875000e-01) (24, -1.06739783287048339844e+00) (25, -1.62422239780426025391e-01) (26, 8.39809775352478027344e-01) (27, -5.18401741981506347656e-01) (28, -4.50469195842742919922e-01) (29, -4.54769223928451538086e-01) (30, -1.40204191207885742188e-01) (0, 2.82892942428588867188e+00) (1, 3.80009818077087402344e+00) (2, -1.50057325363159179688e+01) (3, -3.32133471965789794922e-01) (4, -3.65086227655410766602e-01) (5, -9.01313185691833496094e-01) (6, -2.30363202095031738281e+00) (7, -1.85379181057214736938e-02) (8, 1.30070924758911132812e+00) (9, -1.05826330184936523438e+00) (10, 1.16508460044860839844e+00) (11, 3.25413823127746582031e+00) (12, -6.89854145050048828125e-01) (13, 1.05216479301452636719e+00) (14, 2.10982650518417358398e-01) (15, 4.28517371416091918945e-01) (16, 1.67342650890350341797e+00) (17, 1.14092099666595458984e+00) (18, -1.07110667228698730469e+00) (19, -5.59286735951900482178e-02) (20, 1.00090050697326660156e+00) (21, -6.37786328792572021484e-01) (22, -1.76579862833023071289e-01) (23, 6.08312845230102539062e-01) (24, 4.52533587813377380371e-02) (25, -9.35845524072647094727e-02) (26, -1.56045585870742797852e-01) (27, -4.18569654226303100586e-01) (28, -9.94251668453216552734e-02) (29, -2.89676636457443237305e-01) (30, -5.66644906997680664062e-01) (0, 6.99076690673828125000e+01) (1, -4.27755775451660156250e+01) (2, -8.80154876708984375000e+01) (3, -2.30789288878440856934e-01) (4, -2.10238885879516601562e+00) (5, -1.52187023162841796875e+01) (6, 1.70637559890747070312e+00) (7, -6.18090629577636718750e+00) (8, 4.34230613708496093750e+00) (9, 2.93094778060913085938e+00) (10, -2.29889899492263793945e-01) (11, 7.85804510116577148438e-01) (12, 1.60297846794128417969e+00) (13, -1.63825333118438720703e-01) (14, -1.25966560840606689453e+00) (15, -1.40287172794342041016e+00) (16, 1.06271594762802124023e-01) (17, -7.88349360227584838867e-02) (18, -7.85349458456039428711e-02) (19, -7.50109478831291198730e-02) (20, -7.05632090568542480469e-01) (21, 3.33509780466556549072e-03) (22, -5.25271473452448844910e-03) (23, -7.07855284214019775391e-01) (24, 6.19574785232543945312e-01) (25, 2.05875658988952636719e+00) (26, 8.06106388568878173828e-01) (27, 5.18290512263774871826e-02) (28, 6.88467025756835937500e-02) (29, -1.81262612342834472656e-01) (30, 1.49701133370399475098e-01) (0, -2.96598291397094726562e+00) (1, 3.39776725769042968750e+01) (2, -1.09282188415527343750e+01) (3, -2.46105194091796875000e+00) (4, 9.46804165840148925781e-01) (5, -5.74937772750854492188e+00) (6, -2.96052455902099609375e+00) (7, 3.07490587234497070312e+00) (8, 7.09399795532226562500e+00) (9, -2.01704114675521850586e-01) (10, -1.68625011444091796875e+01) (11, -1.58568799495697021484e-01) (12, -1.84895664453506469727e-01) (13, 4.43773329257965087891e-01) (14, -9.27295267581939697266e-01) (15, -3.84175634384155273438e+00) (16, 1.60340532660484313965e-01) (17, 3.06133317947387695312e+00) (18, -5.11190056800842285156e-01) (19, -1.72340202331542968750e+00) (20, 2.39411607384681701660e-01) (21, -3.16453501582145690918e-02) (22, -6.80707171559333801270e-02) (23, 2.55869698524475097656e+00) (24, -1.51506051421165466309e-01) (25, 4.58673685789108276367e-02) (26, 2.20771145820617675781e+00) (27, 4.05187755823135375977e-02) (28, 1.90509617328643798828e-01) (29, 2.79768168926239013672e-01) (30, 9.42854732275009155273e-02) (0, 2.16333770751953125000e+01) (1, 1.02722520828247070312e+01) (2, -3.09392910003662109375e+01) (3, -4.52170896530151367188e+00) (4, -2.71306276321411132812e+00) (5, -8.32840824127197265625e+00) (6, -1.24321401119232177734e+00) (7, 1.11850869655609130859e+00) (8, -1.43367195129394531250e+00) (9, 1.53029128909111022949e-01) (10, -8.33672359585762023926e-02) (11, -2.63810664415359497070e-01) (12, -8.08591395616531372070e-02) (13, -3.14048171043395996094e-01) (14, 3.84430378675460815430e-01) (15, -1.13421618938446044922e+00) (16, -2.08923503756523132324e-01) (17, 2.14182078838348388672e-01) (18, 1.93181391805410385132e-02) (19, -1.33481264114379882812e-01) (20, 1.20444595813751220703e+00) (21, -5.04347868263721466064e-02) (22, 5.44182024896144866943e-02) (23, 6.29223525524139404297e-01) (24, -5.37142157554626464844e-01) (25, 8.05719867348670959473e-02) (26, 6.23970031738281250000e-01) (27, 3.00580441951751708984e-01) (28, 1.50182843208312988281e-01) (29, 2.09675014019012451172e-01) (30, 9.83559265732765197754e-02) (0, -1.33000885009765625000e+02) (1, -1.50000000000000000000e+03) (2, -1.49414770507812500000e+03) (3, -1.92628593444824218750e+01) (4, -1.70249900817871093750e+01) (5, -5.69857692718505859375e+00) (6, -6.95112457275390625000e+01) (7, -1.93911060690879821777e-01) (8, -2.15952754020690917969e-01) (9, 1.34423077106475830078e+00) (10, -3.08813110351562500000e+02) (11, -8.62233042716979980469e-02) (12, -4.97960424423217773438e+00) (13, 2.51930773258209228516e-01) (14, 6.24243542551994323730e-02) (15, -6.08011633157730102539e-02) (16, 1.08196713030338287354e-01) (17, 5.07977930828928947449e-03) (18, -6.43278300762176513672e-01) (19, -9.71423187255859375000e+01) (20, -7.89051279425621032715e-02) (21, -5.29821038246154785156e-01) (22, -6.18612241744995117188e+00) (23, 2.15346604585647583008e-01) (24, -5.43297886848449707031e-01) (25, -1.25772029161453247070e-01) (26, 4.01575088500976562500e-01) (27, -6.94779098033905029297e-01) (28, -6.66944742202758789062e-01) (29, -7.02171981334686279297e-01) (30, -6.92514061927795410156e-01) (0, -1.33599716186523437500e+02) (1, -1.50000000000000000000e+03) (2, -8.33316772460937500000e+02) (3, -1.31078853607177734375e+01) (4, -1.62473049163818359375e+01) (5, -1.37581312656402587891e+00) (6, -4.81102037429809570312e+00) (7, -1.92756131291389465332e-01) (8, -5.35266339778900146484e-01) (9, -6.18387103080749511719e-01) (10, -1.28811630249023437500e+02) (11, -1.36649072170257568359e-01) (12, -1.19456303119659423828e+00) (13, 3.22634309530258178711e-01) (14, -1.69187456369400024414e-01) (15, -2.01854974031448364258e-01) (16, 1.02684572339057922363e-01) (17, 1.06295362114906311035e-01) (18, -5.14303803443908691406e-01) (19, -1.75054607391357421875e+01) (20, 1.52814537286758422852e-01) (21, -5.19069075584411621094e-01) (22, -3.39453339576721191406e-01) (23, 1.59740000963211059570e-01) (24, -4.26156461238861083984e-01) (25, -9.64663252234458923340e-02) (26, 5.37782192230224609375e-01) (27, -7.24793672561645507812e-01) (28, -6.16761744022369384766e-01) (29, -7.15403497219085693359e-01) (30, -7.51536965370178222656e-01) (0, -2.57252426147460937500e+01) (1, -5.08805418014526367188e+00) (2, -4.44421815872192382812e+00) (3, -5.01158416271209716797e-01) (4, -3.04591804742813110352e-01) (5, -7.23286032676696777344e-01) (6, 3.20529043674468994141e-01) (7, 1.79062056541442871094e+00) (8, -1.33924317359924316406e+00) (9, -2.36880111694335937500e+00) (10, -2.15158224105834960938e+00) (11, 3.57516467571258544922e-01) (12, -1.78209617733955383301e-01) (13, -1.99968087673187255859e+00) (14, -3.24908226728439331055e-01) (15, 1.25080132484436035156e+00) (16, -2.29008245468139648438e+00) (17, -1.12383520603179931641e+00) (18, 3.59242439270019531250e-01) (19, 4.25815628841519355774e-03) (20, 4.55872952938079833984e-01) (21, 3.16219329833984375000e-01) (22, 5.14763891696929931641e-01) (23, 4.47584509849548339844e-01) (24, 1.72070011496543884277e-01) (25, 5.09695053100585937500e-01) (26, 6.16082131862640380859e-01) (27, 1.97104915976524353027e-01) (28, 3.63545715808868408203e-01) (29, 1.05376148223876953125e+00) (30, 2.56375968456268310547e-01) (0, 1.57439682006835937500e+02) (1, 6.05045204162597656250e+01) (2, -7.62803421020507812500e+01) (3, -4.46890068054199218750e+00) (4, -1.11844457685947418213e-01) (5, -1.90326709747314453125e+01) (6, -3.16915178298950195312e+00) (7, 2.13218855857849121094e+00) (8, -4.28219437599182128906e-01) (9, -4.61268842220306396484e-01) (10, -7.01228439807891845703e-01) (11, -1.65808427333831787109e+00) (12, 3.91824007034301757812e-01) (13, 2.51198351383209228516e-01) (14, -2.56500363349914550781e+00) (15, 3.35946142673492431641e-01) (16, 3.12570929527282714844e-01) (17, -1.73172816634178161621e-01) (18, 4.27010357379913330078e-02) (19, -3.98371219635009765625e-02) (20, -1.01168535649776458740e-01) (21, 5.61768785119056701660e-02) (22, 1.49289265275001525879e-01) (23, 2.78751879930496215820e-01) (24, 1.87587633728981018066e-01) (25, 5.13493597507476806641e-01) (26, 1.52120649814605712891e+00) (27, 1.73810184001922607422e-01) (28, 7.59105682373046875000e-02) (29, 1.41971245408058166504e-01) (30, 1.82470887899398803711e-01) (0, -1.33726135253906250000e+02) (1, -1.50000000000000000000e+03) (2, -1.19941735839843750000e+03) (3, -5.52204847335815429688e+00) (4, -7.93481750488281250000e+01) (5, -1.73696784973144531250e+01) (6, -2.26039719581604003906e+00) (7, 2.45088398456573486328e-01) (8, -1.51585176587104797363e-01) (9, -1.06266975402832031250e+00) (10, -1.49979541015625000000e+03) (11, 1.38901650905609130859e-01) (12, -8.26453685760498046875e-01) (13, -2.63649135828018188477e-01) (14, -1.72595369815826416016e+00) (15, -5.61528027057647705078e-01) (16, 5.61690106987953186035e-02) (17, 7.64435380697250366211e-02) (18, -8.78567099571228027344e-01) (19, -1.49971484375000000000e+03) (20, -7.22630691528320312500e+00) (21, -6.26333773136138916016e-01) (22, -6.00507965087890625000e+01) (23, -5.98960816860198974609e-01) (24, -4.90483343601226806641e-01) (25, -3.26578825712203979492e-01) (26, 2.67683684825897216797e-01) (27, -5.77789127826690673828e-01) (28, -6.88936650753021240234e-01) (29, -8.80963683128356933594e-01) (30, -5.45730054378509521484e-01) (0, -1.32428253173828125000e+02) (1, -1.50000000000000000000e+03) (2, -1.49992163085937500000e+03) (3, -6.17049551010131835938e+00) (4, -7.53281497955322265625e+00) (5, -7.19336891174316406250e+00) (6, -3.16518646240234375000e+02) (7, -1.77243664860725402832e-01) (8, -3.18242877721786499023e-01) (9, 5.90270817279815673828e-01) (10, -7.45292114257812500000e+02) (11, -4.63674366474151611328e-02) (12, -2.47479496002197265625e+01) (13, 1.28288313746452331543e-01) (14, 4.87707369029521942139e-02) (15, -1.10924750566482543945e-01) (16, -8.33860710263252258301e-02) (17, -1.57642979174852371216e-02) (18, -6.61649763584136962891e-01) (19, -9.19993225097656250000e+02) (20, -4.93041217327117919922e-01) (21, -7.34635949134826660156e-01) (22, -6.82629966735839843750e+00) (23, 1.30950748920440673828e-01) (24, -2.23693966865539550781e-01) (25, -8.41568335890769958496e-02) (26, 5.45974552631378173828e-01) (27, -8.27188670635223388672e-01) (28, -7.18381404876708984375e-01) (29, -5.66734313964843750000e-01) (30, -5.98886191844940185547e-01) (0, 1.87367761135101318359e+00) (1, 4.09229516983032226562e+00) (2, -4.88883590698242187500e+01) (3, -1.05238711833953857422e+00) (4, 2.15415477752685546875e+00) (5, -8.27743244171142578125e+00) (6, -4.36443090438842773438e+00) (7, 4.22499561309814453125e+00) (8, 4.16296882629394531250e+01) (9, 3.13907027244567871094e+00) (10, 1.26136541366577148438e+00) (11, 3.85948508977890014648e-01) (12, -1.96684181690216064453e-01) (13, 5.50306260585784912109e-01) (14, -7.12627589702606201172e-01) (15, -4.88630819320678710938e+00) (16, 8.94508838653564453125e-01) (17, 1.06498217582702636719e+00) (18, -3.48158836364746093750e-01) (19, -1.45977568626403808594e+00) (20, -1.48380696773529052734e-01) (21, -1.15553927421569824219e+00) (22, -2.96963118016719818115e-02) (23, 1.20740495622158050537e-01) (24, -8.50111618638038635254e-02) (25, 3.00539191812276840210e-02) (26, 6.16084691137075424194e-03) (27, -1.01742193102836608887e-01) (28, -2.78897508978843688965e-02) (29, -2.37708270549774169922e-01) (30, 5.70937767624855041504e-02) (0, 4.48151874542236328125e+00) (1, 3.23511695861816406250e+00) (2, -9.94620800018310546875e-01) (3, 3.94594407081604003906e+00) (4, 1.58548808097839355469e+00) (5, -2.81374126672744750977e-01) (6, -5.97268104553222656250e-01) (7, -4.08522784709930419922e-01) (8, -1.10635407269001007080e-01) (9, -2.03306257724761962891e-01) (10, -5.34363412857055664062e+00) (11, -5.48877298831939697266e-01) (12, 2.36612334847450256348e-01) (13, 4.47282403707504272461e-01) (14, 2.35835984349250793457e-01) (15, 3.23746442794799804688e-01) (16, 8.93049478530883789062e-01) (17, 9.40884470939636230469e-01) (18, -6.60023331642150878906e-01) (19, 8.72274041175842285156e-02) (20, 2.28776186704635620117e-01) (21, -3.88971000909805297852e-01) (22, -8.53308439254760742188e-01) (23, -1.75297498703002929688e-01) (24, 7.86832988262176513672e-01) (25, -6.73133611679077148438e-01) (26, -7.29028105735778808594e-01) (27, -9.26133751869201660156e-01) (28, -8.27958822250366210938e-01) (29, -8.02686691284179687500e-01) (30, -5.05201816558837890625e-01) (0, -2.58702220916748046875e+01) (1, -2.77499318122863769531e+00) (2, -2.13366031646728515625e+00) (3, -4.30340290069580078125e+00) (4, -3.93571233749389648438e+00) (5, -1.96565961837768554688e+00) (6, -2.66747455596923828125e+01) (7, 7.78022050857543945312e-01) (8, 3.56407585144042968750e+01) (9, -6.11176776885986328125e+00) (10, -1.40871238708496093750e+00) (11, 1.31125092506408691406e+00) (12, -6.15686178207397460938e-02) (13, 4.39909756183624267578e-01) (14, -4.58524674177169799805e-01) (15, -4.07726526260375976562e+00) (16, 6.80059957504272460938e+00) (17, 1.75343561172485351562e+00) (18, 2.27869972586631774902e-01) (19, -2.49795818328857421875e+00) (20, -2.18274027109146118164e-01) (21, 3.85524183511734008789e-01) (22, 1.43514707684516906738e-01) (23, -4.49465894699096679688e+00) (24, 3.12437605857849121094e+00) (25, 1.97454750537872314453e+00) (26, 8.80874574184417724609e-01) (27, 3.56121629476547241211e-01) (28, 2.39319458603858947754e-01) (29, -7.65511766076087951660e-02) (30, 8.35803151130676269531e-02) (0, -1.85759105682373046875e+01) (1, -1.64241161346435546875e+01) (2, 1.07086944580078125000e+01) (3, -3.76899480819702148438e-01) (4, 5.24555563926696777344e-01) (5, 3.35926935076713562012e-02) (6, -3.97753763198852539062e+00) (7, -2.45940351486206054688e+00) (8, 3.13493400812149047852e-01) (9, -2.13753581047058105469e-01) (10, -2.66859799623489379883e-01) (11, 6.08675599098205566406e-01) (12, 4.86675262451171875000e+00) (13, 2.13947687298059463501e-02) (14, -8.06481599807739257812e-01) (15, -1.03718109428882598877e-01) (16, 3.04613679647445678711e-01) (17, 1.15803968906402587891e+00) (18, -5.49266040325164794922e-01) (19, -5.65811038017272949219e-01) (20, 3.51562887430191040039e-01) (21, 1.20826788246631622314e-01) (22, -6.00876569747924804688e-01) (23, 8.18015992641448974609e-01) (24, -4.50648128986358642578e-01) (25, -3.25914055109024047852e-01) (26, 8.70206534862518310547e-01) (27, -3.86066854000091552734e-01) (28, -4.30053412914276123047e-01) (29, -3.10441911220550537109e-01) (30, -4.69628930091857910156e-01) (0, 5.55209040641784667969e-01) (1, -2.73376178741455078125e+00) (2, -5.40167045593261718750e+00) (3, -3.05620670318603515625e+00) (4, -2.91048097610473632812e+00) (5, -1.22085514068603515625e+01) (6, -3.88148605823516845703e-01) (7, 3.37137722969055175781e+00) (8, 1.50791788101196289062e+01) (9, 7.32410371303558349609e-01) (10, 1.95241355895996093750e+00) (11, 5.41425347328186035156e-01) (12, -2.11320906877517700195e-01) (13, 1.70702248811721801758e-01) (14, -9.15539488196372985840e-02) (15, -2.78880983591079711914e-01) (16, 1.82036533951759338379e-01) (17, 1.26687216758728027344e+00) (18, -5.70333562791347503662e-02) (19, -4.81748533248901367188e+00) (20, 8.96782241761684417725e-03) (21, 4.01361361145973205566e-02) (22, -1.16583220660686492920e-01) (23, 2.34632015228271484375e-01) (24, -3.35783101618289947510e-02) (25, 8.97124409675598144531e-03) (26, 2.76639521121978759766e-01) (27, 2.66579687595367431641e-01) (28, 2.07893624901771545410e-01) (29, 2.34578996896743774414e-01) (30, -9.05053168535232543945e-02) (0, -1.32996765136718750000e+02) (1, -1.50000000000000000000e+03) (2, -1.49992163085937500000e+03) (3, -4.25395059585571289062e+00) (4, -2.11970901489257812500e+00) (5, -1.91847789287567138672e+00) (6, -1.37623624801635742188e+01) (7, -2.27000534534454345703e-01) (8, -6.36354565620422363281e-01) (9, -4.53991144895553588867e-01) (10, -3.10605346679687500000e+02) (11, -9.37203615903854370117e-02) (12, -1.21056425571441650391e+00) (13, -2.83831685781478881836e-01) (14, -1.06375657021999359131e-01) (15, -8.24745967984199523926e-02) (16, -6.20505539700388908386e-03) (17, -2.56817519664764404297e-01) (18, -7.56672382354736328125e-01) (19, -1.24841589355468750000e+03) (20, -3.44473689794540405273e-01) (21, -8.80533337593078613281e-01) (22, -1.12819700241088867188e+01) (23, 1.71530947089195251465e-01) (24, -3.44784259796142578125e-01) (25, -1.99349388480186462402e-01) (26, -8.12646374106407165527e-02) (27, -6.57382905483245849609e-01) (28, -6.57978832721710205078e-01) (29, -8.60816836357116699219e-01) (30, -6.16048574447631835938e-01) (0, 5.63953924179077148438e+00) (1, 1.28254008293151855469e+00) (2, -1.84026622772216796875e+01) (3, -7.47671556472778320312e+00) (4, -9.78432178497314453125e+00) (5, -1.20964059829711914062e+01) (6, 1.46872127056121826172e+00) (7, 2.08193130493164062500e+01) (8, -3.22411370277404785156e+00) (9, -1.64563679695129394531e+00) (10, -8.11719074845314025879e-02) (11, 1.17649011611938476562e+01) (12, -8.95367622375488281250e-01) (13, -2.44799301028251647949e-01) (14, 4.18553501367568969727e-01) (15, -7.84163832664489746094e-01) (16, -1.05040043592453002930e-01) (17, -3.49610298871994018555e-01) (18, -1.21061488986015319824e-01) (19, -1.34973990917205810547e+00) (20, -7.88933813571929931641e-01) (21, 5.70677854120731353760e-02) (22, -1.62044540047645568848e-01) (23, 4.16023343801498413086e-01) (24, -1.55118215084075927734e+00) (25, -1.14188678562641143799e-01) (26, 1.14561402797698974609e+00) (27, 3.47612239420413970947e-03) (28, 1.69730409979820251465e-01) (29, 3.87690305709838867188e+00) (30, -8.37671101093292236328e-01) (0, 1.60628819465637207031e+00) (1, 1.27575492858886718750e+00) (2, 1.82257711887359619141e+00) (3, -1.25830340385437011719e+00) (4, -3.19830560684204101562e+00) (5, -4.89703081548213958740e-02) (6, 1.41368932723999023438e+01) (7, -7.47164130210876464844e-01) (8, -7.00119066238403320312e+00) (9, 8.32418346405029296875e+00) (10, 1.49506974220275878906e+00) (11, -1.05392944812774658203e+00) (12, -1.29878008365631103516e+00) (13, -1.77372649312019348145e-01) (14, -1.89707934856414794922e-01) (15, -5.71461796760559082031e-01) (16, -4.06520456075668334961e-01) (17, -1.95944762229919433594e+00) (18, 5.74965596199035644531e-01) (19, 5.02868556976318359375e+00) (20, -1.11669206619262695312e+00) (21, 1.46451818943023681641e+00) (22, 5.45188724994659423828e-01) (23, -6.61626517772674560547e-01) (24, -1.52433097362518310547e+00) (25, -1.90185356140136718750e+00) (26, -1.86157488822937011719e+00) (27, 2.30855911970138549805e-01) (28, -1.88219873234629631042e-03) (29, -3.01107943058013916016e-01) (30, 2.05657541751861572266e-01) (0, 2.56575655937194824219e+00) (1, 3.69033470153808593750e+01) (2, -9.56803131103515625000e+01) (3, -2.40385675430297851562e+00) (4, -2.30363998413085937500e+01) (5, -4.03141546249389648438e+00) (6, -1.08164472579956054688e+01) (7, 2.01008605957031250000e+00) (8, 2.51124691963195800781e+00) (9, -9.50405597686767578125e+00) (10, 8.75467285513877868652e-02) (11, 9.04102474451065063477e-02) (12, 1.20445773005485534668e-01) (13, 2.02964735031127929688e+00) (14, 1.21191330254077911377e-01) (15, -2.47122907638549804688e+00) (16, 3.52340549230575561523e-01) (17, 2.07470965385437011719e+00) (18, -3.76367831230163574219e+00) (19, 1.68104338645935058594e+00) (20, 2.24090938568115234375e+01) (21, -3.07792127132415771484e-01) (22, 5.28109967708587646484e-01) (23, 6.94833612442016601562e+00) (24, -1.34416973590850830078e+00) (25, 1.32708728313446044922e-01) (26, 8.06411921977996826172e-01) (27, 2.75993847846984863281e+00) (28, 8.39425146579742431641e-01) (29, 1.74023938179016113281e+00) (30, 8.59148144721984863281e-01) (0, -2.05177426338195800781e+00) (1, -7.51161384582519531250e+00) (2, -2.99751234054565429688e+00) (3, 5.73083829879760742188e+00) (4, 5.41392564773559570312e-01) (5, -1.71842980384826660156e+00) (6, -2.04483628273010253906e+00) (7, 3.26599329710006713867e-02) (8, 1.37356019020080566406e+00) (9, -5.18091320991516113281e-01) (10, 7.50190258026123046875e-01) (11, -9.33777213096618652344e-01) (12, -1.06565320491790771484e+00) (13, -6.94738328456878662109e-02) (14, 3.39244961738586425781e-01) (15, 1.97973549365997314453e-01) (16, -3.41228783130645751953e-01) (17, -6.57153725624084472656e-01) (18, -5.14697730541229248047e-01) (19, -1.71847715973854064941e-01) (20, 4.02817763388156890869e-02) (21, -5.66760957241058349609e-01) (22, -2.86343723535537719727e-01) (23, 1.64544343948364257812e-01) (24, -1.34731739759445190430e-01) (25, -9.05640199780464172363e-02) (26, 2.16422986984252929688e+00) (27, -5.07159769535064697266e-01) (28, -5.00660777091979980469e-01) (29, 7.30054914951324462891e-01) (30, -3.04296106100082397461e-01) (0, -4.40269023180007934570e-01) (1, -2.60796666145324707031e-01) (2, 8.70261955261230468750e+00) (3, -6.82267606258392333984e-01) (4, -5.80262422561645507812e+00) (5, -5.96201837062835693359e-01) (6, -1.11044101715087890625e+01) (7, -3.33883523941040039062e+00) (8, -2.77377820014953613281e+00) (9, -4.41645479202270507812e+00) (10, -9.07800495624542236328e-02) (11, -5.47454500198364257812e+00) (12, -1.32284176349639892578e+00) (13, -3.56924325227737426758e-01) (14, -2.34094068408012390137e-01) (15, 1.45083034038543701172e+00) (16, 3.85856144130229949951e-02) (17, -3.09479385614395141602e-01) (18, -1.04974314570426940918e-01) (19, 1.06972205638885498047e+00) (20, 7.42489576339721679688e-01) (21, 2.11456090211868286133e-01) (22, 5.61734735965728759766e-01) (23, 9.77097988128662109375e-01) (24, 7.56646990776062011719e-01) (25, 4.24326598644256591797e-01) (26, 1.44321453571319580078e+00) (27, -3.09114575386047363281e-01) (28, -2.15232893824577331543e-01) (29, 7.85775423049926757812e-01) (30, -3.38979274034500122070e-01) (0, -1.65521299839019775391e+00) (1, -2.26745024323463439941e-01) (2, -5.18663024902343750000e+00) (3, 2.32805609703063964844e+00) (4, -8.26939868927001953125e+00) (5, 4.03743892908096313477e-01) (6, -1.85856831073760986328e+00) (7, -1.15807104110717773438e+00) (8, 2.59988269805908203125e+01) (9, -1.66418361663818359375e+00) (10, -1.98623979091644287109e+00) (11, 8.32133007049560546875e+00) (12, -2.96124517917633056641e-01) (13, 8.49734723567962646484e-01) (14, 1.08260750770568847656e+00) (15, 3.53155314922332763672e-01) (16, 6.29443228244781494141e-01) (17, 7.17413425445556640625e-01) (18, -1.94348025321960449219e+00) (19, -1.94898581504821777344e+00) (20, 1.75211775302886962891e+00) (21, -1.07915914058685302734e+00) (22, -3.10745894908905029297e-01) (23, 6.32510423660278320312e+00) (24, -1.09738670289516448975e-01) (25, -7.34940916299819946289e-02) (26, 7.13074207305908203125e-01) (27, -8.92591655254364013672e-01) (28, -8.87354552745819091797e-01) (29, -3.66253542900085449219e+00) (30, -5.32412827014923095703e-01) (0, -1.29293572902679443359e+00) (1, 1.44679002761840820312e+01) (2, -3.05903511047363281250e+01) (3, -3.38554725646972656250e+01) (4, -2.89734649658203125000e+00) (5, 1.27493448257446289062e+01) (6, -2.04372596740722656250e+00) (7, -6.94087803363800048828e-01) (8, 1.40878391265869140625e+00) (9, -1.94997894763946533203e+00) (10, -2.73589920997619628906e+00) (11, 4.28284740447998046875e+00) (12, -8.31781566143035888672e-01) (13, -6.00757420063018798828e-01) (14, 2.06916236877441406250e+00) (15, -1.99412500858306884766e+00) (16, 4.52088505029678344727e-01) (17, 6.26253545284271240234e-01) (18, -1.05226981639862060547e+00) (19, 4.73337531089782714844e-01) (20, 7.61086285114288330078e-01) (21, -8.30758094787597656250e-01) (22, -5.33619821071624755859e-02) (23, 1.45673251152038574219e+00) (24, 2.91206240653991699219e-01) (25, 4.09006290137767791748e-02) (26, 6.04533851146697998047e-01) (27, -4.95804697275161743164e-01) (28, 1.39776244759559631348e-01) (29, 2.38806509971618652344e+00) (30, -6.49439871311187744141e-01) (0, 1.13812994956970214844e+00) (1, -3.66751718521118164062e+00) (2, 1.43146514892578125000e+00) (3, -3.70550417900085449219e+00) (4, 1.20460212230682373047e+00) (5, -5.91182351112365722656e-01) (6, -3.58691501617431640625e+00) (7, 5.44175207614898681641e-01) (8, 1.92349660396575927734e+00) (9, -8.50131094455718994141e-01) (10, -3.82801622152328491211e-01) (11, 1.11023508012294769287e-01) (12, 2.29209113121032714844e+00) (13, -2.30453368276357650757e-02) (14, -5.72531670331954956055e-02) (15, 3.58308618888258934021e-03) (16, 1.07819601893424987793e-01) (17, 2.65276014804840087891e-01) (18, -5.06757080554962158203e-01) (19, -6.45943777635693550110e-03) (20, 1.17132812738418579102e-01) (21, -4.87947106361389160156e-01) (22, -2.21128195524215698242e-01) (23, -2.29270886629819869995e-02) (24, -3.24021369218826293945e-01) (25, -2.47164770960807800293e-01) (26, 1.84378605335950851440e-02) (27, -4.14276719093322753906e-01) (28, -1.17580570280551910400e-01) (29, 5.20472466945648193359e-01) (30, -2.81141549348831176758e-01) (0, -1.32303771972656250000e+02) (1, -1.50000000000000000000e+03) (2, -1.49992163085937500000e+03) (3, -5.75159120559692382812e+00) (4, -8.46473236083984375000e+01) (5, -7.11357879638671875000e+00) (6, -5.98239135742187500000e+02) (7, -1.78848758339881896973e-01) (8, -5.05347371101379394531e-01) (9, 2.82970398664474487305e-01) (10, -7.41360229492187500000e+02) (11, -1.59567475318908691406e-01) (12, -2.82890653610229492188e+00) (13, -5.75160095468163490295e-03) (14, -4.03874427080154418945e-01) (15, -1.74476683139801025391e-01) (16, 4.15082760155200958252e-02) (17, -3.39012116193771362305e-01) (18, -6.30845367908477783203e-01) (19, -1.23830505371093750000e+03) (20, -1.29994213581085205078e+00) (21, -5.86052954196929931641e-01) (22, -3.64445762634277343750e+01) (23, 1.57938480377197265625e-01) (24, -2.85189390182495117188e-01) (25, -4.31722998619079589844e-02) (26, 3.69530379772186279297e-01) (27, -8.25501203536987304688e-01) (28, -6.10738694667816162109e-01) (29, -2.56453633308410644531e+00) (30, -7.84187078475952148438e-01) (0, -4.62608337402343750000e+00) (1, 2.03113937377929687500e+00) (2, -2.21737527847290039062e+00) (3, -5.41633069515228271484e-01) (4, -1.04355454444885253906e+00) (5, -1.73405599594116210938e+00) (6, -1.40168523788452148438e+00) (7, 6.56054839491844177246e-02) (8, 1.73488116264343261719e+00) (9, -5.96948206424713134766e-01) (10, 2.67126798629760742188e+00) (11, 1.73565423488616943359e+00) (12, -8.82400274276733398438e-01) (13, 2.85732173919677734375e+00) (14, 2.34709024429321289062e-01) (15, 7.03173160552978515625e-01) (16, 2.12700891494750976562e+00) (17, 7.12160110473632812500e-01) (18, -7.37154603004455566406e-01) (19, 8.20799708366394042969e-01) (20, 4.29957151412963867188e-01) (21, -6.65868878364562988281e-01) (22, -2.23269741982221603394e-02) (23, 9.61686223745346069336e-02) (24, -2.62417316436767578125e-01) (25, 1.15189604461193084717e-01) (26, 5.71820378303527832031e-01) (27, -6.54387354850769042969e-01) (28, -5.89737653732299804688e-01) (29, -8.14364612102508544922e-01) (30, -6.28018260002136230469e-01) (0, 2.95576572418212890625e+00) (1, 1.36570668220520019531e+00) (2, 7.09462761878967285156e-01) (3, -6.20572984218597412109e-01) (4, 1.44076001644134521484e+00) (5, 1.46735203266143798828e+00) (6, -1.38584494590759277344e+00) (7, 1.23798751831054687500e+00) (8, 1.77650201320648193359e+00) (9, -1.85551062226295471191e-01) (10, 1.16213329136371612549e-01) (11, 2.86257553100585937500e+00) (12, 9.06989052891731262207e-02) (13, 5.46808764338493347168e-02) (14, 2.16122317314147949219e+00) (15, 2.76993066072463989258e-01) (16, -5.04771880805492401123e-02) (17, -1.32579300552606582642e-02) (18, -8.07777762413024902344e-01) (19, -1.01700112223625183105e-01) (20, 9.57772493362426757812e-01) (21, -1.01408088207244873047e+00) (22, -6.02975010871887207031e-01) (23, 2.54659742116928100586e-01) (24, -5.77015459537506103516e-01) (25, -4.39952343702316284180e-01) (26, -4.81369614601135253906e-01) (27, -4.25685316324234008789e-01) (28, -4.16681885719299316406e-01) (29, -2.49640628695487976074e-01) (30, -5.49807429313659667969e-01) (0, 6.90987205505371093750e+00) (1, 1.00815515518188476562e+01) (2, -7.87295484542846679688e+00) (3, -1.55346989631652832031e+00) (4, 5.12932062149047851562e+00) (5, -4.53453874588012695312e+00) (6, 1.85577535629272460938e+00) (7, 1.17801427841186523438e+00) (8, -3.89640545845031738281e+00) (9, 9.31425857543945312500e+00) (10, 1.44050061702728271484e-01) (11, 7.04613029956817626953e-02) (12, 3.57039594650268554688e+00) (13, 3.01843076944351196289e-01) (14, 2.49486640095710754395e-02) (15, -2.98331665992736816406e+00) (16, 3.83049756288528442383e-01) (17, 3.15773457288742065430e-01) (18, -1.20836250483989715576e-01) (19, -5.07150709629058837891e-01) (20, -8.37026443332433700562e-03) (21, -6.76930621266365051270e-02) (22, 1.93252012133598327637e-01) (23, -4.45337504148483276367e-01) (24, -5.28204250335693359375e+00) (25, 2.57391333580017089844e-02) (26, 1.14787675440311431885e-01) (27, 7.07232505083084106445e-02) (28, 1.92842371761798858643e-02) (29, -1.39854943752288818359e+00) (30, -8.09890553355216979980e-02) (31, 7.17802643775939941406e-02) (32, 4.45376157760620117188e+00) (33, 1.50000000000000000000e+03) (34, -3.96773300170898437500e+01) (35, 4.61666774749755859375e+00) (36, -3.97699999809265136719e+00) (37, -3.86850857734680175781e+00) (38, 7.50577688217163085938e+00) (39, 1.50000000000000000000e+03) (40, 1.50000000000000000000e+03) (41, 3.55071973800659179688e+00) (42, -9.21753704547882080078e-01) (43, 1.50000000000000000000e+03) (44, 1.50000000000000000000e+03) (45, -2.77002978324890136719e+00) (46, 2.78073616027832031250e+01) (47, 7.90141761302947998047e-01) (48, -4.36168766021728515625e+00) (49, -1.40937232971191406250e+00) (50, 1.50000000000000000000e+03) (51, -1.14605307579040527344e+00) (52, -6.57910585403442382812e-01) (53, -2.85588431358337402344e+00) (54, -3.44306373596191406250e+00) (55, -1.05482368469238281250e+01) (56, 3.40322875976562500000e+00) (57, 7.51020574569702148438e+00) (58, 9.92793273925781250000e+00) (59, 1.50000000000000000000e+03) (60, 7.32717037200927734375e+00) (61, -8.94860649108886718750e+00) (62, -2.00800895690917968750e+00) (63, -5.62579154968261718750e+00) (31, 3.14297747611999511719e+00) (32, 8.31340312957763671875e+00) (33, 1.50000000000000000000e+03) (34, -3.83268089294433593750e+01) (35, 1.77438795566558837891e+00) (36, -3.60512900352478027344e+00) (37, -3.92178964614868164062e+00) (38, 6.97397184371948242188e+00) (39, 1.50000000000000000000e+03) (40, 1.50000000000000000000e+03) (41, 4.39876937866210937500e+00) (42, -1.50979220867156982422e+00) (43, 1.50000000000000000000e+03) (44, 1.50000000000000000000e+03) (45, -2.91349911689758300781e+00) (46, 3.07716312408447265625e+01) (47, 2.68230587244033813477e-01) (48, -8.45527458190917968750e+00) (49, -1.53492176532745361328e+00) (50, 1.50000000000000000000e+03) (51, -1.18014538288116455078e+00) (52, 2.80391246080398559570e-01) (53, -1.79636240005493164062e+00) (54, 2.34772458672523498535e-01) (55, -8.41511917114257812500e+00) (56, 4.65681028366088867188e+00) (57, 7.65712547302246093750e+00) (58, 1.42258529663085937500e+01) (59, 1.50000000000000000000e+03) (60, 4.89855194091796875000e+00) (61, -8.14343738555908203125e+00) (62, -2.94272899627685546875e+00) (63, -7.97639322280883789062e+00) (31, 3.55623507499694824219e+00) (32, 1.25079631805419921875e+01) (33, 1.50000000000000000000e+03) (34, -4.84698753356933593750e+01) (35, 5.01192760467529296875e+00) (36, -5.09005117416381835938e+00) (37, -2.75018882751464843750e+00) (38, 6.86558389663696289062e+00) (39, 1.50000000000000000000e+03) (40, 1.50000000000000000000e+03) (41, 5.03880071640014648438e+00) (42, -1.34822368621826171875e+00) (43, 1.50000000000000000000e+03) (44, 1.50000000000000000000e+03) (45, -2.01033258438110351562e+00) (46, 3.45500068664550781250e+01) (47, 1.11388766765594482422e+00) (48, -9.49287891387939453125e+00) (49, -1.30285382270812988281e+00) (50, 1.50000000000000000000e+03) (51, -1.28052675724029541016e+00) (52, 2.41927474737167358398e-01) (53, -1.83045887947082519531e+00) (54, -3.86613464355468750000e+00) (55, -1.21647605895996093750e+01) (56, 5.11043882369995117188e+00) (57, 8.32945728302001953125e+00) (58, 1.44628658294677734375e+01) (59, 1.50000000000000000000e+03) (60, 2.82108640670776367188e+00) (61, -1.23304624557495117188e+01) (62, -4.28714752197265625000e+00) (63, -6.82951593399047851562e+00) (31, 1.85890483856201171875e+01) (32, -1.25528707504272460938e+01) (33, 1.50000000000000000000e+03) (34, 1.06852676391601562500e+02) (35, 1.32333290576934814453e+00) (36, -8.46700477600097656250e+00) (37, 3.56313562393188476562e+00) (38, 2.41505956649780273438e+00) (39, 1.50000000000000000000e+03) (40, 1.50000000000000000000e+03) (41, 3.25318884849548339844e+00) (42, 1.05467908084392547607e-01) (43, 1.50000000000000000000e+03) (44, 1.50000000000000000000e+03) (45, -2.58549499511718750000e+00) (46, 5.75095272064208984375e+00) (47, -2.01888275146484375000e+00) (48, -1.75267448425292968750e+01) (49, 4.24676179885864257812e+00) (50, 1.50000000000000000000e+03) (51, 5.93322086334228515625e+00) (52, -1.23655974864959716797e+00) (53, 1.08723831176757812500e+00) (54, 1.36853303909301757812e+01) (55, -3.03753986358642578125e+01) (56, -4.87287092208862304688e+00) (57, -2.21229991912841796875e+01) (58, -8.22298452258110046387e-02) (59, 1.50000000000000000000e+03) (60, -1.06613531112670898438e+01) (61, 2.81493377685546875000e+00) (62, -4.36168479919433593750e+00) (63, -5.43079078197479248047e-01) (31, 2.07863903045654296875e+01) (32, -7.26086950302124023438e+00) (33, 1.50000000000000000000e+03) (34, 1.05110420227050781250e+02) (35, 2.29564279317855834961e-01) (36, -7.46443796157836914062e+00) (37, 3.81758046150207519531e+00) (38, 1.42095184326171875000e+00) (39, 1.50000000000000000000e+03) (40, 1.50000000000000000000e+03) (41, 1.74232578277587890625e+00) (42, 4.64988559484481811523e-01) (43, 1.50000000000000000000e+03) (44, 1.50000000000000000000e+03) (45, -8.64586114883422851562e-01) (46, 6.53000164031982421875e+00) (47, -3.46175122261047363281e+00) (48, -1.72846736907958984375e+01) (49, 4.88388013839721679688e+00) (50, 1.50000000000000000000e+03) (51, 3.05068278312683105469e+00) (52, -8.09344768524169921875e-01) (53, 1.07622504234313964844e+00) (54, 1.67773132324218750000e+01) (55, -2.67369613647460937500e+01) (56, -4.19165563583374023438e+00) (57, -1.98953170776367187500e+01) (58, 5.49543201923370361328e-01) (59, 1.50000000000000000000e+03) (60, -1.18038425445556640625e+01) (61, 2.40471315383911132812e+00) (62, -4.30875968933105468750e+00) (63, -1.59690916538238525391e+00) (31, 2.78361682891845703125e+01) (32, -4.60687923431396484375e+00) (33, 1.50000000000000000000e+03) (34, 1.06690399169921875000e+02) (35, 8.94944489002227783203e-01) (36, -6.60935020446777343750e+00) (37, 1.20259499549865722656e+00) (38, -1.41757524013519287109e+00) (39, 1.50000000000000000000e+03) (40, 1.50000000000000000000e+03) (41, -3.48740279674530029297e-01) (42, 6.26974701881408691406e-01) (43, 1.50000000000000000000e+03) (44, 1.50000000000000000000e+03) (45, 1.76879930496215820312e+00) (46, 2.83773803710937500000e+00) (47, -5.73525285720825195312e+00) (48, -2.45591487884521484375e+01) (49, 3.46262884140014648438e+00) (50, 1.50000000000000000000e+03) (51, 2.48559188842773437500e+00) (52, -4.58026456832885742188e+00) (53, 1.62625819444656372070e-01) (54, 1.97216567993164062500e+01) (55, -1.64878902435302734375e+01) (56, -3.76817677170038223267e-03) (57, -1.95441761016845703125e+01) (58, 1.85203325748443603516e+00) (59, 1.50000000000000000000e+03) (60, -1.84481964111328125000e+01) (61, 3.84947633743286132812e+00) (62, -2.61947202682495117188e+00) (63, 6.95262476801872253418e-02) (31, 7.42135643959045410156e-01) (32, 6.57523918151855468750e+00) (33, 1.50000000000000000000e+03) (34, -5.38081703186035156250e+01) (35, 2.89555406570434570312e+00) (36, -3.36961412429809570312e+00) (37, -6.28527450561523437500e+00) (38, 4.31590890884399414062e+00) (39, 1.50000000000000000000e+03) (40, 1.50000000000000000000e+03) (41, 8.84352111816406250000e+00) (42, -3.62087750434875488281e+00) (43, 1.50000000000000000000e+03) (44, 1.50000000000000000000e+03) (45, -2.61190509796142578125e+00) (46, 2.41486587524414062500e+01) (47, -2.50549644231796264648e-01) (48, -1.54212560653686523438e+01) (49, 8.12733840942382812500e+00) (50, 1.50000000000000000000e+03) (51, 6.34141743183135986328e-01) (52, -6.75992012023925781250e-01) (53, -1.31253212690353393555e-01) (54, -1.47402982711791992188e+01) (55, 9.51224040985107421875e+00) (56, -2.17362451553344726562e+00) (57, -2.97042465209960937500e+00) (58, 1.57266035079956054688e+01) (59, 1.50000000000000000000e+03) (60, 9.87179636955261230469e-01) (61, 9.08778476715087890625e+00) (62, -1.26064071655273437500e+01) (63, -1.85651808977127075195e-01) (31, -1.05624914169311523438e+00) (32, 9.69238185882568359375e+00) (33, 1.50000000000000000000e+03) (34, -4.42780647277832031250e+01) (35, 9.08340454101562500000e-01) (36, -7.88150453567504882812e+00) (37, -7.19343185424804687500e+00) (38, 6.90299701690673828125e+00) (39, 1.50000000000000000000e+03) (40, 1.50000000000000000000e+03) (41, 3.08326411247253417969e+00) (42, -3.83886265754699707031e+00) (43, 1.50000000000000000000e+03) (44, 1.50000000000000000000e+03) (45, -3.44148731231689453125e+00) (46, 2.68510971069335937500e+01) (47, 2.73866772651672363281e+00) (48, -6.67104768753051757812e+00) (49, 1.33350677490234375000e+01) (50, 1.50000000000000000000e+03) (51, 1.50908601284027099609e+00) (52, -1.26239001750946044922e+00) (53, 6.28922224044799804688e-01) (54, -1.21662225723266601562e+01) (55, 5.31633996963500976562e+00) (56, -4.17101240158081054688e+00) (57, -5.42175292968750000000e+00) (58, 8.05646991729736328125e+00) (59, 1.50000000000000000000e+03) (60, 4.07045513391494750977e-01) (61, 4.86350679397583007812e+00) (62, -1.00969543457031250000e+01) (63, 1.39348840713500976562e+00) (31, 6.88835024833679199219e-01) (32, 6.24104404449462890625e+00) (33, 1.50000000000000000000e+03) (34, -2.68946743011474609375e+01) (35, -5.70893347263336181641e-01) (36, -6.15242576599121093750e+00) (37, -7.37524461746215820312e+00) (38, 4.80708837509155273438e+00) (39, 1.50000000000000000000e+03) (40, 1.50000000000000000000e+03) (41, 2.23007082939147949219e+00) (42, -2.56780958175659179688e+00) (43, 1.50000000000000000000e+03) (44, 1.50000000000000000000e+03) (45, -2.89328408241271972656e+00) (46, 2.73369426727294921875e+01) (47, 2.66725659370422363281e-01) (48, -5.18007755279541015625e+00) (49, 1.17220487594604492188e+01) (50, 1.50000000000000000000e+03) (51, 1.94586586952209472656e+00) (52, -7.62143552303314208984e-01) (53, -3.44502031803131103516e-01) (54, -4.51776123046875000000e+00) (55, 7.16886329650878906250e+00) (56, -1.20891284942626953125e+00) (57, -6.42756032943725585938e+00) (58, 2.15731191635131835938e+00) (59, 1.50000000000000000000e+03) (60, -1.93218123912811279297e+00) (61, 6.88529443740844726562e+00) (62, -1.24791221618652343750e+01) (63, -8.06518197059631347656e-01) (31, -1.38813781738281250000e+01) (32, -4.63480138778686523438e+00) (33, 1.50000000000000000000e+03) (34, 7.71102046966552734375e+00) (35, -3.83858323097229003906e-01) (36, 6.55999898910522460938e+00) (37, 3.44718486070632934570e-01) (38, 8.55293464660644531250e+00) (39, 1.50000000000000000000e+03) (40, 1.50000000000000000000e+03) (41, -9.93622589111328125000e+00) (42, 6.80377721786499023438e-01) (43, 1.50000000000000000000e+03) (44, 1.50000000000000000000e+03) (45, 4.72753095626831054688e+00) (46, 1.99109375476837158203e+00) (47, 2.75037503242492675781e+00) (48, 1.04599742889404296875e+01) (49, 9.91585063934326171875e+00) (50, 1.50000000000000000000e+03) (51, 4.15634346008300781250e+00) (52, -1.23419702053070068359e+00) (53, 1.46399474143981933594e+00) (54, -1.40750446319580078125e+01) (55, 6.35073137283325195312e+00) (56, -5.54262399673461914062e+00) (57, -9.56313037872314453125e+00) (58, -1.93125450611114501953e+00) (59, 1.50000000000000000000e+03) (60, 4.68031930923461914062e+00) (61, -4.02716547250747680664e-01) (62, 3.46412754058837890625e+00) (63, -9.44137126207351684570e-02) (31, -7.79965639114379882812e+00) (32, 1.55340003967285156250e+00) (33, 1.50000000000000000000e+03) (34, 1.94839012622833251953e+00) (35, 2.31310650706291198730e-01) (36, 1.55867326259613037109e+00) (37, 2.44601869583129882812e+00) (38, 7.02176570892333984375e+00) (39, 1.50000000000000000000e+03) (40, 1.50000000000000000000e+03) (41, -9.61982727050781250000e+00) (42, 2.17547655105590820312e+00) (43, 1.50000000000000000000e+03) (44, 1.50000000000000000000e+03) (45, 4.13787937164306640625e+00) (46, 5.73223447799682617188e+00) (47, 3.83621191978454589844e+00) (48, 1.05842866897583007812e+01) (49, 1.05433540344238281250e+01) (50, 1.50000000000000000000e+03) (51, 2.24581933021545410156e+00) (52, -2.22973823547363281250e+00) (53, 8.69567811489105224609e-01) (54, -5.85456418991088867188e+00) (55, 3.33205580711364746094e-01) (56, -3.39690256118774414062e+00) (57, -1.02485218048095703125e+01) (58, -2.71174192428588867188e+00) (59, 1.50000000000000000000e+03) (60, 2.53887605667114257812e+00) (61, -5.06209230422973632812e+00) (62, 1.92333471775054931641e+00) (63, -1.03431069850921630859e+00) (31, 6.58620071411132812500e+00) (32, 3.28594326972961425781e+00) (33, 1.50000000000000000000e+03) (34, 3.04570770263671875000e+01) (35, 5.55517101287841796875e+00) (36, -5.85782718658447265625e+00) (37, 5.97190523147583007812e+00) (38, 8.65590000152587890625e+00) (39, 1.50000000000000000000e+03) (40, 1.50000000000000000000e+03) (41, -1.03786077499389648438e+01) (42, 4.30671119689941406250e+00) (43, 1.50000000000000000000e+03) (44, 1.50000000000000000000e+03) (45, 1.36026945114135742188e+01) (46, 1.20988225936889648438e+01) (47, -2.69953697919845581055e-01) (48, 1.35621166229248046875e+01) (49, 5.01260662078857421875e+00) (50, 1.50000000000000000000e+03) (51, 8.55612993240356445312e-01) (52, -7.29313087463378906250e+00) (53, -5.26823639869689941406e-01) (54, -1.14022245407104492188e+01) (55, -6.24869704246520996094e-01) (56, 2.38124653697013854980e-01) (57, -2.26321163177490234375e+01) (58, -1.39123365283012390137e-01) (59, 1.50000000000000000000e+03) (60, -8.85312747955322265625e+00) (61, -8.20828151702880859375e+00) (62, -8.33325266838073730469e-01) (63, -1.66822254657745361328e-01) (31, 5.75867414474487304688e+00) (32, -6.84134817123413085938e+00) (33, 1.50000000000000000000e+03) (34, -8.32647514343261718750e+00) (35, -1.16932427883148193359e+00) (36, 8.76426792144775390625e+00) (37, 7.28293848037719726562e+00) (38, -2.34798984527587890625e+01) (39, 1.50000000000000000000e+03) (40, 1.50000000000000000000e+03) (41, 1.12660160064697265625e+01) (42, 4.01069402694702148438e+00) (43, 1.50000000000000000000e+03) (44, 1.50000000000000000000e+03) (45, -1.71972501277923583984e+00) (46, 3.73011350631713867188e+00) (47, -1.22047327458858489990e-02) (48, -2.24483814239501953125e+01) (49, -1.45245480537414550781e+00) (50, 1.50000000000000000000e+03) (51, 3.73098373413085937500e+00) (52, -6.15675747394561767578e-01) (53, 7.86716103553771972656e-01) (54, 2.17226076126098632812e+00) (55, -3.54095816612243652344e+00) (56, -9.22027528285980224609e-01) (57, 5.71547365188598632812e+00) (58, -6.78368377685546875000e+00) (59, 1.50000000000000000000e+03) (60, 5.31343184411525726318e-02) (61, 1.12240505218505859375e+00) (62, -3.52069997787475585938e+00) (63, -5.98945736885070800781e-01) (31, 5.45995235443115234375e+00) (32, -2.49072003364562988281e+00) (33, 1.50000000000000000000e+03) (34, -1.63387668132781982422e+00) (35, 1.66174685955047607422e+00) (36, 5.45145702362060546875e+00) (37, 3.31726217269897460938e+00) (38, -1.57620086669921875000e+01) (39, 1.50000000000000000000e+03) (40, 1.50000000000000000000e+03) (41, 5.01972866058349609375e+00) (42, 3.07748341560363769531e+00) (43, 1.50000000000000000000e+03) (44, 1.50000000000000000000e+03) (45, 1.41523122787475585938e-01) (46, 1.46066617965698242188e+01) (47, -3.13687533140182495117e-01) (48, -1.55087547302246093750e+01) (49, -1.85986831784248352051e-01) (50, 1.50000000000000000000e+03) (51, 1.43507468700408935547e+00) (52, -3.57852935791015625000e+00) (53, -1.11711215972900390625e+00) (54, 4.96697759628295898438e+00) (55, -2.76704758405685424805e-01) (56, -1.67901122570037841797e+00) (57, 4.36375331878662109375e+00) (58, 2.27180576324462890625e+00) (59, 1.50000000000000000000e+03) (60, 1.56384706497192382812e+00) (61, -2.57111263275146484375e+00) (62, -2.95887160301208496094e+00) (63, 3.27502131462097167969e-01) (31, 1.32188692092895507812e+01) (32, -3.57842445373535156250e+00) (33, 1.50000000000000000000e+03) (34, 2.39840354919433593750e+01) (35, 2.47924184799194335938e+00) (36, 5.48104619979858398438e+00) (37, 5.00338506698608398438e+00) (38, -2.24191894531250000000e+01) (39, 1.50000000000000000000e+03) (40, 1.50000000000000000000e+03) (41, 5.56067228317260742188e+00) (42, 3.12099313735961914062e+00) (43, 1.50000000000000000000e+03) (44, 1.50000000000000000000e+03) (45, 1.62657773494720458984e+00) (46, -4.66726684570312500000e+00) (47, -9.59993839263916015625e+00) (48, -8.44799995422363281250e+00) (49, 7.43193209171295166016e-01) (50, 1.50000000000000000000e+03) (51, -9.51752090454101562500e+00) (52, -1.76493316888809204102e-01) (53, -3.81269991397857666016e-01) (54, -2.08707785606384277344e+00) (55, 2.26766738891601562500e+01) (56, 4.50895786285400390625e+00) (57, 6.51197242736816406250e+00) (58, -2.25844612121582031250e+01) (59, 1.50000000000000000000e+03) (60, 6.59222483634948730469e-01) (61, -3.56606817245483398438e+00) (62, 1.06021404266357421875e+00) (63, -1.03949986398220062256e-01) (31, -4.51299142837524414062e+00) (32, -2.58591556549072265625e+00) (33, 1.50000000000000000000e+03) (34, 4.89190340042114257812e+00) (35, 8.22710704803466796875e+00) (36, 2.39366364479064941406e+00) (37, -4.79864120483398437500e+00) (38, -6.29056274890899658203e-01) (39, 1.50000000000000000000e+03) (40, 1.50000000000000000000e+03) (41, 3.34777943789958953857e-02) (42, 2.54198145866394042969e+00) (43, 1.50000000000000000000e+03) (44, 1.50000000000000000000e+03) (45, 5.10566949844360351562e+00) (46, 3.34335289001464843750e+01) (47, 9.28168833255767822266e-01) (48, 4.07578200101852416992e-01) (49, -1.82658052444458007812e+00) (50, 1.50000000000000000000e+03) (51, 8.01508247852325439453e-01) (52, -7.98415374755859375000e+00) (53, -6.39189660549163818359e-01) (54, -3.62117958068847656250e+00) (55, -9.55183219909667968750e+00) (56, -7.19008779525756835938e+00) (57, 6.78806304931640625000e+00) (58, 5.50691461563110351562e+00) (59, 1.50000000000000000000e+03) (60, 6.36368608474731445312e+00) (61, 3.87704920768737792969e+00) (62, -3.35865998268127441406e+00) (63, 1.89366713166236877441e-01) (31, -1.24671113491058349609e+00) (32, 1.79123330116271972656e+00) (33, 1.50000000000000000000e+03) (34, -7.37383556365966796875e+00) (35, 1.00145065784454345703e+00) (36, 4.46712589263916015625e+00) (37, -8.39702665805816650391e-01) (38, -6.76973819732666015625e+00) (39, 1.50000000000000000000e+03) (40, 1.50000000000000000000e+03) (41, -6.90236711502075195312e+00) (42, 1.12308613955974578857e-01) (43, 1.50000000000000000000e+03) (44, 1.50000000000000000000e+03) (45, -7.14111864566802978516e-01) (46, 2.89565353393554687500e+01) (47, 1.00776183605194091797e+00) (48, -4.02047300338745117188e+00) (49, 8.74880373477935791016e-01) (50, 1.50000000000000000000e+03) (51, 3.95877432823181152344e+00) (52, -2.41378712654113769531e+00) (53, -1.39764225482940673828e+00) (54, 2.79091811180114746094e+00) (55, 1.55974721908569335938e+00) (56, 5.69241046905517578125e-01) (57, 5.32071542739868164062e+00) (58, 5.61638355255126953125e+00) (59, 1.50000000000000000000e+03) (60, 3.90277719497680664062e+00) (61, -9.75823211669921875000e+00) (62, -4.37590408325195312500e+00) (63, 2.07423120737075805664e-01) (31, 8.72008895874023437500e+00) (32, -1.59104764461517333984e+00) (33, 1.50000000000000000000e+03) (34, 3.53025150299072265625e+00) (35, 9.36507701873779296875e-01) (36, 5.08486843109130859375e+00) (37, 1.23149526119232177734e+00) (38, -1.27183017730712890625e+01) (39, 1.50000000000000000000e+03) (40, 1.50000000000000000000e+03) (41, -1.08003673553466796875e+01) (42, -3.09279656410217285156e+00) (43, 1.50000000000000000000e+03) (44, 1.50000000000000000000e+03) (45, 9.22565042972564697266e-01) (46, 4.35356616973876953125e+00) (47, -8.28306579589843750000e+00) (48, -7.32795143127441406250e+00) (49, 1.70988905429840087891e+00) (50, 1.50000000000000000000e+03) (51, -3.93801903724670410156e+00) (52, 2.65946078300476074219e+00) (53, -1.85276353359222412109e+00) (54, 4.97472524642944335938e+00) (55, 3.16815071105957031250e+01) (56, 3.72594070434570312500e+00) (57, 9.17891883850097656250e+00) (58, -1.17993478775024414062e+01) (59, 1.50000000000000000000e+03) (60, 3.94658255577087402344e+00) (61, -8.23855638504028320312e-01) (62, -5.99770975112915039062e+00) (63, -2.15898200869560241699e-01) (31, 3.04269456863403320312e+00) (32, -8.52223491668701171875e+00) (33, 1.50000000000000000000e+03) (34, 2.21098098754882812500e+01) (35, 5.26234090328216552734e-01) (36, -2.06160807609558105469e+00) (37, -2.51284503936767578125e+00) (38, -4.40807104110717773438e-01) (39, 1.50000000000000000000e+03) (40, 1.50000000000000000000e+03) (41, -1.76418411731719970703e+00) (42, -9.31486785411834716797e-01) (43, 1.50000000000000000000e+03) (44, 1.50000000000000000000e+03) (45, 2.21097397804260253906e+00) (46, -1.39762711524963378906e+00) (47, -8.40578842163085937500e+00) (48, -1.36304640769958496094e+00) (49, -2.59118705987930297852e-01) (50, 1.50000000000000000000e+03) (51, 1.65194678306579589844e+00) (52, -1.51653301715850830078e+00) (53, -2.48354482650756835938e+00) (54, 9.08369350433349609375e+00) (55, 9.84330177307128906250e+00) (56, -7.77452707290649414062e-01) (57, 6.55860722064971923828e-01) (58, -1.31042852401733398438e+01) (59, 1.50000000000000000000e+03) (60, 5.71495819091796875000e+00) (61, 4.27801942825317382812e+00) (62, -7.36026585102081298828e-01) (63, -8.39397668838500976562e-01) (31, -2.13840103149414062500e+00) (32, -2.68642020225524902344e+00) (33, 1.50000000000000000000e+03) (34, 4.70956563949584960938e+00) (35, 2.67274236679077148438e+00) (36, 2.93368887901306152344e+00) (37, 1.34298190474510192871e-01) (38, -7.68882846832275390625e+00) (39, 1.50000000000000000000e+03) (40, 1.50000000000000000000e+03) (41, -5.08643770217895507812e+00) (42, 1.38724887371063232422e+00) (43, 1.50000000000000000000e+03) (44, 1.50000000000000000000e+03) (45, -2.68370687961578369141e-01) (46, 1.90726852416992187500e+01) (47, 3.01574945449829101562e-01) (48, -1.22836506366729736328e+00) (49, 3.96040618419647216797e-01) (50, 1.50000000000000000000e+03) (51, 4.46773862838745117188e+00) (52, -2.76143956184387207031e+00) (53, -1.83451700210571289062e+00) (54, 2.28903865814208984375e+00) (55, -3.84408068656921386719e+00) (56, 8.01849603652954101562e-01) (57, 4.50015163421630859375e+00) (58, -1.68080818653106689453e+00) (59, 1.50000000000000000000e+03) (60, 4.72040700912475585938e+00) (61, -1.10004606246948242188e+01) (62, -1.41110420227050781250e+00) (63, -1.90032169222831726074e-01) (31, -5.41266822814941406250e+00) (32, -1.05702817440032958984e+00) (33, 1.50000000000000000000e+03) (34, 3.32481265068054199219e+00) (35, 2.73947477340698242188e+00) (36, 1.78541231155395507812e+00) (37, -3.47601532936096191406e+00) (38, -1.06695823669433593750e+01) (39, 1.50000000000000000000e+03) (40, 1.50000000000000000000e+03) (41, -2.40398216247558593750e+00) (42, 4.73214673995971679688e+00) (43, 1.50000000000000000000e+03) (44, 1.50000000000000000000e+03) (45, 1.98163235187530517578e+00) (46, 3.37732429504394531250e+01) (47, 1.50887131690979003906e+00) (48, 2.50373721122741699219e-01) (49, 3.61510157585144042969e+00) (50, 1.50000000000000000000e+03) (51, 5.37193107604980468750e+00) (52, -7.47227287292480468750e+00) (53, -8.83552432060241699219e-01) (54, 1.32039472460746765137e-01) (55, -9.54039764404296875000e+00) (56, 2.88292121887207031250e+00) (57, 6.14672756195068359375e+00) (58, -5.89969968795776367188e+00) (59, 1.50000000000000000000e+03) (60, -1.51449096202850341797e+00) (61, -8.89435768127441406250e+00) (62, -3.20201307535171508789e-01) (63, -1.62821874022483825684e-01) (31, 3.70394945144653320312e+00) (32, -3.77183341979980468750e+00) (33, 1.50000000000000000000e+03) (34, -1.04655761718750000000e+01) (35, 1.61757040023803710938e+00) (36, 5.30571508407592773438e+00) (37, 3.51143884658813476562e+00) (38, -1.99386596679687500000e+01) (39, 1.50000000000000000000e+03) (40, 1.50000000000000000000e+03) (41, 1.57435429096221923828e+00) (42, 3.58048558235168457031e+00) (43, 1.50000000000000000000e+03) (44, 1.50000000000000000000e+03) (45, -8.28485935926437377930e-02) (46, -6.74486684799194335938e+00) (47, 1.46152615547180175781e+00) (48, -3.11737179756164550781e+00) (49, 1.75384581089019775391e+00) (50, 1.50000000000000000000e+03) (51, 8.47794175148010253906e-01) (52, -3.00689482688903808594e+00) (53, 7.16126263141632080078e-01) (54, 9.12038993835449218750e+00) (55, 9.21748542785644531250e+00) (56, -1.84408044815063476562e+00) (57, 3.24310064315795898438e+00) (58, -2.12088012695312500000e+01) (59, 1.50000000000000000000e+03) (60, 1.83027815073728561401e-02) (61, 4.88024950027465820312e+00) (62, 3.48257422447204589844e+00) (63, 5.60085058212280273438e-01) (31, 1.22167272567749023438e+01) (32, 2.00591182708740234375e+00) (33, 1.50000000000000000000e+03) (34, -1.63120498657226562500e+01) (35, -6.96066808700561523438e+00) (36, -2.25614166259765625000e+00) (37, 3.90107274055480957031e+00) (38, -4.15673255920410156250e+00) (39, 1.50000000000000000000e+03) (40, 1.50000000000000000000e+03) (41, -5.77792358398437500000e+00) (42, -3.27542304992675781250e-01) (43, 1.50000000000000000000e+03) (44, 1.50000000000000000000e+03) (45, -6.06405138969421386719e-01) (46, 1.90631055831909179688e+00) (47, -4.85415506362915039062e+00) (48, -1.52518141269683837891e+00) (49, 9.46840286254882812500e+00) (50, 1.50000000000000000000e+03) (51, -9.66421318054199218750e+00) (52, -4.30432367324829101562e+00) (53, -1.42318427562713623047e+00) (54, 2.18046798706054687500e+01) (55, -1.17193424701690673828e+00) (56, -3.97625088691711425781e+00) (57, 3.83327579498291015625e+00) (58, -7.98979806900024414062e+00) (59, 1.50000000000000000000e+03) (60, 1.50591392517089843750e+01) (61, 7.75088727474212646484e-01) (62, -1.10503649711608886719e+00) (63, 2.08847641944885253906e+00) (31, 7.55998754501342773438e+00) (32, 1.45031869411468505859e+00) (33, 1.50000000000000000000e+03) (34, -4.83938217163085937500e+01) (35, -2.52420157194137573242e-01) (36, -3.81487131118774414062e+00) (37, -8.00292301177978515625e+00) (38, -5.40627861022949218750e+00) (39, 1.50000000000000000000e+03) (40, 1.50000000000000000000e+03) (41, -5.55143165588378906250e+00) (42, 5.50212240219116210938e+00) (43, 1.50000000000000000000e+03) (44, 1.50000000000000000000e+03) (45, 8.50624442100524902344e-01) (46, 7.03211364746093750000e+01) (47, 2.22659897804260253906e+00) (48, 1.01991750299930572510e-01) (49, 8.64714431762695312500e+00) (50, 1.50000000000000000000e+03) (51, -9.04396653175354003906e-01) (52, -9.20171928405761718750e+00) (53, -2.04828214645385742188e+00) (54, 5.59843063354492187500e+00) (55, -4.25686550140380859375e+00) (56, 1.06047976016998291016e+00) (57, 8.73961162567138671875e+00) (58, 5.38481044769287109375e+00) (59, 1.50000000000000000000e+03) (60, 9.01434516906738281250e+00) (61, -3.45376491546630859375e+00) (62, -1.42659091949462890625e+00) (63, -3.50845718383789062500e+00) (31, 1.18538980484008789062e+01) (32, -7.81074523925781250000e+00) (33, 1.50000000000000000000e+03) (34, 1.14284448623657226562e+01) (35, 5.39006233215332031250e-01) (36, -4.57949399948120117188e+00) (37, 4.19752311706542968750e+00) (38, -3.33460140228271484375e+00) (39, 1.50000000000000000000e+03) (40, 1.50000000000000000000e+03) (41, 1.93834066390991210938e+00) (42, -3.07271766662597656250e+00) (43, 1.50000000000000000000e+03) (44, 1.50000000000000000000e+03) (45, 2.65339702367782592773e-01) (46, 8.10038280487060546875e+00) (47, -6.80733728408813476562e+00) (48, -2.95149922370910644531e+00) (49, 1.07822310924530029297e+00) (50, 1.50000000000000000000e+03) (51, -1.29874467849731445312e+00) (52, 1.63600182533264160156e+00) (53, -1.28698158264160156250e+00) (54, -4.54223918914794921875e+00) (55, 1.92159175872802734375e+01) (56, -3.00131011009216308594e+00) (57, -4.74857711791992187500e+00) (58, 7.21823692321777343750e-01) (59, 1.50000000000000000000e+03) (60, 7.79611158370971679688e+00) (61, -1.43245235085487365723e-01) (62, -2.02182245254516601562e+00) (63, -9.63945910334587097168e-02) (31, 9.34702301025390625000e+00) (32, -9.54271888732910156250e+00) (33, 1.50000000000000000000e+03) (34, 2.19994926452636718750e+01) (35, 3.22211718559265136719e+00) (36, -3.11022090911865234375e+00) (37, 4.98389387130737304688e+00) (38, -8.54791069030761718750e+00) (39, 1.50000000000000000000e+03) (40, 1.50000000000000000000e+03) (41, 2.54521042108535766602e-01) (42, 6.66044354438781738281e-01) (43, 1.50000000000000000000e+03) (44, 1.50000000000000000000e+03) (45, -5.28872072696685791016e-01) (46, 9.44879627227783203125e+00) (47, -2.56043601036071777344e+00) (48, 1.23753058910369873047e+00) (49, 7.30230093002319335938e-01) (50, 1.50000000000000000000e+03) (51, 1.60722994804382324219e+00) (52, -1.10324752330780029297e+00) (53, -9.56917107105255126953e-01) (54, -1.87392914295196533203e+00) (55, 2.32962298393249511719e+00) (56, -8.59000861644744873047e-01) (57, -3.03650856018066406250e+00) (58, -1.15641183853149414062e+01) (59, 1.50000000000000000000e+03) (60, 1.48322570323944091797e+00) (61, -4.39170789718627929688e+00) (62, 2.10464656352996826172e-01) (63, 1.39090168476104736328e+00) (31, 7.14046764373779296875e+00) (32, -9.62803268432617187500e+00) (33, 1.50000000000000000000e+03) (34, 1.86225662231445312500e+01) (35, 1.12685499191284179688e+01) (36, -1.14245164394378662109e+00) (37, -4.20968949794769287109e-01) (38, -1.31399555206298828125e+01) (39, 1.50000000000000000000e+03) (40, 1.50000000000000000000e+03) (41, -3.72489905357360839844e+00) (42, 2.53594589233398437500e+00) (43, 1.50000000000000000000e+03) (44, 1.50000000000000000000e+03) (45, 3.25105100870132446289e-01) (46, 4.13339157104492187500e+01) (47, -4.28490877151489257812e+00) (48, 3.84033751487731933594e+00) (49, -1.54085624217987060547e+00) (50, 1.50000000000000000000e+03) (51, 2.40665602684020996094e+00) (52, -5.97307491302490234375e+00) (53, -1.57233774662017822266e+00) (54, -7.14643299579620361328e-01) (55, 5.72042942047119140625e+00) (56, 3.39072728157043457031e+00) (57, -1.67611968517303466797e+00) (58, -7.77846288681030273438e+00) (59, 1.50000000000000000000e+03) (60, -9.38402891159057617188e-01) (61, -8.60087299346923828125e+00) (62, 1.88720715045928955078e+00) (63, 5.70712327957153320312e-01) (31, -3.83495616912841796875e+00) (32, -6.75773000717163085938e+00) (33, 1.50000000000000000000e+03) (34, 6.15372514724731445312e+00) (35, 9.46398302912712097168e-02) (36, 4.35867691040039062500e+00) (37, 2.92685437202453613281e+00) (38, -1.22758569717407226562e+01) (39, 1.50000000000000000000e+03) (40, 1.50000000000000000000e+03) (41, 2.52575635910034179688e+00) (42, 1.11440575122833251953e+00) (43, 1.50000000000000000000e+03) (44, 1.50000000000000000000e+03) (45, 1.97719573974609375000e+00) (46, 5.70832681655883789062e+00) (47, 8.62525701522827148438e-01) (48, -8.40528011322021484375e+00) (49, -4.47293996810913085938e+00) (50, 1.50000000000000000000e+03) (51, 1.03428087234497070312e+01) (52, -1.36642009019851684570e-01) (53, -1.51416647434234619141e+00) (54, -6.09110021591186523438e+00) (55, 2.42949733734130859375e+01) (56, 9.19663727283477783203e-01) (57, -2.71699905395507812500e+00) (58, 4.38571023941040039062e+00) (59, 1.50000000000000000000e+03) (60, -2.63889163732528686523e-01) (61, -8.76677799224853515625e+00) (62, -1.77901089191436767578e+00) (63, 7.30354189872741699219e-01) (31, -2.18820452690124511719e+00) (32, -2.11665630340576171875e+00) (33, 1.50000000000000000000e+03) (34, 8.64910125732421875000e+00) (35, -8.89871954917907714844e-01) (36, 4.80145740509033203125e+00) (37, 2.78010749816894531250e+00) (38, -1.16307945251464843750e+01) (39, 1.50000000000000000000e+03) (40, 1.50000000000000000000e+03) (41, -1.94858062267303466797e+00) (42, 1.21180868148803710938e+00) (43, 1.50000000000000000000e+03) (44, 1.50000000000000000000e+03) (45, 6.44889533519744873047e-01) (46, 9.44034004211425781250e+00) (47, -2.81784564256668090820e-01) (48, -8.11364841461181640625e+00) (49, -4.54191207885742187500e-01) (50, 1.50000000000000000000e+03) (51, 6.34445619583129882812e+00) (52, -1.69226181507110595703e+00) (53, -1.23796713352203369141e+00) (54, 5.20394504070281982422e-01) (55, 2.26016559600830078125e+01) (56, 2.39412569999694824219e+00) (57, -6.69055819511413574219e-01) (58, 6.44652128219604492188e+00) (59, 1.50000000000000000000e+03) (60, 1.21891689300537109375e+00) (61, -1.26749019622802734375e+01) (62, -9.25765693187713623047e-01) (63, 3.51579725742340087891e-01) (31, 4.37013149261474609375e+00) (32, 1.71703827381134033203e+00) (33, 1.50000000000000000000e+03) (34, 1.35459995269775390625e+01) (35, -4.92755889892578125000e+00) (36, 4.27065324783325195312e+00) (37, 1.62378394603729248047e+00) (38, -1.09247608184814453125e+01) (39, 1.50000000000000000000e+03) (40, 1.50000000000000000000e+03) (41, -2.89186048507690429688e+00) (42, 8.31888914108276367188e-01) (43, 1.50000000000000000000e+03) (44, 1.50000000000000000000e+03) (45, 1.39351439476013183594e+00) (46, 1.30424613952636718750e+01) (47, -2.11421537399291992188e+00) (48, -1.23132438659667968750e+01) (49, -1.00355587899684906006e-01) (50, 1.50000000000000000000e+03) (51, 3.46688437461853027344e+00) (52, -4.98218011856079101562e+00) (53, -1.32510280609130859375e+00) (54, 2.94580388069152832031e+00) (55, 2.83779544830322265625e+01) (56, 7.33849000930786132812e+00) (57, -1.44340217113494873047e-01) (58, 5.44477367401123046875e+00) (59, 1.50000000000000000000e+03) (60, 1.36236786842346191406e+00) (61, -1.57648506164550781250e+01) (62, 3.52300614118576049805e-01) (63, 6.44082963466644287109e-01) (31, -1.41406464576721191406e+00) (32, -3.00881594419479370117e-01) (33, 1.50000000000000000000e+03) (34, -7.30542993545532226562e+00) (35, 1.56518840789794921875e+01) (36, -2.51145386695861816406e+00) (37, -3.83675742149353027344e+00) (38, 2.45059251785278320312e+00) (39, 1.50000000000000000000e+03) (40, 1.50000000000000000000e+03) (41, 4.62177366018295288086e-01) (42, 7.19960927963256835938e-01) (43, 1.50000000000000000000e+03) (44, 1.50000000000000000000e+03) (45, -2.76429224014282226562e+00) (46, -3.84621119499206542969e+00) (47, -2.50579404830932617188e+00) (48, -7.95366108417510986328e-01) (49, 3.92134666442871093750e+00) (50, 1.50000000000000000000e+03) (51, -7.22141504287719726562e+00) (52, -4.82867062091827392578e-01) (53, -1.12758302688598632812e+00) (54, -7.33642196655273437500e+00) (55, -7.73642587661743164062e+00) (56, -8.15263748168945312500e-01) (57, 2.10042619705200195312e+00) (58, -1.15559301376342773438e+01) (59, 1.50000000000000000000e+03) (60, 1.34570589065551757812e+01) (61, -7.16754961013793945312e+00) (62, 5.95000267028808593750e-01) (63, -2.94063448905944824219e-01) (31, -5.67784726619720458984e-01) (32, 1.79899442195892333984e+00) (33, 1.50000000000000000000e+03) (34, -1.72034339904785156250e+01) (35, 8.93999481201171875000e+00) (36, -3.82566022872924804688e+00) (37, -5.23007249832153320312e+00) (38, 8.66422533988952636719e-01) (39, 1.50000000000000000000e+03) (40, 1.50000000000000000000e+03) (41, -2.31811165809631347656e+00) (42, 1.41619932651519775391e+00) (43, 1.50000000000000000000e+03) (44, 1.50000000000000000000e+03) (45, -2.32479023933410644531e+00) (46, -1.65624046325683593750e+00) (47, 9.64768052101135253906e-01) (48, -1.17073488235473632812e+00) (49, 4.73331546783447265625e+00) (50, 1.50000000000000000000e+03) (51, -2.40684270858764648438e+00) (52, -9.38661932945251464844e-01) (53, -2.95432239770889282227e-01) (54, -3.53723669052124023438e+00) (55, -1.31891307830810546875e+01) (56, -2.34536066651344299316e-01) (57, 2.39247155189514160156e+00) (58, -1.34773616790771484375e+01) (59, 1.50000000000000000000e+03) (60, 9.66910076141357421875e+00) (61, -4.85670375823974609375e+00) (62, -1.00258493423461914062e+00) (63, -1.82528898119926452637e-01) (31, 2.42077612876892089844e+00) (32, 1.11943817138671875000e+01) (33, 1.50000000000000000000e+03) (34, -1.70040149688720703125e+01) (35, 7.34323883056640625000e+00) (36, -4.01445531845092773438e+00) (37, -7.29090690612792968750e+00) (38, -1.04647195339202880859e+00) (39, 1.50000000000000000000e+03) (40, 1.50000000000000000000e+03) (41, -3.05870413780212402344e+00) (42, 1.46537816524505615234e+00) (43, 1.50000000000000000000e+03) (44, 1.50000000000000000000e+03) (45, -1.55885708332061767578e+00) (46, 5.26091527938842773438e+00) (47, -3.62619757652282714844e-01) (48, -7.28344058990478515625e+00) (49, 8.19860363006591796875e+00) (50, 1.50000000000000000000e+03) (51, -4.05698633193969726562e+00) (52, -2.06418991088867187500e+00) (53, 5.03166079521179199219e-01) (54, -1.40990269184112548828e+00) (55, -7.72032976150512695312e+00) (56, 2.76772379875183105469e+00) (57, 3.57681155204772949219e+00) (58, -9.90102386474609375000e+00) (59, 1.50000000000000000000e+03) (60, 5.81531572341918945312e+00) (61, -8.34638404846191406250e+00) (62, -3.40291666984558105469e+00) (63, -3.14519464969635009766e-01) (31, -9.41959667205810546875e+00) (32, -2.86491066217422485352e-01) (33, 1.50000000000000000000e+03) (34, -1.84018192291259765625e+01) (35, 3.51383614540100097656e+00) (36, 7.44440126419067382812e+00) (37, -9.12621393799781799316e-02) (38, 3.39728832244873046875e+00) (39, 1.50000000000000000000e+03) (40, 1.50000000000000000000e+03) (41, -1.77982177734375000000e+01) (42, -5.56773066520690917969e-01) (43, 1.50000000000000000000e+03) (44, 1.50000000000000000000e+03) (45, -2.66409218311309814453e-01) (46, 3.15024585723876953125e+01) (47, 6.28675651550292968750e+00) (48, 3.39443893432617187500e+01) (49, 3.26581895351409912109e-01) (50, 1.50000000000000000000e+03) (51, -3.55527013540267944336e-01) (52, -3.67052078247070312500e+00) (53, 3.21461534500122070312e+00) (54, -1.15503921508789062500e+01) (55, 1.30627736449241638184e-01) (56, -2.35165572166442871094e+00) (57, 6.57309341430664062500e+00) (58, 1.89678168296813964844e+00) (59, 1.50000000000000000000e+03) (60, 3.11788487434387207031e+00) (61, -4.04061508178710937500e+00) (62, 2.61885690689086914062e+00) (63, 1.23314702510833740234e+00) (31, 5.86660337448120117188e+00) (32, -7.76914775371551513672e-01) (33, 1.50000000000000000000e+03) (34, 9.47291469573974609375e+00) (35, 1.41271531581878662109e+00) (36, 9.96698439121246337891e-01) (37, 2.72801327705383300781e+00) (38, 1.15682458877563476562e+00) (39, 1.50000000000000000000e+03) (40, 1.50000000000000000000e+03) (41, -1.20745134353637695312e+01) (42, -2.28344440460205078125e+00) (43, 1.50000000000000000000e+03) (44, 1.50000000000000000000e+03) (45, -1.20218253135681152344e+00) (46, 6.93572330474853515625e+00) (47, -2.24362587928771972656e+00) (48, 5.26021909713745117188e+00) (49, -7.71644711494445800781e-01) (50, 1.50000000000000000000e+03) (51, -3.04120087623596191406e+00) (52, -6.39923810958862304688e-01) (53, 3.13512235879898071289e-01) (54, 4.89096641540527343750e+00) (55, -7.59885358810424804688e+00) (56, 2.16264796257019042969e+00) (57, -2.94895792007446289062e+00) (58, -3.38252282142639160156e+00) (59, 1.50000000000000000000e+03) (60, 7.54581880569458007812e+00) (61, -9.99970531463623046875e+00) (62, 4.07333564758300781250e+00) (63, -1.02712124586105346680e-01) (31, 9.29661083221435546875e+00) (32, -2.17151546478271484375e+00) (33, 1.50000000000000000000e+03) (34, 1.97484703063964843750e+01) (35, 6.55430197715759277344e-01) (36, 1.02092552185058593750e+00) (37, 2.69731020927429199219e+00) (38, -1.82860207557678222656e+00) (39, 1.50000000000000000000e+03) (40, 1.50000000000000000000e+03) (41, -1.29964189529418945312e+01) (42, -2.27514553070068359375e+00) (43, 1.50000000000000000000e+03) (44, 1.50000000000000000000e+03) (45, -4.83860611915588378906e-01) (46, 1.07303514480590820312e+01) (47, -4.51482105255126953125e+00) (48, 3.56374645233154296875e+00) (49, -1.80487489700317382812e+00) (50, 1.50000000000000000000e+03) (51, -2.17851042747497558594e+00) (52, -3.01899003982543945312e+00) (53, -9.29705739021301269531e-01) (54, 8.43768882751464843750e+00) (55, -7.99421846866607666016e-01) (56, 6.85809803009033203125e+00) (57, -2.43856358528137207031e+00) (58, -4.96788311004638671875e+00) (59, 1.50000000000000000000e+03) (60, 5.25712299346923828125e+00) (61, -1.25975055694580078125e+01) (62, 6.09796380996704101562e+00) (63, -9.73714470863342285156e-01) (31, 1.08041398227214813232e-01) (32, -6.50466156005859375000e+00) (33, 1.50000000000000000000e+03) (34, -3.48702392578125000000e+01) (35, 1.27957284450531005859e+00) (36, 9.95163154602050781250e+00) (37, 4.16530513763427734375e+00) (38, -1.30628890991210937500e+01) (39, 1.50000000000000000000e+03) (40, 1.50000000000000000000e+03) (41, 1.06462967395782470703e+00) (42, 3.59691810607910156250e+00) (43, 1.50000000000000000000e+03) (44, 1.50000000000000000000e+03) (45, -6.90446615219116210938e-01) (46, -1.54885768890380859375e+01) (47, 4.42044115066528320312e+00) (48, -1.05997295379638671875e+01) (49, -7.59857702255249023438e+00) (50, 1.50000000000000000000e+03) (51, 1.61637485027313232422e+00) (52, 1.36498725414276123047e+00) (53, 1.46178829669952392578e+00) (54, -1.64193141460418701172e+00) (55, -4.09646844863891601562e+00) (56, 4.42630767822265625000e+00) (57, 1.17147884368896484375e+01) (58, -2.34521102905273437500e+01) (59, 1.50000000000000000000e+03) (60, 2.68168592453002929688e+00) (61, 1.36765527725219726562e+00) (62, 3.43303108215332031250e+00) (63, 5.27689278125762939453e-01) (31, 4.83073145151138305664e-01) (32, -1.46271908283233642578e+00) (33, 1.50000000000000000000e+03) (34, -3.74948844909667968750e+01) (35, -3.67995929718017578125e+00) (36, 6.67071104049682617188e+00) (37, 1.51163554191589355469e+00) (38, -2.96153235435485839844e+00) (39, 1.50000000000000000000e+03) (40, 1.50000000000000000000e+03) (41, -3.74709081649780273438e+00) (42, 1.75497424602508544922e+00) (43, 1.50000000000000000000e+03) (44, 1.50000000000000000000e+03) (45, 1.75035250186920166016e+00) (46, 5.26818132400512695312e+00) (47, 4.85772180557250976562e+00) (48, -7.77049422264099121094e-01) (49, -6.00329208374023437500e+00) (50, 1.50000000000000000000e+03) (51, 1.30019843578338623047e+00) (52, -1.56389200687408447266e+00) (53, -3.55317890644073486328e-01) (54, -1.03868138790130615234e+00) (55, -3.18275928497314453125e+00) (56, 2.83949065208435058594e+00) (57, 8.75521469116210937500e+00) (58, -2.01024794578552246094e+00) (59, 1.50000000000000000000e+03) (60, 4.56122684478759765625e+00) (61, -6.77466243505477905273e-02) (62, -6.76634535193443298340e-02) (63, 3.23255121707916259766e-01) (31, 1.09257040023803710938e+01) (32, 5.64518690109252929688e+00) (33, 1.50000000000000000000e+03) (34, -1.07474622726440429688e+01) (35, -4.10727787017822265625e+00) (36, 5.59383058547973632812e+00) (37, 9.93221580982208251953e-01) (38, -3.74256730079650878906e+00) (39, 1.50000000000000000000e+03) (40, 1.50000000000000000000e+03) (41, -8.09463787078857421875e+00) (42, -4.52718555927276611328e-01) (43, 1.50000000000000000000e+03) (44, 1.50000000000000000000e+03) (45, 1.12462794780731201172e+00) (46, 5.18928861618041992188e+00) (47, -3.40322208404541015625e+00) (48, 1.59021484851837158203e+00) (49, -6.18801593780517578125e+00) (50, 1.50000000000000000000e+03) (51, -5.31224536895751953125e+00) (52, 8.75170409679412841797e-01) (53, -4.86575484275817871094e-01) (54, -4.29898071289062500000e+00) (55, 2.09536533355712890625e+01) (56, 1.13748817443847656250e+01) (57, 1.88469552993774414062e+00) (58, -1.52447633743286132812e+01) (59, 1.50000000000000000000e+03) (60, 4.70047807693481445312e+00) (61, -1.16986074447631835938e+01) (62, 7.57800117135047912598e-02) (63, -1.10161952674388885498e-01) (31, 1.34482192993164062500e+00) (32, -4.20580005645751953125e+00) (33, 1.50000000000000000000e+03) (34, 1.25565967559814453125e+01) (35, 7.34590530395507812500e+00) (36, -1.70691609382629394531e+00) (37, 5.18402814865112304688e+00) (38, 1.37811155319213867188e+01) (39, 1.50000000000000000000e+03) (40, 1.50000000000000000000e+03) (41, -7.53782081604003906250e+00) (42, -1.74450063705444335938e+00) (43, 1.50000000000000000000e+03) (44, 1.50000000000000000000e+03) (45, 3.36227583885192871094e+00) (46, 3.06792182922363281250e+01) (47, 3.88733077049255371094e+00) (48, 2.84646091461181640625e+01) (49, -4.22649717330932617188e+00) (50, 1.50000000000000000000e+03) (51, -3.29605627059936523438e+00) (52, -1.81467449665069580078e+00) (53, 2.97072196006774902344e+00) (54, -2.43008174896240234375e+01) (55, -1.32851581573486328125e+01) (56, -1.11667051315307617188e+01) (57, -1.19510622024536132812e+01) (58, 1.30969362258911132812e+01) (59, 1.50000000000000000000e+03) (60, 9.92106437683105468750e+00) (61, 7.45393335819244384766e-01) (62, -3.23965191841125488281e+00) (63, 5.39624154567718505859e-01) (31, -2.37936243414878845215e-01) (32, 2.16427493095397949219e+00) (33, 1.50000000000000000000e+03) (34, -2.33978633880615234375e+01) (35, 2.89399194717407226562e+00) (36, 3.24184632301330566406e+00) (37, 2.86065888404846191406e+00) (38, -1.76021695137023925781e+00) (39, 1.50000000000000000000e+03) (40, 1.50000000000000000000e+03) (41, -3.92397618293762207031e+00) (42, 1.26559662818908691406e+00) (43, 1.50000000000000000000e+03) (44, 1.50000000000000000000e+03) (45, 2.02961158752441406250e+00) (46, 1.72263965606689453125e+01) (47, 3.67806506156921386719e+00) (48, 2.31438231468200683594e+00) (49, -2.12876868247985839844e+00) (50, 1.50000000000000000000e+03) (51, -2.57642102241516113281e+00) (52, 5.25088846683502197266e-01) (53, 2.05230712890625000000e+00) (54, -1.32785816192626953125e+01) (55, -2.68752098083496093750e+00) (56, -1.39733517169952392578e+00) (57, 7.78517675399780273438e+00) (58, -4.99951887130737304688e+00) (59, 1.50000000000000000000e+03) (60, 5.94598817825317382812e+00) (61, -6.95143365859985351562e+00) (62, 3.01503598690032958984e-01) (63, 1.27949976921081542969e+00) (31, 1.05242385864257812500e+01) (32, -1.65239524841308593750e+00) (33, 1.50000000000000000000e+03) (34, 2.74245595932006835938e+00) (35, 3.55421686172485351562e+00) (36, 5.22601604461669921875e+00) (37, 7.32977914810180664062e+00) (38, -9.10271644592285156250e+00) (39, 1.50000000000000000000e+03) (40, 1.50000000000000000000e+03) (41, -1.01145467758178710938e+01) (42, -1.51435852050781250000e+00) (43, 1.50000000000000000000e+03) (44, 1.50000000000000000000e+03) (45, 3.90974807739257812500e+00) (46, -2.11655950546264648438e+00) (47, -7.74204254150390625000e+00) (48, 2.86593246459960937500e+00) (49, -2.91703510284423828125e+00) (50, 1.50000000000000000000e+03) (51, -9.41258335113525390625e+00) (52, 2.26376175880432128906e+00) (53, 5.75791776180267333984e-01) (54, -4.38471603393554687500e+00) (55, 2.48307628631591796875e+01) (56, 2.88777756690979003906e+00) (57, 6.53373289108276367188e+00) (58, -1.43902072906494140625e+01) (59, 1.50000000000000000000e+03) (60, 5.51022768020629882812e+00) (61, -5.36847829818725585938e+00) (62, 2.18335986137390136719e+00) (63, 2.04196125268936157227e-01) (31, 4.29906159639358520508e-01) (32, -8.55910873413085937500e+00) (33, 1.50000000000000000000e+03) (34, -2.21309432983398437500e+01) (35, 4.90215957164764404297e-01) (36, -5.93848085403442382812e+00) (37, -2.31287670135498046875e+00) (38, 1.31158237457275390625e+01) (39, 1.50000000000000000000e+03) (40, 1.50000000000000000000e+03) (41, 9.25663280487060546875e+00) (42, 9.24445748329162597656e-01) (43, 1.50000000000000000000e+03) (44, 1.50000000000000000000e+03) (45, 2.17655181884765625000e+00) (46, -1.00430221557617187500e+01) (47, 1.29398465156555175781e+00) (48, 4.29089486598968505859e-01) (49, -3.47724056243896484375e+00) (50, 1.50000000000000000000e+03) (51, -2.68885821104049682617e-01) (52, 1.71182334423065185547e+00) (53, 7.36602842807769775391e-01) (54, -2.25689601898193359375e+01) (55, -3.28637671470642089844e+00) (56, 8.06649684906005859375e-01) (57, -1.88096737861633300781e+00) (58, -1.33744316101074218750e+01) (59, 1.50000000000000000000e+03) (60, 8.97099590301513671875e+00) (61, 6.19921731948852539062e+00) (62, 2.42690110206604003906e+00) (63, -2.04683017730712890625e+00) (31, -1.28387153148651123047e+00) (32, -6.78461313247680664062e+00) (33, 1.50000000000000000000e+03) (34, -1.04003963470458984375e+01) (35, 4.06882476806640625000e+00) (36, 3.94910216331481933594e+00) (37, 5.05605840682983398438e+00) (38, -5.99752783775329589844e-01) (39, 1.50000000000000000000e+03) (40, 1.50000000000000000000e+03) (41, -2.82212162017822265625e+00) (42, 1.10375547409057617188e+00) (43, 1.50000000000000000000e+03) (44, 1.50000000000000000000e+03) (45, 7.10703074932098388672e-01) (46, 1.00996942520141601562e+01) (47, 3.13406014442443847656e+00) (48, 5.53936815261840820312e+00) (49, -3.33134055137634277344e+00) (50, 1.50000000000000000000e+03) (51, 8.34900587797164916992e-02) (52, -1.43676206469535827637e-01) (53, 1.05168688297271728516e+00) (54, -1.65435199737548828125e+01) (55, -8.32572841644287109375e+00) (56, 3.27531658113002777100e-02) (57, -2.51991748809814453125e-01) (58, -1.17404139041900634766e+00) (59, 1.50000000000000000000e+03) (60, 6.70155954360961914062e+00) (61, -6.42559003829956054688e+00) (62, -1.73364266753196716309e-01) (63, 1.00325047969818115234e-01) (31, -7.90166437625885009766e-01) (32, -9.49627304077148437500e+00) (33, 1.50000000000000000000e+03) (34, 1.08537304401397705078e+00) (35, 3.10001111030578613281e+00) (36, 6.70517492294311523438e+00) (37, 4.97258949279785156250e+00) (38, -6.07508945465087890625e+00) (39, 1.50000000000000000000e+03) (40, 1.50000000000000000000e+03) (41, -1.02231943607330322266e+00) (42, 3.85740232467651367188e+00) (43, 1.50000000000000000000e+03) (44, 1.50000000000000000000e+03) (45, 2.52719616889953613281e+00) (46, 3.86886062622070312500e+01) (47, 1.58607590198516845703e+00) (48, 1.26409816741943359375e+01) (49, -2.90933060646057128906e+00) (50, 1.50000000000000000000e+03) (51, 1.42753887176513671875e+00) (52, -7.61482667922973632812e+00) (53, 1.60106611251831054688e+00) (54, -1.99528617858886718750e+01) (55, -1.40994033813476562500e+01) (56, 1.48089838027954101562e+00) (57, -5.17498397827148437500e+00) (58, 7.90924167633056640625e+00) (59, 1.50000000000000000000e+03) (60, 1.28383243083953857422e+00) (61, -4.72566223144531250000e+00) (62, -9.63560581207275390625e-01) (63, 1.71948850154876708984e-01) (31, -5.23090171813964843750e+00) (32, -4.54645109176635742188e+00) (33, 1.50000000000000000000e+03) (34, -3.29388694763183593750e+01) (35, 3.00637197494506835938e+00) (36, 1.09004917144775390625e+01) (37, 2.26044964790344238281e+00) (38, -1.14822626113891601562e+01) (39, 1.50000000000000000000e+03) (40, 1.50000000000000000000e+03) (41, 4.09605407714843750000e+00) (42, 2.29312276840209960938e+00) (43, 1.50000000000000000000e+03) (44, 1.50000000000000000000e+03) (45, 1.36485171318054199219e+00) (46, -1.31902246475219726562e+01) (47, 3.55221295356750488281e+00) (48, -5.80544805526733398438e+00) (49, -8.89809846878051757812e-01) (50, 1.50000000000000000000e+03) (51, 7.56148278713226318359e-01) (52, -1.13168025016784667969e+00) (53, 2.88824486732482910156e+00) (54, -1.75808620452880859375e+01) (55, 8.05982589721679687500e+00) (56, 3.73295569419860839844e+00) (57, 5.99640226364135742188e+00) (58, -1.67336654663085937500e+01) (59, 1.50000000000000000000e+03) (60, 1.07278585433959960938e+00) (61, 3.16456699371337890625e+00) (62, 8.59277057647705078125e+00) (63, 2.88363695144653320312e-01) (31, 2.58944821357727050781e+00) (32, -4.82442140579223632812e+00) (33, 1.50000000000000000000e+03) (34, -2.37131156921386718750e+01) (35, 2.58272975683212280273e-01) (36, 5.98306417465209960938e-01) (37, 6.15329790115356445312e+00) (38, 6.93121385574340820312e+00) (39, 1.50000000000000000000e+03) (40, 1.50000000000000000000e+03) (41, -4.51752424240112304688e+00) (42, -1.04651892185211181641e+00) (43, 1.50000000000000000000e+03) (44, 1.50000000000000000000e+03) (45, 1.69905334711074829102e-01) (46, -1.73786616325378417969e+00) (47, -9.29487228393554687500e-01) (48, 3.66792631149291992188e+00) (49, 1.37032374739646911621e-01) (50, 1.50000000000000000000e+03) (51, -7.73051261901855468750e+00) (52, -2.48996168375015258789e-01) (53, -5.19326269626617431641e-01) (54, -3.35504794120788574219e+00) (55, -9.99681377410888671875e+00) (56, 1.76796162128448486328e+00) (57, 3.39742541313171386719e+00) (58, -4.74886369705200195312e+00) (59, 1.50000000000000000000e+03) (60, 1.43567180633544921875e+01) (61, -4.99869632720947265625e+00) (62, 3.18254947662353515625e+00) (63, 2.41862982511520385742e-02) (31, 8.25331211090087890625e+00) (32, -1.76432914733886718750e+01) (33, 1.50000000000000000000e+03) (34, -2.42208790779113769531e+00) (35, 3.51767015457153320312e+00) (36, 2.39012837409973144531e+00) (37, 8.21896457672119140625e+00) (38, -1.95089554786682128906e+00) (39, 1.50000000000000000000e+03) (40, 1.50000000000000000000e+03) (41, -1.21322240829467773438e+01) (42, -8.12787830829620361328e-01) (43, 1.50000000000000000000e+03) (44, 1.50000000000000000000e+03) (45, 1.03870913386344909668e-01) (46, 2.80203666687011718750e+01) (47, -1.23125147819519042969e+00) (48, 1.42109422683715820312e+01) (49, -2.11669492721557617188e+00) (50, 1.50000000000000000000e+03) (51, -8.19983363151550292969e-01) (52, -5.29488468170166015625e+00) (53, -1.08991253376007080078e+00) (54, -3.93709325790405273438e+00) (55, -1.00418329238891601562e+01) (56, 2.19276356697082519531e+00) (57, -1.35771584510803222656e+00) (58, 2.48363494873046875000e+00) (59, 1.50000000000000000000e+03) (60, 4.96246290206909179688e+00) (61, -6.47803366184234619141e-01) (62, 3.42881345748901367188e+00) (63, 2.85680383443832397461e-01) (31, 1.17816483974456787109e+00) (32, -8.01846599578857421875e+00) (33, 1.50000000000000000000e+03) (34, -2.50098361968994140625e+01) (35, 4.48806619644165039062e+00) (36, 7.24340677261352539062e-01) (37, 2.01730418205261230469e+00) (38, 4.87650632858276367188e+00) (39, 1.50000000000000000000e+03) (40, 1.50000000000000000000e+03) (41, -1.45193800330162048340e-01) (42, -3.20986866950988769531e+00) (43, 1.50000000000000000000e+03) (44, 1.50000000000000000000e+03) (45, 2.69705224037170410156e+00) (46, -1.40140533447265625000e+01) (47, -2.52253127098083496094e+00) (48, -2.54559850692749023438e+00) (49, -5.72552967071533203125e+00) (50, 1.50000000000000000000e+03) (51, -1.67984056472778320312e+00) (52, 3.57710301876068115234e-01) (53, -1.12511754035949707031e+00) (54, -1.48863172531127929688e+01) (55, 1.46544990539550781250e+01) (56, 6.34920835494995117188e+00) (57, 6.62811934947967529297e-01) (58, -6.09055995941162109375e+00) (59, 1.50000000000000000000e+03) (60, 7.69139146804809570312e+00) (61, -1.75780251622200012207e-01) (62, 8.37967872619628906250e+00) (63, 3.06796520948410034180e-01) (31, 8.08779239654541015625e-01) (32, -8.31331825256347656250e+00) (33, 1.50000000000000000000e+03) (34, -1.53568382263183593750e+01) (35, 6.53335237503051757812e+00) (36, 5.17796945571899414062e+00) (37, 4.31374597549438476562e+00) (38, -1.47636270523071289062e+00) (39, 1.50000000000000000000e+03) (40, 1.50000000000000000000e+03) (41, -2.14793181419372558594e+00) (42, 3.28580588102340698242e-01) (43, 1.50000000000000000000e+03) (44, 1.50000000000000000000e+03) (45, 1.97083425521850585938e+00) (46, -7.34653139114379882812e+00) (47, 1.15378236770629882812e+00) (48, -2.78882712125778198242e-01) (49, -6.97892904281616210938e+00) (50, 1.50000000000000000000e+03) (51, -2.53354340791702270508e-01) (52, -1.70276069641113281250e+00) (53, 4.07301157712936401367e-01) (54, -1.16976203918457031250e+01) (55, -1.37508690357208251953e+00) (56, 6.23126506805419921875e+00) (57, 3.22113060951232910156e+00) (58, -9.52900981903076171875e+00) (59, 1.50000000000000000000e+03) (60, 2.24519789218902587891e-01) (61, -1.16186130046844482422e+00) (62, 4.50873374938964843750e+00) (63, 1.52353584766387939453e+00) (31, 7.51532173156738281250e+00) (32, -1.04823999404907226562e+01) (33, 1.50000000000000000000e+03) (34, -4.36366510391235351562e+00) (35, 6.86266851425170898438e+00) (36, 3.85354971885681152344e+00) (37, 1.59070435911417007446e-02) (38, -3.43588423728942871094e+00) (39, 1.50000000000000000000e+03) (40, 1.50000000000000000000e+03) (41, -4.83871030807495117188e+00) (42, 1.51044368743896484375e+00) (43, 1.50000000000000000000e+03) (44, 1.50000000000000000000e+03) (45, 1.82381749153137207031e+00) (46, 3.39300689697265625000e+01) (47, -1.67460477352142333984e+00) (48, 6.09950113296508789062e+00) (49, -8.77087593078613281250e+00) (50, 1.50000000000000000000e+03) (51, 1.77376464009284973145e-01) (52, -8.94660663604736328125e+00) (53, 1.60052448511123657227e-01) (54, -9.70378303527832031250e+00) (55, 1.11575961112976074219e+00) (56, 1.11687660217285156250e+01) (57, -2.16924883425235748291e-02) (58, -3.16724729537963867188e+00) (59, 1.50000000000000000000e+03) (60, -2.18128418922424316406e+00) (61, -4.23702239990234375000e+00) (62, 5.53919696807861328125e+00) (63, 7.62449264526367187500e-01) (31, -1.38872671127319335938e+01) (32, -5.11850595474243164062e+00) (33, 1.50000000000000000000e+03) (34, 8.46217823028564453125e+00) (35, 5.78422583639621734619e-02) (36, 6.69968080520629882812e+00) (37, 4.72542047500610351562e-01) (38, 8.44106483459472656250e+00) (39, 1.50000000000000000000e+03) (40, 1.50000000000000000000e+03) (41, -1.01165485382080078125e+01) (42, 9.04001712799072265625e-01) (43, 1.50000000000000000000e+03) (44, 1.50000000000000000000e+03) (45, 5.05216646194458007812e+00) (46, 1.17447578907012939453e+00) (47, 2.14378190040588378906e+00) (48, 1.13351297378540039062e+01) (49, 9.97158432006835937500e+00) (50, 1.50000000000000000000e+03) (51, 3.56567215919494628906e+00) (52, -1.61082184314727783203e+00) (53, 1.29605770111083984375e+00) (54, -1.38955411911010742188e+01) (55, 7.00082635879516601562e+00) (56, -5.90268373489379882812e+00) (57, -9.53774833679199218750e+00) (58, -3.03815340995788574219e+00) (59, 1.50000000000000000000e+03) (60, 5.32647466659545898438e+00) (61, -1.49854719638824462891e-02) (62, 3.40952658653259277344e+00) (63, 2.20700234174728393555e-01) (31, -7.59422063827514648438e+00) (32, 1.80276155471801757812e+00) (33, 1.50000000000000000000e+03) (34, 8.94804954528808593750e-01) (35, 5.33478297293186187744e-02) (36, 1.55076014995574951172e+00) (37, 2.07949399948120117188e+00) (38, 6.97893190383911132812e+00) (39, 1.50000000000000000000e+03) (40, 1.50000000000000000000e+03) (41, -9.09603595733642578125e+00) (42, 2.21937680244445800781e+00) (43, 1.50000000000000000000e+03) (44, 1.50000000000000000000e+03) (45, 4.07313489913940429688e+00) (46, 5.61055898666381835938e+00) (47, 3.48675155639648437500e+00) (48, 9.70389366149902343750e+00) (49, 1.07152872085571289062e+01) (50, 1.50000000000000000000e+03) (51, 1.83609938621520996094e+00) (52, -3.18465638160705566406e+00) (53, 7.62056469917297363281e-01) (54, -6.10006904602050781250e+00) (55, 1.76217705011367797852e-01) (56, -3.19740033149719238281e+00) (57, -9.99449825286865234375e+00) (58, -3.48214340209960937500e+00) (59, 1.50000000000000000000e+03) (60, 3.30383777618408203125e+00) (61, -5.52919387817382812500e+00) (62, 1.99128425121307373047e+00) (63, 1.85571908950805664062e-02) (31, 6.12668371200561523438e+00) (32, 3.76439166069030761719e+00) (33, 1.50000000000000000000e+03) (34, 2.75938053131103515625e+01) (35, 5.83936834335327148438e+00) (36, -5.98073911666870117188e+00) (37, 5.82065629959106445312e+00) (38, 8.77632331848144531250e+00) (39, 1.50000000000000000000e+03) (40, 1.50000000000000000000e+03) (41, -1.00395860671997070312e+01) (42, 4.27773714065551757812e+00) (43, 1.50000000000000000000e+03) (44, 1.50000000000000000000e+03) (45, 1.32321643829345703125e+01) (46, 1.19250640869140625000e+01) (47, -4.37187314033508300781e-01) (48, 1.34175262451171875000e+01) (49, 5.56231451034545898438e+00) (50, 1.50000000000000000000e+03) (51, 3.21361780166625976562e-01) (52, -7.26378440856933593750e+00) (53, -6.84702157974243164062e-01) (54, -1.09470758438110351562e+01) (55, -2.06996068358421325684e-01) (56, 5.68730942904949188232e-02) (57, -2.18041610717773437500e+01) (58, -2.49166399240493774414e-01) (59, 1.50000000000000000000e+03) (60, -7.82624626159667968750e+00) (61, -8.33764266967773437500e+00) (62, -9.45850074291229248047e-01) (63, -1.29212722182273864746e-01) 
