FANN_FLO_2.1
num_layers=3
learning_rate=0.700000
connection_rate=1.000000
network_type=0
learning_momentum=0.000000
training_algorithm=2
train_error_function=1
train_stop_function=0
cascade_output_change_fraction=0.010000
quickprop_decay=-0.000100
quickprop_mu=1.750000
rprop_increase_factor=1.200000
rprop_decrease_factor=0.500000
rprop_delta_min=0.000000
rprop_delta_max=50.000000
rprop_delta_zero=0.100000
cascade_output_stagnation_epochs=12
cascade_candidate_change_fraction=0.010000
cascade_candidate_stagnation_epochs=12
cascade_max_out_epochs=150
cascade_min_out_epochs=50
cascade_max_cand_epochs=150
cascade_min_cand_epochs=50
cascade_num_candidate_groups=2
bit_fail_limit=3.49999994039535522461e-01
cascade_candidate_limit=1.00000000000000000000e+03
cascade_weight_multiplier=4.00000005960464477539e-01
cascade_activation_functions_count=10
cascade_activation_functions=3 5 7 8 10 11 14 15 16 17 
cascade_activation_steepnesses_count=4
cascade_activation_steepnesses=2.50000000000000000000e-01 5.00000000000000000000e-01 7.50000000000000000000e-01 1.00000000000000000000e+00 
layer_sizes=31 5 55 
scale_included=0
neurons (num_inputs, activation_function, activation_steepness)=(0, 0, 0.00000000000000000000e+00) (0, 0, 0.00000000000000000000e+00) (0, 0, 0.00000000000000000000e+00) (0, 0, 0.00000000000000000000e+00) (0, 0, 0.00000000000000000000e+00) (0, 0, 0.00000000000000000000e+00) (0, 0, 0.00000000000000000000e+00) (0, 0, 0.00000000000000000000e+00) (0, 0, 0.00000000000000000000e+00) (0, 0, 0.00000000000000000000e+00) (0, 0, 0.00000000000000000000e+00) (0, 0, 0.00000000000000000000e+00) (0, 0, 0.00000000000000000000e+00) (0, 0, 0.00000000000000000000e+00) (0, 0, 0.00000000000000000000e+00) (0, 0, 0.00000000000000000000e+00) (0, 0, 0.00000000000000000000e+00) (0, 0, 0.00000000000000000000e+00) (0, 0, 0.00000000000000000000e+00) (0, 0, 0.00000000000000000000e+00) (0, 0, 0.00000000000000000000e+00) (0, 0, 0.00000000000000000000e+00) (0, 0, 0.00000000000000000000e+00) (0, 0, 0.00000000000000000000e+00) (0, 0, 0.00000000000000000000e+00) (0, 0, 0.00000000000000000000e+00) (0, 0, 0.00000000000000000000e+00) (0, 0, 0.00000000000000000000e+00) (0, 0, 0.00000000000000000000e+00) (0, 0, 0.00000000000000000000e+00) (0, 0, 0.00000000000000000000e+00) (31, 4, 5.00000000000000000000e-01) (31, 4, 5.00000000000000000000e-01) (31, 4, 5.00000000000000000000e-01) (31, 4, 5.00000000000000000000e-01) (0, 0, 0.00000000000000000000e+00) (5, 4, 2.00000002980232238770e-01) (5, 4, 2.00000002980232238770e-01) (5, 4, 2.00000002980232238770e-01) (5, 4, 2.00000002980232238770e-01) (5, 4, 2.00000002980232238770e-01) (5, 4, 2.00000002980232238770e-01) (5, 4, 2.00000002980232238770e-01) (5, 4, 2.00000002980232238770e-01) (5, 4, 2.00000002980232238770e-01) (5, 4, 2.00000002980232238770e-01) (5, 4, 2.00000002980232238770e-01) (5, 4, 2.00000002980232238770e-01) (5, 4, 2.00000002980232238770e-01) (5, 4, 2.00000002980232238770e-01) (5, 4, 2.00000002980232238770e-01) (5, 4, 2.00000002980232238770e-01) (5, 4, 2.00000002980232238770e-01) (5, 4, 2.00000002980232238770e-01) (5, 4, 2.00000002980232238770e-01) (5, 4, 2.00000002980232238770e-01) (5, 4, 2.00000002980232238770e-01) (5, 4, 2.00000002980232238770e-01) (5, 4, 2.00000002980232238770e-01) (5, 4, 2.00000002980232238770e-01) (5, 4, 2.00000002980232238770e-01) (5, 4, 2.00000002980232238770e-01) (5, 4, 2.00000002980232238770e-01) (5, 4, 2.00000002980232238770e-01) (5, 4, 2.00000002980232238770e-01) (5, 4, 2.00000002980232238770e-01) (5, 4, 2.00000002980232238770e-01) (5, 4, 2.00000002980232238770e-01) (5, 4, 2.00000002980232238770e-01) (5, 4, 2.00000002980232238770e-01) (5, 4, 2.00000002980232238770e-01) (5, 4, 2.00000002980232238770e-01) (5, 4, 2.00000002980232238770e-01) (5, 4, 2.00000002980232238770e-01) (5, 4, 2.00000002980232238770e-01) (5, 4, 2.00000002980232238770e-01) (5, 4, 2.00000002980232238770e-01) (5, 4, 2.00000002980232238770e-01) (5, 4, 2.00000002980232238770e-01) (5, 4, 2.00000002980232238770e-01) (5, 4, 2.00000002980232238770e-01) (5, 4, 2.00000002980232238770e-01) (5, 4, 2.00000002980232238770e-01) (5, 4, 2.00000002980232238770e-01) (5, 4, 2.00000002980232238770e-01) (5, 4, 2.00000002980232238770e-01) (5, 4, 2.00000002980232238770e-01) (5, 4, 2.00000002980232238770e-01) (5, 4, 2.00000002980232238770e-01) (5, 4, 2.00000002980232238770e-01) (0, 0, 2.00000002980232238770e-01) 
connections (connected_to_neuron, weight)=(0, -1.41187725067138671875e+01) (1, 2.32413792610168457031e+00) (2, 1.55467243194580078125e+01) (3, 1.62404918670654296875e+01) (4, -6.07674598693847656250e+00) (5, 6.26790761947631835938e+00) (6, -5.63944673538208007812e+00) (7, -7.45459437370300292969e-01) (8, -2.00738787651062011719e-01) (9, -1.07875423431396484375e+01) (10, -1.26319131851196289062e+01) (11, -9.37924385070800781250e-01) (12, -1.35384273529052734375e+00) (13, 5.35962390899658203125e+00) (14, 1.02332715988159179688e+01) (15, 8.69749641418457031250e+00) (16, -1.26463603973388671875e+01) (17, -9.41959571838378906250e+00) (18, 1.25701971054077148438e+01) (19, 5.24746358394622802734e-01) (20, -7.81432056427001953125e+00) (21, -1.01997174322605133057e-01) (22, -4.18722105026245117188e+00) (23, -5.74972915649414062500e+00) (24, -4.22365236282348632812e+00) (25, -7.60092163085937500000e+00) (26, 1.48096227645874023438e+01) (27, 5.51355028152465820312e+00) (28, 8.40178966522216796875e+00) (29, -3.71876049041748046875e+00) (30, 1.11894118785858154297e+00) (0, 2.23321323394775390625e+01) (1, -3.62431466579437255859e-01) (2, -1.24745311737060546875e+01) (3, 2.98801445960998535156e+00) (4, -7.61968326568603515625e+00) (5, -1.17321336269378662109e+00) (6, 1.07153139114379882812e+01) (7, 5.95135688781738281250e+00) (8, -3.41818714141845703125e+00) (9, 9.81215000152587890625e+00) (10, 2.62942981719970703125e+00) (11, 8.97811317443847656250e+00) (12, -2.67141246795654296875e+00) (13, 7.72427225112915039062e+00) (14, -3.71201872825622558594e+00) (15, -1.29262609481811523438e+01) (16, -6.03866004943847656250e+00) (17, -4.18260431289672851562e+00) (18, -7.16906642913818359375e+00) (19, 2.52450218200683593750e+01) (20, 8.37397956848144531250e+00) (21, 1.75417175292968750000e+01) (22, -1.35387220382690429688e+01) (23, -1.00605945587158203125e+01) (24, 3.31839179992675781250e+00) (25, -7.26309490203857421875e+00) (26, 1.19173431396484375000e+01) (27, -1.18415200710296630859e+00) (28, 1.16653060913085937500e+00) (29, -5.24661016464233398438e+00) (30, -1.11160516738891601562e+01) (0, -1.52942848205566406250e+01) (1, -6.86378300189971923828e-01) (2, 1.78581943511962890625e+01) (3, 5.12933206558227539062e+00) (4, -2.39858984947204589844e+00) (5, -2.24548473358154296875e+01) (6, 6.77723121643066406250e+00) (7, -1.97094511985778808594e+00) (8, -1.38985669612884521484e+00) (9, -4.03432464599609375000e+00) (10, 3.37615852355957031250e+01) (11, 3.92281270027160644531e+00) (12, -6.07441329956054687500e+00) (13, -2.32216238975524902344e+00) (14, -5.02295017242431640625e+00) (15, -1.81045484542846679688e+00) (16, -1.81532621383666992188e+00) (17, 2.84870314598083496094e+00) (18, 1.42268860340118408203e+00) (19, 1.20612668991088867188e+01) (20, -5.22591304779052734375e+00) (21, 2.90351915359497070312e+00) (22, -1.31774673461914062500e+01) (23, -6.76653385162353515625e-01) (24, 3.71560549736022949219e+00) (25, 3.06261253356933593750e+00) (26, 2.85608196258544921875e+00) (27, -4.16413354873657226562e+00) (28, -7.58309745788574218750e+00) (29, 6.28910827636718750000e+00) (30, -3.21545910835266113281e+00) (0, 1.98602638244628906250e+01) (1, -1.71455879211425781250e+01) (2, -1.55962061882019042969e+00) (3, -1.50160884857177734375e+00) (4, 2.56976515054702758789e-01) (5, 2.68690490722656250000e+00) (6, -2.27941417694091796875e+01) (7, 7.37920761108398437500e+00) (8, 4.63754802942276000977e-01) (9, 2.09983992576599121094e+00) (10, 8.05156588554382324219e-01) (11, -1.51357436180114746094e+00) (12, 3.02533197402954101562e+00) (13, 8.53510570526123046875e+00) (14, 1.01573951542377471924e-01) (15, 2.20331454277038574219e+00) (16, -3.22973608970642089844e+00) (17, 3.34700393676757812500e+00) (18, 5.21523094177246093750e+00) (19, -6.14352226257324218750e-01) (20, 1.23917829990386962891e+00) (21, -1.55630528926849365234e-01) (22, -1.45172233581542968750e+01) (23, -1.10842170715332031250e+01) (24, -4.38765525817871093750e+00) (25, 9.37446022033691406250e+00) (26, 8.40511512756347656250e+00) (27, -4.45665788650512695312e+00) (28, 1.06190567016601562500e+01) (29, -3.86631798744201660156e+00) (30, -5.04371452331542968750e+00) (31, -4.65752525329589843750e+01) (32, -6.48891143798828125000e+01) (33, 2.21853885650634765625e+01) (34, -7.29316253662109375000e+01) (35, 4.55750312805175781250e+01) (31, -4.60003509521484375000e+01) (32, -6.14882240295410156250e+01) (33, 1.91193275451660156250e+01) (34, -6.75968780517578125000e+01) (35, 4.47332687377929687500e+01) (31, -4.54004440307617187500e+01) (32, -5.81220436096191406250e+01) (33, 1.60924587249755859375e+01) (34, -6.22604713439941406250e+01) (35, 4.38861923217773437500e+01) (31, 9.06125545501708984375e+00) (32, 2.03025512695312500000e+02) (33, -1.23134353637695312500e+02) (34, 2.60839050292968750000e+02) (35, -3.38309707641601562500e+01) (31, 9.45522308349609375000e+00) (32, 1.94407958984375000000e+02) (33, -1.21061805725097656250e+02) (34, 2.42130065917968750000e+02) (35, -3.18384571075439453125e+01) (31, 1.16156587600708007812e+01) (32, 1.83656738281250000000e+02) (33, -1.20315193176269531250e+02) (34, 2.23532241821289062500e+02) (35, -3.11516780853271484375e+01) (31, -3.21696434020996093750e+01) (32, -5.09781875610351562500e+01) (33, 2.03978576660156250000e+01) (34, -6.15504646301269531250e+01) (35, 3.22288627624511718750e+01) (31, -3.24095039367675781250e+01) (32, -6.26480598449707031250e+01) (33, 2.89839553833007812500e+01) (34, -3.57190666198730468750e+01) (35, 3.19335155487060546875e+01) (31, -2.96483898162841796875e+01) (32, -5.16798362731933593750e+01) (33, 2.06785259246826171875e+01) (34, -3.16798400878906250000e+01) (35, 2.89418163299560546875e+01) (31, 1.85107593536376953125e+01) (32, 3.36328744888305664062e+00) (33, 2.32775249481201171875e+01) (34, 3.26217407226562500000e+02) (35, -2.99161167144775390625e+01) (31, 2.29995613098144531250e+01) (32, -2.92400527000427246094e+00) (33, 2.62727565765380859375e+01) (34, 3.71244018554687500000e+02) (35, -3.45938682556152343750e+01) (31, 2.69552326202392578125e+01) (32, -5.50526237487792968750e+00) (33, 2.07019462585449218750e+01) (34, 3.87833862304687500000e+02) (35, -3.75960731506347656250e+01) (31, -1.43802194595336914062e+01) (32, -5.06306695938110351562e+00) (33, -3.74108862876892089844e+00) (34, -6.25767631530761718750e+01) (35, 1.71984214782714843750e+01) (31, -2.21037349700927734375e+01) (32, -1.01475534439086914062e+01) (33, -6.40223121643066406250e+00) (34, -2.55794506072998046875e+01) (35, 2.50033645629882812500e+01) (31, -4.72661226987838745117e-01) (32, -1.01264114379882812500e+01) (33, -5.56536340713500976562e+00) (34, -8.50741424560546875000e+01) (35, 4.90520477294921875000e+00) (31, -4.79767799377441406250e+01) (32, -8.47322654724121093750e+00) (33, -1.17002830505371093750e+01) (34, 9.07421493530273437500e+01) (35, 4.40927619934082031250e+01) (31, -1.56565732955932617188e+01) (32, -9.27996063232421875000e+00) (33, -2.22340321540832519531e+00) (34, 1.57002058029174804688e+01) (35, 1.55425577163696289062e+01) (31, -1.20944738388061523438e+01) (32, -4.69125211238861083984e-01) (33, -6.27548694610595703125e+00) (34, 2.52036142349243164062e+00) (35, 8.91650009155273437500e+00) (31, -3.68895459175109863281e+00) (32, 1.23396003246307373047e+00) (33, -6.47167786955833435059e-02) (34, -2.01462554931640625000e+01) (35, 2.09054636955261230469e+00) (31, -1.27577304840087890625e+01) (32, -7.10473442077636718750e+00) (33, -1.97115731239318847656e+00) (34, 1.50477981567382812500e+01) (35, 1.21284952163696289062e+01) (31, -2.01595764160156250000e+01) (32, -1.67723274230957031250e+01) (33, -8.70185279846191406250e+00) (34, 1.75349845886230468750e+01) (35, 2.27706832885742187500e+01) (31, -1.87871761322021484375e+01) (32, -9.80885791778564453125e+00) (33, -3.85200071334838867188e+00) (34, -1.78080501556396484375e+01) (35, 2.14397125244140625000e+01) (31, -1.33532934188842773438e+01) (32, -2.91540718078613281250e+00) (33, -3.79728817939758300781e+00) (34, -6.47965049743652343750e+00) (35, 1.25951490402221679688e+01) (31, -3.88928718566894531250e+01) (32, -1.30895748138427734375e+01) (33, -1.81772918701171875000e+01) (34, 2.65747547149658203125e+01) (35, 3.96982765197753906250e+01) (31, -4.91436719894409179688e+00) (32, -1.03480982780456542969e+00) (33, 1.16028651595115661621e-01) (34, 5.93191528320312500000e+00) (35, 3.65212106704711914062e+00) (31, -1.59955511093139648438e+01) (32, -6.27373743057250976562e+00) (33, -6.49555206298828125000e+00) (34, -2.13830256462097167969e+00) (35, 1.73970298767089843750e+01) (31, -2.13259315490722656250e+01) (32, -1.03132343292236328125e+01) (33, -1.10373525619506835938e+01) (34, 1.28292350769042968750e+01) (35, 2.29081058502197265625e+01) (31, 2.75963649749755859375e+01) (32, -1.11460742950439453125e+01) (33, 2.95377597808837890625e+01) (34, 1.65628677368164062500e+02) (35, -3.19528751373291015625e+01) (31, 2.72166423797607421875e+01) (32, -1.46480798721313476562e+01) (33, 2.88336067199707031250e+01) (34, 1.95230224609375000000e+02) (35, -3.17104892730712890625e+01) (31, 2.89408969879150390625e+01) (32, -1.97394351959228515625e+01) (33, 2.83222675323486328125e+01) (34, 2.65803039550781250000e+02) (35, -3.47486686706542968750e+01) (31, -1.06411151885986328125e+01) (32, -1.08534350991249084473e-01) (33, -1.96417663246393203735e-02) (34, -8.85568904876708984375e+00) (35, 6.69280147552490234375e+00) (31, -1.09567222595214843750e+01) (32, -5.01092672348022460938e-01) (33, -1.39088487625122070312e+00) (34, 1.94704425334930419922e+00) (35, 6.86467695236206054688e+00) (31, -1.11563777923583984375e+01) (32, 2.63065248727798461914e-01) (33, -4.88187885284423828125e+00) (34, 1.16195163726806640625e+01) (35, 7.13406181335449218750e+00) (31, -4.11539611816406250000e+01) (32, -3.39296627044677734375e+00) (33, -1.69343223571777343750e+01) (34, 8.11182632446289062500e+01) (35, 3.98888206481933593750e+01) (31, -8.05612373352050781250e+00) (32, 1.12496786117553710938e+01) (33, -9.36059379577636718750e+00) (34, 3.33210144042968750000e+01) (35, 3.11808419227600097656e+00) (31, -1.14135437011718750000e+01) (32, 7.71347951889038085938e+00) (33, -1.35186023712158203125e+01) (34, 3.51374092102050781250e+01) (35, 7.28703689575195312500e+00) (31, -1.67280254364013671875e+01) (32, 8.41493988037109375000e+00) (33, -1.39180908203125000000e+01) (34, -5.41582679748535156250e+01) (35, 1.87454586029052734375e+01) (31, -2.80081748962402343750e+01) (32, 9.70334887504577636719e-01) (33, -1.48101062774658203125e+01) (34, 1.98690948486328125000e+01) (35, 2.86336994171142578125e+01) (31, -4.21398639678955078125e+00) (32, 9.00964546203613281250e+00) (33, -9.89195823669433593750e+00) (34, 2.74876537322998046875e+01) (35, 5.71435630321502685547e-01) (31, -8.07807769775390625000e+01) (32, 9.69888973236083984375e+00) (33, -3.46373672485351562500e+01) (34, 1.55819168090820312500e+02) (35, 7.28077621459960937500e+01) (31, -2.62428188323974609375e+01) (32, 4.94892597198486328125e+00) (33, -1.52734155654907226562e+01) (34, 3.59901504516601562500e+01) (35, 2.51318016052246093750e+01) (31, -6.61423254013061523438e+00) (32, 1.25070075988769531250e+01) (33, -1.36466236114501953125e+01) (34, 6.09415864944458007812e+00) (35, 3.68738889694213867188e+00) (31, 3.03227543830871582031e-01) (32, 1.20476541519165039062e+01) (33, -5.86909866333007812500e+00) (34, -6.61443948745727539062e+00) (35, -1.99414861202239990234e+00) (31, -1.84937458038330078125e+01) (32, 7.20974349975585937500e+00) (33, -1.19522447586059570312e+01) (34, 4.64936180114746093750e+01) (35, 1.58755836486816406250e+01) (31, -1.55839757919311523438e+01) (32, -5.64725875854492187500e+00) (33, -1.44734888076782226562e+01) (34, 2.20878353118896484375e+01) (35, 1.83889198303222656250e+01) (31, -1.45065841674804687500e+01) (32, 6.55376434326171875000e+00) (33, -1.14551820755004882812e+01) (34, 5.53770017623901367188e+00) (35, 1.49073057174682617188e+01) (31, -1.05930099487304687500e+01) (32, 1.35575551986694335938e+01) (33, -1.19297933578491210938e+01) (34, 1.91309051513671875000e+01) (35, 7.27534008026123046875e+00) (31, -4.17293930053710937500e+01) (32, 2.91751241683959960938e+00) (33, -2.87998027801513671875e+01) (34, 5.91359024047851562500e+01) (35, 3.98202819824218750000e+01) (31, -1.59641385078430175781e+00) (32, 1.26258764266967773438e+01) (33, -8.87879562377929687500e+00) (34, 1.67923278808593750000e+01) (35, -4.64274168014526367188e-01) (31, -1.87507781982421875000e+01) (32, 7.13438129425048828125e+00) (33, -1.88171081542968750000e+01) (34, 1.30374383926391601562e+01) (35, 1.96939086914062500000e+01) (31, -2.72536792755126953125e+01) (32, -2.12978529930114746094e+00) (33, -2.53263053894042968750e+01) (34, 2.95710430145263671875e+01) (35, 2.96431865692138671875e+01) (31, 1.85044307708740234375e+01) (32, 3.37331390380859375000e+00) (33, 2.32839641571044921875e+01) (34, 3.26215820312500000000e+02) (35, -2.99154548645019531250e+01) (31, 2.29904747009277343750e+01) (32, -2.91341018676757812500e+00) (33, 2.62660923004150390625e+01) (34, 3.71304351806640625000e+02) (35, -3.45896415710449218750e+01) (31, 2.69566841125488281250e+01) (32, -5.52973651885986328125e+00) (33, 2.07195072174072265625e+01) (34, 3.87812957763671875000e+02) (35, -3.75945129394531250000e+01) 
